{"learner":{"attributes":{"scikit_learn":"{\"_estimator_type\": \"regressor\"}"},"feature_names":["yield_lag_1","yield_lag_2","yield_lag_3","yield_rolling_3y","yield_rolling_5y","yield_mt_ha_yoy_pct","area_ha","area_lag_1","area_ha_yoy_pct","avg_temp_max_c","avg_temp_min_c","total_precip_mm","avg_et0_mm","growing_season_temp_max_c","growing_season_temp_min_c","growing_season_precip_mm","avg_temp_max_c_anomaly","total_precip_mm_anomaly","growing_season_temp_max_c_anomaly","growing_season_precip_mm_anomaly","years_since_2000","crop_year_rank","country_encoded"],"feature_types":["float","float","float","float","float","float","float","float","float","float","float","float","float","float","float","float","float","float","float","float","int","float","int"],"gradient_booster":{"model":{"cats":{"enc":[],"feature_segments":[],"sorted_idx":[]},"gbtree_model_param":{"num_parallel_tree":"1","num_trees":"190"},"iteration_indptr":[0,1,2,3,4,5,6,7,8,9,10,11,12,13,14,15,16,17,18,19,20,21,22,23,24,25,26,27,28,29,30,31,32,33,34,35,36,37,38,39,40,41,42,43,44,45,46,47,48,49,50,51,52,53,54,55,56,57,58,59,60,61,62,63,64,65,66,67,68,69,70,71,72,73,74,75,76,77,78,79,80,81,82,83,84,85,86,87,88,89,90,91,92,93,94,95,96,97,98,99,100,101,102,103,104,105,106,107,108,109,110,111,112,113,114,115,116,117,118,119,120,121,122,123,124,125,126,127,128,129,130,131,132,133,134,135,136,137,138,139,140,141,142,143,144,145,146,147,148,149,150,151,152,153,154,155,156,157,158,159,160,161,162,163,164,165,166,167,168,169,170,171,172,173,174,175,176,177,178,179,180,181,182,183,184,185,186,187,188,189,190],"tree_info":[0,0,0,0,0,0,0,0,0,0,0,0,0,0,0,0,0,0,0,0,0,0,0,0,0,0,0,0,0,0,0,0,0,0,0,0,0,0,0,0,0,0,0,0,0,0,0,0,0,0,0,0,0,0,0,0,0,0,0,0,0,0,0,0,0,0,0,0,0,0,0,0,0,0,0,0,0,0,0,0,0,0,0,0,0,0,0,0,0,0,0,0,0,0,0,0,0,0,0,0,0,0,0,0,0,0,0,0,0,0,0,0,0,0,0,0,0,0,0,0,0,0,0,0,0,0,0,0,0,0,0,0,0,0,0,0,0,0,0,0,0,0,0,0,0,0,0,0,0,0,0,0,0,0,0,0,0,0,0,0,0,0,0,0,0,0,0,0,0,0,0,0,0,0,0,0,0,0,0,0,0,0,0,0,0,0,0,0,0,0],"trees":[{"base_weights":[1.3066069E0,7.006642E1,-5.53481E0,8.166184E1,7.706358E0,-1.7656637E1,1.2644453E1,1.8104681E1,1.0483328E1,-3.68175E1,-1.1496976E1,5.4487276E0,1.968003E1,-8.5454855E0,-5.897214E0,-1.789078E1,-8.116859E0,2.6542368E0,8.988995E0,1.3275061E1,2.3123728E1,-1.895115E1,-2.4558415E0,-9.3965645E0,3.9289777E0,3.640297E-1,6.6283765E0,7.06412E-1,1.1482657E1,3.2569568E0,9.228317E0,2.4992557E0,4.99729E0,-4.619742E0,-3.3004136E0,-1.026533E1,2.2923867E-1,7.46489E0,9.050975E-1,-1.4837832E0,1.2408934E0,1.5794566E0,8.80344E-1,2.460069E0,8.3528316E-1,9.2392695E-1,2.2178786E0,-2.8652492E0,-1.6125809E0,-6.0190463E-1,1.5779335E0,1.8510801E0,7.1989995E-1,3.3382916E-1,-1.23776555E-1,5.1846033E-1,4.3241348E-2],"categories":[],"categories_nodes":[],"categories_segments":[],"categories_sizes":[],"default_left":[0,0,0,0,0,0,0,0,0,0,0,0,0,0,0,0,0,0,0,0,0,0,0,0,0,0,0,0,0,0,0,0,0,0,0,0,0,0,0,0,0,0,0,0,0,0,0,0,0,0,0,0,0,0,0,0,0],"id":0,"left_children":[1,3,5,7,-1,9,11,-1,-1,13,15,17,19,-1,-1,21,23,25,27,29,31,33,-1,35,37,39,41,-1,43,-1,45,-1,-1,-1,-1,47,49,51,53,-1,55,-1,-1,-1,-1,-1,-1,-1,-1,-1,-1,-1,-1,-1,-1,-1,-1],"loss_changes":[9.070488E4,5.1417812E3,3.8762934E4,6.449453E2,0E0,1.2255289E4,3.5182217E3,0E0,0E0,4.8039062E2,1.6732998E3,3.3989697E2,6.439453E2,0E0,0E0,6.7421875E1,8.4051025E2,1.8496619E2,1.9480188E2,8.0791504E1,2.0448926E2,6.516211E1,0E0,4.0629883E2,5.5148407E1,9.412606E1,4.1596985E0,0E0,2.2916016E1,0E0,2.7784058E1,0E0,0E0,0E0,0E0,3.4666846E2,1.1662138E2,1.0722809E0,4.2758555E0,0E0,1.641462E1,0E0,0E0,0E0,0E0,0E0,0E0,0E0,0E0,0E0,0E0,0E0,0E0,0E0,0E0,0E0,0E0],"parents":[2147483647,0,0,1,1,2,2,3,3,5,5,6,6,9,9,10,10,11,11,12,12,15,15,16,16,17,17,18,18,19,19,20,20,21,21,23,23,24,24,25,25,26,26,28,28,30,30,35,35,36,36,37,37,38,38,40,40],"right_children":[2,4,6,8,-1,10,12,-1,-1,14,16,18,20,-1,-1,22,24,26,28,30,32,34,-1,36,38,40,42,-1,44,-1,46,-1,-1,-1,-1,48,50,52,54,-1,56,-1,-1,-1,-1,-1,-1,-1,-1,-1,-1,-1,-1,-1,-1,-1,-1],"split_conditions":[1.989E1,6.111E6,6.19355E1,1.2E-1,7.706358E0,3.57195E1,7.44642E1,1.8104681E1,1.0483328E1,2.95816E1,4.78467E1,1E-1,1.5644E7,-8.5454855E0,-5.897214E0,1.423E1,1.125E1,6.92397E1,6.64865E1,1.47E-1,-1.138E1,4.25841E1,-2.4558415E0,2.847E1,9.1E-2,5.01298E1,7.29044E1,7.06412E-1,7.31384E1,3.2569568E0,7.84166E1,2.4992557E0,4.99729E0,-4.619742E0,-3.3004136E0,8E0,6.3838E7,4.97016E1,5.35002E1,-1.4837832E0,2.198E1,1.5794566E0,8.80344E-1,2.460069E0,8.3528316E-1,9.2392695E-1,2.2178786E0,-2.8652492E0,-1.6125809E0,-6.0190463E-1,1.5779335E0,1.8510801E0,7.1989995E-1,3.3382916E-1,-1.23776555E-1,5.1846033E-1,4.3241348E-2],"split_indices":[9,6,0,17,0,0,3,0,0,0,0,5,7,0,0,5,5,3,0,17,5,0,0,13,16,1,2,0,4,0,3,0,0,0,0,20,6,0,0,0,9,0,0,0,0,0,0,0,0,0,0,0,0,0,0,0,0],"split_type":[0,0,0,0,0,0,0,0,0,0,0,0,0,0,0,0,0,0,0,0,0,0,0,0,0,0,0,0,0,0,0,0,0,0,0,0,0,0,0,0,0,0,0,0,0,0,0,0,0,0,0,0,0,0,0,0,0],"sum_hessian":[1.92E2,1.7E1,1.75E2,1.2E1,5E0,1.05E2,7E1,9E0,3E0,2.5E1,8E1,3.5E1,3.5E1,1.4E1,1.1E1,2.7E1,5.3E1,2E1,1.5E1,1.3E1,2.2E1,2.2E1,5E0,4.8E1,5E0,1.3E1,7E0,5E0,1E1,7E0,6E0,3E0,1.9E1,8E0,1.4E1,4.4E1,4E0,2E0,3E0,1E0,1.2E1,4E0,3E0,9E0,1E0,2E0,4E0,1.6E1,2.8E1,3E0,1E0,1E0,1E0,2E0,1E0,5E0,7E0],"tree_param":{"num_deleted":"0","num_feature":"23","num_nodes":"57","size_leaf_vector":"1"}},{"base_weights":[9.0084285E-1,-6.61106E0,3.2983387E1,-2.0146305E1,1.4887495E-1,5.26005E1,1.9078909E1,-6.4844337E0,-1.5273929E1,-5.058154E0,6.6149125E0,4.1661158E0,1.10703335E1,2.3147812E0,2.1748291E1,-3.7074661E0,-1.2594218E1,6.3260417E0,-5.960141E0,2.7880878E0,9.850499E0,1.6267785E0,4.576709E0,-2.8557148E0,-1.8913848E0,-7.0957155E0,5.043436E0,4.984552E0,6.735195E-1,7.328096E0,1.3506429E1,-7.9984846E0,-3.781866E-1,1.6420673E0,2.246374E0,6.453897E-1,7.116079E0,-1.3676753E0,1.8532591E0,7.757453E-1,7.724405E0,1.4787625E0,3.006029E0,-1.8515903E0,-1.9774227E-1,-9.2187417E-1,1.4711658E0,1.1205322E-1,5.778725E-1,1.7648429E0,2.5185493E-1,-4.2138547E-1,-8.437258E-2,9.421447E-2,4.737533E-1,5.736516E-1,1.6341038E0],"categories":[],"categories_nodes":[],"categories_segments":[],"categories_sizes":[],"default_left":[0,0,0,0,0,0,0,0,0,0,0,0,0,0,0,0,0,0,0,0,0,0,0,0,0,0,0,0,0,0,0,0,0,0,0,0,0,0,0,0,0,0,0,0,0,0,0,0,0,0,0,0,0,0,0,0,0],"id":1,"left_children":[1,3,5,7,9,11,13,-1,15,17,19,-1,-1,-1,21,-1,23,-1,25,27,29,-1,-1,-1,-1,31,33,35,37,39,41,43,45,-1,47,-1,49,51,53,-1,55,-1,-1,-1,-1,-1,-1,-1,-1,-1,-1,-1,-1,-1,-1,-1,-1],"loss_changes":[4.5032188E4,1.3858643E4,9.21857E3,2.649248E3,3.4306572E3,2.961797E2,3.3114795E2,0E0,1.8170898E2,1.9203892E3,5.5031506E2,0E0,0E0,0E0,6.9265625E1,0E0,3.7486084E1,0E0,7.089071E2,9.8061264E1,1.8089844E2,0E0,0E0,0E0,0E0,3.0450464E2,3.7700302E1,3.0301819E1,2.870886E1,8.2821045E0,2.5139404E1,3.3499146E2,2.1759482E2,0E0,2.7141342E0,0E0,3.545195E1,2.5618076E0,4.3722515E0,0E0,9.093689E0,0E0,0E0,0E0,0E0,0E0,0E0,0E0,0E0,0E0,0E0,0E0,0E0,0E0,0E0,0E0,0E0],"parents":[2147483647,0,0,1,1,2,2,3,3,4,4,5,5,6,6,8,8,9,9,10,10,14,14,16,16,18,18,19,19,20,20,25,25,26,26,27,27,28,28,29,29,30,30,31,31,32,32,34,34,36,36,37,37,38,38,40,40],"right_children":[2,4,6,8,10,12,14,-1,16,18,20,-1,-1,-1,22,-1,24,-1,26,28,30,-1,-1,-1,-1,32,34,36,38,40,42,44,46,-1,48,-1,50,52,54,-1,56,-1,-1,-1,-1,-1,-1,-1,-1,-1,-1,-1,-1,-1,-1,-1,-1],"split_conditions":[8.10124E1,4.94247E1,1.977E1,3.28363E1,6.2705E1,9.71661E1,8.31205E1,-6.4844337E0,4.12376E1,1.821E1,6.88093E1,4.1661158E0,1.10703335E1,2.3147812E0,-1.138E1,-3.7074661E0,6.01E0,6.3260417E0,1.688E1,-2.46E0,1.85E0,1.6267785E0,4.576709E0,-2.8557148E0,-1.8913848E0,6.402E2,5.01298E1,2.187E2,-2.56E0,-1.008E0,-7.58E-1,5.87515E1,2.153E1,1.6420673E0,4.11401E1,6.453897E-1,6.65649E1,1.3302E7,9.201E6,7.757453E-1,2.933E2,1.4787625E0,3.006029E0,-1.8515903E0,-1.9774227E-1,-9.2187417E-1,1.4711658E0,1.1205322E-1,5.778725E-1,1.7648429E0,2.5185493E-1,-4.2138547E-1,-8.437258E-2,9.421447E-2,4.737533E-1,5.736516E-1,1.6341038E0],"split_indices":[0,0,9,0,0,0,1,0,1,9,1,0,0,0,5,0,5,0,5,8,5,0,0,0,0,11,0,15,5,17,19,0,9,0,1,0,1,7,7,0,11,0,0,0,0,0,0,0,0,0,0,0,0,0,0,0,0],"split_type":[0,0,0,0,0,0,0,0,0,0,0,0,0,0,0,0,0,0,0,0,0,0,0,0,0,0,0,0,0,0,0,0,0,0,0,0,0,0,0,0,0,0,0,0,0,0,0,0,0,0,0,0,0,0,0,0,0],"sum_hessian":[1.86E2,1.51E2,3.5E1,5E1,1.01E2,1.4E1,2.1E1,1.4E1,3.6E1,5.6E1,4.5E1,1E0,1.3E1,6E0,1.5E1,1.6E1,2E1,1E0,5.5E1,2.1E1,2.4E1,1E0,1.4E1,1.3E1,7E0,5E1,5E0,1E1,1.1E1,1.5E1,9E0,4.4E1,6E0,2E0,3E0,6E0,4E0,4E0,7E0,2E0,1.3E1,2E0,7E0,3.8E1,6E0,4E0,2E0,1E0,2E0,3E0,1E0,2E0,2E0,2E0,5E0,1E0,1.2E1],"tree_param":{"num_deleted":"0","num_feature":"23","num_nodes":"57","size_leaf_vector":"1"}},{"base_weights":[1.0457238E0,-8.840815E0,1.8999002E1,-2.1672426E1,-5.1040072E0,1.2464698E1,5.0984043E1,-1.811349E1,-5.6812572E0,-7.699402E0,7.893074E-1,9.77406E0,1.9941103E1,1.0846525E1,4.211628E0,-3.7754745E0,-1.6020519E0,-8.387859E0,4.9682593E0,6.2156543E-2,1.6713326E0,8.343597E0,1.541642E1,1.8423741E0,4.3806477E0,-1.0188026E1,-5.069077E0,1.3686372E0,9.628215E-2,-2.266069E0,1.3984047E0,5.547003E0,9.478224E0,2.1243103E0,3.6145654E0,9.227972E-1,-1.0647681E1,-1.974029E0,-3.4016137E0,-8.8909876E-1,-3.668476E-1,-2.0077871E-1,1.7595209E0,5.882877E0,3.327849E-1,8.9174217E-1,2.0718162E0,-3.7734606E0,-1.9205747E0,-8.135182E-1,-1.341149E-1,3.7904543E-1,-3.8780993E-1,3.8152906E-1,3.3933416E-2,1.4040838E0,6.594728E-1],"categories":[],"categories_nodes":[],"categories_segments":[],"categories_sizes":[],"default_left":[0,0,0,0,0,0,0,0,0,0,0,0,0,0,0,0,0,0,0,0,0,0,0,0,0,0,0,0,0,0,0,0,0,0,0,0,0,0,0,0,0,0,0,0,0,0,0,0,0,0,0,0,0,0,0,0,0],"id":2,"left_children":[1,3,5,7,9,11,13,15,-1,17,19,21,23,-1,-1,-1,-1,25,27,29,-1,31,33,-1,-1,35,37,-1,-1,39,41,43,45,-1,-1,-1,47,-1,49,-1,51,-1,53,55,-1,-1,-1,-1,-1,-1,-1,-1,-1,-1,-1,-1,-1],"loss_changes":[3.1216707E4,5.3899307E3,1.2766244E4,3.3474707E2,1.3556453E3,9.6742676E2,2.1238086E2,7.6206055E0,0E0,5.546101E2,1.4759431E2,2.6051978E2,1.399082E2,0E0,0E0,0E0,0E0,3.2590234E2,2.5583221E1,8.058419E1,0E0,7.925708E1,3.076294E0,0E0,0E0,2.7495996E2,1.5017761E2,0E0,0E0,3.6846657E1,1.494075E1,9.362793E0,5.8516968E1,0E0,0E0,0E0,2.728506E2,0E0,2.5380661E1,0E0,2.021453E1,0E0,2.4247818E0,1.5068634E1,0E0,0E0,0E0,0E0,0E0,0E0,0E0,0E0,0E0,0E0,0E0,0E0,0E0],"parents":[2147483647,0,0,1,1,2,2,3,3,4,4,5,5,6,6,7,7,9,9,10,10,11,11,12,12,17,17,18,18,19,19,21,21,22,22,25,25,26,26,29,29,30,30,31,31,32,32,36,36,38,38,40,40,42,42,43,43],"right_children":[2,4,6,8,10,12,14,16,-1,18,20,22,24,-1,-1,-1,-1,26,28,30,-1,32,34,-1,-1,36,38,-1,-1,40,42,44,46,-1,-1,-1,48,-1,50,-1,52,-1,54,56,-1,-1,-1,-1,-1,-1,-1,-1,-1,-1,-1,-1,-1],"split_conditions":[6.88568E1,3.99331E1,1.200186E2,3.141E1,5.73742E1,8.77269E1,1.912E1,1.8E1,-5.6812572E0,1.758E1,7.63E0,7.32E0,-1.4E1,1.0846525E1,4.211628E0,-3.7754745E0,-1.6020519E0,1.3E1,5.01298E1,6.2705E1,1.6713326E0,7.51598E1,7.28227E1,1.8423741E0,4.3806477E0,1.397E1,5.07044E1,1.3686372E0,9.628215E-2,-2.27E0,-6.53E0,7.49056E1,-7.93E0,2.1243103E0,3.6145654E0,9.227972E-1,1E0,-1.974029E0,5.80505E1,-8.8909876E-1,5.98044E1,-2.0077871E-1,2.41E1,7.23572E1,3.327849E-1,8.9174217E-1,2.0718162E0,-3.7734606E0,-1.9205747E0,-8.135182E-1,-1.341149E-1,3.7904543E-1,-3.8780993E-1,3.8152906E-1,3.3933416E-2,1.4040838E0,6.594728E-1],"split_indices":[0,0,0,9,4,0,9,20,0,5,5,5,5,0,0,0,0,20,0,0,0,0,1,0,0,14,1,0,0,5,5,0,5,0,0,0,20,0,0,0,1,0,9,4,0,0,0,0,0,0,0,0,0,0,0,0,0],"split_type":[0,0,0,0,0,0,0,0,0,0,0,0,0,0,0,0,0,0,0,0,0,0,0,0,0,0,0,0,0,0,0,0,0,0,0,0,0,0,0,0,0,0,0,0,0,0,0,0,0,0,0,0,0,0,0,0,0],"sum_hessian":[1.75E2,1.13E2,6.2E1,2.5E1,8.8E1,5.2E1,1E1,1.7E1,8E0,6.1E1,2.7E1,3.9E1,1.3E1,9E0,1E0,1.6E1,1E0,5.8E1,3E0,2.5E1,2E0,3.2E1,7E0,2E0,1.1E1,3.7E1,2.1E1,2E0,1E0,9E0,1.6E1,1E1,2.2E1,3E0,4E0,1E0,3.6E1,5E0,1.6E1,4E0,5E0,2E0,1.4E1,9E0,1E0,3E0,1.9E1,4E0,3.2E1,1.3E1,3E0,2E0,3E0,1.3E1,1E0,6E0,3E0],"tree_param":{"num_deleted":"0","num_feature":"23","num_nodes":"57","size_leaf_vector":"1"}},{"base_weights":[1.0836178E0,4.1427025E1,-2.7091339E0,1.2548055E1,2.9150679E1,-9.843428E0,5.9746103E0,6.3394012E0,3.4817703E0,-6.088256E0,-2.0456516E1,1.540351E0,1.03371105E1,-1.0563801E1,-3.5068536E0,-2.7478921E0,-4.97009E0,-1.4246559E0,2.1102304E0,8.7323475E0,3.1352618E0,-2.9581487E0,-9.213685E0,-4.2762074E0,5.970949E0,9.189868E-1,5.3437676E0,5.836916E0,1.0861151E1,-9.415561E0,-7.713302E-1,-5.474768E0,-5.990332E-1,1.4635334E0,4.2249542E-1,4.281243E-1,1.1514181E0,1.4512984E0,5.3562856E-1,2.2469559E0,1.3800539E0,2.43687E0,1.6984019E0,-1.3183702E0,-2.0445435E0,-2.4919374E0,-1.031233E0,4.0996054E-1,-4.809443E-1,1.6351312E-1,-3.9779043E-1,5.2523994E-1,2.013106E-1],"categories":[],"categories_nodes":[],"categories_segments":[],"categories_sizes":[],"default_left":[0,0,0,0,0,0,0,0,0,0,0,0,0,0,0,0,0,0,0,0,0,0,0,0,0,0,0,0,0,0,0,0,0,0,0,0,0,0,0,0,0,0,0,0,0,0,0,0,0,0,0,0,0],"id":3,"left_children":[1,3,5,-1,7,9,11,-1,-1,13,15,17,19,21,23,-1,-1,-1,25,27,-1,-1,29,31,33,35,37,39,41,43,-1,45,47,-1,-1,49,-1,-1,-1,51,-1,-1,-1,-1,-1,-1,-1,-1,-1,-1,-1,-1,-1],"loss_changes":[2.7508488E4,3.012912E3,1.0214357E4,0E0,7.3222656E0,3.5486514E3,1.4329148E3,0E0,0E0,7.6250757E2,4.9452344E2,1.8859631E2,2.4270825E2,7.018262E1,3.282447E2,0E0,0E0,0E0,1.342856E2,1.529436E2,0E0,0E0,5.225952E0,1.7674268E2,9.49614E0,6.0264374E1,3.7103973E1,3.816696E1,6.669922E-1,4.2020264E0,0E0,5.7546265E1,5.0142185E1,0E0,0E0,2.2453186E1,0E0,0E0,0E0,2.5891876E-1,0E0,0E0,0E0,0E0,0E0,0E0,0E0,0E0,0E0,0E0,0E0,0E0,0E0],"parents":[2147483647,0,0,1,1,2,2,4,4,5,5,6,6,9,9,10,10,11,11,12,12,13,13,14,14,18,18,19,19,22,22,23,23,24,24,25,25,26,26,27,27,28,28,29,29,31,31,32,32,35,35,39,39],"right_children":[2,4,6,-1,8,10,12,-1,-1,14,16,18,20,22,24,-1,-1,-1,26,28,-1,-1,30,32,34,36,38,40,42,44,-1,46,48,-1,-1,50,-1,-1,-1,52,-1,-1,-1,-1,-1,-1,-1,-1,-1,-1,-1,-1,-1],"split_conditions":[1.927E1,5.05E6,5.96081E1,1.2548055E1,2.55E0,1.732E1,7.29453E1,6.3394012E0,3.4817703E0,4.80951E1,6.07E6,-1.364E1,8.69566E1,3.76122E1,8E0,-2.7478921E0,-4.97009E0,-1.4246559E0,6.88568E1,-1.3E-1,3.1352618E0,-2.9581487E0,9.04758E8,6.56E0,2.4E1,7.63E0,6.71501E1,7.57196E1,1.192E1,-7.57E-1,-7.713302E-1,2.016E1,7.755E6,1.4635334E0,4.2249542E-1,9.5191E7,1.1514181E0,1.4512984E0,5.3562856E-1,7.3809E1,1.3800539E0,2.43687E0,1.6984019E0,-1.3183702E0,-2.0445435E0,-2.4919374E0,-1.031233E0,4.0996054E-1,-4.809443E-1,1.6351312E-1,-3.9779043E-1,5.2523994E-1,2.013106E-1],"split_indices":[9,6,0,0,12,10,3,0,0,0,6,5,3,0,22,0,0,0,0,5,0,0,6,5,9,5,2,3,10,19,0,9,6,0,0,6,0,0,0,1,0,0,0,0,0,0,0,0,0,0,0,0,0],"split_type":[0,0,0,0,0,0,0,0,0,0,0,0,0,0,0,0,0,0,0,0,0,0,0,0,0,0,0,0,0,0,0,0,0,0,0,0,0,0,0,0,0,0,0,0,0,0,0,0,0,0,0,0,0],"sum_hessian":[1.79E2,1.5E1,1.64E2,5E0,1E1,9E1,7.4E1,8E0,2E0,6.7E1,2.3E1,3.7E1,3.7E1,2.4E1,4.3E1,9E0,1.4E1,2E0,3.5E1,2.9E1,8E0,5E0,1.9E1,4E1,3E0,2.6E1,9E0,1.3E1,1.6E1,1.8E1,1E0,3E1,1E1,2E0,1E0,2.4E1,2E0,5E0,4E0,3E0,1E1,1E1,6E0,4E0,1.4E1,1E0,2.9E1,4E0,6E0,2.1E1,3E0,2E0,1E0],"tree_param":{"num_deleted":"0","num_feature":"23","num_nodes":"53","size_leaf_vector":"1"}},{"base_weights":[-5.805694E-1,3.3767464E1,-2.836181E0,9.355551E0,2.2861162E1,-7.8324504E0,5.65314E0,2.5603952E0,5.817459E0,-1.6148064E1,-5.441251E0,2.6804094E0,9.301225E0,-3.8647661E0,-2.6084852E0,-7.3064585E0,-3.3990555E0,1.6005399E0,5.608138E0,7.018469E0,1.2121999E1,-4.695037E0,-1.02369E1,-6.3991065E0,-1.3268486E0,3.3251047E-1,3.5804353E0,2.3622453E-1,1.3450825E0,1.0099103E0,1.6481467E0,2.6888404E0,9.986057E-1,-6.112006E0,2.9268103E0,-7.7943096E0,-1.5754453E1,-4.0993267E-1,-6.8772974E0,3.8539755E0,-2.0336132E0,-7.9330677E-1,6.751285E-1,1.72977E-1,3.804615E0,-1.913775E0,-8.165085E-1,8.1680454E-2,7.3475367E-1,-1.6983378E0,-6.5042937E-1,-6.2674403E-1,-3.6337984E0,-1.4739681E0,-7.187427E-1,2.0443754E-1,9.8475504E-1,-6.5086895E-1,-6.97317E-2,2.0813027E-2,2.3532882E-1,2.5255612E-1,8.1868654E-1],"categories":[],"categories_nodes":[],"categories_segments":[],"categories_sizes":[],"default_left":[0,0,0,0,0,0,0,0,0,0,0,0,0,0,0,0,0,0,0,0,0,0,0,0,0,0,0,0,0,0,0,0,0,0,0,0,0,0,0,0,0,0,0,0,0,0,0,0,0,0,0,0,0,0,0,0,0,0,0,0,0,0,0],"id":4,"left_children":[1,3,5,-1,7,9,11,-1,-1,13,15,17,19,-1,-1,21,23,25,27,29,31,33,35,37,39,41,43,-1,-1,-1,-1,-1,-1,45,47,49,51,-1,53,55,57,-1,59,-1,61,-1,-1,-1,-1,-1,-1,-1,-1,-1,-1,-1,-1,-1,-1,-1,-1,-1,-1],"loss_changes":[1.5650015E4,1.1758711E3,8.0553027E3,0E0,2.7459424E2,2.3355605E3,7.5271045E2,0E0,0E0,1.4018896E2,3.447251E2,1.2062872E2,1.6418848E2,0E0,0E0,3.4907568E2,2.7866272E2,7.336229E1,4.2556458E1,2.2558167E1,7.47262E1,2.9368665E2,2.4727979E2,3.2429077E1,1.04001564E2,2.7849527E1,5.5213013E0,0E0,0E0,0E0,0E0,0E0,0E0,1.3795477E2,6.9323997E0,2.8681885E1,1.4470215E2,0E0,7.977661E0,7.381031E0,4.7428383E1,0E0,4.728545E0,0E0,3.3984985E0,0E0,0E0,0E0,0E0,0E0,0E0,0E0,0E0,0E0,0E0,0E0,0E0,0E0,0E0,0E0,0E0,0E0,0E0],"parents":[2147483647,0,0,1,1,2,2,4,4,5,5,6,6,9,9,10,10,11,11,12,12,15,15,16,16,17,17,18,18,19,19,20,20,21,21,22,22,23,23,24,24,25,25,26,26,33,33,34,34,35,35,36,36,38,38,39,39,40,40,42,42,44,44],"right_children":[2,4,6,-1,8,10,12,-1,-1,14,16,18,20,-1,-1,22,24,26,28,30,32,34,36,38,40,42,44,-1,-1,-1,-1,-1,-1,46,48,50,52,-1,54,56,58,-1,60,-1,62,-1,-1,-1,-1,-1,-1,-1,-1,-1,-1,-1,-1,-1,-1,-1,-1,-1,-1],"split_conditions":[1.905E1,5.05E6,6.11305E1,9.355551E0,9.35E0,3.39882E1,7.47563E1,2.5603952E0,5.817459E0,2.11056E1,1.59E0,1.44E0,8.32346E1,-3.8647661E0,-2.6084852E0,1.246E1,4.83952E1,7.23648E1,2.614E2,-1.1E-1,1.326E1,8E0,5.45446E1,-1.006E1,6.355E6,-1.364E1,2.933E2,2.3622453E-1,1.3450825E0,1.0099103E0,1.6481467E0,2.6888404E0,9.986057E-1,3E0,-1.031E1,2.568E2,2.063E1,-4.0993267E-1,4.76535E1,5.01298E1,5.44949E1,-7.9330677E-1,6.5718E1,1.72977E-1,-9.65E0,-1.913775E0,-8.165085E-1,8.1680454E-2,7.3475367E-1,-1.6983378E0,-6.5042937E-1,-6.2674403E-1,-3.6337984E0,-1.4739681E0,-7.187427E-1,2.0443754E-1,9.8475504E-1,-6.5086895E-1,-6.97317E-2,2.0813027E-2,2.3532882E-1,2.5255612E-1,8.1868654E-1],"split_indices":[9,6,3,0,10,3,4,0,0,3,5,5,4,0,0,10,2,3,11,5,10,22,3,8,6,5,11,0,0,0,0,0,0,21,5,15,9,0,3,2,3,0,3,0,5,0,0,0,0,0,0,0,0,0,0,0,0,0,0,0,0,0,0],"split_type":[0,0,0,0,0,0,0,0,0,0,0,0,0,0,0,0,0,0,0,0,0,0,0,0,0,0,0,0,0,0,0,0,0,0,0,0,0,0,0,0,0,0,0,0,0,0,0,0,0,0,0,0,0,0,0,0,0,0,0,0,0,0,0],"sum_hessian":[2.01E2,1.2E1,1.89E2,5E0,7E0,1.19E2,7E1,3E0,4E0,2.6E1,9.3E1,3.9E1,3.1E1,1.3E1,1.3E1,4.8E1,4.5E1,2.9E1,1E1,1.8E1,1.3E1,2.6E1,2.2E1,1.8E1,2.7E1,1.8E1,1.1E1,2E0,8E0,7E0,1.1E1,1.1E1,2E0,2.2E1,4E0,1.6E1,6E0,2E0,1.6E1,3E0,2.4E1,1E0,1.7E1,1E0,1E1,8E0,1.4E1,1E0,3E0,1.4E1,2E0,1E0,5E0,1.4E1,2E0,1E0,2E0,1.4E1,1E1,8E0,9E0,1E0,9E0],"tree_param":{"num_deleted":"0","num_feature":"23","num_nodes":"63","size_leaf_vector":"1"}},{"base_weights":[-1.2446563E0,-6.25177E0,6.1588664E0,-3.563132E0,-1.3040216E1,3.5612202E0,2.0540451E1,-4.3400583E0,5.653143E0,-1.0824122E1,-3.7705626E0,1.3870165E0,5.214162E0,2.8937529E1,1.2016325E1,-5.649404E0,-2.1335466E0,2.957082E0,2.8327894E0,-1.8589565E0,-2.5586374E0,7.635332E-1,3.459709E0,3.9221663E0,6.519776E0,7.2823644E0,2.8686774E0,2.6536021E0,9.215988E-1,1.8711497E0,-6.1881957E0,-3.6864169E0,-7.1921873E-1,-4.20117E-2,3.538784E0,1.9449202E0,-2.548043E-1,8.9939535E-1,2.2251931E-1,1.2152526E0,4.8205924E0,4.794739E-1,1.4249079E0,6.934836E-1,1.2620635E-1,-6.9708934E0,-3.7266703E0,-9.835707E-1,-1.6154284E0,-1.2905374E0,1.4340925E0,8.019806E-1,3.0475625E-1,2.4824278E0,5.284184E-1,-1.028615E0,3.8726088E-2,-6.470121E-2,5.7058734E-1,5.250249E0,1.7496457E0,-1.1043411E0,-1.8312335E0,-1.0109091E0,-4.942216E-1,-4.6091852E-1,1.7566368E-1,-4.2219028E-1,-1.3057324E-1,-1.0503533E-1,4.746139E-1,2.6895326E-1,6.383602E-1,-8.629731E-2,2.0351645E-1,-2.3823477E-2,-2.8045368E-1,-1.16065286E-1,4.841472E-2,1.4863154E-1,-1.0725972E-1,1.209942E0,6.965007E-1,1.5534072E-1,4.4626746E-1],"categories":[],"categories_nodes":[],"categories_segments":[],"categories_sizes":[],"default_left":[0,0,0,0,0,0,0,0,0,0,0,0,0,0,0,0,0,0,0,0,0,0,0,0,0,0,0,0,0,0,0,0,0,0,0,0,0,0,0,0,0,0,0,0,0,0,0,0,0,0,0,0,0,0,0,0,0,0,0,0,0,0,0,0,0,0,0,0,0,0,0,0,0,0,0,0,0,0,0,0,0,0,0,0,0],"id":5,"left_children":[1,3,5,7,9,11,13,15,17,19,-1,21,23,25,27,29,31,-1,33,-1,-1,35,37,39,41,-1,-1,-1,-1,43,45,47,49,-1,51,53,55,-1,-1,57,59,-1,-1,-1,-1,61,63,-1,65,67,69,-1,-1,71,73,75,77,79,-1,81,83,-1,-1,-1,-1,-1,-1,-1,-1,-1,-1,-1,-1,-1,-1,-1,-1,-1,-1,-1,-1,-1,-1,-1,-1],"loss_changes":[6.928949E3,2.0131382E3,2.785606E3,5.870245E2,2.903506E2,2.2831396E2,6.632002E2,2.096134E2,1.4244289E2,1.7554688E1,0E0,3.5540615E1,4.9924744E1,3.239702E2,2.18833E1,1.9343848E2,6.125116E1,0E0,1.2046352E1,0E0,0E0,2.7243984E1,1.2337196E1,4.461618E1,2.6771118E1,0E0,0E0,0E0,0E0,5.6286488E0,7.196619E1,2.816658E1,1.9833118E1,0E0,9.104042E-1,7.3395386E0,2.8543754E0,0E0,0E0,1.1152246E1,1.4882111E1,0E0,0E0,0E0,0E0,7.949512E1,1.291835E1,0E0,9.602324E0,5.6968784E0,6.5660167E0,0E0,0E0,3.7313843E0,1.7373272E0,1.0060227E0,1.1998019E0,1.4334918E0,0E0,6.469391E0,2.8819895E-1,0E0,0E0,0E0,0E0,0E0,0E0,0E0,0E0,0E0,0E0,0E0,0E0,0E0,0E0,0E0,0E0,0E0,0E0,0E0,0E0,0E0,0E0,0E0,0E0],"parents":[2147483647,0,0,1,1,2,2,3,3,4,4,5,5,6,6,7,7,8,8,9,9,11,11,12,12,13,13,14,14,15,15,16,16,18,18,21,21,22,22,23,23,24,24,29,29,30,30,31,31,32,32,34,34,35,35,36,36,39,39,40,40,45,45,46,46,48,48,49,49,50,50,53,53,54,54,55,55,56,56,57,57,59,59,60,60],"right_children":[2,4,6,8,10,12,14,16,18,20,-1,22,24,26,28,30,32,-1,34,-1,-1,36,38,40,42,-1,-1,-1,-1,44,46,48,50,-1,52,54,56,-1,-1,58,60,-1,-1,-1,-1,62,64,-1,66,68,70,-1,-1,72,74,76,78,80,-1,82,84,-1,-1,-1,-1,-1,-1,-1,-1,-1,-1,-1,-1,-1,-1,-1,-1,-1,-1,-1,-1,-1,-1,-1,-1],"split_conditions":[6.15761E1,4.29E0,9.11398E1,7.26E2,4.93E0,7.1816E1,6.111E6,1.2E1,7.293E6,6.102E6,-3.7705626E0,3.98E0,7.94324E1,1.262856E2,1.262856E2,6.853E6,5.31915E1,2.957082E0,5.56377E1,-1.8589565E0,-2.5586374E0,-7.77E-1,-5.97E0,-1.073E0,-1.138E1,7.2823644E0,2.8686774E0,2.6536021E0,9.215988E-1,3.61379E1,6.13E0,2.08E0,-6.5E-2,-4.20117E-2,5.80505E1,-8.2E-1,1.124E2,8.9939535E-1,2.2251931E-1,2.941E2,1.361E1,4.794739E-1,1.4249079E0,6.934836E-1,1.2620635E-1,-4.1E-1,5.03591E1,-9.835707E-1,5.39917E1,9.821E7,5.66334E1,8.019806E-1,3.0475625E-1,6.68699E1,6.37517E1,4.157E2,-2.56E0,7.43678E1,5.7058734E-1,7.71044E1,7.34548E1,-1.1043411E0,-1.8312335E0,-1.0109091E0,-4.942216E-1,-4.6091852E-1,1.7566368E-1,-4.2219028E-1,-1.3057324E-1,-1.0503533E-1,4.746139E-1,2.6895326E-1,6.383602E-1,-8.629731E-2,2.0351645E-1,-2.3823477E-2,-2.8045368E-1,-1.16065286E-1,4.841472E-2,1.4863154E-1,-1.0725972E-1,1.209942E0,6.965007E-1,1.5534072E-1,4.4626746E-1],"split_indices":[3,12,1,11,12,1,6,20,7,7,0,5,3,2,1,7,2,0,2,0,0,16,8,16,5,0,0,0,0,2,5,5,16,0,2,5,15,0,0,15,8,0,0,0,0,8,3,0,1,7,2,0,0,1,2,11,5,1,0,1,1,0,0,0,0,0,0,0,0,0,0,0,0,0,0,0,0,0,0,0,0,0,0,0,0],"split_type":[0,0,0,0,0,0,0,0,0,0,0,0,0,0,0,0,0,0,0,0,0,0,0,0,0,0,0,0,0,0,0,0,0,0,0,0,0,0,0,0,0,0,0,0,0,0,0,0,0,0,0,0,0,0,0,0,0,0,0,0,0,0,0,0,0,0,0,0,0,0,0,0,0,0,0,0,0,0,0,0,0,0,0,0,0],"sum_hessian":[1.86E2,1.11E2,7.5E1,8E1,3.1E1,6.4E1,1.1E1,7.4E1,6E0,2.3E1,8E0,2.8E1,3.6E1,5E0,6E0,4.6E1,2.8E1,1E0,5E0,1.3E1,1E1,2.2E1,6E0,1.9E1,1.7E1,3E0,2E0,5E0,1E0,3E0,4.3E1,1.3E1,1.5E1,1E0,4E0,1E1,1.2E1,4E0,2E0,5E0,1.4E1,2E0,1.5E1,1E0,2E0,3.2E1,1.1E1,8E0,5E0,1.2E1,3E0,3E0,1E0,7E0,3E0,3E0,9E0,3E0,2E0,1.2E1,2E0,1.9E1,1.3E1,5E0,6E0,4E0,1E0,5E0,7E0,1E0,2E0,3E0,4E0,1E0,2E0,1E0,2E0,2E0,7E0,1E0,2E0,8E0,4E0,1E0,1E0],"tree_param":{"num_deleted":"0","num_feature":"23","num_nodes":"85","size_leaf_vector":"1"}},{"base_weights":[-2.4927562E-1,2.534472E1,-2.1993759E0,7.84181E0,1.9924358E1,-5.565858E0,3.2778945E0,1.7392873E0,4.2243414E0,-3.3711677E0,-1.029996E1,-7.124524E-3,5.092762E0,-3.6721287E0,6.271252E0,-1.4472659E0,-1.2603777E1,-2.4738176E0,5.291803E-1,3.3766358E0,6.63034E0,-6.872949E0,-2.9967673E0,1.6282233E0,5.314503E-1,-2.3146875E0,-1.9187574E1,-2.8414264E-1,-6.312766E-1,-3.2087827E-1,1.3574126E0,2.8344858E0,1.0519755E0,3.443308E0,7.4546385E0,-1.5078394E0,-6.875328E-1,-2.773943E0,-2.31626E0,-1.765189E0,-4.84522E0,-6.3281095E-1,1.6158041E-1,2.4958034E-1,2.3518853E0,1.6719976E-1,3.070862E0,7.6308984E-1,2.953067E-1,6.3643026E0,2.0379004E0,-2.1766229E0,-5.2188253E-1,-6.0512476E-2,-1.8015747E-1,9.9083334E-2,-3.8479503E-2,-1.9975036E-1,1.277637E-1,5.4203844E-1,1.373329E-1,4.631309E-1,7.360661E-1,1.3973798E0,5.908771E-1],"categories":[],"categories_nodes":[],"categories_segments":[],"categories_sizes":[],"default_left":[0,0,0,0,0,0,0,0,0,0,0,0,0,0,0,0,0,0,0,0,0,0,0,0,0,0,0,0,0,0,0,0,0,0,0,0,0,0,0,0,0,0,0,0,0,0,0,0,0,0,0,0,0,0,0,0,0,0,0,0,0,0,0,0,0],"id":6,"left_children":[1,3,5,-1,7,9,11,-1,-1,13,15,17,19,21,23,-1,25,27,29,31,33,35,37,-1,-1,-1,39,-1,-1,41,43,45,-1,47,49,-1,-1,51,-1,-1,-1,53,55,57,59,-1,61,-1,-1,63,-1,-1,-1,-1,-1,-1,-1,-1,-1,-1,-1,-1,-1,-1,-1],"loss_changes":[9.480298E3,6.127285E2,3.261752E3,0E0,1.5671875E1,1.1214648E3,4.021806E2,0E0,0E0,2.2924902E2,2.1365063E2,3.2947166E1,1.0451904E2,1.4945105E2,5.9668045E0,0E0,6.1866455E1,1.0170765E0,1.4601231E1,1.4117401E1,4.736743E1,1.1563721E1,1.0029816E2,0E0,0E0,0E0,2.5548523E1,0E0,0E0,1.6225524E0,1.1223997E1,7.1426086E0,0E0,7.8515625E-1,1.9710388E1,0E0,0E0,8.9698425E1,0E0,0E0,0E0,4.1535926E-1,5.49602E-1,2.7990084E0,1.9761028E0,0E0,2.9345703E0,0E0,0E0,1.3891724E1,0E0,0E0,0E0,0E0,0E0,0E0,0E0,0E0,0E0,0E0,0E0,0E0,0E0,0E0,0E0],"parents":[2147483647,0,0,1,1,2,2,4,4,5,5,6,6,9,9,10,10,11,11,12,12,13,13,14,14,16,16,17,17,18,18,19,19,20,20,21,21,22,22,26,26,29,29,30,30,31,31,33,33,34,34,37,37,41,41,42,42,43,43,44,44,46,46,49,49],"right_children":[2,4,6,-1,8,10,12,-1,-1,14,16,18,20,22,24,-1,26,28,30,32,34,36,38,-1,-1,-1,40,-1,-1,42,44,46,-1,48,50,-1,-1,52,-1,-1,-1,54,56,58,60,-1,62,-1,-1,64,-1,-1,-1,-1,-1,-1,-1,-1,-1,-1,-1,-1,-1,-1,-1],"split_conditions":[2.76E0,3.917E6,5.8113E1,7.84181E0,1.246E1,4.47E0,7.1816E1,1.7392873E0,4.2243414E0,1.1E1,6.102E6,1.205E1,7.76547E1,4.42951E1,5.87515E1,-1.4472659E0,3.23853E1,6.19355E1,1.6E-1,8.31205E1,-3.66E0,7.9E0,6.30127E1,1.6282233E0,5.314503E-1,-2.3146875E0,7.958E6,-2.8414264E-1,-6.312766E-1,2.248E2,3.735E2,-9.28E0,1.0519755E0,1.2212E3,4.23E-1,-1.5078394E0,-6.875328E-1,-1.908E0,-2.31626E0,-1.765189E0,-4.84522E0,3.77E0,1.7E1,3.70522E1,6.565E2,1.6719976E-1,7.46164E1,7.6308984E-1,2.953067E-1,8.85396E1,2.0379004E0,-2.1766229E0,-5.2188253E-1,-6.0512476E-2,-1.8015747E-1,9.9083334E-2,-3.8479503E-2,-1.9975036E-1,1.277637E-1,5.4203844E-1,1.373329E-1,4.631309E-1,7.360661E-1,1.3973798E0,5.908771E-1],"split_indices":[12,6,2,0,14,12,0,0,0,22,7,14,2,0,0,0,0,2,5,0,5,5,1,0,0,0,6,0,0,15,11,5,0,11,16,0,0,19,0,0,0,12,20,0,11,0,0,0,0,1,0,0,0,0,0,0,0,0,0,0,0,0,0,0,0],"split_type":[0,0,0,0,0,0,0,0,0,0,0,0,0,0,0,0,0,0,0,0,0,0,0,0,0,0,0,0,0,0,0,0,0,0,0,0,0,0,0,0,0,0,0,0,0,0,0,0,0,0,0,0,0,0,0,0,0,0,0,0,0,0,0,0,0],"sum_hessian":[1.89E2,1.3E1,1.76E2,3E0,1E1,1.09E2,6.7E1,1E0,9E0,7.5E1,3.4E1,2.4E1,4.3E1,7.3E1,2E0,1.5E1,1.9E1,4E0,2E1,2.1E1,2.2E1,1.2E1,6.1E1,1E0,1E0,1.7E1,2E0,2E0,2E0,1E1,1E1,1.7E1,4E0,5E0,1.7E1,1E1,2E0,6E1,1E0,1E0,1E0,6E0,4E0,5E0,5E0,2E0,1.5E1,4E0,1E0,1.3E1,4E0,1E0,5.9E1,3E0,3E0,2E0,2E0,1E0,4E0,4E0,1E0,7E0,8E0,1.1E1,2E0],"tree_param":{"num_deleted":"0","num_feature":"23","num_nodes":"65","size_leaf_vector":"1"}},{"base_weights":[3.5566863E-1,-1.5687119E0,1.3517132E1,-6.1852345E0,4.8581073E-1,6.451155E0,1.016278E1,-8.57004E0,-4.133506E0,-9.7717893E-1,3.2751558E0,6.918085E0,1.4403445E1,-1.8760993E0,-1.0345132E0,-4.5589347E0,-2.4296799E0,-8.621039E0,-5.966858E-1,1.2200541E0,2.9698348E0,4.0436926E0,8.603079E0,3.5057101E0,1.6534976E0,-4.765218E0,-2.0818465E0,-5.401904E-1,-1.7163634E-1,-2.0236323E0,-7.618188E-1,-5.364026E0,-3.268386E-2,2.3612041E0,3.780569E0,4.635511E0,1.9732462E-1,1.9312301E0,4.1873708E-1,-3.7250948E-1,-9.946279E-1,-1.816185E-1,-5.344602E-1,-7.980983E0,1.4380155E0,-4.068484E-1,8.1173974E-1,4.112078E-1,2.6678193E0,4.166354E0,4.0882406E-1,1.1358224E0,5.8018273E-1,-2.425703E0,-2.0298892E-1,4.4409192E-1,5.0134014E-2,-3.7450346E-1,3.088312E-2,1.5127893E-1,-5.4875966E-2,5.679327E-1,8.340822E-2,3.1133118E-1,8.872004E-1],"categories":[],"categories_nodes":[],"categories_segments":[],"categories_sizes":[],"default_left":[0,0,0,0,0,0,0,0,0,0,0,0,0,0,0,0,0,0,0,0,0,0,0,0,0,0,0,0,0,0,0,0,0,0,0,0,0,0,0,0,0,0,0,0,0,0,0,0,0,0,0,0,0,0,0,0,0,0,0,0,0,0,0,0,0],"id":7,"left_children":[1,3,5,7,9,-1,11,13,15,17,19,21,23,-1,-1,25,27,29,31,-1,33,35,37,-1,-1,39,41,-1,-1,-1,-1,43,45,47,49,51,-1,-1,-1,-1,-1,-1,-1,53,55,57,-1,59,61,63,-1,-1,-1,-1,-1,-1,-1,-1,-1,-1,-1,-1,-1,-1,-1],"loss_changes":[4.65593E3,1.5232104E3,1.2815674E3,2.259541E2,4.5625168E2,0E0,2.3650049E2,2.8664795E1,1.4867004E1,2.1122935E2,2.3766724E1,4.4581604E1,8.580676E1,0E0,0E0,6.4501953E0,1.2246094E0,5.248291E0,1.8929248E2,0E0,1.3433929E1,7.85421E0,3.3672974E1,0E0,0E0,2.474121E0,4.9548054E-1,0E0,0E0,0E0,0E0,1.377879E2,9.601018E1,1.230394E1,6.091049E0,2.6878357E-1,0E0,0E0,0E0,0E0,0E0,0E0,0E0,1.4372589E2,1.899198E0,4.6822502E1,0E0,8.703975E-1,4.39357E0,2.5909576E0,0E0,0E0,0E0,0E0,0E0,0E0,0E0,0E0,0E0,0E0,0E0,0E0,0E0,0E0,0E0],"parents":[2147483647,0,0,1,1,2,2,3,3,4,4,6,6,7,7,8,8,9,9,10,10,11,11,12,12,15,15,16,16,17,17,18,18,20,20,21,21,22,22,25,25,26,26,31,31,32,32,33,33,34,34,35,35,43,43,44,44,45,45,47,47,48,48,49,49],"right_children":[2,4,6,8,10,-1,12,14,16,18,20,22,24,-1,-1,26,28,30,32,-1,34,36,38,-1,-1,40,42,-1,-1,-1,-1,44,46,48,50,52,-1,-1,-1,-1,-1,-1,-1,54,56,58,-1,60,62,64,-1,-1,-1,-1,-1,-1,-1,-1,-1,-1,-1,-1,-1,-1,-1],"split_conditions":[8.72888E1,4.94247E1,3.917E6,3.49469E1,7.25485E1,6.451155E0,1.200186E2,8.18E0,7.9E0,-2.267E1,5.31607E1,-2.7E0,1.97E-1,-1.8760993E0,-1.0345132E0,1.056E0,5.80505E1,6.10792E1,1E0,1.2200541E0,8.32593E1,1.163471E2,1.5269E8,3.5057101E0,1.6534976E0,5.28E1,4.6433E1,-5.401904E-1,-1.7163634E-1,-2.0236323E0,-7.618188E-1,6.231E2,1.688E1,-9.65E0,2.58E-1,1.5202E7,1.9732462E-1,1.9312301E0,4.1873708E-1,-3.7250948E-1,-9.946279E-1,-1.816185E-1,-5.344602E-1,1.277E1,1.3027E7,5.33715E1,8.1173974E-1,7.54247E1,1.744E1,-1.4E1,4.0882406E-1,1.1358224E0,5.8018273E-1,-2.425703E0,-2.0298892E-1,4.4409192E-1,5.0134014E-2,-3.7450346E-1,3.088312E-2,1.5127893E-1,-5.4875966E-2,5.679327E-1,8.340822E-2,3.1133118E-1,8.872004E-1],"split_indices":[4,0,6,0,0,0,0,5,5,5,2,5,19,0,0,16,2,0,20,0,0,0,7,0,0,11,0,0,0,0,0,11,5,5,16,6,0,0,0,0,0,0,0,10,6,0,0,2,8,5,0,0,0,0,0,0,0,0,0,0,0,0,0,0,0],"split_type":[0,0,0,0,0,0,0,0,0,0,0,0,0,0,0,0,0,0,0,0,0,0,0,0,0,0,0,0,0,0,0,0,0,0,0,0,0,0,0,0,0,0,0,0,0,0,0,0,0,0,0,0,0,0,0,0,0,0,0,0,0,0,0,0,0],"sum_hessian":[1.83E2,1.6E2,2.3E1,4.9E1,1.11E2,3E0,2E1,2.2E1,2.7E1,7.3E1,3.8E1,1.2E1,8E0,1.8E1,4E0,2.1E1,6E0,3E0,7E1,3E0,3.5E1,5E0,7E0,5E0,3E0,1.9E1,2E0,5E0,1E0,2E0,1E0,7E0,6.3E1,2.1E1,1.4E1,4E0,1E0,6E0,1E0,1E0,1.8E1,1E0,1E0,5E0,2E0,5.8E1,5E0,3E0,1.8E1,1.1E1,3E0,2E0,2E0,3E0,2E0,1E0,1E0,1.6E1,4.2E1,2E0,1E0,1.7E1,1E0,1E0,1E1],"tree_param":{"num_deleted":"0","num_feature":"23","num_nodes":"65","size_leaf_vector":"1"}},{"base_weights":[2.3449709E-1,1.397012E1,-9.442128E-1,3.9965508E0,7.4915385E0,-3.5979147E0,2.509992E0,1.7254875E0,1.6955155E-1,-2.4468904E0,-8.680027E0,1.5041205E0,5.0837E0,-2.8745565E0,3.5181472E0,-7.405778E0,-4.1703277E0,9.342847E-1,2.878116E0,3.3081884E0,6.104893E0,-3.9305208E0,-1.4079729E0,-3.7651104E-1,4.912495E0,-1.775443E0,-1.0811872E0,-6.5459555E-1,1.0836728E0,5.0383544E0,1.6273062E0,7.1259564E-1,2.6751217E-1,4.0776367E0,1.7065905E0,-4.102285E0,4.475249E-1,-2.4158168E0,-1.465478E-1,3.815875E-1,1.1309271E0,8.824194E-1,7.736541E-1,2.150135E-1,1.1874497E0,1.3065937E-1,2.2210324E0,9.7625494E-1,5.35418E-1,-7.240651E-1,-1.394174E0,-4.067715E-1,-7.013555E-1,-1.0640826E-1,2.2757332E-1,5.097947E-1,1.422653E-1,-4.121794E-3,7.166931E-2,2.3144843E-1,5.1456964E-1],"categories":[],"categories_nodes":[],"categories_segments":[],"categories_sizes":[],"default_left":[0,0,0,0,0,0,0,0,0,0,0,0,0,0,0,0,0,0,0,0,0,0,0,0,0,0,0,0,0,0,0,0,0,0,0,0,0,0,0,0,0,0,0,0,0,0,0,0,0,0,0,0,0,0,0,0,0,0,0,0,0],"id":8,"left_children":[1,3,5,-1,7,9,11,-1,-1,13,15,17,19,21,23,25,-1,27,29,31,33,35,37,-1,39,-1,-1,-1,41,43,45,-1,-1,47,-1,49,-1,51,53,-1,-1,55,-1,-1,-1,57,59,-1,-1,-1,-1,-1,-1,-1,-1,-1,-1,-1,-1,-1,-1],"loss_changes":[2.9599265E3,4.6152222E2,1.5481271E3,0E0,4.5050232E1,5.4871533E2,1.8665646E2,0E0,0E0,2.0465228E2,1.9372095E2,4.0607155E1,2.7936462E1,1.112168E2,4.4854126E1,2.4251465E1,0E0,2.535199E1,3.8005714E1,1.0649719E0,4.1805145E1,4.8720093E1,3.9798615E1,0E0,3.8745117E0,0E0,0E0,0E0,1.8893673E1,1.4266678E1,9.132681E0,0E0,0E0,1.985115E0,0E0,5.1427307E1,0E0,4.3877945E0,7.107667E0,0E0,0E0,9.772921E0,0E0,0E0,0E0,1.2117235E-1,1.1348152E0,0E0,0E0,0E0,0E0,0E0,0E0,0E0,0E0,0E0,0E0,0E0,0E0,0E0,0E0],"parents":[2147483647,0,0,1,1,2,2,4,4,5,5,6,6,9,9,10,10,11,11,12,12,13,13,14,14,15,15,17,17,18,18,19,19,20,20,21,21,22,22,24,24,28,28,29,29,30,30,33,33,35,35,37,37,38,38,41,41,45,45,46,46],"right_children":[2,4,6,-1,8,10,12,-1,-1,14,16,18,20,22,24,26,-1,28,30,32,34,36,38,-1,40,-1,-1,-1,42,44,46,-1,-1,48,-1,50,-1,52,54,-1,-1,56,-1,-1,-1,58,60,-1,-1,-1,-1,-1,-1,-1,-1,-1,-1,-1,-1,-1,-1],"split_conditions":[1.977E1,1.352699E2,6.19355E1,3.9965508E0,6.4E6,1.847E1,7.92944E1,1.7254875E0,1.6955155E-1,9E0,4.46851E1,2.486E2,-2.77E-1,1.2E1,3.61379E1,2.07125E1,-4.1703277E0,5.01298E1,5.80505E1,8.8648E1,5.868E2,7.812E2,5.26273E1,-3.7651104E-1,2.174E1,-1.775443E0,-1.0811872E0,-6.5459555E-1,2.447E1,6.88568E1,1.478E1,7.1259564E-1,2.6751217E-1,2.608E1,1.7065905E0,5.67298E1,4.475249E-1,2.878E1,5.96081E1,3.815875E-1,1.1309271E0,6.997E6,7.736541E-1,2.150135E-1,1.1874497E0,6.7963E1,2.241E1,9.7625494E-1,5.35418E-1,-7.240651E-1,-1.394174E0,-4.067715E-1,-7.013555E-1,-1.0640826E-1,2.2757332E-1,5.097947E-1,1.422653E-1,-4.121794E-3,7.166931E-2,2.3144843E-1,5.1456964E-1],"split_indices":[9,2,0,0,6,10,2,0,0,22,0,15,16,21,0,0,0,1,2,0,11,11,4,0,9,0,0,0,9,0,14,0,0,9,0,0,0,13,1,0,0,6,0,0,0,0,9,0,0,0,0,0,0,0,0,0,0,0,0,0,0],"split_type":[0,0,0,0,0,0,0,0,0,0,0,0,0,0,0,0,0,0,0,0,0,0,0,0,0,0,0,0,0,0,0,0,0,0,0,0,0,0,0,0,0,0,0,0,0,0,0,0,0,0,0,0,0,0,0,0,0,0,0,0,0],"sum_hessian":[1.82E2,1.4E1,1.68E2,7E0,7E0,9.5E1,7.3E1,6E0,1E0,7.8E1,1.7E1,5.3E1,2E1,7.3E1,5E0,1.6E1,1E0,3.8E1,1.5E1,8E0,1.2E1,4.2E1,3.1E1,1E0,4E0,9E0,7E0,1E0,3.7E1,5E0,1E1,7E0,1E0,7E0,5E0,4.1E1,1E0,1.7E1,1.4E1,1E0,3E0,3.5E1,2E0,1E0,4E0,3E0,7E0,4E0,3E0,3.5E1,6E0,1.3E1,4E0,1.1E1,3E0,3E0,3.2E1,2E0,1E0,2E0,5E0],"tree_param":{"num_deleted":"0","num_feature":"23","num_nodes":"61","size_leaf_vector":"1"}},{"base_weights":[3.366343E-1,1.458487E1,-9.774734E-1,5.865245E0,1.0459746E1,-2.816479E0,1.9269185E0,1.3535513E0,1.17606945E1,-1.5867455E0,-6.1327467E0,6.5507835E-1,2.831298E0,6.830644E0,2.767704E0,-1.831708E0,4.1187696E0,-5.316965E0,-1.4152228E1,-1.7945491E0,9.6369755E-1,1.8231531E0,4.4092927E0,1.8740898E0,1.4568824E-1,-2.5875924E0,-4.1092783E-2,4.524385E-1,1.232826E0,-1.3057213E0,-3.7735848E0,-1.2919495E0,-3.5833685E0,-1.81719E-1,-5.624636E-1,7.125407E-1,4.3457785E-1,3.207827E0,1.1053481E0,3.778154E0,1.4401228E0,-5.2490783E0,-2.1451643E0,-1.7665722E0,7.4081784E-1,-1.0156112E0,-4.2570677E0,1.1526388E0,4.7908333E-1,8.2672715E-1,4.903276E-1,2.3500778E-1,1.5514902E0,4.0053883E0,1.3234827E-1,-1.8920734E0,-6.121453E-1,-6.989604E-1,-2.3509263E-1,-5.343049E-1,-2.518362E-1,4.126945E-1,-1.6799087E-2,-2.7562428E-1,-7.304862E-2,-1.0351996E0,-6.2854975E-1,5.165453E-2,2.5949413E-1,1.2557104E-1,-7.2810225E-2,-3.0346645E-2,1.8206742E-1,-6.1500096E-3,3.849835E-1,3.5980278E-1,8.8823557E-1],"categories":[],"categories_nodes":[],"categories_segments":[],"categories_sizes":[],"default_left":[0,0,0,0,0,0,0,0,0,0,0,0,0,0,0,0,0,0,0,0,0,0,0,0,0,0,0,0,0,0,0,0,0,0,0,0,0,0,0,0,0,0,0,0,0,0,0,0,0,0,0,0,0,0,0,0,0,0,0,0,0,0,0,0,0,0,0,0,0,0,0,0,0,0,0,0,0],"id":9,"left_children":[1,3,5,-1,7,9,11,-1,13,15,17,19,21,23,-1,25,27,29,31,33,35,37,39,-1,-1,41,43,-1,-1,-1,45,-1,-1,-1,-1,47,-1,49,51,53,-1,55,57,59,61,63,65,67,69,-1,-1,71,73,75,-1,-1,-1,-1,-1,-1,-1,-1,-1,-1,-1,-1,-1,-1,-1,-1,-1,-1,-1,-1,-1,-1,-1],"loss_changes":[3.6473088E3,8.275049E2,9.5556726E2,0E0,3.1646606E1,4.4191107E2,7.9017914E1,0E0,4.2895996E1,1.1579825E2,1.5874744E2,2.3030523E1,6.0686523E1,4.680751E1,0E0,1.0475427E2,6.541683E0,3.5196045E1,1.5405792E1,1.8683748E0,7.0536537E0,2.366481E1,1.3829987E1,0E0,0E0,5.8998688E1,3.2231697E1,0E0,0E0,0E0,1.4612625E1,0E0,0E0,0E0,0E0,2.0439596E0,0E0,1.3156891E0,6.5952816E0,8.353149E0,0E0,5.4862167E1,5.860466E1,1.8938637E0,1.7476524E1,3.0870867E-1,2.9780426E0,6.4792824E-1,1.8703768E0,0E0,0E0,1.6957221E0,6.148428E0,6.318405E0,0E0,0E0,0E0,0E0,0E0,0E0,0E0,0E0,0E0,0E0,0E0,0E0,0E0,0E0,0E0,0E0,0E0,0E0,0E0,0E0,0E0,0E0,0E0],"parents":[2147483647,0,0,1,1,2,2,4,4,5,5,6,6,8,8,9,9,10,10,11,11,12,12,13,13,15,15,16,16,17,17,18,18,19,19,20,20,21,21,22,22,25,25,26,26,30,30,35,35,37,37,38,38,39,39,41,41,42,42,43,43,44,44,45,45,46,46,47,47,48,48,51,51,52,52,53,53],"right_children":[2,4,6,-1,8,10,12,-1,14,16,18,20,22,24,-1,26,28,30,32,34,36,38,40,-1,-1,42,44,-1,-1,-1,46,-1,-1,-1,-1,48,-1,50,52,54,-1,56,58,60,62,64,66,68,70,-1,-1,72,74,76,-1,-1,-1,-1,-1,-1,-1,-1,-1,-1,-1,-1,-1,-1,-1,-1,-1,-1,-1,-1,-1,-1,-1],"split_conditions":[1.977E1,3.917E6,6.10792E1,5.865245E0,1.284E1,1.732E1,7.3809E1,1.3535513E0,1.262856E2,1.1E1,4.46851E1,-6.53E0,4.1E-1,1.262856E2,2.767704E0,3.37E0,6.3838E7,1.2E1,7.958E6,6.88093E1,6.77E0,-5.85E-1,1.9E1,1.8740898E0,1.4568824E-1,1.1216E7,4.595E1,4.524385E-1,1.232826E0,-1.3057213E0,5.794E6,-1.2919495E0,-3.5833685E0,-1.81719E-1,-5.624636E-1,-8.73E-1,4.3457785E-1,6.4E6,-9.28E0,1.532E0,1.4401228E0,-5.38E-1,5.17949E1,1.274E1,-6E-1,3.70522E1,3.252E1,6.27967E1,1.95E7,8.2672715E-1,4.903276E-1,8.46034E1,7.65799E1,3.55E0,1.3234827E-1,-1.8920734E0,-6.121453E-1,-6.989604E-1,-2.3509263E-1,-5.343049E-1,-2.518362E-1,4.126945E-1,-1.6799087E-2,-2.7562428E-1,-7.304862E-2,-1.0351996E0,-6.2854975E-1,5.165453E-2,2.5949413E-1,1.2557104E-1,-7.2810225E-2,-3.0346645E-2,1.8206742E-1,-6.1500096E-3,3.849835E-1,3.5980278E-1,8.8823557E-1],"split_indices":[9,6,0,0,14,10,0,0,0,22,0,5,5,1,0,5,6,21,6,0,5,17,21,0,0,6,0,0,0,0,6,0,0,0,0,16,0,7,5,18,0,17,0,10,8,0,13,0,6,0,0,0,0,12,0,0,0,0,0,0,0,0,0,0,0,0,0,0,0,0,0,0,0,0,0,0,0],"split_type":[0,0,0,0,0,0,0,0,0,0,0,0,0,0,0,0,0,0,0,0,0,0,0,0,0,0,0,0,0,0,0,0,0,0,0,0,0,0,0,0,0,0,0,0,0,0,0,0,0,0,0,0,0,0,0,0,0,0,0,0,0,0,0,0,0,0,0,0,0,0,0,0,0,0,0,0,0],"sum_hessian":[1.94E2,1.6E1,1.78E2,3E0,1.3E1,1.09E2,6.9E1,4E0,9E0,8E1,2.9E1,2.9E1,4E1,3E0,6E0,7.7E1,3E0,2.7E1,2E0,3E0,2.6E1,2.5E1,1.5E1,2E0,1E0,5.4E1,2.3E1,2E0,1E0,1.5E1,1.2E1,1E0,1E0,2E0,1E0,2.2E1,4E0,8E0,1.7E1,1.3E1,2E0,7E0,4.7E1,7E0,1.6E1,2E0,1E1,7E0,1.5E1,3E0,5E0,6E0,1.1E1,1.2E1,1E0,2E0,5E0,2E1,2.7E1,2E0,5E0,6E0,1E1,1E0,1E0,5E0,5E0,1E0,6E0,1.3E1,2E0,4E0,2E0,2E0,9E0,2E0,1E1],"tree_param":{"num_deleted":"0","num_feature":"23","num_nodes":"77","size_leaf_vector":"1"}},{"base_weights":[4.6344554E-1,1.2573172E1,-4.660556E-1,5.56406E0,9.223939E0,-1.9373239E0,1.7006559E0,9.805746E0,3.59482E-1,-4.0300994E0,-1.0452058E0,1.2711792E0,4.088536E0,2.3115325E0,6.246281E0,-4.538293E0,-1.5853028E0,-1.2441587E0,3.49883E0,9.9594176E-1,1.0075935E0,1.1055225E0,2.1703699E0,7.79713E0,1.2518272E-1,-5.027831E0,-2.9199755E0,-3.6754745E-1,-5.4782547E-2,-1.925365E0,2.3965348E-1,3.771004E-1,1.0593098E0,4.6474287E-1,1.6906755E0,4.8952818E-1,1.5942657E-1,1.8150157E0,7.1461624E-1,-4.9881247E-1,-1.0696586E0,-2.651831E-1,-6.2765014E-1,-4.1168013E0,-1.4287416E0,-4.7577256E-1,6.708515E-1,-1.2669816E0,7.0335627E-1,2.5452075E0,1.1839873E0,-1.0793325E0,4.4425994E-2,-3.9435253E-1,5.1221058E-2,-2.6435468E-1,-3.5876065E-2,1.9785851E-1,-2.2323644E-1,-4.8329896E-1,-1.2962662E-1,8.7039225E-2,2.52674E-1,5.903007E-1,3.1712273E-1,-1.64234E-2,2.954986E-1],"categories":[],"categories_nodes":[],"categories_segments":[],"categories_sizes":[],"default_left":[0,0,0,0,0,0,0,0,0,0,0,0,0,0,0,0,0,0,0,0,0,0,0,0,0,0,0,0,0,0,0,0,0,0,0,0,0,0,0,0,0,0,0,0,0,0,0,0,0,0,0,0,0,0,0,0,0,0,0,0,0,0,0,0,0,0,0],"id":10,"left_children":[1,3,5,-1,7,9,11,13,-1,15,17,19,21,-1,23,25,27,29,31,33,-1,-1,35,37,-1,39,41,-1,-1,43,45,-1,-1,47,49,-1,-1,-1,-1,-1,-1,-1,-1,51,53,55,57,59,61,63,65,-1,-1,-1,-1,-1,-1,-1,-1,-1,-1,-1,-1,-1,-1,-1,-1],"loss_changes":[2.2814956E3,5.9928906E2,6.02217E2,0E0,4.617395E1,2.080065E2,7.602191E1,3.06156E1,0E0,3.8276123E1,7.375571E1,6.3885345E1,2.3971588E1,0E0,3.663022E1,1.5091797E1,1.6132488E0,7.749479E1,5.2801666E0,2.2305038E1,0E0,0E0,8.7765694E-1,2.2768402E0,0E0,5.7734985E0,8.428192E-2,0E0,0E0,5.4393112E1,7.6869E0,0E0,0E0,1.5041951E1,1.0066666E1,0E0,0E0,0E0,0E0,0E0,0E0,0E0,0E0,4.882248E1,3.7162437E1,2.2098622E0,8.65523E0,2.3956838E0,4.4077845E0,1.2186966E0,5.9274616E0,0E0,0E0,0E0,0E0,0E0,0E0,0E0,0E0,0E0,0E0,0E0,0E0,0E0,0E0,0E0,0E0],"parents":[2147483647,0,0,1,1,2,2,4,4,5,5,6,6,7,7,9,9,10,10,11,11,12,12,14,14,15,15,16,16,17,17,18,18,19,19,22,22,23,23,25,25,26,26,29,29,30,30,33,33,34,34,43,43,44,44,45,45,46,46,47,47,48,48,49,49,50,50],"right_children":[2,4,6,-1,8,10,12,14,-1,16,18,20,22,-1,24,26,28,30,32,34,-1,-1,36,38,-1,40,42,-1,-1,44,46,-1,-1,48,50,-1,-1,-1,-1,-1,-1,-1,-1,52,54,56,58,60,62,64,66,-1,-1,-1,-1,-1,-1,-1,-1,-1,-1,-1,-1,-1,-1,-1,-1],"split_conditions":[1.977E1,3.43E6,6.26828E1,5.56406E0,1.653778E2,3.99331E1,2.493E1,6.111E6,3.59482E-1,8.18E0,1.1E1,1.463E1,1.5269E8,2.3115325E0,1.190495E2,7.89E8,3.92698E1,3.34E0,6.3838E7,7.54652E1,1.0075935E0,1.1055225E0,9.27141E1,1.190495E2,1.2518272E-1,5.147E6,-3.39E0,-3.6754745E-1,-5.4782547E-2,1.1216E7,4.98554E1,3.771004E-1,1.0593098E0,-6.53E0,7.71044E1,4.8952818E-1,1.5942657E-1,1.8150157E0,7.1461624E-1,-4.9881247E-1,-1.0696586E0,-2.651831E-1,-6.2765014E-1,1.888E2,6E0,-5.21E-1,6.10792E1,5.01298E1,3.78E-1,2.753E1,-1.138E1,-1.0793325E0,4.4425994E-2,-3.9435253E-1,5.1221058E-2,-2.6435468E-1,-3.5876065E-2,1.9785851E-1,-2.2323644E-1,-4.8329896E-1,-1.2962662E-1,8.7039225E-2,2.52674E-1,5.903007E-1,3.1712273E-1,-1.64234E-2,2.954986E-1],"split_indices":[9,6,0,0,2,0,9,6,0,5,22,5,7,0,1,7,1,5,6,0,0,0,1,0,0,7,5,0,0,6,0,0,0,5,1,0,0,0,0,0,0,0,0,15,22,17,2,1,17,13,5,0,0,0,0,0,0,0,0,0,0,0,0,0,0,0,0],"split_type":[0,0,0,0,0,0,0,0,0,0,0,0,0,0,0,0,0,0,0,0,0,0,0,0,0,0,0,0,0,0,0,0,0,0,0,0,0,0,0,0,0,0,0,0,0,0,0,0,0,0,0,0,0,0,0,0,0,0,0,0,0,0,0,0,0,0,0],"sum_hessian":[2.02E2,1.4E1,1.88E2,2E0,1.2E1,1.12E2,7.6E1,1.1E1,1E0,3.3E1,7.9E1,6.5E1,1.1E1,7E0,4E0,2.7E1,6E0,7.6E1,3E0,6.1E1,4E0,6E0,5E0,3E0,1E0,2E1,7E0,5E0,1E0,5.2E1,2.4E1,2E0,1E0,3.5E1,2.6E1,4E0,1E0,2E0,1E0,2E0,1.8E1,1E0,6E0,9E0,4.3E1,9E0,1.5E1,4E0,3.1E1,9E0,1.7E1,7E0,2E0,3.3E1,1E1,2E0,7E0,1.3E1,2E0,1E0,3E0,2.1E1,1E1,6E0,3E0,3E0,1.4E1],"tree_param":{"num_deleted":"0","num_feature":"23","num_nodes":"67","size_leaf_vector":"1"}},{"base_weights":[-1.0347381E-1,-1.2181413E0,3.611756E0,-5.853002E-1,-3.83661E0,2.5672216E0,7.678195E0,-1.6916221E0,4.2465676E-2,-3.0082378E0,-1.1740935E1,1.5599104E0,3.626497E0,8.413189E0,3.0888614E-1,-3.3228652E0,-1.192988E0,-4.898302E0,2.8416222E-1,-4.0231137E0,-2.1101267E0,-9.5819914E-1,-3.0862303E0,5.4307276E-1,1.1708783E0,9.793406E-1,2.742984E0,9.952519E-1,2.09955E0,-7.198173E-1,-2.1847817E-1,-1.8940204E0,-6.1447257E-1,-1.1598539E0,-4.152762E-1,-9.1442794E-1,3.8193715E-1,-9.013948E-1,-5.136257E-1,-2.7214594E0,-8.7467736E-1,4.7701952E-1,7.7202576E-1,2.198271E0,8.391294E-1,-8.4800386E-1,-4.3501076E-1,-8.9917547E-1,-2.2868411E-1,2.917083E0,1.21447675E-1,-6.013786E-1,-3.1048626E-1,-7.463581E-2,-2.281673E-1,8.251883E-2,1.01141E0,2.3615067E0,1.3698821E-1,-4.7072038E-2,-2.1484886E-1,-3.7955463E-2,-2.1545365E-1,-1.1306597E-1,6.389877E-2,9.7832155E-1,1.3305394E-1,-2.9654024E-2,2.7321672E-1,5.441812E-2,-5.0655887E-2,1.4202192E-1,2.801614E-1,3.0598402E-1,5.68383E-1],"categories":[],"categories_nodes":[],"categories_segments":[],"categories_sizes":[],"default_left":[0,0,0,0,0,0,0,0,0,0,0,0,0,0,0,0,0,0,0,0,0,0,0,0,0,0,0,0,0,0,0,0,0,0,0,0,0,0,0,0,0,0,0,0,0,0,0,0,0,0,0,0,0,0,0,0,0,0,0,0,0,0,0,0,0,0,0,0,0,0,0,0,0,0,0],"id":11,"left_children":[1,3,5,7,9,11,13,15,17,19,21,23,25,27,-1,29,31,33,35,37,39,-1,-1,-1,41,-1,43,-1,-1,-1,-1,45,47,-1,-1,-1,49,-1,-1,51,53,-1,55,57,-1,59,-1,61,63,65,67,-1,-1,-1,-1,69,71,73,-1,-1,-1,-1,-1,-1,-1,-1,-1,-1,-1,-1,-1,-1,-1,-1,-1],"loss_changes":[7.616545E2,2.3334326E2,1.7137097E2,7.953288E1,1.6375665E2,3.4173767E1,3.2461914E1,3.1895485E1,8.829109E1,1.9333893E1,2.6514038E1,6.492508E0,1.1143448E1,2.6940063E1,0E0,2.6955948E0,1.2615002E1,2.544777E0,3.3588387E1,1.8094482E0,9.812401E0,0E0,0E0,0E0,5.9002247E0,0E0,3.7039337E0,0E0,0E0,0E0,0E0,2.7902184E0,1.9237657E0,0E0,0E0,0E0,4.567553E1,0E0,0E0,5.3554535E-1,4.80608E-1,0E0,1.842186E0,1.3655739E0,0E0,3.1751394E-1,0E0,1.0760508E0,1.5733826E0,2.6031773E1,2.0742268E1,0E0,0E0,0E0,0E0,2.4045625E-1,5.1685905E-1,8.2035446E-1,0E0,0E0,0E0,0E0,0E0,0E0,0E0,0E0,0E0,0E0,0E0,0E0,0E0,0E0,0E0,0E0,0E0],"parents":[2147483647,0,0,1,1,2,2,3,3,4,4,5,5,6,6,7,7,8,8,9,9,10,10,11,11,12,12,13,13,15,15,16,16,17,17,18,18,19,19,20,20,24,24,26,26,31,31,32,32,36,36,39,39,40,40,42,42,43,43,45,45,47,47,48,48,49,49,50,50,55,55,56,56,57,57],"right_children":[2,4,6,8,10,12,14,16,18,20,22,24,26,28,-1,30,32,34,36,38,40,-1,-1,-1,42,-1,44,-1,-1,-1,-1,46,48,-1,-1,-1,50,-1,-1,52,54,-1,56,58,-1,60,-1,62,64,66,68,-1,-1,-1,-1,70,72,74,-1,-1,-1,-1,-1,-1,-1,-1,-1,-1,-1,-1,-1,-1,-1,-1,-1],"split_conditions":[7.54652E1,2.7E1,1.190495E2,5.22504E1,4.25841E1,9.4E-1,7.812E2,-7.8E-1,-2.267E1,2.50431E1,2.708E1,3.58E0,-5.05E-1,1.794E1,3.0888614E-1,9.84E-1,4.42951E1,6.10792E1,2.016E1,3.199E1,2.38E0,-9.5819914E-1,-3.0862303E0,5.4307276E-1,7.01378E1,9.793406E-1,9.04819E1,9.952519E-1,2.09955E0,-7.198173E-1,-2.1847817E-1,2.086E1,6.4E-1,-1.1598539E0,-4.152762E-1,-9.1442794E-1,2E0,-9.013948E-1,-5.136257E-1,1.028E2,7.09E0,4.7701952E-1,8.06462E1,8.92946E1,8.391294E-1,3.70522E1,-4.3501076E-1,-1.36E1,5.17585E1,1.553E1,6.77E0,-6.013786E-1,-3.1048626E-1,-7.463581E-2,-2.281673E-1,7.53328E1,5.9266E7,5.669E7,1.3698821E-1,-4.7072038E-2,-2.1484886E-1,-3.7955463E-2,-2.1545365E-1,-1.1306597E-1,6.389877E-2,9.7832155E-1,1.3305394E-1,-2.9654024E-2,2.7321672E-1,5.441812E-2,-5.0655887E-2,1.4202192E-1,2.801614E-1,3.0598402E-1,5.68383E-1],"split_indices":[0,9,1,0,0,5,11,5,5,0,9,12,17,9,0,19,0,0,9,9,5,0,0,0,3,0,0,0,0,0,0,9,8,0,0,0,20,0,0,11,5,0,0,0,0,0,0,8,1,14,5,0,0,0,0,4,7,7,0,0,0,0,0,0,0,0,0,0,0,0,0,0,0,0,0],"split_type":[0,0,0,0,0,0,0,0,0,0,0,0,0,0,0,0,0,0,0,0,0,0,0,0,0,0,0,0,0,0,0,0,0,0,0,0,0,0,0,0,0,0,0,0,0,0,0,0,0,0,0,0,0,0,0,0,0,0,0,0,0,0,0,0,0,0,0,0,0,0,0,0,0,0,0],"sum_hessian":[1.83E2,1.41E2,4.2E1,1.14E2,2.7E1,3.4E1,8E0,4.1E1,7.3E1,2.5E1,2E0,1.8E1,1.6E1,7E0,1E0,9E0,3.2E1,3E0,7E1,1.1E1,1.4E1,1E0,1E0,4E0,1.4E1,6E0,1E1,3E0,4E0,8E0,1E0,1.4E1,1.8E1,2E0,1E0,1E0,6.9E1,8E0,3E0,9E0,5E0,3E0,1.1E1,8E0,2E0,3E0,1.1E1,1E1,8E0,6E0,6.3E1,7E0,2E0,2E0,3E0,3E0,8E0,7E0,1E0,1E0,2E0,2E0,8E0,5E0,3E0,3E0,3E0,5.2E1,1.1E1,2E0,1E0,5E0,3E0,3E0,4E0],"tree_param":{"num_deleted":"0","num_feature":"23","num_nodes":"75","size_leaf_vector":"1"}},{"base_weights":[1.3779247E-1,7.052418E0,-4.0236753E-1,7.825971E0,5.0066376E-1,-1.2943883E0,1.4283376E0,3.9888766E0,2.0235796E0,-9.6705127E-1,-5.629782E0,6.903261E-1,2.480161E0,9.245359E-1,2.947462E-1,-2.3712666E0,-4.3625736E-1,-3.5795033E0,-2.6518536E0,9.151096E-2,1.3914273E0,1.9054829E0,3.4444437E0,-2.7339375E0,-1.2316631E0,-9.6671987E-1,-2.8582966E-1,-7.862163E-1,-2.8963968E-1,3.3466864E-1,-2.967461E-1,4.315583E-1,1.7395122E0,1.4279244E0,6.6055655E-1,3.9562635E0,1.8993473E-2,-2.945679E0,-3.4110418E-1,-3.7737802E-1,-8.501693E-1,-3.6792836E-1,7.725194E-1,-1.8542033E-1,4.496466E-1,-4.3525778E-2,1.3229942E-1,5.008312E-1,8.7719375E-1,8.3540455E-2,3.3082902E-1,8.610197E-1,3.5016775E-1,-6.2631595E-1,-3.369995E-1,-1.9866474E-1,-4.044662E-2,1.7310978E-1,-1.2729517E-1,1.7230524E-1,5.2363016E-3,4.262042E-2,2.5170857E-1],"categories":[],"categories_nodes":[],"categories_segments":[],"categories_sizes":[],"default_left":[0,0,0,0,0,0,0,0,0,0,0,0,0,0,0,0,0,0,0,0,0,0,0,0,0,0,0,0,0,0,0,0,0,0,0,0,0,0,0,0,0,0,0,0,0,0,0,0,0,0,0,0,0,0,0,0,0,0,0,0,0,0,0],"id":12,"left_children":[1,3,5,7,-1,9,11,13,-1,15,17,19,21,-1,-1,23,25,27,-1,29,31,33,35,37,39,-1,41,-1,-1,43,-1,45,47,49,-1,51,-1,53,-1,-1,55,57,-1,-1,59,-1,-1,-1,61,-1,-1,-1,-1,-1,-1,-1,-1,-1,-1,-1,-1,-1,-1],"loss_changes":[6.416928E2,3.5548096E1,2.612108E2,6.637482E1,0E0,1.4998277E2,3.9916878E1,3.1905975E0,0E0,7.437959E1,9.1673584E1,1.3132263E1,8.894623E0,0E0,0E0,9.798706E0,4.69261E1,1.3589325E0,0E0,6.7729096E0,4.471012E0,7.09544E0,1.2573227E1,2.3398743E0,1.0306435E0,0E0,2.4501234E1,0E0,0E0,2.38931E0,0E0,6.9020903E-1,5.468046E0,1.9570961E0,0E0,5.5856323E-1,0E0,3.7878418E-1,0E0,0E0,3.445201E-1,2.2236343E1,0E0,0E0,2.4059355E0,0E0,0E0,0E0,1.1729431E0,0E0,0E0,0E0,0E0,0E0,0E0,0E0,0E0,0E0,0E0,0E0,0E0,0E0,0E0],"parents":[2147483647,0,0,1,1,2,2,3,3,5,5,6,6,7,7,9,9,10,10,11,11,12,12,15,15,16,16,17,17,19,19,20,20,21,21,22,22,23,23,24,24,26,26,29,29,31,31,32,32,33,33,35,35,37,37,40,40,41,41,44,44,48,48],"right_children":[2,4,6,8,-1,10,12,14,-1,16,18,20,22,-1,-1,24,26,28,-1,30,32,34,36,38,40,-1,42,-1,-1,44,-1,46,48,50,-1,52,-1,54,-1,-1,56,58,-1,-1,60,-1,-1,-1,62,-1,-1,-1,-1,-1,-1,-1,-1,-1,-1,-1,-1,-1,-1],"split_conditions":[1.927E1,1.018E1,6.64865E1,1.806E1,5.0066376E-1,4.91E0,9.3E-1,1.200186E2,2.0235796E0,4.38887E1,1.95984E1,2.18E2,6.665E2,9.245359E-1,2.947462E-1,6.19E0,-2.665E1,1.82032E1,-2.6518536E0,1.011E0,-1.312E0,2.466E1,1.282E1,3.99331E1,4E0,-9.6671987E-1,1.2E1,-7.862163E-1,-2.8963968E-1,-1.073E0,-2.967461E-1,-1.199E1,2.681E1,1.74E0,6.6055655E-1,4.698E2,1.8993473E-2,3.152E1,-3.4110418E-1,-3.7737802E-1,5.85214E1,3.554E2,7.725194E-1,-1.8542033E-1,2.864E1,-4.3525778E-2,1.3229942E-1,5.008312E-1,7.9326E1,8.3540455E-2,3.3082902E-1,8.610197E-1,3.5016775E-1,-6.2631595E-1,-3.369995E-1,-1.9866474E-1,-4.044662E-2,1.7310978E-1,-1.2729517E-1,1.7230524E-1,5.2363016E-3,4.262042E-2,2.5170857E-1],"split_indices":[9,10,0,9,0,12,5,1,0,0,0,15,11,0,0,5,5,0,0,16,16,9,8,0,20,0,22,0,0,16,0,5,13,5,0,15,0,9,0,0,1,11,0,0,13,0,0,0,0,0,0,0,0,0,0,0,0,0,0,0,0,0,0],"split_type":[0,0,0,0,0,0,0,0,0,0,0,0,0,0,0,0,0,0,0,0,0,0,0,0,0,0,0,0,0,0,0,0,0,0,0,0,0,0,0,0,0,0,0,0,0,0,0,0,0,0,0,0,0,0,0,0,0,0,0,0,0,0,0],"sum_hessian":[1.71E2,1.2E1,1.59E2,1E1,2E0,1.07E2,5.2E1,4E0,6E0,1E2,7E0,3.1E1,2.1E1,3E0,1E0,2.7E1,7.3E1,6E0,1E0,1.7E1,1.4E1,1.4E1,7E0,2E1,7E0,2E0,7.1E1,5E0,1E0,1.5E1,2E0,4E0,1E1,1.1E1,3E0,6E0,1E0,1.6E1,4E0,2E0,5E0,7E1,1E0,1E0,1.4E1,1E0,3E0,5E0,5E0,2E0,9E0,5E0,1E0,1.4E1,2E0,4E0,1E0,1.2E1,5.8E1,7E0,7E0,2E0,3E0],"tree_param":{"num_deleted":"0","num_feature":"23","num_nodes":"63","size_leaf_vector":"1"}},{"base_weights":[3.1982207E-1,4.2268744E0,4.0421236E-2,5.053489E0,-3.0033502E-1,3.984534E-1,6.0490522E0,-5.028537E0,-1.9259572E-2,7.146539E0,2.0472152E0,-2.4326613E0,-2.446335E0,-1.8870721E0,4.7481236E-1,7.738301E-1,1.685359E0,5.0920033E-1,1.9494504E-1,-4.046841E-1,-1.3242229E0,-6.854256E-1,-1.5744244E0,-7.335544E-2,1.2242904E0,-7.6780856E-1,7.286647E-1,-2.4147427E0,-1.2492799E0,-3.528574E-1,9.8567265E-1,8.369699E-1,2.3477452E0,-4.8519E-2,2.1252023E-1,-5.3096575E-1,-1.6602245E-1,-2.7395388E-1,9.546954E-2,2.812641E-1,-9.3341425E-2,3.4172183E-1,2.8861973E-2,1.9244447E-1,-2.0285648E-1,2.570099E-1,7.008997E-1],"categories":[],"categories_nodes":[],"categories_segments":[],"categories_sizes":[],"default_left":[0,0,0,0,0,0,0,0,0,0,0,0,0,0,0,0,0,0,0,0,0,0,0,0,0,0,0,0,0,0,0,0,0,0,0,0,0,0,0,0,0,0,0,0,0,0,0],"id":13,"left_children":[1,-1,3,5,7,-1,9,11,13,15,17,19,-1,21,23,-1,-1,-1,-1,25,-1,-1,27,29,31,-1,33,35,37,39,41,43,45,-1,-1,-1,-1,-1,-1,-1,-1,-1,-1,-1,-1,-1,-1],"loss_changes":[1.0345033E3,0E0,3.072635E2,2.9943848E1,2.2377496E2,0E0,3.0462158E1,1.5780344E2,1.4755878E2,1.0051239E1,1.0157871E-1,6.0142483E1,0E0,1.3012466E1,5.2000755E1,0E0,0E0,0E0,0E0,2.2018414E1,0E0,0E0,6.3870087E0,2.189082E1,2.2347343E1,0E0,1.4685857E0,1.2838402E0,3.7795029E0,1.0915423E1,8.884465E0,8.361074E0,1.3957474E1,0E0,0E0,0E0,0E0,0E0,0E0,0E0,0E0,0E0,0E0,0E0,0E0,0E0,0E0],"parents":[2147483647,0,0,2,2,3,3,4,4,6,6,7,7,8,8,9,9,10,10,11,11,13,13,14,14,19,19,22,22,23,23,24,24,26,26,27,27,28,28,29,29,30,30,31,31,32,32],"right_children":[2,-1,4,6,8,-1,10,12,14,16,18,20,-1,22,24,-1,-1,-1,-1,26,-1,-1,28,30,32,-1,34,36,38,40,42,44,46,-1,-1,-1,-1,-1,-1,-1,-1,-1,-1,-1,-1,-1,-1],"split_conditions":[3.43E6,4.2268744E0,2.62E0,1.278E1,1E0,3.984534E-1,1.346E1,4.662E7,4.38887E1,1.806E1,1.262856E2,3.91E0,-2.446335E0,1.79828E1,6.54308E1,7.738301E-1,1.685359E0,5.0920033E-1,1.9494504E-1,2.016E1,-1.3242229E0,-6.854256E-1,4E0,7.49E0,3.98E0,-7.6780856E-1,1.17E1,1.805E1,3.21E1,4.12376E1,-6E-1,1.712E1,7.54247E1,-4.8519E-2,2.1252023E-1,-5.3096575E-1,-1.6602245E-1,-2.7395388E-1,9.546954E-2,2.812641E-1,-9.3341425E-2,3.4172183E-1,2.8861973E-2,1.9244447E-1,-2.0285648E-1,2.570099E-1,7.008997E-1],"split_indices":[6,0,12,14,20,0,14,6,0,9,0,12,0,1,3,0,0,0,0,9,0,0,20,5,5,0,14,5,9,1,8,8,1,0,0,0,0,0,0,0,0,0,0,0,0,0,0],"split_type":[0,0,0,0,0,0,0,0,0,0,0,0,0,0,0,0,0,0,0,0,0,0,0,0,0,0,0,0,0,0,0,0,0,0,0,0,0,0,0,0,0,0,0,0,0,0,0],"sum_hessian":[1.81E2,2E0,1.79E2,1.1E1,1.68E2,3E0,8E0,9E0,1.59E2,6E0,2E0,7E0,2E0,3.3E1,1.26E2,2E0,4E0,1E0,1E0,5E0,2E0,5E0,2.8E1,7.3E1,5.3E1,1E0,4E0,7E0,2.1E1,5.8E1,1.5E1,4E1,1.3E1,1E0,3E0,6E0,1E0,2E1,1E0,3E0,5.5E1,8E0,7E0,3.8E1,2E0,7E0,6E0],"tree_param":{"num_deleted":"0","num_feature":"23","num_nodes":"47","size_leaf_vector":"1"}},{"base_weights":[2.9086152E-1,3.5230343E0,5.824751E-2,3.593532E0,-2.739597E-1,2.3481083E0,4.7886734E0,-9.4101554E-1,8.805231E-1,2.8454504E0,-1.8959424E-1,2.1004145E0,1.3020985E0,-2.413626E0,-5.7933533E-1,3.5215418E0,7.629882E-1,1.9271574E0,8.895959E-1,5.222144E-1,1.3530447E-1,-8.329159E-1,-3.3987586E0,-4.7606534E-1,-3.8174218E-1,2.0406921E-1,1.008103E0,6.226525E-1,2.9177682E0,4.6641347E-1,2.1649118E-1,-6.012116E-1,2.7177382E-2,-2.5701864E0,-1.2859582E0,-1.2722241E0,-1.7283045E-1,9.70242E-1,-2.2739223E-1,7.0960814E-1,2.1520251E-1,8.1187524E-2,-1.3215762E-1,-5.7338667E-1,-2.5643316E-1,3.4718446E-2,-3.0796713E-1,-1.0326001E-1,8.797261E-2,1.5239117E-1,4.680773E-1,-7.8433566E-2,1.5070978E-1],"categories":[],"categories_nodes":[],"categories_segments":[],"categories_sizes":[],"default_left":[0,0,0,0,0,0,0,0,0,0,0,0,0,0,0,0,0,0,0,0,0,0,0,0,0,0,0,0,0,0,0,0,0,0,0,0,0,0,0,0,0,0,0,0,0,0,0,0,0,0,0,0,0],"id":14,"left_children":[1,-1,3,5,7,9,11,13,15,17,-1,19,-1,21,23,25,27,29,-1,-1,-1,31,33,-1,35,-1,-1,37,39,-1,-1,-1,41,43,-1,45,47,49,51,-1,-1,-1,-1,-1,-1,-1,-1,-1,-1,-1,-1,-1,-1],"loss_changes":[7.166138E2,0E0,2.1122414E2,1.788852E1,1.270143E2,1.4977966E1,2.5930664E1,5.4976425E1,1.7520233E1,6.5606613E0,0E0,1.4944954E0,0E0,3.0534523E1,2.8880135E1,6.5137634E0,1.6827553E1,5.8153725E-1,0E0,0E0,0E0,1.5442326E1,2.2665466E1,0E0,1.4110037E1,0E0,0E0,1.6488804E1,1.92906E0,0E0,0E0,0E0,1.7300673E0,1.7051468E0,0E0,5.1013565E0,1.2696162E1,1.0848614E1,2.6271183E0,0E0,0E0,0E0,0E0,0E0,0E0,0E0,0E0,0E0,0E0,0E0,0E0,0E0,0E0],"parents":[2147483647,0,0,2,2,3,3,4,4,5,5,6,6,7,7,8,8,9,9,11,11,13,13,14,14,15,15,16,16,17,17,21,21,22,22,24,24,27,27,28,28,32,32,33,33,35,35,36,36,37,37,38,38],"right_children":[2,-1,4,6,8,10,12,14,16,18,-1,20,-1,22,24,26,28,30,-1,-1,-1,32,34,-1,36,-1,-1,38,40,-1,-1,-1,42,44,-1,46,48,50,52,-1,-1,-1,-1,-1,-1,-1,-1,-1,-1,-1,-1,-1,-1],"split_conditions":[3.43E6,3.5230343E0,1.989E1,-2.18E0,9E0,6.29E6,1.284E1,4E0,1E0,1.58558E2,-1.8959424E-1,1.190495E2,1.3020985E0,2.186E1,2.12418E1,1.3027E7,9.62939E1,1.460107E2,8.895959E-1,5.222144E-1,1.3530447E-1,3.58E0,4.83952E1,-4.7606534E-1,-1.49E0,2.0406921E-1,1.008103E0,9.8E-2,9.24535E1,4.6641347E-1,2.1649118E-1,-6.012116E-1,1.8459E7,3.56E0,-1.2859582E0,2.12E1,5.27189E1,1.329E1,1.648E0,7.0960814E-1,2.1520251E-1,8.1187524E-2,-1.3215762E-1,-5.7338667E-1,-2.5643316E-1,3.4718446E-2,-3.0796713E-1,-1.0326001E-1,8.797261E-2,1.5239117E-1,4.680773E-1,-7.8433566E-2,1.5070978E-1],"split_indices":[6,0,9,5,22,6,14,21,21,0,0,0,0,9,0,6,0,2,0,0,0,12,0,0,5,0,0,17,2,0,0,0,6,5,0,9,3,5,19,0,0,0,0,0,0,0,0,0,0,0,0,0,0],"split_type":[0,0,0,0,0,0,0,0,0,0,0,0,0,0,0,0,0,0,0,0,0,0,0,0,0,0,0,0,0,0,0,0,0,0,0,0,0,0,0,0,0,0,0,0,0,0,0,0,0,0,0,0,0],"sum_hessian":[1.81E2,2E0,1.79E2,1.5E1,1.64E2,8E0,7E0,1.04E2,6E1,7E0,1E0,3E0,4E0,2E1,8.4E1,2E0,5.8E1,5E0,2E0,2E0,1E0,8E0,1.2E1,8E0,7.6E1,1E0,1E0,5.5E1,3E0,3E0,2E0,2E0,6E0,1E1,2E0,1.4E1,6.2E1,3.9E1,1.6E1,2E0,1E0,4E0,2E0,8E0,2E0,2E0,1.2E1,4E1,2.2E1,3.4E1,5E0,1.4E1,2E0],"tree_param":{"num_deleted":"0","num_feature":"23","num_nodes":"53","size_leaf_vector":"1"}},{"base_weights":[1.3464317E-1,2.936393E0,-6.7089744E-2,-2.946498E-1,2.8859444E0,4.4079736E-2,-1.7529436E0,3.6828744E0,3.24538E-1,-8.231883E-2,2.154574E0,-1.8248498E0,-1.1054056E0,3.865069E-1,8.249831E-1,8.690249E-1,-1.4065419E-1,1.6115014E-1,-8.366307E-1,1.6804309E0,6.357133E-1,-1.5604854E0,5.3642083E-2,6.247533E-2,2.3568656E-1,-5.751238E-1,2.0669985E-1,-9.8178315E-1,9.994564E-1,-2.457644E-1,2.1583399E-1,-1.8245116E0,-4.2489025E-1,1.1164646E-1,-1.362595E-1,-0E0,1.9258001E-1,-1.4296359E-1,-3.8490817E-1,3.2655892E-1,1.654733E-2,-7.8161575E-2,-5.2357963E-3,-4.5323762E-1,-2.4609065E-1,-1.5282266E-1,9.65659E-2,-1.0748934E-1,1.8478498E-2],"categories":[],"categories_nodes":[],"categories_segments":[],"categories_sizes":[],"default_left":[0,0,0,0,0,0,0,0,0,0,0,0,0,0,0,0,0,0,0,0,0,0,0,0,0,0,0,0,0,0,0,0,0,0,0,0,0,0,0,0,0,0,0,0,0,0,0,0,0],"id":15,"left_children":[1,-1,3,5,7,9,11,13,15,17,19,-1,21,-1,-1,23,-1,25,27,-1,29,31,33,-1,-1,-1,35,37,39,41,-1,43,45,-1,47,-1,-1,-1,-1,-1,-1,-1,-1,-1,-1,-1,-1,-1,-1],"loss_changes":[5.056695E2,0E0,1.1691338E2,7.980043E1,2.4837677E1,3.5164062E1,1.374224E2,2.657486E0,2.1753228E0,2.292173E1,6.645882E1,0E0,1.5056606E1,0E0,0E0,2.2333086E-1,0E0,1.3069143E1,8.554516E0,0E0,2.529269E0,5.7628593E0,8.299006E-1,0E0,0E0,0E0,1.4259772E1,6.614437E0,1.2810667E0,6.60267E-2,0E0,2.8162804E0,1.4602516E0,0E0,5.976435E-1,0E0,0E0,0E0,0E0,0E0,0E0,0E0,0E0,0E0,0E0,0E0,0E0,0E0,0E0],"parents":[2147483647,0,0,2,2,3,3,4,4,5,5,6,6,7,7,8,8,9,9,10,10,12,12,15,15,17,17,18,18,20,20,21,21,22,22,26,26,27,27,28,28,29,29,31,31,32,32,34,34],"right_children":[2,-1,4,6,8,10,12,14,16,18,20,-1,22,-1,-1,24,-1,26,28,-1,30,32,34,-1,-1,-1,36,38,40,42,-1,44,46,-1,48,-1,-1,-1,-1,-1,-1,-1,-1,-1,-1,-1,-1,-1,-1],"split_conditions":[3.43E6,2.936393E0,8.56889E1,1.7362E8,1.251E1,1.37155E8,1.7421E7,-1.696E0,9.04819E1,1.331E1,1.38759E8,-1.8248498E0,9.20803E8,3.865069E-1,8.249831E-1,8.32593E1,-1.4065419E-1,-2.223E0,3.9834E7,1.6804309E0,9.4E-1,3.292E1,4.94247E1,6.247533E-2,2.3568656E-1,-5.751238E-1,2.949E2,5.31915E1,5.85214E1,6.68699E1,2.1583399E-1,3.56E0,8.50933E8,1.1164646E-1,5.17083E1,-0E0,1.9258001E-1,-1.4296359E-1,-3.8490817E-1,3.2655892E-1,1.654733E-2,-7.8161575E-2,-5.2357963E-3,-4.5323762E-1,-2.4609065E-1,-1.5282266E-1,9.65659E-2,-1.0748934E-1,1.8478498E-2],"split_indices":[6,0,2,6,10,6,7,17,2,10,6,0,6,0,0,1,0,16,6,0,5,13,1,0,0,0,15,2,1,1,0,5,7,0,1,0,0,0,0,0,0,0,0,0,0,0,0,0,0],"split_type":[0,0,0,0,0,0,0,0,0,0,0,0,0,0,0,0,0,0,0,0,0,0,0,0,0,0,0,0,0,0,0,0,0,0,0,0,0,0,0,0,0,0,0,0,0,0,0,0,0],"sum_hessian":[1.75E2,2E0,1.73E2,1.61E2,1.2E1,1.31E2,3E1,9E0,3E0,1.24E2,7E0,2E0,2.8E1,2E0,7E0,2E0,1E0,9.4E1,3E1,1E0,6E0,2E1,8E0,1E0,1E0,1E0,9.3E1,2.8E1,2E0,2E0,4E0,1.6E1,4E0,2E0,6E0,7.3E1,2E1,2.2E1,6E0,1E0,1E0,1E0,1E0,9E0,7E0,3E0,1E0,2E0,4E0],"tree_param":{"num_deleted":"0","num_feature":"23","num_nodes":"49","size_leaf_vector":"1"}},{"base_weights":[7.197434E-2,-6.811502E-1,4.433202E-1,-1.5830071E0,-4.9878153E-1,-2.8163617E0,5.7058144E-1,-4.09021E-1,-2.2528422E-1,-7.685408E-1,-1.1210237E-1,-7.354061E-1,-3.0687478E-1,-3.7542088E0,6.6421396E-1,-1.00404E0,1.0330604E-1,5.4750484E-1,-5.5645657E-1,-1.23194E0,-6.0405023E-2,3.0695422E0,5.370264E-1,-8.562273E-1,-3.474454E-1,4.3773153E-1,-5.194899E-1,1.665233E-3,1.0361147E0,-1.0133297E0,-2.8529152E-1,-1.277646E0,5.759673E0,1.8627663E0,2.9044837E-1,-1.0167912E0,-3.583013E-1,1.2963438E-1,-3.3315435E-2,-1.4129257E-1,-3.6425732E-2,-1.4606728E-1,3.0576897E-1,9.157106E-2,2.9139304E-1,-6.9283836E-2,-2.3681343E-1,-3.7668633E-1,3.9199516E-3,5.2634384E-2,-4.9417716E-1,5.130049E-1,1.3493372E0,3.4187481E0,1.4010304E0,1.405713E-1,1.305298E0,-2.2619078E-1,-7.228586E-2,-9.009991E-2,6.9733127E-4,-7.62288E-3,9.305585E-2,-2.080231E-2,-8.5002884E-2,-8.577499E-3,1.1216928E-2,8.125593E-1,2.8430444E-1,3.5921898E-1,9.9970385E-2,1.7802423E-2,3.6147594E-1,1.9504175E-1,4.906872E-1],"categories":[],"categories_nodes":[],"categories_segments":[],"categories_sizes":[],"default_left":[0,0,0,0,0,0,0,0,0,0,0,0,0,0,0,0,0,0,0,0,0,0,0,0,0,0,0,0,0,0,0,0,0,0,0,0,0,0,0,0,0,0,0,0,0,0,0,0,0,0,0,0,0,0,0,0,0,0,0,0,0,0,0,0,0,0,0,0,0,0,0,0,0,0,0],"id":16,"left_children":[1,3,5,7,9,11,13,-1,-1,15,17,-1,-1,19,21,23,25,27,29,-1,-1,31,33,35,-1,37,39,41,43,45,47,49,51,53,55,57,59,-1,-1,-1,-1,-1,61,-1,-1,-1,-1,63,65,-1,-1,-1,-1,67,69,71,73,-1,-1,-1,-1,-1,-1,-1,-1,-1,-1,-1,-1,-1,-1,-1,-1,-1,-1],"loss_changes":[4.8641396E1,9.075556E0,4.900611E1,8.896866E-1,5.0069685E0,2.1336174E0,4.6624325E1,0E0,0E0,5.895714E0,6.1300106E0,0E0,0E0,1.8522068E1,3.301727E1,1.646698E0,1.444214E0,2.242894E0,1.4007132E0,0E0,0E0,6.705411E1,3.420862E1,1.378972E0,0E0,5.810568E-1,8.139932E-2,1.066063E0,7.2201586E-1,2.5395536E-1,2.273826E-1,4.6124077E0,2.065979E0,9.62616E0,1.350983E1,6.9880295E-1,1.6968715E-1,0E0,0E0,0E0,0E0,0E0,1.8988189E-1,0E0,0E0,0E0,0E0,4.7591984E-2,6.9124904E-3,0E0,0E0,0E0,0E0,1.4198303E0,4.0159416E0,6.7323093E0,3.3324947E0,0E0,0E0,0E0,0E0,0E0,0E0,0E0,0E0,0E0,0E0,0E0,0E0,0E0,0E0,0E0,0E0,0E0,0E0],"parents":[2147483647,0,0,1,1,2,2,3,3,4,4,5,5,6,6,9,9,10,10,13,13,14,14,15,15,16,16,17,17,18,18,21,21,22,22,23,23,25,25,26,26,27,27,28,28,29,29,30,30,31,31,32,32,33,33,34,34,35,35,36,36,42,42,47,47,48,48,53,53,54,54,55,55,56,56],"right_children":[2,4,6,8,10,12,14,-1,-1,16,18,-1,-1,20,22,24,26,28,30,-1,-1,32,34,36,-1,38,40,42,44,46,48,50,52,54,56,58,60,-1,-1,-1,-1,-1,62,-1,-1,-1,-1,64,66,-1,-1,-1,-1,68,70,72,74,-1,-1,-1,-1,-1,-1,-1,-1,-1,-1,-1,-1,-1,-1,-1,-1,-1,-1],"split_conditions":[5.17949E1,2.05656E1,-1.847E1,5.66E8,3.34E0,6.10792E1,-1.908E0,-4.09021E-1,-2.2528422E-1,9.52E-1,7.4E0,-7.354061E-1,-3.0687478E-1,5.87515E1,1E0,5.07044E1,4.39264E1,6E0,3.61379E1,-1.23194E0,-6.0405023E-2,1.9E7,6.4E6,5.89E-1,-3.474454E-1,7.74E8,4.63012E1,3.82857E1,6.04E6,5.147E6,5.24345E1,8.46E6,6.2715E7,-1.173E1,6.77E0,4.92674E1,4.71141E1,1.2963438E-1,-3.3315435E-2,-1.4129257E-1,-3.6425732E-2,-1.4606728E-1,4.49549E1,9.157106E-2,2.9139304E-1,-6.9283836E-2,-2.3681343E-1,5.575E6,3.70522E1,5.2634384E-2,-4.9417716E-1,5.130049E-1,1.3493372E0,9.8038E1,2.35E-1,1.365E0,5.368E2,-2.2619078E-1,-7.228586E-2,-9.009991E-2,6.9733127E-4,-7.62288E-3,9.305585E-2,-2.080231E-2,-8.5002884E-2,-8.577499E-3,1.1216928E-2,8.125593E-1,2.8430444E-1,3.5921898E-1,9.9970385E-2,1.7802423E-2,3.6147594E-1,1.9504175E-1,4.906872E-1],"split_indices":[0,0,5,7,5,0,19,0,0,18,5,0,0,0,20,1,2,22,0,0,0,6,7,17,0,6,0,0,6,6,2,6,6,8,5,1,1,0,0,0,0,0,0,0,0,0,0,6,0,0,0,0,0,0,17,18,11,0,0,0,0,0,0,0,0,0,0,0,0,0,0,0,0,0,0],"split_type":[0,0,0,0,0,0,0,0,0,0,0,0,0,0,0,0,0,0,0,0,0,0,0,0,0,0,0,0,0,0,0,0,0,0,0,0,0,0,0,0,0,0,0,0,0,0,0,0,0,0,0,0,0,0,0,0,0,0,0,0,0,0,0,0,0,0,0,0,0,0,0,0,0,0,0],"sum_hessian":[1.73E2,5.7E1,1.16E2,9E0,4.8E1,4E0,1.12E2,4E0,5E0,2.8E1,2E1,2E0,2E0,2E0,1.1E2,2.2E1,6E0,8E0,1.2E1,1E0,1E0,5E0,1.05E2,1.9E1,3E0,4E0,2E0,4E0,4E0,4E0,8E0,2E0,3E0,1.6E1,8.9E1,1.4E1,5E0,3E0,1E0,1E0,1E0,1E0,3E0,2E0,2E0,1E0,3E0,6E0,2E0,1E0,1E0,1E0,2E0,3E0,1.3E1,7.8E1,1.1E1,1.2E1,2E0,4E0,1E0,1E0,2E0,1E0,5E0,1E0,1E0,2E0,1E0,9E0,4E0,7.6E1,2E0,9E0,2E0],"tree_param":{"num_deleted":"0","num_feature":"23","num_nodes":"75","size_leaf_vector":"1"}},{"base_weights":[2.095126E-1,-1.4852007E-1,3.8067365E0,-1.4286504E-2,-3.2478504E0,2.4961462E0,2.84209E0,-3.0277866E-1,6.7006534E-1,-1.6431183E0,-1.6863796E0,9.633816E-1,2.3684459E0,-1.0585485E0,-2.3358336E-1,4.0283722E-1,1.3417724E0,-4.3277064E-1,-1.3503288E-1,3.6526673E-2,2.5518599E0,-7.5792056E-1,4.701869E-2,-1.9526558E-1,4.6005338E-1,6.9625026E-1,1.7319804E0,3.0161052E0,3.6502352E-1,-1.1764724E0,-5.029899E-1,2.9845944E-1,-9.0136135E-1,9.922852E-1,3.167298E-1,2.3117714E-1,1.9023745E-1,1.0547827E0,4.846738E-1,3.9998952E-1,7.4913067E-1,-2.8626817E-1,2.0593982E-2,6.703626E-2,-1.390431E-1,1.0623064E-2,1.1246514E0,-6.120005E-2,-1.2633705E0,5.6359973E-2,2.2406341E-1,-1.4076666E-2,1.01084605E-1,1.7084235E-2,6.128662E-2,8.32697E-2,2.4183942E-1],"categories":[],"categories_nodes":[],"categories_segments":[],"categories_sizes":[],"default_left":[0,0,0,0,0,0,0,0,0,0,0,0,0,0,0,0,0,0,0,0,0,0,0,0,0,0,0,0,0,0,0,0,0,0,0,0,0,0,0,0,0,0,0,0,0,0,0,0,0,0,0,0,0,0,0,0,0],"id":17,"left_children":[1,3,5,7,9,-1,11,13,15,17,-1,-1,19,-1,21,23,25,-1,-1,-1,27,29,31,-1,33,35,37,39,-1,41,43,45,47,49,51,53,-1,55,-1,-1,-1,-1,-1,-1,-1,-1,-1,-1,-1,-1,-1,-1,-1,-1,-1,-1,-1],"loss_changes":[2.1981125E2,6.462112E1,1.10022095E2,2.9593166E1,4.5816986E1,0E0,7.81147E0,3.5089268E1,7.7201614E0,1.9087114E0,0E0,0E0,4.7684784E0,0E0,1.5389965E1,2.7193885E0,2.572794E0,0E0,0E0,0E0,1.579956E0,3.6084614E0,1.6437328E1,0E0,2.2460523E0,4.9324226E-1,2.1016731E0,1.19413E0,0E0,3.991499E0,3.598123E0,6.982223E1,4.5108177E1,3.4480572E-1,1.7784107E0,1.0254517E-2,0E0,1.4663458E-1,0E0,0E0,0E0,0E0,0E0,0E0,0E0,0E0,0E0,0E0,0E0,0E0,0E0,0E0,0E0,0E0,0E0,0E0,0E0],"parents":[2147483647,0,0,1,1,2,2,3,3,4,4,6,6,7,7,8,8,9,9,12,12,14,14,15,15,16,16,20,20,21,21,22,22,24,24,25,25,26,26,27,27,29,29,30,30,31,31,32,32,33,33,34,34,35,35,37,37],"right_children":[2,4,6,8,10,-1,12,14,16,18,-1,-1,20,-1,22,24,26,-1,-1,-1,28,30,32,-1,34,36,38,40,-1,42,44,46,48,50,52,54,-1,56,-1,-1,-1,-1,-1,-1,-1,-1,-1,-1,-1,-1,-1,-1,-1,-1,-1,-1,-1],"split_conditions":[9.27141E1,4.99E0,3.43E6,6.73284E1,1.95984E1,2.4961462E0,-1.322E0,-1.908E0,3.5E0,1.68708E1,-1.6863796E0,9.633816E-1,-1.747E1,-1.0585485E0,7.4E-1,5.31709E1,-6.89E-1,-4.3277064E-1,-1.3503288E-1,3.6526673E-2,1.358E1,4.5889E1,1.69808E8,-1.9526558E-1,7.23572E1,7.27675E1,5.624E2,1.794E1,3.6502352E-1,2.311E1,8.322E6,1.37155E8,5.69423E1,-1.031E1,7.71044E1,7.06889E1,1.9023745E-1,7.88813E1,4.846738E-1,3.9998952E-1,7.4913067E-1,-2.8626817E-1,2.0593982E-2,6.703626E-2,-1.390431E-1,1.0623064E-2,1.1246514E0,-6.120005E-2,-1.2633705E0,5.6359973E-2,2.2406341E-1,-1.4076666E-2,1.01084605E-1,1.7084235E-2,6.128662E-2,8.32697E-2,2.4183942E-1],"split_indices":[1,12,6,0,0,0,19,19,5,0,0,0,5,0,5,3,17,0,0,0,14,0,6,0,3,1,11,9,0,14,6,6,0,5,0,0,0,0,0,0,0,0,0,0,0,0,0,0,0,0,0,0,0,0,0,0,0],"split_type":[0,0,0,0,0,0,0,0,0,0,0,0,0,0,0,0,0,0,0,0,0,0,0,0,0,0,0,0,0,0,0,0,0,0,0,0,0,0,0,0,0,0,0,0,0,0,0,0,0,0,0,0,0,0,0,0,0],"sum_hessian":[1.7E2,1.55E2,1.5E1,1.49E2,6E0,1E0,1.4E1,1.05E2,4.4E1,5E0,1E0,2E0,1.2E1,1E0,1.04E2,3.2E1,1.2E1,3E0,2E0,1E0,1.1E1,3.6E1,6.8E1,1E0,3.1E1,5E0,7E0,6E0,5E0,1.3E1,2.3E1,5.4E1,1.4E1,6E0,2.5E1,2E0,3E0,4E0,3E0,3E0,3E0,1.1E1,2E0,4E0,1.9E1,5.2E1,2E0,1.3E1,1E0,1E0,5E0,8E0,1.7E1,1E0,1E0,1E0,3E0],"tree_param":{"num_deleted":"0","num_feature":"23","num_nodes":"57","size_leaf_vector":"1"}},{"base_weights":[-1.175232E-1,3.3916364E0,-3.6304554E-1,9.945674E-1,4.617873E0,-2.281937E0,-2.7059156E-1,3.593626E-1,4.02993E-2,5.1200356E0,1.9291446E-1,-4.3317814E0,5.4908746E-1,-6.241121E-1,-2.2550133E-1,-1.6210154E-2,3.138526E-2,1.1313474E0,3.8940805E-1,-1.9791528E0,-1.3959715E0,-6.9316345E-1,2.8911326E-2,-5.101849E-1,-9.678845E-2,-1.0108739E0,-4.952873E-1,8.8769466E-1,-5.9857994E-2,-1.3872298E0,-7.6805675E-1,-3.1636766E-1,-4.084279E-1,1.2525756E0,-3.8116172E-1,-1.721276E-2,-3.2679552E-1,-8.708602E-2,-3.0677003E-1,-9.223099E-2,-1.8951364E-1,-1.7947191E-1,-5.8311656E-2,2.2728913E-2,3.3848882E-1,-1.6778244E-1,3.5152193E-2,-5.745293E-2,3.866765E-2],"categories":[],"categories_nodes":[],"categories_segments":[],"categories_sizes":[],"default_left":[0,0,0,0,0,0,0,0,0,0,0,0,0,0,0,0,0,0,0,0,0,0,0,0,0,0,0,0,0,0,0,0,0,0,0,0,0,0,0,0,0,0,0,0,0,0,0,0,0],"id":18,"left_children":[1,3,5,7,9,11,13,-1,15,17,-1,19,-1,-1,21,-1,-1,-1,-1,23,-1,25,27,-1,-1,29,31,33,35,37,39,-1,41,43,45,47,-1,-1,-1,-1,-1,-1,-1,-1,-1,-1,-1,-1,-1],"loss_changes":[1.5082481E2,3.1540588E1,2.8697063E1,3.2135067E0,1.1504456E1,8.121341E1,1.9350685E1,0E0,3.9517842E-2,4.0836487E0,0E0,2.6102287E1,0E0,0E0,1.8391186E1,0E0,0E0,0E0,0E0,2.1569366E0,0E0,3.184803E0,7.6889305E0,0E0,0E0,1.3713493E0,2.8599672E0,4.596349E0,5.9916883E0,5.3609276E-1,4.8494625E-1,0E0,1.7505488E0,3.368535E0,6.686189E-1,4.922886E0,0E0,0E0,0E0,0E0,0E0,0E0,0E0,0E0,0E0,0E0,0E0,0E0,0E0],"parents":[2147483647,0,0,1,1,2,2,3,3,4,4,5,5,6,6,8,8,9,9,11,11,14,14,19,19,21,21,22,22,25,25,26,26,27,27,28,28,29,29,30,30,32,32,33,33,34,34,35,35],"right_children":[2,4,6,8,10,12,14,-1,16,18,-1,20,-1,-1,22,-1,-1,-1,-1,24,-1,26,28,-1,-1,30,32,34,36,38,40,-1,42,44,46,48,-1,-1,-1,-1,-1,-1,-1,-1,-1,-1,-1,-1,-1],"split_conditions":[1.912E1,1.284E1,1E0,1.010009E2,1.367E1,1.1E1,-2.665E1,3.593626E-1,1.190495E2,1.905E1,1.9291446E-1,-1.02E0,5.4908746E-1,-6.241121E-1,5.03665E1,-1.6210154E-2,3.138526E-2,1.1313474E0,3.8940805E-1,1.9E7,-1.3959715E0,8E0,6.475E6,-5.101849E-1,-9.678845E-2,3.23853E1,-1.728E0,8.4E-1,9.27141E1,1.61522E1,-3.97E-1,-3.1636766E-1,2.07125E1,-9.69E-1,5.01298E1,-6.2E-1,-3.2679552E-1,-8.708602E-2,-3.0677003E-1,-9.223099E-2,-1.8951364E-1,-1.7947191E-1,-5.8311656E-2,2.2728913E-2,3.3848882E-1,-1.6778244E-1,3.5152193E-2,-5.745293E-2,3.866765E-2],"split_indices":[9,14,20,1,14,22,5,0,1,9,0,16,0,0,4,0,0,0,0,6,0,20,6,0,0,1,16,16,1,1,16,0,1,16,1,5,0,0,0,0,0,0,0,0,0,0,0,0,0],"split_type":[0,0,0,0,0,0,0,0,0,0,0,0,0,0,0,0,0,0,0,0,0,0,0,0,0,0,0,0,0,0,0,0,0,0,0,0,0,0,0,0,0,0,0,0,0,0,0,0,0],"sum_hessian":[1.74E2,1.1E1,1.63E2,4E0,7E0,7E0,1.56E2,2E0,2E0,6E0,1E0,5E0,2E0,2E0,1.54E2,1E0,1E0,5E0,1E0,3E0,2E0,5.4E1,1E2,2E0,1E0,2E1,3.4E1,9E0,9.1E1,7E0,1.3E1,2E0,3.2E1,7E0,2E0,8.9E1,2E0,1E0,6E0,5E0,8E0,6E0,2.6E1,2E0,5E0,1E0,1E0,3.9E1,5E1],"tree_param":{"num_deleted":"0","num_feature":"23","num_nodes":"49","size_leaf_vector":"1"}},{"base_weights":[1.9616874E-1,6.447354E-2,7.212452E0,-4.358441E-1,4.2491663E-1,1.7835888E0,4.839819E-1,-6.0862947E-1,-0E0,-2.2076654E0,5.1009256E-1,-1.2327267E0,-5.068631E-1,-6.2084454E-1,2.988221E-1,-4.183667E-2,-6.082958E-1,1.8216193E0,3.7777555E-1,-3.2523596E-1,-1.6819842E-1,-9.091177E-1,-3.77579E-1,-6.317944E-2,-1.6250287E-1,-9.484266E-2,1.030859E0,8.223319E-1,9.834557E-1,-1.5285632E-1,5.473063E-1,4.3076117E-2,-1.0262979E0,-1.3662399E0,-3.04264E-1,-3.0398306E-1,7.4721314E-2,2.695387E-2,3.2755774E-1,3.8027238E-2,2.5662088E-1,-3.555496E-1,1.6471173E0,1.906641E0,4.3373075E-1,-2.4118137E-1,-5.9759572E-2,-1.1776536E-1,-3.5172802E-1,-8.005826E-2,2.4380993E-2,-2.8099455E-2,-1.2521353E-1,-1.11627E-2,2.173921E-2,-1.5048234E-1,1.6865453E-1,4.1035062E-1,1.559281E-1,-3.8307136E-1,8.865763E-1,-2.3642118E-1,1.0520361E-1],"categories":[],"categories_nodes":[],"categories_segments":[],"categories_sizes":[],"default_left":[0,0,0,0,0,0,0,0,0,0,0,0,0,0,0,0,0,0,0,0,0,0,0,0,0,0,0,0,0,0,0,0,0,0,0,0,0,0,0,0,0,0,0,0,0,0,0,0,0,0,0,0,0,0,0,0,0,0,0,0,0,0,0],"id":19,"left_children":[1,3,5,7,9,-1,-1,11,13,15,17,19,21,23,25,-1,-1,27,29,-1,-1,31,33,-1,-1,35,37,-1,39,41,43,-1,45,47,49,51,-1,53,-1,-1,-1,55,57,59,61,-1,-1,-1,-1,-1,-1,-1,-1,-1,-1,-1,-1,-1,-1,-1,-1,-1,-1],"loss_changes":[1.7292915E2,3.334558E1,1.6238327E1,5.827608E0,2.4582638E1,0E0,0E0,3.2256336E0,4.2503557E0,5.058405E0,1.7797062E1,4.8914528E-1,2.3539104E0,2.8752685E-1,4.504226E0,0E0,0E0,1.5698151E1,8.627485E0,0E0,0E0,1.6077662E0,2.5127563E0,0E0,0E0,1.0576459E0,3.1166759E0,0E0,1.5167384E0,8.805598E0,1.0792971E1,0E0,1.0329523E0,2.2565842E-1,1.3532512E0,3.3911693E-1,0E0,1.9037504E-2,0E0,0E0,0E0,9.983063E0,7.478285E-2,5.40743E1,9.11804E0,0E0,0E0,0E0,0E0,0E0,0E0,0E0,0E0,0E0,0E0,0E0,0E0,0E0,0E0,0E0,0E0,0E0,0E0],"parents":[2147483647,0,0,1,1,2,2,3,3,4,4,7,7,8,8,9,9,10,10,11,11,12,12,13,13,14,14,17,17,18,18,21,21,22,22,25,25,26,26,28,28,29,29,30,30,32,32,33,33,34,34,35,35,37,37,41,41,42,42,43,43,44,44],"right_children":[2,4,6,8,10,-1,-1,12,14,16,18,20,22,24,26,-1,-1,28,30,-1,-1,32,34,-1,-1,36,38,-1,40,42,44,-1,46,48,50,52,-1,54,-1,-1,-1,56,58,60,62,-1,-1,-1,-1,-1,-1,-1,-1,-1,-1,-1,-1,-1,-1,-1,-1,-1,-1],"split_conditions":[1.586274E2,5.6587E1,1.888397E2,6.56E0,-1.908E0,1.7835888E0,4.839819E-1,2.12418E1,-8.57E-1,-3.62E0,2.62E0,2.295E1,-6.16E-1,4.5116E1,-9.7E-2,-4.183667E-2,-6.082958E-1,1.163471E2,-9.37E-1,-3.2523596E-1,-1.6819842E-1,-1.61E1,-8.1E0,-6.317944E-2,-1.6250287E-1,1.3E1,6.29E6,8.223319E-1,4.785E6,2.916E1,1E0,4.3076117E-2,9.87E-1,5.17949E1,5.38754E1,-2.21E-1,7.4721314E-2,3.92796E1,3.2755774E-1,3.8027238E-2,2.5662088E-1,9.942E2,5.87515E1,4E0,-1.364E1,-2.4118137E-1,-5.9759572E-2,-1.1776536E-1,-3.5172802E-1,-8.005826E-2,2.4380993E-2,-2.8099455E-2,-1.2521353E-1,-1.11627E-2,2.173921E-2,-1.5048234E-1,1.6865453E-1,4.1035062E-1,1.559281E-1,-3.8307136E-1,8.865763E-1,-2.3642118E-1,1.0520361E-1],"split_indices":[0,0,0,5,19,0,0,0,19,5,12,14,16,1,18,0,0,1,16,0,0,5,5,0,0,20,7,0,7,13,20,0,19,0,0,18,0,0,0,0,0,11,0,22,5,0,0,0,0,0,0,0,0,0,0,0,0,0,0,0,0,0,0],"split_type":[0,0,0,0,0,0,0,0,0,0,0,0,0,0,0,0,0,0,0,0,0,0,0,0,0,0,0,0,0,0,0,0,0,0,0,0,0,0,0,0,0,0,0,0,0,0,0,0,0,0,0,0,0,0,0,0,0,0,0,0,0,0,0],"sum_hessian":[1.87E2,1.84E2,3E0,7.7E1,1.07E2,2E0,1E0,5.5E1,2.2E1,3E0,1.04E2,7E0,4.8E1,7E0,1.5E1,1E0,2E0,9E0,9.5E1,3E0,4E0,1.1E1,3.7E1,3E0,4E0,1E1,5E0,2E0,7E0,2.3E1,7.2E1,1E0,1E1,2E0,3.5E1,7E0,3E0,2E0,3E0,2E0,5E0,2.1E1,2E0,5E0,6.7E1,8E0,2E0,1E0,1E0,2.9E1,6E0,5E0,2E0,1E0,1E0,1.6E1,5E0,1E0,1E0,2E0,3E0,3E0,6.4E1],"tree_param":{"num_deleted":"0","num_feature":"23","num_nodes":"63","size_leaf_vector":"1"}},{"base_weights":[1.0943038E-1,4.315876E-2,1.734556E0,-6.2253106E-1,2.1215858E-1,-3.1198204E-1,-9.022932E-1,1.0945253E0,6.977052E-2,-4.285458E-1,2.4812722E-1,-1.0339195E0,1.9724563E-1,1.0659465E-2,1.3572603E0,8.555143E-1,2.2179637E-2,-7.6414204E-1,-1.7820764E-1,-2.3808982E-2,4.223113E-1,-1.1258855E0,-2.6058227E-1,8.130569E-2,-1.2049669E-2,-5.0047036E-2,1.1952584E-1,4.9734733E-1,1.1310588E0,-4.9603143E-1,9.076673E-2,-1.8274027E-1,-7.74574E-2,2.4357488E-2,-3.306117E-1,3.7013374E-2,1.0721892E-1,-2.6557755E-1,-7.868303E-1,-9.549836E-3,-7.895351E-2,3.1695493E-2,3.139716E-3,5.3473085E-1,1.658089E0,-1.8427162E0,1.4585756E-1,-2.9597722E-2,3.9380863E-2,-8.2795024E-2,-3.259304E-2,-6.593676E-2,-1.71952E-1,-3.1199493E-2,1.3319726E-1,4.2281806E-1,1.8405746E-1,-3.594789E-2,-5.0700474E-1,2.0454371E-1,9.905872E-5],"categories":[],"categories_nodes":[],"categories_segments":[],"categories_sizes":[],"default_left":[0,0,0,0,0,0,0,0,0,0,0,0,0,0,0,0,0,0,0,0,0,0,0,0,0,0,0,0,0,0,0,0,0,0,0,0,0,0,0,0,0,0,0,0,0,0,0,0,0,0,0,0,0,0,0,0,0,0,0,0,0],"id":20,"left_children":[1,3,-1,5,7,9,11,13,15,17,19,21,23,25,27,-1,29,31,33,-1,35,37,39,-1,-1,-1,41,-1,43,-1,45,-1,-1,47,49,-1,-1,-1,51,-1,-1,-1,-1,53,55,57,59,-1,-1,-1,-1,-1,-1,-1,-1,-1,-1,-1,-1,-1,-1],"loss_changes":[1.0299457E2,2.080614E1,0E0,3.1162024E0,1.8480284E1,1.2537725E0,2.913784E0,5.8040257E0,2.495332E1,1.228178E0,2.4409711E-1,1.0967274E0,1.4023188E-1,1.3606255E-1,2.758524E0,0E0,2.1374868E1,1.6348457E-1,2.9809767E-1,0E0,1.1821151E-2,4.4851494E-1,5.421792E-2,0E0,0E0,0E0,1.0276161E-2,0E0,4.123331E0,0E0,1.3254298E1,0E0,0E0,1.403631E-1,3.5993993E-2,0E0,0E0,0E0,3.6557913E-2,0E0,0E0,0E0,0E0,6.5761733E-1,1.4741116E0,3.4828968E0,1.50072365E1,0E0,0E0,0E0,0E0,0E0,0E0,0E0,0E0,0E0,0E0,0E0,0E0,0E0,0E0],"parents":[2147483647,0,0,1,1,3,3,4,4,5,5,6,6,7,7,8,8,9,9,10,10,11,11,12,12,13,13,14,14,16,16,17,17,18,18,20,20,21,21,22,22,26,26,28,28,30,30,33,33,34,34,38,38,43,43,44,44,45,45,46,46],"right_children":[2,4,-1,6,8,10,12,14,16,18,20,22,24,26,28,-1,30,32,34,-1,36,38,40,-1,-1,-1,42,-1,44,-1,46,-1,-1,48,50,-1,-1,-1,52,-1,-1,-1,-1,54,56,58,60,-1,-1,-1,-1,-1,-1,-1,-1,-1,-1,-1,-1,-1,-1],"split_conditions":[1.653778E2,4.38887E1,1.734556E0,5.623E2,6.475E6,1.92E1,3.292E1,2.216E1,2.257E1,3.08E0,1.95984E1,9.03935E8,2.13625E1,1.240453E2,4.27477E1,8.555143E-1,-1.847E1,5.1E-1,5.794E6,-2.3808982E-2,3.23853E1,3.56E0,3.41171E1,8.130569E-2,-1.2049669E-2,-5.0047036E-2,1.58558E2,4.9734733E-1,6.5E2,-4.9603143E-1,-1.908E0,-1.8274027E-1,-7.74574E-2,-2.43E0,7.431E6,3.7013374E-2,1.0721892E-1,-2.6557755E-1,1.62897E1,-9.549836E-3,-7.895351E-2,3.1695493E-2,3.139716E-3,4.291E6,6.111E6,-3.62E0,3E0,-2.9597722E-2,3.9380863E-2,-8.2795024E-2,-3.259304E-2,-6.593676E-2,-1.71952E-1,-3.1199493E-2,1.3319726E-1,4.2281806E-1,1.8405746E-1,-3.594789E-2,-5.0700474E-1,2.0454371E-1,9.905872E-5],"split_indices":[2,0,0,11,6,14,13,13,13,5,0,6,0,0,3,0,5,8,6,0,0,5,0,0,0,0,0,0,11,0,19,0,0,8,6,0,0,0,0,0,0,0,0,6,6,5,20,0,0,0,0,0,0,0,0,0,0,0,0,0,0],"split_type":[0,0,0,0,0,0,0,0,0,0,0,0,0,0,0,0,0,0,0,0,0,0,0,0,0,0,0,0,0,0,0,0,0,0,0,0,0,0,0,0,0,0,0,0,0,0,0,0,0,0,0,0,0,0,0,0,0,0,0,0,0],"sum_hessian":[1.85E2,1.84E2,1E0,3.7E1,1.47E2,1.8E1,1.9E1,2E1,1.27E2,1.5E1,3E0,1.7E1,2E0,4E0,1.6E1,1E0,1.26E2,6E0,9E0,1E0,2E0,1.5E1,2E0,1E0,1E0,1E0,3E0,2E0,1.4E1,3E0,1.23E2,4E0,2E0,4E0,5E0,1E0,1E0,9E0,6E0,1E0,1E0,2E0,1E0,7E0,7E0,3E0,1.2E2,2E0,2E0,3E0,2E0,1E0,5E0,1E0,6E0,4E0,3E0,1E0,2E0,1.7E1,1.03E2],"tree_param":{"num_deleted":"0","num_feature":"23","num_nodes":"61","size_leaf_vector":"1"}},{"base_weights":[-1.3241942E-1,-3.8950562E-1,1.9885522E-1,-1.4784365E0,-3.0804056E-1,3.1802658E-2,8.245339E-1,-2.9974322E0,3.1561682E-1,-1.9536477E0,-2.5973323E-1,-2.532071E-1,8.696826E-2,1.0284965E0,-2.974275E-1,-7.495041E-1,-9.0774566E-2,-1.7347203E-1,-4.9843165E-1,1.4374007E-1,-3.595577E-1,5.793009E-1,-1.1697267E-2,8.29509E-1,5.201113E-1,-1.5989262E-1,8.2733995E-1,-4.7523442E-1,-2.7727174E-2,1.0505802E-1,1.61278E-1,4.5423165E-1,-2.1307608E-1,1.0176845E0,4.677904E-1,-4.2438895E-1,2.131722E-1,2.520423E-1,9.5842935E-2,-2.388412E-1,-4.21076E-1,-6.051432E-1,1.5027094E-1,2.7650642E-1,-4.300283E-2,1.464315E-1,2.3020707E-1,-2.4770868E-1,-9.614441E-2,2.2239076E-1,6.505785E-2,1.1044675E-1,1.8189188E-2,-1.23920664E-1,1.1832572E-2,1.2524771E-2,7.8293964E-2,3.1803776E-2,-0E0,-5.963711E-2,-1.5928286E-1,-1.4327304E-1,-3.6446135E-2,-1.1799451E-2,1.6805862E-1,1.29178455E-2,8.107267E-2,7.955671E-2,-2.1973932E-2,-4.724753E-2,8.630855E-2],"categories":[],"categories_nodes":[],"categories_segments":[],"categories_sizes":[],"default_left":[0,0,0,0,0,0,0,0,0,0,0,0,0,0,0,0,0,0,0,0,0,0,0,0,0,0,0,0,0,0,0,0,0,0,0,0,0,0,0,0,0,0,0,0,0,0,0,0,0,0,0,0,0,0,0,0,0,0,0,0,0,0,0,0,0,0,0,0,0,0,0],"id":21,"left_children":[1,3,5,7,9,11,13,15,-1,17,19,-1,21,23,-1,-1,-1,-1,-1,25,27,29,31,33,-1,35,37,39,41,43,-1,45,47,49,51,53,55,-1,57,-1,59,61,63,65,-1,67,-1,-1,69,-1,-1,-1,-1,-1,-1,-1,-1,-1,-1,-1,-1,-1,-1,-1,-1,-1,-1,-1,-1,-1,-1],"loss_changes":[1.4297385E1,8.157994E0,7.6573057E0,3.1740978E1,6.7834635E0,4.1456957E0,7.8643446E0,6.942993E0,0E0,3.6410904E-1,3.5069757E0,0E0,2.7502787E0,3.3993044E0,0E0,0E0,0E0,0E0,0E0,3.6870222E0,2.655264E0,9.040756E-1,4.49316E0,6.8838215E-1,0E0,1.2708071E0,1.5653274E0,1.7049541E0,1.9410176E0,2.1358146E-1,0E0,2.9166737E0,3.8552346E0,2.6382923E-1,1.25278E-1,6.8042636E-1,1.2664069E-1,0E0,1.2767253E-2,0E0,2.1311188E0,1.2095821E-1,2.0561116E0,4.7737062E-2,0E0,6.6922915E-1,0E0,0E0,2.1881742E0,0E0,0E0,0E0,0E0,0E0,0E0,0E0,0E0,0E0,0E0,0E0,0E0,0E0,0E0,0E0,0E0,0E0,0E0,0E0,0E0,0E0,0E0],"parents":[2147483647,0,0,1,1,2,2,3,3,4,4,5,5,6,6,7,7,9,9,10,10,12,12,13,13,19,19,20,20,21,21,22,22,23,23,25,25,26,26,27,27,28,28,29,29,31,31,32,32,33,33,34,34,35,35,36,36,38,38,40,40,41,41,42,42,43,43,45,45,48,48],"right_children":[2,4,6,8,10,12,14,16,-1,18,20,-1,22,24,-1,-1,-1,-1,-1,26,28,30,32,34,-1,36,38,40,42,44,-1,46,48,50,52,54,56,-1,58,-1,60,62,64,66,-1,68,-1,-1,70,-1,-1,-1,-1,-1,-1,-1,-1,-1,-1,-1,-1,-1,-1,-1,-1,-1,-1,-1,-1,-1,-1],"split_conditions":[6.37517E1,1E0,5.38E0,2.342E1,-2.665E1,-1.847E1,4.982E2,6.231E2,3.1561682E-1,5.83479E1,9E6,-2.532071E-1,5.80505E1,1.39967E2,-2.974275E-1,-7.495041E-1,-9.0774566E-2,-1.7347203E-1,-4.9843165E-1,5.30985E1,1.5E1,-2.46E0,4.934E2,-1.07E-1,5.201113E-1,2.745E1,5.64468E1,-6.18E0,1.485E2,7.6949E1,1.61278E-1,-4.51E-1,6.5225E1,1.352699E2,7.21825E1,-1.61E-1,5.907E6,2.520423E-1,3.23853E1,-2.388412E-1,3.402E2,5.31915E1,2.23E0,7.51598E1,-4.300283E-2,-3.72E-1,2.3020707E-1,-2.4770868E-1,9.24535E1,2.2239076E-1,6.505785E-2,1.1044675E-1,1.8189188E-2,-1.23920664E-1,1.1832572E-2,1.2524771E-2,7.8293964E-2,3.1803776E-2,-0E0,-5.963711E-2,-1.5928286E-1,-1.4327304E-1,-3.6446135E-2,-1.1799451E-2,1.6805862E-1,1.29178455E-2,8.107267E-2,7.955671E-2,-2.1973932E-2,-4.724753E-2,8.630855E-2],"split_indices":[0,20,5,9,5,5,15,11,0,0,6,0,2,0,0,0,0,0,0,4,20,8,11,19,0,9,1,5,15,0,0,19,4,0,0,17,7,0,0,0,15,0,8,0,0,17,0,0,0,0,0,0,0,0,0,0,0,0,0,0,0,0,0,0,0,0,0,0,0,0,0],"split_type":[0,0,0,0,0,0,0,0,0,0,0,0,0,0,0,0,0,0,0,0,0,0,0,0,0,0,0,0,0,0,0,0,0,0,0,0,0,0,0,0,0,0,0,0,0,0,0,0,0,0,0,0,0,0,0,0,0,0,0,0,0,0,0,0,0,0,0,0,0,0,0],"sum_hessian":[1.67E2,9.4E1,7.3E1,6E0,8.8E1,5.8E1,1.5E1,4E0,2E0,2E0,8.6E1,2E0,5.6E1,1.4E1,1E0,3E0,1E0,1E0,1E0,1.7E1,6.9E1,9E0,4.7E1,1.3E1,1E0,1.2E1,5E0,5.1E1,1.8E1,3E0,6E0,1.4E1,3.3E1,8E0,5E0,7E0,5E0,3E0,2E0,3E0,4.8E1,4E0,1.4E1,2E0,1E0,1E1,4E0,3E0,3E1,7E0,1E0,4E0,1E0,5E0,2E0,3E0,2E0,1E0,1E0,3.6E1,1.2E1,3E0,1E0,1.1E1,3E0,1E0,1E0,5E0,5E0,2.4E1,6E0],"tree_param":{"num_deleted":"0","num_feature":"23","num_nodes":"71","size_leaf_vector":"1"}},{"base_weights":[-7.084507E-2,8.773409E-3,-2.2336543E0,1.2080988E0,-5.9273545E-2,-7.5032246E-1,-1.4505424E0,-3.746893E-2,2.1273346E0,-2.982507E-1,1.5288162E-1,-2.211162E-1,-4.1266915E-1,-1.3091736E-1,1.2046636E-2,1.20284006E-1,5.9918964E-1,-2.2571611E0,-2.0682846E-1,1.8246073E-2,8.412487E-1,-9.7459115E-2,-3.4237843E-2,-3.6950827E-2,-6.872286E-3,-9.742738E-1,-7.5845945E-1,-1.4146327E0,-1.3020693E-1,-5.365728E-2,1.5083798E0,1.2441069E0,2.4583693E-1,-2.5643042E-1,-7.7998355E-2,-1.5386866E-1,-3.6928007E-1,5.569243E-1,-2.874657E-1,-1.2237337E0,5.5057495E-3,1.1578365E-1,3.637925E-1,-4.586425E-1,4.6866655E-1,-9.3244515E-2,1.534567E-1,-1.3415052E-1,-2.3440093E-2,-5.1297915E-1,2.7198458E-1,-5.2709547E-3,2.9981136E-1,-0E0,-1.3158688E-1,4.1273832E-2,1.6413677E-1],"categories":[],"categories_nodes":[],"categories_segments":[],"categories_sizes":[],"default_left":[0,0,0,0,0,0,0,0,0,0,0,0,0,0,0,0,0,0,0,0,0,0,0,0,0,0,0,0,0,0,0,0,0,0,0,0,0,0,0,0,0,0,0,0,0,0,0,0,0,0,0,0,0,0,0,0,0],"id":22,"left_children":[1,3,5,7,9,11,-1,13,15,17,19,-1,21,23,-1,-1,-1,25,27,29,31,-1,-1,-1,-1,33,-1,35,37,39,41,-1,43,-1,-1,-1,-1,45,47,49,51,-1,-1,53,55,-1,-1,-1,-1,-1,-1,-1,-1,-1,-1,-1,-1],"loss_changes":[3.1274466E1,1.4361024E1,4.4235924E1,1.0872828E1,8.460736E0,4.0089965E-1,0E0,4.426753E-2,5.9927998E0,1.3817318E1,8.182515E0,0E0,1.3317704E-2,7.2764643E-3,0E0,0E0,0E0,4.8073463E0,6.8855605E0,8.026401E0,4.4538467E1,0E0,0E0,0E0,0E0,1.8019366E-1,0E0,5.286846E-1,7.789808E0,4.960198E0,4.2014122E-1,0E0,2.207533E0,0E0,0E0,0E0,0E0,2.829743E0,3.6955266E0,1.292049E1,3.1761537E0,0E0,0E0,2.9493278E-1,8.537407E-1,0E0,0E0,0E0,0E0,0E0,0E0,0E0,0E0,0E0,0E0,0E0,0E0],"parents":[2147483647,0,0,1,1,2,2,3,3,4,4,5,5,7,7,8,8,9,9,10,10,12,12,13,13,17,17,18,18,19,19,20,20,25,25,27,27,28,28,29,29,30,30,32,32,37,37,38,38,39,39,40,40,43,43,44,44],"right_children":[2,4,6,8,10,12,-1,14,16,18,20,-1,22,24,-1,-1,-1,26,28,30,32,-1,-1,-1,-1,34,-1,36,38,40,42,-1,44,-1,-1,-1,-1,46,48,50,52,-1,-1,54,56,-1,-1,-1,-1,-1,-1,-1,-1,-1,-1,-1,-1],"split_conditions":[5.02E0,2.297E1,1.86092E1,2.216E1,7E0,-2.33E0,-1.4505424E0,1.271914E2,1.806E1,1E0,1.37155E8,-2.211162E-1,2.35E0,1.240453E2,1.2046636E-2,1.20284006E-1,5.9918964E-1,2.0807E7,-1.089E1,9.48245E1,1.38759E8,-9.7459115E-2,-3.4237843E-2,-3.6950827E-2,-6.872286E-3,1.9E7,-7.5845945E-1,6.19355E1,2.537E1,1E0,9.68227E1,1.2441069E0,-6.22E0,-2.5643042E-1,-7.7998355E-2,-1.5386866E-1,-3.6928007E-1,5.21288E1,-1.28E0,1.1216E7,4.458E1,1.1578365E-1,3.637925E-1,2.382E1,8.31304E1,-9.3244515E-2,1.534567E-1,-1.3415052E-1,-2.3440093E-2,-5.1297915E-1,2.7198458E-1,-5.2709547E-3,2.9981136E-1,-0E0,-1.3158688E-1,4.1273832E-2,1.6413677E-1],"split_indices":[12,13,0,13,22,5,0,3,9,20,6,0,5,0,0,0,0,6,5,0,6,0,0,0,0,6,0,0,13,20,0,0,8,0,0,0,0,4,8,6,5,0,0,9,0,0,0,0,0,0,0,0,0,0,0,0,0],"split_type":[0,0,0,0,0,0,0,0,0,0,0,0,0,0,0,0,0,0,0,0,0,0,0,0,0,0,0,0,0,0,0,0,0,0,0,0,0,0,0,0,0,0,0,0,0,0,0,0,0,0,0,0,0,0,0,0,0],"sum_hessian":[1.81E2,1.75E2,6E0,9E0,1.66E2,5E0,1E0,4E0,5E0,7.8E1,8.8E1,2E0,3E0,2E0,2E0,2E0,3E0,3E0,7.5E1,7.4E1,1.4E1,2E0,1E0,1E0,1E0,2E0,1E0,4E0,7.1E1,7.1E1,3E0,1E0,1.3E1,1E0,1E0,2E0,2E0,1.3E1,5.8E1,3E0,6.8E1,1E0,2E0,3E0,1E1,2E0,1.1E1,1.8E1,4E1,2E0,1E0,6.7E1,1E0,1E0,2E0,6E0,4E0],"tree_param":{"num_deleted":"0","num_feature":"23","num_nodes":"57","size_leaf_vector":"1"}},{"base_weights":[1.1335397E-1,4.924141E0,1.7917417E-2,1.2309333E0,3.0765772E-1,8.4666334E-2,-2.5395207E0,2.299661E0,-2.3617924E-3,-1.2463833E0,-7.0521206E-1,-1.1055508E-1,4.4135942E0,-1.1842875E-1,7.337954E-1,-2.9419113E-2,-1.8429676E-1,-8.376736E-1,2.3370321E-1,1.0256414E0,4.069187E-1,-4.0662235E-1,-9.877659E-2,9.299852E-2,1.24448E0,-2.2033854E-1,-6.702024E-2,-3.4948036E-2,-5.8233863E-1,2.06782E-1,-1.3693237E-1,3.9520985E-1,9.310462E-1,2.6756564E-1,-1.2560587E-2,-1.165415E-2,-1.525293E-1,8.9912854E-2,2.3662502E-2,9.16413E-2,2.2877905E-1],"categories":[],"categories_nodes":[],"categories_segments":[],"categories_sizes":[],"default_left":[0,0,0,0,0,0,0,0,0,0,0,0,0,0,0,0,0,0,0,0,0,0,0,0,0,0,0,0,0,0,0,0,0,0,0,0,0,0,0,0,0],"id":23,"left_children":[1,3,5,-1,-1,7,9,11,13,-1,15,17,19,21,23,-1,-1,25,-1,-1,-1,-1,27,29,31,-1,-1,33,35,37,-1,-1,39,-1,-1,-1,-1,-1,-1,-1,-1],"loss_changes":[8.138612E1,8.971062E0,2.9853304E1,0E0,0E0,3.2880234E1,2.7175772E1,3.3112152E1,1.4084357E1,0E0,3.1665492E-1,3.5795357E0,5.853348E-1,5.1454034E0,7.281954E0,0E0,0E0,1.3088167E-1,0E0,0E0,0E0,0E0,4.351035E0,9.672046E-1,1.8738499E0,0E0,0E0,4.5340104E0,1.4069891E0,1.7274031E-1,0E0,0E0,6.297512E-1,0E0,0E0,0E0,0E0,0E0,0E0,0E0,0E0],"parents":[2147483647,0,0,1,1,2,2,5,5,6,6,7,7,8,8,10,10,11,11,12,12,13,13,14,14,17,17,22,22,23,23,24,24,27,27,28,28,29,29,32,32],"right_children":[2,4,6,-1,-1,8,10,12,14,-1,16,18,20,22,24,-1,-1,26,-1,-1,-1,-1,28,30,32,-1,-1,34,36,38,-1,-1,40,-1,-1,-1,-1,-1,-1,-1,-1],"split_conditions":[3.561E6,1.854091E2,5.02E0,1.2309333E0,3.0765772E-1,1E0,1.7421E7,-8.28E-1,8.0565E1,-1.2463833E0,1.60603E1,2.112E1,1.232E1,-3.016E1,3.4E-1,-2.9419113E-2,-1.8429676E-1,2.016E1,2.3370321E-1,1.0256414E0,4.069187E-1,-4.0662235E-1,2.754E1,1.72E1,-1.478E1,-2.2033854E-1,-6.702024E-2,-2.416E1,-3.39E0,8.46034E1,-1.3693237E-1,3.9520985E-1,1.55E-1,2.6756564E-1,-1.2560587E-2,-1.165415E-2,-1.525293E-1,8.9912854E-2,2.3662502E-2,9.16413E-2,2.2877905E-1],"split_indices":[7,1,12,0,0,21,7,16,2,0,4,9,10,5,5,0,0,9,0,0,0,0,9,14,8,0,0,8,5,2,0,0,16,0,0,0,0,0,0,0,0],"split_type":[0,0,0,0,0,0,0,0,0,0,0,0,0,0,0,0,0,0,0,0,0,0,0,0,0,0,0,0,0,0,0,0,0,0,0,0,0,0,0,0,0],"sum_hessian":[1.77E2,3E0,1.74E2,2E0,1E0,1.7E2,4E0,6E0,1.64E2,1E0,3E0,3E0,3E0,1.42E2,2.2E1,1E0,2E0,2E0,1E0,2E0,1E0,1E0,1.41E2,1E1,1.2E1,1E0,1E0,1.25E2,1.6E1,9E0,1E0,3E0,9E0,2E0,1.23E2,4E0,1.2E1,2E0,7E0,3E0,6E0],"tree_param":{"num_deleted":"0","num_feature":"23","num_nodes":"41","size_leaf_vector":"1"}},{"base_weights":[1.01695366E-1,1.2834283E0,5.2492537E-2,1.9293647E-1,-5.7964575E-1,-1.252364E0,2.2621202E-1,-1.105189E0,-1.9411847E-1,-4.356904E-1,-4.957579E-1,-7.757952E-2,4.0742114E-1,-4.0869766E-1,4.1066536E-1,-2.1728473E-2,-1.4781223E-1,-1.7228378E-1,1.023526E0,2.2100015E-1,1.058533E0,-5.719368E-1,1.7598897E-1,-3.3927687E-2,3.078319E-1,4.378866E-1,-2.5735766E-1,8.309359E-2,2.3369446E-1,1.0210739E0,5.4448877E-2,3.3856008E0,7.234946E-1,-3.4965745E-1,-2.515791E-1,2.9658565E-1,-4.944409E-2,1.1187202E-1,-1.8772592E-1,1.7533521E-1,-7.8829015E-3,-7.622322E-2,5.5444133E-2,7.2259136E-2,3.292458E-1,2.0475952E-2,-3.7597308E-1,9.2464733E-1,2.406819E-1,2.1659224E-1,9.656828E-2,-2.9234147E-2,-1.3796861E-1,5.6196116E-3,1.0345896E-1,-4.5225788E-2,-3.7539364E-3],"categories":[],"categories_nodes":[],"categories_segments":[],"categories_sizes":[],"default_left":[0,0,0,0,0,0,0,0,0,0,0,0,0,0,0,0,0,0,0,0,0,0,0,0,0,0,0,0,0,0,0,0,0,0,0,0,0,0,0,0,0,0,0,0,0,0,0,0,0,0,0,0,0,0,0,0,0],"id":24,"left_children":[1,-1,3,5,7,9,11,-1,13,-1,15,17,19,21,23,-1,-1,25,27,29,31,33,35,37,-1,39,41,-1,-1,43,45,47,49,51,-1,53,-1,-1,55,-1,-1,-1,-1,-1,-1,-1,-1,-1,-1,-1,-1,-1,-1,-1,-1,-1,-1],"loss_changes":[5.601289E1,0E0,1.6333118E1,7.353128E0,6.191949E1,1.8100834E0,8.134184E0,0E0,4.1563797E0,0E0,1.7629433E-1,5.853357E0,1.1104878E1,2.2867312E0,4.166358E0,0E0,0E0,2.7195172E0,1.1313057E-1,9.6192E0,1.4807035E1,2.5078783E0,3.0775142E-1,6.208185E-1,0E0,1.320127E0,2.85144E0,0E0,0E0,4.655615E0,5.3478184E0,3.7578793E0,1.3225479E0,9.239695E-1,0E0,2.4129146E-1,0E0,0E0,2.7467668E-2,0E0,0E0,0E0,0E0,0E0,0E0,0E0,0E0,0E0,0E0,0E0,0E0,0E0,0E0,0E0,0E0,0E0,0E0],"parents":[2147483647,0,0,2,2,3,3,4,4,5,5,6,6,8,8,10,10,11,11,12,12,13,13,14,14,17,17,18,18,19,19,20,20,21,21,22,22,23,23,25,25,26,26,29,29,30,30,31,31,32,32,33,33,35,35,38,38],"right_children":[2,-1,4,6,8,10,12,-1,14,-1,16,18,20,22,24,-1,-1,26,28,30,32,34,36,38,-1,40,42,-1,-1,44,46,48,50,52,-1,54,-1,-1,56,-1,-1,-1,-1,-1,-1,-1,-1,-1,-1,-1,-1,-1,-1,-1,-1,-1,-1],"split_conditions":[3.43E6,1.2834283E0,4.581E8,-1.908E0,1E0,5.85214E1,-6.1E-1,-1.105189E0,3.265E1,-4.356904E-1,7.3809E1,1.1E1,9.5191E7,1.003388E9,7.97E8,-2.1728473E-2,-1.4781223E-1,-1.011E0,5.35002E1,6.111E6,1E0,4.92386E1,5.59008E1,-1.259E1,3.078319E-1,-2.57E-1,9.972E2,8.309359E-2,2.3369446E-1,-6.7E-1,2.523E1,1.38759E8,1.2565E8,7.079E2,-2.515791E-1,5.29416E1,-4.944409E-2,1.1187202E-1,1.86092E1,1.7533521E-1,-7.8829015E-3,-7.622322E-2,5.5444133E-2,7.2259136E-2,3.292458E-1,2.0475952E-2,-3.7597308E-1,9.2464733E-1,2.406819E-1,2.1659224E-1,9.656828E-2,-2.9234147E-2,-1.3796861E-1,5.6196116E-3,1.0345896E-1,-4.5225788E-2,-3.7539364E-3],"split_indices":[6,0,6,19,20,1,5,0,13,0,1,8,6,6,6,0,0,17,1,6,20,3,1,8,0,16,11,0,0,18,9,6,6,11,0,1,0,0,1,0,0,0,0,0,0,0,0,0,0,0,0,0,0,0,0,0,0],"split_type":[0,0,0,0,0,0,0,0,0,0,0,0,0,0,0,0,0,0,0,0,0,0,0,0,0,0,0,0,0,0,0,0,0,0,0,0,0,0,0,0,0,0,0,0,0,0,0,0,0,0,0,0,0,0,0,0,0],"sum_hessian":[1.84E2,1E0,1.83E2,1.5E2,3.3E1,3E0,1.47E2,2E0,3.1E1,1E0,2E0,5.5E1,9.2E1,2.3E1,8E0,1E0,1E0,5.1E1,4E0,7.2E1,2E1,1.8E1,5E0,6E0,2E0,6E0,4.5E1,1E0,3E0,1.2E1,6E1,2E0,1.8E1,1.4E1,4E0,4E0,1E0,1E0,5E0,3E0,3E0,3.7E1,8E0,6E0,6E0,5.9E1,1E0,1E0,1E0,7E0,1.1E1,9E0,5E0,2E0,2E0,4E0,1E0],"tree_param":{"num_deleted":"0","num_feature":"23","num_nodes":"57","size_leaf_vector":"1"}},{"base_weights":[-7.591595E-2,-2.5255974E-2,-1.2294385E0,-1.3200209E0,-6.3161594E-3,-4.1004416E-1,-9.154075E-1,-1.1490365E-1,-3.386635E-1,-1.7772627E-1,1.3535962E-1,-1.21703744E-1,-3.405326E-2,-2.128682E-1,1.874673E-1,1.6041312E-1,-3.0212435E-1,-2.466806E-1,1.677443E-1,5.747493E-1,7.562599E-2,-1.6334142E-1,-6.061802E-1,-5.613663E-1,7.6310223E-1,-3.3558965E-2,5.45833E-1,-4.491883E-2,2.4479759E-1,-1.6342512E-1,-5.123822E-2,-0E0,-1.9220898E-1,3.229719E-1,1.134898E-1,-1.73207E-2,1.7418742E-1,4.3853424E-2,1.7172062E-1],"categories":[],"categories_nodes":[],"categories_segments":[],"categories_sizes":[],"default_left":[0,0,0,0,0,0,0,0,0,0,0,0,0,0,0,0,0,0,0,0,0,0,0,0,0,0,0,0,0,0,0,0,0,0,0,0,0,0,0],"id":25,"left_children":[1,3,5,7,9,11,-1,-1,-1,13,15,-1,-1,17,-1,19,-1,21,-1,23,25,27,29,31,33,35,37,-1,-1,-1,-1,-1,-1,-1,-1,-1,-1,-1,-1],"loss_changes":[1.0344212E1,4.1639547E0,1.9034622E1,1.920228E-1,4.1018796E0,2.413224E-1,0E0,0E0,0E0,3.0295587E0,3.840979E0,0E0,0E0,2.6931293E0,0E0,3.187172E0,0E0,2.1191502E0,0E0,3.4996476E0,3.9377184E0,4.7347918E0,8.331928E-1,5.1622224E-1,1.864088E0,2.877012E0,1.3262706E0,0E0,0E0,0E0,0E0,0E0,0E0,0E0,0E0,0E0,0E0,0E0,0E0],"parents":[2147483647,0,0,1,1,2,2,3,3,4,4,5,5,9,9,10,10,13,13,15,15,17,17,19,19,20,20,21,21,22,22,23,23,24,24,25,25,26,26],"right_children":[2,4,6,8,10,12,-1,-1,-1,14,16,-1,-1,18,-1,20,-1,22,-1,24,26,28,30,32,34,36,38,-1,-1,-1,-1,-1,-1,-1,-1,-1,-1,-1,-1],"split_conditions":[7.233E2,-2.665E1,2.59824E1,5.83479E1,5.67298E1,2.075E1,-9.154075E-1,-1.1490365E-1,-3.386635E-1,4.458E1,1.888397E2,-1.21703744E-1,-3.405326E-2,3.199E1,1.874673E-1,6.10141E1,-3.0212435E-1,2.879E1,1.677443E-1,-1.421E0,6.77E0,4.71E0,5.1E-1,5.77169E1,1.3027E7,1.568574E2,7.51829E1,-4.491883E-2,2.4479759E-1,-1.6342512E-1,-5.123822E-2,-0E0,-1.9220898E-1,3.229719E-1,1.134898E-1,-1.73207E-2,1.7418742E-1,4.3853424E-2,1.7172062E-1],"split_indices":[15,5,0,0,0,10,0,0,0,5,2,0,0,9,0,0,0,13,0,16,5,12,8,0,6,4,3,0,0,0,0,0,0,0,0,0,0,0,0],"split_type":[0,0,0,0,0,0,0,0,0,0,0,0,0,0,0,0,0,0,0,0,0,0,0,0,0,0,0,0,0,0,0,0,0,0,0,0,0,0,0],"sum_hessian":[1.77E2,1.7E2,7E0,2E0,1.68E2,6E0,1E0,1E0,1E0,7.6E1,9.2E1,3E0,3E0,7.4E1,2E0,9.1E1,1E0,7.2E1,2E0,1.5E1,7.6E1,5.9E1,1.3E1,2E0,1.3E1,6.2E1,1.4E1,5.7E1,2E0,8E0,5E0,1E0,1E0,2E0,1.1E1,5.9E1,3E0,7E0,7E0],"tree_param":{"num_deleted":"0","num_feature":"23","num_nodes":"39","size_leaf_vector":"1"}},{"base_weights":[9.257809E-2,4.879531E-2,1.1052271E0,1.0298163E0,5.744632E-3,4.57774E-2,2.6605713E-1,3.4449697E-2,-5.4543567E-1,3.774568E-1,-1.4832621E-2,8.3037816E-2,-1.1210046E0,2.2215723E-1,3.0062437E-1,-1.9077928E-1,1.2564877E-1,2.7051693E-1,-2.3625508E-2,-2.8250927E-1,-2.7895374E-2,3.026664E-1,-1.6515644E-1,-2.1307468E0,-1.1194566E-1,4.265184E-1,-4.1633505E-2,1.808986E-2,7.38368E-2,1.7790395E-1,4.136629E-2,-7.644294E-2,-6.56486E-1,-6.270068E-2,1.864812E-2,5.5149174E-1,4.2393252E-2,-2.3939009E-1,2.9851268E-3],"categories":[],"categories_nodes":[],"categories_segments":[],"categories_sizes":[],"default_left":[0,0,0,0,0,0,0,0,0,0,0,0,0,0,0,0,0,0,0,0,0,0,0,0,0,0,0,0,0,0,0,0,0,0,0,0,0,0,0],"id":26,"left_children":[1,3,-1,5,7,-1,-1,9,11,13,15,17,19,21,-1,23,25,27,-1,-1,-1,29,-1,31,33,35,37,-1,-1,-1,-1,-1,-1,-1,-1,-1,-1,-1,-1],"loss_changes":[4.147104E1,7.4821477E0,0E0,1.5065584E0,2.700519E0,0E0,0E0,2.7518854E0,3.1072114E0,3.322443E0,3.532267E0,1.8137872E-1,1.0609732E0,1.6386533E0,0E0,9.575983E0,4.010126E0,2.2277728E-2,0E0,0E0,0E0,9.0279114E-1,0E0,4.1106243E0,2.4604268E0,1.3890198E1,3.2982404E0,0E0,0E0,0E0,0E0,0E0,0E0,0E0,0E0,0E0,0E0,0E0,0E0],"parents":[2147483647,0,0,1,1,3,3,4,4,7,7,8,8,9,9,10,10,11,11,12,12,13,13,15,15,16,16,17,17,21,21,23,23,24,24,25,25,26,26],"right_children":[2,4,-1,6,8,-1,-1,10,12,14,16,18,20,22,-1,24,26,28,-1,-1,-1,30,-1,32,34,36,38,-1,-1,-1,-1,-1,-1,-1,-1,-1,-1,-1,-1],"split_conditions":[1.58558E2,-1.203E0,1.1052271E0,4.934E2,1.361E1,4.57774E-2,2.6605713E-1,2.501E1,7.1816E1,1.283E1,7E0,5.35002E1,1.200186E2,1.6775E7,3.0062437E-1,1E0,2.722E1,2.05656E1,-2.3625508E-2,-2.8250927E-1,-2.7895374E-2,3.554E2,-1.6515644E-1,2.0807E7,3.8E-1,1E0,1E0,1.808986E-2,7.38368E-2,1.7790395E-1,4.136629E-2,-7.644294E-2,-6.56486E-1,-6.270068E-2,1.864812E-2,5.5149174E-1,4.2393252E-2,-2.3939009E-1,2.9851268E-3],"split_indices":[1,19,0,11,8,0,0,13,0,10,22,1,0,6,0,21,13,0,0,0,0,11,0,6,8,21,21,0,0,0,0,0,0,0,0,0,0,0,0],"split_type":[0,0,0,0,0,0,0,0,0,0,0,0,0,0,0,0,0,0,0,0,0,0,0,0,0,0,0,0,0,0,0,0,0,0,0,0,0,0,0],"sum_hessian":[1.78E2,1.77E2,1E0,7E0,1.7E2,2E0,5E0,1.62E2,8E0,2E1,1.42E2,4E0,4E0,1.8E1,2E0,6.3E1,7.9E1,2E0,2E0,3E0,1E0,1.7E1,1E0,2E0,6.1E1,2.8E1,5.1E1,1E0,1E0,2E0,1.5E1,1E0,1E0,3.1E1,3E1,2E0,2.6E1,2E0,4.9E1],"tree_param":{"num_deleted":"0","num_feature":"23","num_nodes":"39","size_leaf_vector":"1"}},{"base_weights":[1.4750704E-2,9.496704E-1,-2.036828E-2,-7.092925E-1,2.7421936E-2,-1.0685912E0,4.2515323E-2,-1.4865545E0,4.8292525E-2,-2.410421E-1,-1.5027578E0,4.6353057E-2,-2.9845135E-2,-4.572719E-1,-5.367974E-2,-1.1022978E-1,1.7903219E-1,-1.003636E-1,5.1390376E-2,-8.990639E-2,-3.454867E-1,1.4281003E-1,-1.3502179E-1,2.183401E-1,-1.3824804E0,-4.1408452E-1,-4.2555492E-2,9.638998E-1,1.1600077E-1,8.64208E-2,-5.640877E-1,-4.299095E-2,-1.2600078E-1,3.3663556E-1,-1.7195903E-2,-3.4394637E-3,4.1726518E-1,-1.4930873E-3,6.400847E-2],"categories":[],"categories_nodes":[],"categories_segments":[],"categories_sizes":[],"default_left":[0,0,0,0,0,0,0,0,0,0,0,0,0,0,0,0,0,0,0,0,0,0,0,0,0,0,0,0,0,0,0,0,0,0,0,0,0,0,0],"id":27,"left_children":[1,-1,3,5,7,9,11,13,15,17,19,-1,-1,-1,-1,21,23,-1,-1,-1,-1,-1,25,27,29,31,33,35,37,-1,-1,-1,-1,-1,-1,-1,-1,-1,-1],"loss_changes":[3.1473581E1,0E0,6.318172E0,3.3923244E0,5.689141E0,2.8570728E0,1.7105055E-1,1.9785771E0,3.6871183E0,4.8524326E-1,7.569151E-1,0E0,0E0,0E0,0E0,1.6544307E0,6.105997E0,0E0,0E0,0E0,0E0,0E0,2.0121908E0,7.2227006E0,6.672227E0,7.4030757E-1,4.258354E0,1.2196022E1,2.0661387E0,0E0,0E0,0E0,0E0,0E0,0E0,0E0,0E0,0E0,0E0],"parents":[2147483647,0,0,2,2,3,3,4,4,5,5,6,6,7,7,8,8,9,9,10,10,15,15,16,16,22,22,23,23,24,24,25,25,26,26,27,27,28,28],"right_children":[2,-1,4,6,8,10,12,14,16,18,20,-1,-1,-1,-1,22,24,-1,-1,-1,-1,-1,26,28,30,32,34,36,38,-1,-1,-1,-1,-1,-1,-1,-1,-1,-1],"split_conditions":[3.43E6,9.496704E-1,-8.1E0,8E0,-1.908E0,1.287E1,-1.4E1,5.87515E1,5.67298E1,6.88093E1,-5.86E0,4.6353057E-2,-2.9845135E-2,-4.572719E-1,-5.367974E-2,-1.477E0,1.78557E8,-1.003636E-1,5.1390376E-2,-8.990639E-2,-3.454867E-1,1.4281003E-1,-4.92E-1,5.87515E1,5.69423E1,1.62E0,5.28E1,1.172E1,8.02686E1,8.64208E-2,-5.640877E-1,-4.299095E-2,-1.2600078E-1,3.3663556E-1,-1.7195903E-2,-3.4394637E-3,4.1726518E-1,-1.4930873E-3,6.400847E-2],"split_indices":[6,0,5,22,19,14,5,0,0,0,8,0,0,0,0,17,6,0,0,0,0,0,17,0,0,5,11,10,0,0,0,0,0,0,0,0,0,0,0],"split_type":[0,0,0,0,0,0,0,0,0,0,0,0,0,0,0,0,0,0,0,0,0,0,0,0,0,0,0,0,0,0,0,0,0,0,0,0,0,0,0],"sum_hessian":[1.92E2,1E0,1.91E2,1.2E1,1.79E2,8E0,4E0,2E0,1.77E2,3E0,5E0,2E0,2E0,1E0,1E0,8E1,9.7E1,2E0,1E0,1E0,4E0,2E0,7.8E1,9.5E1,2E0,1.9E1,5.9E1,1.1E1,8.4E1,1E0,1E0,1E1,9E0,1E0,5.8E1,6E0,5E0,5.2E1,3.2E1],"tree_param":{"num_deleted":"0","num_feature":"23","num_nodes":"39","size_leaf_vector":"1"}},{"base_weights":[4.836819E-2,2.4999907E0,1.43694915E-2,8.1600666E-1,4.4157177E-2,3.5561066E-2,-2.1544088E-1,4.655123E-1,1.6644511E-2,-1.0906453E-1,2.1994425E-1,-6.427411E-1,-6.314442E-2,8.9174193E-1,1.5862659E-1,-3.5239556E-1,-3.9354867E-1,-2.846835E-1,-4.314734E-2,4.2937276E-1,2.804699E-1,4.4652805E-1,3.4535583E-2,-1.4809433E-1,-3.130836E-2,8.470869E-2,-1.7505646E-2,1.5208286E-2,1.1351143E-1,-4.4573363E-2,1.0883356E-1,-6.004625E-2,5.5621583E-2],"categories":[],"categories_nodes":[],"categories_segments":[],"categories_sizes":[],"default_left":[0,0,0,0,0,0,0,0,0,0,0,0,0,0,0,0,0,0,0,0,0,0,0,0,0,0,0,0,0,0,0,0,0],"id":28,"left_children":[1,3,5,-1,-1,7,-1,-1,9,11,13,15,17,19,21,23,-1,-1,25,27,-1,29,31,-1,-1,-1,-1,-1,-1,-1,-1,-1,-1],"loss_changes":[1.49182415E1,7.9762316E0,4.036036E0,0E0,0E0,7.3808765E0,0E0,0E0,4.444518E0,2.608523E0,2.6641834E0,2.833407E0,2.6116805E0,9.3844366E-1,2.1839821E0,4.9591547E-1,0E0,0E0,1.9428513E0,1.3157117E-1,0E0,1.1277773E0,3.4439805E0,0E0,0E0,0E0,0E0,0E0,0E0,0E0,0E0,0E0,0E0],"parents":[2147483647,0,0,1,1,2,2,5,5,8,8,9,9,10,10,11,11,12,12,13,13,14,14,15,15,18,18,19,19,21,21,22,22],"right_children":[2,4,6,-1,-1,8,-1,-1,10,12,14,16,18,20,22,24,-1,-1,26,28,-1,30,32,-1,-1,-1,-1,-1,-1,-1,-1,-1,-1],"split_conditions":[3.43E6,1.888397E2,1.504935E2,8.1600666E-1,4.4157177E-2,2.44E0,-2.1544088E-1,4.655123E-1,6.65649E1,8.25E1,-1.478E1,3.92796E1,-3.016E1,-1.818E1,6.9291E1,2.95816E1,-3.9354867E-1,-2.846835E-1,1E0,6.70391E1,2.804699E-1,3.225E2,8.31205E1,-1.4809433E-1,-3.130836E-2,8.470869E-2,-1.7505646E-2,1.5208286E-2,1.1351143E-1,-4.4573363E-2,1.0883356E-1,-6.004625E-2,5.5621583E-2],"split_indices":[7,0,3,0,0,12,0,0,0,11,8,0,5,8,2,0,0,0,20,0,0,11,0,0,0,0,0,0,0,0,0,0,0],"split_type":[0,0,0,0,0,0,0,0,0,0,0,0,0,0,0,0,0,0,0,0,0,0,0,0,0,0,0,0,0,0,0,0,0],"sum_hessian":[1.79E2,2E0,1.77E2,1E0,1E0,1.74E2,3E0,1E0,1.73E2,1.07E2,6.6E1,8E0,9.9E1,5E0,6.1E1,7E0,1E0,1E0,9.8E1,3E0,2E0,1.8E1,4.3E1,2E0,5E0,8E0,9E1,1E0,2E0,2E0,1.6E1,1.8E1,2.5E1],"tree_param":{"num_deleted":"0","num_feature":"23","num_nodes":"33","size_leaf_vector":"1"}},{"base_weights":[-1.5038768E-2,2.14865E0,-4.2016126E-2,7.01156E-1,3.7941955E-2,-7.180287E-2,6.235584E-1,-4.7371406E-2,-1.9155163E0,-1.6193643E-3,8.1899726E-1,-7.5973326E-1,-9.270388E-3,-3.2066327E-2,-6.266979E-1,3.2946132E-3,-5.141301E-3,3.453824E-2,9.225991E-1,-3.490728E-1,-1.9599085E-1,4.5132972E-2,-3.6782616E-1,1.4341697E-1,2.6567945E-1,-3.9872434E-2,-1.4601144E-1,-2.6875272E-1,1.1264694E-1,-2.2662246E-1,-4.966169E-1,-1.9513164E-2,2.8070403E-2,-3.3815825E-1,-3.8265307E-2,3.0163111E-2,-1.4044088E-1,-7.26482E-2,6.775645E-2],"categories":[],"categories_nodes":[],"categories_segments":[],"categories_sizes":[],"default_left":[0,0,0,0,0,0,0,0,0,0,0,0,0,0,0,0,0,0,0,0,0,0,0,0,0,0,0,0,0,0,0,0,0,0,0,0,0,0,0],"id":29,"left_children":[1,3,5,-1,-1,7,9,11,13,15,17,19,21,-1,-1,-1,-1,-1,23,-1,25,27,29,-1,-1,31,-1,33,35,37,-1,-1,-1,-1,-1,-1,-1,-1,-1],"loss_changes":[1.1604722E1,5.883444E0,3.9096622E0,0E0,0E0,8.429931E0,1.0403187E0,5.0503263E0,4.7425747E0,1.2932842E-3,3.538642E-1,4.9069853E0,3.4718146E0,0E0,0E0,0E0,0E0,0E0,2.4930954E-2,0E0,5.0408334E-1,3.2851567E0,6.5769978E0,0E0,0E0,5.9567966E-2,0E0,2.9353929E0,3.6503906E0,1.6820065E0,0E0,0E0,0E0,0E0,0E0,0E0,0E0,0E0,0E0],"parents":[2147483647,0,0,1,1,2,2,5,5,6,6,7,7,8,8,9,9,10,10,11,11,12,12,18,18,20,20,21,21,22,22,25,25,27,27,28,28,29,29],"right_children":[2,4,6,-1,-1,8,10,12,14,16,18,20,22,-1,-1,-1,-1,-1,24,-1,26,28,30,-1,-1,32,-1,34,36,38,-1,-1,-1,-1,-1,-1,-1,-1,-1],"split_conditions":[3.43E6,1.888397E2,3.265E1,7.01156E-1,3.7941955E-2,5.03E0,1.74622E1,-1.277E0,1.61522E1,1.62897E1,-3.39E0,2.669E1,1.762E8,-3.2066327E-2,-6.266979E-1,3.2946132E-3,-5.141301E-3,3.453824E-2,6.996E2,-3.490728E-1,9.11398E1,1.077E2,5.69423E1,1.4341697E-1,2.6567945E-1,1.26E0,-1.4601144E-1,-1.15E0,1.460107E2,3.56E0,-4.966169E-1,-1.9513164E-2,2.8070403E-2,-3.3815825E-1,-3.8265307E-2,3.0163111E-2,-1.4044088E-1,-7.26482E-2,6.775645E-2],"split_indices":[7,0,13,0,0,12,0,17,0,0,5,13,6,0,0,0,0,0,11,0,1,15,0,0,0,5,0,16,1,5,0,0,0,0,0,0,0,0,0],"split_type":[0,0,0,0,0,0,0,0,0,0,0,0,0,0,0,0,0,0,0,0,0,0,0,0,0,0,0,0,0,0,0,0,0,0,0,0,0,0,0],"sum_hessian":[1.98E2,2E0,1.96E2,1E0,1E0,1.88E2,8E0,1.86E2,2E0,2E0,6E0,9E0,1.77E2,1E0,1E0,1E0,1E0,1E0,5E0,3E0,6E0,1.54E2,2.3E1,4E0,1E0,5E0,1E0,2.7E1,1.27E2,2.2E1,1E0,4E0,1E0,1E0,2.6E1,1.22E2,5E0,1.8E1,4E0],"tree_param":{"num_deleted":"0","num_feature":"23","num_nodes":"39","size_leaf_vector":"1"}},{"base_weights":[5.2362033E-3,6.024706E-1,-1.9079456E-2,1.2977899E-2,-1.0221041E0,-1.0686963E0,3.5272647E-2,-7.943782E-2,