{"learner":{"attributes":{"scikit_learn":"{\"_estimator_type\": \"regressor\"}"},"feature_names":["yield_lag_1","yield_lag_2","yield_lag_3","yield_rolling_3y","yield_rolling_5y","yield_mt_ha_yoy_pct","area_ha","area_lag_1","area_ha_yoy_pct","avg_temp_max_c","avg_temp_min_c","total_precip_mm","avg_et0_mm","growing_season_temp_max_c","growing_season_temp_min_c","growing_season_precip_mm","avg_temp_max_c_anomaly","total_precip_mm_anomaly","growing_season_temp_max_c_anomaly","growing_season_precip_mm_anomaly","years_since_2000","crop_year_rank","country_encoded"],"feature_types":["float","float","float","float","float","float","float","float","float","float","float","float","float","float","float","float","float","float","float","float","int","float","int"],"gradient_booster":{"model":{"cats":{"enc":[],"feature_segments":[],"sorted_idx":[]},"gbtree_model_param":{"num_parallel_tree":"1","num_trees":"436"},"iteration_indptr":[0,1,2,3,4,5,6,7,8,9,10,11,12,13,14,15,16,17,18,19,20,21,22,23,24,25,26,27,28,29,30,31,32,33,34,35,36,37,38,39,40,41,42,43,44,45,46,47,48,49,50,51,52,53,54,55,56,57,58,59,60,61,62,63,64,65,66,67,68,69,70,71,72,73,74,75,76,77,78,79,80,81,82,83,84,85,86,87,88,89,90,91,92,93,94,95,96,97,98,99,100,101,102,103,104,105,106,107,108,109,110,111,112,113,114,115,116,117,118,119,120,121,122,123,124,125,126,127,128,129,130,131,132,133,134,135,136,137,138,139,140,141,142,143,144,145,146,147,148,149,150,151,152,153,154,155,156,157,158,159,160,161,162,163,164,165,166,167,168,169,170,171,172,173,174,175,176,177,178,179,180,181,182,183,184,185,186,187,188,189,190,191,192,193,194,195,196,197,198,199,200,201,202,203,204,205,206,207,208,209,210,211,212,213,214,215,216,217,218,219,220,221,222,223,224,225,226,227,228,229,230,231,232,233,234,235,236,237,238,239,240,241,242,243,244,245,246,247,248,249,250,251,252,253,254,255,256,257,258,259,260,261,262,263,264,265,266,267,268,269,270,271,272,273,274,275,276,277,278,279,280,281,282,283,284,285,286,287,288,289,290,291,292,293,294,295,296,297,298,299,300,301,302,303,304,305,306,307,308,309,310,311,312,313,314,315,316,317,318,319,320,321,322,323,324,325,326,327,328,329,330,331,332,333,334,335,336,337,338,339,340,341,342,343,344,345,346,347,348,349,350,351,352,353,354,355,356,357,358,359,360,361,362,363,364,365,366,367,368,369,370,371,372,373,374,375,376,377,378,379,380,381,382,383,384,385,386,387,388,389,390,391,392,393,394,395,396,397,398,399,400,401,402,403,404,405,406,407,408,409,410,411,412,413,414,415,416,417,418,419,420,421,422,423,424,425,426,427,428,429,430,431,432,433,434,435,436],"tree_info":[0,0,0,0,0,0,0,0,0,0,0,0,0,0,0,0,0,0,0,0,0,0,0,0,0,0,0,0,0,0,0,0,0,0,0,0,0,0,0,0,0,0,0,0,0,0,0,0,0,0,0,0,0,0,0,0,0,0,0,0,0,0,0,0,0,0,0,0,0,0,0,0,0,0,0,0,0,0,0,0,0,0,0,0,0,0,0,0,0,0,0,0,0,0,0,0,0,0,0,0,0,0,0,0,0,0,0,0,0,0,0,0,0,0,0,0,0,0,0,0,0,0,0,0,0,0,0,0,0,0,0,0,0,0,0,0,0,0,0,0,0,0,0,0,0,0,0,0,0,0,0,0,0,0,0,0,0,0,0,0,0,0,0,0,0,0,0,0,0,0,0,0,0,0,0,0,0,0,0,0,0,0,0,0,0,0,0,0,0,0,0,0,0,0,0,0,0,0,0,0,0,0,0,0,0,0,0,0,0,0,0,0,0,0,0,0,0,0,0,0,0,0,0,0,0,0,0,0,0,0,0,0,0,0,0,0,0,0,0,0,0,0,0,0,0,0,0,0,0,0,0,0,0,0,0,0,0,0,0,0,0,0,0,0,0,0,0,0,0,0,0,0,0,0,0,0,0,0,0,0,0,0,0,0,0,0,0,0,0,0,0,0,0,0,0,0,0,0,0,0,0,0,0,0,0,0,0,0,0,0,0,0,0,0,0,0,0,0,0,0,0,0,0,0,0,0,0,0,0,0,0,0,0,0,0,0,0,0,0,0,0,0,0,0,0,0,0,0,0,0,0,0,0,0,0,0,0,0,0,0,0,0,0,0,0,0,0,0,0,0,0,0,0,0,0,0,0,0,0,0,0,0,0,0,0,0,0,0,0,0,0,0,0,0,0,0,0,0,0,0,0,0,0,0,0,0,0,0,0,0,0,0,0,0,0,0,0,0,0,0,0,0,0,0,0,0,0,0,0,0,0,0,0,0,0,0],"trees":[{"base_weights":[-0E0,-1.7086694E0,3.9567814E0,-3.4402072E0,-6.022488E-1,1.4357095E0,5.5648394E0,-3.7371187E0,-1.5232424E0,-9.951287E-1,2.2479982E0,-4.2450628E-1,2.0556104E0,6.4726605E0,4.561464E0,-7.7152413E-1,-3.5288768E0,1.1366286E-1,-2.117038E0,4.0094624E0,-1.2028248E0,1.5447171E0,8.47164E-1,-9.422664E-1,1.4936964E-1,1.9597359E-1,2.1052113E0,6.3593984E-1,6.779849E0,5.011592E-1,4.834741E0,-4.896176E-1,-2.0444578E-1,-2.2552265E-1,-3.051521E-1,1.0606993E0,7.260641E-3,-2.6027843E-1,-1.24708615E-1,4.8088897E-2,2.8964013E-1,-1.6058557E-1,-5.870869E-2,2.661811E-1,3.0810574E-1,1.0597987E0,8.6549824E-1,7.4310523E-1,6.289646E-1],"categories":[],"categories_nodes":[],"categories_segments":[],"categories_sizes":[],"default_left":[0,0,0,0,0,0,0,0,0,0,0,0,0,0,0,0,0,0,0,0,0,0,0,0,0,0,0,0,0,0,0,0,0,0,0,0,0,0,0,0,0,0,0,0,0,0,0,0,0],"id":0,"left_children":[1,3,5,7,9,11,13,15,17,19,21,23,25,27,29,-1,31,-1,33,35,37,39,-1,41,-1,-1,43,-1,45,-1,47,-1,-1,-1,-1,-1,-1,-1,-1,-1,-1,-1,-1,-1,-1,-1,-1,-1,-1],"loss_changes":[9.200481E2,1.8196991E2,1.6600415E2,2.0808472E1,6.508359E1,1.8546741E1,2.1486267E1,1.1992889E1,7.145568E0,5.3242844E1,1.9247646E1,3.2293944E0,2.1635437E-1,5.786804E0,2.0788574E0,0E0,3.842926E0,0E0,5.1156998E-2,3.0530125E1,9.877045E0,4.157007E0,0E0,3.381405E-1,0E0,0E0,4.7008514E-2,0E0,2.4702148E0,0E0,6.477356E-2,0E0,0E0,0E0,0E0,0E0,0E0,0E0,0E0,0E0,0E0,0E0,0E0,0E0,0E0,0E0,0E0,0E0,0E0],"parents":[2147483647,0,0,1,1,2,2,3,3,4,4,5,5,6,6,7,7,8,8,9,9,10,10,11,11,12,12,13,13,14,14,16,16,18,18,19,19,20,20,21,21,23,23,26,26,28,28,30,30],"right_children":[2,4,6,8,10,12,14,16,18,20,22,24,26,28,30,-1,32,-1,34,36,38,40,-1,42,-1,-1,44,-1,46,-1,48,-1,-1,-1,-1,-1,-1,-1,-1,-1,-1,-1,-1,-1,-1,-1,-1,-1,-1],"split_conditions":[9.0778E0,5.4627E0,2.214E1,2.862E1,1.653E1,-2.899E1,1E1,2.5662E0,2.7482E0,-1.687E0,8.964E0,1.08451E1,6.2759E0,1.19659E1,1.16989E1,-7.7152413E-1,2.924E1,1.1366286E-1,5.1253E0,6.622E0,-8.73E-1,6.0667E0,8.47164E-1,-2.927E1,1.4936964E-1,1.9597359E-1,9.5117E0,6.3593984E-1,9.365E0,5.011592E-1,2.851E1,-4.896176E-1,-2.0444578E-1,-2.2552265E-1,-3.051521E-1,1.0606993E0,7.260641E-3,-2.6027843E-1,-1.24708615E-1,4.8088897E-2,2.8964013E-1,-1.6058557E-1,-5.870869E-2,2.661811E-1,3.0810574E-1,1.0597987E0,8.6549824E-1,7.4310523E-1,6.289646E-1],"split_indices":[0,0,9,13,5,5,21,0,0,17,1,0,1,0,0,0,5,0,0,0,16,0,0,5,0,0,0,0,2,0,13,0,0,0,0,0,0,0,0,0,0,0,0,0,0,0,0,0,0],"split_type":[0,0,0,0,0,0,0,0,0,0,0,0,0,0,0,0,0,0,0,0,0,0,0,0,0,0,0,0,0,0,0,0,0,0,0,0,0,0,0,0,0,0,0,0,0,0,0,0,0],"sum_hessian":[1.36E2,9.5E1,4.1E1,3.7E1,5.8E1,1.6E1,2.5E1,3.2E1,5E0,5.1E1,7E0,4E0,1.2E1,1.3E1,1.2E1,3E0,2.9E1,1E0,4E0,2E0,4.9E1,6E0,1E0,3E0,1E0,1E0,1.1E1,2E0,1.1E1,3E0,9E0,2.8E1,1E0,1E0,3E0,1E0,1E0,1.4E1,3.5E1,2E0,4E0,2E0,1E0,6E0,5E0,3E0,8E0,2E0,7E0],"tree_param":{"num_deleted":"0","num_feature":"23","num_nodes":"49","size_leaf_vector":"1"}},{"base_weights":[1.5984781E-3,-1.4762002E0,3.4239001E0,-2.9743743E0,-5.188817E-1,1.2422811E0,4.8154063E0,-3.2306569E0,-1.3195119E0,-8.5914916E-1,1.9495397E0,-3.6748505E-1,1.7787923E0,5.6004934E0,3.9476023E0,-4.9098687E0,-3.0497952E0,9.882909E-2,-1.8347939E0,3.4866002E0,-1.0395237E0,1.3370658E0,7.366033E-1,-8.1740975E-1,1.2987585E-1,1.7039771E-1,1.821072E0,5.512173E-1,5.8648973E0,4.339262E-1,4.183489E0,-7.2074264E-1,-5.36661E-1,-4.2310286E-1,-1.7776418E-1,-1.960904E-1,-2.6421443E-1,9.222709E-1,6.313056E-3,-8.159388E-1,-1.2665443E-1,4.1682284E-2,2.5064725E-1,-1.3919172E-1,-5.10468E-2,2.3022029E-1,2.6653942E-1,6.895486E-1,8.55248E-1,4.6821553E-1,5.9491944E-1],"categories":[],"categories_nodes":[],"categories_segments":[],"categories_sizes":[],"default_left":[0,0,0,0,0,0,0,0,0,0,0,0,0,0,0,0,0,0,0,0,0,0,0,0,0,0,0,0,0,0,0,0,0,0,0,0,0,0,0,0,0,0,0,0,0,0,0,0,0,0,0],"id":1,"left_children":[1,3,5,7,9,11,13,15,17,19,21,23,25,27,29,31,33,-1,35,37,39,41,-1,43,-1,-1,45,-1,47,-1,49,-1,-1,-1,-1,-1,-1,-1,-1,-1,-1,-1,-1,-1,-1,-1,-1,-1,-1,-1,-1],"loss_changes":[6.882584E2,1.362253E2,1.2430203E2,1.5500488E1,4.881568E1,1.3891876E1,1.6061584E1,9.044922E0,5.3795013E0,4.0149128E1,1.4593164E1,2.4369214E0,1.5179443E-1,4.2696533E0,1.5405731E0,1.9190216E-1,2.835266E0,0E0,3.0282974E-2,2.3075645E1,2.6130161E1,3.1087341E0,0E0,2.5160122E-1,0E0,0E0,3.2684326E-2,0E0,2.2790833E0,0E0,5.80246E-1,0E0,0E0,0E0,0E0,0E0,0E0,0E0,0E0,0E0,0E0,0E0,0E0,0E0,0E0,0E0,0E0,0E0,0E0,0E0,0E0],"parents":[2147483647,0,0,1,1,2,2,3,3,4,4,5,5,6,6,7,7,8,8,9,9,10,10,11,11,12,12,13,13,14,14,15,15,16,16,18,18,19,19,20,20,21,21,23,23,26,26,28,28,30,30],"right_children":[2,4,6,8,10,12,14,16,18,20,22,24,26,28,30,32,34,-1,36,38,40,42,-1,44,-1,-1,46,-1,48,-1,50,-1,-1,-1,-1,-1,-1,-1,-1,-1,-1,-1,-1,-1,-1,-1,-1,-1,-1,-1,-1],"split_conditions":[9.0778E0,5.4627E0,2.214E1,2.862E1,1.653E1,-2.899E1,1E1,2.5662E0,2.7482E0,-1.687E0,8.964E0,1.08451E1,6.2759E0,1.19659E1,1.16989E1,1.4E0,2.924E1,9.882909E-2,5.1253E0,6.622E0,5.06E1,6.0667E0,7.366033E-1,-2.927E1,1.2987585E-1,1.7039771E-1,9.5117E0,5.512173E-1,-1.94E0,4.339262E-1,4.57E0,-7.2074264E-1,-5.36661E-1,-4.2310286E-1,-1.7776418E-1,-1.960904E-1,-2.6421443E-1,9.222709E-1,6.313056E-3,-8.159388E-1,-1.2665443E-1,4.1682284E-2,2.5064725E-1,-1.3919172E-1,-5.10468E-2,2.3022029E-1,2.6653942E-1,6.895486E-1,8.55248E-1,4.6821553E-1,5.9491944E-1],"split_indices":[0,0,9,13,5,5,21,0,0,17,1,0,1,0,0,0,5,0,0,0,11,0,0,5,0,0,0,0,5,0,8,0,0,0,0,0,0,0,0,0,0,0,0,0,0,0,0,0,0,0,0],"split_type":[0,0,0,0,0,0,0,0,0,0,0,0,0,0,0,0,0,0,0,0,0,0,0,0,0,0,0,0,0,0,0,0,0,0,0,0,0,0,0,0,0,0,0,0,0,0,0,0,0,0,0],"sum_hessian":[1.36E2,9.5E1,4.1E1,3.7E1,5.8E1,1.6E1,2.5E1,3.2E1,5E0,5.1E1,7E0,4E0,1.2E1,1.3E1,1.2E1,3E0,2.9E1,1E0,4E0,2E0,4.9E1,6E0,1E0,3E0,1E0,1E0,1.1E1,2E0,1.1E1,3E0,9E0,2E0,1E0,2.8E1,1E0,1E0,3E0,1E0,1E0,1E0,4.8E1,2E0,4E0,2E0,1E0,6E0,5E0,4E0,7E0,2E0,7E0],"tree_param":{"num_deleted":"0","num_feature":"23","num_nodes":"51","size_leaf_vector":"1"}},{"base_weights":[2.1620532E-2,-1.2618195E0,2.9625525E0,-2.571558E0,-4.4748196E-1,1.074922E0,4.1665096E0,-2.7998827E0,-1.143032E0,-8.3263355E-1,1.1944681E0,-3.1812122E-1,1.5392729E0,4.845474E0,3.4159327E0,-4.2597027E0,-2.6370277E0,8.593119E-2,-1.5902107E0,-7.3251396E-1,-7.094531E-1,8.2410747E-1,6.404714E-1,-7.091345E-1,1.1292618E-1,1.4815962E-1,1.5752931E0,4.77782E-1,5.072965E0,3.7571275E-1,3.6193912E0,-6.247224E-1,-4.6662307E-1,-3.6606246E-1,-1.5456471E-1,-1.7049927E-1,-2.2876874E-1,-1.4062726E-1,6.851888E-2,3.199489E-2,2.3050939E-1,-1.2064806E-1,-4.4384833E-2,1.9911772E-1,2.3058076E-1,5.7378006E-1,7.305015E-1,4.0583792E-1,5.144655E-1],"categories":[],"categories_nodes":[],"categories_segments":[],"categories_sizes":[],"default_left":[0,0,0,0,0,0,0,0,0,0,0,0,0,0,0,0,0,0,0,0,0,0,0,0,0,0,0,0,0,0,0,0,0,0,0,0,0,0,0,0,0,0,0,0,0,0,0,0,0],"id":2,"left_children":[1,3,5,7,9,11,13,15,17,19,21,23,25,27,29,31,33,-1,35,37,-1,39,-1,41,-1,-1,43,-1,45,-1,47,-1,-1,-1,-1,-1,-1,-1,-1,-1,-1,-1,-1,-1,-1,-1,-1,-1,-1],"loss_changes":[5.0988892E2,1.0023503E2,9.305109E1,1.1595139E1,3.67461E1,1.0405745E1,1.200647E1,6.859192E0,4.050306E0,2.043792E1,1.4167264E1,1.8390763E0,1.05716705E-1,3.1462708E0,1.1386414E0,1.18457794E-1,2.0974426E0,0E0,1.6318321E-2,1.7161108E1,0E0,5.1172733E0,0E0,1.870321E-1,0E0,0E0,2.2233963E-2,0E0,1.7755127E0,0E0,4.0973663E-1,0E0,0E0,0E0,0E0,0E0,0E0,0E0,0E0,0E0,0E0,0E0,0E0,0E0,0E0,0E0,0E0,0E0,0E0],"parents":[2147483647,0,0,1,1,2,2,3,3,4,4,5,5,6,6,7,7,8,8,9,9,10,10,11,11,12,12,13,13,14,14,15,15,16,16,18,18,19,19,21,21,23,23,26,26,28,28,30,30],"right_children":[2,4,6,8,10,12,14,16,18,20,22,24,26,28,30,32,34,-1,36,38,-1,40,-1,42,-1,-1,44,-1,46,-1,48,-1,-1,-1,-1,-1,-1,-1,-1,-1,-1,-1,-1,-1,-1,-1,-1,-1,-1],"split_conditions":[9.0778E0,5.4627E0,2.214E1,2.862E1,9.69E0,-2.899E1,1E1,2.5662E0,2.7482E0,1.293E1,8.964E0,1.08451E1,6.2759E0,1.19659E1,1.16989E1,1.4E0,2.924E1,8.593119E-2,5.1253E0,1.591E1,-7.094531E-1,6.622E0,6.404714E-1,-2.927E1,1.1292618E-1,1.4815962E-1,9.5117E0,4.77782E-1,-1.98E0,3.7571275E-1,4.57E0,-6.247224E-1,-4.6662307E-1,-3.6606246E-1,-1.5456471E-1,-1.7049927E-1,-2.2876874E-1,-1.4062726E-1,6.851888E-2,3.199489E-2,2.3050939E-1,-1.2064806E-1,-4.4384833E-2,1.9911772E-1,2.3058076E-1,5.7378006E-1,7.305015E-1,4.0583792E-1,5.144655E-1],"split_indices":[0,0,9,13,5,5,21,0,0,10,1,0,1,0,0,0,5,0,0,14,0,0,0,5,0,0,0,0,5,0,8,0,0,0,0,0,0,0,0,0,0,0,0,0,0,0,0,0,0],"split_type":[0,0,0,0,0,0,0,0,0,0,0,0,0,0,0,0,0,0,0,0,0,0,0,0,0,0,0,0,0,0,0,0,0,0,0,0,0,0,0,0,0,0,0,0,0,0,0,0,0],"sum_hessian":[1.35E2,9.4E1,4.1E1,3.6E1,5.8E1,1.6E1,2.5E1,3.1E1,5E0,4.7E1,1.1E1,4E0,1.2E1,1.3E1,1.2E1,3E0,2.8E1,1E0,4E0,4.6E1,1E0,1E1,1E0,3E0,1E0,1E0,1.1E1,2E0,1.1E1,3E0,9E0,2E0,1E0,2.7E1,1E0,1E0,3E0,3.7E1,9E0,6E0,4E0,2E0,1E0,6E0,5E0,3E0,8E0,2E0,7E0],"tree_param":{"num_deleted":"0","num_feature":"23","num_nodes":"49","size_leaf_vector":"1"}},{"base_weights":[2.7071547E-3,-1.103002E0,2.5633569E0,-2.2243185E0,-3.8646603E-1,9.3011856E-1,3.6050253E0,-2.415391E0,-9.901572E-1,-6.448909E-1,1.4879806E0,-2.7538684E-1,1.3320267E0,4.192156E0,2.9558902E0,-3.6956751E0,-2.277515E0,7.471656E-2,-1.3782625E0,2.9648824E0,-7.9479927E-1,1.027019E0,5.568854E-1,-6.1523855E-1,9.818856E-2,1.5294781E-1,1.898011E-1,4.141299E-1,4.3878546E0,2.3909824E0,3.1313713E0,-5.414944E-1,-4.0572548E-1,-3.1589448E-1,-1.3439292E-1,-1.6310035E-1,-2.0762227E-1,7.92966E-1,-1.8197618E-3,-6.1686456E-1,-9.698489E-2,3.1866733E-2,1.9255263E-1,-1.0457487E-1,-3.859229E-2,7.048852E-1,5.529196E-1,3.8182878E-1,2.8927124E-1,4.9630907E-1,4.029716E-1],"categories":[],"categories_nodes":[],"categories_segments":[],"categories_sizes":[],"default_left":[0,0,0,0,0,0,0,0,0,0,0,0,0,0,0,0,0,0,0,0,0,0,0,0,0,0,0,0,0,0,0,0,0,0,0,0,0,0,0,0,0,0,0,0,0,0,0,0,0,0,0],"id":3,"left_children":[1,3,5,7,9,11,13,15,17,19,21,23,25,27,29,31,33,-1,35,37,39,41,-1,43,-1,-1,-1,-1,45,47,49,-1,-1,-1,-1,-1,-1,-1,-1,-1,-1,-1,-1,-1,-1,-1,-1,-1,-1,-1,-1],"loss_changes":[3.8531116E2,7.63103E1,6.965439E1,8.612137E0,2.8151543E1,7.794854E0,8.972717E0,5.2608643E0,3.04986E0,2.7707535E1,8.2460985E0,1.3880358E0,7.523346E-2,2.3166046E0,8.408432E-1,6.891632E-2,1.5400543E0,0E0,1.23586655E-2,1.7457758E1,1.4861256E1,1.8353591E0,0E0,1.3887918E-1,0E0,0E0,0E0,0E0,1.8835602E0,5.0180435E-2,2.9112244E-1,0E0,0E0,0E0,0E0,0E0,0E0,0E0,0E0,0E0,0E0,0E0,0E0,0E0,0E0,0E0,0E0,0E0,0E0,0E0,0E0],"parents":[2147483647,0,0,1,1,2,2,3,3,4,4,5,5,6,6,7,7,8,8,9,9,10,10,11,11,12,12,13,13,14,14,15,15,16,16,18,18,19,19,20,20,21,21,23,23,28,28,29,29,30,30],"right_children":[2,4,6,8,10,12,14,16,18,20,22,24,26,28,30,32,34,-1,36,38,40,42,-1,44,-1,-1,-1,-1,46,48,50,-1,-1,-1,-1,-1,-1,-1,-1,-1,-1,-1,-1,-1,-1,-1,-1,-1,-1,-1,-1],"split_conditions":[9.0778E0,5.4627E0,2.214E1,2.862E1,1.653E1,-2.899E1,1E1,2.5662E0,2.7482E0,-1.687E0,8.964E0,1.08451E1,8.8623E0,1.19659E1,1.16989E1,1.4E0,2.924E1,7.471656E-2,5.1417E0,6.622E0,5.06E1,6.0667E0,5.568854E-1,-2.927E1,9.818856E-2,1.5294781E-1,1.898011E-1,4.141299E-1,9.365E0,1.10376E1,2.851E1,-5.414944E-1,-4.0572548E-1,-3.1589448E-1,-1.3439292E-1,-1.6310035E-1,-2.0762227E-1,7.92966E-1,-1.8197618E-3,-6.1686456E-1,-9.698489E-2,3.1866733E-2,1.9255263E-1,-1.0457487E-1,-3.859229E-2,7.048852E-1,5.529196E-1,3.8182878E-1,2.8927124E-1,4.9630907E-1,4.029716E-1],"split_indices":[0,0,9,13,5,5,21,0,0,17,1,0,3,0,0,0,5,0,0,0,11,0,0,5,0,0,0,0,2,0,13,0,0,0,0,0,0,0,0,0,0,0,0,0,0,0,0,0,0,0,0],"split_type":[0,0,0,0,0,0,0,0,0,0,0,0,0,0,0,0,0,0,0,0,0,0,0,0,0,0,0,0,0,0,0,0,0,0,0,0,0,0,0,0,0,0,0,0,0,0,0,0,0,0,0],"sum_hessian":[1.36E2,9.5E1,4.1E1,3.7E1,5.8E1,1.6E1,2.5E1,3.2E1,5E0,5.1E1,7E0,4E0,1.2E1,1.3E1,1.2E1,3E0,2.9E1,1E0,4E0,2E0,4.9E1,6E0,1E0,3E0,1E0,3E0,9E0,2E0,1.1E1,3E0,9E0,2E0,1E0,2.8E1,1E0,2E0,2E0,1E0,1E0,1E0,4.8E1,2E0,4E0,2E0,1E0,3E0,8E0,1E0,2E0,2E0,7E0],"tree_param":{"num_deleted":"0","num_feature":"23","num_nodes":"51","size_leaf_vector":"1"}},{"base_weights":[3.2032223E-3,-9.2191285E-1,2.2222593E0,-1.8526411E0,-4.333684E-1,8.7917507E-1,3.0249984E0,-2.0463066E0,1.1262164E0,-9.85141E-1,3.7719976E-2,1.1371312E0,-1.5206467E-1,5.2991885E-1,2.741899E0,-2.7920065E0,-1.8626516E0,6.496554E-2,2.344261E-1,-1.2055599E-1,-1.6850445E0,2.9745717E0,-3.5730812E-1,1.6058774E-1,8.537429E-2,6.872619E-2,-4.874005E-1,8.51016E-2,2.8573792E0,-4.19244E-1,-2.9361933E-1,-2.6667577E-1,-1.5361303E-1,-5.667674E-2,2.0125765E-1,-1.8662345E-1,-5.172117E-1,6.5042216E-1,1.5015563E-1,-1.05703846E-1,1.4340556E-3,-3.3555724E-2,-9.555085E-2,3.7193668E-1,6.47197E-1],"categories":[],"categories_nodes":[],"categories_segments":[],"categories_sizes":[],"default_left":[0,0,0,0,0,0,0,0,0,0,0,0,0,0,0,0,0,0,0,0,0,0,0,0,0,0,0,0,0,0,0,0,0,0,0,0,0,0,0,0,0,0,0,0,0],"id":4,"left_children":[1,3,5,7,9,11,13,15,17,19,21,23,25,-1,27,29,31,-1,-1,33,35,37,39,-1,-1,-1,41,-1,43,-1,-1,-1,-1,-1,-1,-1,-1,-1,-1,-1,-1,-1,-1,-1,-1],"loss_changes":[2.7937482E2,4.362229E1,4.3034195E1,1.9166061E1,1.639438E1,4.015049E0,5.671112E0,4.001053E0,7.42013E-1,1.7554455E1,3.955563E1,2.2213936E-1,6.8087214E-1,0E0,4.5562744E0,7.929535E-1,1.6756439E0,0E0,0E0,6.1958613E0,1.0386044E1,1.3397873E1,4.642208E0,0E0,0E0,0E0,9.237349E-2,0E0,3.6390686E0,0E0,0E0,0E0,0E0,0E0,0E0,0E0,0E0,0E0,0E0,0E0,0E0,0E0,0E0,0E0,0E0],"parents":[2147483647,0,0,1,1,2,2,3,3,4,4,5,5,6,6,7,7,8,8,9,9,10,10,11,11,12,12,14,14,15,15,16,16,19,19,20,20,21,21,22,22,26,26,28,28],"right_children":[2,4,6,8,10,12,14,16,18,20,22,24,26,-1,28,30,32,-1,-1,34,36,38,40,-1,-1,-1,42,-1,44,-1,-1,-1,-1,-1,-1,-1,-1,-1,-1,-1,-1,-1,-1,-1,-1],"split_conditions":[8.3949E0,5.2248E0,2E5,4.72E0,-3.99E-1,1.94E5,7E0,3.8346E0,1.4E0,6.6007E0,2.92E2,9.6907E0,7.1036E0,5.2991885E-1,1.71E5,5.9E-2,5.66E6,6.496554E-2,2.344261E-1,3.214E1,2.45E1,6.6331E0,6.6169E0,1.6058774E-1,8.537429E-2,6.872619E-2,8.3333E0,8.51016E-2,1.328E1,-4.19244E-1,-2.9361933E-1,-2.6667577E-1,-1.5361303E-1,-5.667674E-2,2.0125765E-1,-1.8662345E-1,-5.172117E-1,6.5042216E-1,1.5015563E-1,-1.05703846E-1,1.4340556E-3,-3.3555724E-2,-9.555085E-2,3.7193668E-1,6.47197E-1],"split_indices":[3,3,7,12,18,6,21,4,2,3,11,2,2,0,6,18,6,0,0,5,9,3,3,0,0,0,2,0,5,0,0,0,0,0,0,0,0,0,0,0,0,0,0,0,0],"split_type":[0,0,0,0,0,0,0,0,0,0,0,0,0,0,0,0,0,0,0,0,0,0,0,0,0,0,0,0,0,0,0,0,0,0,0,0,0,0,0,0,0,0,0,0,0],"sum_hessian":[1.36E2,9.6E1,4E1,3.3E1,6.3E1,1.5E1,2.5E1,3.1E1,2E0,2.9E1,3.4E1,1.2E1,3E0,6E0,1.9E1,6E0,2.5E1,1E0,1E0,1.3E1,1.6E1,4E0,3E1,1.1E1,1E0,1E0,2E0,1E0,1.8E1,4E0,2E0,2.2E1,3E0,1.1E1,2E0,1.4E1,2E0,2E0,2E0,1.4E1,1.6E1,1E0,1E0,1.7E1,1E0],"tree_param":{"num_deleted":"0","num_feature":"23","num_nodes":"45","size_leaf_vector":"1"}},{"base_weights":[-1.3588078E-2,-7.9679775E-1,1.9635613E0,-1.5615861E0,-3.370395E-1,8.59989E-1,2.6043918E0,-1.7122906E0,9.7963715E-1,-9.8786753E-1,-3.4572758E-2,2.6396543E-1,1.3882291E-1,4.5832732E-1,2.341953E0,-1.8525456E0,-1.0483007E0,5.6487057E-2,2.0383188E-1,-2.5490174E0,-5.6511587E-1,2.5784934E0,-3.198711E-1,-2.9176496E-2,6.8806306E-2,2.2259955E0,5.6273335E-1,-3.5052934E-1,-2.438832E-1,-1.700881E-1,-1.1289517E-1,-4.4830665E-1,-2.376776E-1,-5.83546E-2,-3.225717E-1,5.637703E-1,1.3015129E-1,-6.292243E-2,1.7389327E-1,7.399531E-2,3.168785E-1],"categories":[],"categories_nodes":[],"categories_segments":[],"categories_sizes":[],"default_left":[0,0,0,0,0,0,0,0,0,0,0,0,0,0,0,0,0,0,0,0,0,0,0,0,0,0,0,0,0,0,0,0,0,0,0,0,0,0,0,0,0],"id":5,"left_children":[1,3,5,7,9,11,13,15,17,19,21,23,-1,-1,25,27,29,-1,-1,31,33,35,37,-1,-1,39,-1,-1,-1,-1,-1,-1,-1,-1,-1,-1,-1,-1,-1,-1,-1],"loss_changes":[2.0762709E2,3.373599E1,2.678688E1,1.3879265E1,1.181175E1,1.3225269E0,4.4510193E0,3.0695724E0,5.5937564E-1,1.24869175E1,3.0618286E1,3.583226E-1,0E0,0E0,3.322174E0,9.9479675E-1,2.0938635E-1,0E0,0E0,2.142582E0,3.6392894E0,1.0061531E1,8.46098E0,0E0,0E0,2.8816223E0,0E0,0E0,0E0,0E0,0E0,0E0,0E0,0E0,0E0,0E0,0E0,0E0,0E0,0E0,0E0],"parents":[2147483647,0,0,1,1,2,2,3,3,4,4,5,5,6,6,7,7,8,8,9,9,10,10,11,11,14,14,15,15,16,16,19,19,20,20,21,21,22,22,25,25],"right_children":[2,4,6,8,10,12,14,16,18,20,22,24,-1,-1,26,28,30,-1,-1,32,34,36,38,-1,-1,40,-1,-1,-1,-1,-1,-1,-1,-1,-1,-1,-1,-1,-1,-1,-1],"split_conditions":[8.3949E0,5.4627E0,2E5,4.72E0,-7.77E-1,-1.275E1,7E0,5.66E6,2.5662E0,4.869E2,2.92E2,9.3704E0,1.3882291E-1,4.5832732E-1,2.169E1,1.4E0,-1.74E0,5.6487057E-2,2.0383188E-1,3E5,6.4994E0,6.4994E0,1.653E1,-2.9176496E-2,6.8806306E-2,8.964E0,5.6273335E-1,-3.5052934E-1,-2.438832E-1,-1.700881E-1,-1.1289517E-1,-4.4830665E-1,-2.376776E-1,-5.83546E-2,-3.225717E-1,5.637703E-1,1.3015129E-1,-6.292243E-2,1.7389327E-1,7.399531E-2,3.168785E-1],"split_indices":[3,1,7,12,16,5,20,6,1,11,11,3,0,0,5,1,5,0,0,6,2,1,5,0,0,1,0,0,0,0,0,0,0,0,0,0,0,0,0,0,0],"split_type":[0,0,0,0,0,0,0,0,0,0,0,0,0,0,0,0,0,0,0,0,0,0,0,0,0,0,0,0,0,0,0,0,0,0,0,0,0,0,0,0,0],"sum_hessian":[1.34E2,9.6E1,3.8E1,3.6E1,6E1,1.4E1,2.4E1,3.4E1,2E0,1.9E1,4.1E1,3E0,1.1E1,6E0,1.8E1,2.8E1,6E0,1E0,1E0,4E0,1.5E1,4E0,3.7E1,1E0,2E0,1.7E1,1E0,2E0,2.6E1,3E0,3E0,2E0,2E0,1.4E1,1E0,2E0,2E0,3.4E1,3E0,1E0,1.6E1],"tree_param":{"num_deleted":"0","num_feature":"23","num_nodes":"41","size_leaf_vector":"1"}},{"base_weights":[7.1439855E-3,-7.1962535E-1,1.6725672E0,-1.4365543E0,-2.3230526E-1,6.144152E-1,2.3473413E0,-1.5726132E0,-7.0391047E-1,-4.7900027E-1,7.742931E-1,-1.9266726E-1,8.8369274E-1,2.6852365E0,1.7361438E0,-3.5376313E-1,-1.5003213E0,4.9115103E-2,-9.193797E-1,-4.103526E-1,-4.1834173E-1,5.797277E-1,3.5523507E-1,-4.2238393E-1,6.525266E-2,1.0278634E-1,1.2825978E-1,4.299323E-1,2.5158792E0,3.583354E-1,1.6098361E0,-2.837866E-1,-1.9481398E-1,-9.218107E-2,-1.3204756E-1,2.511405E-1,-7.184707E-2,3.895833E-2,1.6989045E-1,-9.206047E-2,-3.8198605E-2,3.262706E-1,3.8488436E-1,1.9257471E-1,2.4296847E-1],"categories":[],"categories_nodes":[],"categories_segments":[],"categories_sizes":[],"default_left":[0,0,0,0,0,0,0,0,0,0,0,0,0,0,0,0,0,0,0,0,0,0,0,0,0,0,0,0,0,0,0,0,0,0,0,0,0,0,0,0,0,0,0,0,0],"id":6,"left_children":[1,3,5,7,9,11,13,15,17,19,21,23,25,27,29,-1,31,-1,33,-1,35,37,-1,39,-1,-1,-1,-1,41,-1,43,-1,-1,-1,-1,-1,-1,-1,-1,-1,-1,-1,-1,-1,-1],"loss_changes":[1.635097E2,3.2831367E1,2.9225075E1,3.7308655E0,1.3930559E1,3.4980721E0,4.945877E0,2.1885834E0,1.4040844E0,6.856595E0,3.8616805E0,6.325467E-1,5.0196648E-2,9.161682E-1,8.183098E-1,0E0,1.0551758E0,0E0,2.4111748E-2,0E0,1.0975129E1,1.9461505E0,0E0,9.548932E-2,0E0,0E0,0E0,0E0,1.22924805E-1,0E0,1.4763069E-1,0E0,0E0,0E0,0E0,0E0,0E0,0E0,0E0,0E0,0E0,0E0,0E0,0E0,0E0],"parents":[2147483647,0,0,1,1,2,2,3,3,4,4,5,5,6,6,7,7,8,8,9,9,10,10,11,11,12,12,13,13,14,14,16,16,18,18,20,20,21,21,23,23,28,28,30,30],"right_children":[2,4,6,8,10,12,14,16,18,20,22,24,26,28,30,-1,32,-1,34,-1,36,38,-1,40,-1,-1,-1,-1,42,-1,44,-1,-1,-1,-1,-1,-1,-1,-1,-1,-1,-1,-1,-1,-1],"split_conditions":[9.0778E0,5.5695E0,2.661E1,2.862E1,9.69E0,-2.899E1,1.2E1,1.4E0,2.7482E0,5.06E1,8.964E0,1.08451E1,9.4388E0,4E5,1.10376E1,-3.5376313E-1,-1.299E1,4.9115103E-2,5.1253E0,-4.103526E-1,1.662E2,7.518E0,3.5523507E-1,9.7221E0,6.525266E-2,1.0278634E-1,1.2825978E-1,4.299323E-1,4.21E6,3.583354E-1,1.2217E1,-2.837866E-1,-1.9481398E-1,-9.218107E-2,-1.3204756E-1,2.511405E-1,-7.184707E-2,3.895833E-2,1.6989045E-1,-9.206047E-2,-3.8198605E-2,3.262706E-1,3.8488436E-1,1.9257471E-1,2.4296847E-1],"split_indices":[0,0,13,13,5,5,21,0,0,11,1,0,0,6,1,0,5,0,0,0,11,0,0,0,0,0,0,0,6,0,1,0,0,0,0,0,0,0,0,0,0,0,0,0,0],"split_type":[0,0,0,0,0,0,0,0,0,0,0,0,0,0,0,0,0,0,0,0,0,0,0,0,0,0,0,0,0,0,0,0,0,0,0,0,0,0,0,0,0,0,0,0,0],"sum_hessian":[1.35E2,9.4E1,4.1E1,3.8E1,5.6E1,1.6E1,2.5E1,3.2E1,6E0,4.5E1,1.1E1,4E0,1.2E1,1.6E1,9E0,2E0,3E1,1E0,5E0,1E0,4.4E1,1E1,1E0,3E0,1E0,4E0,8E0,4E0,1.2E1,1E0,8E0,3E0,2.7E1,1E0,4E0,2E0,4.2E1,7E0,3E0,1E0,2E0,9E0,3E0,4E0,4E0],"tree_param":{"num_deleted":"0","num_feature":"23","num_nodes":"45","size_leaf_vector":"1"}},{"base_weights":[-1.6653573E-2,-6.215122E-1,1.4188639E0,-1.2055424E0,-1.7736636E-1,5.3126025E-1,2.008353E0,-2.086446E0,-1.1335784E0,-3.9928696E-1,7.9601717E-1,-1.6713737E-1,7.643472E-1,2.3965693E0,1.6125253E0,-3.0663338E-1,-2.2689019E-1,-1.2846875E0,-6.422276E-1,-2.8430697E-1,-3.1661382E-1,6.2162244E-1,3.0887443E-1,-3.6701626E-1,5.673679E-2,9.275127E-2,1.14365E-1,2.5309768E0,2.668821E-1,1.2062624E0,1.7409449E0,-2.4571517E-1,-1.6618608E-1,4.2705234E-2,-1.0388559E-1,-3.5043176E-2,-3.5679874E-1,5.2358292E-2,1.4709881E-1,-8.004592E-2,-3.3109654E-2,2.979151E-1,3.9845246E-1,2.1697012E-1,1.3331108E-1,1.77306E-1,2.5259033E-1],"categories":[],"categories_nodes":[],"categories_segments":[],"categories_sizes":[],"default_left":[0,0,0,0,0,0,0,0,0,0,0,0,0,0,0,0,0,0,0,0,0,0,0,0,0,0,0,0,0,0,0,0,0,0,0,0,0,0,0,0,0,0,0,0,0,0,0],"id":7,"left_children":[1,3,5,7,9,11,13,15,17,19,21,23,25,27,29,-1,-1,31,33,-1,35,37,-1,39,-1,-1,-1,41,-1,43,45,-1,-1,-1,-1,-1,-1,-1,-1,-1,-1,-1,-1,-1,-1,-1,-1],"loss_changes":[1.17287926E2,2.4635773E1,2.0890297E1,2.4810944E0,1.1684967E1,2.6206899E0,3.5051117E0,2.8798103E-2,2.77742E0,6.111546E0,2.5037055E0,4.781944E-1,4.195881E-2,4.6488953E-1,5.2053833E-1,0E0,0E0,8.44677E-1,1.0618818E0,0E0,5.677761E0,9.571054E-1,0E0,7.197645E-2,0E0,0E0,0E0,9.224968E-1,0E0,1.8506336E-1,3.3480835E-1,0E0,0E0,0E0,0E0,0E0,0E0,0E0,0E0,0E0,0E0,0E0,0E0,0E0,0E0,0E0,0E0],"parents":[2147483647,0,0,1,1,2,2,3,3,4,4,5,5,6,6,7,7,8,8,9,9,10,10,11,11,12,12,13,13,14,14,17,17,18,18,20,20,21,21,23,23,27,27,29,29,30,30],"right_children":[2,4,6,8,10,12,14,16,18,20,22,24,26,28,30,-1,-1,32,34,-1,36,38,-1,40,-1,-1,-1,42,-1,44,46,-1,-1,-1,-1,-1,-1,-1,-1,-1,-1,-1,-1,-1,-1,-1,-1],"split_conditions":[9.0778E0,5.7306E0,2.214E1,2.5662E0,9.69E0,-2.899E1,1E1,1.4E0,2.146E1,-3.832E1,8.33E1,1.08451E1,9.5117E0,4.832E1,1.16989E1,-3.0663338E-1,-2.2689019E-1,-1.299E1,2.7482E0,-2.8430697E-1,1.293E1,7.518E0,3.0887443E-1,9.7221E0,5.673679E-2,9.275127E-2,1.14365E-1,4.96E0,2.668821E-1,1.10376E1,4.57E0,-2.4571517E-1,-1.6618608E-1,4.2705234E-2,-1.0388559E-1,-3.5043176E-2,-3.5679874E-1,5.2358292E-2,1.4709881E-1,-8.004592E-2,-3.3109654E-2,2.979151E-1,3.9845246E-1,2.1697012E-1,1.3331108E-1,1.77306E-1,2.5259033E-1],"split_indices":[0,0,9,0,5,5,21,0,9,5,5,0,0,8,0,0,0,5,0,0,10,0,0,0,0,0,0,8,0,0,8,0,0,0,0,0,0,0,0,0,0,0,0,0,0,0,0],"split_type":[0,0,0,0,0,0,0,0,0,0,0,0,0,0,0,0,0,0,0,0,0,0,0,0,0,0,0,0,0,0,0,0,0,0,0,0,0,0,0,0,0,0,0,0,0,0,0],"sum_hessian":[1.35E2,9.5E1,4E1,4.1E1,5.4E1,1.6E1,2.4E1,3E0,3.8E1,4.4E1,1E1,4E0,1.2E1,1.2E1,1.2E1,2E0,1E0,2.9E1,9E0,2E0,4.2E1,9E0,1E0,3E0,1E0,6E0,6E0,9E0,3E0,3E0,9E0,3E0,2.6E1,1E0,8E0,4.1E1,1E0,6E0,3E0,1E0,2E0,5E0,4E0,1E0,2E0,2E0,7E0],"tree_param":{"num_deleted":"0","num_feature":"23","num_nodes":"47","size_leaf_vector":"1"}},{"base_weights":[2.7022047E-3,-6.25816E-1,1.0834917E0,-1.0883619E0,-2.7577823E-1,5.115271E-1,1.8087715E0,3.7131924E-2,-1.126626E0,1.6342539E0,-3.5859302E-1,6.349009E-1,-5.090358E-1,4.9332228E-2,1.8764682E0,-1.7256876E0,-1.0493573E0,5.0281566E-1,-6.636653E-2,-4.1121188E-1,2.6856422E-1,5.116187E-1,1.1183158E0,-2.4799915E-1,1.6903816E-1,2.2185726E0,1.5575516E0,-2.6578248E-1,-1.98495E-1,-1.5279315E-1,-8.765697E-2,-3.2187685E-1,-4.972138E-2,9.192731E-2,2.275102E-3,1.7432073E-1,1.1555082E-1,8.522357E-2,-3.934752E-2,3.2175812E-1,2.5127518E-1,2.7103484E-1,1.9747059E-1],"categories":[],"categories_nodes":[],"categories_segments":[],"categories_sizes":[],"default_left":[0,0,0,0,0,0,0,0,0,0,0,0,0,0,0,0,0,0,0,0,0,0,0,0,0,0,0,0,0,0,0,0,0,0,0,0,0,0,0,0,0,0,0],"id":8,"left_children":[1,3,5,7,9,11,13,-1,15,17,19,21,23,-1,25,27,29,-1,-1,31,-1,33,35,-1,37,39,41,-1,-1,-1,-1,-1,-1,-1,-1,-1,-1,-1,-1,-1,-1,-1,-1],"loss_changes":[9.2444824E1,1.3909718E1,2.0705502E1,1.9478912E0,7.7744317E0,3.5453868E0,2.1150665E0,0E0,1.5739937E0,9.031411E0,5.7984495E0,1.4579163E0,2.7337458E0,0E0,2.125229E0,1.0310459E-1,9.142113E-1,0E0,0E0,4.0647016E0,0E0,1.6222582E0,1.6141367E-1,0E0,4.3787038E-1,3.3411407E-1,3.6491203E-1,0E0,0E0,0E0,0E0,0E0,0E0,0E0,0E0,0E0,0E0,0E0,0E0,0E0,0E0,0E0,0E0],"parents":[2147483647,0,0,1,1,2,2,3,3,4,4,5,5,6,6,8,8,9,9,10,10,11,11,12,12,14,14,15,15,16,16,19,19,21,21,22,22,24,24,25,25,26,26],"right_children":[2,4,6,8,10,12,14,-1,16,18,20,22,24,-1,26,28,30,-1,-1,32,-1,34,36,-1,38,40,42,-1,-1,-1,-1,-1,-1,-1,-1,-1,-1,-1,-1,-1,-1,-1,-1],"split_conditions":[7.5E0,5.4627E0,1.16989E1,-4.6E1,-1.687E0,7.529E2,1.83E5,3.7131924E-2,3.3202E0,6.622E0,8.2179E0,1.288E1,9.0778E0,4.9332228E-2,9E0,1.4E0,5.949E6,5.0281566E-1,-6.636653E-2,3.8204E0,2.6856422E-1,4.6E0,1.10376E1,-2.4799915E-1,9.6756E0,4.77E-1,1.15492E1,-2.6578248E-1,-1.98495E-1,-1.5279315E-1,-8.765697E-2,-3.2187685E-1,-4.972138E-2,9.192731E-2,2.275102E-3,1.7432073E-1,1.1555082E-1,8.522357E-2,-3.934752E-2,3.2175812E-1,2.5127518E-1,2.7103484E-1,1.9747059E-1],"split_indices":[0,0,0,8,17,11,6,0,0,0,3,10,0,0,21,0,6,0,0,1,0,8,0,0,0,19,4,0,0,0,0,0,0,0,0,0,0,0,0,0,0,0,0],"split_type":[0,0,0,0,0,0,0,0,0,0,0,0,0,0,0,0,0,0,0,0,0,0,0,0,0,0,0,0,0,0,0,0,0,0,0,0,0,0,0,0,0,0,0],"sum_hessian":[1.36E2,8.6E1,5E1,3.7E1,4.9E1,2.8E1,2.2E1,1E0,3.6E1,2E0,4.7E1,2.5E1,3E0,1E0,2.1E1,4E0,3.2E1,1E0,1E0,4.6E1,1E0,2E1,5E0,1E0,2E0,1E1,1.1E1,2E0,2E0,2.7E1,5E0,1E0,4.5E1,1.5E1,5E0,3E0,2E0,1E0,1E0,7E0,3E0,2E0,9E0],"tree_param":{"num_deleted":"0","num_feature":"23","num_nodes":"43","size_leaf_vector":"1"}},{"base_weights":[2.6465987E-3,-5.408645E-1,9.37276E-1,-8.819039E-1,-1.8290573E-1,4.4226694E-1,1.5649351E0,-1.570356E0,-8.2980204E-1,1.4205729E0,-2.646594E-1,-6.4170974E-1,6.2400544E-1,1.2467214E0,1.8765556E0,-2.3037389E-1,-1.7137451E-1,-9.59936E-1,-5.1251274E-1,4.3719482E-1,-5.7705224E-2,-5.780433E-1,2.573886E-1,-2.1563354E-1,-3.0750558E-1,5.309873E-1,9.6877456E-1,7.9993945E-1,2.0337272E-1,1.9796691E0,1.8747596E-1,-1.922533E-1,-1.2315749E-1,3.228591E-2,-7.917072E-2,-1.7466378E-1,-4.7958378E-2,1.2369122E-2,1.785069E-1,-6.98963E-2,-2.6229165E-2,1.641574E-2,7.8705125E-2,1.5093467E-1,1.0015665E-1,1.2963156E-1,4.2893976E-2,2.580014E-1,3.450702E-1],"categories":[],"categories_nodes":[],"categories_segments":[],"categories_sizes":[],"default_left":[0,0,0,0,0,0,0,0,0,0,0,0,0,0,0,0,0,0,0,0,0,0,0,0,0,0,0,0,0,0,0,0,0,0,0,0,0,0,0,0,0,0,0,0,0,0,0,0,0],"id":9,"left_children":[1,3,5,7,9,11,13,15,17,19,21,23,25,27,29,-1,-1,31,33,-1,-1,35,37,-1,39,41,43,45,-1,47,-1,-1,-1,-1,-1,-1,-1,-1,-1,-1,-1,-1,-1,-1,-1,-1,-1,-1,-1],"loss_changes":[6.913112E1,1.0490381E1,1.5506065E1,1.5093575E0,5.520121E0,5.541302E0,2.0667496E0,7.0023537E-3,1.6645164E0,6.8302317E0,6.559347E0,1.2416843E0,7.397795E-1,1.1585407E0,4.3074417E-1,0E0,0E0,6.5148354E-1,6.345258E-1,0E0,0E0,3.9567232E0,2.6271546E0,0E0,6.335035E-2,3.6370182E-1,1.1863184E-1,2.787459E-1,0E0,1.874237E-1,0E0,0E0,0E0,0E0,0E0,0E0,0E0,0E0,0E0,0E0,0E0,0E0,0E0,0E0,0E0,0E0,0E0,0E0,0E0],"parents":[2147483647,0,0,1,1,2,2,3,3,4,4,5,5,6,6,7,7,8,8,9,9,10,10,11,11,12,12,13,13,14,14,17,17,18,18,21,21,22,22,24,24,25,25,26,26,27,27,29,29],"right_children":[2,4,6,8,10,12,14,16,18,20,22,24,26,28,30,-1,-1,32,34,-1,-1,36,38,-1,40,42,44,46,-1,48,-1,-1,-1,-1,-1,-1,-1,-1,-1,-1,-1,-1,-1,-1,-1,-1,-1,-1,-1],"split_conditions":[7.5E0,5.9041E0,1.16989E1,2.5662E0,-1.687E0,-2.899E1,-1.98E0,1.4E0,2.146E1,6.622E0,1.72E0,9.0778E0,1.288E1,1.25373E1,4.832E1,-2.3037389E-1,-1.7137451E-1,-1.299E1,2.7482E0,4.3719482E-1,-5.7705224E-2,-1.03E0,3.214E1,-2.1563354E-1,9.7221E0,-1.277E0,1.10376E1,1.33619E1,2.0337272E-1,1.328E1,1.8747596E-1,-1.922533E-1,-1.2315749E-1,3.228591E-2,-7.917072E-2,-1.7466378E-1,-4.7958378E-2,1.2369122E-2,1.785069E-1,-6.98963E-2,-2.6229165E-2,1.641574E-2,7.8705125E-2,1.5093467E-1,1.0015665E-1,1.2963156E-1,4.2893976E-2,2.580014E-1,3.450702E-1],"split_indices":[0,0,0,0,17,5,5,0,9,0,5,0,10,1,8,0,0,5,0,0,0,16,5,0,0,17,0,0,0,5,0,0,0,0,0,0,0,0,0,0,0,0,0,0,0,0,0,0,0],"split_type":[0,0,0,0,0,0,0,0,0,0,0,0,0,0,0,0,0,0,0,0,0,0,0,0,0,0,0,0,0,0,0,0,0,0,0,0,0,0,0,0,0,0,0,0,0,0,0,0,0],"sum_hessian":[1.36E2,8.6E1,5E1,4.4E1,4.2E1,2.8E1,2.2E1,3E0,4.1E1,2E0,4E1,4E0,2.4E1,1.1E1,1.1E1,2E0,1E0,2.9E1,1.2E1,1E0,1E0,2.5E1,1.5E1,1E0,3E0,1.9E1,5E0,4E0,7E0,9E0,2E0,3E0,2.6E1,1E0,1.1E1,6E0,1.9E1,1.3E1,2E0,1E0,2E0,2E0,1.7E1,3E0,2E0,3E0,1E0,8E0,1E0],"tree_param":{"num_deleted":"0","num_feature":"23","num_nodes":"49","size_leaf_vector":"1"}},{"base_weights":[2.5443034E-3,-4.6751174E-1,8.10876E-1,-8.1552666E-1,-2.041181E-1,3.8214603E-1,1.3544586E0,-8.442951E-1,2.8072404E-2,1.2347785E0,-2.665416E-1,-5.581015E-1,5.398242E-1,1.0786982E0,1.6244363E0,-1.3091573E0,-7.8433174E-1,3.801379E-1,-5.0174266E-2,-3.740758E-1,6.310419E-1,-1.8749188E-1,-2.6729062E-1,8.8738537E-1,4.8818222E-1,6.931274E-1,1.7586955E-1,1.7132522E0,1.6249964E-1,-1.9968255E-1,-1.5243134E-1,-1.8683018E-1,-1.01087205E-1,-4.4978384E-2,-2.8095022E-1,5.267232E-2,2.1021836E-1,-6.0774367E-2,-2.2734782E-2,1.04803465E-1,1.462059E-1,3.1168139E-2,7.456667E-2,1.1224077E-1,3.7295967E-2,2.0311357E-1,2.5500396E-1],"categories":[],"categories_nodes":[],"categories_segments":[],"categories_sizes":[],"default_left":[0,0,0,0,0,0,0,0,0,0,0,0,0,0,0,0,0,0,0,0,0,0,0,0,0,0,0,0,0,0,0,0,0,0,0,0,0,0,0,0,0,0,0,0,0,0,0],"id":10,"left_children":[1,3,5,7,9,11,13,15,-1,17,19,21,23,25,27,29,31,-1,-1,33,35,-1,37,39,41,43,-1,45,-1,-1,-1,-1,-1,-1,-1,-1,-1,-1,-1,-1,-1,-1,-1,-1,-1,-1,-1],"loss_changes":[5.170915E1,7.873621E0,1.16295395E1,1.1003456E0,4.412983E0,4.170183E0,1.5496216E0,9.479103E-1,0E0,5.165797E0,4.549019E0,9.379723E-1,4.0450382E-1,8.602848E-1,3.1659508E-1,3.4847736E-2,7.23629E-1,0E0,0E0,3.0476313E0,1.0866528E0,0E0,4.7671437E-2,1.9950867E-2,3.1623745E-1,2.068038E-1,0E0,1.8079948E-1,0E0,0E0,0E0,0E0,0E0,0E0,0E0,0E0,0E0,0E0,0E0,0E0,0E0,0E0,0E0,0E0,0E0,0E0,0E0],"parents":[2147483647,0,0,1,1,2,2,3,3,4,4,5,5,6,6,7,7,9,9,10,10,11,11,12,12,13,13,14,14,15,15,16,16,19,19,20,20,22,22,23,23,24,24,25,25,27,27],"right_children":[2,4,6,8,10,12,14,16,-1,18,20,22,24,26,28,30,32,-1,-1,34,36,-1,38,40,42,44,-1,46,-1,-1,-1,-1,-1,-1,-1,-1,-1,-1,-1,-1,-1,-1,-1,-1,-1,-1,-1],"split_conditions":[7.5E0,5.4627E0,1.16989E1,9.934E1,-1.687E0,-2.899E1,-1.98E0,3.3202E0,2.8072404E-2,6.622E0,1.322E1,9.0778E0,-5.44E-1,1.25373E1,4.832E1,1.4E0,-1.427E0,3.801379E-1,-5.0174266E-2,2.708E1,6.4E0,-1.8749188E-1,9.7221E0,8.6069E0,8.3158E0,1.33619E1,1.7586955E-1,4.84E0,1.6249964E-1,-1.9968255E-1,-1.5243134E-1,-1.8683018E-1,-1.01087205E-1,-4.4978384E-2,-2.8095022E-1,5.267232E-2,2.1021836E-1,-6.0774367E-2,-2.2734782E-2,1.04803465E-1,1.462059E-1,3.1168139E-2,7.456667E-2,1.1224077E-1,3.7295967E-2,2.0311357E-1,2.5500396E-1],"split_indices":[0,0,0,5,17,5,5,0,0,0,5,0,18,1,8,0,19,0,0,9,0,0,0,0,0,0,0,8,0,0,0,0,0,0,0,0,0,0,0,0,0,0,0,0,0,0,0],"split_type":[0,0,0,0,0,0,0,0,0,0,0,0,0,0,0,0,0,0,0,0,0,0,0,0,0,0,0,0,0,0,0,0,0,0,0,0,0,0,0,0,0,0,0,0,0,0,0],"sum_hessian":[1.36E2,8.6E1,5E1,3.7E1,4.9E1,2.8E1,2.2E1,3.6E1,1E0,2E0,4.7E1,4E0,2.4E1,1.1E1,1.1E1,4E0,3.2E1,1E0,1E0,4.2E1,5E0,1E0,3E0,3E0,2.1E1,4E0,7E0,9E0,2E0,2E0,2E0,2E0,3E1,4.1E1,1E0,4E0,1E0,1E0,2E0,2E0,1E0,4E0,1.7E1,3E0,1E0,4E0,5E0],"tree_param":{"num_deleted":"0","num_feature":"23","num_nodes":"47","size_leaf_vector":"1"}},{"base_weights":[2.4315808E-3,-4.0409392E-1,7.015297E-1,-7.42952E-1,-1.9256236E-1,3.3028248E-1,1.1721935E0,-7.0191747E-1,-2.6774076E-1,-1.3719842E-1,-1.5690303E0,-4.854401E-1,4.6711466E-1,9.333411E-1,1.4059652E0,-7.307555E-1,2.4408767E-2,-7.1561056E-1,4.3205395E-3,-1.731454E-1,-2.4428427E-1,-1.6302289E-1,-2.3237108E-1,4.0631407E-1,7.6209754E-1,6.006063E-1,1.117812E0,1.3418086E0,2.6675642E-1,-1.4612608E-1,-9.0186365E-2,-1.6361605E-1,-6.8032265E-2,1.4602032E-1,-6.999351E-3,-5.28429E-2,-1.9705981E-2,5.86825E-2,-8.274314E-3,1.1612687E-1,6.234177E-2,9.71831E-2,3.242854E-2,1.1834702E-1,1.5669554E-1,1.6200364E-1,2.1116033E-1],"categories":[],"categories_nodes":[],"categories_segments":[],"categories_sizes":[],"default_left":[0,0,0,0,0,0,0,0,0,0,0,0,0,0,0,0,0,0,0,0,0,0,0,0,0,0,0,0,0,0,0,0,0,0,0,0,0,0,0,0,0,0,0,0,0,0,0],"id":11,"left_children":[1,3,5,7,9,11,13,15,-1,17,19,21,23,25,27,29,-1,31,33,-1,-1,-1,35,37,39,41,43,45,-1,-1,-1,-1,-1,-1,-1,-1,-1,-1,-1,-1,-1,-1,-1,-1,-1,-1,-1],"loss_changes":[3.867736E1,6.1555204E0,8.718201E0,1.585392E0,4.0223646E0,3.1395528E0,1.160347E0,8.234024E-1,0E0,4.182734E0,2.0733833E-2,7.0838714E-1,4.1072702E-1,6.384878E-1,2.6041412E-1,6.823273E-1,0E0,1.0180092E0,2.4551947E0,0E0,0E0,0E0,3.5822853E-2,2.3745036E-1,8.7471485E-2,1.5327442E-1,3.9186478E-3,2.2321129E-1,0E0,0E0,0E0,0E0,0E0,0E0,0E0,0E0,0E0,0E0,0E0,0E0,0E0,0E0,0E0,0E0,0E0,0E0,0E0],"parents":[2147483647,0,0,1,1,2,2,3,3,4,4,5,5,6,6,7,7,9,9,10,10,11,11,12,12,13,13,14,14,15,15,17,17,18,18,22,22,23,23,24,24,25,25,26,26,27,27],"right_children":[2,4,6,8,10,12,14,16,-1,18,20,22,24,26,28,30,-1,32,34,-1,-1,-1,36,38,40,42,44,46,-1,-1,-1,-1,-1,-1,-1,-1,-1,-1,-1,-1,-1,-1,-1,-1,-1,-1,-1],"split_conditions":[7.5E0,5.1417E0,1.16989E1,5.9041E0,2.708E1,-2.899E1,-1.98E0,9.934E1,-2.6774076E-1,-3.81E0,1.1429E0,9.0778E0,1.71E1,1.25373E1,1.328E1,3.8346E0,2.4408767E-2,-9.53E-1,1.662E2,-1.731454E-1,-2.4428427E-1,-1.6302289E-1,9.7221E0,3.395E7,1.10376E1,1.33619E1,1.26514E1,1.47263E1,2.6675642E-1,-1.4612608E-1,-9.0186365E-2,-1.6361605E-1,-6.8032265E-2,1.4602032E-1,-6.999351E-3,-5.28429E-2,-1.9705981E-2,5.86825E-2,-8.274314E-3,1.1612687E-1,6.234177E-2,9.71831E-2,3.242854E-2,1.1834702E-1,1.5669554E-1,1.6200364E-1,2.1116033E-1],"split_indices":[0,1,0,0,9,5,5,5,0,5,0,0,14,1,5,4,0,19,11,0,0,0,0,7,0,0,0,0,0,0,0,0,0,0,0,0,0,0,0,0,0,0,0,0,0,0,0],"split_type":[0,0,0,0,0,0,0,0,0,0,0,0,0,0,0,0,0,0,0,0,0,0,0,0,0,0,0,0,0,0,0,0,0,0,0,0,0,0,0,0,0,0,0,0,0,0,0],"sum_hessian":[1.36E2,8.6E1,5E1,3.3E1,5.3E1,2.8E1,2.2E1,3.2E1,1E0,5.1E1,2E0,4E0,2.4E1,1.1E1,1.1E1,3.1E1,1E0,1E1,4.1E1,1E0,1E0,1E0,3E0,2E1,4E0,4E0,7E0,1E1,1E0,5E0,2.6E1,3E0,7E0,2E0,3.9E1,1E0,2E0,1.9E1,1E0,3E0,1E0,3E0,1E0,1E0,6E0,6E0,4E0],"tree_param":{"num_deleted":"0","num_feature":"23","num_nodes":"47","size_leaf_vector":"1"}},{"base_weights":[4.778644E-3,-3.0069995E-1,7.299954E-1,-5.8158636E-1,-5.7961367E-2,2.8464168E-1,9.9602073E-1,-1.028268E0,-5.4771835E-1,-1.8735215E-1,4.704647E-1,3.5890293E-1,-1.1211305E-2,1.1940633E0,7.7749616E-1,-1.5181276E-1,-1.1004516E-1,-5.7942927E-1,6.677094E-2,-4.4430247E-1,8.250371E-2,3.6614025E-1,1.8369682E-1,2.8786892E-1,4.2637563E-1,-1.2554109E-1,2.8196365E-2,1.2732266E-1,1.2366679E0,1.3753006E-1,6.9463855E-1,-1.3446547E-1,-7.402255E-2,2.1223309E-2,-2.607974E-3,-2.0983036E-1,-4.4247914E-2,2.3487857E-2,-2.1240345E-1,3.7680686E-2,9.020319E-2,3.388648E-2,4.3619234E-2,5.33495E-2,7.7376425E-2,-7.397548E-3,-2.5250498E-2,1.7878783E-1,1.3778818E-1,7.881523E-2,1.1288283E-1],"categories":[],"categories_nodes":[],"categories_segments":[],"categories_sizes":[],"default_left":[0,0,0,0,0,0,0,0,0,0,0,0,0,0,0,0,0,0,0,0,0,0,0,0,0,0,0,0,0,0,0,0,0,0,0,0,0,0,0,0,0,0,0,0,0,0,0,0,0,0,0],"id":12,"left_children":[1,3,5,7,9,11,13,15,17,19,21,23,25,27,29,-1,-1,31,33,35,37,39,-1,41,43,45,-1,-1,47,-1,49,-1,-1,-1,-1,-1,-1,-1,-1,-1,-1,-1,-1,-1,-1,-1,-1,-1,-1,-1,-1],"loss_changes":[2.9929098E1,6.4747496E0,4.723984E0,6.324749E-1,3.491931E0,3.3283734E-1,1.0319519E0,8.026123E-3,8.046093E-1,2.8496933E0,8.898678E-1,4.8029423E-2,7.6583646E-2,8.069992E-2,1.9229269E-1,0E0,0E0,5.322161E-1,1.6643964E-2,2.7182355E0,2.971877E0,2.2571921E-1,0E0,7.1424246E-4,1.3972759E-2,6.7981966E-3,0E0,0E0,1.2025452E-1,0E0,1.1160374E-1,0E0,0E0,0E0,0E0,0E0,0E0,0E0,0E0,0E0,0E0,0E0,0E0,0E0,0E0,0E0,0E0,0E0,0E0,0E0,0E0],"parents":[2147483647,0,0,1,1,2,2,3,3,4,4,5,5,6,6,7,7,8,8,9,9,10,10,11,11,12,12,13,13,14,14,17,17,18,18,19,19,20,20,21,21,23,23,24,24,25,25,28,28,30,30],"right_children":[2,4,6,8,10,12,14,16,18,20,22,24,26,28,30,-1,-1,32,34,36,38,40,-1,42,44,46,-1,-1,48,-1,50,-1,-1,-1,-1,-1,-1,-1,-1,-1,-1,-1,-1,-1,-1,-1,-1,-1,-1,-1,-1],"split_conditions":[9.0778E0,5.9041E0,2.214E1,2.5662E0,9.69E0,9.8962E0,1E1,1.4E0,2.924E1,2.65E1,8.964E0,9.5117E0,1.08451E1,4.76E0,2.851E1,-1.5181276E-1,-1.1004516E-1,-1.299E1,2.7482E0,-5.67E0,1.293E1,3.214E1,1.8369682E-1,9.3747E0,1.81E0,1.01398E1,2.8196365E-2,1.2732266E-1,4.832E1,1.3753006E-1,1.25373E1,-1.3446547E-1,-7.402255E-2,2.1223309E-2,-2.607974E-3,-2.0983036E-1,-4.4247914E-2,2.3487857E-2,-2.1240345E-1,3.7680686E-2,9.020319E-2,3.388648E-2,4.3619234E-2,5.33495E-2,7.7376425E-2,-7.397548E-3,-2.5250498E-2,1.7878783E-1,1.3778818E-1,7.881523E-2,1.1288283E-1],"split_indices":[0,0,9,0,5,0,21,0,5,13,1,0,0,8,13,0,0,5,0,8,10,5,0,0,5,0,0,0,8,0,1,0,0,0,0,0,0,0,0,0,0,0,0,0,0,0,0,0,0,0,0],"split_type":[0,0,0,0,0,0,0,0,0,0,0,0,0,0,0,0,0,0,0,0,0,0,0,0,0,0,0,0,0,0,0,0,0,0,0,0,0,0,0,0,0,0,0,0,0,0,0,0,0,0,0],"sum_hessian":[1.35E2,9.5E1,4E1,4.4E1,5.1E1,1.5E1,2.5E1,3E0,4.1E1,4.1E1,1E1,1.2E1,3E0,1.3E1,1.2E1,2E0,1E0,3.9E1,2E0,2.1E1,2E1,9E0,1E0,6E0,6E0,2E0,1E0,2E0,1.1E1,3E0,9E0,3E0,3.6E1,1E0,1E0,2E0,1.9E1,1.9E1,1E0,7E0,2E0,3E0,3E0,5E0,1E0,1E0,1E0,8E0,3E0,5E0,4E0],"tree_param":{"num_deleted":"0","num_feature":"23","num_nodes":"51","size_leaf_vector":"1"}},{"base_weights":[1.2265185E-3,-1.8781756E-1,8.397257E-1,-5.029516E-1,1.9230574E-2,1.2150954E0,7.6561826E-1,-4.6358886E-1,-8.0224127E-1,-2.0388137E-1,2.4925941E-1,1.4789864E-1,2.0860982E-1,5.775404E-1,9.331489E-1,-2.2008477E-1,-5.360169E-1,-1.3158764E-1,-9.2282094E-2,-4.2514253E-1,2.013133E-1,1.9614694E0,1.3605702E-1,4.7340223E-1,8.0846E-1,1.1552942E-1,1.4533027E-1,7.844632E-3,-4.084381E-2,-1.1688864E-1,-6.783661E-2,-1.8187593E-1,-4.5038167E-2,-7.1420847E-3,5.2070875E-2,2.1363431E-1,3.0840534E-1,-1.8468332E-1,2.5564788E-2,3.5347395E-2,7.546942E-2,1.3719143E-1,9.3408845E-2],"categories":[],"categories_nodes":[],"categories_segments":[],"categories_sizes":[],"default_left":[0,0,0,0,0,0,0,0,0,0,0,0,0,0,0,0,0,0,0,0,0,0,0,0,0,0,0,0,0,0,0,0,0,0,0,0,0,0,0,0,0,0,0],"id":13,"left_children":[1,3,5,7,9,11,13,15,17,19,21,-1,-1,23,25,27,29,-1,-1,31,33,35,37,39,41,-1,-1,-1,-1,-1,-1,-1,-1,-1,-1,-1,-1,-1,-1,-1,-1,-1,-1],"loss_changes":[2.1575335E1,7.2487307E0,6.446705E-1,4.951229E-1,3.4432132E0,7.743311E-2,6.3065434E-1,6.788273E-1,6.490636E-2,3.0570831E0,6.3800354E0,0E0,0E0,2.1720195E-1,7.4697495E-2,2.0345479E-1,3.365736E-1,0E0,0E0,1.8619878E0,5.5736923E-1,6.8612576E-2,2.4069164E0,1.1105871E-1,3.4098387E-2,0E0,0E0,0E0,0E0,0E0,0E0,0E0,0E0,0E0,0E0,0E0,0E0,0E0,0E0,0E0,0E0,0E0,0E0],"parents":[2147483647,0,0,1,1,2,2,3,3,4,4,5,5,6,6,7,7,8,8,9,9,10,10,13,13,14,14,15,15,16,16,19,19,20,20,21,21,22,22,23,23,24,24],"right_children":[2,4,6,8,10,12,14,16,18,20,22,-1,-1,24,26,28,30,-1,-1,32,34,36,38,40,42,-1,-1,-1,-1,-1,-1,-1,-1,-1,-1,-1,-1,-1,-1,-1,-1,-1,-1],"split_conditions":[1.08451E1,5.9041E0,9.365E0,4.286E1,1.532E1,8.6069E0,1.30956E1,1.237E2,1.4E0,1.72E0,1E0,1.4789864E-1,2.0860982E-1,1.448E2,1.44646E1,3.9206E0,2.297E1,-1.3158764E-1,-9.2282094E-2,-5.67E0,6.1129E0,2.8E5,9.9E4,1.16989E1,1.10376E1,1.1552942E-1,1.4533027E-1,7.844632E-3,-4.084381E-2,-1.1688864E-1,-6.783661E-2,-1.8187593E-1,-4.5038167E-2,-7.1420847E-3,5.2070875E-2,2.1363431E-1,3.0840534E-1,-1.8468332E-1,2.5564788E-2,3.5347395E-2,7.546942E-2,1.3719143E-1,9.3408845E-2],"split_indices":[0,0,2,8,14,2,3,15,0,5,20,0,0,15,0,0,13,0,0,8,0,6,6,1,1,0,0,0,0,0,0,0,0,0,0,0,0,0,0,0,0,0,0],"split_type":[0,0,0,0,0,0,0,0,0,0,0,0,0,0,0,0,0,0,0,0,0,0,0,0,0,0,0,0,0,0,0,0,0,0,0,0,0,0,0,0,0,0,0],"sum_hessian":[1.36E2,1.11E2,2.5E1,4.4E1,6.7E1,4E0,2.1E1,3.9E1,5E0,3.4E1,3.3E1,3E0,1E0,1E1,1.1E1,9E0,3E1,2E0,3E0,2.2E1,1.2E1,2E0,3.1E1,7E0,3E0,7E0,4E0,2E0,7E0,3E0,2.7E1,2E0,2E1,5E0,7E0,1E0,1E0,1E0,3E1,2E0,5E0,1E0,2E0],"tree_param":{"num_deleted":"0","num_feature":"23","num_nodes":"43","size_leaf_vector":"1"}},{"base_weights":[1.2966811E-3,-3.014556E-1,4.0847668E-1,-5.052217E-1,-1.7363705E-1,-3.9811483E-1,5.1954734E-1,-4.7446913E-1,-1.816784E-1,-1.1439449E-1,-1.0461997E0,-1.3131693E-1,-1.638278E-1,3.2824287E-1,7.9132646E-1,-3.0751897E-2,-5.0700563E-1,3.5733318E-1,-2.1685173E-1,-1.13563016E-1,-1.5365139E-1,-5.1578738E-2,-1.496532E-2,2.728597E-1,8.1385446E-1,9.474472E-1,6.457298E-1,1.7429736E-2,-2.6443705E-2,-1.02938555E-1,-6.452688E-2,-1.3604292E-2,2.3209687E-1,-6.5843925E-2,-7.266596E-3,-1.3608773E-2,1.9903522E-2,4.3948643E-2,-1.954098E-3,1.5638669E-1,8.4704675E-2,1.2215583E-1,1.8138483E-1,6.1651923E-2,9.3267456E-2],"categories":[],"categories_nodes":[],"categories_segments":[],"categories_sizes":[],"default_left":[0,0,0,0,0,0,0,0,0,0,0,0,0,0,0,0,0,0,0,0,0,0,0,0,0,0,0,0,0,0,0,0,0,0,0,0,0,0,0,0,0,0,0,0,0],"id":14,"left_children":[1,3,5,7,9,11,13,15,-1,17,19,-1,21,23,25,27,29,31,33,-1,-1,-1,35,37,39,41,43,-1,-1,-1,-1,-1,-1,-1,-1,-1,-1,-1,-1,-1,-1,-1,-1,-1,-1],"loss_changes":[1.6776503E1,2.0246458E0,5.209507E0,7.2864485E-1,2.4711027E0,9.2182624E-1,2.6357813E0,4.1525984E-1,0E0,2.1794074E0,1.1196136E-3,0E0,1.5888359E-1,7.917414E-1,4.423256E-1,5.455898E-2,1.9801617E-1,4.977316E0,1.6126132E0,0E0,0E0,0E0,4.206353E-2,3.9171314E-1,1.5377927E-1,1.2732983E-1,6.4257145E-2,0E0,0E0,0E0,0E0,0E0,0E0,0E0,0E0,0E0,0E0,0E0,0E0,0E0,0E0,0E0,0E0,0E0,0E0],"parents":[2147483647,0,0,1,1,2,2,3,3,4,4,5,5,6,6,7,7,9,9,10,10,12,12,13,13,14,14,15,15,16,16,17,17,18,18,22,22,23,23,24,24,25,25,26,26],"right_children":[2,4,6,8,10,12,14,16,-1,18,20,-1,22,24,26,28,30,32,34,-1,-1,-1,36,38,40,42,44,-1,-1,-1,-1,-1,-1,-1,-1,-1,-1,-1,-1,-1,-1,-1,-1,-1,-1],"split_conditions":[6.9881E0,5.1794E0,-1.714E1,5.9041E0,1.257E1,-3.832E1,1.16989E1,3.78E5,-1.816784E-1,6.5E5,1.1429E0,-1.3131693E-1,9.7221E0,2.169E1,9E0,2.7482E0,-1.299E1,2.197E1,9E-2,-1.13563016E-1,-1.5365139E-1,-5.1578738E-2,1.08451E1,3.395E7,7.0758E0,7.27E0,4.57E0,1.7429736E-2,-2.6443705E-2,-1.02938555E-1,-6.452688E-2,-1.3604292E-2,2.3209687E-1,-6.5843925E-2,-7.266596E-3,-1.3608773E-2,1.9903522E-2,4.3948643E-2,-1.954098E-3,1.5638669E-1,8.4704675E-2,1.2215583E-1,1.8138483E-1,6.1651923E-2,9.3267456E-2],"split_indices":[0,3,5,0,10,5,0,6,0,6,0,0,0,5,21,0,5,9,5,0,0,0,0,7,0,5,8,0,0,0,0,0,0,0,0,0,0,0,0,0,0,0,0,0,0],"split_type":[0,0,0,0,0,0,0,0,0,0,0,0,0,0,0,0,0,0,0,0,0,0,0,0,0,0,0,0,0,0,0,0,0,0,0,0,0,0,0,0,0,0,0,0,0],"sum_hessian":[1.36E2,7.8E1,5.8E1,3E1,4.8E1,7E0,5.1E1,2.9E1,1E0,4.5E1,3E0,2E0,5E0,3E1,2.1E1,2E0,2.7E1,8E0,3.7E1,1E0,2E0,2E0,3E0,2.7E1,3E0,1E1,1.1E1,1E0,1E0,3E0,2.4E1,6E0,2E0,1.4E1,2.3E1,2E0,1E0,2.3E1,4E0,1E0,2E0,9E0,1E0,2E0,9E0],"tree_param":{"num_deleted":"0","num_feature":"23","num_nodes":"45","size_leaf_vector":"1"}},{"base_weights":[-1.2103889E-2,-2.1280356E-1,4.591092E-1,-4.5069465E-1,-1.26296E-1,1.4958163E-1,6.250212E-1,-4.1883516E-1,-1.5796813E-1,-4.262289E-1,-4.259569E-2,1.9061942E-1,-4.9514E-2,5.828937E-1,1.5031907E-1,-4.4232294E-1,1.51550835E-2,-6.751561E-1,-2.5719082E-1,-2.3474415E-1,6.16932E-2,2.1205331E-1,-7.99241E-3,4.4812843E-1,7.1508104E-1,-8.912751E-2,-5.190197E-2,-6.5695904E-2,-1.03901975E-1,-5.5923365E-2,-8.305316E-3,1.3805519E-2,-8.268525E-2,4.8194695E-2,-7.547409E-3,2.1769928E-2,3.5588663E-2,4.9910024E-2,9.271216E-2,8.892228E-2,1.2052571E-1],"categories":[],"categories_nodes":[],"categories_segments":[],"categories_sizes":[],"default_left":[0,0,0,0,0,0,0,0,0,0,0,0,0,0,0,0,0,0,0,0,0,0,0,0,0,0,0,0,0,0,0,0,0,0,0,0,0,0,0,0,0],"id":15,"left_children":[1,3,5,7,9,11,13,15,-1,17,19,21,-1,23,-1,25,-1,27,29,31,33,35,-1,37,39,-1,-1,-1,-1,-1,-1,-1,-1,-1,-1,-1,-1,-1,-1,-1,-1],"loss_changes":[1.2679323E1,1.9293051E0,2.047535E0,5.3618383E-1,1.7295711E0,2.9778445E-1,4.8845196E-1,3.0358505E-1,0E0,6.197438E-1,1.0846541E0,7.119888E-2,0E0,4.073944E-1,0E0,2.8119612E-1,0E0,7.9366684E-2,2.6883906E-1,2.3937526E0,1.2037781E0,2.6619613E-2,0E0,2.1120787E-1,9.2247486E-2,0E0,0E0,0E0,0E0,0E0,0E0,0E0,0E0,0E0,0E0,0E0,0E0,0E0,0E0,0E0,0E0],"parents":[2147483647,0,0,1,1,2,2,3,3,4,4,5,5,6,6,7,7,9,9,10,10,11,11,13,13,15,15,17,17,18,18,19,19,20,20,21,21,23,23,24,24],"right_children":[2,4,6,8,10,12,14,16,-1,18,20,22,-1,24,-1,26,-1,28,30,32,34,36,-1,38,40,-1,-1,-1,-1,-1,-1,-1,-1,-1,-1,-1,-1,-1,-1,-1,-1],"split_conditions":[8.3949E0,4.0998E0,1.94E5,5.076E2,-6.37E0,2.28E5,2.169E1,9.934E1,-1.5796813E-1,9.66E0,-7.77E-1,1.83E5,-4.9514E-2,1.30956E1,1.5031907E-1,3.8346E0,1.51550835E-2,-9.77E-1,6.6331E0,1.129E1,2.116E6,1.2E1,-7.99241E-3,6.53E-1,1.50095E1,-8.912751E-2,-5.190197E-2,-6.5695904E-2,-1.03901975E-1,-5.5923365E-2,-8.305316E-3,1.3805519E-2,-8.268525E-2,4.8194695E-2,-7.547409E-3,2.1769928E-2,3.5588663E-2,4.9910024E-2,9.271216E-2,8.892228E-2,1.2052571E-1],"split_indices":[3,3,7,15,5,6,5,5,0,10,16,7,0,3,0,4,0,17,3,10,6,20,0,17,3,0,0,0,0,0,0,0,0,0,0,0,0,0,0,0,0],"split_type":[0,0,0,0,0,0,0,0,0,0,0,0,0,0,0,0,0,0,0,0,0,0,0,0,0,0,0,0,0,0,0,0,0,0,0,0,0,0,0,0,0],"sum_hessian":[1.34E2,9.4E1,4E1,2.5E1,6.9E1,1.4E1,2.6E1,2.4E1,1E0,1.5E1,5.4E1,1.3E1,1E0,2.4E1,2E0,2.3E1,1E0,6E0,9E0,1.9E1,3.5E1,1.2E1,1E0,1.2E1,1.2E1,5E0,1.8E1,2E0,4E0,5E0,4E0,1E1,9E0,1E1,2.5E1,6E0,6E0,9E0,3E0,9E0,3E0],"tree_param":{"num_deleted":"0","num_feature":"23","num_nodes":"41","size_leaf_vector":"1"}},{"base_weights":[6.201892E-3,-2.2443233E-1,3.124366E-1,3.0602938E-1,-2.615157E-1,-3.0143428E-1,3.9699692E-1,-4.5170015E-1,1.4314281E0,-4.016095E-1,-1.425062E-1,-9.9980116E-2,-1.2209528E-1,2.5446692E-1,5.993881E-1,-2.2832353E-1,-1.1767742E-1,1.4917354E-1,2.3157638E-1,-1.2334085E-1,-3.6763453E-1,3.048952E-1,-2.08783E-1,-3.7683852E-2,-1.435958E-2,2.1000855E-1,6.440081E-1,7.194883E-1,4.872892E-1,-2.1924522E-2,-3.8121577E-2,-1.2216566E-1,-4.4842593E-2,6.0032617E-2,1.2571231E-2,-8.2990326E-2,-2.2990115E-2,-1.0710106E-2,1.4464946E-2,3.3679523E-2,-6.239257E-4,1.163595E-1,7.07124E-2,8.316914E-2,1.11618824E-1,9.257944E-2,5.9956763E-2],"categories":[],"categories_nodes":[],"categories_segments":[],"categories_sizes":[],"default_left":[0,0,0,0,0,0,0,0,0,0,0,0,0,0,0,0,0,0,0,0,0,0,0,0,0,0,0,0,0,0,0,0,0,0,0,0,0,0,0,0,0,0,0,0,0,0,0],"id":16,"left_children":[1,3,5,7,9,11,13,15,17,19,21,-1,23,25,27,29,-1,-1,-1,-1,31,33,35,-1,37,39,41,43,45,-1,-1,-1,-1,-1,-1,-1,-1,-1,-1,-1,-1,-1,-1,-1,-1,-1,-1],"loss_changes":[9.541343E0,1.5186522E0,3.0186229E0,4.333627E0,1.1952901E0,5.3821576E-1,1.4605856E0,2.6559395E-1,8.832073E-2,5.447006E-1,1.1598074E0,0E0,8.2146086E-2,5.091922E-1,2.6083755E-1,2.4353191E-3,0E0,0E0,0E0,0E0,6.0601854E-1,1.4101636E-1,5.344217E-1,0E0,2.381285E-2,2.1937263E-1,5.236268E-2,7.935572E-2,7.965946E-2,0E0,0E0,0E0,0E0,0E0,0E0,0E0,0E0,0E0,0E0,0E0,0E0,0E0,0E0,0E0,0E0,0E0,0E0],"parents":[2147483647,0,0,1,1,2,2,3,3,4,4,5,5,6,6,7,7,8,8,9,9,10,10,12,12,13,13,14,14,15,15,20,20,21,21,22,22,24,24,25,25,26,26,27,27,28,28],"right_children":[2,4,6,8,10,12,14,16,18,20,22,-1,24,26,28,30,-1,-1,-1,-1,32,34,36,-1,38,40,42,44,46,-1,-1,-1,-1,-1,-1,-1,-1,-1,-1,-1,-1,-1,-1,-1,-1,-1,-1],"split_conditions":[6.9881E0,1E0,-1.714E1,1.137E1,3.5E-1,-3.832E1,1.16989E1,2.6E6,2.8E5,3.8346E0,-1.064E0,-9.9980116E-2,9.7221E0,2.169E1,9E0,3.2E4,-1.1767742E-1,1.4917354E-1,2.3157638E-1,-1.2334085E-1,1E0,6.4649E0,2.5662E0,-3.7683852E-2,1.08451E1,3.395E7,7.0758E0,4.96E0,1.15492E1,-2.1924522E-2,-3.8121577E-2,-1.2216566E-1,-4.4842593E-2,6.0032617E-2,1.2571231E-2,-8.2990326E-2,-2.2990115E-2,-1.0710106E-2,1.4464946E-2,3.3679523E-2,-6.239257E-4,1.163595E-1,7.07124E-2,8.316914E-2,1.11618824E-1,9.257944E-2,5.9956763E-2],"split_indices":[0,20,5,10,5,5,0,6,6,4,18,0,0,5,21,6,0,0,0,0,21,1,0,0,0,7,0,8,4,0,0,0,0,0,0,0,0,0,0,0,0,0,0,0,0,0,0],"split_type":[0,0,0,0,0,0,0,0,0,0,0,0,0,0,0,0,0,0,0,0,0,0,0,0,0,0,0,0,0,0,0,0,0,0,0,0,0,0,0,0,0,0,0,0,0,0,0],"sum_hessian":[1.35E2,7.7E1,5.8E1,5E0,7.2E1,7E0,5.1E1,3E0,2E0,3.3E1,3.9E1,2E0,5E0,3E1,2.1E1,2E0,1E0,1E0,1E0,2E0,3.1E1,5E0,3.4E1,2E0,3E0,2.7E1,3E0,1E1,1.1E1,1E0,1E0,2E0,2.9E1,3E0,2E0,3E0,3.1E1,2E0,1E0,2.3E1,4E0,1E0,2E0,5E0,5E0,2E0,9E0],"tree_param":{"num_deleted":"0","num_feature":"23","num_nodes":"47","size_leaf_vector":"1"}},{"base_weights":[2.0156081E-3,-1.9742818E-1,2.7028906E-1,2.6576653E-1,-2.2937576E-1,-2.613515E-1,3.4353888E-1,1.2450167E0,-3.93287E-1,-3.5075405E-1,-1.2313176E-1,-8.6660326E-2,-1.05769515E-1,2.2018467E-1,5.186607E-1,1.2970534E-1,2.013541E-1,-1.9892551E-1,-1.02319725E-1,-1.0690888E-1,-3.223637E-1,2.6419312E-1,-1.8053398E-1,-3.2663442E-2,-1.2073602E-2,1.8145567E-1,5.592811E-1,6.2250674E-1,4.2165488E-1,-1.9063223E-2,-3.3146434E-2,-1.0589025E-1,-3.9551985E-2,6.470483E-2,1.5855955E-2,-4.4836786E-2,-1.1906607E-2,-9.283245E-3,1.2577121E-2,-6.190968E-3,2.8587684E-2,1.0117376E-1,6.129186E-2,7.972674E-2,1.23528086E-1,8.0245584E-2,5.1837638E-2],"categories":[],"categories_nodes":[],"categories_segments":[],"categories_sizes":[],"default_left":[0,0,0,0,0,0,0,0,0,0,0,0,0,0,0,0,0,0,0,0,0,0,0,0,0,0,0,0,0,0,0,0,0,0,0,0,0,0,0,0,0,0,0,0,0,0,0],"id":17,"left_children":[1,3,5,7,9,11,13,15,17,19,21,-1,23,25,27,-1,-1,29,-1,-1,31,33,35,-1,37,39,41,43,45,-1,-1,-1,-1,-1,-1,-1,-1,-1,-1,-1,-1,-1,-1,-1,-1,-1,-1],"loss_changes":[7.2817445E0,1.1572342E0,2.2646575E0,3.2804878E0,9.3713355E-1,4.040196E-1,1.0931416E0,6.473899E-2,1.9983488E-1,4.027257E-1,8.69549E-1,0E0,6.1752226E-2,3.8559377E-1,1.9427967E-1,0E0,0E0,1.5165582E-3,0E0,0E0,4.4622254E-1,1.5132028E-1,4.68037E-1,0E0,1.7973915E-2,1.7734069E-1,3.9298415E-2,7.271671E-2,5.985248E-2,0E0,0E0,0E0,0E0,0E0,0E0,0E0,0E0,0E0,0E0,0E0,0E0,0E0,0E0,0E0,0E0,0E0,0E0],"parents":[2147483647,0,0,1,1,2,2,3,3,4,4,5,5,6,6,7,7,8,8,9,9,10,10,12,12,13,13,14,14,17,17,20,20,21,21,22,22,24,24,25,25,26,26,27,27,28,28],"right_children":[2,4,6,8,10,12,14,16,18,20,22,-1,24,26,28,-1,-1,30,-1,-1,32,34,36,-1,38,40,42,44,46,-1,-1,-1,-1,-1,-1,-1,-1,-1,-1,-1,-1,-1,-1,-1,-1,-1,-1],"split_conditions":[6.9881E0,1E0,-1.714E1,5.24E2,3.5E-1,-3.832E1,1.16989E1,2.8E5,2.6E6,3.8346E0,-1.064E0,-8.6660326E-2,9.7221E0,2.169E1,9E0,1.2970534E-1,2.013541E-1,3.2E4,-1.02319725E-1,-1.0690888E-1,1E0,1.236E1,2.44E6,-3.2663442E-2,1.08451E1,-1.215E0,7.0758E0,7.27E0,1.15492E1,-1.9063223E-2,-3.3146434E-2,-1.0589025E-1,-3.9551985E-2,6.470483E-2,1.5855955E-2,-4.4836786E-2,-1.1906607E-2,-9.283245E-3,1.2577121E-2,-6.190968E-3,2.8587684E-2,1.0117376E-1,6.129186E-2,7.972674E-2,1.23528086E-1,8.0245584E-2,5.1837638E-2],"split_indices":[0,20,5,11,5,5,0,6,6,4,18,0,0,5,21,0,0,6,0,0,21,14,6,0,0,17,0,5,4,0,0,0,0,0,0,0,0,0,0,0,0,0,0,0,0,0,0],"split_type":[0,0,0,0,0,0,0,0,0,0,0,0,0,0,0,0,0,0,0,0,0,0,0,0,0,0,0,0,0,0,0,0,0,0,0,0,0,0,0,0,0,0,0,0,0,0,0],"sum_hessian":[1.36E2,7.8E1,5.8E1,5E0,7.3E1,7E0,5.1E1,2E0,3E0,3.4E1,3.9E1,2E0,5E0,3E1,2.1E1,1E0,1E0,2E0,1E0,2E0,3.2E1,5E0,3.4E1,2E0,3E0,2.7E1,3E0,1E1,1.1E1,1E0,1E0,2E0,3E1,2E0,3E0,1.3E1,2.1E1,2E0,1E0,3E0,2.4E1,1E0,2E0,9E0,1E0,2E0,9E0],"tree_param":{"num_deleted":"0","num_feature":"23","num_nodes":"47","size_leaf_vector":"1"}},{"base_weights":[1.8452378E-3,-1.15964204E-1,3.0562407E-1,-2.5966904E-1,-2.8576296E-2,8.6153276E-2,4.0637195E-1,-2.8757328E-1,2.214121E-1,-2.8905115E-1,3.5281193E-2,1.1802525E-1,-3.3871293E-2,3.7738866E-1,1.0013899E-1,-5.07156E-1,-2.4125086E-1,2.2029195E-2,3.617457E-2,-4.2939907E-1,-8.9358926E-2,1.0941187E-1,-1.3216665E-1,6.042417E-4,1.4330125E-1,3.96888E-1,-8.5700955E-3,-1.07303E-1,-6.0332593E-2,-3.5531595E-2,3.2935855E-3,-1.06080845E-2,-6.612005E-2,1.5747705E-2,-1.943714E-2,1.4734025E-1,6.3967123E-3,-4.168388E-2,-5.9201876E-3,5.317803E-3,-4.340099E-3,1.5036568E-2,2.4645312E-2,6.797028E-2,4.632035E-2],"categories":[],"categories_nodes":[],"categories_segments":[],"categories_sizes":[],"default_left":[0,0,0,0,0,0,0,0,0,0,0,0,0,0,0,0,0,0,0,0,0,0,0,0,0,0,0,0,0,0,0,0,0,0,0,0,0,0,0,0,0,0,0,0,0],"id":18,"left_children":[1,3,5,7,9,11,13,15,17,19,21,23,-1,25,-1,27,29,-1,-1,31,33,35,37,39,41,43,-1,-1,-1,-1,-1,-1,-1,-1,-1,-1,-1,-1,-1,-1,-1,-1,-1,-1,-1],"loss_changes":[4.871386E0,1.2291051E0,8.3659554E-1,5.003879E-1,1.0173583E0,1.2904921E-1,2.3003101E-1,3.4655285E-1,8.9655817E-4,3.3263075E-1,6.092385E-1,3.1869337E-2,0E0,2.0960736E-1,0E0,8.58053E-2,1.5518868E-1,0E0,0E0,1.3488173E-1,5.620619E-2,2.0586648E0,2.2955981E-1,2.652701E-3,8.541107E-3,1.2105298E-1,0E0,0E0,0E0,0E0,0E0,0E0,0E0,0E0,0E0,0E0,0E0,0E0,0E0,0E0,0E0,0E0,0E0,0E0,0E0],"parents":[2147483647,0,0,1,1,2,2,3,3,4,4,5,5,6,6,7,7,8,8,9,9,10,10,11,11,13,13,15,15,16,16,19,19,20,20,21,21,22,22,23,23,24,24,25,25],"right_children":[2,4,6,8,10,12,14,16,18,20,22,24,-1,26,-1,28,30,-1,-1,32,34,36,38,40,42,44,-1,-1,-1,-1,-1,-1,-1,-1,-1,-1,-1,-1,-1,-1,-1,-1,-1,-1,-1],"split_conditions":[8.8623E0,5.5695E0,1.94E5,4.72E0,-6.37E0,2.28E5,2.169E1,3.8346E0,2.5662E0,3.72E0,3.78E-1,9.3704E0,-3.3871293E-2,1.328E1,1.0013899E-1,-9.6E0,1.504E1,2.2029195E-2,3.617457E-2,6E0,6.0667E0,1E0,2E0,9.3747E0,1.4E1,-4.6E-1,-8.5700955E-3,-1.07303E-1,-6.0332593E-2,-3.5531595E-2,3.2935855E-3,-1.06080845E-2,-6.612005E-2,1.5747705E-2,-1.943714E-2,1.4734025E-1,6.3967123E-3,-4.168388E-2,-5.9201876E-3,5.317803E-3,-4.340099E-3,1.5036568E-2,2.4645312E-2,6.797028E-2,4.632035E-2],"split_indices":[3,1,7,12,5,6,5,4,1,12,17,3,0,5,0,8,5,0,0,2,1,20,20,1,20,16,0,0,0,0,0,0,0,0,0,0,0,0,0,0,0,0,0,0,0],"split_type":[0,0,0,0,0,0,0,0,0,0,0,0,0,0,0,0,0,0,0,0,0,0,0,0,0,0,0,0,0,0,0,0,0,0,0,0,0,0,0,0,0,0,0,0,0],"sum_hessian":[1.36E2,9.8E1,3.8E1,3.7E1,6.1E1,1.2E1,2.6E1,3.5E1,2E0,1.2E1,4.9E1,1.1E1,1E0,2.4E1,2E0,6E0,2.9E1,1E0,1E0,7E0,5E0,3.4E1,1.5E1,2E0,9E0,2.3E1,1E0,1E0,5E0,2.7E1,2E0,1E0,6E0,1E0,4E0,2E0,3.2E1,5E0,1E1,1E0,1E0,5E0,4E0,8E0,1.5E1],"tree_param":{"num_deleted":"0","num_feature":"23","num_nodes":"45","size_leaf_vector":"1"}},{"base_weights":[1.6244891E-3,-1.5212508E-1,2.0845893E-1,1.9711849E-1,-1.7623237E-1,-2.0028007E-1,2.6480305E-1,9.386607E-1,-3.0139616E-1,-2.723125E-1,-9.210458E-2,-6.630629E-2,-8.107235E-2,1.7316459E-1,3.948033E-1,9.354896E-2,1.5584716E-1,-1.3254847E-1,-8.35263E-2,-2.3536684E-1,-4.8156437E-1,2.251961E-1,-1.3917327E-1,-2.4760917E-2,-1.013414E-2,1.4166968E-1,4.4862035E-1,7.680783E-2,3.5319188E-1,-2.3380592E-2,-1.1135364E-2,-3.564606E-2,1.6192127E-2,-9.443736E-2,-2.0664148E-2,5.5232417E-2,1.3421467E-2,-6.0816053E-2,-1.4777304E-2,-7.0507764E-3,8.973351E-3,3.5599172E-2,1.3455791E-2,4.306685E-2,6.852273E-2,4.3188978E-2,8.246684E-2],"categories":[],"categories_nodes":[],"categories_segments":[],"categories_sizes":[],"default_left":[0,0,0,0,0,0,0,0,0,0,0,0,0,0,0,0,0,0,0,0,0,0,0,0,0,0,0,0,0,0,0,0,0,0,0,0,0,0,0,0,0,0,0,0,0,0,0],"id":19,"left_children":[1,3,5,7,9,11,13,15,17,19,21,-1,23,25,27,-1,-1,29,-1,31,33,35,37,-1,39,41,43,-1,45,-1,-1,-1,-1,-1,-1,-1,-1,-1,-1,-1,-1,-1,-1,-1,-1,-1,-1],"loss_changes":[4.3279495E0,6.5841115E-1,1.339381E0,1.8800865E0,5.8705616E-1,2.3575932E-1,6.0160947E-1,6.1094403E-2,1.5241346E-1,2.5387502E-1,5.8389175E-1,0E0,3.4818307E-2,2.5423622E-1,1.3439131E-1,0E0,0E0,1.8842258E-3,0E0,2.7627003E-1,3.4355783E-1,1.10485315E-1,3.1471312E-1,0E0,9.707623E-3,1.3541734E-1,1.0196865E-2,0E0,1.401763E-1,0E0,0E0,0E0,0E0,0E0,0E0,0E0,0E0,0E0,0E0,0E0,0E0,0E0,0E0,0E0,0E0,0E0,0E0],"parents":[2147483647,0,0,1,1,2,2,3,3,4,4,5,5,6,6,7,7,8,8,9,9,10,10,12,12,13,13,14,14,17,17,19,19,20,20,21,21,22,22,24,24,25,25,26,26,28,28],"right_children":[2,4,6,8,10,12,14,16,18,20,22,-1,24,26,28,-1,-1,30,-1,32,34,36,38,-1,40,42,44,-1,46,-1,-1,-1,-1,-1,-1,-1,-1,-1,-1,-1,-1,-1,-1,-1,-1,-1,-1],"split_conditions":[6.9881E0,1E0,-1.714E1,5.24E2,3.5E-1,-3.832E1,1.16989E1,2.214E1,2.112E1,6.4649E0,-1.064E0,-6.630629E-2,9.7221E0,2.169E1,3.96E5,9.354896E-2,1.5584716E-1,1.821E1,-8.35263E-2,7.936E2,9E0,1.236E1,3E5,-2.4760917E-2,1.08451E1,6.7857E0,6E0,7.680783E-2,7.27E0,-2.3380592E-2,-1.1135364E-2,-3.564606E-2,1.6192127E-2,-9.443736E-2,-2.0664148E-2,5.5232417E-2,1.3421467E-2,-6.0816053E-2,-1.4777304E-2,-7.0507764E-3,8.973351E-3,3.5599172E-2,1.3455791E-2,4.306685E-2,6.852273E-2,4.3188978E-2,8.246684E-2],"split_indices":[0,20,5,11,5,5,0,9,9,0,18,0,0,5,7,0,0,9,0,11,22,14,7,0,0,2,1,0,5,0,0,0,0,0,0,0,0,0,0,0,0,0,0,0,0,0,0],"split_type":[0,0,0,0,0,0,0,0,0,0,0,0,0,0,0,0,0,0,0,0,0,0,0,0,0,0,0,0,0,0,0,0,0,0,0,0,0,0,0,0,0,0,0,0,0,0,0],"sum_hessian":[1.36E2,7.8E1,5.8E1,5E0,7.3E1,7E0,5.1E1,2E0,3E0,3.4E1,3.9E1,2E0,5E0,3E1,2.1E1,1E0,1E0,2E0,1E0,2.9E1,5E0,5E0,3.4E1,2E0,3E0,2.7E1,3E0,4E0,1.7E1,1E0,1E0,2.7E1,2E0,3E0,2E0,2E0,3E0,3E0,3.1E1,2E0,1E0,7E0,2E1,1E0,2E0,1.5E1,2E0],"tree_param":{"num_deleted":"0","num_feature":"23","num_nodes":"47","size_leaf_vector":"1"}},{"base_weights":[2.8730817E-3,-1.3076001E-1,1.8035617E-1,1.7106926E-1,-1.5189585E-1,-1.7368981E-1,2.2917753E-1,8.165587E-1,-2.6259863E-1,-2.3007907E-1,-6.415254E-2,-5.747273E-2,-7.023446E-2,1.6695522E-1,3.7720096E-1,8.1340194E-2,1.3550797E-1,-1.1564961E-1,-7.2625555E-2,-2.541919E-1,1.9714426E-1,-2.9985628E-1,-2.2918953E-2,-1.5774454E-1,-8.4484145E-3,1.2576291E-1,2.8866756E-1,8.403499E-2,3.378363E-1,-9.682094E-3,-2.0329243E-2,-8.0053985E-2,-3.1788155E-2,3.8739964E-2,1.2994874E-2,-2.4895804E-2,-6.321816E-2,-2.5680838E-2,5.4710545E-3,-1.5012886E-2,-2.6219426E-2,-6.1114156E-3,7.8022955E-3,2.0568442E-2,-2.5667213E-3,4.5457996E-2,-9.20771E-3,1.2290115E-2,4.86471E-2],"categories":[],"categories_nodes":[],"categories_segments":[],"categories_sizes":[],"default_left":[0,0,0,0,0,0,0,0,0,0,0,0,0,0,0,0,0,0,0,0,0,0,0,0,0,0,0,0,0,0,0,0,0,0,0,0,0,0,0,0,0,0,0,0,0,0,0,0,0],"id":20,"left_children":[1,3,5,7,9,11,13,15,17,19,21,-1,23,25,27,-1,-1,29,-1,31,33,35,37,39,41,43,45,-1,47,-1,-1,-1,-1,-1,-1,-1,-1,-1,-1,-1,-1,-1,-1,-1,-1,-1,-1,-1,-1],"loss_changes":[3.2042E0,4.924711E-1,1.0053053E0,1.4241288E0,4.917469E-1,1.7687549E-1,4.6403718E-1,4.485488E-2,1.1455919E-1,3.9438558E-1,3.285443E-1,0E0,2.6167825E-2,1.7656624E-1,1.2752652E-1,0E0,0E0,1.2359545E-3,0E0,2.365737E-1,1.4646858E-2,8.945006E-2,3.0530047E-1,5.847104E-4,7.33232E-3,1.0034078E-1,1.490578E-1,0E0,5.9462786E-2,0E0,0E0,0E0,0E0,0E0,0E0,0E0,0E0,0E0,0E0,0E0,0E0,0E0,0E0,0E0,0E0,0E0,0E0,0E0,0E0],"parents":[2147483647,0,0,1,1,2,2,3,3,4,4,5,5,6,6,7,7,8,8,9,9,10,10,12,12,13,13,14,14,17,17,19,19,20,20,21,21,22,22,23,23,24,24,25,25,26,26,28,28],"right_children":[2,4,6,8,10,12,14,16,18,20,22,-1,24,26,28,-1,-1,30,-1,32,34,36,38,40,42,44,46,-1,48,-1,-1,-1,-1,-1,-1,-1,-1,-1,-1,-1,-1,-1,-1,-1,-1,-1,-1,-1,-1],"split_conditions":[6.9881E0,1E0,-1.714E1,5.24E2,2.5E6,-3.832E1,1.26514E1,2.8E5,2.6E6,2.17E0,5.75E1,-5.747273E-2,9.7221E0,3.45E0,1.15613E1,8.1340194E-2,1.3550797E-1,3.2E4,-7.2625555E-2,1E0,6.2759E0,6.0483E0,-7E-2,7.5E0,1.08451E1,3.395E7,1.1814E1,8.403499E-2,1.1814E1,-9.682094E-3,-2.0329243E-2,-8.0053985E-2,-3.1788155E-2,3.8739964E-2,1.2994874E-2,-2.4895804E-2,-6.321816E-2,-2.5680838E-2,5.4710545E-3,-1.5012886E-2,-2.6219426E-2,-6.1114156E-3,7.8022955E-3,2.0568442E-2,-2.5667213E-3,4.5457996E-2,-9.20771E-3,1.2290115E-2,4.86471E-2],"split_indices":[0,20,5,11,6,5,0,6,6,19,15,0,0,5,3,0,0,6,0,21,0,0,5,0,0,7,2,0,1,0,0,0,0,0,0,0,0,0,0,0,0,0,0,0,0,0,0,0,0],"split_type":[0,0,0,0,0,0,0,0,0,0,0,0,0,0,0,0,0,0,0,0,0,0,0,0,0,0,0,0,0,0,0,0,0,0,0,0,0,0,0,0,0,0,0,0,0,0,0,0,0],"sum_hessian":[1.35E2,7.7E1,5.8E1,5E0,7.2E1,7E0,5.1E1,2E0,3E0,3.8E1,3.4E1,2E0,5E0,3.6E1,1.5E1,1E0,1E0,2E0,1E0,3.6E1,2E0,5E0,2.9E1,2E0,3E0,2.7E1,9E0,2E0,1.3E1,1E0,1E0,2E0,3.4E1,1E0,1E0,3E0,2E0,8E0,2.1E1,1E0,1E0,2E0,1E0,2.3E1,4E0,8E0,1E0,1E0,1.2E1],"tree_param":{"num_deleted":"0","num_feature":"23","num_nodes":"49","size_leaf_vector":"1"}},{"base_weights":[1.053911E-3,-1.14013486E-1,1.558777E-1,-2.1274562E-1,-6.4393684E-2,-1.5088567E-1,1.9819568E-1,-2.2921108E-1,2.523133E-2,-3.1169197E-1,-1.9030752E-2,-4.9815986E-2,-6.1180796E-2,1.250855E-1,2.9385707E-1,-3.6898085E-1,-1.8401922E-1,-6.61234E-2,-2.0265025E-1,1.1782329E-1,-4.0593166E-2,1.4674096E-2,-1.1330567E-1,9.8995335E-2,3.445997E-1,2.5673315E-1,4.1560796E-1,-4.0168278E-2,-6.8599425E-2,-2.0029357E-2,-3.55288E-2,-4.345838E-2,-1.6241737E-2,-1.4817969E-2,1.1763938E-2,-2.0558645E-3,6.7840796E-3,-1.0910562E-2,-2.2797616E-2,1.068456E-2,4.5547027E-2,3.1513754E-2,5.333781E-2,3.0983265E-2,6.2854476E-2,6.5464504E-2,4.9489006E-2],"categories":[],"categories_nodes":[],"categories_segments":[],"categories_sizes":[],"default_left":[0,0,0,0,0,0,0,0,0,0,0,0,0,0,0,0,0,0,0,0,0,0,0,0,0,0,0,0,0,0,0,0,0,0,0,0,0,0,0,0,0,0,0,0,0,0,0],"id":21,"left_children":[1,3,5,7,9,11,13,15,-1,17,19,-1,21,23,25,27,29,-1,31,-1,33,35,37,39,41,43,45,-1,-1,-1,-1,-1,-1,-1,-1,-1,-1,-1,-1,-1,-1,-1,-1,-1,-1,-1,-1],"loss_changes":[2.4246383E0,3.8001907E-1,7.5505316E-1,1.7282712E-1,5.815005E-1,1.3236107E-1,3.5279799E-1,1.5183234E-1,0E0,1.4436483E-1,8.3679885E-1,0E0,2.0625655E-2,1.6210479E-1,9.0884686E-2,4.892409E-2,4.985696E-2,0E0,4.4664055E-2,0E0,3.741564E-1,2.3901784E-3,3.3444874E-3,1.21952504E-1,8.538604E-3,9.268153E-2,4.415214E-3,0E0,0E0,0E0,0E0,0E0,0E0,0E0,0E0,0E0,0E0,0E0,0E0,0E0,0E0,0E0,0E0,0E0,0E0,0E0,0E0],"parents":[2147483647,0,0,1,1,2,2,3,3,4,4,5,5,6,6,7,7,9,9,10,10,12,12,13,13,14,14,15,15,16,16,18,18,20,20,21,21,22,22,23,23,24,24,25,25,26,26],"right_children":[2,4,6,8,10,12,14,16,-1,18,20,-1,22,24,26,28,30,-1,32,-1,34,36,38,40,42,44,46,-1,-1,-1,-1,-1,-1,-1,-1,-1,-1,-1,-1,-1,-1,-1,-1,-1,-1,-1,-1],"split_conditions":[6.9881E0,4.1989E0,-1.714E1,9.934E1,6.38E1,-3.832E1,1.16805E1,3.8346E0,2.523133E-2,1.5707E7,1.662E2,-4.9815986E-2,2.28E5,2.169E1,1.47263E1,3.767E0,4.0125E0,-6.61234E-2,3.589E2,1.1782329E-1,5.26E0,1.01398E1,7.9671E0,1.448E2,6E0,7.27E0,-2.79E-1,-4.0168278E-2,-6.8599425E-2,-2.0029357E-2,-3.55288E-2,-4.345838E-2,-1.6241737E-2,-1.4817969E-2,1.1763938E-2,-2.0558645E-3,6.7840796E-3,-1.0910562E-2,-2.2797616E-2,1.068456E-2,4.5547027E-2,3.1513754E-2,5.333781E-2,3.0983265E-2,6.2854476E-2,6.5464504E-2,4.9489006E-2],"split_indices":[0,1,5,5,15,5,0,4,0,6,11,0,6,5,0,0,2,0,11,0,5,0,1,15,1,5,19,0,0,0,0,0,0,0,0,0,0,0,0,0,0,0,0,0,0,0,0],"split_type":[0,0,0,0,0,0,0,0,0,0,0,0,0,0,0,0,0,0,0,0,0,0,0,0,0,0,0,0,0,0,0,0,0,0,0,0,0,0,0,0,0,0,0,0,0,0,0],"sum_hessian":[1.36E2,7.8E1,5.8E1,2.6E1,5.2E1,7E0,5.1E1,2.5E1,1E0,8E0,4.4E1,2E0,5E0,2.9E1,2.2E1,6E0,1.9E1,3E0,5E0,1E0,4.3E1,2E0,3E0,2.6E1,3E0,1.7E1,5E0,4E0,2E0,1.3E1,6E0,2E0,3E0,2.8E1,1.5E1,1E0,1E0,2E0,1E0,2.4E1,2E0,1E0,2E0,1.5E1,2E0,2E0,3E0],"tree_param":{"num_deleted":"0","num_feature":"23","num_nodes":"47","size_leaf_vector":"1"}},{"base_weights":[1.0008159E-3,-1.0789882E-1,1.2554562E-1,6.0234122E-2,-1.3514058E-1,5.0661515E-2,2.3884028E-1,-1.0751598E-1,4.497397E-1,-1.4564198E-1,1.7331085E-1,-8.421275E-2,1.21069916E-1,2.0342666E-1,3.4772706E-1,-2.5931722E-1,6.3172444E-3,2.825413E-1,1.024465E-1,-3.660806E-1,-1.33666E-1,3.2148875E-2,1.3232844E-2,-4.317928E-2,-4.019631E-2,-4.7581185E-2,1.4153011E-1,1.7894171E-1,4.0042666E-1,5.336768E-2,4.031241E-2,-4.9900047E-2,-2.6669178E-2,-6.5839863E-3,8.701917E-3,4.6389963E-2,2.8108621E-2,-2.7353019E-2,-5.9815E-2,1.6720852E-2,-2.0152807E-2,7.3089944E-3,-1.0379882E-2,2.8925575E-2,9.4479555E-3,6.8180487E-3,2.660082E-2,4.1517187E-2,6.440534E-2],"categories":[],"categories_nodes":[],"categories_segments":[],"categories_sizes":[],"default_left":[0,0,0,0,0,0,0,0,0,0,0,0,0,0,0,0,0,0,0,0,0,0,0,0,0,0,0,0,0,0,0,0,0,0,0,0,0,0,0,0,0,0,0,0,0,0,0,0,0],"id":22,"left_children":[1,3,5,7,9,11,13,15,17,19,21,23,25,27,29,31,33,35,-1,37,39,-1,-1,-1,41,-1,43,45,47,-1,-1,-1,-1,-1,-1,-1,-1,-1,-1,-1,-1,-1,-1,-1,-1,-1,-1,-1,-1],"loss_changes":[1.8322524E0,3.3078676E-1,5.325249E-1,6.603722E-1,2.0186651E-1,3.619267E-1,9.010899E-2,1.2334778E-1,1.3872802E-1,1.5330255E-1,6.7185536E-3,1.3106802E-1,2.4202093E-1,8.5179865E-2,4.586041E-3,1.4114469E-2,1.2976944E-2,2.6403815E-3,0E0,2.9165864E-2,2.1247625E-1,0E0,0E0,0E0,3.774832E-2,0E0,1.2078455E-1,3.442967E-2,3.1819046E-3,0E0,0E0,0E0,0E0,0E0,0E0,0E0,0E0,0E0,0E0,0E0,0E0,0E0,0E0,0E0,0E0,0E0,0E0,0E0,0E0],"parents":[2147483647,0,0,1,1,2,2,3,3,4,4,5,5,6,6,7,7,8,8,9,9,10,10,11,11,12,12,13,13,14,14,15,15,16,16,17,17,19,19,20,20,24,24,26,26,27,27,28,28],"right_children":[2,4,6,8,10,12,14,16,18,20,22,24,26,28,30,32,34,36,-1,38,40,-1,-1,-1,42,-1,44,46,48,-1,-1,-1,-1,-1,-1,-1,-1,-1,-1,-1,-1,-1,-1,-1,-1,-1,-1,-1,-1],"split_conditions":[6.622E0,-1.027E0,1.08451E1,6E0,2.5E0,-2.39E0,1.44646E1,-5.92E0,6.4E0,-1.183E0,6.2759E0,-3.832E1,-1.746E0,9.14E0,3.96E5,2.458E6,1.322E1,6.0667E0,1.024465E-1,5.7306E0,1E0,3.2148875E-2,1.3232844E-2,-4.317928E-2,7E0,-4.7581185E-2,8.7842E0,-1.286E1,1.1814E1,5.336768E-2,4.031241E-2,-4.9900047E-2,-2.6669178E-2,-6.5839863E-3,8.701917E-3,4.6389963E-2,2.8108621E-2,-2.7353019E-2,-5.9815E-2,1.6720852E-2,-2.0152807E-2,7.3089944E-3,-1.0379882E-2,2.8925575E-2,9.4479555E-3,6.8180487E-3,2.660082E-2,4.1517187E-2,6.440534E-2],"split_indices":[0,17,0,0,19,5,0,5,0,18,0,5,17,5,6,6,5,0,0,0,20,0,0,0,20,0,4,5,0,0,0,0,0,0,0,0,0,0,0,0,0,0,0,0,0,0,0,0,0],"split_type":[0,0,0,0,0,0,0,0,0,0,0,0,0,0,0,0,0,0,0,0,0,0,0,0,0,0,0,0,0,0,0,0,0,0,0,0,0,0,0,0,0,0,0,0,0,0,0,0,0],"sum_hessian":[1.35E2,7.2E1,6.3E1,1E1,6.2E1,3.8E1,2.5E1,7E0,3E0,6E1,2E0,1.3E1,2.5E1,1.9E1,6E0,3E0,4E0,2E0,1E0,3E0,5.7E1,1E0,1E0,2E0,1.1E1,1E0,2.4E1,1.7E1,2E0,3E0,3E0,1E0,2E0,2E0,2E0,1E0,1E0,1E0,2E0,3E0,5.4E1,3E0,8E0,1.2E1,1.2E1,2E0,1.5E1,1E0,1E0],"tree_param":{"num_deleted":"0","num_feature":"23","num_nodes":"49","size_leaf_vector":"1"}},{"base_weights":[1.3575368E-3,-5.6308646E-2,1.5013677E-1,-1.2633188E-1,-3.6235524E-3,3.9281454E-2,2.009128E-1,-3.599094E-1,-1.0783167E-1,-1.5946946E-1,3.8850732E-2,5.6220207E-2,-1.8467741E-2,1.8354917E-1,5.4157805E-2,-6.524305E-2,-3.922484E-2,-1.2232248E-1,2.0973137E-2,-2.317801E-1,-5.589273E-2,-2.3655799E-1,6.6769846E-2,1.48194935E-2,8.9338146E-2,1.9532242E-1,-1.0633536E-2,-3.8323358E-2,-1.4659303E-2,-4.7272975E-3,-3.5797603E-2,9.212378E-3,-1.2072099E-2,-5.4324143E-2,3.2921407E-2,7.332937E-2,5.602604E-3,-2.2299353E-3,5.1185307E-3,8.744399E-3,1.5115991E-2,3.1492606E-2,1.871889E-2],"categories":[],"categories_nodes":[],"categories_segments":[],"categories_sizes":[],"default_left":[0,0,0,0,0,0,0,0,0,0,0,0,0,0,0,0,0,0,0,0,0,0,0,0,0,0,0,0,0,0,0,0,0,0,0,0,0,0,0,0,0,0,0],"id":23,"left_children":[1,3,5,7,9,11,13,15,17,19,21,23,-1,25,-1,-1,-1,27,-1,29,31,33,35,37,39,41,-1,-1,-1,-1,-1,-1,-1,-1,-1,-1,-1,-1,-1,-1,-1,-1,-1],"loss_changes":[1.1681275E0,3.608639E-1,2.12295E-1,1.7709833E-1,3.7198853E-1,3.5527878E-2,8.239913E-2,1.5379101E-2,1.4882076E-1,8.7843865E-2,3.3825958E-1,1.4432415E-2,0E0,7.546002E-2,0E0,0E0,0E0,8.2324564E-2,0E0,4.1218936E-2,2.0852512E-2,3.198632E-1,4.7930205E-1,3.747356E-3,1.8954352E-3,4.442656E-2,0E0,0E0,0E0,0E0,0E0,0E0,0E0,0E0,0E0,0E0,0E0,0E0,0E0,0E0,0E0,0E0,0E0],"parents":[2147483647,0,0,1,1,2,2,3,3,4,4,5,5,6,6,7,7,8,8,9,9,10,10,11,11,13,13,17,17,19,19,20,20,21,21,22,22,23,23,24,24,25,25],"right_children":[2,4,6,8,10,12,14,16,18,20,22,24,-1,26,-1,-1,-1,28,-1,30,32,34,36,38,40,42,-1,-1,-1,-1,-1,-1,-1,-1,-1,-1,-1,-1,-1,-1,-1,-1,-1],"split_conditions":[8.8623E0,6.0073E0,1.94E5,2.54E0,-6.37E0,6.25E1,2.169E1,3.8204E0,4.72E0,3.72E0,1.653E2,1.2E1,-1.8467741E-2,1.328E1,5.4157805E-2,-6.524305E-2,-3.922484E-2,3.6004E0,2.0973137E-2,6E0,6.0667E0,6.7857E0,2.92E2,9.3704E0,9.5117E0,1.2E1,-1.0633536E-2,-3.8323358E-2,-1.4659303E-2,-4.7272975E-3,-3.5797603E-2,9.212378E-3,-1.2072099E-2,-5.4324143E-2,3.2921407E-2,7.332937E-2,5.602604E-3,-2.2299353E-3,5.1185307E-3,8.744399E-3,1.5115991E-2,3.1492606E-2,1.871889E-2],"split_indices":[3,3,7,12,5,8,5,1,12,12,11,21,0,5,0,0,0,4,0,2,1,1,11,3,1,21,0,0,0,0,0,0,0,0,0,0,0,0,0,0,0,0,0],"split_type":[0,0,0,0,0,0,0,0,0,0,0,0,0,0,0,0,0,0,0,0,0,0,0,0,0,0,0,0,0,0,0,0,0,0,0,0,0,0,0,0,0,0,0],"sum_hessian":[1.36E2,9.8E1,3.8E1,4.2E1,5.6E1,1.2E1,2.6E1,3E0,3.9E1,1.2E1,4.4E1,1.1E1,1E0,2.4E1,2E0,1E0,2E0,3.7E1,2E0,7E0,5E0,4E0,4E1,5E0,6E0,2.3E1,1E0,3E0,3.4E1,1E0,6E0,1E0,4E0,3E0,1E0,2E0,3.8E1,2E0,3E0,3E0,3E0,1.4E1,9E0],"tree_param":{"num_deleted":"0","num_feature":"23","num_nodes":"43","size_leaf_vector":"1"}},{"base_weights":[1.1602475E-3,-4.8717957E-2,1.2986867E-1,-6.4890094E-2,1.3182169E-1,4.5161273E-2,1.7885377E-1,-3.58887E-1,-5.451E-2,-2.0080041E-2,1.7327571E-1,5.8537405E-2,-1.605755E-2,1.5801229E-1,4.3325868E-2,-5.9687592E-2,-4.1853193E-2,1.3108572E-1,-7.875361E-2,9.480626E-2,2.2896352E-1,6.980083E-2,-9.245795E-3,8.743072E-2,2.0054065E-1,-3.326228E-3,6.6847675E-2,3.4403235E-2,-1.1948262E-2,2.1831427E-2,7.6544653E-3,2.7540522E-2,3.9604533E-2,6.7679808E-3,2.22995E-2,2.7451092E-2,9.400082E-3,2.4487942E-2,3.585565E-2],"categories":[],"categories_nodes":[],"categories_segments":[],"categories_sizes":[],"default_left":[0,0,0,0,0,0,0,0,0,0,0,0,0,0,0,0,0,0,0,0,0,0,0,0,0,0,0,0,0,0,0,0,0,0,0,0,0,0,0],"id":24,"left_children":[1,3,5,7,9,11,13,15,17,-1,19,21,-1,23,-1,-1,-1,25,27,29,31,33,-1,35,37,-1,-1,-1,-1,-1,-1,-1,-1,-1,-1,-1,-1,-1,-1],"loss_changes":[8.741351E-1,2.8620088E-1,1.561085E-1,2.7136546E-1,9.4401315E-2,3.0572873E-2,6.482297E-2,2.0411015E-3,3.917603E-1,0E0,2.7825326E-2,1.8795501E-2,0E0,6.0616255E-2,0E0,0E0,0E0,5.66102E-1,2.3149896E-1,5.9596896E-3,1.0726154E-3,2.1044537E-2,0E0,1.45774335E-2,1.20975375E-2,0E0,0E0,0E0,0E0,0E0,0E0,0E0,0E0,0E0,0E0,0E0,0E0,0E0,0E0],"parents":[2147483647,0,0,1,1,2,2,3,3,4,4,5,5,6,6,7,7,8,8,10,10,11,11,13,13,17,17,18,18,19,19,20,20,21,21,23,23,24,24],"right_children":[2,4,6,8,10,12,14,16,18,-1,20,22,-1,24,-1,-1,-1,26,28,30,32,34,-1,36,38,-1,-1,-1,-1,-1,-1,-1,-1,-1,-1,-1,-1,-1,-1],"split_conditions":[8.8623E0,2.924E1,9.8962E0,1.15E2,1.4E0,1.1916E2,9.14E0,9E-2,3.48E5,-2.0080041E-2,5.9041E0,7.27E0,-1.605755E-2,1.28207E1,4.3325868E-2,-5.9687592E-2,-4.1853193E-2,2E5,2.41E0,2.5662E0,1.1027E7,1.81E0,-9.245795E-3,1.16805E1,1.50095E1,-3.326228E-3,6.6847675E-2,3.4403235E-2,-1.1948262E-2,2.1831427E-2,7.6544653E-3,2.7540522E-2,3.9604533E-2,6.7679808E-3,2.22995E-2,2.7451092E-2,9.400082E-3,2.4487942E-2,3.585565E-2],"split_indices":[3,5,1,11,1,8,5,5,6,0,1,5,0,3,0,0,0,6,12,1,6,5,0,1,3,0,0,0,0,0,0,0,0,0,0,0,0,0,0],"split_type":[0,0,0,0,0,0,0,0,0,0,0,0,0,0,0,0,0,0,0,0,0,0,0,0,0,0,0,0,0,0,0,0,0,0,0,0,0,0,0],"sum_hessian":[1.36E2,9.8E1,3.8E1,9E1,8E0,1.4E1,2.4E1,3E0,8.7E1,1E0,7E0,1.3E1,1E0,2.1E1,3E0,1E0,2E0,1E1,7.7E1,3E0,4E0,1.2E1,1E0,8E0,1.3E1,7E0,3E0,2E0,7.5E1,1E0,2E0,3E0,1E0,1E1,2E0,1E0,7E0,1E1,3E0],"tree_param":{"num_deleted":"0","num_feature":"23","num_nodes":"39","size_leaf_vector":"1"}},{"base_weights":[6.3559593E-4,-7.230125E-2,8.66044E-2,-8.73478E-2,9.411522E-2,-3.9697245E-2,1.2024596E-1,-2.631467E-1,-7.289896E-2,-1.7459448E-2,1.4055118E-1,-3.1065857E-2,-4.0864437E-3,-3.2722518E-2,1.2809812E-1,-1.613265E-1,-3.2576662E-1,-1.0049297E-1,1.3185949E-2,6.63468E-3,1.9814909E-1,1.3627487E-1,-3.6464024E-2,1.0418961E-1,2.0724005E-1,-3.4051467E-2,-8.135665E-3,-3.7447043E-2,-5.5169046E-2,-2.5574328E-2,-1.154375E-2,-1.9380063E-2,3.360895E-2,2.2165395E-2,3.443585E-2,9.569394E-3,2.5939887E-2,-9.32368E-3,3.4923893E-3,1.1870788E-2,3.265562E-2,4.2889122E-2,2.465084E-2],"categories":[],"categories_nodes":[],"categories_segments":[],"categories_sizes":[],"default_left":[0,0,0,0,0,0,0,0,0,0,0,0,0,0,0,0,0,0,0,0,0,0,0,0,0,0,0,0,0,0,0,0,0,0,0,0,0,0,0,0,0,0,0],"id":25,"left_children":[1,3,5,7,9,11,13,15,17,-1,19,-1,21,-1,23,25,27,29,31,-1,33,35,37,39,41,-1,-1,-1,-1,-1,-1,-1,-1,-1,-1,-1,-1,-1,-1,-1,-1,-1,-1],"loss_changes":[8.47112E-1,1.8320519E-1,2.6432475E-1,1.6737545E-1,6.325804E-2,8.611752E-2,1.3952869E-1,2.6868194E-2,1.4798018E-1,0E0,2.4702601E-2,0E0,4.9770165E-2,0E0,8.803743E-2,1.5869167E-2,3.2518804E-3,6.2006325E-2,5.495659E-1,0E0,1.5344545E-3,5.1209033E-3,1.8357651E-2,8.2295835E-2,2.5540322E-2,0E0,0E0,0E0,0E0,0E0,0E0,0E0,0E0,0E0,0E0,0E0,0E0,0E0,0E0,0E0,0E0,0E0,0E0],"parents":[2147483647,0,0,1,1,2,2,3,3,4,4,5,5,6,6,7,7,8,8,10,10,12,12,14,14,15,15,16,16,17,17,18,18,20,20,21,21,22,22,23,23,24,24],"right_children":[2,4,6,8,10,12,14,16,18,-1,20,-1,22,-1,24,26,28,30,32,-1,34,36,38,40,42,-1,-1,-1,-1,-1,-1,-1,-1,-1,-1,-1,-1,-1,-1,-1,-1,-1,-1],"split_conditions":[6.622E0,2.924E1,-7.14E0,3.8346E0,2.5662E0,-3.832E1,3.17E1,3.5801E0,6.3817E0,-1.7459448E-2,-4.38E-1,-3.1065857E-2,6.21E1,-3.2722518E-2,1.448E2,1.4E0,3.8806E0,-7.65E0,-7.81E-1,6.63468E-3,6.3025E0,8.3158E0,9.7627E0,2.169E1,6.44675E0,-3.4051467E-2,-8.135665E-3,-3.7447043E-2,-5.5169046E-2,-2.5574328E-2,-1.154375E-2,-1.9380063E-2,3.360895E-2,2.2165395E-2,3.443585E-2,9.569394E-3,2.5939887E-2,-9.32368E-3,3.4923893E-3,1.1870788E-2,3.265562E-2,4.2889122E-2,2.465084E-2],"split_indices":[0,5,5,4,0,5,15,3,0,0,19,0,15,0,15,0,0,5,18,0,2,0,3,5,2,0,0,0,0,0,0,0,0,0,0,0,0,0,0,0,0,0,0],"split_type":[0,0,0,0,0,0,0,0,0,0,0,0,0,0,0,0,0,0,0,0,0,0,0,0,0,0,0,0,0,0,0,0,0,0,0,0,0,0,0,0,0,0,0],"sum_hessian":[1.35E2,7.3E1,6.2E1,6.7E1,6E0,1.3E1,4.9E1,5E0,6.2E1,1E0,5E0,2E0,1.1E1,1E0,4.8E1,2E0,3E0,4.7E1,1.5E1,2E0,3E0,2E0,9E0,3.7E1,1.1E1,1E0,1E0,2E0,1E0,7E0,4E1,9E0,6E0,2E0,1E0,1E0,1E0,6E0,3E0,3.3E1,4E0,2E0,9E0],"tree_param":{"num_deleted":"0","num_feature":"23","num_nodes":"43","size_leaf_vector":"1"}},{"base_weights":[1.7195434E-3,-5.7370976E-2,8.0259666E-2,1.54077E-1,-6.611127E-2,-3.417015E-2,1.1345714E-1,1.17223635E-2,3.7396222E-2,-7.929482E-2,8.1773296E-2,-2.6927127E-2,-3.184892E-3,4.2793944E-2,1.3887534E-1,-6.685152E-2,-2.7404216E-1,-1.5180878E-2,1.22299254E-1,1.1888996E-1,-3.1436168E-2,3.230582E-2,2.3685584E-2,1.6590644E-1,9.063246E-2,6.6396214E-2,-1.0351359E-2,-4.9368706E-2,-3.23439E-2,5.7507777E-3,2.3437202E-2,8.320551E-3,2.2554545E-2,-8.064071E-3,3.0238722E-3,-2.39087E-3,8.025258E-3,2.460519E-2,1.5747141E-2,1.6714927E-2,3.2693932E-3],"categories":[],"categories_nodes":[],"categories_segments":[],"categories_sizes":[],"default_left":[0,0,0,0,0,0,0,0,0,0,0,0,0,0,0,0,0,0,0,0,0,0,0,0,0,0,0,0,0,0,0,0,0,0,0,0,0,0,0,0,0],"id":26,"left_children":[1,3,5,7,9,11,13,-1,-1,15,17,-1,19,21,23,25,27,-1,29,31,33,-1,35,37,39,-1,-1,-1,-1,-1,-1,-1,-1,-1,-1,-1,-1,-1,-1,-1,-1],"loss_changes":[6.270682E-1,1.4226633E-1,2.2115186E-1,2.1692716E-2,1.4461678E-1,6.4886846E-2,7.9512656E-2,0E0,0E0,1.6197523E-1,4.799496E-2,0E0,3.7694827E-2,4.2918317E-2,4.0844798E-2,3.2697368E-1,5.6129694E-3,0E0,1.851049E-2,3.6776084E-3,1.37936985E-2,0E0,1.6385283E-2,1.30239725E-2,2.4798125E-2,0E0,0E0,0E0,0E0,0E0,0E0,0E0,0E0,0E0,0E0,0E0,0E0,0E0,0E0,0E0,0E0],"parents":[2147483647,0,0,1,1,2,2,3,3,4,4,5,5,6,6,9,9,10,10,12,12,13,13,14,14,15,15,16,16,18,18,19,19,20,20,22,22,23,23,24,24],"right_children":[2,4,6,8,10,12,14,-1,-1,16,18,-1,20,22,24,26,28,-1,30,32,34,-1,36,38,40,-1,-1,-1,-1,-1,-1,-1,-1,-1,-1,-1,-1,-1,-1,-1,-1],"split_conditions":[6.9881E0,-1.608E0,-7.14E0,6.523E0,2.924E1,-3.832E1,1.83E5,1.17223635E-2,3.7396222E-2,2.608E1,2.5662E0,-2.6927127E-2,6.21E1,7.0758E0,1.2E1,1.662E2,9E-2,-1.5180878E-2,-4.38E-1,8.3158E0,9.702E0,3.230582E-2,9.4388E0,4.77E-1,1.72E1,6.6396214E-2,-1.0351359E-2,-4.9368706E-2,-3.23439E-2,5.7507777E-3,2.3437202E-2,8.320551E-3,2.2554545E-2,-8.064071E-3,3.0238722E-3,-2.39087E-3,8.025258E-3,2.460519E-2,1.5747141E-2,1.6714927E-2,3.2693932E-3],"split_indices":[0,18,5,0,5,5,6,0,0,9,0,0,15,0,21,11,5,0,19,0,4,0,0,19,14,0,0,0,0,0,0,0,0,0,0,0,0,0,0,0,0],"split_type":[0,0,0,0,0,0,0,0,0,0,0,0,0,0,0,0,0,0,0,0,0,0,0,0,0,0,0,0,0,0,0,0,0,0,0,0,0,0,0,0,0],"sum_hessian":[1.35E2,7.7E1,5.8E1,3E0,7.4E1,1.3E1,4.5E1,2E0,1E0,6.8E1,6E0,2E0,1.1E1,1.2E1,3.3E1,6.4E1,4E0,1E0,5E0,2E0,9E0,1E0,1.1E1,2.1E1,1.2E1,1E0,6.3E1,1E0,3E0,2E0,3E0,1E0,1E0,6E0,3E0,5E0,6E0,1.6E1,5E0,8E0,4E0],"tree_param":{"num_deleted":"0","num_feature":"23","num_nodes":"41","size_leaf_vector":"1"}},{"base_weights":[2.1846478E-3,-5.27318E-2,6.503879E-2,4.7004696E-2,-7.083979E-2,-2.9394036E-2,8.972049E-2,-3.8037334E-2,2.7320212E-1,-1.9393663E-1,-5.9598535E-2,-2.3339804E-2,-2.420702E-3,-2.423091E-2,9.546337E-2,7.6003047E-3,-1.753216E-1,2.5486162E-2,5.7731107E-2,-1.857077E-2,-3.0984564E-2,-5.4077942E-2,-4.6618197E-2,1.03773996E-1,-2.7088562E-2,7.3699445E-2,1.5481614E-1,-9.846705E-3,6.731414E-3,-3.2468088E-2,-1.3449625E-2,-3.5339473E-3,-1.3984993E-2,7.2346907E-3,1.961104E-2,6.736282E-4,-7.3180525E-3,7.7565564E-3,2.7709953E-2,3.437182E-2,1.8443974E-2],"categories":[],"categories_nodes":[],"categories_segments":[],"categories_sizes":[],"default_left":[0,0,0,0,0,0,0,0,0,0,0,0,0,0,0,0,0,0,0,0,0,0,0,0,0,0,0,0,0,0,0,0,0,0,0,0,0,0,0,0,0],"id":27,"left_children":[1,3,5,7,9,11,13,15,17,19,21,-1,23,-1,25,27,29,-1,-1,-1,-1,31,-1,33,35,37,39,-1,-1,-1,-1,-1,-1,-1,-1,-1,-1,-1,-1,-1,-1],"loss_changes":[4.663527E-1,1.3040157E-1,1.4742675E-1,2.1433061E-1,8.239046E-2,4.890245E-2,7.7172756E-2,5.149523E-2,3.2278657E-2,6.188512E-3,8.4298745E-2,0E0,2.856664E-2,0E0,6.143558E-2,2.0244356E-2,6.77412E-3,0E0,0E0,0E0,0E0,7.4430704E-2,0E0,2.6111677E-3,8.051906E-3,7.605429E-2,2.0678848E-2,0E0,0E0,0E0,0E0,0E0,0E0,0E0,0E0,0E0,0E0,0E0,0E0,0E0,0E0],"parents":[2147483647,0,0,1,1,2,2,3,3,4,4,5,5,6,6,7,7,8,8,9,9,10,10,12,12,14,14,15,15,16,16,21,21,23,23,24,24,25,25,26,26],"right_children":[2,4,6,8,10,12,14,16,18,20,22,-1,24,-1,26,28,30,-1,-1,-1,-1,32,-1,34,36,38,40,-1,-1,-1,-1,-1,-1,-1,-1,-1,-1,-1,-1,-1,-1],"split_conditions":[6.622E0,-1.008E0,-7.14E0,6E0,-8.7E0,-3.832E1,3.17E1,6.4994E0,6.4E0,4.1221E0,2E1,-2.3339804E-2,6.21E1,-2.423091E-2,1.26514E1,3.9492E0,4.1989E0,2.5486162E-2,5.7731107E-2,-1.857077E-2,-3.0984564E-2,1.213E1,-4.6618197E-2,8.3158E0,1.3E1,1.796E2,1.19659E1,-9.846705E-3,6.731414E-3,-3.2468088E-2,-1.3449625E-2,-3.5339473E-3,-1.3984993E-2,7.2346907E-3,1.961104E-2,6.736282E-4,-7.3180525E-3,7.7565564E-3,2.7709953E-2,3.437182E-2,1.8443974E-2],"split_indices":[0,17,5,0,5,5,15,1,0,1,21,0,15,0,0,1,0,0,0,0,0,10,0,0,21,15,1,0,0,0,0,0,0,0,0,0,0,0,0,0,0],"split_type":[0,0,0,0,0,0,0,0,0,0,0,0,0,0,0,0,0,0,0,0,0,0,0,0,0,0,0,0,0,0,0,0,0,0,0,0,0,0,0,0,0],"sum_hessian":[1.35E2,7.2E1,6.3E1,1.1E1,6.1E1,1.3E1,5E1,8E0,3E0,5E0,5.6E1,2E0,1.1E1,1E0,4.9E1,6E0,2E0,2E0,1E0,2E0,3E0,5.5E1,1E0,2E0,9E0,3.6E1,1.3E1,2E0,4E0,1E0,1E0,3.5E1,2E1,1E0,1E0,4E0,5E0,3.2E1,4E0,2E0,1.1E1],"tree_param":{"num_deleted":"0","num_feature":"23","num_nodes":"41","size_leaf_vector":"1"}},{"base_weights":[6.208556E-4,-4.7325585E-2,5.6271546E-2,-5.807273E-2,7.121277E-2,-1.6047036E-2,8.101591E-2,-4.9335085E-2,-2.3912431E-1,-1.1374546E-2,1.0386047E-1,-2.023039E-2,2.8493796E-3,-2.1068603E-2,8.641765E-2,5.0196856E-2,-5.631803E-2,-2.7068036E-2,-4.1100603E-2,4.771649E-3,1.9936694E-2,5.583271E-2,-3.619518E-2,2.2417264E-2,1.039745E-1,-1.6857773E-2,-4.50161E-3,1.1810429E-3,1.3625787E-2,8.706408E-4,-1.0878629E-2,-0E0,7.5822147E-3,1.7978815E-2,9.267901E-3],"categories":[],"categories_nodes":[],"categories_segments":[],"categories_sizes":[],"default_left":[0,0,0,0,0,0,0,0,0,0,0,0,0,0,0,0,0,0,0,0,0,0,0,0,0,0,0,0,0,0,0,0,0,0,0],"id":28,"left_children":[1,3,5,7,9,11,13,15,17,-1,19,-1,21,-1,23,-1,25,-1,-1,-1,-1,27,29,31,33,-1,-1,-1,-1,-1,-1,-1,-1,-1,-1],"loss_changes":[3.63165E-1,9.3146086E-2,1.1327496E-1,1.0375221E-1,3.1036932E-2,4.1141108E-2,6.0077578E-2,1.8598258E-1,2.0054877E-3,0E0,1.3446778E-2,0E0,2.9258741E-2,0E0,5.0845444E-2,0E0,9.782685E-2,0E0,0E0,0E0,0E0,1.190825E-2,1.5473198E-2,7.507961E-3,3.4766853E-2,0E0,0E0,0E0,0E0,0E0,0E0,0E0,0E0,0E0,0E0],"parents":[2147483647,0,0,1,1,2,2,3,3,4,4,5,5,6,6,7,7,8,8,10,10,12,12,14,14,16,16,21,21,22,22,23,23,24,24],"right_children":[2,4,6,8,10,12,14,16,18,-1,20,-1,22,-1,24,-1,26,-1,-1,-1,-1,28,30,32,34,-1,-1,-1,-1,-1,-1,-1,-1,-1,-1],"split_conditions":[6.622E0,2.924E1,-5.5E0,2.571E1,2.5662E0,-3.832E1,3.17E1,1.662E2,1.4E0,-1.1374546E-2,-4.38E-1,-2.023039E-2,1.1E1,-2.1068603E-2,1.83E5,5.0196856E-2,0E0,-2.7068036E-2,-4.1100603E-2,4.771649E-3,1.9936694E-2,1.94E5,3.79E0,9.5117E0,1.1E1,-1.6857773E-2,-4.50161E-3,1.1810429E-3,1.3625787E-2,8.706408E-4,-1.0878629E-2,-0E0,7.5822147E-3,1.7978815E-2,9.267901E-3],"split_indices":[0,5,5,9,0,5,15,11,0,0,19,0,21,0,7,0,8,0,0,0,0,7,12,0,21,0,0,0,0,0,0,0,0,0,0],"split_type":[0,0,0,0,0,0,0,0,0,0,0,0,0,0,0,0,0,0,0,0,0,0,0,0,0,0,0,0,0,0,0,0,0,0,0],"sum_hessian":[1.36E2,7.3E1,6.3E1,6.7E1,6E0,1.6E1,4.7E1,6.4E1,3E0,1E0,5E0,2E0,1.4E1,1E0,4.6E1,1E0,6.3E1,2E0,1E0,2E0,3E0,6E0,8E0,1E1,3.6E1,1.6E1,4.7E1,3E0,3E0,4E0,4E0,6E0,4E0,2E1,1.6E1],"tree_param":{"num_deleted":"0","num_feature":"23","num_nodes":"35","size_leaf_vector":"1"}},{"base_weights":[5.2763417E-4,-5.249267E-2,3.8869616E-2,-6.608016E-2,6.161767E-2,-4.023281E-2,4.339802E-2,-2.3574779E-2,-5.6676067E-2,-9.890099E-3,9.010682E-2,-3.833419E-2,4.785515E-2,-1.1071717E-1,-3.1035699E-2,5.332513E-2,1.904207E-2,-1.5226525E-1,5.335834E-2,6.4221205E-4,-1.904941E-2,-5.968024E-3,7.718916E-3,1.225402E-2,4.1359426E-3,-4.035045E-3,-3.5736687E-2,9.512784E-3,-3.4161566E-3],"categories":[],"categories_nodes":[],"categories_segments":[],"categories_sizes":[],"default_left":[0,0,0,0,0,0,0,0,0,0,0,0,0,0,0,0,0,0,0,0,0,0,0,0,0,0,0,0,0],"id":29,"left_children":[1,3,5,7,9,-1,11,-1,13,-1,15,-1,17,19,21,23,-1,25,27,-1,-1,-1,-1,-1,-1,-1,-1,-1,-1],"loss_changes":[2.7656284E-1,8.864397E-2,1.1872386E-1,4.95964E-2,2.3508277E-2,0E0,1.12211674E-1,0E0,6.415059E-2,0E0,7.71901E-3,0E0,8.457355E-2,5.174227E-2,3.6103487E-2,1.6925829E-3,0E0,2.5485847E-2,9.786284E-2,0E0,0E0,0E0,0E0,0E0,0E0,0E0,0E0,0E0,0E0],"parents":[2147483647,0,0,1,1,2,2,3,3,4,4,6,6,8,8,10,10,12,12,13,13,14,14,15,15,17,17,18,18],"right_children":[2,4,6,8,10,-1,12,-1,14,-1,16,-1,18,20,22,24,-1,26,28,-1,-1,-1,-1,-1,-1,-1,-1,-1,-1],"split_conditions":[6.3817E0,2.924E1,2E0,3.4793E0,2.5662E0,-4.023281E-2,3.7364E0,-2.3574779E-2,-1.79E0,-9.890099E-3,6E0,-3.833419E-2,9.9E4,4.352E2,9.43E0,2.7482E0,1.904207E-2,3.2E4,1.2E1,6.4221205E-4,-1.904941E-2,-5.968024E-3,7.718916E-3,1.225402E-2,4.1359426E-3,-4.035045E-3,-3.5736687E-2,9.512784E-3,-3.4161566E-3],"split_indices":[0,5,22,0,0,0,3,0,5,0,0,0,6,11,5,0,0,6,22,0,0,0,0,0,0,0,0,0,0],"split_type":[0,0,0,0,0,0,0,0,0,0,0,0,0,0,0,0,0,0,0,0,0,0,0,0,0,0,0,0,0],"sum_hessian":[1.36E2,5.7E1,7.9E1,5.1E1,6E0,1E0,7.8E1,4E0,4.7E1,1E0,5E0,1E0,7.7E1,1.5E1,3.2E1,3E0,2E0,2E0,7.5E1,3E0,1.2E1,2.8E1,4E0,1E0,2E0,1E0,1E0,6.2E1,1.3E1],"tree_param":{"num_deleted":"0","num_feature":"23","num_nodes":"29","size_leaf_vector":"1"}},{"base_weights":[4.4179795E-4,-4.533175E-2,3.397835E-2,-5.712298E-2,5.3554833E-2,4.1954998E-2,-1.6118036E-1,-1.8931784E-2,-7.7713996E-2,-8.599375E-3,7.8483686E-2,-3.4982175E-2,4.6226338E-2,-4.1523088E-2,1.6535854E-2,-4.3847173E-2,4.4430774E-2,-1.4560388E-1,-6.2190723E-2,3.5849165E-3,1.5011081E-2,-1.4625848E-2,6.735674E-2,1.3013046E-2,-7.6583247E-3,1.2081143E-2,4.214279E-3,-2.3680124E-2,-1.1322181E-2,-2.0401007E-2,-6.314254E-3,-5.999666E-3,6.5379753E-3,1.8836401E-2,6.4294282E-3],"categories":[],"categories_nodes":[],"categories_segments":[],"categories_sizes":[],"default_left":[0,0,0,0,0,0,0,0,0,0,0,0,0,0,0,0,0,0,0,0,0,0,0,0,0,0,0,0,0,0,0,0,0,0,0],"id":30,"left_children":[1,3,5,7,9,11,13,15,17,-1,19,-1,21,-1,-1,23,25,27,29,-1,-1,31,33,-1,-1,-1,-1,-1,-1,-1,-1,-1,-1,-1,-1],"loss_changes":[2.0729648E-1,6.6663705E-2,1.21031255E-1,3.9472297E-2,1.7894363E-2,9.504728E-2,1.2659946E-1,2.8562978E-2,3.3137307E-2,0E0,7.393172E-3,0E0,9.557806E-2,0E0,0E0,2.2616094E-2,2.1438766E-3,8.496329E-3,3.5926938E-2,0E0,0E0,3.5241023E-2,7.7213705E-2,0E0,0E0,0E0,0E0,0E0,0E0,0E0,0E0,0E0,0E0,0E0,0E0],"parents":[2147483647,0,0,1,1,2,2,3,3,4,4,5,5,6,6,7,7,8,8,10,10,12,12,15,15,16,16,17,17,18,18,21,21,22,22],"right_children":[2,4,6,8,10,12,14,16,18,-1,20,-1,22,-1,-1,24,26,28,30,-1,-1,32,34,-1,-1,-1,-1,-1,-1,-1,-1,-1,-1,-1,-1],"split_conditions":[6.3817E0,2.924E1,1.67E0,7E0,2.5662E0,2E0,6.622E0,3.95E0,-7.65E0,-8.599375E-3,-4.38E-1,-3.4982175E-2,-2.39E0,-4.1523088E-2,1.6535854E-2,1.171E1,3.4947E0,2.167E1,3.4793E0,3.5849165E-3,1.5011081E-2,9.702E0,6E0,1.3013046E-2,-7.6583247E-3,1.2081143E-2,4.214279E-3,-2.3680124E-2,-1.1322181E-2,-2.0401007E-2,-6.314254E-3,-5.999666E-3,6.5379753E-3,1.8836401E-2,6.4294282E-3],"split_indices":[0,5,19,20,0,22,0,12,5,0,19,0,5,0,0,14,0,8,0,0,0,4,20,0,0,0,0,0,0,0,0,0,0,0,0],"split_type":[0,0,0,0,0,0,0,0,0,0,0,0,0,0,0,0,0,0,0,0,0,0,0,0,0,0,0,0,0,0,0,0,0,0,0],"sum_hessian":[1.35E2,5.7E1,7.8E1,5.1E1,6E0,7.5E1,3E0,1.8E1,3.3E1,1E0,5E0,1E0,7.4E1,2E0,1E0,1.3E1,5E0,6E0,2.7E1,2E0,3E0,1.9E1,5.5E1,1E0,1.2E1,1E0,4E0,4E0,2E0,4E0,2.3E1,1.3E1,6E0,1.2E1,4.3E1],"tree_param":{"num_deleted":"0","num_feature":"23","num_nodes":"35","size_leaf_vector":"1"}},{"base_weights":[2.5782257E-4,-1.3468776E-2,7.1559206E-2,-5.7782482E-2,1.5977706E-3,6.487002E-2,2.6892137E-2,9.0636695E-3,-7.196043E-2,-3.4274124E-2,2.3384357E-2,9.445404E-2,4.5936096E-2,3.4767473E-3,-7.652211E-5,-7.838647E-2,9.11648E-3,-1.8090243E-2,-1.19536586E-1,-4.9199425E-2,4.2573765E-2,2.1420538E-3,1.4237903E-2,-4.7348277E-3,5.3282876E-2,-1.7649989E-3,4.6854545E-4,5.718381E-3,-1.1457918E-2,-5.295699E-3,2.2744285E-3,-1.4587935E-3,-1.9700106E-2,-1.6434697E-2,1.0135435E-2,-3.0416751E-2,6.7269383E-3,8.833712E-4,8.4288055E-3],"categories":[],"categories_nodes":[],"categories_segments":[],"categories_sizes":[],"default_left":[0,0,0,0,0,0,0,0,0,0,0,0,0,0,0,0,0,0,0,0,0,0,0,0,0,0,0,0,0,0,0,0,0,0,0,0,0,0,0],"id":31,"left_children":[1,3,5,7,9,11,-1,13,15,17,19,21,23,-1,25,27,-1,29,31,33,35,-1,-1,-1,37,-1,-1,-1,-1,-1,-1,-1,-1,-1,-1,-1,-1,-1,-1],"loss_changes":[1.3355276E-1,7.649651E-2,1.6404271E-2,2.7946092E-2,6.6428885E-2,1.0723807E-2,0E0,9.195225E-4,2.1764487E-2,4.3261617E-2,7.392735E-2,5.628966E-3,7.93072E-3,0E0,1.9964819E-4,1.6584948E-2,0E0,1.9775625E-2,1.2819283E-2,9.84614E-2,7.6230675E-2,0E0,0E0,0E0,4.4386983E-3,0E0,0E0,0E0,0E0,0E0,0E0,0E0,0E0,0E0,0E0,0E0,0E0,0E0,0E0],"parents":[2147483647,0,0,1,1,2,2,3,3,4,4,5,5,7,7,8,8,9,9,10,10,11,11,12,12,14,14,15,15,17,17,18,18,19,19,20,20,24,24],"right_children":[2,4,6,8,10,12,-1,14,16,18,20,22,24,-1,26,28,-1,30,32,34,36,-1,-1,-1,38,-1,-1,-1,-1,-1,-1,-1,-1,-1,-1,-1,-1,-1,-1],"split_conditions":[1.11877E1,-2.28E0,1.328E1,4.15E5,5.9837E0,-4.6E-1,2.6892137E-2,6.4994E0,9.185E2,3.864E2,1.124E2,4.61E0,-2.65E-1,3.4767473E-3,9.3704E0,4.69E1,9.11648E-3,7.09E0,3.3202E0,6.7857E0,2E0,2.1420538E-3,1.4237903E-2,-4.7348277E-3,-1.483E0,-1.7649989E-3,4.6854545E-4,5.718381E-3,-1.1457918E-2,-5.295699E-3,2.2744285E-3,-1.4587935E-3,-1.9700106E-2,-1.6434697E-2,1.0135435E-2,-3.0416751E-2,6.7269383E-3,8.833712E-4,8.4288055E-3],"split_indices":[3,5,5,6,3,16,0,1,11,15,15,8,16,0,3,15,0,5,1,1,22,0,0,0,17,0,0,0,0,0,0,0,0,0,0,0,0,0,0],"split_type":[0,0,0,0,0,0,0,0,0,0,0,0,0,0,0,0,0,0,0,0,0,0,0,0,0,0,0,0,0,0,0,0,0,0,0,0,0,0,0],"sum_hessian":[1.36E2,1.14E2,2.2E1,2.9E1,8.5E1,2.1E1,1E0,5E0,2.4E1,3.2E1,5.3E1,8E0,1.3E1,2E0,3E0,2.3E1,1E0,2.7E1,5E0,1.1E1,4.2E1,1E0,7E0,1E0,1.2E1,1E0,2E0,1E0,2.2E1,1.7E1,1E1,1E0,4E0,7E0,4E0,1E0,4.1E1,2E0,1E1],"tree_param":{"num_deleted":"0","num_feature":"23","num_nodes":"39","size_leaf_vector":"1"}},{"base_weights":[2.774301E-4,-1.3384203E-2,6.6977136E-2,-4.8733722E-2,1.32116E-3,1.1940983E-1,5.5368062E-2,-2.7749242E-2,-8.034203E-2,8.815262E-3,-8.824188E-2,2.2207769E-2,9.530171E-3,4.3833863E-2,1.30828405E-2,1.8468242E-2,-4.7998283E-2,-1.761742E-2,-5.730208E-2,1.3674077E-1,1.2290056E-3,-0E0,-2.581796E-1,5.2626688E-2,6.3619455E-3,6.182033E-3,-9.11878E-4,-1.39262425E-2,-3.440964E-3,-1.0220236E-2,3.066808E-4,-1.09144375E-2,4.8152898E-2,-2.9109083E-2,1.0717418E-3,-1.1347749E-2,1.09570315E-2,-2.5341291E-2,-4.266335E-2,3.1844159E-3,9.014903E-3,-2.5841842E-5,1.7193755E-3],"categories":[],"categories_nodes":[],"categories_segments":[],"categories_sizes":[],"default_left":[0,0,0,0,0,0,0,0,0,0,0,0,0,0,0,0,0,0,0,0,0,0,0,0,0,0,0,0,0,0,0,0,0,0,0,0,0,0,0,0,0,0,0],"id":32,"left_children":[1,3,5,7,9,11,13,15,17,19,21,-1,-1,23,-1,25,27,-1,29,31,33,35,37,39,41,-1,-1,-1,-1,-1,-1,-1,-1,-1,-1,-1,-1,-1,-1,-1,-1,-1,-1],"loss_changes":[1.23427846E-1,5.8542196E-2,1.26510635E-2,2.1145403E-2,5.258898E-2,6.7976154E-3,7.90374E-3,1.8979473E-2,1.32833645E-2,7.001551E-2,8.909707E-2,0E0,0E0,4.572915E-3,0E0,4.35712E-3,1.642441E-2,0E0,1.0057418E-2,1.9339928E-1,9.754992E-2,2.7455349E-2,2.5260746E-3,4.170038E-3,2.0308235E-4,0E0,0E0,0E0,0E0,0E0,0E0,0E0,0E0,0E0,0E0,0E0,0E0,0E0,0E0,0E0,0E0,0E0,0E0],"parents":[2147483647,0,0,1,1,2,2,3,3,4,4,5,5,6,6,7,7,8,8,9,9,10,10,13,13,15,15,16,16,18,18,19,19,20,20,21,21,22,22,23,23,24,24],"right_children":[2,4,6,8,10,12,14,16,18,20,22,-1,-1,24,-1,26,28,-1,30,32,34,36,38,40,42,-1,-1,-1,-1,-1,-1,-1,-1,-1,-1,-1,-1,-1,-1,-1,-1,-1,-1],"split_conditions":[1.16805E1,-5.9E-1,9.365E0,1.534E2,1.648E0,-3.85E-1,1.44646E1,6.2759E0,-1.68E0,1E0,6.3025E0,2.2207769E-2,9.530171E-3,3.448E1,1.30828405E-2,-5.85E0,9.66E0,-1.761742E-2,6.1616E0,2.112E1,1E0,6.1538E0,3.8204E0,4.61E0,1.22716E1,6.182033E-3,-9.11878E-4,-1.39262425E-2,-3.440964E-3,-1.0220236E-2,3.066808E-4,-1.09144375E-2,4.8152898E-2,-2.9109083E-2,1.0717418E-3,-1.1347749E-2,1.09570315E-2,-2.5341291E-2,-4.266335E-2,3.1844159E-3,9.014903E-3,-2.5841842E-5,1.7193755E-3],"split_indices":[0,5,2,15,19,17,0,1,8,20,0,0,0,8,0,5,10,0,0,9,21,0,1,8,0,0,0,0,0,0,0,0,0,0,0,0,0,0,0,0,0,0,0],"split_type":[0,0,0,0,0,0,0,0,0,0,0,0,0,0,0,0,0,0,0,0,0,0,0,0,0,0,0,0,0,0,0,0,0,0,0,0,0,0,0,0,0,0,0],"sum_hessian":[1.35E2,1.12E2,2.3E1,3.3E1,7.9E1,4E0,1.9E1,2E1,1.3E1,7.3E1,6E0,2E0,2E0,1.5E1,4E0,6E0,1.4E1,4E0,9E0,4E0,6.9E1,4E0,2E0,1.2E1,3E0,3E0,3E0,4E0,1E1,7E0,2E0,2E0,2E0,2E0,6.7E1,2E0,2E0,1E0,1E0,4E0,8E0,1E0,2E0],"tree_param":{"num_deleted":"0","num_feature":"23","num_nodes":"43","size_leaf_vector":"1"}},{"base_weights":[2.1021861E-4,-3.225669E-2,2.3719624E-2,-4.0895216E-2,3.9906297E-2,2.9476492E-2,-1.18438E-1,-1.5996143E-2,-3.413633E-2,-7.913813E-3,6.1086707E-2,-4.5237742E-2,3.7170023E-2,-2.248851E-1,1.2101307E-2,-4.1596647E-2,4.4108115E-2,2.6615001E-3,8.605306E-2,-1.437566E-2,-1.9140936E-2,-1.617762E-2,5.0865114E-2,-2.2034079E-2,-3.709546E-2,-7.110545E-4,-7.3307576E-3,9.581977E-3,1.8786674E-3,9.115599E-3,1.549312E-2,-1.0180633E-3,-7.832042E-3,-9.311686E-3,4.801942E-3,1.8083826E-2,4.9876757E-3],"categories":[],"categories_nodes":[],"categories_segments":[],"categories_sizes":[],"default_left":[0,0,0,0,0,0,0,0,0,0,0,0,0,0,0,0,0,0,0,0,0,0,0,0,0,0,0,0,0,0,0,0,0,0,0,0,0],"id":33,"left_children":[1,3,5,7,9,11,13,-1,15,-1,17,19,21,23,-1,25,27,-1,29,-1,31,33,35,-1,-1,-1,-1,-1,-1,-1,-1,-1,-1,-1,-1,-1,-1],"loss_changes":[1.03817336E-1,3.563487E-2,6.427882E-2,2.5332041E-2,1.272092E-2,4.3731503E-2,6.886532E-2,0E0,2.7522355E-2,0E0,4.4952687E-3,1.0237806E-2,5.0694562E-2,1.5427545E-3,0E0,1.8847778E-2,2.6552556E-3,0E0,1.5658326E-4,0E0,1.8334746E-3,3.8084548E-2,6.2889844E-2,0E0,0E0,0E0,0E0,0E0,0E0,0E0,0E0,0E0,0E0,0E0,0E0,0E0,0E0],"parents":[2147483647,0,0,1,1,2,2,3,3,4,4,5,5,6,6,8,8,10,10,11,11,12,12,13,13,15,15,16,16,18,18,20,20,21,21,22,22],"right_children":[2,4,6,8,10,12,14,-1,16,-1,18,20,22,24,-1,26,28,-1,30,-1,32,34,36,-1,-1,-1,-1,-1,-1,-1,-1,-1,-1,-1,-1,-1,-1],"split_conditions":[6.3817E0,2.924E1,1.67E0,3.4793E0,2.5662E0,-1.714E1,6.622E0,-1.5996143E-2,9.43E0,-7.913813E-3,-4.38E-1,-3.832E1,1.83E5,3.8204E0,1.2101307E-2,4E0,3.7883E0,2.6615001E-3,6.3025E0,-1.437566E-2,9.6944E0,9.3747E0,3.96E5,-2.2034079E-2,-3.709546E-2,-7.110545E-4,-7.3307576E-3,9.581977E-3,1.8786674E-3,9.115599E-3,1.549312E-2,-1.0180633E-3,-7.832042E-3,-9.311686E-3,4.801942E-3,1.8083826E-2,4.9876757E-3],"split_indices":[0,5,19,0,0,5,0,0,5,0,19,5,6,1,0,21,0,0,1,0,1,1,6,0,0,0,0,0,0,0,0,0,0,0,0,0,0],"split_type":[0,0,0,0,0,0,0,0,0,0,0,0,0,0,0,0,0,0,0,0,0,0,0,0,0,0,0,0,0,0,0,0,0,0,0,0,0],"sum_hessian":[1.36E2,5.7E1,7.9E1,5.1E1,6E0,7.6E1,3E0,4E0,4.7E1,1E0,5E0,7E0,6.9E1,2E0,1E0,4.3E1,4E0,2E0,3E0,2E0,5E0,1.4E1,5.5E1,1E0,1E0,1.1E1,3.2E1,2E0,2E0,2E0,1E0,4E0,1E0,7E0,7E0,8E0,4.7E1],"tree_param":{"num_deleted":"0","num_feature":"23","num_nodes":"37","size_leaf_vector":"1"}},{"base_weights":[3.5967733E-4,-2.835174E-2,2.0432305E-2,-4.6883903E-2,-2.3279946E-4,2.5441032E-2,-1.0298092E-1,-9.835264E-2,-3.733471E-2,-6.0832545E-2,1.7330807E-2,-2.3299133E-2,2.8242461E-2,-1.9593577E-1,1.052202E-2,-2.7656662E-3,-1.5767884E-2,-1.1254888E-2,-2.9376952E-2,-9.082847E-2,7.069469E-3,-7.584565E-3,4.6030536E-2,-1.5613581E-2,4.0244285E-2,-1.915847E-2,-3.2254234E-2,-3.6013604E-4,-6.5250546E-3,-8.217689E-3,-1.5823843E-2,-7.857619E-3,-3.582644E-5,1.1793036E-2,4.2084195E-3,-1.2460474E-2,-5.5385026E-4,-1.8951993E-3,7.7871354E-3],"categories":[],"categories_nodes":[],"categories_segments":[],"categories_sizes":[],"default_left":[0,0,0,0,0,0,0,0,0,0,0,0,0,0,0,0,0,0,0,0,0,0,0,0,0,0,0,0,0,0,0,0,0,0,0,0,0,0,0],"id":34,"left_children":[1,3,5,7,9,11,13,15,17,19,21,-1,23,25,-1,-1,-1,-1,27,29,-1,31,33,35,37,-1,-1,-1,-1,-1,-1,-1,-1,-1,-1,-1,-1,-1,-1],"loss_changes":[7.72256E-2,2.8387625E-2,4.848581E-2,1.5234709E-2,2.3778005E-2,4.121061E-2,5.2383143E-2,5.9482306E-3,9.323653E-3,1.7504327E-2,1.244192E-2,0E0,3.967966E-2,8.466691E-4,0E0,0E0,0E0,0E0,1.1619413E-2,1.7292947E-3,0E0,2.9575718E-3,4.0860306E-3,1.3453346E-2,5.4649062E-2,0E0,0E0,0E0,0E0,0E0,0E0,0E0,0E0,0E0,0E0,0E0,0E0,0E0,0E0],"parents":[2147483647,0,0,1,1,2,2,3,3,4,4,5,5,6,6,7,7,8,8,9,9,10,10,12,12,13,13,18,18,19,19,21,21,22,22,23,23,24,24],"right_children":[2,4,6,8,10,12,14,16,18,20,22,-1,24,26,-1,-1,-1,-1,28,30,-1,32,34,36,38,-1,-1,-1,-1,-1,-1,-1,-1,-1,-1,-1,-1,-1,-1],"split_conditions":[6.3817E0,4.29E0,1.67E0,-1.006E0,3.4793E0,2E0,6.622E0,4.97E1,3.8869E0,9.934E1,9.43E0,-2.3299133E-2,-5.5E0,3.8204E0,1.052202E-2,-2.7656662E-3,-1.5767884E-2,-1.1254888E-2,5.146E2,3.87E0,7.069469E-3,-8.73E-1,5E2,-3.832E1,1.83E5,-1.915847E-2,-3.2254234E-2,-3.6013604E-4,-6.5250546E-3,-8.217689E-3,-1.5823843E-2,-7.857619E-3,-3.582644E-5,1.1793036E-2,4.2084195E-3,-1.2460474E-2,-5.5385026E-4,-1.8951993E-3,7.7871354E-3],"split_indices":[0,5,19,19,0,22,0,15,0,5,5,0,5,1,0,0,0,0,11,1,0,16,11,5,6,0,0,0,0,0,0,0,0,0,0,0,0,0,0],"split_type":[0,0,0,0,0,0,0,0,0,0,0,0,0,0,0,0,0,0,0,0,0,0,0,0,0,0,0,0,0,0,0,0,0,0,0,0,0,0,0],"sum_hessian":[1.34E2,5.5E1,7.9E1,3.3E1,2.2E1,7.6E1,3E0,5E0,2.8E1,5E0,1.7E1,1E0,7.5E1,2E0,1E0,1E0,4E0,4E0,2.4E1,4E0,1E0,9E0,8E0,1.6E1,5.9E1,1E0,1E0,1E1,1.4E1,2E0,2E0,1E0,8E0,2E0,6E0,2E0,1.4E1,1.4E1,4.5E1],"tree_param":{"num_deleted":"0","num_feature":"23","num_nodes":"39","size_leaf_vector":"1"}},{"base_weights":[6.2696525E-4,-8.431984E-3,4.494582E-2,1.9079454E-2,-1.1244969E-2,1.10391274E-1,3.8205057E-2,-1.6879972E-2,5.108228E-2,1.8817103E-2,9.792552E-3,2.8299263E-2,7.801625E-2,-1.2826347E-1,-1.3352297E-2,2.1909742E-2,1.06249005E-1,5.0068866E-2,1.8564213E-2,1.3214879E-2,7.3765703E-3,-1.3070301E-2,-2.4505535E-2,2.6853671E-3,-3.2889904E-3,-5.8085537E-3,4.941866E-3,1.1095042E-2,1.9634191E-2,-0E0,8.343528E-3,-1.6896378E-3,2.991134E-3],"categories":[],"categories_nodes":[],"categories_segments":[],"categories_sizes":[],"default_left":[0,0,0,0,0,0,0,0,0,0,0,0,0,0,0,0,0,0,0,0,0,0,0,0,0,0,0,0,0,0,0,0,0],"id":35,"left_children":[1,3,5,-1,7,9,11,13,15,-1,-1,17,19,21,23,25,27,29,31,-1,-1,-1,-1,-1,-1,-1,-1,-1,-1,-1,-1,-1,-1],"loss_changes":[5.4461773E-2,4.6114866E-2,9.056088E-3,0E0,3.8471147E-2,4.5112148E-4,7.539224E-3,3.8743142E-2,1.3651684E-2,0E0,0E0,3.1427983E-3,6.67749E-4,2.6154295E-3,3.5154477E-2,5.6520784E-3,9.467192E-4,2.561355E-3,1.3476079E-3,0E0,0E0,0E0,0E0,0E0,0E0,0E0,0E0,0E0,0E0,0E0,0E0,0E0,0E0],"parents":[2147483647,0,0,1,1,2,2,4,4,5,5,6,6,7,7,8,8,11,11,12,12,13,13,14,14,15,15,16,16,17,17,18,18],"right_children":[2,4,6,-1,8,10,12,14,16,-1,-1,18,20,22,24,26,28,30,32,-1,-1,-1,-1,-1,-1,-1,-1,-1,-1,-1,-1,-1,-1],"split_conditions":[1.16805E1,2.41E0,6.25E1,1.9079454E-2,2.924E1,1.28285E1,1.47263E1,1.15E2,6.5288E0,1.8817103E-2,9.792552E-3,-5.43E-1,-1.89E0,1.4E0,4.15E5,2.5662E0,6.4E0,4.61E0,9.55E1,1.3214879E-2,7.3765703E-3,-1.3070301E-2,-2.4505535E-2,2.6853671E-3,-3.2889904E-3,-5.8085537E-3,4.941866E-3,1.1095042E-2,1.9634191E-2,-0E0,8.343528E-3,-1.6896378E-3,2.991134E-3],"split_indices":[0,12,11,0,5,0,0,11,3,0,0,18,5,0,6,0,2,8,15,0,0,0,0,0,0,0,0,0,0,0,0,0,0],"split_type":[0,0,0,0,0,0,0,0,0,0,0,0,0,0,0,0,0,0,0,0,0,0,0,0,0,0,0,0,0,0,0,0,0],"sum_hessian":[1.35E2,1.12E2,2.3E1,2E0,1.1E2,2E0,2.1E1,1.01E2,9E0,1E0,1E0,1.7E1,4E0,3E0,9.8E1,6E0,3E0,5E0,1.2E1,2E0,2E0,2E0,1E0,2.4E1,7.4E1,1E0,5E0,2E0,1E0,1E0,4E0,1E0,1.1E1],"tree_param":{"num_deleted":"0","num_feature":"23","num_nodes":"33","size_leaf_vector":"1"}},{"base_weights":[1.07105014E-4,-1.576017E-2,2.8055701E-3,2.905714E-2,1.0932422E-3,-5.8868765E-3,3.6221743E-2,1.6537583E-2,-8.351632E-3,8.285666E-2,2.5340753E-2,-5.177102E-4,-9.883683E-3,1.636136E-2,9.092353E-3,4.8954254E-3,-1.4065839E-3],"categories":[],"categories_nodes":[],"categories_segments":[],"categories_sizes":[],"default_left":[0,0,0,0,0,0,0,0,0,0,0,0,0,0,0,0,0],"id":36,"left_children":[1,-1,3,-1,5,7,9,-1,11,13,15,-1,-1,-1,-1,-1,-1],"loss_changes":[4.1869722E-2,0E0,4.666081E-2,0E0,3.2575857E-2,3.3899087E-2,1.041881E-2,0E0,3.1091383E-2,9.10867E-4,7.025677E-3,0E0,0E0,0E0,0E0,0E0,0E0],"parents":[2147483647,0,0,2,2,4,4,5,5,6,6,8,8,9,9,10,10],"right_children":[2,-1,4,-1,6,8,10,-1,12,14,16,-1,-1,-1,-1,-1,-1],"split_conditions":[-1.359E0,-1.576017E-2,-1.687E0,2.905714E-2,1.11877E1,2.41E0,1.17016E1,1.6537583E-2,4.733E2,9.365E0,1.322E1,-5.177102E-4,-9.883683E-3,1.636136E-2,9.092353E-3,4.8954254E-3,-1.4065839E-3],"split_indices":[19,0,17,0,3,12,4,0,15,2,10,0,0,0,0,0,0],"split_type":[0,0,0,0,0,0,0,0,0,0,0,0,0,0,0,0,0],"sum_hessian":[1.36E2,3E0,1.33E2,1E0,1.32E2,1.1E2,2.2E1,2E0,1.08E2,4E0,1.8E1,1.01E2,7E0,1E0,3E0,1.4E1,4E0],"tree_param":{"num_deleted":"0","num_feature":"23","num_nodes":"17","size_leaf_vector":"1"}},{"base_weights":[-2.782174E-4,-2.0456312E-2,1.4131692E-2,-2.3732746E-2,8.652684E-3,1.8416464E-2,-8.969118E-2,-8.165149E-2,-1.8908758E-2,-1.9761575E-2,2.0794768E-2,-1.6245158E-1,6.873318E-3,-1.2280084E-2,-6.4223954E-3,-3.4718625E-3,-3.671892E-2,6.389242E-2,1.1469402E-2,-1.4939051E-2,-2.7547985E-2,5.2139037E-3,-1.810894E-3,6.5858127E-3,-5.572606E-3,-5.767827E-3,1.312206E-2,-1.868618E-2,2.2741996E-3],"categories":[],"categories_nodes":[],"categories_segments":[],"categories_sizes":[],"default_left":[0,0,0,0,0,0,0,0,0,0,0,0,0,0,0,0,0,0,0,0,0,0,0,0,0,0,0,0,0],"id":37,"left_children":[1,3,5,7,-1,9,11,13,15,-1,17,19,-1,-1,-1,21,23,25,27,-1,-1,-1,-1,-1,-1,-1,-1,-1,-1],"loss_changes":[3.9026678E-2,1.5248433E-2,3.4342036E-2,1.4404543E-2,0E0,2.8559027E-2,3.2088265E-2,1.5706196E-4,1.3501462E-2,0E0,2.9255055E-2,1.4046952E-3,0E0,0E0,0E0,1.0984077E-2,8.352499E-3,4.5638196E-2,4.6993494E-2,0E0,0E0,0E0,0E0,0E0,0E0,0E0,0E0,0E0,0E0],"parents":[2147483647,0,0,1,1,2,2,3,3,5,5,6,6,7,7,8,8,10,10,11,11,15,15,16,16,17,17,18,18],"right_children":[2,4,6,8,-1,10,12,14,16,-1,18,20,-1,-1,-1,22,24,26,28,-1,-1,-1,-1,-1,-1,-1,-1,-1,-1],"split_conditions":[6.3817E0,2.5E0,1.67E0,3E5,8.652684E-3,2E0,6.622E0,6.079E0,1.697E2,-1.9761575E-2,5E0,3.8204E0,6.873318E-3,-1.2280084E-2,-6.4223954E-3,5.72E5,3.4793E0,2.112E1,1.71E5,-1.4939051E-2,-2.7547985E-2,5.2139037E-3,-1.810894E-3,6.5858127E-3,-5.572606E-3,-5.767827E-3,1.312206E-2,-1.868618E-2,2.2741996E-3],"split_indices":[0,19,19,7,0,22,0,0,15,0,20,1,0,0,0,6,1,9,6,0,0,0,0,0,0,0,0,0,0],"split_type":[0,0,0,0,0,0,0,0,0,0,0,0,0,0,0,0,0,0,0,0,0,0,0,0,0,0,0,0,0],"sum_hessian":[1.34E2,5.6E1,7.8E1,5.4E1,2E0,7.5E1,3E0,4E0,5E1,1E0,7.4E1,2E0,1E0,3E0,1E0,2.7E1,2.3E1,1.3E1,6.1E1,1E0,1E0,5E0,2.2E1,1E0,2.2E1,3E0,1E1,2E0,5.9E1],"tree_param":{"num_deleted":"0","num_feature":"23","num_nodes":"29","size_leaf_vector":"1"}},{"base_weights":[-4.0344526E-5,-1.7421683E-2,1.2583796E-2,-4.3933257E-2,-7.769569E-3,9.5287303E-4,4.5927677E-2,3.5539968E-3,-5.629531E-2,3.713248E-2,-1.4042E-2,-3.7280183E-2,1.5689658E-2,-1.6185248E-2,5.5180833E-2,1.9902668E-3,-1.6715287E-3,