{"learner":{"attributes":{"scikit_learn":"{\"_estimator_type\": \"regressor\"}"},"feature_names":["yield_lag_1","yield_lag_2","yield_lag_3","yield_rolling_3y","yield_rolling_5y","yield_mt_ha_yoy_pct","area_ha","area_lag_1","area_ha_yoy_pct","avg_temp_max_c","avg_temp_min_c","total_precip_mm","avg_et0_mm","growing_season_temp_max_c","growing_season_temp_min_c","growing_season_precip_mm","avg_temp_max_c_anomaly","total_precip_mm_anomaly","growing_season_temp_max_c_anomaly","growing_season_precip_mm_anomaly","years_since_2000","crop_year_rank","country_encoded"],"feature_types":["float","float","float","float","float","float","float","float","float","float","float","float","float","float","float","float","float","float","float","float","int","float","int"],"gradient_booster":{"model":{"cats":{"enc":[],"feature_segments":[],"sorted_idx":[]},"gbtree_model_param":{"num_parallel_tree":"1","num_trees":"500"},"iteration_indptr":[0,1,2,3,4,5,6,7,8,9,10,11,12,13,14,15,16,17,18,19,20,21,22,23,24,25,26,27,28,29,30,31,32,33,34,35,36,37,38,39,40,41,42,43,44,45,46,47,48,49,50,51,52,53,54,55,56,57,58,59,60,61,62,63,64,65,66,67,68,69,70,71,72,73,74,75,76,77,78,79,80,81,82,83,84,85,86,87,88,89,90,91,92,93,94,95,96,97,98,99,100,101,102,103,104,105,106,107,108,109,110,111,112,113,114,115,116,117,118,119,120,121,122,123,124,125,126,127,128,129,130,131,132,133,134,135,136,137,138,139,140,141,142,143,144,145,146,147,148,149,150,151,152,153,154,155,156,157,158,159,160,161,162,163,164,165,166,167,168,169,170,171,172,173,174,175,176,177,178,179,180,181,182,183,184,185,186,187,188,189,190,191,192,193,194,195,196,197,198,199,200,201,202,203,204,205,206,207,208,209,210,211,212,213,214,215,216,217,218,219,220,221,222,223,224,225,226,227,228,229,230,231,232,233,234,235,236,237,238,239,240,241,242,243,244,245,246,247,248,249,250,251,252,253,254,255,256,257,258,259,260,261,262,263,264,265,266,267,268,269,270,271,272,273,274,275,276,277,278,279,280,281,282,283,284,285,286,287,288,289,290,291,292,293,294,295,296,297,298,299,300,301,302,303,304,305,306,307,308,309,310,311,312,313,314,315,316,317,318,319,320,321,322,323,324,325,326,327,328,329,330,331,332,333,334,335,336,337,338,339,340,341,342,343,344,345,346,347,348,349,350,351,352,353,354,355,356,357,358,359,360,361,362,363,364,365,366,367,368,369,370,371,372,373,374,375,376,377,378,379,380,381,382,383,384,385,386,387,388,389,390,391,392,393,394,395,396,397,398,399,400,401,402,403,404,405,406,407,408,409,410,411,412,413,414,415,416,417,418,419,420,421,422,423,424,425,426,427,428,429,430,431,432,433,434,435,436,437,438,439,440,441,442,443,444,445,446,447,448,449,450,451,452,453,454,455,456,457,458,459,460,461,462,463,464,465,466,467,468,469,470,471,472,473,474,475,476,477,478,479,480,481,482,483,484,485,486,487,488,489,490,491,492,493,494,495,496,497,498,499,500],"tree_info":[0,0,0,0,0,0,0,0,0,0,0,0,0,0,0,0,0,0,0,0,0,0,0,0,0,0,0,0,0,0,0,0,0,0,0,0,0,0,0,0,0,0,0,0,0,0,0,0,0,0,0,0,0,0,0,0,0,0,0,0,0,0,0,0,0,0,0,0,0,0,0,0,0,0,0,0,0,0,0,0,0,0,0,0,0,0,0,0,0,0,0,0,0,0,0,0,0,0,0,0,0,0,0,0,0,0,0,0,0,0,0,0,0,0,0,0,0,0,0,0,0,0,0,0,0,0,0,0,0,0,0,0,0,0,0,0,0,0,0,0,0,0,0,0,0,0,0,0,0,0,0,0,0,0,0,0,0,0,0,0,0,0,0,0,0,0,0,0,0,0,0,0,0,0,0,0,0,0,0,0,0,0,0,0,0,0,0,0,0,0,0,0,0,0,0,0,0,0,0,0,0,0,0,0,0,0,0,0,0,0,0,0,0,0,0,0,0,0,0,0,0,0,0,0,0,0,0,0,0,0,0,0,0,0,0,0,0,0,0,0,0,0,0,0,0,0,0,0,0,0,0,0,0,0,0,0,0,0,0,0,0,0,0,0,0,0,0,0,0,0,0,0,0,0,0,0,0,0,0,0,0,0,0,0,0,0,0,0,0,0,0,0,0,0,0,0,0,0,0,0,0,0,0,0,0,0,0,0,0,0,0,0,0,0,0,0,0,0,0,0,0,0,0,0,0,0,0,0,0,0,0,0,0,0,0,0,0,0,0,0,0,0,0,0,0,0,0,0,0,0,0,0,0,0,0,0,0,0,0,0,0,0,0,0,0,0,0,0,0,0,0,0,0,0,0,0,0,0,0,0,0,0,0,0,0,0,0,0,0,0,0,0,0,0,0,0,0,0,0,0,0,0,0,0,0,0,0,0,0,0,0,0,0,0,0,0,0,0,0,0,0,0,0,0,0,0,0,0,0,0,0,0,0,0,0,0,0,0,0,0,0,0,0,0,0,0,0,0,0,0,0,0,0,0,0,0,0,0,0,0,0,0,0,0,0,0,0,0,0,0,0,0,0,0,0,0,0,0,0,0,0,0,0,0,0,0,0,0,0,0,0,0,0,0,0,0,0,0,0,0],"trees":[{"base_weights":[-3.6887887E-1,-3.0494838E0,5.341775E0,-5.8179264E0,-1.064915E0,3.7642E0,8.857737E0,-1.9973081E0,-1.2386963E0,-1.9186662E0,8.249963E-1,3.634012E-1,4.06646E0,2.7420874E0,1.4991848E0,-8.33932E-1,-3.3960652E-1,5.404656E-2,6.5503347E-1,8.155352E-1,1.2316529E0],"categories":[],"categories_nodes":[],"categories_segments":[],"categories_sizes":[],"default_left":[0,0,0,0,0,0,0,0,0,0,0,0,0,0,0,0,0,0,0,0,0],"id":0,"left_children":[1,3,5,7,9,11,13,-1,-1,15,17,-1,19,-1,-1,-1,-1,-1,-1,-1,-1],"loss_changes":[3.350654E3,8.1094275E2,3.540912E2,8.343555E1,1.4358795E2,3.0867126E1,2.160913E1,0E0,0E0,4.168016E1,2.6063286E1,0E0,4.8269653E0,0E0,0E0,0E0,0E0,0E0,0E0,0E0,0E0],"parents":[2147483647,0,0,1,1,2,2,3,3,4,4,5,5,6,6,9,9,10,10,12,12],"right_children":[2,4,6,8,10,12,14,-1,-1,16,18,-1,20,-1,-1,-1,-1,-1,-1,-1,-1],"split_conditions":[1.38568E1,8.4463E0,1.89104E1,6.0319E0,5.91E0,2.242E1,8.0856E7,-1.9973081E0,-1.2386963E0,1.10136E1,1.26693E1,3.634012E-1,-1.59E0,2.7420874E0,1.4991848E0,-8.33932E-1,-3.3960652E-1,5.404656E-2,6.5503347E-1,8.155352E-1,1.2316529E0],"split_indices":[0,0,0,1,5,9,6,0,0,0,3,0,5,0,0,0,0,0,0,0,0],"split_type":[0,0,0,0,0,0,0,0,0,0,0,0,0,0,0,0,0,0,0,0,0],"sum_hessian":[2.17E2,1.48E2,6.9E1,6.1E1,8.7E1,4.9E1,2E1,2.8E1,3.3E1,6E1,2.7E1,6E0,4.3E1,1.4E1,6E0,2.2E1,3.8E1,2E1,7E0,1.3E1,3E1],"tree_param":{"num_deleted":"0","num_feature":"23","num_nodes":"21","size_leaf_vector":"1"}},{"base_weights":[-6.0068052E-2,-2.3730502E0,4.108923E0,-4.4254646E0,-9.8435014E-1,2.9565353E0,2.0573556E0,-1.457359E0,-8.9227736E-1,-1.76716E0,-6.4254124E-3,1.3424395E0,3.4862833E0,-6.02942E-1,3.4662258E-2,-1.1470751E-1,2.8127965E-1,5.5813295E-1,-1.3564229E-1,8.594663E-1,1.3296809E0],"categories":[],"categories_nodes":[],"categories_segments":[],"categories_sizes":[],"default_left":[0,0,0,0,0,0,0,0,0,0,0,0,0,0,0,0,0,0,0,0,0],"id":1,"left_children":[1,3,5,7,9,11,-1,-1,-1,13,15,17,19,-1,-1,-1,-1,-1,-1,-1,-1],"loss_changes":[2.0522441E3,3.85015E2,2.6722522E2,3.7539307E1,6.307589E1,4.410562E1,0E0,0E0,0E0,3.617708E1,1.6034971E1,2.0838625E1,6.1192017E0,0E0,0E0,0E0,0E0,0E0,0E0,0E0,0E0],"parents":[2147483647,0,0,1,1,2,2,3,3,4,4,5,5,9,9,10,10,11,11,12,12],"right_children":[2,4,6,8,10,12,-1,-1,-1,14,16,18,20,-1,-1,-1,-1,-1,-1,-1,-1],"split_conditions":[1.41183E1,8.4463E0,1.799E1,6.5264E0,1.56E0,1.55031E1,2.0573556E0,-1.457359E0,-8.9227736E-1,6.44E-1,-1.43E-1,1.3E1,1.75146E1,-6.02942E-1,3.4662258E-2,-1.1470751E-1,2.8127965E-1,5.5813295E-1,-1.3564229E-1,8.594663E-1,1.3296809E0],"split_indices":[0,0,10,0,5,3,0,0,0,17,17,20,3,0,0,0,0,0,0,0,0],"split_type":[0,0,0,0,0,0,0,0,0,0,0,0,0,0,0,0,0,0,0,0,0],"sum_hessian":[2.11E2,1.36E2,7.5E1,5.4E1,8.2E1,5.7E1,1.8E1,3E1,2.4E1,4.5E1,3.7E1,1.5E1,4.2E1,3.7E1,8E0,2.7E1,1E1,1.1E1,4E0,3.5E1,7E0],"tree_param":{"num_deleted":"0","num_feature":"23","num_nodes":"21","size_leaf_vector":"1"}},{"base_weights":[-1.1059029E-1,-2.0106118E0,2.6356964E0,-3.1236372E0,-6.810995E-1,1.8284023E0,1.638388E0,-2.354282E0,-1.0653136E0,-5.95868E-1,-4.9333015E-1,7.6134825E-1,2.428135E0,-7.1906376E-1,-3.8465515E-1,-2.8434858E-1,-1.3216522E-2,-4.6678267E-2,3.3191255E-1,4.2463544E-1,8.1830746E-1],"categories":[],"categories_nodes":[],"categories_segments":[],"categories_sizes":[],"default_left":[0,0,0,0,0,0,0,0,0,0,0,0,0,0,0,0,0,0,0,0,0],"id":2,"left_children":[1,3,5,7,9,11,-1,13,-1,-1,15,17,19,-1,-1,-1,-1,-1,-1,-1,-1],"loss_changes":[1.0584415E3,1.7463983E2,2.0749597E2,2.6163391E1,1.384601E1,4.1039505E1,0E0,3.6327667E0,0E0,0E0,1.1800063E1,1.0930802E1,1.4958801E1,0E0,0E0,0E0,0E0,0E0,0E0,0E0,0E0],"parents":[2147483647,0,0,1,1,2,2,3,3,4,4,5,5,7,7,10,10,11,11,12,12],"right_children":[2,4,6,8,10,12,-1,14,-1,-1,16,18,20,-1,-1,-1,-1,-1,-1,-1,-1],"split_conditions":[1.21571E1,9.4534E0,1.98367E1,6E0,-1.215E0,1.49907E1,1.638388E0,6.16E0,-1.0653136E0,-5.95868E-1,1.11102E1,-5.77E0,-1.36E0,-7.1906376E-1,-3.8465515E-1,-2.8434858E-1,-1.3216522E-2,-4.6678267E-2,3.3191255E-1,4.2463544E-1,8.1830746E-1],"split_indices":[3,0,0,22,18,3,0,5,0,0,3,5,5,0,0,0,0,0,0,0,0],"split_type":[0,0,0,0,0,0,0,0,0,0,0,0,0,0,0,0,0,0,0,0,0],"sum_hessian":[2.01E2,1.19E2,8.2E1,6.4E1,5.5E1,6.7E1,1.5E1,3.3E1,3.1E1,5E0,5E1,2.5E1,4.2E1,2.5E1,8E0,2.2E1,2.8E1,8E0,1.7E1,1.7E1,2.5E1],"tree_param":{"num_deleted":"0","num_feature":"23","num_nodes":"21","size_leaf_vector":"1"}},{"base_weights":[1.4470465E-1,-3.377243E-1,4.7470527E0,-1.3920432E0,1.0955054E0,1.8621702E0,3.1800783E0,-8.0719966E-1,-2.6734142E0,1.8868704E-1,1.7778594E0,9.965226E-1,4.943878E-1,-1.4401607E-2,-3.4883317E-1,-8.2953405E-1,-5.135496E-2,-1.4650682E-1,2.0426042E-1,3.4885785E-1,6.612156E-1],"categories":[],"categories_nodes":[],"categories_segments":[],"categories_sizes":[],"default_left":[0,0,0,0,0,0,0,0,0,0,0,0,0,0,0,0,0,0,0,0,0],"id":3,"left_children":[1,3,5,7,9,-1,11,13,15,17,19,-1,-1,-1,-1,-1,-1,-1,-1,-1,-1],"loss_changes":[4.663612E2,2.8847903E2,3.950238E1,7.9597015E1,4.9323845E1,0E0,3.360443E-1,2.5865402E1,2.5728561E1,1.45356655E1,1.0887711E1,0E0,0E0,0E0,0E0,0E0,0E0,0E0,0E0,0E0,0E0],"parents":[2147483647,0,0,1,1,2,2,3,3,4,4,6,6,7,7,8,8,9,9,10,10],"right_children":[2,4,6,8,10,-1,12,14,16,18,20,-1,-1,-1,-1,-1,-1,-1,-1,-1,-1],"split_conditions":[2.794E1,1.18887E1,8E0,9E0,1.4266E1,1.8621702E0,2.16833E1,4E0,2.92E1,-3.62E0,1.66493E1,9.965226E-1,4.943878E-1,-1.4401607E-2,-3.4883317E-1,-8.2953405E-1,-5.135496E-2,-1.4650682E-1,2.0426042E-1,3.4885785E-1,6.612156E-1],"split_indices":[9,1,21,22,2,0,2,22,13,5,2,0,0,0,0,0,0,0,0,0,0],"split_type":[0,0,0,0,0,0,0,0,0,0,0,0,0,0,0,0,0,0,0,0,0],"sum_hessian":[2.08E2,1.89E2,1.9E1,1.09E2,8E1,7E0,1.2E1,7.6E1,3.3E1,3.5E1,4.5E1,8E0,4E0,2.9E1,4.7E1,2.9E1,4E0,1.5E1,2E1,2.6E1,1.9E1],"tree_param":{"num_deleted":"0","num_feature":"23","num_nodes":"21","size_leaf_vector":"1"}},{"base_weights":[1.790231E-2,-8.744633E-1,1.6704019E0,-1.8759396E0,-3.319816E-1,1.1014518E0,3.6805525E0,-2.0349116E0,-2.0711382E-1,-1.8607366E0,-1.7069748E-1,-6.176565E-1,1.3663796E0,1.1352514E0,5.135814E-1,-5.946921E-1,-3.4741476E-1,-2.1987902E-1,-7.0189846E-1,3.656346E-1,-8.245782E-2,2.0940285E-2,4.17757E-1],"categories":[],"categories_nodes":[],"categories_segments":[],"categories_sizes":[],"default_left":[0,0,0,0,0,0,0,0,0,0,0,0,0,0,0,0,0,0,0,0,0,0,0],"id":4,"left_children":[1,3,5,7,9,11,13,15,-1,17,19,-1,21,-1,-1,-1,-1,-1,-1,-1,-1,-1,-1],"loss_changes":[3.3174646E2,7.8207245E1,8.543327E1,7.103348E0,2.290223E1,5.8145363E1,4.4658813E0,5.379944E-1,0E0,3.7899323E0,1.6743832E1,0E0,1.0247406E1,0E0,0E0,0E0,0E0,0E0,0E0,0E0,0E0,0E0,0E0],"parents":[2147483647,0,0,1,1,2,2,3,3,4,4,5,5,6,6,7,7,9,9,10,10,12,12],"right_children":[2,4,6,8,10,12,14,16,-1,18,20,-1,22,-1,-1,-1,-1,-1,-1,-1,-1,-1,-1],"split_conditions":[1.27816E1,8.2907E0,4.77E0,1.3E1,3.52E0,-1.828E1,1.7E1,7.9135E0,-2.0711382E-1,2.016E1,7.651E7,-6.176565E-1,-8.42E0,1.1352514E0,5.135814E-1,-5.946921E-1,-3.4741476E-1,-2.1987902E-1,-7.0189846E-1,3.656346E-1,-8.245782E-2,2.0940285E-2,4.17757E-1],"split_indices":[4,4,12,5,12,5,21,4,0,9,7,0,5,0,0,0,0,0,0,0,0,0,0],"split_type":[0,0,0,0,0,0,0,0,0,0,0,0,0,0,0,0,0,0,0,0,0,0,0],"sum_hessian":[2.23E2,1.45E2,7.8E1,5E1,9.5E1,6.2E1,1.6E1,4.3E1,7E0,8E0,8.7E1,4E0,5.8E1,1.2E1,4E0,3.6E1,7E0,4E0,4E0,6E0,8.1E1,6E0,5.2E1],"tree_param":{"num_deleted":"0","num_feature":"23","num_nodes":"23","size_leaf_vector":"1"}},{"base_weights":[7.0680425E-2,-1.7608543E-1,3.332915E0,-7.620996E-1,5.9616023E-1,3.7646943E-1,4.1005306E0,-4.6388415E-1,-1.4690791E0,-6.0678303E-1,7.84486E-1,6.102805E-1,1.474468E0,-5.9595276E-2,-3.1301066E-1,-0E0,-4.6135888E-1,1.535361E-1,3.8412774E-1],"categories":[],"categories_nodes":[],"categories_segments":[],"categories_sizes":[],"default_left":[0,0,0,0,0,0,0,0,0,0,0,0,0,0,0,0,0,0,0],"id":5,"left_children":[1,3,5,7,9,-1,11,13,15,-1,17,-1,-1,-1,-1,-1,-1,-1,-1],"loss_changes":[1.8232147E2,9.546132E1,1.7751083E1,2.4218857E1,4.897444E1,0E0,1.273613E1,1.3702848E1,1.0301804E1,0E0,1.0766693E1,0E0,0E0,0E0,0E0,0E0,0E0,0E0,0E0],"parents":[2147483647,0,0,1,1,2,2,3,3,4,4,6,6,7,7,8,8,10,10],"right_children":[2,4,6,8,10,-1,12,14,16,-1,18,-1,-1,-1,-1,-1,-1,-1,-1],"split_conditions":[4.87E0,1.1858E1,-2E0,6.564E2,-1.898E1,3.7646943E-1,4.99E0,8.3633E8,1.186E1,-6.0678303E-1,1.66493E1,6.102805E-1,1.474468E0,-5.9595276E-2,-3.1301066E-1,-0E0,-4.6135888E-1,1.535361E-1,3.8412774E-1],"split_indices":[12,3,5,11,5,0,12,6,14,0,2,0,0,0,0,0,0,0,0],"split_type":[0,0,0,0,0,0,0,0,0,0,0,0,0,0,0,0,0,0,0],"sum_hessian":[2.24E2,2.09E2,1.5E1,1.19E2,9E1,5E0,1E1,8.5E1,3.4E1,5E0,8.5E1,5E0,5E0,6.3E1,2.2E1,4E0,3E1,6.3E1,2.2E1],"tree_param":{"num_deleted":"0","num_feature":"23","num_nodes":"19","size_leaf_vector":"1"}},{"base_weights":[6.3771024E-2,-9.225736E-1,7.302894E-1,1.2401044E-1,-9.981879E-1,3.0666533E-1,1.4570992E0,-1.114352E0,-2.8983834E-1,-1.5840073E-1,5.8790773E-1,1.3528415E0,1.0170875E0,-3.6092678E-1,-2.4684556E-1,-1.443502E-1,3.815243E-2,2.2936579E-2,-4.1347653E-1,1.24839865E-1,4.222784E-1,3.467454E-1,-1.555534E-1],"categories":[],"categories_nodes":[],"categories_segments":[],"categories_sizes":[],"default_left":[0,0,0,0,0,0,0,0,0,0,0,0,0,0,0,0,0,0,0,0,0,0,0],"id":6,"left_children":[1,3,5,-1,7,9,11,13,15,17,19,-1,21,-1,-1,-1,-1,-1,-1,-1,-1,-1,-1],"loss_changes":[1.3859267E2,9.335655E0,3.7962418E1,0E0,6.044586E0,1.0767839E1,6.325689E1,1.3286896E0,1.4287133E0,1.0374656E1,5.4729424E0,0E0,1.6282661E1,0E0,0E0,0E0,0E0,0E0,0E0,0E0,0E0,0E0,0E0],"parents":[2147483647,0,0,1,1,2,2,4,4,5,5,6,6,7,7,8,8,9,9,10,10,12,12],"right_children":[2,4,6,-1,8,10,12,14,16,18,20,-1,22,-1,-1,-1,-1,-1,-1,-1,-1,-1,-1],"split_conditions":[1.06369E1,7.819E7,2.817E1,1.2401044E-1,9.5442E0,1.23497E1,2E0,2.1775E8,1.08345E1,8.238E2,1.73185E1,1.3528415E0,3.286E1,-3.6092678E-1,-2.4684556E-1,-1.443502E-1,3.815243E-2,2.2936579E-2,-4.1347653E-1,1.24839865E-1,4.222784E-1,3.467454E-1,-1.555534E-1],"split_indices":[0,7,13,0,0,0,20,6,1,11,0,0,13,0,0,0,0,0,0,0,0,0,0],"split_type":[0,0,0,0,0,0,0,0,0,0,0,0,0,0,0,0,0,0,0,0,0,0,0],"sum_hessian":[2.09E2,8.4E1,1.25E2,4E0,8E1,8E1,4.5E1,6.8E1,1.2E1,3E1,5E1,4E0,4.1E1,3.4E1,3.4E1,8E0,4E0,2.6E1,4E0,4.5E1,5E0,3.6E1,5E0],"tree_param":{"num_deleted":"0","num_feature":"23","num_nodes":"23","size_leaf_vector":"1"}},{"base_weights":[3.0378658E-2,-1.6420333E-1,2.0445902E0,-6.9577676E-1,2.4213012E-1,1.1003E0,9.702434E-1,-3.9028567E-1,-4.6728304E-1,-7.015745E-1,3.6994E-1,9.873139E-3,4.292141E-1,-2.522899E-1,-8.081189E-2,4.8837543E-1,6.612962E-2],"categories":[],"categories_nodes":[],"categories_segments":[],"categories_sizes":[],"default_left":[0,0,0,0,0,0,0,0,0,0,0,0,0,0,0,0,0],"id":7,"left_children":[1,3,5,7,9,11,-1,-1,13,-1,15,-1,-1,-1,-1,-1,-1],"loss_changes":[8.418597E1,4.236181E1,2.1413757E1,1.2790764E1,3.970257E1,5.7627E0,0E0,0E0,4.615818E0,0E0,1.8713703E1,0E0,0E0,0E0,0E0,0E0,0E0],"parents":[2147483647,0,0,1,1,2,2,3,3,4,4,5,5,8,8,10,10],"right_children":[2,4,6,8,10,12,-1,-1,14,-1,16,-1,-1,-1,-1,-1,-1],"split_conditions":[4.8E0,1.08066E1,7.922E2,-6.6E0,-2.313E1,3.231E1,9.702434E-1,-3.9028567E-1,5.6006E0,-7.015745E-1,-1.333E0,9.873139E-3,4.292141E-1,-2.522899E-1,-8.081189E-2,4.8837543E-1,6.612962E-2],"split_indices":[12,0,11,5,5,13,0,0,0,0,16,0,0,0,0,0,0],"split_type":[0,0,0,0,0,0,0,0,0,0,0,0,0,0,0,0,0],"sum_hessian":[2.12E2,1.94E2,1.8E1,8.4E1,1.1E2,1.2E1,6E0,1.9E1,6.5E1,4E0,1.06E2,4E0,8E0,1.7E1,4.8E1,8E0,9.8E1],"tree_param":{"num_deleted":"0","num_feature":"23","num_nodes":"17","size_leaf_vector":"1"}},{"base_weights":[6.137868E-2,1.4848642E0,-1.3005376E-1,9.001982E-1,9.0876627E-1,-4.5488173E-1,2.9029933E-1,2.5159982E-1,1.2661469E0,-5.4149115E-1,2.7276823E-1,-3.692828E-1,4.1159528E-1,9.197798E-2,2.1757185E-2,4.0779635E-1,1.6926745E-1,-4.466544E-1,-1.2201891E-1,3.9355743E-1,-1.23048164E-1,7.7723354E-2,2.8934297E-1],"categories":[],"categories_nodes":[],"categories_segments":[],"categories_sizes":[],"default_left":[0,0,0,0,0,0,0,0,0,0,0,0,0,0,0,0,0,0,0,0,0,0,0],"id":8,"left_children":[1,3,5,7,-1,9,11,13,15,17,19,-1,21,-1,-1,-1,-1,-1,-1,-1,-1,-1,-1],"loss_changes":[5.9596188E1,2.3515152E1,2.636582E1,4.3314667E0,0E0,7.062149E0,1.6820621E1,7.841229E-3,4.3713188E-1,9.493355E0,1.061005E1,0E0,5.9784355E0,0E0,0E0,0E0,0E0,0E0,0E0,0E0,0E0,0E0,0E0],"parents":[2147483647,0,0,1,1,2,2,3,3,5,5,6,6,7,7,8,8,9,9,10,10,12,12],"right_children":[2,4,6,8,-1,10,12,14,16,18,20,-1,22,-1,-1,-1,-1,-1,-1,-1,-1,-1,-1],"split_conditions":[7.3514E7,6.2521E7,1.23497E1,1.81372E1,9.0876627E-1,1.472E0,1.04719E8,1.49465E1,4.19E-1,1E0,5E0,-3.692828E-1,1.82076E1,9.197798E-2,2.1757185E-2,4.0779635E-1,1.6926745E-1,-4.466544E-1,-1.2201891E-1,3.9355743E-1,-1.23048164E-1,7.7723354E-2,2.8934297E-1],"split_indices":[6,7,0,4,0,19,7,0,16,21,21,0,0,0,0,0,0,0,0,0,0,0,0],"split_type":[0,0,0,0,0,0,0,0,0,0,0,0,0,0,0,0,0,0,0,0,0,0,0],"sum_hessian":[2.16E2,2.5E1,1.91E2,2E1,5E0,1.08E2,8.3E1,8E0,1.2E1,9.7E1,1.1E1,5E0,7.8E1,4E0,4E0,8E0,4E0,7E0,9E1,4E0,7E0,6.6E1,1.2E1],"tree_param":{"num_deleted":"0","num_feature":"23","num_nodes":"23","size_leaf_vector":"1"}},{"base_weights":[7.5194545E-2,-2.7042176E-3,6.906208E-1,-1.19786896E-1,8.757599E-1,-6.9903865E-2,-4.4650814E-1,5.436053E-1,3.851126E-1,-1.3089523E-1,2.2700958E-2,5.629331E-2,1.9203198E-1],"categories":[],"categories_nodes":[],"categories_segments":[],"categories_sizes":[],"default_left":[0,0,0,0,0,0,0,0,0,0,0,0,0],"id":9,"left_children":[1,3,-1,5,7,9,-1,11,-1,-1,-1,-1,-1],"loss_changes":[4.1773537E1,2.182821E1,0E0,1.3571192E1,3.1183834E0,1.1356743E1,0E0,5.2855873E-1,0E0,0E0,0E0,0E0,0E0],"parents":[2147483647,0,0,1,1,3,3,4,4,5,5,7,7],"right_children":[2,4,-1,6,8,10,-1,12,-1,-1,-1,-1,-1],"split_conditions":[5.03E0,1.81729E1,6.906208E-1,1.131315E9,1.285E0,-3.59E0,-4.4650814E-1,-7.99E0,3.851126E-1,-1.3089523E-1,2.2700958E-2,5.629331E-2,1.9203198E-1],"split_indices":[12,0,0,6,5,5,0,5,0,0,0,0,0],"split_type":[0,0,0,0,0,0,0,0,0,0,0,0,0],"sum_hessian":[2.18E2,2.12E2,6E0,1.88E2,2.4E1,1.83E2,5E0,1.6E1,8E0,5E1,1.33E2,6E0,1E1],"tree_param":{"num_deleted":"0","num_feature":"23","num_nodes":"13","size_leaf_vector":"1"}},{"base_weights":[4.7878586E-2,-2.6469447E-2,1.5537566E0,-2.4447322E-1,2.8628272E-1,1.5994777E-1,7.175447E-1,-4.58417E-1,-1.7398342E-1,2.4158096E-1,2.3395452E-1,-1.5813818E-2,-2.6520094E-1,3.397402E-2,1.3453615E-1],"categories":[],"categories_nodes":[],"categories_segments":[],"categories_sizes":[],"default_left":[0,0,0,0,0,0,0,0,0,0,0,0,0,0,0],"id":10,"left_children":[1,3,5,7,9,-1,-1,-1,11,13,-1,-1,-1,-1,-1],"loss_changes":[2.6011133E1,1.4982373E1,8.950432E0,1.2231016E1,1.8095322E0,0E0,0E0,0E0,1.1157067E1,2.2725825E0,0E0,0E0,0E0,0E0,0E0],"parents":[2147483647,0,0,1,1,2,2,3,3,4,4,8,8,9,9],"right_children":[2,4,6,8,10,-1,-1,-1,12,14,-1,-1,-1,-1,-1],"split_conditions":[4.93E0,1.28501E1,7.565E2,1.815E2,8.986E2,1.5994777E-1,7.175447E-1,-4.58417E-1,4.942E2,1.75305E1,2.3395452E-1,-1.5813818E-2,-2.6520094E-1,3.397402E-2,1.3453615E-1],"split_indices":[12,0,11,11,11,0,0,0,15,0,0,0,0,0,0],"split_type":[0,0,0,0,0,0,0,0,0,0,0,0,0,0,0],"sum_hessian":[2.28E2,2.18E2,1E1,1.29E2,8.9E1,6E0,4E0,5E0,1.24E2,8.4E1,5E0,1.09E2,1.5E1,5.8E1,2.6E1],"tree_param":{"num_deleted":"0","num_feature":"23","num_nodes":"15","size_leaf_vector":"1"}},{"base_weights":[1.0619789E-2,-6.000879E-1,6.3725874E-2,9.615748E-3,6.162694E-1,-2.517668E-2,4.0208897E-1,-7.590675E-2,4.7156233E-2],"categories":[],"categories_nodes":[],"categories_segments":[],"categories_sizes":[],"default_left":[0,0,0,0,0,0,0,0,0],"id":11,"left_children":[1,-1,3,5,-1,7,-1,-1,-1],"loss_changes":[2.3911291E1,0E0,2.3543613E1,1.0477345E1,0E0,9.67922E0,0E0,0E0,0E0],"parents":[2147483647,0,0,2,2,3,3,5,5],"right_children":[2,-1,4,6,-1,8,-1,-1,-1],"split_conditions":[-2.34E1,-6.000879E-1,8.52E2,3.152E1,6.162694E-1,1.15309E1,4.0208897E-1,-7.590675E-2,4.7156233E-2],"split_indices":[5,0,15,5,0,0,0,0,0],"split_type":[0,0,0,0,0,0,0,0,0],"sum_hessian":[2.09E2,4E0,2.05E2,2.01E2,4E0,1.97E2,4E0,8.7E1,1.1E2],"tree_param":{"num_deleted":"0","num_feature":"23","num_nodes":"9","size_leaf_vector":"1"}},{"base_weights":[-9.138816E-3,-5.537786E-2,4.2826936E-1,-7.82785E-1,2.6450763E-2,-3.2476544E-1,-5.136288E-1,-3.131935E-1,5.9233073E-2,-1.2831968E-1,-1.4106078E-2,-1.4639014E-2,7.536564E-2],"categories":[],"categories_nodes":[],"categories_segments":[],"categories_sizes":[],"default_left":[0,0,0,0,0,0,0,0,0,0,0,0,0],"id":12,"left_children":[1,3,-1,5,7,9,-1,-1,11,-1,-1,-1,-1],"loss_changes":[1.4760191E1,1.23271265E1,0E0,9.212062E0,6.794525E0,4.6571803E-1,0E0,0E0,4.3498363E0,0E0,0E0,0E0,0E0],"parents":[2147483647,0,0,1,1,3,3,4,4,5,5,8,8],"right_children":[2,4,-1,6,8,10,-1,-1,12,-1,-1,-1,-1],"split_conditions":[5.02E0,-1.35E1,4.2826936E-1,1.327E1,-1.687E0,-2.64E-1,-5.136288E-1,-3.131935E-1,3.74E0,-1.2831968E-1,-1.4106078E-2,-1.4639014E-2,7.536564E-2],"split_indices":[12,5,0,10,17,17,0,0,5,0,0,0,0],"split_type":[0,0,0,0,0,0,0,0,0,0,0,0,0],"sum_hessian":[2.08E2,2.03E2,5E0,2E1,1.83E2,1.5E1,5E0,4E0,1.79E2,9E0,6E0,1.17E2,6.2E1],"tree_param":{"num_deleted":"0","num_feature":"23","num_nodes":"13","size_leaf_vector":"1"}},{"base_weights":[1.4546351E-2,-4.165025E-1,5.2244175E-2,1.30492635E-2,4.3988198E-1,-1.2228571E-1,2.1209176E-1,-4.6369277E-2,2.5077122E-1,7.686097E-2,-4.804171E-2],"categories":[],"categories_nodes":[],"categories_segments":[],"categories_sizes":[],"default_left":[0,0,0,0,0,0,0,0,0,0,0],"id":13,"left_children":[1,-1,3,5,-1,7,9,-1,-1,-1,-1],"loss_changes":[1.16399975E1,0E0,1.1889097E1,5.429756E0,0E0,5.4716315E0,2.1267169E0,0E0,0E0,0E0,0E0],"parents":[2147483647,0,0,2,2,3,3,5,5,6,6],"right_children":[2,-1,4,6,-1,8,10,-1,-1,-1,-1],"split_conditions":[-2.33E1,-4.165025E-1,8.52E2,1.22866E1,4.3988198E-1,2.66E1,9.42E-1,-4.6369277E-2,2.5077122E-1,7.686097E-2,-4.804171E-2],"split_indices":[5,0,15,0,0,5,16,0,0,0,0],"split_type":[0,0,0,0,0,0,0,0,0,0,0],"sum_hessian":[2.07E2,4E0,2.03E2,1.99E2,4E0,1.18E2,8.1E1,1.14E2,4E0,7E1,1.1E1],"tree_param":{"num_deleted":"0","num_feature":"23","num_nodes":"11","size_leaf_vector":"1"}},{"base_weights":[-3.5962105E-2,4.356054E-3,-3.5138413E-1,4.0381562E-2,-6.9167256E-1,-3.5847146E-2,3.0570313E-1,-2.9967353E-1,-6.1476145E-2,-2.3723733E-2,1.3733226E-1,5.1267713E-2,2.5246453E-1],"categories":[],"categories_nodes":[],"categories_segments":[],"categories_sizes":[],"default_left":[0,0,0,0,0,0,0,0,0,0,0,0,0],"id":14,"left_children":[1,3,-1,5,7,9,11,-1,-1,-1,-1,-1,-1],"loss_changes":[1.0862595E1,5.0686116E0,0E0,4.073787E0,1.3022537E0,4.015465E0,2.88063E0,0E0,0E0,0E0,0E0,0E0,0E0],"parents":[2147483647,0,0,1,1,3,3,4,4,5,5,6,6],"right_children":[2,4,-1,6,8,10,12,-1,-1,-1,-1,-1,-1],"split_conditions":[7.993E2,1.0828E3,-3.5138413E-1,7.87E0,1.483E1,1.472E0,1.67302E1,-2.9967353E-1,-6.1476145E-2,-2.3723733E-2,1.3733226E-1,5.1267713E-2,2.5246453E-1],"split_indices":[15,11,0,5,14,19,2,0,0,0,0,0,0],"split_type":[0,0,0,0,0,0,0,0,0,0,0,0,0],"sum_hessian":[2.12E2,2.06E2,6E0,1.97E2,9E0,1.53E2,4.4E1,4E0,5E0,1.41E2,1.2E1,3.8E1,6E0],"tree_param":{"num_deleted":"0","num_feature":"23","num_nodes":"13","size_leaf_vector":"1"}},{"base_weights":[-1.9259227E-2,1.1635282E-2,-3.695541E-1,-2.697935E-2,3.1599265E-1,-5.1449336E-2,2.4684681E-1,1.2586961E-2,-6.0451534E-2],"categories":[],"categories_nodes":[],"categories_segments":[],"categories_sizes":[],"default_left":[0,0,0,0,0,0,0,0,0],"id":15,"left_children":[1,3,-1,5,-1,7,-1,-1,-1],"loss_changes":[8.710914E0,9.120017E0,0E0,4.275871E0,0E0,3.161946E0,0E0,0E0,0E0],"parents":[2147483647,0,0,1,1,3,3,5,5],"right_children":[2,4,-1,6,-1,8,-1,-1,-1],"split_conditions":[2.55147E1,7.702E2,-3.695541E-1,2.66E1,3.1599265E-1,2.727E1,2.4684681E-1,1.2586961E-2,-6.0451534E-2],"split_indices":[2,15,0,5,0,13,0,0,0],"split_type":[0,0,0,0,0,0,0,0,0],"sum_hessian":[2.06E2,2.02E2,4E0,1.96E2,6E0,1.92E2,4E0,1.21E2,7.1E1],"tree_param":{"num_deleted":"0","num_feature":"23","num_nodes":"9","size_leaf_vector":"1"}},{"base_weights":[-3.421386E-3,8.369204E-2,-5.1997644E-1,6.1098593E-1,3.999895E-2,-9.524395E-1,-1.1195351E-2,3.4195036E-1,-1.6961798E-2,6.7727E-2,-2.2624698E-1,-1.136133E-1,-5.6566215E-1,3.314659E-2,-1.3662218E-1,1.0999302E-1,2.9172024E-3,-9.564249E-2,1.442856E-2],"categories":[],"categories_nodes":[],"categories_segments":[],"categories_sizes":[],"default_left":[0,0,0,0,0,0,0,0,0,0,0,0,0,0,0,0,0,0,0],"id":16,"left_children":[1,3,5,7,9,11,13,-1,-1,15,-1,-1,-1,-1,17,-1,-1,-1,-1],"loss_changes":[9.314737E0,3.8615756E0,6.359171E0,5.7440066E0,3.7517197E0,8.079318E0,2.638557E-1,0E0,0E0,2.8966625E0,0E0,0E0,0E0,0E0,4.334612E-1,0E0,0E0,0E0,0E0],"parents":[2147483647,0,0,1,1,2,2,3,3,4,4,5,5,6,6,9,9,14,14],"right_children":[2,4,6,8,10,12,14,-1,-1,16,-1,-1,-1,-1,18,-1,-1,-1,-1],"split_conditions":[8.945E2,-1.305E0,6.44E-1,6E0,1.131315E9,5.49E-1,1.0467E3,3.4195036E-1,-1.6961798E-2,7.651E7,-2.2624698E-1,-1.136133E-1,-5.6566215E-1,3.314659E-2,7.19E-1,1.0999302E-1,2.9172024E-3,-9.564249E-2,1.442856E-2],"split_indices":[11,18,17,20,6,17,11,0,0,7,0,0,0,0,19,0,0,0,0],"split_type":[0,0,0,0,0,0,0,0,0,0,0,0,0,0,0,0,0,0,0],"sum_hessian":[2.03E2,1.74E2,2.9E1,1.2E1,1.62E2,1.5E1,1.4E1,6E0,6E0,1.58E2,4E0,1.1E1,4E0,6E0,8E0,2.2E1,1.36E2,4E0,4E0],"tree_param":{"num_deleted":"0","num_feature":"23","num_nodes":"19","size_leaf_vector":"1"}},{"base_weights":[4.41349E-2,8.989983E-1,-0E0,-1.8592004E-1,7.382564E-1,4.934105E-2,-1.3192502E-1,1.14786744E-1,-1.5937625E-1,6.220099E-2,-2.7912623E-1,1.3697813E-1,2.3999734E-2,-7.3720135E-2,4.299758E-3,5.1630575E-2,-7.89783E-2,-4.853248E-2,-2.0775415E-1],"categories":[],"categories_nodes":[],"categories_segments":[],"categories_sizes":[],"default_left":[0,0,0,0,0,0,0,0,0,0,0,0,0,0,0,0,0,0,0],"id":17,"left_children":[1,3,5,-1,-1,7,9,11,13,15,17,-1,-1,-1,-1,-1,-1,-1,-1],"loss_changes":[7.624811E0,2.96032E1,1.2715733E0,0E0,0E0,1.9729956E0,1.5771989E0,1.0170035E0,6.924123E-1,1.0146197E0,1.1844563E0,0E0,0E0,0E0,0E0,0E0,0E0,0E0,0E0],"parents":[2147483647,0,0,1,1,2,2,5,5,6,6,7,7,8,8,9,9,10,10],"right_children":[2,4,6,-1,-1,8,10,12,14,16,18,-1,-1,-1,-1,-1,-1,-1,-1],"split_conditions":[1E0,-1.43E-1,1.698E1,-1.8592004E-1,7.382564E-1,3.466E2,7.3514E7,1.12589E8,-2.05E-1,1.96E-1,2.13285E1,1.3697813E-1,2.3999734E-2,-7.3720135E-2,4.299758E-3,5.1630575E-2,-7.89783E-2,-4.853248E-2,-2.0775415E-1],"split_indices":[20,17,14,0,0,15,6,6,16,16,1,0,0,0,0,0,0,0,0],"split_type":[0,0,0,0,0,0,0,0,0,0,0,0,0,0,0,0,0,0,0],"sum_hessian":[2.04E2,9E0,1.95E2,5E0,4E0,1.43E2,5.2E1,1.1E2,3.3E1,2.2E1,3E1,6E0,1.04E2,2.1E1,1.2E1,1.7E1,5E0,2.6E1,4E0],"tree_param":{"num_deleted":"0","num_feature":"23","num_nodes":"19","size_leaf_vector":"1"}},{"base_weights":[-3.9274828E-3,-4.4168856E-2,8.044805E-1,-9.975033E-3,-3.837525E-1,4.4949695E-1,-0E0,-6.903435E-2,2.0366724E-1,-9.730806E-3,-1.6916342E-1,-5.727186E-2,1.09704666E-1],"categories":[],"categories_nodes":[],"categories_segments":[],"categories_sizes":[],"default_left":[0,0,0,0,0,0,0,0,0,0,0,0,0],"id":18,"left_children":[1,3,5,7,-1,-1,-1,9,11,-1,-1,-1,-1],"loss_changes":[6.8219438E0,9.066468E0,6.5347357E0,2.518097E0,0E0,0E0,0E0,2.754001E0,3.5020463E0,0E0,0E0,0E0,0E0],"parents":[2147483647,0,0,1,1,2,2,3,3,7,7,8,8],"right_children":[2,4,6,8,-1,-1,-1,10,12,-1,-1,-1,-1],"split_conditions":[4.93E0,2.3475E1,1.07E0,8.37E0,-3.837525E-1,4.4949695E-1,-0E0,9.37763E8,2.219E1,-9.730806E-3,-1.6916342E-1,-5.727186E-2,1.09704666E-1],"split_indices":[12,2,8,5,0,0,0,6,9,0,0,0,0],"split_type":[0,0,0,0,0,0,0,0,0,0,0,0,0],"sum_hessian":[2.13E2,2.04E2,9E0,2E2,4E0,4E0,5E0,1.58E2,4.2E1,1.5E2,8E0,1.3E1,2.9E1],"tree_param":{"num_deleted":"0","num_feature":"23","num_nodes":"13","size_leaf_vector":"1"}},{"base_weights":[-1.9268759E-2,-6.2401433E-2,5.819575E-1,-9.6293174E-2,3.1851983E-1,1.0592623E0,-5.2719824E-2,-8.024609E-1,-4.5769956E-2,2.7570173E-1,-5.480552E-2,4.4210613E-1,7.720385E-2,-5.374481E-1,-0E0,7.666818E-2,-2.3928586E-2,-5.420556E-2,2.9909538E-2],"categories":[],"categories_nodes":[],"categories_segments":[],"categories_sizes":[],"default_left":[0,0,0,0,0,0,0,0,0,0,0,0,0,0,0,0,0,0,0],"id":19,"left_children":[1,3,5,7,9,11,-1,13,15,-1,17,-1,-1,-1,-1,-1,-1,-1,-1],"loss_changes":[5.413071E0,2.546836E0,5.5151334E0,6.3379307E0,4.2818604E0,2.9020052E0,0E0,1.0846979E1,2.240455E0,0E0,2.8951514E-1,0E0,0E0,0E0,0E0,0E0,0E0,0E0,0E0],"parents":[2147483647,0,0,1,1,2,2,3,3,4,4,5,5,7,7,8,8,10,10],"right_children":[2,4,6,8,10,12,-1,14,16,-1,18,-1,-1,-1,-1,-1,-1,-1,-1],"split_conditions":[3.142E1,1.629E0,3.171E1,1E0,1.751E0,3.248E1,-5.2719824E-2,1.241E2,7.68E1,2.7570173E-1,1.695E0,4.4210613E-1,7.720385E-2,-5.374481E-1,-0E0,7.666818E-2,-2.3928586E-2,-5.420556E-2,2.9909538E-2],"split_indices":[9,19,9,20,19,13,0,15,15,0,17,0,0,0,0,0,0,0,0],"split_type":[0,0,0,0,0,0,0,0,0,0,0,0,0,0,0,0,0,0,0],"sum_hessian":[2.11E2,1.98E2,1.3E1,1.83E2,1.5E1,8E0,5E0,1.1E1,1.72E2,5E0,1E1,4E0,4E0,4E0,7E0,1.8E1,1.54E2,6E0,4E0],"tree_param":{"num_deleted":"0","num_feature":"23","num_nodes":"19","size_leaf_vector":"1"}},{"base_weights":[-2.6990417E-3,1.8626112E-2,-2.6860306E-1,3.371569E-2,-1.3186494E-1,5.770711E-1,5.3133504E-3,-3.4557108E-2,3.0709067E-1,-1.396374E-3,1.272874E-1],"categories":[],"categories_nodes":[],"categories_segments":[],"categories_sizes":[],"default_left":[0,0,0,0,0,0,0,0,0,0,0],"id":20,"left_children":[1,3,-1,5,-1,7,9,-1,-1,-1,-1],"loss_changes":[4.700145E0,1.5041742E0,0E0,3.0754695E0,0E0,4.0469236E0,1.0386014E0,0E0,0E0,0E0,0E0],"parents":[2147483647,0,0,1,1,3,3,5,5,6,6],"right_children":[2,4,-1,6,-1,8,10,-1,-1,-1,-1],"split_conditions":[2.34E1,1.134892E9,-2.6860306E-1,1E0,-1.3186494E-1,2.545E1,3.334E1,-3.4557108E-2,3.0709067E-1,-1.396374E-3,1.272874E-1],"split_indices":[14,6,0,21,0,13,5,0,0,0,0],"split_type":[0,0,0,0,0,0,0,0,0,0,0],"sum_hessian":[2.16E2,2.12E2,4E0,2.07E2,5E0,9E0,1.98E2,4E0,5E0,1.94E2,4E0],"tree_param":{"num_deleted":"0","num_feature":"23","num_nodes":"11","size_leaf_vector":"1"}},{"base_weights":[5.6057196E-2,9.114442E-1,1.0841023E-2,4.8962846E-1,5.5835326E-3,3.8178686E-2,-2.7698204E-1,-1.0408603E-1,8.587578E-2,-5.1278308E-2,5.3265993E-2,7.845473E-3,6.657141E-2],"categories":[],"categories_nodes":[],"categories_segments":[],"categories_sizes":[],"default_left":[0,0,0,0,0,0,0,0,0,0,0,0,0],"id":21,"left_children":[1,3,5,-1,-1,7,-1,9,11,-1,-1,-1,-1],"loss_changes":[7.632805E0,7.1323957E0,5.175136E0,0E0,0E0,1.2929947E0,0E0,1.1562843E0,1.2120228E0,0E0,0E0,0E0,0E0],"parents":[2147483647,0,0,1,1,2,2,5,5,7,7,8,8],"right_children":[2,4,6,-1,-1,8,-1,10,12,-1,-1,-1,-1],"split_conditions":[1E0,1.67202E8,8.52E2,4.8962846E-1,5.5835326E-3,-6.23E0,-2.7698204E-1,8.28E-1,4.18607E8,-5.1278308E-2,5.3265993E-2,7.845473E-3,6.657141E-2],"split_indices":[20,6,15,0,0,5,0,16,7,0,0,0,0],"split_type":[0,0,0,0,0,0,0,0,0,0,0,0,0],"sum_hessian":[2.02E2,9E0,1.93E2,4E0,5E0,1.89E2,4E0,4.6E1,1.43E2,3.7E1,9E0,1.06E2,3.7E1],"tree_param":{"num_deleted":"0","num_feature":"23","num_nodes":"13","size_leaf_vector":"1"}},{"base_weights":[-2.3798632E-2,-2.7134657E-1,4.712459E-2,-3.3189458E-1,-1.3553853E-1,2.779728E-1,1.0705672E-2,3.585622E-2,-1.950736E-1,-2.0161203E-1,3.4940474E-2,-1.3973998E-1,-3.464663E-2,-2.8221348E-2,2.7895488E-2],"categories":[],"categories_nodes":[],"categories_segments":[],"categories_sizes":[],"default_left":[0,0,0,0,0,0,0,0,0,0,0,0,0,0,0],"id":22,"left_children":[1,3,5,-1,7,-1,9,-1,11,-1,13,-1,-1,-1,-1],"loss_changes":[3.8531623E0,5.703925E0,5.607808E0,0E0,7.3093414E-1,0E0,2.7826498E0,0E0,6.003053E-1,0E0,1.4371578E0,0E0,0E0,0E0,0E0],"parents":[2147483647,0,0,1,1,2,2,4,4,6,6,8,8,10,10],"right_children":[2,4,6,-1,8,-1,10,-1,12,-1,14,-1,-1,-1,-1],"split_conditions":[-7.69E-1,1E0,-6.8E-1,-3.3189458E-1,-1.604E0,2.779728E-1,-2.125E1,3.585622E-2,-9.73E0,-2.0161203E-1,3.81E0,-1.3973998E-1,-3.464663E-2,-2.8221348E-2,2.7895488E-2],"split_indices":[18,20,18,0,18,0,5,0,5,0,12,0,0,0,0],"split_type":[0,0,0,0,0,0,0,0,0,0,0,0,0,0,0],"sum_hessian":[2.15E2,4.8E1,1.67E2,5E0,4.3E1,5E0,1.62E2,7E0,3.6E1,4E0,1.58E2,5E0,3.1E1,5E1,1.08E2],"tree_param":{"num_deleted":"0","num_feature":"23","num_nodes":"15","size_leaf_vector":"1"}},{"base_weights":[-1.0085349E-2,-2.4597648E-1,9.581155E-3,-1.3574065E-2,2.8164935E-1,-3.6759324E-2,3.1605506E-1,-2.142001E-1,-1.1046998E-3,-1.5099744E-2,2.6977775E-1],"categories":[],"categories_nodes":[],"categories_segments":[],"categories_sizes":[],"default_left":[0,0,0,0,0,0,0,0,0,0,0],"id":23,"left_children":[1,-1,3,5,-1,7,9,-1,-1,-1,-1],"loss_changes":[3.8785324E0,0E0,5.106909E0,1.5143478E0,0E0,4.4768424E0,3.4035034E0,0E0,0E0,0E0,0E0],"parents":[2147483647,0,0,2,2,3,3,5,5,6,6],"right_children":[2,-1,4,6,-1,8,10,-1,-1,-1,-1],"split_conditions":[-2.34E1,-2.4597648E-1,7.993E2,1.614E0,2.8164935E-1,1E0,1E1,-2.142001E-1,-1.1046998E-3,-1.5099744E-2,2.6977775E-1],"split_indices":[5,0,15,19,0,21,22,0,0,0,0],"split_type":[0,0,0,0,0,0,0,0,0,0,0],"sum_hessian":[2.12E2,4E0,2.08E2,2.04E2,4E0,1.92E2,1.2E1,7E0,1.85E2,8E0,4E0],"tree_param":{"num_deleted":"0","num_feature":"23","num_nodes":"11","size_leaf_vector":"1"}},{"base_weights":[1.6127259E-2,3.5831966E-2,-2.1974549E-1,1.3332486E-2,2.598431E-1,-1.0297483E-1,8.798127E-2,-9.6044075E-3,-1.7331077E-1,1.833084E-1,1.7439159E-2],"categories":[],"categories_nodes":[],"categories_segments":[],"categories_sizes":[],"default_left":[0,0,0,0,0,0,0,0,0,0,0],"id":24,"left_children":[1,3,-1,5,-1,7,9,-1,-1,-1,-1],"loss_changes":[3.3143666E0,4.0946727E0,0E0,1.8190054E0,0E0,2.7198696E0,1.6518899E0,0E0,0E0,0E0,0E0],"parents":[2147483647,0,0,1,1,3,3,5,5,6,6],"right_children":[2,4,-1,6,-1,8,10,-1,-1,-1,-1],"split_conditions":[8.856E2,7.702E2,-2.1974549E-1,-3.83E-1,2.598431E-1,5.414E2,1E0,-9.6044075E-3,-1.7331077E-1,1.833084E-1,1.7439159E-2],"split_indices":[15,15,0,18,0,15,20,0,0,0,0],"split_type":[0,0,0,0,0,0,0,0,0,0,0],"sum_hessian":[2.16E2,2.12E2,4E0,2.08E2,4E0,8E1,1.28E2,7.2E1,8E0,4E0,1.24E2],"tree_param":{"num_deleted":"0","num_feature":"23","num_nodes":"11","size_leaf_vector":"1"}},{"base_weights":[-1.3831769E-2,3.9668605E-3,-1.8924923E-1,-1.5786495E-2,2.01603E-1,1.0986079E-1,-3.1116357E-2,5.2842762E-2,-1.5317716E-2],"categories":[],"categories_nodes":[],"categories_segments":[],"categories_sizes":[],"default_left":[0,0,0,0,0,0,0,0,0],"id":25,"left_children":[1,3,-1,5,-1,-1,7,-1,-1],"loss_changes":[2.7255104E0,3.184069E0,0E0,1.2306199E0,0E0,0E0,1.0499465E0,0E0,0E0],"parents":[2147483647,0,0,1,1,3,3,6,6],"right_children":[2,4,-1,6,-1,-1,8,-1,-1],"split_conditions":[2.55147E1,8.52E2,-1.8924923E-1,-1.359E0,2.01603E-1,1.0986079E-1,-1.305E0,5.2842762E-2,-1.5317716E-2],"split_indices":[2,15,0,19,0,0,18,0,0],"split_type":[0,0,0,0,0,0,0,0,0],"sum_hessian":[2.15E2,2.1E2,5E0,2.05E2,5E0,6E0,1.99E2,1.8E1,1.81E2],"tree_param":{"num_deleted":"0","num_feature":"23","num_nodes":"9","size_leaf_vector":"1"}},{"base_weights":[-6.94621E-2,-4.1847713E-2,-5.4824454E-1,-3.3373255E-1,-2.7565728E-3,-2.5169343E-1,4.2521134E-3,-0E0,-8.348154E-1,1.3130233E-2,-1.6863902E-1,5.7956003E-2,-4.014692E-2,-8.160525E-2,-3.2499677E-1,4.2376723E-2,-1.1805446E-2],"categories":[],"categories_nodes":[],"categories_segments":[],"categories_sizes":[],"default_left":[0,0,0,0,0,0,0,0,0,0,0,0,0,0,0,0,0],"id":26,"left_children":[1,3,5,7,9,-1,-1,11,13,15,-1,-1,-1,-1,-1,-1,-1],"loss_changes":[2.6219463E0,2.2049205E0,2.4290144E0,3.6685557E0,1.8528396E0,0E0,0E0,4.6744967E-1,9.8002005E-1,1.3851774E0,0E0,0E0,0E0,0E0,0E0,0E0,0E0],"parents":[2147483647,0,0,1,1,2,2,3,3,4,4,7,7,8,8,9,9],"right_children":[2,4,6,8,10,-1,-1,12,14,16,-1,-1,-1,-1,-1,-1,-1],"split_conditions":[2.17731E1,-1.064E0,2.39501E1,1.18716E1,1.109049E9,-2.5169343E-1,4.2521134E-3,4.468E2,-1.452E0,-6.02E-1,-1.6863902E-1,5.7956003E-2,-4.014692E-2,-8.160525E-2,-3.2499677E-1,4.2376723E-2,-1.1805446E-2],"split_indices":[2,18,0,0,6,0,0,11,16,19,0,0,0,0,0,0,0],"split_type":[0,0,0,0,0,0,0,0,0,0,0,0,0,0,0,0,0],"sum_hessian":[2.09E2,1.99E2,1E1,2.2E1,1.77E2,6E0,4E0,1.4E1,8E0,1.73E2,4E0,5E0,9E0,4E0,4E0,5E1,1.23E2],"tree_param":{"num_deleted":"0","num_feature":"23","num_nodes":"17","size_leaf_vector":"1"}},{"base_weights":[-1.7692082E-2,-3.677594E-5,-2.1174757E-1,3.9183117E-2,-1.1828773E-1,9.0982184E-2,-1.1560417E-1,-2.546473E-1,-3.7450477E-2,4.618141E-2,-3.5893958E-2,1.4393209E-2,-9.582789E-2,-6.1380535E-2,3.508724E-2],"categories":[],"categories_nodes":[],"categories_segments":[],"categories_sizes":[],"default_left":[0,0,0,0,0,0,0,0,0,0,0,0,0,0,0],"id":27,"left_children":[1,3,-1,5,7,9,11,-1,13,-1,-1,-1,-1,-1,-1],"loss_changes":[2.8053205E0,1.0512913E0,0E0,1.3346295E0,3.4371448E0,2.12809E0,1.6603674E0,0E0,1.6447322E0,0E0,0E0,0E0,0E0,0E0,0E0],"parents":[2147483647,0,0,1,1,3,3,4,4,5,5,6,6,8,8],"right_children":[2,4,-1,6,8,10,12,-1,14,-1,-1,-1,-1,-1,-1],"split_conditions":[2.55147E1,4.39E-1,-2.1174757E-1,7.589E2,4E0,2.425E1,1.8266E8,-2.546473E-1,1.08066E1,4.618141E-2,-3.5893958E-2,1.4393209E-2,-9.582789E-2,-6.1380535E-2,3.508724E-2],"split_indices":[1,18,0,11,21,9,6,0,0,0,0,0,0,0,0],"split_type":[0,0,0,0,0,0,0,0,0,0,0,0,0,0,0],"sum_hessian":[2.25E2,2.21E2,4E0,1.65E2,5.6E1,1.25E2,4E1,4E0,5.2E1,9.4E1,3.1E1,2.3E1,1.7E1,2.5E1,2.7E1],"tree_param":{"num_deleted":"0","num_feature":"23","num_nodes":"15","size_leaf_vector":"1"}},{"base_weights":[-6.422568E-2,-8.796099E-1,-1.7771961E-2,-0E0,-3.877196E-1,-1.7738787E-3,-1.658857E-1,-3.6693104E-2,1.7611298E-1,9.270155E-4,-5.6234494E-2,1.4232023E-1,2.3292629E-2],"categories":[],"categories_nodes":[],"categories_segments":[],"categories_sizes":[],"default_left":[0,0,0,0,0,0,0,0,0,0,0,0,0],"id":28,"left_children":[1,3,5,-1,-1,7,-1,9,11,-1,-1,-1,-1],"loss_changes":[7.6601562E0,5.100436E0,1.7032218E0,0E0,0E0,1.1793638E0,0E0,1.1360776E0,7.8670764E-1,0E0,0E0,0E0,0E0],"parents":[2147483647,0,0,1,1,2,2,5,5,7,7,8,8],"right_children":[2,4,6,-1,-1,8,-1,10,12,-1,-1,-1,-1],"split_conditions":[1E0,2.112E1,8.52E2,-0E0,-3.877196E-1,1.73381E1,-1.658857E-1,1.33601E1,2.847E1,9.270155E-4,-5.6234494E-2,1.4232023E-1,2.3292629E-2],"split_indices":[20,9,15,0,0,0,0,4,13,0,0,0,0],"split_type":[0,0,0,0,0,0,0,0,0,0,0,0,0],"sum_hessian":[2.07E2,1E1,1.97E2,4E0,6E0,1.93E2,4E0,1.63E2,3E1,1.31E2,3.2E1,5E0,2.5E1],"tree_param":{"num_deleted":"0","num_feature":"23","num_nodes":"13","size_leaf_vector":"1"}},{"base_weights":[-0E0,3.071514E-1,-4.0855527E-2,7.186581E-2,3.4667802E-1,-2.4753433E-2,-1.7130779E-1,1.939825E-1,-4.7017124E-2,-3.8924488E-1,1.7936756E-4,-0E0,1.0126691E-1,-4.9857646E-2,5.9401686E-3,-2.1482136E-2,-2.3150729E-1,1.3824004E-1,-5.068541E-3],"categories":[],"categories_nodes":[],"categories_segments":[],"categories_sizes":[],"default_left":[0,0,0,0,0,0,0,0,0,0,0,0,0,0,0,0,0,0,0],"id":29,"left_children":[1,3,5,7,-1,9,-1,11,13,15,17,-1,-1,-1,-1,-1,-1,-1,-1],"loss_changes":[2.7748299E0,5.3763494E0,1.671906E0,3.5975587E-1,0E0,1.8405716E0,0E0,4.7589827E-1,1.3847262E-1,1.5326992E0,1.7817674E0,0E0,0E0,0E0,0E0,0E0,0E0,0E0,0E0],"parents":[2147483647,0,0,1,1,2,2,3,3,5,5,7,7,8,8,9,9,10,10],"right_children":[2,4,6,8,-1,10,-1,12,14,16,18,-1,-1,-1,-1,-1,-1,-1,-1],"split_conditions":[7.3514E7,6.6E7,2.24367E1,1.028E2,3.4667802E-1,1.02728E8,-1.7130779E-1,1.778E1,2.12295E1,8.4125E7,1.10623E8,-0E0,1.0126691E-1,-4.9857646E-2,5.9401686E-3,-2.1482136E-2,-2.3150729E-1,1.3824004E-1,-5.068541E-3],"split_indices":[6,7,2,11,0,6,0,10,0,6,6,0,0,0,0,0,0,0,0],"split_type":[0,0,0,0,0,0,0,0,0,0,0,0,0,0,0,0,0,0,0],"sum_hessian":[2.21E2,2.5E1,1.96E2,2.1E1,4E0,1.92E2,4E0,1.1E1,1E1,1.2E1,1.8E2,5E0,6E0,4E0,6E0,8E0,4E0,6E0,1.74E2],"tree_param":{"num_deleted":"0","num_feature":"23","num_nodes":"19","size_leaf_vector":"1"}},{"base_weights":[1.8276528E-2,6.8431246E-1,-9.594021E-3,-1.0374617E-1,4.599876E-1,-2.2483539E-2,1.3162275E-1,-4.6398924E-3,-3.1344184E-1,-1.0917484E-2,6.1150707E-2,-1.8764894E-1,1.7009795E-2],"categories":[],"categories_nodes":[],"categories_segments":[],"categories_sizes":[],"default_left":[0,0,0,0,0,0,0,0,0,0,0,0,0],"id":30,"left_children":[1,3,5,-1,-1,7,-1,9,11,-1,-1,-1,-1],"loss_changes":[4.1284466E0,1.0081644E1,1.1943918E0,0E0,0E0,9.7570956E-1,0E0,1.4696609E0,1.6656333E0,0E0,0E0,0E0,0E0],"parents":[2147483647,0,0,1,1,2,2,5,5,7,7,8,8],"right_children":[2,4,6,-1,-1,8,-1,10,12,-1,-1,-1,-1],"split_conditions":[1E0,2.285E1,1.135229E9,-1.0374617E-1,4.599876E-1,2.16377E1,1.3162275E-1,1.73894E1,2.39501E1,-1.0917484E-2,6.1150707E-2,-1.8764894E-1,1.7009795E-2],"split_indices":[20,9,7,0,0,4,0,0,0,0,0,0,0],"split_type":[0,0,0,0,0,0,0,0,0,0,0,0,0],"sum_hessian":[2.13E2,8E0,2.05E2,4E0,4E0,2.01E2,4E0,1.91E2,1E1,1.67E2,2.4E1,5E0,5E0],"tree_param":{"num_deleted":"0","num_feature":"23","num_nodes":"13","size_leaf_vector":"1"}},{"base_weights":[7.821877E-3,7.584635E-2,-1.01744466E-1,2.9203355E-1,1.9715074E-2,-4.415554E-1,-7.554062E-4,1.664779E-1,-5.2899413E-2,2.6080805E-1,-8.412524E-2,8.639916E-2,2.5924407E-2,4.6887025E-3,-5.809402E-2,1.0960532E-1,-0E0,-1.735736E-1,-8.311716E-3],"categories":[],"categories_nodes":[],"categories_segments":[],"categories_sizes":[],"default_left":[0,0,0,0,0,0,0,0,0,0,0,0,0,0,0,0,0,0,0],"id":31,"left_children":[1,3,5,-1,7,-1,9,11,13,15,17,-1,-1,-1,-1,-1,-1,-1,-1],"loss_changes":[1.5734466E0,6.9804993E0,1.1678911E1,0E0,1.375666E0,0E0,1.6364897E0,3.368913E-1,9.6458256E-1,6.4561844E-1,1.5648768E0,0E0,0E0,0E0,0E0,0E0,0E0,0E0,0E0],"parents":[2147483647,0,0,1,1,2,2,4,4,6,6,7,7,8,8,9,9,10,10],"right_children":[2,4,6,-1,8,-1,10,12,14,16,18,-1,-1,-1,-1,-1,-1,-1,-1],"split_conditions":[1.564E1,1E0,1E0,2.9203355E-1,7E0,-4.415554E-1,8.193E0,1.796E2,8E0,-5.1E-1,-1.694E1,8.639916E-2,2.5924407E-2,4.6887025E-3,-5.809402E-2,1.0960532E-1,-0E0,-1.735736E-1,-8.311716E-3],"split_indices":[14,20,20,0,20,0,2,15,22,8,5,0,0,0,0,0,0,0,0],"split_type":[0,0,0,0,0,0,0,0,0,0,0,0,0,0,0,0,0,0,0],"sum_hessian":[2.1E2,1.31E2,7.9E1,6E0,1.25E2,4E0,7.5E1,4.2E1,8.3E1,1.7E1,5.8E1,1.2E1,3E1,5.7E1,2.6E1,1.1E1,6E0,4E0,5.4E1],"tree_param":{"num_deleted":"0","num_feature":"23","num_nodes":"19","size_leaf_vector":"1"}},{"base_weights":[-2.6473774E-2,-1.3211916E-1,2.921694E-4,1.0333108E-2,-3.326165E-1,2.3891431E-1,-2.5157075E-2,-5.2861843E-2,7.7534646E-2,-4.4976133E-1,1.0918925E-2,8.184836E-2,1.17053695E-1,-2.4805777E-1,2.1656398E-2,-1.0350352E-2,4.2645052E-2,-6.453042E-2,-2.2192717E-1,-1.3249064E-3,5.362775E-2,4.1322768E-2,-9.8440416E-2,4.1971397E-2,-1.215341E-2],"categories":[],"categories_nodes":[],"categories_segments":[],"categories_sizes":[],"default_left":[0,0,0,0,0,0,0,0,0,0,0,0,0,0,0,0,0,0,0,0,0,0,0,0,0],"id":32,"left_children":[1,3,5,7,9,11,13,-1,15,17,-1,19,-1,21,23,-1,-1,-1,-1,-1,-1,-1,-1,-1,-1],"loss_changes":[6.2037295E-1,1.330083E0,1.0611373E0,3.386579E-1,9.3330884E-1,3.4249073E-1,1.6202025E0,0E0,2.1492696E-1,7.317507E-1,0E0,1.4883226E-1,0E0,1.2405597E0,1.0836555E0,0E0,0E0,0E0,0E0,0E0,0E0,0E0,0E0,0E0,0E0],"parents":[2147483647,0,0,1,1,2,2,3,3,4,4,5,5,6,6,8,8,9,9,11,11,13,13,14,14],"right_children":[2,4,6,8,10,12,14,-1,16,18,-1,20,-1,22,24,-1,-1,-1,-1,-1,-1,-1,-1,-1,-1],"split_conditions":[1.0982E8,-3.2E-2,9.22E1,-4.17E0,4.6E-1,2.3E-1,1.413E2,-5.2861843E-2,-5.58E-1,2.7E1,1.0918925E-2,3.7919E8,1.17053695E-1,6.4724E0,7E0,-1.0350352E-2,4.2645052E-2,-6.453042E-2,-2.2192717E-1,-1.3249064E-3,5.362775E-2,4.1322768E-2,-9.8440416E-2,4.1971397E-2,-1.215341E-2],"split_indices":[6,17,15,8,16,8,15,0,16,9,0,6,0,4,20,0,0,0,0,0,0,0,0,0,0],"split_type":[0,0,0,0,0,0,0,0,0,0,0,0,0,0,0,0,0,0,0,0,0,0,0,0,0],"sum_hessian":[2.08E2,4.3E1,1.65E2,2.5E1,1.8E1,1.6E1,1.49E2,5E0,2E1,1.4E1,4E0,1E1,6E0,2.6E1,1.23E2,7E0,1.3E1,1E1,4E0,5E0,5E0,5E0,2.1E1,4.2E1,8.1E1],"tree_param":{"num_deleted":"0","num_feature":"23","num_nodes":"25","size_leaf_vector":"1"}},{"base_weights":[4.698283E-2,5.2543247E-1,1.724663E-2,-5.962911E-2,4.6104294E-1,-1.8748576E-2,1.1732025E-1,-6.1653588E-2,1.24722056E-1,2.1914966E-1,-0E0,8.6551815E-2,-2.2110991E-2,-3.0453425E-2,7.131212E-2,3.325828E-2,1.516957E-1,3.4563754E-2,-1.0057145E-2],"categories":[],"categories_nodes":[],"categories_segments":[],"categories_sizes":[],"default_left":[0,0,0,0,0,0,0,0,0,0,0,0,0,0,0,0,0,0,0],"id":33,"left_children":[1,3,5,-1,-1,7,9,11,13,15,17,-1,-1,-1,-1,-1,-1,-1,-1],"loss_changes":[2.8850996E0,1.0708309E1,7.479159E-1,0E0,0E0,8.9743304E-1,6.3329E-1,7.495258E-1,1.083195E0,7.307358E-1,1.352801E-1,0E0,0E0,0E0,0E0,0E0,0E0,0E0,0E0],"parents":[2147483647,0,0,1,1,2,2,5,5,6,6,7,7,8,8,9,9,10,10],"right_children":[2,4,6,-1,-1,8,10,12,14,16,18,-1,-1,-1,-1,-1,-1,-1,-1],"split_conditions":[1E0,2.285E1,4.23907E8,-5.962911E-2,4.6104294E-1,5.72E-1,-4.8E-1,3.6E1,1.149E1,1.14982E1,6E0,8.6551815E-2,-2.2110991E-2,-3.0453425E-2,7.131212E-2,3.325828E-2,1.516957E-1,3.4563754E-2,-1.0057145E-2],"split_indices":[21,9,7,0,0,17,8,15,10,0,21,0,0,0,0,0,0,0,0],"split_type":[0,0,0,0,0,0,0,0,0,0,0,0,0,0,0,0,0,0,0],"sum_hessian":[2.11E2,1.1E1,2E2,7E0,4E0,1.46E2,5.4E1,1.14E2,3.2E1,2.8E1,2.6E1,4E0,1.1E2,1.1E1,2.1E1,2.3E1,5E0,6E0,2E1],"tree_param":{"num_deleted":"0","num_feature":"23","num_nodes":"19","size_leaf_vector":"1"}},{"base_weights":[-1.3396655E-2,-1.7014289E-1,3.5261743E-2,-4.1368636E-1,-2.6202217E-2,6.159632E-1,-9.493766E-4,7.227424E-2,-1.0094944E-1,-1.2058932E-1,3.9666474E-1,1.08672185E-2,-1.124654E-1,4.7754627E-2,-1.9679215E-2,-9.008101E-2,-1.5111518E-3,-1.0648253E-2,2.7259406E-2],"categories":[],"categories_nodes":[],"categories_segments":[],"categories_sizes":[],"default_left":[0,0,0,0,0,0,0,0,0,0,0,0,0,0,0,0,0,0,0],"id":34,"left_children":[1,3,5,-1,7,9,11,13,15,-1,-1,17,-1,-1,-1,-1,-1,-1,-1],"loss_changes":[1.6674399E0,9.5070715E0,3.5644379E0,0E0,3.6599272E-1,9.306449E0,8.2889354E-1,3.1960538E-1,5.432038E-1,0E0,0E0,6.6330266E-1,0E0,0E0,0E0,0E0,0E0,0E0,0E0],"parents":[2147483647,0,0,1,1,2,2,4,4,5,5,6,6,7,7,8,8,11,11],"right_children":[2,4,6,-1,8,10,12,14,16,-1,-1,18,-1,-1,-1,-1,-1,-1,-1],"split_conditions":[1.241E2,1E0,1E0,-4.1368636E-1,-4.95E-1,2.174E1,2.339E1,4.19E-1,-5E-1,-1.2058932E-1,3.9666474E-1,-5.1E-2,-1.124654E-1,4.7754627E-2,-1.9679215E-2,-9.008101E-2,-1.5111518E-3,-1.0648253E-2,2.7259406E-2],"split_indices":[15,21,21,0,17,9,14,16,16,0,0,16,0,0,0,0,0,0,0],"split_type":[0,0,0,0,0,0,0,0,0,0,0,0,0,0,0,0,0,0,0],"sum_hessian":[2.13E2,5.1E1,1.62E2,4E0,4.7E1,9E0,1.53E2,1.9E1,2.8E1,4E0,5E0,1.49E2,4E0,1.2E1,7E0,7E0,2.1E1,9.4E1,5.5E1],"tree_param":{"num_deleted":"0","num_feature":"23","num_nodes":"19","size_leaf_vector":"1"}},{"base_weights":[2.662499E-3,-1.3613971E-2,1.7010409E-1,-3.8395104E-1,7.635872E-3,5.5639435E-2,-2.89644E-1,1.6392943E-1,-1.2502406E-2,1.6963145E-2,1.0406819E-1,-9.015252E-3,3.700228E-2],"categories":[],"categories_nodes":[],"categories_segments":[],"categories_sizes":[],"default_left":[0,0,0,0,0,0,0,0,0,0,0,0,0],"id":35,"left_children":[1,3,-1,5,7,-1,-1,9,11,-1,-1,-1,-1],"loss_changes":[2.2698581E0,1.7312608E0,0E0,4.9939404E0,6.588229E-1,0E0,0E0,4.0074265E-1,4.9273774E-1,0E0,0E0,0E0,0E0],"parents":[2147483647,0,0,1,1,3,3,4,4,7,7,8,8],"right_children":[2,4,-1,6,8,-1,-1,10,12,-1,-1,-1,-1],"split_conditions":[7.993E2,1E0,1.7010409E-1,1.527E1,2.79E2,5.5639435E-2,-2.89644E-1,2.15169E8,1.578E1,1.6963145E-2,1.0406819E-1,-9.015252E-3,3.700228E-2],"split_indices":[15,21,0,14,11,0,0,6,5,0,0,0,0],"split_type":[0,0,0,0,0,0,0,0,0,0,0,0,0],"sum_hessian":[2.13E2,2.08E2,5E0,1.1E1,1.97E2,6E0,5E0,2.3E1,1.74E2,1.7E1,6E0,1.55E2,1.9E1],"tree_param":{"num_deleted":"0","num_feature":"23","num_nodes":"13","size_leaf_vector":"1"}},{"base_weights":[1.3285023E-2,5.378417E-4,1.1714847E-1,1.8867642E-2,-2.2382405E-1,3.9709978E-2,-2.0359711E-1,-0E0,-3.1415543E-1,1.4110419E-2,-7.1811214E-2,5.950743E-3,-1.7307931E-1,-3.2159E-2,-1.3527675E-1],"categories":[],"categories_nodes":[],"categories_segments":[],"categories_sizes":[],"default_left":[0,0,0,0,0,0,0,0,0,0,0,0,0,0,0],"id":36,"left_children":[1,3,-1,5,7,9,11,-1,13,-1,-1,-1,-1,-1,-1],"loss_changes":[1.0212277E0,8.171951E-1,0E0,8.745878E-1,3.3068496E-1,5.674964E-1,1.6562185E0,0E0,1.8853807E-1,0E0,0E0,0E0,0E0,0E0,0E0],"parents":[2147483647,0,0,1,1,3,3,4,4,5,5,6,6,8,8],"right_children":[2,4,-1,6,8,10,12,-1,14,-1,-1,-1,-1,-1,-1],"split_conditions":[5.03E0,1.88571E1,1.1714847E-1,9.37763E8,9E0,1.2934E3,3.88E0,-0E0,2.14114E1,1.4110419E-2,-7.1811214E-2,5.950743E-3,-1.7307931E-1,-3.2159E-2,-1.3527675E-1],"split_indices":[12,4,0,6,21,11,12,0,4,0,0,0,0,0,0],"split_type":[0,0,0,0,0,0,0,0,0,0,0,0,0,0,0],"sum_hessian":[2.13E2,2.08E2,5E0,1.94E2,1.4E1,1.79E2,1.5E1,4E0,1E1,1.74E2,5E0,1E1,5E0,6E0,4E0],"tree_param":{"num_deleted":"0","num_feature":"23","num_nodes":"15","size_leaf_vector":"1"}},{"base_weights":[-0E0,5.2331966E-1,-2.2487586E-2,-4.411312E-2,3.1951064E-1,-1.17364064E-1,1.1831386E-2,-0E0,-1.872575E-1,-3.4964725E-3,2.2199059E-1,-2.125859E-2,7.830751E-2,-1.9413989E-2,-8.1717394E-2,4.954949E-2,-6.73341E-3,1.22473866E-1,-2.3123031E-2],"categories":[],"categories_nodes":[],"categories_segments":[],"categories_sizes":[],"default_left":[0,0,0,0,0,0,0,0,0,0,0,0,0,0,0,0,0,0,0],"id":37,"left_children":[1,3,5,-1,-1,7,9,11,13,15,17,-1,-1,-1,-1,-1,-1,-1,-1],"loss_changes":[2.546223E0,4.2279983E0,6.759248E-1,0E0,0E0,4.681725E-1,5.197765E-1,4.929108E-1,3.3939993E-1,4.845966E-1,8.483732E-1,0E0,0E0,0E0,0E0,0E0,0E0,0E0,0E0],"parents":[2147483647,0,0,1,1,2,2,5,5,6,6,7,7,8,8,9,9,10,10],"right_children":[2,4,6,-1,-1,8,10,12,14,16,18,-1,-1,-1,-1,-1,-1,-1,-1],"split_conditions":[1E0,5.89E2,1.23839E8,-4.411312E-2,3.1951064E-1,4.319E2,1.73894E1,2.10072E1,1.52971E1,5.0592E0,2E-1,-2.125859E-2,7.830751E-2,-1.9413989E-2,-8.1717394E-2,4.954949E-2,-6.73341E-3,1.22473866E-1,-2.3123031E-2],"split_indices":[20,11,7,0,0,11,0,0,1,1,19,0,0,0,0,0,0,0,0],"split_type":[0,0,0,0,0,0,0,0,0,0,0,0,0,0,0,0,0,0,0],"sum_hessian":[2.07E2,8E0,1.99E2,4E0,4E0,5.4E1,1.45E2,2E1,3.4E1,1.35E2,1E1,1.6E1,4E0,1.8E1,1.6E1,1.2E1,1.23E2,6E0,4E0],"tree_param":{"num_deleted":"0","num_feature":"23","num_nodes":"19","size_leaf_vector":"1"}},{"base_weights":[4.3097856E-3,-1.4288808E-2,2.5391328E-1,-5.629997E-2,1.246635E-1,2.2043708E-1,-4.0814195E-2,-1.5339856E-1,-3.1648602E-2,4.4453502E-1,2.9461395E-2,-3.4012996E-2,1.0122074E-2,-4.335671E-3,-1.0613285E-1,1.4016E-2,1.8422432E-1,-3.0196698E-2,2.015172E-2],"categories":[],"categories_nodes":[],"categories_segments":[],"categories_sizes":[],"default_left":[0,0,0,0,0,0,0,0,0,0,0,0,0,0,0,0,0,0,0],"id":38,"left_children":[1,3,5,7,9,-1,11,-1,13,15,17,-1,-1,-1,-1,-1,-1,-1,-1],"loss_changes":[1.0641236E0,1.1699561E0,2.7406712E0,1.775692E0,1.2802168E0,0E0,9.269033E-2,0E0,7.536721E-1,6.6936505E-1,2.2022814E-1,0E0,0E0,0E0,0E0,0E0,0E0,0E0,0E0],"parents":[2147483647,0,0,1,1,2,2,3,3,4,4,6,6,8,8,9,9,10,10],"right_children":[2,4,6,8,10,-1,12,-1,14,16,18,-1,-1,-1,-1,-1,-1,-1,-1],"split_conditions":[4.84E0,5.89E-1,2.16614E1,1E0,7.13E-1,2.2043708E-1,2.46889E1,-1.5339856E-1,4.71E0,1.451E1,9.14E-1,-3.4012996E-2,1.0122074E-2,-4.335671E-3,-1.0613285E-1,1.4016E-2,1.8422432E-1,-3.0196698E-2,2.015172E-2],"split_indices":[12,17,1,20,17,0,0,0,12,14,17,0,0,0,0,0,0,0,0],"split_type":[0,0,0,0,0,0,0,0,0,0,0,0,0,0,0,0,0,0,0],"sum_hessian":[2.16E2,2.01E2,1.5E1,1.56E2,4.5E1,5E0,1E1,6E0,1.5E2,9E0,3.6E1,6E0,4E0,1.45E2,5E0,4E0,5E0,7E0,2.9E1],"tree_param":{"num_deleted":"0","num_feature":"23","num_nodes":"19","size_leaf_vector":"1"}},{"base_weights":[-1.3275654E-2,1.994477E-2,-1.4826131E-1,1.0291853E-1,-9.64075E-2,4.4759568E-2,-3.4541735E-1,-4.428888E-3,3.8247257E-1,-2.0778972E-1,-1.3434091E-2,-7.013769E-2,2.0119604E-1,-7.0665264E-1,-5.3808194E-2,2.7099494E-2,-2.3987843E-2,1.372944E-1,-4.686954E-2,-7.2657615E-2,1.0717941E-2,6.424462E-2,-1.4680075E-2,-4.4913888E-2,2.891656E-3,8.501476E-2,1.2241745E-2,-6.755896E-2,-2.74685E-1,-3.412118E-2,-0E0],"categories":[],"categories_nodes":[],"categories_segments":[],"categories_sizes":[],"default_left":[0,0,0,0,0,0,0,0,0,0,0,0,0,0,0,0,0,0,0,0,0,0,0,0,0,0,0,0,0,0,0],"id":39,"left_children":[1,3,5,7,9,11,13,15,17,19,21,23,25,27,29,-1,-1,-1,-1,-1,-1,-1,-1,-1,-1,-1,-1,-1,-1,-1,-1],"loss_changes":[9.280434E-1,1.5546467E0,1.6392825E0,2.9350567E0,5.5711144E-1,4.1864446E-1,1.9988067E0,5.837547E-1,1.8269525E0,4.2012644E-1,3.5831726E-1,1.2387383E-1,7.327244E-2,6.741791E-1,6.7555875E-2,0E0,0E0,0E0,0E0,0E0,0E0,0E0,0E0,0E0,0E0,0E0,0E0,0E0,0E0,0E0,0E0],"parents":[2147483647,0,0,1,1,2,2,3,3,4,4,5,5,6,6,7,7,8,8,9,9,10,10,11,11,12,12,13,13,14,14],"right_children":[2,4,6,8,10,12,14,16,18,20,22,24,26,28,30,-1,-1,-1,-1,-1,-1,-1,-1,-1,-1,-1,-1,-1,-1,-1,-1],"split_conditions":[4.39E-1,1.22742E1,1.251E1,1.18545E1,1.53641E1,1.28444E1,1.007E0,8.2521E0,3.84862E8,1.199E1,1.49911E1,-1.13E-1,-6.52E-1,1.03998E1,3.863E2,2.7099494E-2,-2.3987843E-2,1.372944E-1,-4.686954E-2,-7.2657615E-2,1.0717941E-2,6.424462E-2,-1.4680075E-2,-4.4913888E-2,2.891656E-3,8.501476E-2,1.2241745E-2,-6.755896E-2,-2.74685E-1,-3.412118E-2,-0E0],"split_indices":[18,1,10,0,0,1,18,3,6,5,1,17,19,1,11,0,0,0,0,0,0,0,0,0,0,0,0,0,0,0,0],"split_type":[0,0,0,0,0,0,0,0,0,0,0,0,0,0,0,0,0,0,0,0,0,0,0,0,0,0,0,0,0,0,0],"sum_hessian":[1.99E2,1.59E2,4E1,9.4E1,6.5E1,2E1,2E1,6.8E1,2.6E1,2.6E1,3.9E1,1.1E1,9E0,8E0,1.2E1,2.9E1,3.9E1,2.2E1,4E0,2.2E1,4E0,4E0,3.5E1,6E0,5E0,4E0,5E0,4E0,4E0,6E0,6E0],"tree_param":{"num_deleted":"0","num_feature":"23","num_nodes":"31","size_leaf_vector":"1"}},{"base_weights":[1.4137514E-2,2.3908329E-1,-1.0463474E-2,1.7605601E-1,1.0532455E-1,-2.715515E-1,5.5642603E-3,-9.22256E-3,1.634394E-1,-1.6436216E-1,-3.2393094E-3,4.4111654E-2,-1.3033992E-1,6.910501E-2,1.78289E-2,-1.2872731E-2,3.2371644E-2,5.907248E-3,-8.913717E-2],"categories":[],"categories_nodes":[],"categories_segments":[],"categories_sizes":[],"default_left":[0,0,0,0,0,0,0,0,0,0,0,0,0,0,0,0,0,0,0],"id":40,"left_children":[1,3,5,-1,7,9,11,-1,13,-1,-1,15,17,-1,-1,-1,-1,-1,-1],"loss_changes":[1.2318919E0,9.3364334E-1,8.641799E-1,0E0,1.7863052E-1,8.543433E-1,9.338457E-1,0E0,3.3358335E-2,0E0,0E0,9.6141875E-1,1.202674E0,0E0,0E0,0E0,0E0,0E0,0E0],"parents":[2147483647,0,0,1,1,2,2,4,4,5,5,6,6,8,8,11,11,12,12],"right_children":[2,4,6,-1,8,10,12,-1,14,-1,-1,16,18,-1,-1,-1,-1,-1,-1],"split_conditions":[7.3514E7,1.18887E1,8.5022E7,1.7605601E-1,-9.24E-1,1.461E1,8.1E2,-9.22256E-3,7.46E1,-1.6436216E-1,-3.2393094E-3,1.14982E1,1.15309E1,6.910501E-2,1.78289E-2,-1.2872731E-2,3.2371644E-2,5.907248E-3,-8.913717E-2],"split_indices":[6,0,6,0,17,10,11,0,11,0,0,0,1,0,0,0,0,0,0],"split_type":[0,0,0,0,0,0,0,0,0,0,0,0,0,0,0,0,0,0,0],"sum_hessian":[2.12E2,2.1E1,1.91E2,4E0,1.7E1,1.1E1,1.8E2,4E0,1.3E1,4E0,7E0,1.42E2,3.8E1,5E0,8E0,6.2E1,8E1,2.1E1,1.7E1],"tree_param":{"num_deleted":"0","num_feature":"23","num_nodes":"19","size_leaf_vector":"1"}},{"base_weights":[-4.4758854E-4,1.7604916E-1,-2.0965857E-2,1.8648195E-1,8.544118E-3,-2.5991875E-1,-5.1863273E-3,-3.9581515E-2,8.29618E-2,-1.512267E-1,4.023204E-2,-5.864251E-2,2.9599941E-3,-0E0,5.6694966E-2,-3.252531E-3,4.8566177E-2],"categories":[],"categories_nodes":[],"categories_segments":[],"categories_sizes":[],"default_left":[0,0,0,0,0,0,0,0,0,0,0,0,0,0,0,0,0],"id":41,"left_children":[1,3,5,-1,7,9,11,-1,13,-1,-1,-1,15,-1,-1,-1,-1],"loss_changes":[7.325191E-1,1.5832498E0,6.592287E-1,0E0,1.8823947E-1,1.4278073E0,3.5152587E-1,0E0,1.5903576E-1,0E0,0E0,0E0,4.7878852E-1,0E0,0E0,0E0,0E0],"parents":[2147483647,0,0,1,1,2,2,4,4,5,5,6,6,8,8,12,12],"right_children":[2,4,6,-1,8,10,12,-1,14,-1,-1,-1,16,-1,-1,-1,-1],"split_conditions":[6.6E7,1.24273E1,1E0,1.8648195E-1,6E0,3.81E0,4.5731E0,-3.9581515E-2,1.15E2,-1.512267E-1,4.023204E-2,-5.864251E-2,9.972E2,-0E0,5.6694966E-2,-3.252531E-3,4.8566177E-2],"split_indices":[6,0,20,0,20,12,0,0,11,0,0,0,11,0,0,0,0],"split_type":[0,0,0,0,0,0,0,0,0,0,0,0,0,0,0,0,0],"sum_hessian":[2.1E2,2E1,1.9E2,4E0,1.6E1,1E1,1.8E2,4E0,1.2E1,6E0,4E0,7E0,1.73E2,7E0,5E0,1.59E2,1.4E1],"tree_param":{"num_deleted":"0","num_feature":"23","num_nodes":"17","size_leaf_vector":"1"}},{"base_weights":[6.949542E-3,-7.408921E-2,4.892102E-2,-2.0904127E-1,-4.1366258E-4,1.2364931E-1,-4.236507E-2,-1.9106434E-1,4.3855883E-2,-1.08302936E-1,2.2935772E-1,1.7148955E-1,-9.217097E-2,5.9742243E-3,-8.352085E-2,2.5196744E-2,-3.6803335E-2,4.950607E-3,-1.5925498E-1,3.619361E-2,2.2417676E-1,-0E0,7.781094E-2,-3.1950172E-2,2.1888338E-2],"categories":[],"categories_nodes":[],"categories_segments":[],"categories_sizes":[],"default_left":[0,0,0,0,0,0,0,0,0,0,0,0,0,0,0,0,0,0,0,0,0,0,0,0,0],"id":42,"left_children":[1,3,5,-1,7,9,11,13,15,17,19,21,23,-1,-1,-1,-1,-1,-1,-1,-1,-1,-1,-1,-1],"loss_changes":[7.4916935E-1,3.5347161E0,1.0321989E0,0E0,6.140927E-1,2.0835369E0,6.991081E-1,3.9525157E-1,4.582698E-1,1.6594903E0,3.0069163E0,2.7398133E-1,2.336984E-1,0E0,0E0,0E0,0E0,0E0,0E0,0E0,0E0,0E0,0E0,0E0,0E0],"parents":[2147483647,0,0,1,1,2,2,4,4,5,5,6,6,7,7,8,8,9,9,10,10,11,11,12,12],"right_children":[2,4,6,-1,8,10,12,14,16,18,20,22,24,-1,-1,-1,-1,-1,-1,-1,-1,-1,-1,-1,-1],"split_conditions":[5.146E2,2E0,2.3E-1,-2.0904127E-1,-1.17E0,1.129E1,9.81E0,6.0319E0,2.083E2,2.58E1,3E-2,1.10136E1,3.292E1,5.9742243E-3,-8.352085E-2,2.5196744E-2,-3.6803335E-2,4.950607E-3,-1.5925498E-1,3.619361E-2,2.2417676E-1,-0E0,7.781094E-2,-3.1950172E-2,2.1888338E-2],"split_indices":[11,20,8,0,8,10,10,1,15,13,8,1,13,0,0,0,0,0,0,0,0,0,0,0,0],"split_type":[0,0,0,0,0,0,0,0,0,0,0,0,0,0,0,0,0,0,0,0,0,0,0,0,0],"sum_hessian":[2.2E2,7.3E1,1.47E2,6E0,6.7E1,8.2E1,6.5E1,1.3E1,5.4E1,2.5E1,5.7E1,1.1E1,5.4E1,4E0,9E0,4.4E1,1E1,2E1,5E0,5E1,7E0,4E0,7E0,4.9E1,5E0],"tree_param":{"num_deleted":"0","num_feature":"23","num_nodes":"25","size_leaf_vector":"1"}},{"base_weights":[-2.7383901E-2,-1.9107035E-1,-8.187477E-3,1.3489375E-2,-3.417089E-1,2.4816727E-2,-1.15064144E-1,-1.3259329E-1,-1.8748462E-2,4.3282984E-3,1.4845951E-1,-3.230108E-1,-4.8389066E-2,9.31957E-3,-2.9379996E-2,-1.5925276E-1,-7.0740106E-3,-5.928056E-2,4.0035383E-3],"categories":[],"categories_nodes":[],"categories_segments":[],"categories_sizes":[],"default_left":[0,0,0,0,0,0,0,0,0,0,0,0,0,0,0,0,0,0,0],"id":43,"left_children":[1,3,5,-1,7,9,11,-1,-1,13,-1,15,17,-1,-1,-1,-1,-1,-1],"loss_changes":[5.88379E-1,8.0080545E-1,6.681383E-1,0E0,3.317572E-1,1.3307197E0,5.2516E-1,0E0,0E0,4.2314756E-1,0E0,5.947789E-1,4.2113376E-1,0E0,0E0,0E0,0E0,0E0,0E0],"parents":[2147483647,0,0,1,1,2,2,4,4,5,5,6,6,9,9,11,11,12,12],"right_children":[2,4,6,-1,8,10,12,-1,-1,14,-1,16,18,-1,-1,-1,-1,-1,-1],"split_conditions":[-9.7E-1,8.31E1,2.4E1,1.3489375E-2,1.18887E1,2.374E1,4E0,-1.3259329E-1,-1.8748462E-2,1.37079E1,1.4845951E-1,2.869E1,-6.6E0,9.31957E-3,-2.9379996E-2,-1.5925276E-1,-7.0740106E-3,-5.928056E-2,4.0035383E-3],"split_indices":[19,15,9,0,1,9,21,0,0,2,0,13,5,0,0,0,0,0,0],"split_type":[0,0,0,0,0,0,0,0,0,0,0,0,0,0,0,0,0,0,0],"sum_hessian":[2.01E2,1.9E1,1.82E2,7E0,1.2E1,1.38E2,4.4E1,7E0,5E0,1.34E2,4E0,9E0,3.5E1,1.08E2,2.6E1,4E0,5E0,1E1,2.5E1],"tree_param":{"num_deleted":"0","num_feature":"23","num_nodes":"19","size_leaf_vector":"1"}},{"base_weights":[1.0122067E-2,2.408511E-2,-2.706746E-1,-7.0629545E-2,5.876061E-2,-1.4177418E-1,-0E0,-1.3407438E-1,-4.821694E-4,4.6698624E-1,3.0107291E-2,1.0178109E-2,-1.9655922E-2,4.36016E-2,1.7829175E-1,3.7897914E-3,5.4860875E-2],"categories":[],"categories_nodes":[],"categories_segments":[],"categories_sizes":[],"default_left":[0,0,0,0,0,0,0,0,0,0,0,0,0,0,0,0,0],"id":44,"left_children":[1,3,5,7,9,-1,-1,-1,11,13,15,-1,-1,-1,-1,-1,-1],"loss_changes":[7.464107E-1,6.413905E-1,6.3516825E-1,1.3669425E0,1.5707467E0,0E0,0E0,0E0,1.2780136E-1,2.1392131E-1,3.2770523E-1,0E0,0E0,0E0,0E0,0E0,0E0],"parents":[2147483647,0,0,1,1,2,2,3,3,4,4,8,8,9,9,10,10],"right_children":[2,4,6,8,10,-1,-1,-1,12,14,16,-1,-1,-1,-1,-1,-1],"split_conditions":[1.2632E3,1.241E2,5.962E2,2E0,1E0,-1.4177418E-1,-0E0,-1.3407438E-1,9.78E1,2.639E1,1.029E0,1.0178109E-2,-1.9655922E-2,4.36016E-2,1.7829175E-1,3.7897914E-3,5.4860875E-2],"split_indices":[11,15,15,20,20,0,0,0,15,13,18,0,0,0,0,0,0],"split_type":[0,0,0,0,0,0,0,0,0,0,0,0,0,0,0,0,0],"sum_hessian":[2.02E2,1.94E2,8E0,5E1,1.44E2,4E0,4E0,6E0,4.4E1,8E0,1.36E2,2.7E1,1.7E1,4E0,4E0,1.26E2,1E1],"tree_param":{"num_deleted":"0","num_feature":"23","num_nodes":"17","size_leaf_vector":"1"}},{"base_weights":[1.1137109E-2,-1.1592734E-2,1.09242104E-1,-3.5917857E-1,9.439884E-3,1.6593699E-1,3.304827E-2,3.2679578E-3,-1.7993182E-1,2.8422968E-2,-1.5406673E-1,-5.3820442E-2,1.08408354E-1,4.9490035E-3,7.458297E-2,-0E0,-6.888748E-2,-9.0391785E-2,1.2216245E-2,6.1601784E-2,-0E0],"categories":[],"categories_nodes":[],"categories_segments":[],"categories_sizes":[],"default_left":[0,0,0,0,0,0,0,0,0,0,0,0,0,0,0,0,0,0,0,0,0],"id":45,"left_children":[1,3,5,7,9,-1,11,-1,-1,13,15,17,19,-1,-1,-1,-1,-1,-1,-1,-1],"loss_changes":[4.7334722E-1,1.2726563E0,1.3289604E0,1.2179363E0,4.5367157E-1,0E0,2.528545E-1,0E0,0E0,2.8709912E-1,1.9711235E-1,5.011329E-1,2.4441402E-1,0E0,0E0,0E0,0E0,0E0,0E0,0E0,0E0],"parents":[2147483647,0,0,1,1,2,2,3,3,4,4,6,6,9,9,10,10,11,11,12,12],"right_children":[2,4,6,8,10,-1,12,-1,-1,14,16,18,20,-1,-1,-1,-1,-1,-1,-1,-1],"split_conditions":[2.916E1,1E0,3E0,5E0,2.869E1,1.6593699E-1,-2E0,3.2679578E-3,-1.7993182E-1,1.74133E1,2.8E-1,1.1E1,4.9E-2,4.9490035E-3,7.458297E-2,-0E0,-6.888748E-2,-9.0391785E-2,1.2216245E-2,6.1601784E-2,-0E0],"split_indices":[13,20,20,22,13,0,5,0,0,3,8,20,16,0,0,0,0,0,0,0,0],"split_type":[0,0,0,0,0,0,0,0,0,0,0,0,0,0,0,0,0,0,0,0,0],"sum_hessian":[2.01E2,1.62E2,3.9E1,9E0,1.53E2,4E0,3.5E1,4E0,5E0,1.39E2,1.4E1,1.5E1,2E1,1.35E2,4E0,6E0,8E0,4E0,1.1E1,9E0,1.1E1],"tree_param":{"num_deleted":"0","num_feature":"23","num_nodes":"21","size_leaf_vector":"1"}},{"base_weights":[6.8475087E-3,-2.9194165E-2,6.824438E-2,-2.274935E-3,-1.6758864E-1,9.5840685E-2,-5.0252005E-2,1.0982329E-2,-8.039306E-2,-8.311249E-2,-8.077042E-2,2.8552765E-1,5.9791915E-2,1.1546684E-2,-3.9209165E-2,-2.1574348E-2,1.9005295E-2,-3.827654E-2,4.452613E-3,1.0849195E-2,1.1304428E-1,-7.5717986E-4,3.6624078E-2],"categories":[],"categories_nodes":[],"categories_segments":[],"categories_sizes":[],"default_left":[0,0,0,0,0,0,0,0,0,0,0,0,0,0,0,0,0,0,0,0,0,0,0],"id":46,"left_children":[1,3,5,7,9,11,13,15,-1,-1,17,19,21,-1,-1,-1,-1,-1,-1,-1,-1,-1,-1],"loss_changes":[4.9727046E-1,4.7169104E-1,2.8914055E-1,5.115823E-1,1.325044E-1,3.8491213E-1,1.5297645E-1,5.7531726E-1,0E0,0E0,1.122739E-1,1.841662E-1,3.0490756E-1,0E0,0E0,0E0,0E0,0E0,0E0,0E0,0E0,0E0,0E0],"parents":[2147483647,0,0,1,1,2,2,3,3,4,4,5,5,6,6,7,7,10,10,11,11,12,12],"right_children":[2,4,6,8,10,12,14,16,-1,-1,18,20,22,-1,-1,-1,-1,-1,-1,-1,-1,-1,-1],"split_conditions":[1.3E1,1.53398E1,9.74E-1,1.2632E3,8.8E-1,1.03519E8,1.6E1,5.146E2,-8.039306E-2,-8.311249E-2,1.20477E8,2.9777E7,1.17309E1,1.1546684E-2,-3.9209165E-2,-2.1574348E-2,1.9005295E-2,-3.827654E-2,4.452613E-3,1.0849195E-2,1.1304428E-1,-7.5717986E-4,3.6624078E-2],"split_indices":[20,1,16,11,8,6,20,11,0,0,6,6,4,0,0,0,0,0,0,0,0,0,0],"split_type":[0,0,0,0,0,0,0,0,0,0,0,0,0,0,0,0,0,0,0,0,0,0,0],"sum_hessian":[2.19E2,1.36E2,8.3E1,1.16E2,2E1,6.9E1,1.4E1,1.11E2,5E0,6E0,1.4E1,9E0,6E1,6E0,8E0,4.2E1,6.9E1,1E1,4E0,4E0,5E0,3.1E1,2.9E1],"tree_param":{"num_deleted":"0","num_feature":"23","num_nodes":"23","size_leaf_vector":"1"}},{"base_weights":[-0E0,-1.6732955E-1,9.33525E-3,-0E0,-1.0669077E-1,-5.223539E-2,3.2883145E-2,-0E0,-1.3851255E-1,2.1246676E-1,1.4986947E-2,-7.512695E-3,3.2419473E-2,-0E0,-4.994941E-2,1.1295107E-1,-3.0255835E-3,3.9648395E-2,-0E0],"categories":[],"categories_nodes":[],"categories_segments":[],"categories_sizes":[],"default_left":[0,0,0,0,0,0,0,0,0,0,0,0,0,0,0,0,0,0,0],"id":47,"left_children":[1,3,5,-1,-1,7,9,11,13,15,17,-1,-1,-1,-1,-1,-1,-1,-1],"loss_changes":[3.5105562E-1,3.9616787E-1,2.8132468E-1,0E0,0E0,2.2146407E-1,4.1183674E-1,1.02347724E-1,1.2161678E-1,6.126942E-1,2.753581E-1,0E0,0E0,0E0,0E0,0E0,0E0,0E0,0E0],"parents":[2147483647,0,0,1,1,2,2,5,5,6,6,7,7,8,8,9,9,10,10],"right_children":[2,4,6,-1,-1,8,10,12,14,16,18,-1,-1,-1,-1,-1,-1,-1,-1],"split_conditions":[1E0,2.018E2,1.23397E8,-0E0,-1.0669077E-1,1.0421E8,1.42793E8,8.45E0,6E0,7.428E2,3.058E2,-7.512695E-3,3.2419473E-2,-0E0,-4.994941E-2,1.1295107E-1,-3.0255835E-3,3.9648395E-2,-0E0],"split_indices":[20,15,6,0,0,6,6,5,20,11,11,0,0,0,0,0,0,0,0],"split_type":[0,0,0,0,0,0,0,0,0,0,0,0,0,0,0,0,0,0,0],"sum_hessian":[2.06E2,1.1E1,1.95E2,7E0,4E0,5.1E1,1.44E2,3.3E1,1.8E1,1.1E1,1.33E2,2.8E1,5E0,4E0,1.4E1,6E0,5E0,1.4E1,1.19E2],"tree_param":{"num_deleted":"0","num_feature":"23","num_nodes":"19","size_leaf_vector":"1"}},{"base_weights":[5.5486686E-3,2.7478915E-1,-7.61199E-3,-0E0,1.338216E-1,-1.4277988E-2,6.1761703E-2,-4.512301E-2,3.3873286E-2,-0E0,-2.754639E-2,3.275084E-2,6.8281835E-4],"categories":[],"categories_nodes":[],"categories_segments":[],"categories_sizes":[],"default_left":[0,0,0,0,0,0,0,0,0,0,0,0,0],"id":48,"left_children":[1,3,5,-1,-1,7,-1,9,11,-1,-1,-1,-1],"loss_changes":[8.304931E-1,5.5661434E-1,2.7405795E-1,0E0,0E0,3.0533516E-1,0E0,2.9392785E-1,1.7634358E-1,0E0,0E0,0E0,0E0],"parents":[2147483647,0,0,1,1,2,2,5,5,7,7,8,8],"right_children":[2,4,6,-1,-1,8,-1,10,12,-1,-1,-1,-1],"split_conditions":[1E0,1.172E1,1.167703E9,-0E0,1.338216E-1,1.3E1,6.1761703E-2,1.23497E1,-6.62E-1,-0E0,-2.754639E-2,3.275084E-2,6.8281835E-4],"split_indices":[20,10,7,0,0,20,0,1,19,0,0,0,0],"split_type":[0,0,0,0,0,0,0,0,0,0,0,0,0],"sum_hessian":[2.16E2,1E1,2.06E2,5E0,5E0,2.02E2,4E0,1.26E2,7.6E1,7.1E1,5.5E1,1.8E1,5.8E1],"tree_param":{"num_deleted":"0","num_feature":"23","num_nodes":"13","size_leaf_vector":"1"}},{"base_weights":[1.3310668E-3,4.546601E-2,-4.1567653E-2,1.80071E-2,2.746895E-1,-1.9714816E-2,-1.2570977E-1,3.85461E-2,-1.339043E-1,-1.11174E-2,1.3697466E-1,3.942114E-2,-3.1381756E-2,1.5523058E-3,6.583538E-2,-5.3992096E-2,-3.947222E-3,-1.8096993E-4,-3.314784E-2],"categories":[],"categories_nodes":[],"categories_segments":[],"categories_sizes":[],"default_left":[0,0,0,0,0,0,0,0,0,0,0,0,0,0,0,0,0,0,0],"id":49,"left_children":[1,3,5,7,9,11,-1,13,15,-1,-1,-1,17,-1,-1,-1,-1,-1,-1],"loss_changes":[4.1713217E-1,6.280036E-1,8.6623716E-1,2.9832217E-1,8.752228E-1,1.7753641E-1,0E0,5.403209E-1,3.0187175E-2,0E0,0E0,0E0,2.438272E-1,0E0,0E0,0E0,0E0,0E0,0E0],"parents":[2147483647,0,0,1,1,2,2,3,3,4,4,5,5,7,7,8,8,12,12],"right_children":[2,4,6,8,10,12,-1,14,16,-1,-1,-1,18,-1,-1,-1,-1,-1,-1],"split_conditions":[1.92821E8,1.87278E8,9.219E2,1.9E1,-1.02E0,5.0592E0,-1.2570977E-1,1.7E1,7.56E2,-1.11174E-2,1.3697466E-1,3.942114E-2,8.28885E8,1.5523058E-3,6.583538E-2,-5.3992096E-2,-3.947222E-3,-1.8096993E-4,-3.314784E-2],"split_indices":[6,7,11,20,16,1,0,20,11,0,0,0,6,0,0,0,0,0,0],"split_type":[0,0,0,0,0,0,0,0,0,0,0,0,0,0,0,0,0,0,0],"sum_hessian":[2.18E2,1.1E2,1.08E2,1E2,1E1,1.04E2,4E0,9E1,1E1,4E0,6E0,5E0,9.9E1,7.9E1,1.1E1,5E0,5E0,7.6E1,2.3E1],"tree_param":{"num_deleted":"0","num_feature":"23","num_nodes":"19","size_leaf_vector":"1"}},{"base_weights":[1.1326856E-2,-4.4651914E-2,4.482614E-2,-1.00420296E-1,5.4035112E-2,2.877383E-1,2.3564296E-2,-6.4111486E-2,-8.040146E-2,1.7156084E-1,-1.3421541E-3,1.3041609E-2,1.3237803E-1,-4.466867E-2,3.5922114E-2,1.6042627E-2,-3.913519E-2,5.774071E-4,6.867894E-2,-1.2120994E-2,2.0295167E-2,2.6264729E-2,-0E0],"categories":[],"categories_nodes":[],"categories_segments":[],"categories_sizes":[],"default_left":[0,0,0,0,0,0,0,0,0,0,0,0,0,0,0,0,0,0,0,0,0,0,0],"id":50,"left_children":[1,3,5,7,9,11,13,15,-1,17,19,-1,-1,-1,21,-1,-1,-1,-1,-1,-1,-1,-1],"loss_changes":[3.9743993E-1,4.388183E-1,6.20795E-1,2.5402552E-1,2.1362671E-1,3.151911E-1,2.6475656E-1,4.4870126E-1,0E0,7.174957E-2,5.3022433E-2,0E0,0E0,0E0,2.5761852E-1,0E0,0E0,0E0,0E0,0E0,0E0,0E0,0E0],"parents":[2147483647,0,0,1,1,2,2,3,3,4,4,5,5,6,6,7,7,9,9,10,10,14,14],"right_children":[2,4,6,8,10,12,14,16,-1,18,20,-1,-1,-1,22,-1,-1,-1,-1,-1,-1,-1,-1],"split_conditions":[5.146E2,2.47E-1,1E0,4.04E-1,1.2E1,5E0,-1.127E0,1.11261E1,-8.040146E-2,1.11261E1,-1.92E-1,1.3041609E-2,1.3237803E-1,-4.466867E-2,-4.8E-1,1.6042627E-2,-3.913519E-2,5.774071E-4,6.867894E-2,-1.2120994E-2,2.0295167E-2,2.6264729E-2,-0E0],"split_indices":[11,16,20,18,20,22,19,2,0,0,19,0,0,0,8,0,0,0,0,0,0,0,0],"split_type":[0,0,0,0,0,0,0,0,0,0,0,0,0,0,0,0,0,0,0,0,0,0,0],"sum_hessian":[2.1E2,7.6E1,1.34E2,5E1,2.6E1,9E0,1.25E2,4.4E1,6E0,9E0,1.7E1,5E0,4E0,6E0,1.19E2,1.6E1,2.8E1,4E0,5E0,1.3E1,4E0,4.5E1,7.4E1],"tree_param":{"num_deleted":"0","num_feature":"23","num_nodes":"23","size_leaf_vector":"1"}},{"base_weights":[-1.33529855E-2,-2.4873626E-1,3.9608908E-4,2.3700662E-2,-1.1987608E-1,4.9440566E-2,-2.6336595E-2,7.121628E-2,2.8291069E-2,-5.013632E-2,-1.3089899E-2,-7.574475E-4,3.8984932E-2,-1.0042289E-2,1.8330121E-2],"categories":[],"categories_nodes":[],"categories_segments":[],"categories_sizes":[],"default_left":[0,0,0,0,0,0,0,0,0,0,0,0,0,0,0],"id":51,"left_children":[1,3,5,-1,-1,7,9,-1,11,-1,13,-1,-1,-1,-1],"loss_changes":[7.610423E-1,9.060871E-1,2.7637833E-1,0E0,0E0,2.6250947E-1,2.2235242E-1,0E0,2.7850604E-1,0E0,2.2086546E-1,0E0,0E0,0E0,0E0],"parents":[2147483647,0,0,1,1,2,2,5,5,6,6,8,8,10,10],"right_children":[2,4,6,-1,-1,8,10,-1,12,-1,14,-1,-1,-1,-1],"split_conditions":[1E0,-1.02E0,2.241E1,2.3700662E-2,-1.1987608E-1,-1.604E0,-1.103E0,7.121628E-2,1.28501E1,-5.013632E-2,1.7E1,-7.574475E-4,3.8984932E-2,-1.0042289E-2,1.8330121E-2],"split_indices":[20,16,9,0,0,18,19,0,0,0,20,0,0,0,0],"split_type":[0,0,0,0,0,0,0,0,0,0,0,0,0,0,0],"sum_hessian":[2.17E2,1.2E1,2.05E2,4E0,8E0,7.5E1,1.3E2,5E0,7E1,8E0,1.22E2,5.4E1,1.6E1,9.7E1,2.5E1],"tree_param":{"num_deleted":"0","num_feature":"23","num_nodes":"15","size_leaf_vector":"1"}},{"base_weights":[-1.0878898E-3,2.273371E-2,-4.988627E-2,-0E0,1.7113273E-1,-1.1772272E-1,2.0705622E-2,3.1127784E-2,-7.8185946E-2,-6.856455E-3,8.847933E-2,-5.4967467E-2,-1.336298E-1,7.696408E-2,-1.475963E-2,1.6043784E-2,-2.9590692E-2,-3.0029736E-2,1.2024591E-2,-2.7811542E-2,1.590865E-2,-1.1724746E-2,2.4233157E-2],"categories":[],"categories_nodes":[],"categories_segments":[],"categories_sizes":[],"default_left":[0,0,0,0,0,0,0,0,0,0,0,0,0,0,0,0,0,0,0,0,0,0,0],"id":52,"left_children":[1,3,5,7,9,11,13,15,17,-1,-1,19,-1,-1,21,-1,-1,-1,-1,-1,-1,-1,-1],"loss_changes":[2.4652183E-1,4.5480332E-1,3.6366484E-1,2.9066405E-1,5.933206E-1,7.222966E-1,3.719305E-1,3.1175795E-1,1.4329141E-1,0E0,0E0,1.879275E-1,0E0,0E0,7.7540904E-2,0E0,0E0,0E0,0E0,0E0,0E0,0E0,0E0],"parents":[2147483647,0,0,1,1,2,2,3,3,4,4,5,5,6,6,7,7,8,8,11,11,14,14],"right_children":[2,4,6,8,10,12,14,16,18,-1,-1,20,-1,-1,22,-1,-1,-1,-1,-1,-1,-1,-1],"split_conditions":[1.01E-1,-1.77E-1,6.44E-1,1.277E1,-1.18E0,5.86E2,7.39E-1,7.881E8,1.98367E1,-6.856455E-3,8.847933E-2,1.53398E1,-1.336298E-1,7.696408E-2,2.312E0,1.6043784E-2,-2.9590692E-2,-3.0029736E-2,1.2024591E-2,-2.7811542E-2,1.590865E-2,-1.1724746E-2,2.4233157E-2],"split_indices":[19,19,17,10,8,15,17,6,1,0,0,0,0,0,19,0,0,0,0,0,0,0,0],"split_type":[0,0,0,0,0,0,0,0,0,0,0,0,0,0,0,0,0,0,0,0,0,0,0],"sum_hessian":[2.05E2,1.35E2,7E1,1.18E2,1.7E1,3.7E1,3.3E1,8.5E1,3.3E1,7E0,1E1,3.3E1,4E0,4E0,2.9E1,7.3E1,1.2E1,2.8E1,5E0,2.5E1,8E0,2.5E1,4E0],"tree_param":{"num_deleted":"0","num_feature":"23","num_nodes":"23","size_leaf_vector":"1"}},{"base_weights":[1.4002913E-2,6.59729E-3,5.4220762E-2,3.151179E-2,-2.4120612E-2,4.6772122E-2,-5.0582014E-2,-1.1811306E-1,4.8372638E-4,1.5028556E-3,4.949758E-2,-5.002492E-2,-0E0,5.315386E-3,-4.440523E-2],"categories":[],"categories_nodes":[],"categories_segments":[],"categories_sizes":[],"default_left":[0,0,0,0,0,0,0,0,0,0,0,0,0,0,0],"id":53,"left_children":[1,3,-1,5,7,9,-1,11,13,-1,-1,-1,-1,-1,-1],"loss_changes":[2.3312408E-1,1.5690237E-1,0E0,3.5608423E-1,2.2745359E-1,5.569661E-1,0E0,1.7565128E-1,1.7527078E-1,0E0,0E0,0E0,0E0,0E0,0E0],"parents":[2147483647,0,0,1,1,3,3,4,4,5,5,7,7,8,8],"right_children":[2,4,-1,6,8,10,-1,12,14,-1,-1,-1,-1,-1,-1],"split_conditions":[7.984E2,1.20306E1,5.4220762E-2,5.686E2,1.30108E1,1.15434E1,-5.0582014E-2,2.47E-1,1.391E0,1.5028556E-3,4.949758E-2,-5.002492E-2,-0E0,5.315386E-3,-4.440523E-2],"split_indices":[15,1,0,15,4,4,0,16,19,0,0,0,0,0,0],"split_type":[0,0,0,0,0,0,0,0,0,0,0,0,0,0,0],"sum_hessian":[2.07E2,2.01E2,6E0,1.15E2,8.6E1,1.09E2,6E0,1.9E1,6.7E1,8.5E1,2.4E1,1.3E1,6E0,6.2E1,5E0],"tree_param":{"num_deleted":"0","num_feature":"23","num_nodes":"15","size_leaf_vector":"1"}},{"base_weights":[-0E0,-9.260754E-2,1.6771164E-2,-1.09557554E-1,-2.8098E-2,1.07916884E-1,2.560406E-3,8.0282755E-2,-9.5410846E-2,-0E0,8.1557475E-2,2.2809906E-2,-6.64151E-2,4.766421E-2,-0E0,-3.1724307E-4,-5.482464E-2,-1.945547E-2,1.752899E-2,9.134727E-3,-3.0183963E-2,7.3806563E-4,-3.4219444E-2],"categories":[],"categories_nodes":[],"categories_segments":[],"categories_sizes":[],"default_left":[0,0,0,0,0,0,0,0,0,0,0,0,0,0,0,0,0,0,0,0,0,0,0],"id":54,"left_children":[1,3,5,-1,7,9,11,13,15,17,-1,19,21,-1,-1,-1,-1,-1,-1,-1,-1,-1,-1],"loss_changes":[3.2611805E-1,5.18142E-1,2.158019E-1,0E0,2.1424961E-1,4.193648E-1,2.2059323E-1,1.1130701E-1,1.3787334E-1,7.38384E-2,0E0,1.5992217E-1,1.6500424E-1,0E0,0E0,0E0,0E0,0E0,0E0,0E0,0E0,0E0,0E0],"parents":[2147483647,0,0,1,1,2,2,4,4,5,5,6,6,7,7,8,8,9,9,11,11,12,12],"right_children":[2,4,6,-1,8,10,12,14,16,18,-1,20,22,-1,-1,-1,-1,-1,-1,-1,-1,-1,-1],"split_conditions":[-9.47E-1,1E0,7.3514E7,-1.09557554E-1,-1.419E0,-6.9E-2,2.419E1,1.594E1,3.75E0,6E0,8.1557475E-2,2.369E1,1.22E2,4.766421E-2,-0E0,-3.1724307E-4,-5.482464E-2,-1.945547E-2,1.752899E-2,9.134727E-3,-3.0183963E-2,7.3806563E-4,-3.4219444E-2],"split_indices":[18,20,6,0,18,17,9,14,12,20,0,5,15,0,0,0,0,0,0,0,0,0,0],"split_type":[0,0,0,0,0,0,0,0,0,0,0,0,0,0,0,0,0,0,0,0,0,0,0],"sum_hessian":[2.16E2,3.1E1,1.85E2,4E0,2.7E1,2.2E1,1.63E2,9E0,1.8E1,1.5E1,7E0,1.29E2,3.4E1,5E0,4E0,1.1E1,7E0,6E0,9E0,1.22E2,7E0,1.4E1,2E1],"tree_param":{"num_deleted":"0","num_feature":"23","num_nodes":"23","size_leaf_vector":"1"}},{"base_weights":[-7.126939E-3,4.1832335E-2,-3.388103E-2,6.945985E-2,-6.976102E-2,-1.7476599E-1,-9.513793E-3,4.5488127E-2,7.707648E-2,-5.944093E-2,5.0776983E-3,-3.1447506E-1,7.655077E-3,-3.440062E-2,7.761691E-2,-1.2314957E-2,1.7783603E-2,-2.8846502E-2,-1.5196396E-1,-2.104535E-2,8.500785E-3,-2.1969808E-2,3.376857E-2],"categories":[],"categories_nodes":[],"categories_segments":[],"categories_sizes":[],"default_left":[0,0,0,0,0,0,0,0,0,0,0,0,0,0,0,0,0,0,0,0,0,0,0],"id":55,"left_children":[1,3,5,7,9,11,13,15,-1,-1,-1,17,-1,19,21,-1,-1,-1,-1,-1,-1,-1,-1],"loss_changes":[2.718903E-1,2.2310552E-1,4.3065208E-1,2.104136E-1,2.1236712E-1,6.0755736E-1,2.5284407E-1,9.927993E-2,0E0,0E0,0E0,3.8751507E-1,0E0,2.7150443E-1,1.9139901E-1,0E0,0E0,0E0,0E0,0E0,0E0,0E0,0E0],"parents":[2147483647,0,0,1,1,2,2,3,3,4,4,5,5,6,6,7,7,11,11,13,13,14,14],"right_children":[2,4,6,8,10,12,14,16,-1,-1,-1,18,-1,20,22,-1,-1,-1,-1,-1,-1,-1,-1],"split_conditions":[2.65E1,1.3228E1,3E0,2.625E1,1.28501E1,2.869E1,9.95E0,-9.73E0,7.707648E-2,-5.944093E-2,5.0776983E-3,2.81E1,7.655077E-3,1.6E1,2.719E1,-1.2314957E-2,1.7783603E-2,-2.8846502E-2,-1.5196396E-1,-2.104535E-2,8.500785E-3,-2.1969808E-2,3.376857E-2],"split_indices":[13,2,20,13,0,13,5,5,0,0,0,13,0,20,13,0,0,0,0,0,0,0,0],"split_type":[0,0,0,0,0,0,0,0,0,0,0,0,0,0,0,0,0,0,0,0,0,0,0],"sum_hessian":[2.07E2,7E1,1.37E2,5.8E1,1.2E1,1.8E1,1.19E2,5.4E1,4E0,5E0,7E0,1.1E1,7E0,9.5E1,2.4E1,7E0,4.7E1,7E0,4E0,6E1,3.5E1,4E0,2E1],"tree_param":{"num_deleted":"0","num_feature":"23","num_nodes":"23","size_leaf_vector":"1"}},{"base_weights":[-2.343254E-2,-2.9237926E-2,4.5114733E-2,-4.227052E-2,4.7570795E-2,-8.792815E-2,-2.8879894E-2,-3.2228965E-2,9.735144E-2,-3.830302E-3,-2.7368957E-2,-1.9027589E-2,-0E0,5.0980162E-2,-0E0],"categories":[],"categories_nodes":[],"categories_segments":[],"categories_sizes":[],"default_left":[0,0,0,0,0,0,0,0,0,0,0,0,0,0,0],"id":56,"left_children":[1,3,-1,5,7,-1,9,11,13,-1,-1,-1,-1,-1,-1],"loss_changes":[1.8735111E-1,1.9380285E-1,0E0,5.321817E-1,1.2051013E-1,0E0,1.438783E-1,1.3949541E-2,1.3210727E-1,0E0,0E0,0E0,0E0,0E0,0E0],"parents":[2147483647,0,0,1,1,3,3,4,4,6,6,7,7,8,8],"right_children":[2,4,-1,6,8,-1,10,12,14,-1,-1,-1,-1,-1,-1],"split_conditions":[5.03E0,8.57E-1,4.5114733E-2,1E0,-5.37E0,-8.792815E-2,1.68E-1,1.139E1,1.19598E1,-3.830302E-3,-2.7368957E-2,-1.9027589E-2,-0E0,5.0980162E-2,-0E0],"split_indices":[12,19,0,21,5,0,19,10,4,0,0,0,0,0,0],"split_type":[0,0,0,0,0,0,0,0,0,0,0,0,0,0,0],"sum_hessian":[1.96E2,1.92E2,4E0,1.67E2,2.5E1,6E0,1.61E2,8E0,1.7E1,1.36E2,2.5E1,4E0,4E0,8E0,9E0],"tree_param":{"num_deleted":"0","num_feature":"23","num_nodes":"15","size_leaf_vector":"1"}},{"base_weights":[-8.549397E-3,-1.7531846E-1,-0E0,2.9111266E-2,-1.0632772E-1,7.879711E-2,-1.138877E-2,-9.712156E-4,1.8258713E-1,1.4819972E-2,-3.4036197E-2,2.5083374E-2,-2.1640684E-2,1.5150065E-2,6.336234E-2,9.405686E-3,-2.445542E-2,-2.3916392E-2,-0E0],"categories":[],"categories_nodes":[],"categories_segments":[],"categories_sizes":[],"default_left":[0,0,0,0,0,0,0,0,0,0,0,0,0,0,0,0,0,0,0],"id":57,"left_children":[1,3,5,-1,-1,7,9,11,13,15,17,-1,-1,-1,-1,-1,-1,-1,-1],"loss_changes":[3.2004097E-1,7.379502E-1,1.9066419E-1,0E0,0E0,2.6381972E-1,1.1216771E-1,1.0905037E-1,9.976625E-4,1.4803228E-1,1.7918013E-1,0E0,0E0,0E0,0E0,0E0,0E0,0E0,0E0],"parents":[2147483647,0,0,1,1,2,2,5,5,6,6,7,7,8,8,9,9,10,10],"right_children":[2,4,6,-1,-1,8,10,12,14,16,18,-1,-1,-1,-1,-1,-1,-1,-1],"split_conditions":[1E0,5E0,2.79E2,2.9111266E-2,-1.0632772E-1,1.15E2,1.8774E8,4.49E1,-4.2E-1,1.9E1,4.11979E8,2.5083374E-2,-2.1640684E-2,1.5150065E-2,6.336234E-2,9.405686E-3,-2.445542E-2,-2.3916392E-2,-0E0],"split_indices":[20,22,11,0,0,11,7,11,18,20,6,0,0,0,0,0,0,0,0],"split_type":[0,0,0,0,0,0,0,0,0,0,0,0,0,0,0,0,0,0,0],"sum_hessian":[2.16E2,1E1,2.06E2,4E0,6E0,2.6E1,1.8E2,1.4E1,1.2E1,7.9E1,1.01E2,5E0,9E0,5E0,7E0,6.9E1,1E1,3.9E1,6.2E1],"tree_param":{"num_deleted":"0","num_feature":"23","num_nodes":"19","size_leaf_vector":"1"}},{"base_weights":[1.1232968E-3,-7.740932E-2,1.782153E-2,-1.4027883E-1,1.7445631E-2,1.2158712E-1,7.989726E-3,-7.3465896E-3,-4.9051646E-2,6.545293E-2,-7.57455E-3,-2.4450168E-2,8.107575E-2,7.623312E-2,-2.8512764E-3,-0E0,2.4623295E-2,-0E0,3.383997E-2,-6.8646185E-3,1.2094888E-2],"categories":[],"categories_nodes":[],"categories_segments":[],"categories_sizes":[],"default_left":[0,0,0,0,0,0,0,0,0,0,0,0,0,0,0,0,0,0,0,0,0],"id":58,"left_children":[1,3,5,7,9,11,13,-1,-1,15,-1,-1,-1,17,19,-1,-1,-1,-1,-1,-1],"loss_changes":[2.579683E-1,2.3213713E-1,1.4647356E-1,4.1561693E-2,3.7994873E-2,5.333072E-1,1.3571045E-1,0E0,0E0,6.416999E-4,0E0,0E0,0E0,7.763183E-2,1.3626409E-1,0E0,0E0,0E0,0E0,0E0,0E0],"parents":[2147483647,0,0,1,1,2,2,3,3,4,4,5,5,6,6,9,9,13,13,14,14],"right_children":[2,4,6,8,10,12,14,-1,-1,16,-1,-1,-1,18,20,-1,-1,-1,-1,-1,-1],"split_conditions":[-2.22E0,1.553E1,1E0,1.00752E1,1.689E1,-1.43E-1,3.58E0,-7.3465896E-3,-4.9051646E-2,1.259E1,-7.57455E-3,-2.4450168E-2,8.107575E-2,2.62E0,1.61976E1,-0E0,2.4623295E-2,-0E0,3.383997E-2,-6.8646185E-3,1.2094888E-2],"split_indices":[8,14,20,1,14,17,12,0,0,10,0,0,0,12,0,0,0,0,0,0,0],"split_type":[0,0,0,0,0,0,0,0,0,0,0,0,0,0,0,0,0,0,0,0,0],"sum_hessian":[2.05E2,3.3E1,1.72E2,2.1E1,1.2E1,1.2E1,1.6E2,7E0,1.4E1,8E0,4E0,5E0,7E0,2.4E1,1.36E2,4E0,4E0,1E1,1.4E1,9.6E1,4E1],"tree_param":{"num_deleted":"0","num_feature":"23","num_nodes":"21","size_leaf_vector":"1"}},{"base_weights":[5.573671E-3,-5.83263E-3,7.006144E-2,-1.7582323E-2,7.149255E-2,1.2681182E-1,-5.002251E-2,-6.276323E-2,5.810683E-3,1.531167E-1,-1.8901534E-2,-0E0,1.6070917E-1,-0E0,-3.0744568E-2,-0E0,-3.7324905E-2,5.2202437E-2,-7.839022E-4,-0E0,6.63232E-2,-2.064859E-2,-0E0,1.6004432E-2,7.42838E-2],"categories":[],"categories_nodes":[],"categories_segments":[],"categories_sizes":[],"default_left":[0,0,0,0,0,0,0,0,0,0,0,0,0,0,0,0,0,0,0,0,0,0,0,0,0],"id":59,"left_children":[1,3,5,7,9,11,13,15,17,19,21,-1,23,-1,-1,-1,-1,-1,-1,-1,-1,-1,-1,-1,-1],"loss_changes":[1.7581356E-1,1.5618949E-1,2.679459E-1,1.8530697E-1,1.9456694E-1,1.2356472E-1,4.5588493E-2,2.5615054E-1,2.0752442E-1,2.0806724E-1,2.3801772E-2,0E0,1.4381641E-1,0E0,0E0,0E0,0E0,0E0,0E0,0E0,0E0,0E0,0E0,0E0,0E0],"parents":[2147483647,0,0,1,1,2,2,3,3,4,4,5,5,6,6,7,7,8,8,9,9,10,10,12,12],"right_children":[2,4,6,8,10,12,14,16,18,20,22,-1,24,-1,-1,-1,-1,-1,-1,-1,-1,-1,-1,-1,-1],"split_conditions":[7.14E-1,9.87E-1,3.063E1,1.213E1,1.564E1,8.0221E0,-2.51E-1,2.173E1,1E0,1.073E1,9E0,-0E0,2.285E1,-0E0,-3.0744568E-2,-0E0,-3.7324905E-2,5.2202437E-2,-7.839022E-4,-0E0,6.63232E-2,-2.064859E-2,-0E0,1.6004432E-2,7.42838E-2],"split_indices":[16,19,13,10,14,0,19,9,20,10,20,0,9,0,0,0,0,0,0,0,0,0,0,0,0],"split_type":[0,0,0,0,0,0,0,0,0,0,0,0,0,0,0,0,0,0,0,0,0,0,0,0,0],"sum_hessian":[2.18E2,1.83E2,3.5E1,1.62E2,2.1E1,2.5E1,1E1,5.8E1,1.04E2,1.2E1,9E0,5E0,2E1,5E0,5E0,3.2E1,2.6E1,5E0,9.9E1,4E0,8E0,4E0,5E0,1.2E1,8E0],"tree_param":{"num_deleted":"0","num_feature":"23","num_nodes":"25","size_leaf_vector":"1"}},{"base_weights":[-9.026776E-3,-2.5203055E-2,4.348598E-2,-1.978002E-1,-1.2940387E-2,9.250852E-2,-7.853321E-2,4.9456027E-3,-1.0641317E-1,2.394933E-2,-4.3643568E-2,1.6957554E-1,1.14855515E-2,-0E0,-3.1570673E-2,-2.797285E-3,1.8558064E-2,4.3427353E-3,-1.898116E-2,-0E0,6.318047E-2,1.9067233E-2,-3.7439214E-3],"categories":[],"categories_nodes":[],"categories_segments":[],"categories_sizes":[],"default_left":[0,0,0,0,0,0,0,0,0,0,0,0,0,0,0,0,0,0,0,0,0,0,0],"id":60,"left_children":[1,3,5,7,9,11,13,-1,-1,15,17,19,21,-1,-1,-1,-1,-1,-1,-1,-1,-1,-1],"loss_changes":[1.8034159E-1,3.0792028E-1,2.965684E-1,4.8686722E-1,1.865248E-1,1.8194762E-1,3.6089644E-2,0E0,0E0,1.1573912E-1,1.4677113E-1,1.3295075E-1,4.1795354E-2,0E0,0E0,0E0,0E0,0E0,0E0,0E0,0E0,0E0,0E0],"parents":[2147483647,0,0,1,1,2,2,3,3,4,4,5,5,6,6,9,9,10,10,11,11,12,12],"right_children":[2,4,6,8,10,12,14,-1,-1,16,18,20,22,-1,-1,-1,-1,-1,-1,-1,-1,-1,-1],"split_conditions":[2.466E1,1E0,7.17E0,4E0,2.253E1,1.3E0,1.788E1,4.9456027E-3,-1.0641317E-1,1.102E1,4.834E2,-1.9E-1,3.161E2,-0E0,-3.1570673E-2,-2.797285E-3,1.8558064E-2,4.3427353E-3,-1.898116E-2,-0E0,6.318047E-2,1.9067233E-2,-3.7439214E-3],"split_indices":[9,20,8,22,9,5,10,0,0,10,11,8,11,0,0,0,0,0,0,0,0,0,0],"split_type":[0,0,0,0,0,0,0,0,0,0,0,0,0,0,0,0,0,0,0,0,0,0,0],"sum_hessian":[2.15E2,1.68E2,4.7E1,9E0,1.59E2,3.5E1,1.2E1,4E0,5E0,6.9E1,9E1,1.6E1,1.9E1,4E0,8E0,3.6E1,3.3E1,2.4E1,6.6E1,5E0,1.1E1,8E0,1.1E1],"tree_param":{"num_deleted":"0","num_feature":"23","num_nodes":"23","size_leaf_vector":"1"}},{"base_weights":[-9.313251E-3,-3.12574E-2,3.274461E-2,-6.68779E-3,-7.608626E-2,8.026469E-3,1.5630665E-1,1.8351935E-3,-3.188635E-2,-3.6598913E-2,-6.590592E-2,3.1497538E-2,-2.5097132E-2,4.080815E-3,6.976529E-2,-7.739763E-4,2.885291E-2,-3.0720724E-2,-0E0,-1.147026E-2,1.9190194E-2],"categories":[],"categories_nodes":[],"categories_segments":[],"categories_sizes":[],"default_left":[0,0,0,0,0,0,0,0,0,0,0,0,0,0,0,0,0,0,0,0,0],"id":61,"left_children":[1,3,5,7,9,11,13,15,-1,17,-1,19,-1,-1,-1,-1,-1,-1,-1,-1,-1],"loss_changes":[1.9436449E-1,1.372963E-1,1.7251995E-1,1.1415759E-1,2.3002994E-1,1.2805761E-1,7.0922896E-2,6.458531E-2,0E0,1.1760686E-1,0E0,1.4896095E-1,0E0,0E0,0E0,0E0,0E0,0E0,0E0,0E0,0E0],"parents":[2147483647,0,0,1,1,2,2,3,3,4,4,5,5,6,6,7,7,9,9,11,11],"right_children":[2,4,6,8,10,12,14,16,-1,18,-1,20,-1,-1,-1,-1,-1,-1,-1,-1,-1],"split_conditions":[4.11979E8,1.8774E8,1.63025E1,2.15746E1,1.634E1,1.22866E1,1.285E0,1.93657E1,-3.188635E-2,1.073E1,-6.590592E-2,-4.84E0,-2.5097132E-2,4.080815E-3,6.976529E-2,-7.739763E-4,2.885291E-2,-3.0720724E-2,-0E0,-1.147026E-2,1.9190194E-2],"split_indices":[6,7,3,4,14,1,5,4,0,10,0,5,0,0,0,0,0,0,0,0,0],"split_type":[0,0,0,0,0,0,0,0,0,0,0,0,0,0,0,0,0,0,0,0,0],"sum_hessian":[2.09E2,1.41E2,6.8E1,9.5E1,4.6E1,5.9E1,9E0,8.7E1,8E0,3.9E1,7E0,5E1,9E0,5E0,4E0,8.2E1,5E0,1.3E1,2.6E1,1.5E1,3.5E1],"tree_param":{"num_deleted":"0","num_feature":"23","num_nodes":"21","size_leaf_vector":"1"}},{"base_weights":[9.282543E-3,-1.661882E-1,1.8332513E-2,-7.413365E-2,-0E0,7.620389E-2,1.7022626E-3,1.2770884E-1,1.0607876E-2,7.77338E-2,-1.0881579E-2,5.3342696E-2,-0E0,-4.743363E-3,1.2841702E-2,3.681737E-2,-0E0,-2.5119673E-2,3.2931945E-4],"categories":[],"categories_nodes":[],"categories_segments":[],"categories_sizes":[],"default_left":[0,0,0,0,0,0,0,0,0,0,0,0,0,0,0,0,0,0,0],"id":62,"left_children":[1,3,5,-1,-1,7,9,11,13,15,17,-1,-1,-1,-1,-1,-1,-1,-1],"loss_changes":[2.95111E-1,1.0593885E-1,1.7194255E-1,0E0,0E0,1.06013566E-1,1.6591516E-1,1.3747051E-1,2.8008778E-2,7.746217E-2,1.4808838E-1,0E0,0E0,0E0,0E0,0E0,0E0,0E0,0E0],"parents":[2147483647,0,0,1,1,2,2,5,5,6,6,7,7,8,8,9,9,10,10],"right_children":[2,4,6,-1,-1,8,10,12,14,16,18,-1,-1,-1,-1,-1,-1,-1,-1],"split_conditions":[1E0,1.172E1,6E0,-7.413365E-2,-0E0,-4.29E-1,3.058E2,1.30653E1,3E0,9E-2,-9.55E-1,5.3342696E-2,-0E0,-4.743363E-3,1.2841702E-2,3.681737E-2,-0E0,-2.5119673E-2,3.2931945E-4],"split_indices":[20,10,20,0,0,16,11,0,20,5,17,0,0,0,0,0,0,0,0],"split_type":[0,0,0,0,0,0,0,0,0,0,0,0,0,0,0,0,0,0,0],"sum_hessian":[2.04E2,8E0,1.96E2,4E0,4E0,4E1,1.56E2,2E1,2E1,2.4E1,1.32E2,1.2E1,8E0,8E0,1.2E1,1.2E1,1.2E1,1.9E1,1.13E2],"tree_param":{"num_deleted":"0","num_feature":"23","num_nodes":"19","size_leaf_vector":"1"}},{"base_weights":[8.249764E-3,1.5485612E-1,-0E0,-3.6177225E-2,9.490472E-2,8.294124E-3,-5.7541925E-2,7.3071085E-2,-3.8401391E-3,-1.1145763E-1,1.3886101E-4,6.1616236E-3,4.580084E-2,-1.3768029E-2,2.7870056E-3,-3.9542947E-2,-0E0,6.964616E-3,-0E0],"categories":[],"categories_nodes":[],"categories_segments":[],"categories_sizes":[],"default_left":[0,0,0,0,0,0,0,0,0,0,0,0,0,0,0,0,0,0,0],"id":63,"left_children":[1,3,5,-1,-1,7,9,11,13,15,17,-1,-1,-1,-1,-1,-1,-1,-1],"loss_changes":[2.7189305E-1,7.2733986E-1,1.0091997E-1,0E0,0E0,1.5013278E-1,1.0871231E-1,9.480628E-2,9.972644E-2,4.4888064E-2,5.005147E-3,0E0,0E0,0E0,0E0,0E0,0E0,0E0,0E0],"parents":[2147483647,0,0,1,1,2,2,5,5,6,6,7,7,8,8,9,9,10,10],"right_children":[2,4,6,-1,-1,8,10,12,14,16,18,-1,-1,-1,-1,-1,-1,-1,-1],"split_conditions":[1E0,1.129E1,8.01E-1,-3.6177225E-2,9.490472E-2,8.1397E0,1.011E0,3.06E-1,1.05938E1,-8.9E-2,1.64101E1,6.1616236E-3,4.580084E-2,-1.3768029E-2,2.7870056E-3,-3.9542947E-2,-0E0,6.964616E-3,-0E0],"split_indices":[20,10,18,0,0,2,16,18,0,17,0,0,0,0,0,0,0,0,0],"split_type":[0,0,0,0,0,0,0,0,0,0,0,0,0,0,0,0,0,0,0],"sum_hessian":[2.07E2,1.1E1,1.96E2,4E0,7E0,1.7E2,2.6E1,2.9E1,1.41E2,1.5E1,1.1E1,2.1E1,8E0,3.6E1,1.05E2,1.1E1,4E0,7E0,4E0],"tree_param":{"num_deleted":"0","num_feature":"23","num_nodes":"19","size_leaf_vector":"1"}},{"base_weights":[-4.08496E-3,-7.483124E-2,6.284892E-3,-0E0,-1.8853861E-1,-2.4052978E-2,3.3950098E-2,2.1062002E-2,-2.8946007E-2,-7.815408E-2,-1.7870385E-2,-5.5599473E-2,2.1920819E-2,1.599401E-1,-0E0,-0E0,1.8245062E-2,4.3874234E-3,-2.156558E-2,2.2181068E-2,-1.536942E-3,5.9581853E-2,-6.950626E-4,8.026256E-3,-1.5118767E-2],"categories":[],"categories_nodes":[],"categories_segments":[],"categories_sizes":[],"default_left":[0,0,0,0,0,0,0,0,0,0,0,0,0,0,0,0,0,0,0,0,0,0,0,0,0],"id":64,"left_children":[1,3,5,7,9,11,13,15,-1,-1,-1,17,19,21,23,-1,-1,-1,-1,-1,-1,-1,-1,-1,-1],"loss_changes":[1.7127886E-1,2.2087464E-1,1.565089E-1,6.0810518E-2,3.213024E-2,1.3040309E-1,3.9460298E-1,1.8619258E-2,0E0,0E0,0E0,9.8975584E-2,6.805891E-2,2.2622162E-1,1.24033056E-1,0E0,0E0,0E0,0E0,0E0,0E0,0E0,0E0,0E0,0E0],"parents":[2147483647,0,0,1,1,2,2,3,3,4,4,5,5,6,6,7,7,11,11,12,12,13,13,14,14],"right_children":[2,4,6,8,10,12,14,16,-1,-1,-1,18,20,22,24,-1,-1,-1,-1,-1,-1,-1,-1,-1,-1],"split_conditions":[-1.016E0,-1.345E0,1.18545E1,1.56051E1,3.5E0,7.27885E8,1.20152E1,2.24707E8,-2.8946007E-2,-7.815408E-2,-1.7870385E-2,3.66E0,7.881E8,4.18446E8,7.164E2,-0E0,1.8245062E-2,4.3874234E-3,-2.156558E-2,2.2181068E-2,-1.536942E-3,5.9581853E-2,-6.950626E-4,8.026256E-3,-1.5118767E-2],"split_indices":[18,18,0,0,12,6,3,6,0,0,0,12,6,6,11,0,0,0,0,0,0,0,0,0,0],"split_type":[0,0,0,0,0,0,0,0,0,0,0,0,0,0,0,0,0,0,0,0,0,0,0,0,0],"sum_hessian":[2.11E2,2.9E1,1.82E2,1.9E1,1E1,8.3E1,9.9E1,1.5E1,4E0,4E0,6E0,5.2E1,3.1E1,1.9E1,8E1,1E1,5E0,1E1,4.2E1,1.2E1,1.9E1,1.5E1,4E0,5.5E1,2.5E1],"tree_param":{"num_deleted":"0","num_feature":"23","num_nodes":"25","size_leaf_vector":"1"}},{"base_weights":[5.3061536E-3,2.0865593E-2,-4.1071024E-2,2.0452687E-1,5.854216E-3,-1.5997575E-1,-0E0,-0E0,8.118759E-2,-7.675866E-4,1.0131555E-1,-6.985976E-3,-1.00207865E-1,-2.9572174E-2,4.439527E-2,1.7739541E-3,-2.6712425E-2,6.0280614E-2,-0E0,-1.2406717E-2,-0E0,2.3966087E-3,-3.502112E-2,2.011998E-2,-0E0],"categories":[],"categories_nodes":[],"categories_segments":[],"categories_sizes":[],"default_left":[0,0,0,0,0,0,0,0,0,0,0,0,0,0,0,0,0,0,0,0,0,0,0,0,0],"id":65,"left_children":[1,3,5,7,9,11,13,-1,-1,15,17,19,-1,21,23,-1,-1,-1,-1,-1,-1,-1,-1,-1,-1],"loss_changes":[1.4630774E-1,3.9265198E-1,2.4832925E-1,1.3724306E-1,1.1738509E-1,3.136848E-1,5.0570168E-2,0E0,0E0,1.1593979E-1,1.5793833E-1,9.437775E-3,0E0,1.0850123E-1,2.091736E-2,0E0,0E0,0E0,0E0,0E0,0E0,0E0,0E0,0E0,0E0],"parents":[2147483647,0,0,1,1,2,2,3,3,4,4,5,5,6,6,9,9,10,10,11,11,13,13,14,14],"right_children":[2,4,6,8,10,12,14,-1,-1,16,18,20,-1,22,24,-1,-1,-1,-1,-1,-1,-1,-1,-1,-1],"split_conditions":[4.9E-1,1E0,6.46E-1,4E0,3.48E-1,2.277E1,1.3E1,-0E0,8.118759E-2,1.9E1,1.5E1,1.131E1,-1.00207865E-1,1.251E1,1.909E1,1.7739541E-3,-2.6712425E-2,6.0280614E-2,-0E0,-1.2406717E-2,-0E0,2.3966087E-3,-3.502112E-2,2.011998E-2,-0E0],"split_indices":[18,21,18,22,18,9,10,0,0,21,21,10,0,10,14,0,0,0,0,0,0,0,0,0,0],"split_type":[0,0,0,0,0,0,0,0,0,0,0,0,0,0,0,0,0,0,0,0,0,0,0,0,0],"sum_hessian":[2.07E2,1.59E2,4.8E1,1E1,1.49E2,1.2E1,3.6E1,4E0,6E0,1.38E2,1.1E1,8E0,4E0,2.1E1,1.5E1,1.27E2,1.1E1,5E0,6E0,4E0,4E0,1.4E1,7E0,9E0,6E0],"tree_param":{"num_deleted":"0","num_feature":"23","num_nodes":"25","size_leaf_vector":"1"}},{"base_weights":[7.842271E-3,-6.9391914E-3,4.397444E-2,-0E0,-4.8359998E-2,1.8379673E-2,1.322224E-1,-7.233511E-2,1.5042683E-2,4.3480035E-2,-4.8946563E-2,1.8161821E-1,-0E0,-3.986872E-3,-7.1879655E-2,4.8538227E-2,1.306636E-3,-0E0,2.1093344E-2,-0E0,-2.1217974E-2,6.7907155E-2,1.0686135E-2],"categories":[],"categories_nodes":[],"categories_segments":[],"categories_sizes":[],"default_left":[0,0,0,0,0,0,0,0,0,0,0,0,0,0,0,0,0,0,0,0,0,0,0],"id":66,"left_children":[1,3,5,7,-1,9,11,13,15,17,19,21,-1,-1,-1,-1,-1,-1,-1,-1,-1,-1,-1],"loss_changes":[1.2337549E-1,1.7328176E-1,1.15154326E-1,1.575714E-1,0E0,9.357405E-2,6.8478316E-2,2.0530911E-1,1.572018E-1,7.478596E-2,9.624176E-3,8.618623E-3,0E0,0E0,0E0,0E0,0E0,0E0,0E0,0E0,0E0,0E0,0E0],"parents":[2147483647,0,0,1,1,2,2,3,3,5,5,6,6,7,7,8,8,9,9,10,10,11,11],"right_children":[2,4,6,8,-1,10,12,14,16,18,20,22,-1,-1,-1,-1,-1,-1,-1,-1,-1,-1,-1],"split_conditions":[3.88539E8,3.85221E8,1.61572E1,1.427E1,-4.8359998E-2,8.8E-1,7.24786E8,1.99E8,1E0,-1.44E0,1.12968E1,2.538E1,-0E0,-3.986872E-3,-7.1879655E-2,4.8538227E-2,1.306636E-3,-0E0,2.1093344E-2,-0E0,-2.1217974E-2,6.7907155E-2,1.0686135E-2],"split_indices":[7,6,4,14,0,8,6,6,21,8,1,9,0,0,0,0,0,0,0,0,0,0,0],"split_type":[0,0,0,0,0,0,0,0,0,0,0,0,0,0,0,0,0,0,0,0,0,0,0],"sum_hessian":[2.14E2,1.48E2,6.6E1,1.43E2,5E0,5.4E1,1.2E1,2.4E1,1.19E2,4.2E1,1.2E1,8E0,4E0,2E1,4E0,5E0,1.14E2,1.6E1,2.6E1,6E0,6E0,4E0,4E0],"tree_param":{"num_deleted":"0","num_feature":"23","num_nodes":"23","size_leaf_vector":"1"}},{"base_weights":[-1.0253446E-4,-8.227838E-2,7.492752E-3,1.2991977E-2,-1.9107245E-1,-2.1596901E-2,2.1394981E-2,-0E0,1.6714294E-2,-1.0187113E-1,-2.1076398E-3,4.1425426E-2,-3.6653314E-2,6.7968587E-3,8.5198715E-2,-0E0,2.4279607E-2,-2.055875E-2,-0E0,3.4191884E-2,-2.0975785E-4,5.5944927E-2,-0E0],"categories":[],"categories_nodes":[],"categories_segments":[],"categories_sizes":[],"default_left":[0,0,0,0,0,0,0,0,0,0,0,0,0,0,0,0,0,0,0,0,0,0,0],"id":67,"left_children":[1,3,5,7,9,11,13,-1,-1,-1,-1,15,17,19,21,-1,-1,-1,-1,-1,-1,-1,-1],"loss_changes":[1.5273215E-1,2.591418E-1,8.00236E-2,1.971138E-2,2.6709628E-1,5.6256123E-2,1.08240075E-1,0E0,0E0,0E0,0E0,2.2491533E-2,6.871531E-2,1.3051617E-1,2.3801272E-1,0E0,0E0,0E0,0E0,0E0,0E0,0E0,0E0],"parents":[2147483647,0,0,1,1,2,2,3,3,4,4,5,5,6,6,11,11,12,12,13,13,14,14],"right_children":[2,4,6,8,10,12,14,-1,-1,-1,-1,16,18,20,22,-1,-1,-1,-1,-1,-1,-1,-1],"split_conditions":[-9.52E-1,1.168E1,-2.55E0,1.1E1,1.18887E1,5.8094E0,2.916E1,-0E0,1.6714294E-2,-1.0187113E-1,-2.1076398E-3,1.2E1,1.23591E1,-1.7E0,1.73185E1,-0E0,2.4279607E-2,-2.055875E-2,-0E0,3.4191884E-2,-2.0975785E-4,5.5944927E-2,-0E0],"split_indices":[19,10,5,20,1,1,13,0,0,0,0,20,1,5,1,0,0,0,0,0,0,0,0],"split_type":[0,0,0,0,0,0,0,0,0,0,0,0,0,0,0,0,0,0,0,0,0,0,0],"sum_hessian":[2.16E2,2E1,1.96E2,1E1,1E1,5.8E1,1.38E2,5E0,5E0,4E0,6E0,8E0,5E1,1.16E2,2.2E1,4E0,4E0,2.4E1,2.6E1,8E0,1.08E2,9E0,1.3E1],"tree_param":{"num_deleted":"0","num_feature":"23","num_nodes":"23","size_leaf_vector":"1"}},{"base_weights":[-9.115615E-3,-1.1416306E-1,-1.9360314E-3,-7.297785E-2,2.8203277E-2,3.9993547E-2,-8.8655185E-3,-0E0,9.3017E-2,-5.431555E-2,-0E0,5.133103E-3,-3.6106557E-3,4.9364872E-2,-0E0,-0E0,-1.9596772E-2,1.3170315E-2,-2.3150458E-3],"categories":[],"categories_nodes":[],"categories_segments":[],"categories_sizes":[],"default_left":[0,0,0,0,0,0,0,0,0,0,0,0,0,0,0,0,0,0,0],"id":68,"left_children":[1,3,5,-1,-1,7,9,11,13,15,17,-1,-1,-1,-1,-1,-1,-1,-1],"loss_changes":[1.3813028E-1,4.4513065E-1,5.3474404E-2,0E0,0E0,5.4680627E-2,6.211527E-2,3.7177172E-3,6.175957E-2,2.8115578E-2,5.4682244E-2,0E0,0E0,0E0,0E0,0E0,0E0,0E0,0E0],"parents":[2147483647,0,0,1,1,2,2,5,5,6,6,7,7,8,8,9,9,10,10],"right_children":[2,4,6,-1,-1,8,10,12,14,16,18,-1,-1,-1,-1,-1,-1,-1,-1],"split_conditions":[1E0,2.348E1,8.48E1,-7.297785E-2,2.8203277E-2,5.55E1,1.233E2,3.6E1,6.73E1,9.55E1,1.03519E8,5.133103E-3,-3.6106557E-3,4.9364872E-2,-0E0,-0E0,-1.9596772E-2,1.3170315E-2,-2.3150458E-3],"split_indices":[20,9,15,0,0,15,15,15,15,15,6,0,0,0,0,0,0,0,0],"split_type":[0,0,0,0,0,0,0,0,0,0,0,0,0,0,0,0,0,0,0],"sum_hessian":[2.17E2,1.1E1,2.06E2,7E0,4E0,2.4E1,1.82E2,1.4E1,1E1,2.5E1,1.57E2,5E0,9E0,4E0,6E0,5E0,2E1,1.9E1,1.38E2],"tree_param":{"num_deleted":"0","num_feature":"23","num_nodes":"19","size_leaf_vector":"1"}},{"base_weights":[7.630302E-3,1.9231042E-1,-7.0508796E-4,2.369302E-3,9.192868E-2,-2.1049213E-2,1.0670704E-2,1.6765745E-2,-4.893176E-2,-0E0,8.750445E-2,1.6909188E-2,-7.884676E-3,6.790934E-3,-1.8108048E-2,-2.4608716E-2,2.490043E-3,3.267852E-2,-0E0],"categories":[],"categories_nodes":[],"categories_segments":[],"categories_sizes":[],"default_left":[0,0,0,0,0,0,0,0,0,0,0,0,0,0,0,0,0,0,0],"id":69,"left_children":[1,3,5,-1,-1,7,9,11,13,15,17,-1,-1,-1,-1,-1,-1,-1,-1],"loss_changes":[3.5546094E-1,1.7532939E-1,4.741591E-2,0E0,0E0,8.908342E-2,1.0853527E-1,6.8767294E-2,6.834636E-2,9.363719E-2,4.383011E-2,0E0,0E0,0E0,0E0,0E0,0E0,0E0,0E0],"parents":[2147483647,0,0,1,1,2,2,5,5,6,6,7,7,8,8,9,9,10,10],"right_children":[2,4,6,-1,-1,8,10,12,14,16,18,-1,-1,-1,-1,-1,-1,-1,-1],"split_conditions":[1E0,6.231E2,-3.65E-1,2.369302E-3,9.192868E-2,6E0,7.06E-1,2E-1,2.3588E7,7.0775E0,1.391E0,1.6909188E-2,-7.884676E-3,6.790934E-3,-1.8108048E-2,-2.4608716E-2,2.490043E-3,3.267852E-2,-0E0],"split_indices":[20,11,16,0,0,20,19,19,6,0,19,0,0,0,0,0,0,0,0],"split_type":[0,0,0,0,0,0,0,0,0,0,0,0,0,0,0,0,0,0,0],"sum_hessian":[2.02E2,9E0,1.93E2,5E0,4E0,7.6E1,1.17E2,2.9E1,4.7E1,1.02E2,1.5E1,1.7E1,1.2E1,6E0,4.1E1,1E1,9.2E1,1.1E1,4E0],"tree_param":{"num_deleted":"0","num_feature":"23","num_nodes":"19","size_leaf_vector":"1"}},{"base_weights":[-0E0,9.760701E-3,-3.547809E-2,-9.979733E-3,4.4141922E-2,-1.3768029E-1,-0E0,3.9790932E-2,-3.471626E-2,-0E0,8.828318E-2,-7.596174E-2,-0E0,1.8582249E-2,-5.3832337E-2,-7.306473E-3,2.253399E-2,3.5347086E-3,-2.4993489E-2,-2.0053731E-2,5.6792856E-3,4.8156954E-2,-0E0,1.39569305E-2,-0E0,-2.3687009E-2,-0E0],"categories":[],"categories_nodes":[],"categories_segments":[],"categories_sizes":[],"default_left":[0,0,0,0,0,0,0,0,0,0,0,0,0,0,0,0,0,0,0,0,0,0,0,0,0,0,0],"id":70,"left_children":[1,3,5,7,9,11,13,15,17,19,21,-1,-1,23,25,-1,-1,-1,-1,-1,-1,-1,-1,-1,-1,-1,-1],"loss_changes":[7.516235E-2,1.2271854E-1,1.48086E-1,1.2809633E-1,1.2038441E-1,1.6296995E-1,4.3520138E-2,1.01966426E-1,2.1038917E-1,4.840864E-2,2.3193912E-1,0E0,0E0,2.1289757E-2,2.3330804E-2,0E0,0E0,0E0,0E0,0E0,0E0,0E0,0E0,0E0,0E0,0E0,0E0],"parents":[2147483647,0,0,1,1,2,2,3,3,4,4,5,5,6,6,7,7,8,8,9,9,10,10,13,13,14,14],"right_children":[2,4,6,8,10,12,14,16,18,20,22,-1,-1,24,26,-1,-1,-1,-1,-1,-1,-1,-1,-1,-1,-1,-1],"split_conditions":[5.61E-1,2.296E1,1.09752E8,1.033E1,5.024E2,1.84E1,4.13873E8,-2E-2,3E-2,1.593E1,1.75349E1,-7.596174E-2,-0E0,9E-2,1.194E0,-7.306473E-3,2.253399E-2,3.5347086E-3,-2.4993489E-2,-2.0053731E-2,5.6792856E-3,4.8156954E-2,-0E0,1.39569305E-2,-0E0,-2.3687009E-2,-0E0],"split_indices":[18,9,6,10,11,14,7,8,8,14,0,0,0,5,18,0,0,0,0,0,0,0,0,0,0,0,0],"split_type":[0,0,0,0,0,0,0,0,0,0,0,0,0,0,0,0,0,0,0,0,0,0,0,0,0,0,0],"sum_hessian":[2.14E2,1.68E2,4.6E1,1.03E2,6.5E1,1E1,3.6E1,3.1E1,7.2E1,3.4E1,3.1E1,4E0,6E0,2.5E1,1.1E1,1E1,2.1E1,3.7E1,3.5E1,6E0,2.8E1,1.5E1,1.6E1,1.1E1,1.4E1,7E0,4E0],"tree_param":{"num_deleted":"0","num_feature":"23","num_nodes":"27","size_leaf_vector":"1"}},{"base_weights":[-3.202455E-3,7.443073E-3,-3.9512254E-2,1.80161E-2,-7.64004E-2,-1.1263372E-1,-1.113502E-2,3.7354887E-2,-4.3151616E-3,-6.65147E-2,-0E0,-0E0,-5.062273E-2,4.1934624E-2,-3.508457E-2,-0E0,2.2644142E-2,-1.2897255E-2,1.6793545E-2,-1.2228068E-2,1.4196009E-2,-0E0,2.5446115E-2,-2.4906792E-2,-0E0],"categories":[],"categories_nodes":[],"categories_segments":[],"categories_sizes":[],"default_left":[0,0,0,0,0,0,0,0,0,0,0,0,0,0,0,0,0,0,0,0,0,0,0,0,0],"id":71,"left_children":[1,3,5,7,9,11,13,15,17,-1,19,-1,-1,21,23,-1,-1,-1,-1,-1,-1,-1,-1,-1,-1],"loss_changes":[8.590105E-2,1.2375767E-1,7.676652E-2,6.755346E-2,1.9665083E-1,7.976329E-2,5.057872E-2,1.2157531E-1,1.6365634E-1,0E0,2.7087154E-2,0E0,0E0,3.2502446E-2,7.438938E-2,0E0,0E0,0E0,0E0,0E0,0E0,0E0,0E0,0E0,0E0],"parents":[2147483647,0,0,1,1,2,2,3,3,4,4,5,5,6,6,7,7,8,8,10,10,13,13,14,14],"right_children":[2,4,6,8,10,12,14,16,18,-1,20,-1,-1,22,24,-1,-1,-1,-1,-1,-1,-1,-1,-1,-1],"split_conditions":[4.04E-1,5.414E2,-9.52E-1,1.17921E1,5E0,1.3627E8,-7.22E-1,1.04833E1,1.62331E1,-6.65147E-2,1.1674E1,-0E0,-5.062273E-2,1.41165E1,-1.68E-1,-0E0,2.2644142E-2,-1.2897255E-2,1.6793545E-2,-1.2228068E-2,1.4196009E-2,-0E0,2.5446115E-2,-2.4906792E-2,-0E0],"split_indices":[18,15,19,2,20,7,19,0,0,0,1,0,0,1,19,0,0,0,0,0,0,0,0,0,0],"split_type":[0,0,0,0,0,0,0,0,0,0,0,0,0,0,0,0,0,0,0,0,0,0,0,0,0],"sum_hessian":[2.02E2,1.52E2,5E1,1.38E2,1.4E1,1.1E1,3.9E1,7.9E1,5.9E1,4E0,1E1,5E0,6E0,9E0,3E1,4.5E1,3.4E1,3.8E1,2.1E1,5E0,5E0,4E0,5E0,1.3E1,1.7E1],"tree_param":{"num_deleted":"0","num_feature":"23","num_nodes":"25","size_leaf_vector":"1"}},{"base_weights":[-0E0,6.6660576E-2,-8.719501E-3,1.0775071E-1,-0E0,-1.38984E-2,3.871397E-2,5.8476374E-2,2.2094525E-2,7.4084295E-4,-7.5581097E-3,-3.9126515E-2,-6.047944E-3,1.0553831E-2,-0E0,-3.632889E-2,-3.0466245E-4],"categories":[],"categories_nodes":[],"categories_segments":[],"categories_sizes":[],"default_left":[0,0,0,0,0,0,0,0,0,0,0,0,0,0,0,0,0],"id":72,"left_children":[1,3,5,7,9,11,-1,-1,13,-1,-1,-1,15,-1,-1,-1,-1],"loss_changes":[1.20540425E-1,7.860203E-2,1.172609E-1,8.425161E-2,3.6994473E-3,1.4896214E-1,0E0,0E0,4.7092293E-3,0E0,0E0,0E0,7.846486E-2,0E0,0E0,0E0,0E0],"parents":[2147483647,0,0,1,1,2,2,3,3,4,4,5,5,8,8,12,12],"right_children":[2,4,6,8,10,12,-1,-1,14,-1,-1,-1,16,-1,-1,-1,-1],"split_conditions":[-1.011E0,-6.88E-1,4.93E0,-1.37E-1,-3.67E-1,1E0,3.871397E-2,5.8476374E-2,1.251E1,7.4084295E-4,-7.5581097E-3,-3.9126515E-2,-9.57E-1,1.0553831E-2,-0E0,-3.632889E-2,-3.0466245E-4],"split_indices":[17,19,12,18,16,20,0,0,10,0,0,0,17,0,0,0,0],"split_type":[0,0,0,0,0,0,0,0,0,0,0,0,0,0,0,0,0],"sum_hessian":[2.09E2,2.3E1,1.86E2,1.5E1,8E0,1.82E2,4E0,5E0,1E1,4E0,4E0,8E0,1.74E2,6E0,4E0,4E0,1.7E2],"tree_param":{"num_deleted":"0","num_feature":"23","num_nodes":"17","size_leaf_vector":"1"}},{"base_weights":[1.2396164E-4,1.2513271E-2,-2.9571094E-2,2.654951E-2,-3.4284636E-2,-1.1229941E-1,-0E0,1.2590295E-2,9.670606E-2,-1.1052765E-1,3.9456245E-2,-0E0,-6.379426E-2,-2.6557993E-2,2.9917857E-2,8.120228E-3,-2.1699369E-2,3.448644E-2,-0E0,-0E0,-6.2073685E-2,-3.5095788E-3,2.9587094E-2,-1.20140035E-2,7.799989E-4,2.1305974E-3,-2.7125372E-2,2.487844E-2,-2.762578E-4],"categories":[],"categories_nodes":[],"categories_segments":[],"categories_sizes":[],"default_left":[0,0,0,0,0,0,0,0,0,0,0,0,0,0,0,0,0,0,0,0,0,0,0,0,0,0,0,0,0],"id":73,"left_children":[1,3,5,7,9,11,13,15,17,19,21,23,-1,25,27,-1,-1,-1,-1,-1,-1,-1,-1,-1,-1,-1,-1,-1,-1],"loss_changes":[7.522417E-2,1.0219192E-1,1.24996E-1,9.67154E-2,2.0510988E-1,1.383669E-1,3.593548E-2,1.5499224E-1,4.793872E-2,1.7859223E-1,7.8200944E-2,9.297369E-3,0E0,8.666368E-2,5.4993235E-2,0E0,0E0,0E0,0E0,0E0,0E0,0E0,0E0,0E0,0E0,0E0,0E0,0E0,0E0],"parents":[2147483647,0,0,1,1,2,2,3,3,4,4,5,5,6,6,7,7,8,8,9,9,10,10,11,11,13,13,14,14],"right_children":[2,4,6,8,10,12,14,16,18,20,22,24,-1,26,28,-1,-1,-1,-1,-1,-1,-1,-1,-1,-1,-1,-1,-1,-1],"split_conditions":[1.699E1,5.12E-1,3.81E0,1.63209E1,1.488E1,8.5996E0,-1.92E-1,1.36057E1,1.73894E1,1.94456E8,-6.13E0,8.3502E0,-6.379426E-2,-5.59E-1,5.4E-2,8.120228E-3,-2.1699369E-2,3.448644E-2,-0E0,-0E0,-6.2073685E-2,-3.5095788E-3,2.9587094E-2,-1.20140035E-2,7.799989E-4,2.1305974E-3,-2.7125372E-2,2.487844E-2,-2.762578E-4],"split_indices":[14,19,12,0,14,1,19,2,2,7,5,0,0,17,17,0,0,0,0,0,0,0,0,0,0,0,0,0,0],"split_type":[0,0,0,0,0,0,0,0,0,0,0,0,0,0,0,0,0,0,0,0,0,0,0,0,0,0,0,0,0],"sum_hessian":[2.13E2,1.56E2,5.7E1,1.24E2,3.2E1,1.3E1,4.4E1,1.07E2,1.7E1,1.7E1,1.5E1,8E0,5E0,2.6E1,1.8E1,9.3E1,1.4E1,1.3E1,4E0,1E1,7E0,7E0,8E0,4E0,4E0,1.6E1,1E1,8E0,1E1],"tree_param":{"num_deleted":"0","num_feature":"23","num_nodes":"29","size_leaf_vector":"1"}},{"base_weights":[-0E0,1.54339215E-2,-2.5337674E-2,3.4698006E-2,6.8354136E-3,-7.9721145E-2,-6.7501417E-3,-1.7910741E-2,3.1157685E-2,-5.450812E-2,-0E0,3.2071933E-2,-2.4112983E-2,2.1050416E-2,-1.1810879E-2,-0E0,1.6821975E-2,7.761667E-3,-9.683034E-3,2.626764E-2,-1.6916953E-3,-1.7397517E-2,