{"learner":{"attributes":{"scikit_learn":"{\"_estimator_type\": \"regressor\"}"},"feature_names":["yield_lag_1","yield_lag_2","yield_lag_3","yield_rolling_3y","yield_rolling_5y","yield_mt_ha_yoy_pct","area_ha","area_lag_1","area_ha_yoy_pct","avg_temp_max_c","avg_temp_min_c","total_precip_mm","avg_et0_mm","growing_season_temp_max_c","growing_season_temp_min_c","growing_season_precip_mm","avg_temp_max_c_anomaly","total_precip_mm_anomaly","growing_season_temp_max_c_anomaly","growing_season_precip_mm_anomaly","years_since_2000","crop_year_rank","country_encoded"],"feature_types":["float","float","float","float","float","float","float","float","float","float","float","float","float","float","float","float","float","float","float","float","int","float","int"],"gradient_booster":{"model":{"cats":{"enc":[],"feature_segments":[],"sorted_idx":[]},"gbtree_model_param":{"num_parallel_tree":"1","num_trees":"317"},"iteration_indptr":[0,1,2,3,4,5,6,7,8,9,10,11,12,13,14,15,16,17,18,19,20,21,22,23,24,25,26,27,28,29,30,31,32,33,34,35,36,37,38,39,40,41,42,43,44,45,46,47,48,49,50,51,52,53,54,55,56,57,58,59,60,61,62,63,64,65,66,67,68,69,70,71,72,73,74,75,76,77,78,79,80,81,82,83,84,85,86,87,88,89,90,91,92,93,94,95,96,97,98,99,100,101,102,103,104,105,106,107,108,109,110,111,112,113,114,115,116,117,118,119,120,121,122,123,124,125,126,127,128,129,130,131,132,133,134,135,136,137,138,139,140,141,142,143,144,145,146,147,148,149,150,151,152,153,154,155,156,157,158,159,160,161,162,163,164,165,166,167,168,169,170,171,172,173,174,175,176,177,178,179,180,181,182,183,184,185,186,187,188,189,190,191,192,193,194,195,196,197,198,199,200,201,202,203,204,205,206,207,208,209,210,211,212,213,214,215,216,217,218,219,220,221,222,223,224,225,226,227,228,229,230,231,232,233,234,235,236,237,238,239,240,241,242,243,244,245,246,247,248,249,250,251,252,253,254,255,256,257,258,259,260,261,262,263,264,265,266,267,268,269,270,271,272,273,274,275,276,277,278,279,280,281,282,283,284,285,286,287,288,289,290,291,292,293,294,295,296,297,298,299,300,301,302,303,304,305,306,307,308,309,310,311,312,313,314,315,316,317],"tree_info":[0,0,0,0,0,0,0,0,0,0,0,0,0,0,0,0,0,0,0,0,0,0,0,0,0,0,0,0,0,0,0,0,0,0,0,0,0,0,0,0,0,0,0,0,0,0,0,0,0,0,0,0,0,0,0,0,0,0,0,0,0,0,0,0,0,0,0,0,0,0,0,0,0,0,0,0,0,0,0,0,0,0,0,0,0,0,0,0,0,0,0,0,0,0,0,0,0,0,0,0,0,0,0,0,0,0,0,0,0,0,0,0,0,0,0,0,0,0,0,0,0,0,0,0,0,0,0,0,0,0,0,0,0,0,0,0,0,0,0,0,0,0,0,0,0,0,0,0,0,0,0,0,0,0,0,0,0,0,0,0,0,0,0,0,0,0,0,0,0,0,0,0,0,0,0,0,0,0,0,0,0,0,0,0,0,0,0,0,0,0,0,0,0,0,0,0,0,0,0,0,0,0,0,0,0,0,0,0,0,0,0,0,0,0,0,0,0,0,0,0,0,0,0,0,0,0,0,0,0,0,0,0,0,0,0,0,0,0,0,0,0,0,0,0,0,0,0,0,0,0,0,0,0,0,0,0,0,0,0,0,0,0,0,0,0,0,0,0,0,0,0,0,0,0,0,0,0,0,0,0,0,0,0,0,0,0,0,0,0,0,0,0,0,0,0,0,0,0,0,0,0,0,0,0,0,0,0,0,0,0,0,0,0,0,0,0,0],"trees":[{"base_weights":[-2.6788318E-1,-2.805726E0,8.330096E0,-6.5343614E0,2.0380841E-1,4.668289E0,1.2356292E1,-1.4453864E0,-5.335812E0,-5.309104E-1,2.632818E0,1.5105764E0,5.2128196E0,9.5622164E-1,2.164349E0,-5.7901487E0,-3.223031E0,3.9467E0,-8.745302E-1,1.198299E0,3.5158803E0,7.460241E-2,2.8566238E-1,5.271831E-1,9.933225E-1,-9.927745E-1,-2.5258443E-1,-6.185621E-1,-1.7819345E-1,5.4840463E-1,1.5568813E0,-4.015234E0,-2.7533028E-1,-1.2311226E-2,2.6244086E-1,1.5781331E-1,6.2179434E-1,1.5278295E0,-2.047989E-1,-5.343828E0,8.408079E-1,-1.3230827E0,2.9799858E-1,-6.0462985E-2,5.7173394E-2,3.175013E-1,8.028412E-2,-1.0177113E0,-6.2356886E-2,3.4499792E-3,2.1542504E-1,-4.1881904E-1,-1.2735803E-1,-1.8001896E-1,1.4919028E-1],"categories":[],"categories_nodes":[],"categories_segments":[],"categories_sizes":[],"default_left":[0,0,0,0,0,0,0,0,0,0,0,0,0,0,0,0,0,0,0,0,0,0,0,0,0,0,0,0,0,0,0,0,0,0,0,0,0,0,0,0,0,0,0,0,0,0,0,0,0,0,0,0,0,0,0],"id":0,"left_children":[1,3,5,7,9,11,13,-1,15,17,19,21,23,-1,-1,25,27,29,31,33,35,-1,-1,-1,-1,-1,-1,-1,-1,37,-1,39,41,43,-1,-1,-1,45,-1,47,49,51,53,-1,-1,-1,-1,-1,-1,-1,-1,-1,-1,-1,-1],"loss_changes":[4.2932056E3,1.7050703E3,6.123418E2,1.257771E2,1.5260503E2,3.605194E1,2.28833E0,0E0,2.7246094E1,1.0422926E2,2.1570724E1,3.0102825E-1,1.3569214E1,0E0,0E0,5.936035E0,6.09317E0,8.250297E1,1.15449646E2,3.8227453E0,2.1327515E0,0E0,0E0,0E0,0E0,0E0,0E0,0E0,0E0,8.201201E0,0E0,6.733261E1,3.207978E1,4.4761676E-1,0E0,0E0,0E0,2.9556465E-1,0E0,2.4687683E1,9.9130845E-1,1.0817341E1,2.8603876E1,0E0,0E0,0E0,0E0,0E0,0E0,0E0,0E0,0E0,0E0,0E0,0E0],"parents":[2147483647,0,0,1,1,2,2,3,3,4,4,5,5,6,6,8,8,9,9,10,10,11,11,12,12,15,15,16,16,17,17,18,18,19,19,20,20,29,29,31,31,32,32,33,33,37,37,39,39,40,40,41,41,42,42],"right_children":[2,4,6,8,10,12,14,-1,16,18,20,22,24,-1,-1,26,28,30,32,34,36,-1,-1,-1,-1,-1,-1,-1,-1,38,-1,40,42,44,-1,-1,-1,46,-1,48,50,52,54,-1,-1,-1,-1,-1,-1,-1,-1,-1,-1,-1,-1],"split_conditions":[2.20831E1,1.53836E1,2.70845E1,1.13681E1,5.09E0,-1.069E1,-1.378E1,-1.4453864E0,1.43476E1,-1.305E0,1.89103E1,1.79351E1,2.2774E1,9.5622164E-1,2.164349E0,2.692E1,1.296E1,3.14724E8,1E0,1.711E1,5.18E0,7.460241E-2,2.8566238E-1,5.271831E-1,9.933225E-1,-9.927745E-1,-2.5258443E-1,-6.185621E-1,-1.7819345E-1,2.07379E1,1.5568813E0,-2.21E-1,1.86123E1,1.62945E1,2.6244086E-1,1.5781331E-1,6.2179434E-1,1.88817E1,-2.047989E-1,2.817E1,4.1775E7,-2.17E0,-4.02E0,-6.0462985E-2,5.7173394E-2,3.175013E-1,8.028412E-2,-1.0177113E0,-6.2356886E-2,3.4499792E-3,2.1542504E-1,-4.1881904E-1,-1.2735803E-1,-1.8001896E-1,1.4919028E-1],"split_indices":[0,0,0,1,5,5,5,0,0,18,3,2,0,0,0,5,5,6,20,0,5,0,0,0,0,0,0,0,0,0,0,18,0,0,0,0,0,0,0,13,6,5,5,0,0,0,0,0,0,0,0,0,0,0,0],"split_type":[0,0,0,0,0,0,0,0,0,0,0,0,0,0,0,0,0,0,0,0,0,0,0,0,0,0,0,0,0,0,0,0,0,0,0,0,0,0,0,0,0,0,0,0,0,0,0,0,0,0,0,0,0,0,0],"sum_hessian":[1.95E2,1.51E2,4.4E1,6.7E1,8.4E1,2.4E1,2E1,2.3E1,4.4E1,6.5E1,1.9E1,4E0,2E1,2E0,1.8E1,3.5E1,9E0,4E0,6.1E1,8E0,1.1E1,1E0,3E0,6E0,1.4E1,3.4E1,1E0,7E0,2E0,3E0,1E0,9E0,5.2E1,2E0,6E0,1E0,1E1,2E0,1E0,7E0,2E0,1.8E1,3.4E1,1E0,1E0,1E0,1E0,6E0,1E0,1E0,1E0,5E0,1.3E1,1E1,2.4E1],"tree_param":{"num_deleted":"0","num_feature":"23","num_nodes":"55","size_leaf_vector":"1"}},{"base_weights":[2.3204197E-1,-1.8985051E0,7.6786327E0,-5.3769383E0,2.8597018E-1,4.276069E0,1.8743517E0,-6.1745205E0,-3.8233764E0,-4.1886184E-1,2.031993E0,1.4066616E0,4.8218613E0,-1.0602959E0,-2.2947529E-1,-6.5877527E-1,-2.0388728E-1,-7.0307726E-1,4.390821E0,2.1756938E-1,3.2798266E0,2.325209E-2,2.8819448E-1,3.6203122E-1,8.5004973E-1,-1.8427546E0,3.531376E-1,1.4144411E0,8.473516E-2,-6.4828914E-1,2.0274058E-1,3.724693E-1,4.1377926E0,4.6227586E-1,-2.2008026E0,-1.0826436E0,9.9369764E-1,-1.0648873E0,2.5347838E-1,2.1677972E-1,7.425809E-1,-4.0033203E-2,2.8845286E-1,-1.0832201E-1,-4.787239E-1,-2.713793E-1,3.7842784E-2,5.1754E-2,2.3528239E-1,-2.0024388E-1,-5.493118E-2,6.761506E-2,-1.5220498E-3],"categories":[],"categories_nodes":[],"categories_segments":[],"categories_sizes":[],"default_left":[0,0,0,0,0,0,0,0,0,0,0,0,0,0,0,0,0,0,0,0,0,0,0,0,0,0,0,0,0,0,0,0,0,0,0,0,0,0,0,0,0,0,0,0,0,0,0,0,0,0,0,0,0],"id":1,"left_children":[1,3,5,7,9,11,-1,13,15,17,19,21,23,-1,-1,-1,-1,25,27,29,31,-1,-1,-1,-1,33,35,-1,-1,37,-1,-1,39,41,43,45,47,49,51,-1,-1,-1,-1,-1,-1,-1,-1,-1,-1,-1,-1,-1,-1],"loss_changes":[3.0560454E3,1.1399211E3,4.5801685E2,5.1687622E1,1.1498342E2,3.0033417E1,0E0,1.0921875E1,3.8208008E-1,9.3987404E1,6.017565E1,1.6409044E0,1.4820557E0,0E0,0E0,0E0,0E0,7.7406784E1,5.6011192E1,1.0738018E1,6.885971E0,0E0,0E0,0E0,0E0,2.6320488E1,3.203906E1,0E0,0E0,2.8011909E0,0E0,0E0,1.0024261E0,4.5640783E0,2.4968246E1,7.730525E0,6.179159E0,1.04432106E-1,1.1308262E-1,0E0,0E0,0E0,0E0,0E0,0E0,0E0,0E0,0E0,0E0,0E0,0E0,0E0,0E0],"parents":[2147483647,0,0,1,1,2,2,3,3,4,4,5,5,7,7,8,8,9,9,10,10,11,11,12,12,17,17,18,18,19,19,20,20,25,25,26,26,29,29,32,32,33,33,34,34,35,35,36,36,37,37,38,38],"right_children":[2,4,6,8,10,12,-1,14,16,18,20,22,24,-1,-1,-1,-1,26,28,30,32,-1,-1,-1,-1,34,36,-1,-1,38,-1,-1,40,42,44,46,48,50,52,-1,-1,-1,-1,-1,-1,-1,-1,-1,-1,-1,-1,-1,-1],"split_conditions":[2.34892E1,1.492E1,2.74548E1,1.28252E1,4.91E0,-9.86E0,1.8743517E0,2.692E1,1.179E1,1.67E0,1.84108E1,2.43174E1,-1.103E0,-1.0602959E0,-2.2947529E-1,-6.5877527E-1,-2.0388728E-1,1.89288E1,1.88817E1,1.71805E1,3.84E0,2.325209E-2,2.8819448E-1,3.6203122E-1,8.5004973E-1,-1.335E0,-9.96E0,1.4144411E0,8.473516E-2,1.62945E1,2.0274058E-1,3.724693E-1,1.87404E1,1.83667E1,5.9105E7,2.20831E1,2.01335E1,1.62875E1,1.67133E1,2.1677972E-1,7.425809E-1,-4.0033203E-2,2.8845286E-1,-1.0832201E-1,-4.787239E-1,-2.713793E-1,3.7842784E-2,5.1754E-2,2.3528239E-1,-2.0024388E-1,-5.493118E-2,6.761506E-2,-1.5220498E-3],"split_indices":[0,0,0,0,5,5,0,5,5,19,0,0,19,0,0,0,0,0,0,2,12,0,0,0,0,16,5,0,0,0,0,0,0,0,7,0,0,0,0,0,0,0,0,0,0,0,0,0,0,0,0,0,0],"split_type":[0,0,0,0,0,0,0,0,0,0,0,0,0,0,0,0,0,0,0,0,0,0,0,0,0,0,0,0,0,0,0,0,0,0,0,0,0,0,0,0,0,0,0,0,0,0,0,0,0,0,0,0,0],"sum_hessian":[1.91E2,1.49E2,4.2E1,5.7E1,9.2E1,2.2E1,2E1,3.6E1,2.1E1,6.6E1,2.6E1,4E0,1.8E1,3.5E1,1E0,2E1,1E0,6.3E1,3E0,1.1E1,1.5E1,1E0,3E0,2E0,1.6E1,3E1,3.3E1,1E0,2E0,6E0,5E0,8E0,7E0,4E0,2.6E1,1E1,2.3E1,4E0,2E0,1E0,6E0,3E0,1E0,8E0,1.8E1,7E0,3E0,9E0,1.4E1,3E0,1E0,1E0,1E0],"tree_param":{"num_deleted":"0","num_feature":"23","num_nodes":"53","size_leaf_vector":"1"}},{"base_weights":[1.12283684E-1,-1.9359052E0,5.0654993E0,-4.909594E0,-2.1382694E-1,2.9266558E0,8.792631E0,-1.1553391E0,-4.2287226E0,-1.9262037E0,3.662697E-1,4.2290047E-1,6.3931024E-1,6.397004E-1,1.5535244E0,-4.290185E0,-1.8523343E-1,-2.5860722E0,-9.666417E-1,5.4443836E-1,-9.582498E-1,-5.680095E-1,9.2745805E-1,-2.0848045E-1,-4.347883E0,-4.6426484E-1,-7.546359E-2,-1.7512108E-1,-1.149391E0,1.22737564E-1,2.1119537E0,-1.4341746E-1,2.1124704E-2,8.6087056E-2,1.927387E-1,-4.317032E-1,-7.618707E-1,-4.9905438E-2,4.2178007E-3,-2.2278711E-1,-7.757209E-2,5.6697834E-1,-4.1991225E-3,1.0630906E0,4.8981178E-1,1.7634037E-1,-5.143804E-2,1.9972546E-1,3.3393793E-2],"categories":[],"categories_nodes":[],"categories_segments":[],"categories_sizes":[],"default_left":[0,0,0,0,0,0,0,0,0,0,0,0,0,0,0,0,0,0,0,0,0,0,0,0,0,0,0,0,0,0,0,0,0,0,0,0,0,0,0,0,0,0,0,0,0,0,0,0,0],"id":2,"left_children":[1,3,5,7,9,11,13,-1,15,17,19,21,-1,-1,-1,23,-1,25,27,29,-1,31,33,-1,35,-1,-1,37,39,41,43,-1,-1,-1,-1,-1,-1,-1,-1,-1,-1,-1,45,47,-1,-1,-1,-1,-1],"loss_changes":[1.8328654E3,6.537983E2,3.9948828E2,3.7066162E1,8.1900116E1,7.349521E1,8.623047E0,0E0,3.1068115E0,1.1080643E1,6.915284E1,5.3690767E0,0E0,0E0,0E0,1.7740479E0,0E0,3.0711288E0,1.2527065E0,3.9999382E1,0E0,8.395941E-1,1.17185116E-1,0E0,3.725586E-1,0E0,0E0,7.50101E-2,4.0354538E-1,2.0065071E1,8.000324E0,0E0,0E0,0E0,0E0,0E0,0E0,0E0,0E0,0E0,0E0,0E0,1.5328065E1,5.074644E-1,0E0,0E0,0E0,0E0,0E0],"parents":[2147483647,0,0,1,1,2,2,3,3,4,4,5,5,6,6,8,8,9,9,10,10,11,11,15,15,17,17,18,18,19,19,21,21,22,22,24,24,27,27,28,28,29,29,30,30,42,42,43,43],"right_children":[2,4,6,8,10,12,14,-1,16,18,20,22,-1,-1,-1,24,-1,26,28,30,-1,32,34,-1,36,-1,-1,38,40,42,44,-1,-1,-1,-1,-1,-1,-1,-1,-1,-1,-1,46,48,-1,-1,-1,-1,-1],"split_conditions":[2.10065E1,1.44873E1,2.70845E1,9.7803E0,1.69725E1,-9.11E0,-2.207E1,-1.1553391E0,1.376E0,1.68E0,3.28282E8,-1.851E1,6.3931024E-1,6.397004E-1,1.5535244E0,1.0054E1,-1.8523343E-1,1.86123E1,3.36E0,9.55E0,-9.582498E-1,2.34892E1,2.32157E1,-2.0848045E-1,5.55E1,-4.6426484E-1,-7.546359E-2,1.62945E1,8.28E-1,-1.908E0,1.84108E1,-1.4341746E-1,2.1124704E-2,8.6087056E-2,1.927387E-1,-4.317032E-1,-7.618707E-1,-4.9905438E-2,4.2178007E-3,-2.2278711E-1,-7.757209E-2,5.6697834E-1,2.535E1,2.10038E1,4.8981178E-1,1.7634037E-1,-5.143804E-2,1.9972546E-1,3.3393793E-2],"split_indices":[0,0,0,0,4,5,5,0,19,5,6,5,0,0,0,0,0,0,12,5,0,0,0,0,15,0,0,0,16,19,0,0,0,0,0,0,0,0,0,0,0,0,13,1,0,0,0,0,0],"split_type":[0,0,0,0,0,0,0,0,0,0,0,0,0,0,0,0,0,0,0,0,0,0,0,0,0,0,0,0,0,0,0,0,0,0,0,0,0,0,0,0,0,0,0,0,0,0,0,0,0],"sum_hessian":[1.79E2,1.27E2,5.2E1,4.6E1,8.1E1,3.4E1,1.8E1,1E1,3.6E1,2E1,6.1E1,9E0,2.5E1,2E0,1.6E1,3.5E1,1E0,1.1E1,9E0,6E1,1E0,3E0,6E0,1E0,3.4E1,1E1,1E0,2E0,7E0,4.8E1,1.2E1,2E0,1E0,3E0,3E0,4E0,3E1,1E0,1E0,5E0,2E0,1E0,4.7E1,6E0,6E0,1E1,3.7E1,5E0,1E0],"tree_param":{"num_deleted":"0","num_feature":"23","num_nodes":"49","size_leaf_vector":"1"}},{"base_weights":[-8.559459E-2,-2.5754359E0,2.7491045E0,-4.3161163E0,-9.2699176E-1,1.5475601E0,7.0148826E0,-9.7459817E-1,-3.7496927E0,-1.2403209E0,1.3727038E0,8.1911296E-1,2.8096173E0,5.794189E-1,1.2686673E0,-8.1089824E-1,-5.5139655E-1,-2.1980543E0,1.484431E-2,2.9526225E-1,2.65573E0,2.0350692E0,5.936189E-1,-3.4695144E0,-1.3675525E0,-4.3281737E-1,9.174494E-1,-1.1199373E0,6.115477E-1,1.08399466E-1,4.766859E-1,1.7586112E-1,3.968518E-1,2.4592866E-1,-4.094969E0,-3.7447003E-1,-8.247853E-1,-8.0773705E-1,1.5975983E-1,5.4002885E-2,1.8167813E-1,-2.929251E-1,4.3650046E-2,-1.15158685E-1,9.3000805E-1,-8.2071656E-1,-3.099101E-1,-2.4440165E-1,-6.841446E-2,-7.194114E-2,-1.7013839E-1,5.644271E-2,-8.366393E-3,-4.99228E-2,7.027114E-2,1.1761275E-1,1.9108956E-1],"categories":[],"categories_nodes":[],"categories_segments":[],"categories_sizes":[],"default_left":[0,0,0,0,0,0,0,0,0,0,0,0,0,0,0,0,0,0,0,0,0,0,0,0,0,0,0,0,0,0,0,0,0,0,0,0,0,0,0,0,0,0,0,0,0,0,0,0,0,0,0,0,0,0,0,0,0],"id":3,"left_children":[1,3,5,7,9,11,13,-1,15,17,-1,19,21,-1,-1,-1,-1,23,25,27,29,31,-1,33,35,37,39,41,43,-1,-1,-1,-1,-1,45,-1,47,49,51,-1,-1,-1,-1,53,55,-1,-1,-1,-1,-1,-1,-1,-1,-1,-1,-1,-1],"loss_changes":[1.3106287E3,2.8024005E2,4.3593707E2,2.1069214E1,1.5559251E2,6.1342255E1,1.1658081E1,0E0,5.527405E0,6.1152702E1,0E0,4.248091E1,7.5003204E0,0E0,0E0,0E0,0E0,2.6440186E1,9.567851E0,1.6624271E1,1.7595367E0,2.2517204E0,0E0,3.8461258E1,7.136879E0,3.630373E0,4.490447E-1,6.175871E0,6.998641E0,0E0,0E0,0E0,0E0,0E0,9.443405E0,0E0,2.8567972E0,3.8558292E-1,2.6411498E-1,0E0,0E0,0E0,0E0,1.0472895E0,3.1224823E-1,0E0,0E0,0E0,0E0,0E0,0E0,0E0,0E0,0E0,0E0,0E0,0E0],"parents":[2147483647,0,0,1,1,2,2,3,3,4,4,5,5,6,6,8,8,9,9,11,11,12,12,17,17,18,18,19,19,20,20,21,21,23,23,24,24,25,25,26,26,27,27,28,28,34,34,36,36,37,37,38,38,43,43,44,44],"right_children":[2,4,6,8,10,12,14,-1,16,18,-1,20,22,-1,-1,-1,-1,24,26,28,30,32,-1,34,36,38,40,42,44,-1,-1,-1,-1,-1,46,-1,48,50,52,-1,-1,-1,-1,54,56,-1,-1,-1,-1,-1,-1,-1,-1,-1,-1,-1,-1],"split_conditions":[1.90406E1,1.43476E1,2.70845E1,1.00216E1,1.2E1,1.25E0,-1.378E1,-9.7459817E-1,-3.39E0,1.68E0,1.3727038E0,2.46623E1,2.14047E1,5.794189E-1,1.2686673E0,-8.1089824E-1,-5.5139655E-1,-6.8E-1,1.208E1,-1.362E1,-1.588E1,5.86E0,5.936189E-1,-1.884E0,1.68098E1,1.81838E1,1.86123E1,2.20831E1,2.01335E1,1.08399466E-1,4.766859E-1,1.7586112E-1,3.968518E-1,2.4592866E-1,9E0,-3.7447003E-1,1.018E1,1.124E2,2.216E2,5.4002885E-2,1.8167813E-1,-2.929251E-1,4.3650046E-2,-8.8E-1,-7.2E-1,-8.2071656E-1,-3.099101E-1,-2.4440165E-1,-6.841446E-2,-7.194114E-2,-1.7013839E-1,5.644271E-2,-8.366393E-3,-4.99228E-2,7.027114E-2,1.1761275E-1,1.9108956E-1],"split_indices":[0,0,0,0,22,5,5,0,5,5,0,0,0,0,0,0,0,18,10,5,5,5,0,18,0,0,2,0,0,0,0,0,0,0,21,0,10,15,15,0,0,0,0,5,5,0,0,0,0,0,0,0,0,0,0,0,0],"split_type":[0,0,0,0,0,0,0,0,0,0,0,0,0,0,0,0,0,0,0,0,0,0,0,0,0,0,0,0,0,0,0,0,0,0,0,0,0,0,0,0,0,0,0,0,0,0,0,0,0,0,0,0,0,0,0,0,0],"sum_hessian":[1.84E2,9.8E1,8.6E1,4.7E1,5.1E1,6.8E1,1.8E1,1.1E1,3.6E1,5E1,1E0,4.4E1,2.4E1,3E0,1.5E1,9E0,2.7E1,2.8E1,2.2E1,3.5E1,9E0,1.3E1,1.1E1,1E1,1.8E1,1.5E1,7E0,6E0,2.9E1,1E0,8E0,4E0,9E0,1E0,9E0,6E0,1.2E1,9E0,6E0,2E0,5E0,4E0,2E0,9E0,2E1,6E0,3E0,4E0,8E0,4E0,5E0,3E0,3E0,7E0,2E0,1.1E1,9E0],"tree_param":{"num_deleted":"0","num_feature":"23","num_nodes":"57","size_leaf_vector":"1"}},{"base_weights":[-2.0034876E-1,-2.2181969E0,2.297446E0,-3.7988002E0,-1.0758452E0,1.0802544E0,5.591848E0,-8.6118335E-1,-3.010521E0,-1.5157089E0,1.6453667E0,-9.799944E-1,1.2901603E0,5.872127E0,2.836473E-1,-5.167123E-1,-1.3895859E-1,-1.1200486E0,-3.3883314E0,7.961679E-3,7.090744E-1,-1.3318928E0,9.848183E-2,8.2831657E-1,2.3311667E0,6.712954E-1,6.6683574E0,-1.5530528E0,2.2933573E-1,-3.174467E-1,-9.001384E-1,3.6424604E-1,-3.498371E-1,-5.0649527E-2,-2.5208446E-1,4.727083E-1,1.6829157E0,1.0612762E0,4.6028268E-1,4.9499702E-1,1.1921276E0,-2.407222E0,-5.8376825E-1,-7.783172E-1,7.595265E-1,-1.8876374E-3,8.442557E-2,-1.3073922E-2,-7.132285E-2,2.0996073E-1,6.835414E-1,1.7806879E0,4.7919054E-2,5.9268847E-2,1.936545E-1,-7.044904E-1,-2.6615348E-1,-1.3651378E-1,1.5497856E-1,-1.756353E-1,2.0700656E-2,-7.640628E-2,1.9757067E-1,1.9085231E-1,1.4110817E-2,1.2505133E-1,-2.4833454E-2,6.2206633E-2,3.179298E-1],"categories":[],"categories_nodes":[],"categories_segments":[],"categories_sizes":[],"default_left":[0,0,0,0,0,0,0,0,0,0,0,0,0,0,0,0,0,0,0,0,0,0,0,0,0,0,0,0,0,0,0,0,0,0,0,0,0,0,0,0,0,0,0,0,0,0,0,0,0,0,0,0,0,0,0,0,0,0,0,0,0,0,0,0,0,0,0,0,0],"id":4,"left_children":[1,3,5,7,9,11,13,-1,15,17,19,21,23,25,-1,-1,-1,27,29,31,-1,33,-1,35,37,-1,39,41,43,-1,-1,45,47,-1,-1,49,51,53,-1,-1,-1,55,57,59,61,-1,-1,-1,-1,63,65,67,-1,-1,-1,-1,-1,-1,-1,-1,-1,-1,-1,-1,-1,-1,-1,-1,-1],"loss_changes":[1.0468539E3,2.0390363E2,3.6718768E2,3.6006348E1,8.332009E1,3.0843544E1,1.889569E1,0E0,1.2342529E0,4.0384506E1,4.111616E1,4.4234486E0,2.8578278E1,1.2091858E1,0E0,0E0,0E0,2.9427322E1,2.0349976E1,9.806196E-1,0E0,5.87512E-1,0E0,1.2953657E1,6.9697647E0,0E0,4.067932E0,3.0142174E1,7.363441E0,0E0,0E0,2.008912E-1,4.7736585E-2,0E0,0E0,1.6972713E0,1.3280716E0,1.1764526E-2,0E0,0E0,0E0,2.3535774E1,6.9753857E0,1.2499788E0,4.8443594E0,0E0,0E0,0E0,0E0,1.7618556E0,9.3368816E-1,1.1080437E0,0E0,0E0,0E0,0E0,0E0,0E0,0E0,0E0,0E0,0E0,0E0,0E0,0E0,0E0,0E0,0E0,0E0],"parents":[2147483647,0,0,1,1,2,2,3,3,4,4,5,5,6,6,8,8,9,9,10,10,11,11,12,12,13,13,17,17,18,18,19,19,21,21,23,23,24,24,26,26,27,27,28,28,31,31,32,32,35,35,36,36,37,37,41,41,42,42,43,43,44,44,49,49,50,50,51,51],"right_children":[2,4,6,8,10,12,14,-1,16,18,20,22,24,26,-1,-1,-1,28,30,32,-1,34,-1,36,38,-1,40,42,44,-1,-1,46,48,-1,-1,50,52,54,-1,-1,-1,56,58,60,62,-1,-1,-1,-1,64,66,68,-1,-1,-1,-1,-1,-1,-1,-1,-1,-1,-1,-1,-1,-1,-1,-1,-1],"split_conditions":[1.90768E1,1.29408E1,2.48286E1,9.7409E0,1E1,-1.362E1,2.614E1,-8.6118335E-1,2.483E1,2.76868E8,3.162E2,2.36997E1,2.17764E1,3.09394E1,2.836473E-1,-5.167123E-1,-1.3895859E-1,7.9273E7,1.492E1,3.0955E8,7.090744E-1,2.9988E7,9.848183E-2,4.05E0,-5.39E0,6.712954E-1,-2.207E1,1.78E0,-1.29E0,-3.174467E-1,-9.001384E-1,1.31E0,1.774E1,-5.0649527E-2,-2.5208446E-1,-8.8E-1,2.18943E1,-1.069E1,4.6028268E-1,4.9499702E-1,1.1921276E0,3.5E0,6.97E-1,2.285E1,3.514E2,-1.8876374E-3,8.442557E-2,-1.3073922E-2,-7.132285E-2,-1.269E1,2.28064E1,1.89103E1,4.7919054E-2,5.9268847E-2,1.936545E-1,-7.044904E-1,-2.6615348E-1,-1.3651378E-1,1.5497856E-1,-1.756353E-1,2.0700656E-2,-7.640628E-2,1.9757067E-1,1.9085231E-1,1.4110817E-2,1.2505133E-1,-2.4833454E-2,6.2206633E-2,3.179298E-1],"split_indices":[4,3,4,3,22,5,9,0,5,6,11,3,3,4,0,0,0,6,2,6,0,6,0,5,5,0,5,5,8,0,0,5,3,0,0,5,2,5,0,0,0,12,18,9,11,0,0,0,0,5,2,3,0,0,0,0,0,0,0,0,0,0,0,0,0,0,0,0,0],"split_type":[0,0,0,0,0,0,0,0,0,0,0,0,0,0,0,0,0,0,0,0,0,0,0,0,0,0,0,0,0,0,0,0,0,0,0,0,0,0,0,0,0,0,0,0,0,0,0,0,0,0,0,0,0,0,0,0,0,0,0,0,0,0,0,0,0,0,0,0,0],"sum_hessian":[2.06E2,1.14E2,9.2E1,4.7E1,6.7E1,6.8E1,2.4E1,1.6E1,3.1E1,5.8E1,9E0,6E0,6.2E1,2.2E1,2E0,3E1,1E0,4.9E1,9E0,6E0,3E0,5E0,1E0,4.4E1,1.8E1,8E0,1.4E1,3.7E1,1.2E1,6E0,3E0,3E0,3E0,1E0,4E0,3.2E1,1.2E1,5E0,1.3E1,2E0,1.2E1,1.9E1,1.8E1,4E0,8E0,1E0,2E0,1E0,2E0,1.5E1,1.7E1,1.1E1,1E0,1E0,4E0,5E0,1.4E1,1.6E1,2E0,3E0,1E0,2E0,6E0,1E0,1.4E1,1.6E1,1E0,1E0,1E1],"tree_param":{"num_deleted":"0","num_feature":"23","num_nodes":"69","size_leaf_vector":"1"}},{"base_weights":[2.2514958E-2,-1.9419715E0,2.0273833E0,-1.1533035E0,-3.4969416E0,1.1362609E0,5.042606E0,-2.456695E0,-3.249177E-1,-4.3455105E0,-2.3544452E0,8.159882E-1,2.30529E0,3.3828974E-1,5.436536E0,-6.427201E-1,-2.138684E0,-5.038413E-1,6.388385E-1,-7.940161E-1,-4.3453518E-1,-5.0439185E-1,-2.893498E-1,1.1101636E-1,1.1588479E0,3.7321016E-1,2.7318285E0,4.2218405E-1,9.5604646E-1,-1.545019E-1,-3.7483212E-1,-8.7845916E-1,1.1663572E0,-1.0652426E0,3.5931674E-1,7.500951E-1,2.8775063E-1,1.15119815E-1,-4.6051674E-2,1.5867421E-1,5.049087E-1,-1.0543704E0,2.281499E-1,4.242009E-1,3.1159377E-1,-6.266276E-2,-2.781794E-1,-2.197042E-1,7.5023234E-1,6.01638E-1,3.9243525E-1,-1.17241964E-1,-4.966999E-1,-4.084515E-2,1.0993448E-1,-6.651577E-2,8.059806E-3,1.6007608E-2,1.6732046E-1,1.1059183E-1,2.5803258E-3],"categories":[],"categories_nodes":[],"categories_segments":[],"categories_sizes":[],"default_left":[0,0,0,0,0,0,0,0,0,0,0,0,0,0,0,0,0,0,0,0,0,0,0,0,0,0,0,0,0,0,0,0,0,0,0,0,0,0,0,0,0,0,0,0,0,0,0,0,0,0,0,0,0,0,0,0,0,0,0,0,0],"id":5,"left_children":[1,3,5,7,9,11,13,15,17,19,21,23,25,-1,27,-1,29,31,-1,-1,-1,-1,-1,33,35,37,39,-1,-1,-1,-1,41,43,45,47,49,-1,-1,-1,-1,-1,51,-1,53,-1,-1,-1,55,57,59,-1,-1,-1,-1,-1,-1,-1,-1,-1,-1,-1],"loss_changes":[7.7074176E2,1.1780313E2,2.5536465E2,7.149662E1,2.3178833E1,2.6802574E1,1.6940735E1,4.1882324E0,3.2358017E1,9.913635E-1,2.0865936E0,1.4596912E1,1.2193344E1,0E0,3.7109375E-1,0E0,5.239639E-1,2.6423893E1,0E0,0E0,0E0,0E0,0E0,6.4118023E0,8.008816E0,9.23405E-1,3.541542E0,0E0,0E0,0E0,0E0,1.447674E1,3.2851372E0,1.0341144E0,4.1794777E0,4.6167927E0,0E0,0E0,0E0,0E0,0E0,1.991106E1,0E0,8.649173E-1,0E0,0E0,0E0,3.8143337E-1,1.6278043E0,7.326603E-1,0E0,0E0,0E0,0E0,0E0,0E0,0E0,0E0,0E0,0E0,0E0],"parents":[2147483647,0,0,1,1,2,2,3,3,4,4,5,5,6,6,7,7,8,8,9,9,10,10,11,11,12,12,14,14,16,16,17,17,23,23,24,24,25,25,26,26,31,31,32,32,33,33,34,34,35,35,41,41,43,43,47,47,48,48,49,49],"right_children":[2,4,6,8,10,12,14,16,18,20,22,24,26,-1,28,-1,30,32,-1,-1,-1,-1,-1,34,36,38,40,-1,-1,-1,-1,42,44,46,48,50,-1,-1,-1,-1,-1,52,-1,54,-1,-1,-1,56,58,60,-1,-1,-1,-1,-1,-1,-1,-1,-1,-1,-1],"split_conditions":[1.87184E1,4.51239E8,2.70845E1,1.43909E1,1.1E1,2.42161E1,3.863E2,-1.135E1,4.33861E8,1.823352E9,1.001923E9,-8.8E-1,-7.75E-1,3.3828974E-1,-1.443E0,-6.427201E-1,1.01235E1,1.296E1,6.388385E-1,-7.940161E-1,-4.3453518E-1,-5.0439185E-1,-2.893498E-1,-9.17E-1,2.07038E1,2.59084E1,-8.08E0,4.2218405E-1,9.5604646E-1,-1.545019E-1,-3.7483212E-1,1.461E0,1.86471E1,2.25204E1,1.99112E1,1.775E1,2.8775063E-1,1.15119815E-1,-4.6051674E-2,1.5867421E-1,5.049087E-1,3.344E2,2.281499E-1,1.44873E1,3.1159377E-1,-6.266276E-2,-2.781794E-1,6.5E-1,1.553E1,2.06258E1,3.9243525E-1,-1.17241964E-1,-4.966999E-1,-4.084515E-2,1.0993448E-1,-6.651577E-2,8.059806E-3,1.6007608E-2,1.6732046E-1,1.1059183E-1,2.5803258E-3],"split_indices":[1,6,1,3,20,2,11,5,6,6,7,5,19,0,18,0,2,5,0,0,0,0,0,19,3,1,5,0,0,0,0,17,3,1,3,5,0,0,0,0,0,15,0,1,0,0,0,8,14,2,0,0,0,0,0,0,0,0,0,0,0],"split_type":[0,0,0,0,0,0,0,0,0,0,0,0,0,0,0,0,0,0,0,0,0,0,0,0,0,0,0,0,0,0,0,0,0,0,0,0,0,0,0,0,0,0,0,0,0,0,0,0,0,0,0,0,0,0,0,0,0,0,0,0,0],"sum_hessian":[1.94E2,9.8E1,9.6E1,6.6E1,3.2E1,7.5E1,2.1E1,2.5E1,4.1E1,1.7E1,1.5E1,6E1,1.5E1,3E0,1.8E1,3E0,2.2E1,4E1,1E0,1.3E1,4E0,6E0,9E0,2E1,4E1,3E0,1.2E1,2E0,1.6E1,2E0,2E1,3.3E1,7E0,3E0,1.7E1,2.4E1,1.6E1,2E0,1E0,2E0,1E1,3.1E1,2E0,4E0,3E0,2E0,1E0,7E0,1E1,2.3E1,1E0,2.7E1,4E0,1E0,3E0,4E0,3E0,3E0,7E0,2.1E1,2E0],"tree_param":{"num_deleted":"0","num_feature":"23","num_nodes":"61","size_leaf_vector":"1"}},{"base_weights":[-1.5172884E-1,-1.7350633E0,1.6825353E0,-2.0193157E0,3.2732983E0,9.1359144E-1,7.5973564E-1,-2.7834187E0,-1.266666E0,4.537232E-1,1.0320983E0,5.8074456E-1,2.2482285E0,-3.077998E0,-2.010455E-1,-8.8585514E-1,-2.9897964E0,9.588363E-3,9.729805E-2,3.533728E-1,1.658693E0,2.5077066E0,1.0215883E0,-3.1849895E0,-2.3236257E-1,-1.3716842E0,-1.401809E-1,1.8447904E-1,-3.6279376E0,-7.622779E-1,5.554363E-1,1.16231516E-1,3.0942857E-1,1.0606616E-1,4.4672853E-1,1.9567882E-1,5.775833E-2,-3.2539535E0,-2.353676E-1,-2.575165E-1,-4.432931E-1,-3.0634356E-1,8.9832105E-2,-1.8268679E-1,-6.530686E-1,-1.9688438E-1,-8.6226664E-2,1.9257043E-1,8.500374E-1,-1.7284688E-1,-5.5647653E-1,-1.1023343E-1,3.3002548E-2,-6.690386E-2,8.55423E-2,5.1777355E-2,-5.332382E-2,-2.1567961E-2,7.061653E-2,7.5763345E-2,1.7581142E-1],"categories":[],"categories_nodes":[],"categories_segments":[],"categories_sizes":[],"default_left":[0,0,0,0,0,0,0,0,0,0,0,0,0,0,0,0,0,0,0,0,0,0,0,0,0,0,0,0,0,0,0,0,0,0,0,0,0,0,0,0,0,0,0,0,0,0,0,0,0,0,0,0,0,0,0,0,0,0,0,0,0],"id":6,"left_children":[1,3,5,7,9,11,-1,13,15,17,-1,19,21,23,-1,25,27,-1,-1,29,31,33,35,37,-1,39,41,-1,43,45,47,-1,-1,-1,-1,-1,-1,49,-1,-1,51,53,-1,-1,-1,-1,55,57,59,-1,-1,-1,-1,-1,-1,-1,-1,-1,-1,-1,-1],"loss_changes":[5.56737E2,1.5200912E2,1.8883037E2,5.3283936E1,4.4406075E1,3.0364433E1,0E0,1.935199E1,3.1119598E1,1.5843207E-1,0E0,1.3679939E1,2.2356796E0,3.5458374E0,0E0,1.5357838E1,2.6398659E1,0E0,0E0,1.1369696E1,5.8503914E-1,1.3819199E0,2.1034718E-2,7.112427E-1,0E0,3.09206E0,2.130336E0,0E0,1.2145844E0,2.0528235E0,4.333911E0,0E0,0E0,0E0,0E0,0E0,0E0,2.7542114E-1,0E0,0E0,7.5604886E-1,1.2521781E0,0E0,0E0,0E0,0E0,4.2849514E-1,1.47846E0,1.3532982E0,0E0,0E0,0E0,0E0,0E0,0E0,0E0,0E0,0E0,0E0,0E0,0E0],"parents":[2147483647,0,0,1,1,2,2,3,3,4,4,5,5,7,7,8,8,9,9,11,11,12,12,13,13,15,15,16,16,19,19,20,20,21,21,22,22,23,23,25,25,26,26,28,28,29,29,30,30,37,37,40,40,41,41,46,46,47,47,48,48],"right_children":[2,4,6,8,10,12,-1,14,16,18,-1,20,22,24,-1,26,28,-1,-1,30,32,34,36,38,-1,40,42,-1,44,46,48,-1,-1,-1,-1,-1,-1,50,-1,-1,52,54,-1,-1,-1,-1,56,58,60,-1,-1,-1,-1,-1,-1,-1,-1,-1,-1,-1,-1],"split_conditions":[1.88817E1,1E1,2.70845E1,1.36716E1,1.83874E1,5.87E0,7.5973564E-1,1.137E1,1.881105E1,1.711E1,1.0320983E0,2.46623E1,1.4074E8,1.1666E3,-2.010455E-1,1.68098E1,-2.223E0,9.588363E-3,9.729805E-2,-1.362E1,3.75E0,-1.66E1,2.10008E1,1.7E1,-2.3236257E-1,1.151E1,1.83667E1,1.8447904E-1,1.17E1,2.20831E1,2.05766E1,1.16231516E-1,3.0942857E-1,1.0606616E-1,4.4672853E-1,1.9567882E-1,5.775833E-2,5.33E1,-2.353676E-1,-2.575165E-1,1.86123E1,7.18E0,8.9832105E-2,-1.8268679E-1,-6.530686E-1,-1.9688438E-1,2.10008E1,-1.53E0,-3.33E0,-1.7284688E-1,-5.5647653E-1,-1.1023343E-1,3.3002548E-2,-6.690386E-2,8.55423E-2,5.1777355E-2,-5.332382E-2,-2.1567961E-2,7.061653E-2,7.5763345E-2,1.7581142E-1],"split_indices":[0,22,0,0,0,5,0,5,0,0,0,0,6,11,0,0,16,0,0,5,12,8,2,20,0,5,0,0,14,0,0,0,0,0,0,0,0,11,0,0,1,5,0,0,0,0,1,5,5,0,0,0,0,0,0,0,0,0,0,0,0],"split_type":[0,0,0,0,0,0,0,0,0,0,0,0,0,0,0,0,0,0,0,0,0,0,0,0,0,0,0,0,0,0,0,0,0,0,0,0,0,0,0,0,0,0,0,0,0,0,0,0,0,0,0,0,0,0,0,0,0,0,0,0,0],"sum_hessian":[1.9E2,1.02E2,8.8E1,9.7E1,5E0,7E1,1.8E1,4.7E1,5E1,3E0,2E0,5.7E1,1.3E1,3.9E1,8E0,4.2E1,8E0,1E0,2E0,4.8E1,9E0,1E1,3E0,3.6E1,3E0,2.5E1,1.7E1,1E0,7E0,7E0,4.1E1,2E0,7E0,1E0,9E0,2E0,1E0,3.4E1,2E0,2.1E1,4E0,1.4E1,3E0,1E0,6E0,4E0,3E0,1.9E1,2.2E1,1E0,3.3E1,3E0,1E0,1.3E1,1E0,1E0,2E0,8E0,1.1E1,8E0,1.4E1],"tree_param":{"num_deleted":"0","num_feature":"23","num_nodes":"61","size_leaf_vector":"1"}},{"base_weights":[5.6155194E-2,-2.0125575E0,1.0327215E0,-2.3402486E0,-1.0390539E0,5.629881E-1,3.7490718E0,-4.966687E-1,-1.9872541E0,-4.82173E-2,-1.899112E-1,6.3275594E-1,-6.4957005E-1,4.0298063E-1,4.2286654E0,-4.276033E-1,-1.5270944E0,3.795099E-1,1.7649559E0,7.6403946E-1,3.124128E-1,-7.355765E-2,-2.647983E-1,1.4617099E0,2.6006436E-1,6.6912013E-1,2.198846E0,2.5831395E-1,4.0704706E-1,-1.2206548E-1,6.5553856E-1,1.6387682E-1,-4.2022973E-2,1.7355415E-1,4.1261312E-1,1.1385689E-1,-3.9506715E-2,-1.410509E-1,1.0450157E-2,7.845691E-2,1.6278252E-1,-3.6959797E-2,2.5932835E-2],"categories":[],"categories_nodes":[],"categories_segments":[],"categories_sizes":[],"default_left":[0,0,0,0,0,0,0,0,0,0,0,0,0,0,0,0,0,0,0,0,0,0,0,0,0,0,0,0,0,0,0,0,0,0,0,0,0,0,0,0,0,0,0],"id":7,"left_children":[1,3,5,7,9,11,13,-1,15,-1,-1,17,-1,-1,19,-1,21,23,25,-1,-1,-1,-1,27,29,31,33,35,-1,37,39,-1,41,-1,-1,-1,-1,-1,-1,-1,-1,-1,-1],"loss_changes":[3.8327222E2,1.7349411E1,1.6261255E2,4.5478363E0,8.0864143E-1,3.6148262E1,3.7802124E0,0E0,4.447548E0,0E0,0E0,3.092685E1,0E0,0E0,1.9102631E0,0E0,2.5301743E-1,1.1419857E1,8.188549E0,0E0,0E0,0E0,0E0,9.562204E0,1.2588159E1,1.500855E0,1.8265915E0,1.125387E0,0E0,5.66281E0,2.0247326E0,0E0,1.2687542E-1,0E0,0E0,0E0,0E0,0E0,0E0,0E0,0E0,0E0,0E0],"parents":[2147483647,0,0,1,1,2,2,3,3,4,4,5,5,6,6,8,8,11,11,14,14,16,16,17,17,18,18,23,23,24,24,25,25,26,26,27,27,29,29,30,30,32,32],"right_children":[2,4,6,8,10,12,14,-1,16,-1,-1,18,-1,-1,20,-1,22,24,26,-1,-1,-1,-1,28,30,32,34,36,-1,38,40,-1,42,-1,-1,-1,-1,-1,-1,-1,-1,-1,-1],"split_conditions":[1.62875E1,1.37739E1,2.74548E1,1.00216E1,-4.64E0,3.95502E8,3.25368E1,-4.966687E-1,9.4E-1,-4.82173E-2,-1.899112E-1,2.24799E1,-6.4957005E-1,4.0298063E-1,3.42503E1,-4.276033E-1,1.0054E1,-9.53E-1,-6.62E-1,7.6403946E-1,3.124128E-1,-7.355765E-2,-2.647983E-1,2.9988E7,1.97655E1,2.5275E1,-3.16E0,9.73E0,4.0704706E-1,-2.27E0,7.2E-1,1.6387682E-1,2.43174E1,1.7355415E-1,4.1261312E-1,1.1385689E-1,-3.9506715E-2,-1.410509E-1,1.0450157E-2,7.845691E-2,1.6278252E-1,-3.6959797E-2,2.5932835E-2],"split_indices":[0,0,0,0,8,6,0,0,5,0,0,4,0,0,2,0,0,19,19,0,0,0,0,6,0,2,5,10,0,5,5,0,0,0,0,0,0,0,0,0,0,0,0],"split_type":[0,0,0,0,0,0,0,0,0,0,0,0,0,0,0,0,0,0,0,0,0,0,0,0,0,0,0,0,0,0,0,0,0,0,0,0,0,0,0,0,0,0,0],"sum_hessian":[1.88E2,6E1,1.28E2,4.4E1,1.6E1,1.1E2,1.8E1,1.4E1,3E1,2E0,1.4E1,1.09E2,1E0,6E0,1.2E1,1.2E1,1.8E1,9E1,1.9E1,1E1,2E0,1E0,1.7E1,8E0,8.2E1,6E0,1.3E1,4E0,4E0,4.2E1,4E1,4E0,2E0,3E0,1E1,2E0,2E0,8E0,3.4E1,2.6E1,1.4E1,1E0,1E0],"tree_param":{"num_deleted":"0","num_feature":"23","num_nodes":"43","size_leaf_vector":"1"}},{"base_weights":[4.573575E-3,-6.756937E-1,2.716127E0,-1.7321192E0,2.3634687E-1,1.9086558E0,3.9125838E0,-2.1397154E0,-9.814143E-1,9.554213E-2,1.0887946E0,2.3350449E0,9.139631E-1,7.053522E-1,2.6385242E-1,-2.3976347E0,-1.6995313E0,-1.0840921E0,-1.2865119E-1,2.2968973E-1,-2.1034331E0,2.4202272E-1,2.7223055E0,2.1586509E-1,3.902418E-1,-8.0856666E-2,-2.4561713E0,-3.4104532E-1,-1.2015163E0,-4.2814434E-2,-1.1110206E0,-6.0141534E-2,4.7358193E-2,-1.0441052E0,3.860132E-1,1.12531565E-1,-5.017564E-1,5.1272917E-1,2.5078788E-1,1.1873927E-1,-3.8148433E-2,-1.8487929E-1,-4.2762977E-1,-2.143253E-1,-5.5411942E-2,-1.9528475E-1,-7.61054E-2,-3.665268E-1,-6.6648126E-1,1.1514845E0,2.5884792E-1,-3.3578243E-2,2.3560267E-2,-5.6802828E-2,-1.3716297E-1,-1.7235518E-2,3.419103E-1,-5.694547E-3,8.4756166E-2],"categories":[],"categories_nodes":[],"categories_segments":[],"categories_sizes":[],"default_left":[0,0,0,0,0,0,0,0,0,0,0,0,0,0,0,0,0,0,0,0,0,0,0,0,0,0,0,0,0,0,0,0,0,0,0,0,0,0,0,0,0,0,0,0,0,0,0,0,0,0,0,0,0,0,0,0,0,0,0],"id":8,"left_children":[1,3,5,7,9,11,13,15,17,19,-1,21,23,-1,-1,25,27,29,31,33,35,-1,37,-1,39,-1,41,-1,43,-1,45,-1,-1,47,49,-1,-1,-1,-1,-1,51,-1,-1,-1,-1,-1,-1,-1,53,55,57,-1,-1,-1,-1,-1,-1,-1,-1],"loss_changes":[3.5727585E2,1.4954276E2,3.120401E1,2.0203705E1,7.277764E1,8.72879E0,3.6524353E0,1.7525635E0,2.2315178E0,2.4845808E1,0E0,2.581787E0,1.2624736E0,0E0,0E0,2.017929E0,1.1008911E0,2.9381752E-1,4.4224778E-1,1.6040712E1,1.3312452E1,0E0,3.833847E-1,0E0,6.7245483E-1,0E0,3.0290222E-1,0E0,2.2472191E-1,0E0,2.3725128E-1,0E0,0E0,2.533905E0,6.6427326E0,0E0,0E0,0E0,0E0,0E0,1.04727864E-1,0E0,0E0,0E0,0E0,0E0,0E0,0E0,1.4485765E-1,1.0946245E1,4.409597E0,0E0,0E0,0E0,0E0,0E0,0E0,0E0,0E0],"parents":[2147483647,0,0,1,1,2,2,3,3,4,4,5,5,6,6,7,7,8,8,9,9,11,11,12,12,15,15,16,16,17,17,18,18,19,19,20,20,22,22,24,24,26,26,28,28,30,30,33,33,34,34,40,40,48,48,49,49,50,50],"right_children":[2,4,6,8,10,12,14,16,18,20,-1,22,24,-1,-1,26,28,30,32,34,36,-1,38,-1,40,-1,42,-1,44,-1,46,-1,-1,48,50,-1,-1,-1,-1,-1,52,-1,-1,-1,-1,-1,-1,-1,54,56,58,-1,-1,-1,-1,-1,-1,-1,-1],"split_conditions":[2.25708E1,1.62875E1,3.13741E1,1.36716E1,1.2E1,-2.5E-2,3.48466E1,9E0,1.83954E1,4.848E2,1.0887946E0,2.49839E1,1.652E1,7.053522E-1,2.6385242E-1,2.495E6,1.13891E1,-4.73E0,1.45006E1,1.8E2,1.83954E1,2.4202272E-1,3.13047E1,2.1586509E-1,2.59084E1,-8.0856666E-2,5.362E2,-3.4104532E-1,1.36538E1,-4.2814434E-2,5.984E2,-6.0141534E-2,4.7358193E-2,5.6287E7,2E0,1.12531565E-1,-5.017564E-1,5.1272917E-1,2.5078788E-1,1.1873927E-1,2.43174E1,-1.8487929E-1,-4.2762977E-1,-2.143253E-1,-5.5411942E-2,-1.9528475E-1,-7.61054E-2,-3.665268E-1,1.59106E1,1.232E1,1.1E1,-3.3578243E-2,2.3560267E-2,-5.6802828E-2,-1.3716297E-1,-1.7235518E-2,3.419103E-1,-5.694547E-3,8.4756166E-2],"split_indices":[4,0,4,0,22,16,0,21,2,15,0,2,14,0,0,7,2,8,0,11,0,0,1,0,1,0,11,0,1,0,15,0,0,6,21,0,0,0,0,0,0,0,0,0,0,0,0,0,2,10,21,0,0,0,0,0,0,0,0],"split_type":[0,0,0,0,0,0,0,0,0,0,0,0,0,0,0,0,0,0,0,0,0,0,0,0,0,0,0,0,0,0,0,0,0,0,0,0,0,0,0,0,0,0,0,0,0,0,0,0,0,0,0,0,0,0,0,0,0,0,0],"sum_hessian":[1.92E2,1.54E2,3.8E1,7.1E1,8.3E1,2.4E1,1.4E1,4.5E1,2.6E1,8.2E1,1E0,1.6E1,8E0,1.2E1,2E0,2.6E1,1.9E1,2.3E1,3E0,7.8E1,4E0,6E0,1E1,4E0,4E0,1E0,2.5E1,1E1,9E0,1E0,2.2E1,2E0,1E0,8E0,7E1,1E0,3E0,7E0,3E0,2E0,2E0,2E0,2.3E1,8E0,1E0,2E1,2E0,1E0,7E0,9E0,6.1E1,1E0,1E0,3E0,4E0,4E0,5E0,2.8E1,3.3E1],"tree_param":{"num_deleted":"0","num_feature":"23","num_nodes":"59","size_leaf_vector":"1"}},{"base_weights":[-4.9925588E-2,-1.3725222E0,7.6449996E-1,-4.027202E-1,-1.1910048E0,2.0274377E-1,1.9155214E0,-1.6012998E0,-7.753054E-1,3.2855517E-1,-5.9446156E-1,6.472321E-1,2.7966719E0,-1.0834264E0,-1.820043E0,-9.8793906E-1,-3.923625E-1,-1.6310896E0,4.1948375E-1,1.664695E-2,1.1580489E0,2.0657766E0,4.3560357E0,-1.1473305E0,-3.562536E-2,-3.176129E-1,-5.1670734E-2,-4.0145732E-2,-1.713288E-1,3.9369334E-3,-4.5962748E-1,-8.332207E-2,-3.1822792E-1,1.754802E-1,9.8622745E-1,-9.382493E-2,3.9076474E-1,2.7135515E-1,7.6288193E-1,2.1690352E0,2.9764961E-2,1.8340164E-1,8.037536E-1,-2.2217047E-1,-9.327395E-2,-1.7108997E-2,1.8217802E-2,-5.1302254E-1,-2.3299584E-2,-2.1158274E-1,2.7474478E-1,-1.1221438E-1,1.0911772E0,1.1748222E-2,9.159867E-2,2.0057173E-1,3.8016853E-1,1.3900371E-1,2.303409E0,-2.111938E-2,-9.203266E-2,-2.3963572E-1,6.1360124E-2,1.9625002E-3,-3.126832E-2,1.9130494E-1,2.0949326E-2,2.1404782E-2,7.060074E-2,2.5890592E-1,4.5261684E-1],"categories":[],"categories_nodes":[],"categories_segments":[],"categories_sizes":[],"default_left":[0,0,0,0,0,0,0,0,0,0,0,0,0,0,0,0,0,0,0,0,0,0,0,0,0,0,0,0,0,0,0,0,0,0,0,0,0,0,0,0,0,0,0,0,0,0,0,0,0,0,0,0,0,0,0,0,0,0,0,0,0,0,0,0,0,0,0,0,0,0,0],"id":9,"left_children":[1,3,5,-1,7,9,11,13,15,17,-1,19,21,23,25,27,29,31,33,35,37,39,41,43,-1,-1,-1,-1,-1,45,47,-1,-1,49,51,-1,53,-1,55,57,-1,-1,-1,-1,-1,-1,-1,59,-1,-1,61,63,65,-1,-1,-1,67,-1,69,-1,-1,-1,-1,-1,-1,-1,-1,-1,-1,-1,-1],"loss_changes":[2.1723157E2,1.1703186E1,8.0394196E1,0E0,1.0348351E1,4.0705112E1,4.411287E1,2.0493393E0,2.508089E0,1.5340175E1,0E0,5.73116E0,1.955664E1,4.545021E-1,1.5016708E0,2.259121E-1,3.7105083E-1,3.1762505E-1,1.0894217E1,2.076867E0,7.05081E-1,3.1564713E0,4.6243744E0,4.673977E-1,0E0,0E0,0E0,0E0,0E0,4.0370476E-2,1.4300251E-1,0E0,0E0,8.348398E0,2.8535595E0,0E0,2.520026E-1,0E0,7.2872186E-1,1.4402695E0,0E0,0E0,0E0,0E0,0E0,0E0,0E0,6.320977E-2,0E0,0E0,8.504353E0,2.7669556E-2,7.5294685E-1,0E0,0E0,0E0,1.08248E-3,0E0,8.229294E-1,0E0,0E0,0E0,0E0,0E0,0E0,0E0,0E0,0E0,0E0,0E0,0E0],"parents":[2147483647,0,0,1,1,2,2,4,4,5,5,6,6,7,7,8,8,9,9,11,11,12,12,13,13,14,14,15,15,16,16,17,17,18,18,19,19,20,20,21,21,22,22,23,23,29,29,30,30,33,33,34,34,36,36,38,38,39,39,47,47,50,50,51,51,52,52,56,56,58,58],"right_children":[2,4,6,-1,8,10,12,14,16,18,-1,20,22,24,26,28,30,32,34,36,38,40,42,44,-1,-1,-1,-1,-1,46,48,-1,-1,50,52,-1,54,-1,56,58,-1,-1,-1,-1,-1,-1,-1,60,-1,-1,62,64,66,-1,-1,-1,68,-1,70,-1,-1,-1,-1,-1,-1,-1,-1,-1,-1,-1,-1],"split_conditions":[1.68098E1,-8.6E0,1E1,-4.027202E-1,1.20518E1,2.76868E8,3.911E2,2.188E1,4.39E0,1.7616E7,-5.9446156E-1,2.45E1,2.952E1,2.692E1,3.223E1,1.16781E1,-4.64E0,1.81838E1,2.10065E1,1.211E1,1.684E1,1.287E1,2.99655E8,2.83E-1,-3.562536E-2,-3.176129E-1,-5.1670734E-2,-4.0145732E-2,-1.713288E-1,1.45006E1,1.296E1,-8.332207E-2,-3.1822792E-1,-1.044E1,-1.038E1,-9.382493E-2,1.89103E1,2.7135515E-1,1.9675E1,-6.46E0,2.9764961E-2,1.8340164E-1,8.037536E-1,-2.2217047E-1,-9.327395E-2,-1.7108997E-2,1.8217802E-2,4.97E0,-2.3299584E-2,-2.1158274E-1,8.25E1,2.32157E1,1.108E1,1.1748222E-2,9.159867E-2,2.0057173E-1,1.244E1,1.3900371E-1,7.285E7,-2.111938E-2,-9.203266E-2,-2.3963572E-1,6.1360124E-2,1.9625002E-3,-3.126832E-2,1.9130494E-1,2.0949326E-2,2.1404782E-2,7.060074E-2,2.5890592E-1,4.5261684E-1],"split_indices":[0,5,22,0,0,6,11,9,5,6,0,9,13,5,9,4,8,0,0,10,14,10,6,18,0,0,0,0,0,0,5,0,0,5,8,0,3,0,1,8,0,0,0,0,0,0,0,5,0,0,11,0,8,0,0,0,10,0,7,0,0,0,0,0,0,0,0,0,0,0,0],"split_type":[0,0,0,0,0,0,0,0,0,0,0,0,0,0,0,0,0,0,0,0,0,0,0,0,0,0,0,0,0,0,0,0,0,0,0,0,0,0,0,0,0,0,0,0,0,0,0,0,0,0,0,0,0,0,0,0,0,0,0,0,0,0,0,0,0,0,0,0,0,0,0],"sum_hessian":[2E2,7.6E1,1.24E2,1E1,6.6E1,8.4E1,4E1,3.2E1,3.4E1,8.2E1,2E0,1.7E1,2.3E1,1.1E1,2.1E1,2.1E1,1.3E1,3E0,7.9E1,8E0,9E0,1.7E1,6E0,1E1,1E0,2E1,1E0,1E0,2E1,2E0,1.1E1,1E0,2E0,5.6E1,2.3E1,3E0,5E0,3E0,6E0,1.6E1,1E0,1E0,5E0,7E0,3E0,1E0,1E0,9E0,2E0,3E0,5.3E1,2E0,2.1E1,2E0,3E0,2E0,4E0,2E0,1.4E1,1E0,8E0,2E0,5.1E1,1E0,1E0,2E1,1E0,1E0,3E0,6E0,8E0],"tree_param":{"num_deleted":"0","num_feature":"23","num_nodes":"71","size_leaf_vector":"1"}},{"base_weights":[5.764772E-2,-3.834957E-1,2.0244842E0,-1.1947659E0,1.872605E-1,1.6702923E0,6.285988E-1,-1.569846E0,-7.565375E-1,8.7897226E-2,9.1564393E-1,1.2363403E0,2.4539347E0,-3.5813555E-1,-1.327532E0,-2.0711206E-1,-5.710242E-1,1.8087335E-1,-5.239019E-1,2.6125547E-1,1.431514E0,6.9861464E-2,4.435116E-1,-8.3627236E-1,-1.4898485E0,-6.1390805E-1,4.5157164E-2,2.563582E-1,-1.0310248E0,-4.7285598E-2,4.6378618E-1,1.0473675E-1,1.4966505E0,-1.5163451E-1,-3.236596E-2,-1.5416273E0,-4.6943307E-2,-2.8491536E-1,-6.6542405E-1,-8.383911E-1,3.41149E-1,1.20498575E-1,-3.539362E-1,9.320045E-2,1.944649E-2,1.2954657E-1,2.71599E-1,-2.791774E-1,-1.2578699E-1,-1.0395534E-2,-5.561162E-2,-1.2382732E-1,-7.372028E-2,-3.1106853E-1,-6.758295E-2,2.6556888E-1,4.198587E-2],"categories":[],"categories_nodes":[],"categories_segments":[],"categories_sizes":[],"default_left":[0,0,0,0,0,0,0,0,0,0,0,0,0,0,0,0,0,0,0,0,0,0,0,0,0,0,0,0,0,0,0,0,0,0,0,0,0,0,0,0,0,0,0,0,0,0,0,0,0,0,0,0,0,0,0,0,0],"id":10,"left_children":[1,3,5,7,9,11,-1,13,15,17,-1,19,21,-1,23,-1,25,27,-1,29,31,-1,-1,33,35,37,-1,39,41,-1,43,-1,45,-1,-1,47,-1,49,51,53,55,-1,-1,-1,-1,-1,-1,-1,-1,-1,-1,-1,-1,-1,-1,-1,-1],"loss_changes":[1.7926259E2,7.837247E1,1.7478882E1,1.0473404E1,5.1510597E1,8.59874E0,0E0,2.52771E0,2.353981E0,2.978296E1,0E0,4.0298347E0,2.8753815E0,0E0,1.1638527E0,0E0,1.06843E0,9.082492E0,0E0,6.412292E-1,2.0886612E-1,0E0,0E0,2.0348167E-1,8.811798E-1,2.5977802E-1,0E0,8.76722E0,1.2119226E1,0E0,6.3577056E-2,0E0,3.2095718E-1,0E0,0E0,6.243515E-1,0E0,3.044939E-2,5.0970078E-2,2.3845E0,9.453066E0,0E0,0E0,0E0,0E0,0E0,0E0,0E0,0E0,0E0,0E0,0E0,0E0,0E0,0E0,0E0,0E0],"parents":[2147483647,0,0,1,1,2,2,3,3,4,4,5,5,7,7,8,8,9,9,11,11,12,12,14,14,16,16,17,17,19,19,20,20,23,23,24,24,25,25,27,27,28,28,30,30,32,32,35,35,37,37,38,38,39,39,40,40],"right_children":[2,4,6,8,10,12,-1,14,16,18,-1,20,22,-1,24,-1,26,28,-1,30,32,-1,-1,34,36,38,-1,40,42,-1,44,-1,46,-1,-1,48,-1,50,52,54,56,-1,-1,-1,-1,-1,-1,-1,-1,-1,-1,-1,-1,-1,-1,-1,-1],"split_conditions":[2.25708E1,1.64006E1,1.074E1,1.2104E1,1.2E1,3.25368E1,6.285988E-1,-8E-1,-3.92E0,3.95502E8,9.1564393E-1,7.01E1,2.7127E1,-3.5813555E-1,2.15E1,-2.0711206E-1,1.87184E1,4.739E2,-5.239019E-1,-1.851E1,-3.76E0,6.9861464E-2,4.435116E-1,2.692E1,3.177E1,1.17821E1,4.5157164E-2,1.662E2,1.83954E1,-4.7285598E-2,3.26175E1,1.0473675E-1,-1.404E0,-1.5163451E-1,-3.236596E-2,1.17424E1,-4.6943307E-2,1.2521E1,4.39E0,5.6287E7,1E0,1.20498575E-1,-3.539362E-1,9.320045E-2,1.944649E-2,1.2954657E-1,2.71599E-1,-2.791774E-1,-1.2578699E-1,-1.0395534E-2,-5.561162E-2,-1.2382732E-1,-7.372028E-2,-3.1106853E-1,-6.758295E-2,2.6556888E-1,4.198587E-2],"split_indices":[4,0,5,0,22,0,0,5,5,6,0,15,1,0,9,0,1,15,0,5,5,0,0,5,9,4,0,11,0,0,2,0,18,0,0,0,0,0,5,6,20,0,0,0,0,0,0,0,0,0,0,0,0,0,0,0,0],"split_type":[0,0,0,0,0,0,0,0,0,0,0,0,0,0,0,0,0,0,0,0,0,0,0,0,0,0,0,0,0,0,0,0,0,0,0,0,0,0,0,0,0,0,0,0,0,0,0,0,0,0,0,0,0,0,0,0,0],"sum_hessian":[2.05E2,1.68E2,3.7E1,6.9E1,9.9E1,3.2E1,5E0,3.6E1,3.3E1,9.8E1,1E0,2.2E1,1E1,9E0,2.7E1,8E0,2.5E1,9.6E1,2E0,4E0,1.8E1,1E0,9E0,8E0,1.9E1,2.4E1,1E0,9.1E1,5E0,1E0,3E0,2E0,1.6E1,7E0,1E0,1.8E1,1E0,4E0,2E1,6E0,8.5E1,2E0,3E0,2E0,1E0,3E0,1.3E1,1.5E1,3E0,1E0,3E0,1.4E1,6E0,1E0,5E0,5E0,8E1],"tree_param":{"num_deleted":"0","num_feature":"23","num_nodes":"57","size_leaf_vector":"1"}},{"base_weights":[9.7775884E-2,-3.5793817E-1,1.5050719E0,-1.0141746E0,1.1623207E-1,1.2493279E0,2.8446894E0,-1.5047593E0,-7.783321E-1,2.2102745E-1,-1.1048853E0,9.235054E-1,1.8985792E0,1.9087474E-1,5.6670785E-1,-1.5914918E-1,-1.7053962E0,-1.2085322E0,-5.3405327E-1,-4.2578945E-1,4.6208733E-1,-3.2962495E-1,-4.1461524E-1,5.937841E-2,1.0218254E0,1.1278095E-1,2.0733752E0,-3.126939E-1,-1.0858079E-1,-2.1496154E-1,-2.9404784E-2,-5.8695984E-1,1.2343125E-1,-2.4881585E-1,-2.5740305E-1,-1.6987805E-1,6.3065636E-1,-8.240662E-3,-8.425155E-2,-4.2959448E-2,4.1475203E-2,1.1116405E0,4.383216E-1,3.6819038E-1,9.3895845E-2,-6.447047E-1,-5.71705E-2,-8.798902E-3,4.102576E-2,-3.8373247E-1,2.9777791E-2,-4.4932345E-1,3.6968988E-1,4.664694E-1,1.1907649E0,1.1035654E-1,2.0520906E-1,8.477225E-2,1.7667238E-2,-1.236876E-1,-7.105403E-2,-7.659242E-2,3.3885487E-3,1.5498354E-2,-3.033891E-2,-3.6881787E-3,-8.468731E-2,1.734511E-2,8.893046E-2,9.043663E-2,-8.706712E-2,2.5965136E-1,5.2714836E-2],"categories":[],"categories_nodes":[],"categories_segments":[],"categories_sizes":[],"default_left":[0,0,0,0,0,0,0,0,0,0,0,0,0,0,0,0,0,0,0,0,0,0,0,0,0,0,0,0,0,0,0,0,0,0,0,0,0,0,0,0,0,0,0,0,0,0,0,0,0,0,0,0,0,0,0,0,0,0,0,0,0,0,0,0,0,0,0,0,0,0,0,0,0],"id":11,"left_children":[1,3,5,7,9,11,13,15,17,19,21,23,25,-1,-1,-1,27,29,31,33,35,-1,37,39,41,-1,43,-1,-1,-1,-1,45,47,-1,49,51,53,-1,-1,-1,-1,55,57,-1,-1,59,-1,-1,-1,61,63,65,67,69,71,-1,-1,-1,-1,-1,-1,-1,-1,-1,-1,-1,-1,-1,-1,-1,-1,-1,-1],"loss_changes":[1.2285144E2,4.5172104E1,1.303791E1,6.0466385E0,1.1063452E1,7.154152E0,2.7763405E0,7.6517105E-1,3.954832E0,1.24604025E1,3.3132296E0,2.3984737E0,1.5899734E0,0E0,0E0,0E0,9.796028E-1,7.941742E-1,1.0651674E0,3.529641E0,6.253454E0,0E0,1.2808299E-1,2.7743766E-1,9.407387E-1,0E0,7.209511E-1,0E0,0E0,0E0,0E0,1.996994E-1,7.054892E-2,0E0,7.3000765E-1,2.077629E0,3.744526E0,0E0,0E0,0E0,0E0,3.596077E-1,5.7755172E-2,0E0,0E0,1.4703465E-1,0E0,0E0,0E0,3.976879E-1,1.026985E-1,1.8695009E-1,1.5653032E-1,2.7263145E0,2.5887718E0,0E0,0E0,0E0,0E0,0E0,0E0,0E0,0E0,0E0,0E0,0E0,0E0,0E0,0E0,0E0,0E0,0E0,0E0],"parents":[2147483647,0,0,1,1,2,2,3,3,4,4,5,5,6,6,7,7,8,8,9,9,10,10,11,11,12,12,16,16,17,17,18,18,19,19,20,20,22,22,23,23,24,24,26,26,31,31,32,32,34,34,35,35,36,36,41,41,42,42,45,45,49,49,50,50,51,51,52,52,53,53,54,54],"right_children":[2,4,6,8,10,12,14,16,18,20,22,24,26,-1,-1,-1,28,30,32,34,36,-1,38,40,42,-1,44,-1,-1,-1,-1,46,48,-1,50,52,54,-1,-1,-1,-1,56,58,-1,-1,60,-1,-1,-1,62,64,66,68,70,72,-1,-1,-1,-1,-1,-1,-1,-1,-1,-1,-1,-1,-1,-1,-1,-1,-1,-1],"split_conditions":[2.32157E1,1.62875E1,6.46E0,-6E-2,4.27E0,3.25368E1,3.83E0,3.206E2,1.09377E1,-8.8E-1,2.3E-1,-1.378E1,-6.83E0,1.9087474E-1,5.6670785E-1,-1.5914918E-1,1.4E1,2.692E1,2.039E1,-2.362E1,1.83667E1,-3.2962495E-1,1.65554E1,-1.851E1,4.19E0,1.1278095E-1,2E1,-3.126939E-1,-1.0858079E-1,-2.1496154E-1,-2.9404784E-2,8.66E0,1.45006E1,-2.4881585E-1,2.05766E1,7.18E0,2.326E1,-8.240662E-3,-8.425155E-2,-4.2959448E-2,4.1475203E-2,-3.76E0,2.59084E1,3.6819038E-1,9.3895845E-2,2.314629E9,-5.71705E-2,-8.798902E-3,4.102576E-2,5.28E-1,2.21194E1,1.45006E1,1.711E1,1.032E3,1.751E2,1.1035654E-1,2.0520906E-1,8.477225E-2,1.7667238E-2,-1.236876E-1,-7.105403E-2,-7.659242E-2,3.3885487E-3,1.5498354E-2,-3.033891E-2,-3.6881787E-3,-8.468731E-2,1.734511E-2,8.893046E-2,9.043663E-2,-8.706712E-2,2.5965136E-1,5.2714836E-2],"split_indices":[0,0,5,5,12,0,12,15,0,5,8,5,5,0,0,0,20,5,5,5,0,0,3,5,12,0,20,0,0,0,0,5,0,0,0,5,9,0,0,0,0,5,0,0,0,7,0,0,0,19,1,1,0,11,15,0,0,0,0,0,0,0,0,0,0,0,0,0,0,0,0,0,0],"split_type":[0,0,0,0,0,0,0,0,0,0,0,0,0,0,0,0,0,0,0,0,0,0,0,0,0,0,0,0,0,0,0,0,0,0,0,0,0,0,0,0,0,0,0,0,0,0,0,0,0,0,0,0,0,0,0,0,0,0,0,0,0,0,0,0,0,0,0,0,0,0,0,0,0],"sum_hessian":[1.9E2,1.44E2,4.6E1,6E1,8.4E1,4E1,6E0,1.8E1,4.2E1,7.8E1,6E0,2.8E1,1.2E1,2E0,4E0,6E0,1.2E1,1.4E1,2.8E1,2.1E1,5.7E1,2E0,4E0,3E0,2.5E1,2E0,1E1,1E1,2E0,1.3E1,1E0,2.6E1,2E0,2E0,1.9E1,1.2E1,4.5E1,1E0,3E0,1E0,2E0,2.1E1,4E0,9E0,1E0,2E1,6E0,1E0,1E0,1.3E1,6E0,8E0,4E0,3.6E1,9E0,5E0,1.6E1,3E0,1E0,1.3E1,7E0,1.1E1,2E0,5E0,1E0,1E0,7E0,2E0,2E0,3.4E1,2E0,6E0,3E0],"tree_param":{"num_deleted":"0","num_feature":"23","num_nodes":"73","size_leaf_vector":"1"}},{"base_weights":[2.2356072E-2,-8.7952197E-1,4.216146E-1,-1.0521789E0,-4.716106E-1,2.4873817E-1,2.2031918E0,-8.289727E-1,-1.3506516E0,-5.238423E-1,3.7272334E-2,7.9381146E-2,1.2918109E0,4.1332603E0,1.0192916E0,-9.5912397E-1,-4.600003E-1,-2.4106148E-1,-2.6714444E-2,-6.495967E-1,-5.876309E-2,-9.573119E-2,7.385229E-1,1.3569061E-1,2.877045E-1,8.4130234E-1,1.5747249E-1,4.3153442E-2,2.275097E-1,-2.9902298E-2,-9.9896765E-1,-5.534923E-1,-2.2107003E-2,-3.5045654E-2,-1.1545107E-1,-3.3177337E-1,2.6141697E-1,6.164058E-1,2.8921965E-1,-3.9029073E-2,5.0350428E-2,-1.7397411E-1,-4.9300518E-2,-1.0511296E-1,-2.0068513E-2,-1.8648124E-1,-3.2983395E-1,2.841216E-1,1.1850172E-1,3.0567688E-1,7.3230284E-1,2.1225393E-2,-8.306739E-2,-1.4166874E-1,2.9784726E-2,2.4472332E-2,6.739774E-2,1.3769107E-1,2.8650267E-2],"categories":[],"categories_nodes":[],"categories_segments":[],"categories_sizes":[],"default_left":[0,0,0,0,0,0,0,0,0,0,0,0,0,0,0,0,0,0,0,0,0,0,0,0,0,0,0,0,0,0,0,0,0,0,0,0,0,0,0,0,0,0,0,0,0,0,0,0,0,0,0,0,0,0,0,0,0,0,0],"id":12,"left_children":[1,3,5,7,9,11,13,15,17,19,-1,21,23,25,27,29,31,-1,-1,33,-1,35,37,-1,-1,-1,-1,39,-1,-1,41,43,-1,-1,-1,45,47,49,-1,-1,-1,-1,-1,-1,-1,51,-1,-1,53,55,57,-1,-1,-1,-1,-1,-1,-1,-1],"loss_changes":[6.4352776E1,3.441391E0,3.767771E1,1.5717583E0,7.433834E-1,2.002311E1,2.1213634E1,7.704525E-1,1.1600189E0,1.8064022E-1,0E0,1.146965E1,2.024372E0,6.4951096E0,2.4581137E0,3.7423038E-1,1.7951E-1,0E0,0E0,1.159358E-2,0E0,6.7203765E0,1.5831795E0,0E0,0E0,0E0,0E0,2.5729692E-1,0E0,0E0,9.097767E-2,1.11497164E-1,0E0,0E0,0E0,1.0957108E1,6.2949886E0,5.243163E-1,0E0,0E0,0E0,0E0,0E0,0E0,0E0,4.3257046E0,0E0,0E0,1.7762941E0,5.330652E-2,5.2725697E-1,0E0,0E0,0E0,0E0,0E0,0E0,0E0,0E0],"parents":[2147483647,0,0,1,1,2,2,3,3,4,4,5,5,6,6,7,7,8,8,9,9,11,11,12,12,13,13,14,14,15,15,16,16,19,19,21,21,22,22,27,27,30,30,31,31,35,35,36,36,37,37,45,45,48,48,49,49,50,50],"right_children":[2,4,6,8,10,12,14,16,18,20,-1,22,24,26,28,30,32,-1,-1,34,-1,36,38,-1,-1,-1,-1,40,-1,-1,42,44,-1,-1,-1,46,48,50,-1,-1,-1,-1,-1,-1,-1,52,-1,-1,54,56,58,-1,-1,-1,-1,-1,-1,-1,-1],"split_conditions":[1.62875E1,1.36611E1,1.2E1,3.41E0,1.87184E1,2.4213E1,1.148E1,1.26402E1,2.648E1,3.2E-1,3.7272334E-2,5.09E0,3.07301E1,3.38099E1,-8.08E0,5.157E2,3.08E0,-2.4106148E-1,-2.6714444E-2,1.17424E1,-5.876309E-2,1.25E-1,2.211E1,1.3569061E-1,2.877045E-1,8.4130234E-1,1.5747249E-1,2.43174E1,2.275097E-1,-2.9902298E-2,2.24E0,2.98E0,-2.2107003E-2,-3.5045654E-2,-1.1545107E-1,4.848E2,1E0,1.8999E1,2.8921965E-1,-3.9029073E-2,5.0350428E-2,-1.7397411E-1,-4.9300518E-2,-1.0511296E-1,-2.0068513E-2,2.699E1,-3.2983395E-1,2.841216E-1,-2.186E1,1.292E1,2.12641E1,2.1225393E-2,-8.306739E-2,-1.4166874E-1,2.9784726E-2,2.4472332E-2,6.739774E-2,1.3769107E-1,2.8650267E-2],"split_indices":[0,0,22,8,1,3,10,0,5,5,0,5,0,2,5,11,5,0,0,2,0,16,5,0,0,0,0,0,0,0,8,8,0,0,0,15,20,0,0,0,0,0,0,0,0,13,0,0,5,5,2,0,0,0,0,0,0,0,0],"split_type":[0,0,0,0,0,0,0,0,0,0,0,0,0,0,0,0,0,0,0,0,0,0,0,0,0,0,0,0,0,0,0,0,0,0,0,0,0,0,0,0,0,0,0,0,0,0,0,0,0,0,0,0,0,0,0,0,0,0,0],"sum_hessian":[1.77E2,5.4E1,1.23E2,3.7E1,1.7E1,1.13E2,1E1,2.3E1,1.4E1,1.6E1,1E0,9.8E1,1.5E1,3E0,7E0,1.6E1,7E0,1.3E1,1E0,8E0,8E0,7.8E1,2E1,8E0,7E0,2E0,1E0,2E0,5E0,1E0,1.5E1,5E0,2E0,1E0,7E0,4.7E1,3.1E1,1.9E1,1E0,1E0,1E0,1.4E1,1E0,4E0,1E0,4.4E1,3E0,2E0,2.9E1,6E0,1.3E1,2.2E1,2.2E1,1E0,2.8E1,3E0,3E0,1.1E1,2E0],"tree_param":{"num_deleted":"0","num_feature":"23","num_nodes":"59","size_leaf_vector":"1"}},{"base_weights":[-6.98288E-2,-5.703561E-1,5.3757024E-1,-1.2897418E0,-4.4470227E-1,3.2536337E-1,1.7054205E0,-2.3583743E-1,-7.19306E-2,-2.5747797E-1,-1.0449238E0,-4.529231E-1,4.0096903E-1,7.7115285E-1,3.745842E-1,-5.7535213E-1,-2.7632745E-2,-6.5469664E-1,-3.7479427E-1,-5.3637075E-1,3.113185E-3,2.0621045E-1,6.365298E-1,4.7012094E-2,1.6317125E-1,-1.2775071E0,-3.008343E-1,1.2663075E0,-1.5854284E-1,-4.1149968E-1,-8.891482E-1,-1.0609142E-1,-4.268414E-2,1.3383767E-1,2.6275876E-1,6.8735105E-1,-8.380626E-3,-1.668738E0,1.280946E-1,-3.4105784E-1,4.9109176E-2,5.952118E-2,2.5039765E-1,1.0932713E-1,-1.9530113E-1,-4.313476E-1,-2.1500763E-2,-1.6691858E-1,-7.1139984E-2,-6.337583E-2,3.250893E-1,2.2604139E-1,7.798965E-1,-1.2845775E-1,-3.227427E-1,-6.157844E-2,1.13398675E-2,-5.0785094E-2,8.176143E-3,-7.655332E-2,-2.370598E-2,-2.8226266E-2,2.347049E-2,7.663481E-2,7.35005E-3,6.601425E-3,6.9453865E-2,1.3714795E-1,5.293046E-2],"categories":[],"categories_nodes":[],"categories_segments":[],"categories_sizes":[],"default_left":[0,0,0,0,0,0,0,0,0,0,0,0,0,0,0,0,0,0,0,0,0,0,0,0,0,0,0,0,0,0,0,0,0,0,0,0,0,0,0,0,0,0,0,0,0,0,0,0,0,0,0,0,0,0,0,0,0,0,0,0,0,0,0,0,0,0,0,0,0],"id":13,"left_children":[1,3,5,7,9,11,13,-1,-1,15,17,19,21,23,-1,25,27,29,-1,31,-1,33,35,-1,-1,37,39,41,43,45,47,-1,-1,49,-1,51,-1,53,-1,55,-1,-1,-1,-1,57,59,-1,-1,-1,61,63,65,67,-1,-1,-1,-1,-1,-1,-1,-1,-1,-1,-1,-1,-1,-1,-1,-1],"loss_changes":[5.706451E1,8.809639E0,2.055564E1,8.595867E-1,9.755304E0,4.440144E0,4.695652E0,0E0,0E0,5.0160346E0,8.316587E0,2.781284E-1,2.9548817E0,3.326149E-1,0E0,5.2335424E0,7.08786E0,6.496906E-1,0E0,1.6926408E-2,0E0,3.5179935E0,1.0702019E0,0E0,0E0,7.3211803E0,6.0378194E-1,3.1561422E-1,1.2274845E0,8.568168E-3,9.994984E-3,0E0,0E0,1.4074248E0,0E0,1.0386992E0,0E0,2.7180672E-1,0E0,2.2074723E-1,0E0,0E0,0E0,0E0,9.584347E-1,1.8446445E-3,0E0,0E0,0E0,4.1514882E-1,6.6515577E-1,1.8832773E-1,1.24715805E-1,0E0,0E0,0E0,0E0,0E0,0E0,0E0,0E0,0E0,0E0,0E0,0E0,0E0,0E0,0E0,0E0],"parents":[2147483647,0,0,1,1,2,2,3,3,4,4,5,5,6,6,9,9,10,10,11,11,12,12,13,13,15,15,16,16,17,17,19,19,21,21,22,22,25,25,26,26,27,27,28,28,29,29,30,30,33,33,35,35,37,37,39,39,44,44,45,45,49,49,50,50,51,51,52,52],"right_children":[2,4,6,8,10,12,14,-1,-1,16,18,20,22,24,-1,26,28,30,-1,32,-1,34,36,-1,-1,38,40,42,44,46,48,-1,-1,50,-1,52,-1,54,-1,56,-1,-1,-1,-1,58,60,-1,-1,-1,62,64,66,68,-1,-1,-1,-1,-1,-1,-1,-1,-1,-1,-1,-1,-1,-1,-1,-1],"split_conditions":[1.89288E1,-6.42E0,3.12675E1,1.6E1,3.28282E8,-1.362E1,-6.83E0,-2.3583743E-1,-7.19306E-2,-5.4E-1,1.492E1,2.43174E1,2.18943E1,3.40426E1,3.745842E-1,2E0,1E0,7.11E0,-3.7479427E-1,2.20831E1,3.113185E-3,1.859E1,3.14793E1,4.7012094E-2,1.6317125E-1,5.6287E7,1.6E1,4.1775E7,1.0054E1,8.52E0,1.02068E1,-1.0609142E-1,-4.268414E-2,1.11E0,2.6275876E-1,-7.12E0,-8.380626E-3,1.17424E1,1.280946E-1,1.83667E1,4.9109176E-2,5.952118E-2,2.5039765E-1,1.0932713E-1,1.179E1,1.4892E1,-2.1500763E-2,-1.6691858E-1,-7.1139984E-2,2.05766E1,1.94823E1,2.32157E1,4.27E0,-1.2845775E-1,-3.227427E-1,-6.157844E-2,1.13398675E-2,-5.0785094E-2,8.176143E-3,-7.655332E-2,-2.370598E-2,-2.8226266E-2,2.347049E-2,7.663481E-2,7.35005E-3,6.601425E-3,6.9453865E-2,1.3714795E-1,5.293046E-2],"split_indices":[0,5,3,20,6,5,5,0,0,18,2,0,0,0,0,20,20,8,0,0,0,5,1,0,0,6,20,6,2,5,0,0,0,5,0,5,0,0,0,0,0,0,0,0,5,0,0,0,0,0,2,0,12,0,0,0,0,0,0,0,0,0,0,0,0,0,0,0,0],"split_type":[0,0,0,0,0,0,0,0,0,0,0,0,0,0,0,0,0,0,0,0,0,0,0,0,0,0,0,0,0,0,0,0,0,0,0,0,0,0,0,0,0,0,0,0,0,0,0,0,0,0,0,0,0,0,0,0,0,0,0,0,0,0,0,0,0,0,0,0,0],"sum_hessian":[1.86E2,1.02E2,8.4E1,1.4E1,8.8E1,7.2E1,1.2E1,1.2E1,2E0,6.8E1,2E1,6E0,6.6E1,5E0,7E0,2.8E1,4E1,1.6E1,4E0,5E0,1E0,3.7E1,2.9E1,2E0,3E0,7E0,2.1E1,3E0,3.7E1,9E0,7E0,3E0,2E0,3.6E1,1E0,2.7E1,2E0,6E0,1E0,2E1,1E0,1E0,2E0,1E0,3.6E1,8E0,1E0,5E0,2E0,1.8E1,1.8E1,5E0,2.2E1,2E0,4E0,1.9E1,1E0,2.5E1,1.1E1,7E0,1E0,1.2E1,6E0,1.2E1,6E0,3E0,2E0,2E1,2E0],"tree_param":{"num_deleted":"0","num_feature":"23","num_nodes":"69","size_leaf_vector":"1"}},{"base_weights":[-3.731443E-2,-4.8325613E-1,4.851221E-1,-5.721876E-1,7.8436667E-1,2.3237593E-1,9.023209E-1,9.4984174E-2,-6.2343854E-1,-9.578836E-2,6.7618567E-1,1.0073022E0,3.7898296E-1,-3.73209E-1,-5.17885E-1,-6.396746E-1,1.0108416E-1,5.510749E-1,2.4241525E-1,8.5135445E-2,1.1029297E0,-3.5268296E-3,5.3764224E-1,-7.377138E-1,-2.5795728E-1,-8.953806E-1,-1.1001728E-1,-4.7831457E-2,3.321475E-1,3.9955726E-1,1.1846562E-1,1.1700703E0,8.970335E-2,2.8283931E-3,-3.8304E-3,1.0030589E-1,2.9345628E-2,-5.634431E-1,-1.0234238E0,9.9324696E-2,-2.8933674E-1,-8.420029E-2,-1.9683059E-1,1.9192586E-2,-3.7617695E-2,1.2129457E-1,-1.13680854E-1,3.629653E-1,5.362204E-3,2.906823E-1,8.924715E-2,1.2200601E-1,1.2875658E0,-1.1531383E-1,-5.123427E-2,-2.0287892E-1,-8.1910804E-2,-5.9937637E-2,2.9781897E-2,2.5835184E-2,8.9972075E-3,-3.283249E-2,6.184194E-3,6.4411595E-2,1.9958312E-2,5.3504504E-2,7.806842E-3,1.14364155E-1,2.3708883E-1],"categories":[],"categories_nodes":[],"categories_segments":[],"categories_sizes":[],"default_left":[0,0,0,0,0,0,0,0,0,0,0,0,0,0,0,0,0,0,0,0,0,0,0,0,0,0,0,0,0,0,0,0,0,0,0,0,0,0,0,0,0,0,0,0,0,0,0,0,0,0,0,0,0,0,0,0,0,0,0,0,0,0,0,0,0,0,0,0,0],"id":14,"left_children":[1,3,5,7,-1,9,11,-1,13,15,17,19,21,-1,23,25,27,29,-1,-1,31,33,35,37,39,41,43,45,47,49,-1,51,-1,-1,-1,-1,-1,53,55,-1,57,-1,-1,-1,-1,59,61,63,-1,65,-1,-1,67,-1,-1,-1,-1,-1,-1,-1,-1,-1,-1,-1,-1,-1,-1,-1,-1],"loss_changes":[4.4428104E1,4.9133976E1,9.084494E0,6.2184067E0,0E0,8.188951E0,1.4802456E0,0E0,1.540831E1,3.5722818E0,1.5929193E0,8.202133E-1,4.1758877E-1,0E0,5.1432323E0,1.1138284E0,8.686422E-1,2.590909E-1,0E0,0E0,3.1142807E-1,1.4315528E-3,1.1028528E-2,1.9924049E0,1.3076243E0,1.3307238E-1,1.1843194E-1,1.8814157E-1,8.10436E-2,4.9378633E-2,0E0,2.0272827E-1,0E0,0E0,0E0,0E0,0E0,8.42371E-1,1.2122974E0,0E0,1.3595786E0,0E0,0E0,0E0,0E0,3.3511966E-3,1.4981164E-1,1.1353493E-3,0E0,4.3627977E-2,0E0,0E0,1.7420387E-1,0E0,0E0,0E0,0E0,0E0,0E0,0E0,0E0,0E0,0E0,0E0,0E0,0E0,0E0,0E0,0E0],"parents":[2147483647,0,0,1,1,2,2,3,3,5,5,6,6,8,8,9,9,10,10,11,11,12,12,14,14,15,15,16,16,17,17,20,20,21,21,22,22,23,23,24,24,25,25,26,26,27,27,28,28,29,29,31,31,37,37,38,38,40,40,45,45,46,46,47,47,49,49,52,52],"right_children":[2,4,6,8,-1,10,12,-1,14,16,18,20,22,-1,24,26,28,30,-1,-1,32,34,36,38,40,42,44,46,48,50,-1,52,-1,-1,-1,-1,-1,54,56,-1,58,-1,-1,-1,-1,60,62,64,-1,66,-1,-1,68,-1,-1,-1,-1,-1,-1,-1,-1,-1,-1,-1,-1,-1,-1,-1,-1],"split_conditions":[1.89288E1,1.2E1,2.47629E1,2E0,7.8436667E-1,2.38E0,1.652E1,9.4984174E-2,1E0,-1.221E1,2.101E1,2.54222E1,-7.41E-1,-3.73209E-1,1.36716E1,2.20831E1,2.20487E1,2.19776E1,2.4241525E-1,8.5135445E-2,3.47015E1,2.58072E1,2.70845E1,3.86E0,1.0054E1,2.02357E1,1.79351E1,3.72E0,2.95331E8,1.129E1,1.1846562E-1,7.0266E7,8.970335E-2,2.8283931E-3,-3.8304E-3,1.0030589E-1,2.9345628E-2,1.2104E1,7.707E2,9.9324696E-2,1.296E1,-8.420029E-2,-1.9683059E-1,1.9192586E-2,-3.7617695E-2,1.86684E1,2.0105E1,2.42509E1,5.362204E-3,1.851E1,8.924715E-2,1.2200601E-1,3.78E0,-1.1531383E-1,-5.123427E-2,-2.0287892E-1,-8.1910804E-2,-5.9937637E-2,2.9781897E-2,2.5835184E-2,8.9972075E-3,-3.283249E-2,6.184194E-3,6.4411595E-2,1.9958312E-2,5.3504504E-2,7.806842E-3,1.14364155E-1,2.3708883E-1],"split_indices":[0,22,0,22,0,5,14,0,21,5,5,3,19,0,0,0,0,0,0,0,2,0,0,8,2,0,2,12,6,5,0,7,0,0,0,0,0,0,11,0,5,0,0,0,0,3,3,2,0,14,0,0,12,0,0,0,0,0,0,0,0,0,0,0,0,0,0,0,0],"split_type":[0,0,0,0,0,0,0,0,0,0,0,0,0,0,0,0,0,0,0,0,0,0,0,0,0,0,0,0,0,0,0,0,0,0,0,0,0,0,0,0,0,0,0,0,0,0,0,0,0,0,0,0,0,0,0,0,0,0,0,0,0,0,0,0,0,0,0,0,0],"sum_hessian":[1.89E2,1.02E2,8.7E1,1.01E2,1E0,5.5E1,3.2E1,4E0,9.7E1,3.2E1,2.3E1,2.6E1,6E0,5E0,9.2E1,8E0,2.4E1,2.1E1,2E0,5E0,2.1E1,2E0,4E0,4.9E1,4.3E1,5E0,3E0,1.5E1,9E0,1.2E1,9E0,1.8E1,3E0,1E0,1E0,3E0,1E0,3.2E1,1.7E1,1E0,4.2E1,3E0,2E0,1E0,2E0,4E0,1.1E1,8E0,1E0,8E0,4E0,5E0,1.3E1,2.1E1,1.1E1,1.2E1,5E0,3.7E1,5E0,2E0,2E0,7E0,4E0,7E0,1E0,7E0,1E0,3E0,1E1],"tree_param":{"num_deleted":"0","num_feature":"23","num_nodes":"69","size_leaf_vector":"1"}},{"base_weights":[-5.965764E-2,-3.8498443E-1,3.2124373E-1,-9.9907625E-1,-3.0452743E-1,1.4757583E-1,8.004053E-1,-1.0959879E0,-6.765172E-2,-1.1376921E-1,-6.6557723E-1,5.4110587E-2,6.364356E-1,2.1553525E-1,1.063821E0,-2.0407043E-1,-5.0020605E-1,9.4075896E-2,-3.4058127E-1,-4.7378355E-1,-1.8575492E0,-1.2245134E-1,1.4831457E-1,2.1654013E-1,4.4073057E-1,8.042341E-2,-2.8710553E-2,2.302925E-2,1.8960106E-1,-1.6781976E-2,-1.1339536E-1,-2.9037428E-1,3.5195467E-1,-6.028195E-1,-1.6499968E-1,-6.5330774E-1,-2.9137316E-1,-9.669115E-2,-3.6124998E-1,-3.4870688E-2,-3.691739E-1,3.3480778E-1,6.181456E-2,4.7516143E-1,1.5522399E-2,-3.7206903E-2,2.8894998E-2,-5.010112E-1,-1.0199018E-1,7.623846E-1,5.4887176E-2,-3.9106703E-1,-1.5235268E-1,5.7801872E-2,-2.4734472E-1,-6.8575853E-1,-2.4516903E-2,-3.0525908E-1,-8.983528E-3,-2.8025466E-1,1.5826926E-1,-7.975821E-2,2.38009E-3,3.803241E-1,-1.0287952E-2,-3.20854E-2,1.8560447E-1,3.4215912E-2,9.1039844E-2,-3.814363E-2,-1.2223529E-1,-3.2047197E-2,1.8277282E-2,2.0835899E-1,9.138207E-2,-1.859424E-2,5.2800074E-2,-9.38512E-2,-3.243577E-2,-8.26418E-2,-2.6783869E-2,-3.641613E-2,-1.20307796E-1,-3.5595376E-2,-5.9918478E-2,-9.794367E-3,-7.4431814E-2,-2.4114322E-2,3.583688E-2,6.770628E-2,1.8132295E-2,-1.8109381E-2,3.4814525E-2,4.3035068E-2,-1.4222924E-2],"categories":[],"categories_nodes":[],"categories_segments":[],"categories_sizes":[],"default_left":[0,0,0,0,0,0,0,0,0,0,0,0,0,0,0,0,0,0,0,0,0,0,0,0,0,0,0,0,0,0,0,0,0,0,0,0,0,0,0,0,0,0,0,0,0,0,0,0,0,0,0,0,0,0,0,0,0,0,0,0,0,0,0,0,0,0,0,0,0,0,0,0,0,0,0,0,0,0,0,0,0,0,0,0,0,0,0,0,0,0,0,0,0,0,0],"id":15,"left_children":[1,3,5,7,9,11,13,15,-1,17,19,21,23,25,27,-1,29,31,33,35,37,39,41,-1,43,-1,45,-1,-1,-1,-1,47,49,51,53,55,57,-1,-1,59,61,63,65,67,-1,-1,-1,69,71,73,75,77,-1,-1,79,81,-1,83,-1,85,87,-1,-1,89,-1,91,93,-1,-1,-1,-1,-1,-1,-1,-1,-1,-1,-1,-1,-1,-1,-1,-1,-1,-1,-1,-1,-1,-1,-1,-1,-1,-1,-1,-1],"loss_changes":[2.2266909E1,4.5262947E0,6.7932224E0,2.5634766E-1,5.916588E0,2.7960694E0,3.1705046E0,7.7697754E-2,0E0,2.754322E0,6.076275E0,8.94379E-1,7.6403165E-1,5.1132E-1,6.7606163E-1,0E0,1.3804835E-1,3.1447062E0,1.1972799E0,7.171693E-1,3.5049534E-1,3.9596984E-1,5.442515E-1,0E0,6.878054E-2,0E0,2.1737458E-1,0E0,0E0,0E0,0E0,4.6595395E-1,2.2616858E0,3.872242E-1,8.168707E-1,1.2684917E-1,3.5037518E-2,0E0,0E0,7.4127126E-1,1.9732922E-1,2.1525216E-1,2.9399106E-1,4.3354988E-2,0E0,0E0,0E0,2.190001E-1,1.621225E-1,2.520442E-1,5.3286237E-1,1.6597652E-1,0E0,0E0,2.7407825E-1,1.6497135E-2,0E0,9.543896E-4,0E0,2.2196609E-1,1.6917169E-1,0E0,0E0,1.8186927E-2,0E0,2.842398E-1,2.2068536E-1,0E0,0E0,0E0,0E0,0E0,0E0,0E0,0E0,0E0,0E0,0E0,0E0,0E0,0E0,0E0,0E0,0E0,0E0,0E0,0E0,0E0,0E0,0E0,0E0,0E0,0E0,0E0,0E0],"parents":[2147483647,0,0,1,1,2,2,3,3,4,4,5,5,6,6,7,7,9,9,10,10,11,11,12,12,13,13,14,14,16,16,17,17,18,18,19,19,20,20,21,21,22,22,24,24,26,26,31,31,32,32,33,33,34,34,35,35,36,36,39,39,40,40,41,41,42,42,43,43,47,47,48,48,49,49,50,50,51,51,54,54,55,55,57,57,59,59,60,60,63,63,65,65,66,66],"right_children":[2,4,6,8,10,12,14,16,-1,18,20,22,24,26,28,-1,30,32,34,36,38,40,42,-1,44,-1,46,-1,-1,-1,-1,48,50,52,54,56,58,-1,-1,60,62,64,66,68,-1,-1,-1,70,72,74,76,78,-1,-1,80,82,-1,84,-1,86,88,-1,-1,90,-1,92,94,-1,-1,-1,-1,-1,-1,-1,-1,-1,-1,-1,-1,-1,-1,-1,-1,-1,-1,-1,-1,-1,-1,-1,-1,-1,-1,-1,-1],"split_conditions":[1.89117E1,-6.42E0,2.47025E1,4.9E-1,3.28282E8,7.18E0,-3.19E0,-7.56E0,-6.765172E-2,8E0,1.50134E1,1E1,1.95899E1,-3.09E-1,1.86123E1,-2.0407043E-1,1.2521E1,1.8846E7,4E-1,9.647E0,4.736E8,2.083E2,1.206E1,2.1654013E-1,2.474E1,8.042341E-2,2.7127E1,2.302925E-2,1.8960106E-1,-1.6781976E-2,-1.1339536E-1,-5.21E-1,2E0,1.46503E1,2.662E1,1.823352E9,1.631E1,-9.669115E-2,-3.6124998E-1,1.413E2,2.04348E1,5.23E0,1.571E1,-4.74E-1,1.5522399E-2,-3.7206903E-2,2.8894998E-2,1.75631E1,9.1E-2,-7.88E-1,3.2E0,1.23534E1,-1.5235268E-1,5.7801872E-2,-8.1E-1,5.619E8,-2.4516903E-2,1.6E1,-8.983528E-3,5.7771E7,2.5119E7,-7.975821E-2,2.38009E-3,2.5275E1,-1.0287952E-2,1.9E1,9.14E-1,3.4215912E-2,9.1039844E-2,-3.814363E-2,-1.2223529E-1,-3.2047197E-2,1.8277282E-2,2.0835899E-1,9.138207E-2,-1.859424E-2,5.2800074E-2,-9.38512E-2,-3.243577E-2,-8.26418E-2,-2.6783869E-2,-3.641613E-2,-1.20307796E-1,-3.5595376E-2,-5.9918478E-2,-9.794367E-3,-7.4431814E-2,-2.4114322E-2,3.583688E-2,6.770628E-2,1.8132295E-2,-1.8109381E-2,3.4814525E-2,4.3035068E-2,-1.4222924E-2],"split_indices":[3,5,4,18,6,5,5,5,0,22,1,20,1,17,2,0,1,6,8,1,6,15,10,0,9,0,2,0,0,0,0,19,20,1,13,6,5,0,0,15,1,5,14,17,0,0,0,1,16,17,5,2,0,0,5,6,0,20,0,6,6,0,0,2,0,20,17,0,0,0,0,0,0,0,0,0,0,0,0,0,0,0,0,0,0,0,0,0,0,0,0,0,0,0,0],"split_type":[0,0,0,0,0,0,0,0,0,0,0,0,0,0,0,0,0,0,0,0,0,0,0,0,0,0,0,0,0,0,0,0,0,0,0,0,0,0,0,0,0,0,0,0,0,0,0,0,0,0,0,0,0,0,0,0,0,0,0,0,0,0,0,0,0,0,0,0,0,0,0,0,0,0,0,0,0,0,0,0,0,0,0,0,0,0,0,0,0,0,0,0,0,0,0],"sum_hessian":[1.78E2,9.6E1,8.2E1,1E1,8.6E1,6.1E1,2.1E1,8E0,2E0,5.7E1,2.9E1,5.2E1,9E0,7E0,1.4E1,6E0,2E0,3E1,2.7E1,2.6E1,3E0,1.8E1,3.4E1,1E0,8E0,3E0,4E0,1E0,1.3E1,1E0,1E0,1.2E1,1.8E1,1E1,1.7E1,1.2E1,1.4E1,1E0,2E0,1.4E1,4E0,1E1,2.4E1,7E0,1E0,2E0,2E0,5E0,7E0,7E0,1.1E1,7E0,3E0,2E0,1.5E1,1.1E1,1E0,1.3E1,1E0,6E0,8E0,3E0,1E0,9E0,1E0,1.4E1,1E1,2E0,5E0,3E0,2E0,5E0,2E0,1E0,6E0,7E0,4E0,3E0,4E0,3E0,1.2E1,1E0,1E1,6E0,7E0,3E0,3E0,1E0,7E0,8E0,1E0,1.1E1,3E0,8E0,2E0],"tree_param":{"num_deleted":"0","num_feature":"23","num_nodes":"95","size_leaf_vector":"1"}},{"base_weights":[4.6701115E-2,-3.85742E-1,3.921358E-1,-8.287368E-1,-3.0476087E-1,2.7467993E-1,3.2630095E0,-1.0188794E0,-3.759759E-1,-5.777019E-1,-1.8297754E-1,2.2405511E-1,2.2908895E-1,6.753215E-1,1.0710429E-1,-1.8187542E-1,-5.6934495E-2,-1.2563147E-2,-7.3952585E-2,-6.0226977E-1,-8.161611E-3,-2.5671318E-1,9.530136E-2,7.467342E-2,5.5805653E-1,-4.6225835E-2,-6.260688E-1,-2.7397636E-1,4.277215E-2,2.6830605E-1,-1.6555382E-1,-5.280977E-2,1.8573542E-1,3.1940153E-1,6.829597E-1,-3.3084393E-2,-1.0840047E-1,-3.6984704E-2,-2.940305E-1,1.8757021E-2,-7.5349635E-3,3.0564712E-3,5.2083995E-2,-3.5740692E-2,9.662519E-4,-3.2182282E-1,3.754166E-2,-7.373513E-2,2.4189997E-1,4.9964994E-1,6.1927773E-2,3.075205E-1,7.6652056E-1,-9.9335695E-3,2.2150087E-3,-3.697408E-2,-6.379684E-2,-3.6003394E-3,-7.1181685E-2,3.3380844E-2,-1.1942281E-2,-5.0688718E-2,1.2142739E-2,6.0225822E-2,2.6062902E-2,2.1320673E-2,9.207983E-2,-2.0920707E-2,2.0621764E-2,5.9842307E-2,1.1605114E-2,1.7719364E-1,9.804784E-2],"categories":[],"categories_nodes":[],"categories_segments":[],"categories_sizes":[],"default_left":[0,0,0,0,0,0,0,0,0,0,0,0,0,0,0,0,0,0,0,0,0,0,0,0,0,0,0,0,0,0,0,0,0,0,0,0,0,0,0,0,0,0,0,0,0,0,0,0,0,0,0,0,0,0,0,0,0,0,0,0,0,0,0,0,0,0,0,0,0,0,0,0,0],"id":16,"left_children":[1,3,5,7,9,11,13,15,17,19,21,-1,23,-1,-1,-1,-1,-1,-1,25,-1,27,29,31,33,-1,35,37,39,41,43,45,47,49,51,-1,-1,53,55,-1,-1,-1,-1,-1,-1,57,59,61,63,65,67,69,71,-1,-1,-1,-1,-1,-1,-1,-1,-1,-1,-1,-1,-1,-1,-1,-1,-1,-1,-1,-1],"loss_changes":[2.6844248E1,2.6496305E0,3.2906487E1,6.9435406E-1,2.1982708E0,4.384954E0,5.280533E0,7.686615E-4,6.232387E-2,2.4590349E-1,1.0231351E0,0E0,4.731332E0,0E0,0E0,0E0,0E0,0E0,0E0,9.394646E-3,0E0,2.109673E-1,5.271744E-1,9.2655236E-1,7.041464E-1,0E0,1.2973785E-2,1.6561222E-1,2.1230936E-2,6.354025E-2,3.9415553E-2,7.6022756E-1,5.23067E-1,5.2307904E-1,3.9076614E-1,0E0,0E0,4.8989267E-3,1.4222622E-1,0E0,0E0,0E0,0E0,0E0,0E0,2.2674894E-1,4.2508617E-1,2.4410768E-1,2.4267232E-1,5.7352066E-2,7.812296E-2,3.3108085E-2,2.6353836E-1,0E0,0E0,0E0,0E0,0E0,0E0,0E0,0E0,0E0,0E0,0E0,0E0,0E0,0E0,0E0,0E0,0E0,0E0,0E0,0E0],"parents":[2147483647,0,0,1,1,2,2,3,3,4,4,5,5,6,6,7,7,8,8,9,9,10,10,12,12,19,19,21,21,22,22,23,23,24,24,26,26,27,27,28,28,29,29,30,30,31,31,32,32,33,33,34,34,37,37,38,38,45,45,46,46,47,47,48,48,49,49,50,50,51,51,52,52],"right_children":[2,4,6,8,10,12,14,16,18,20,22,-1,24,-1,-1,-1,-1,-1,-1,26,-1,28,30,32,34,-1,36,38,40,42,44,46,48,50,52,-1,-1,54,56,-1,-1,-1,-1,-1,-1,58,60,62,64,66,68,70,72,-1,-1,-1,-1,-1,-1,-1,-1,-1,-1,-1,-1,-1,-1,-1,-1,-1,-1,-1,-1],"split_conditions":[1.82579E1,-3.92E0,3.95502E8,-1.44E-1,1.11636E1,-1.359E0,3.31877E1,-6.42E0,1.06104E1,3.321E1,1.296E1,2.2405511E-1,6.14E2,6.753215E-1,1.0710429E-1,-1.8187542E-1,-5.6934495E-2,-1.2563147E-2,-7.3952585E-2,2.21E1,-8.161611E-3,8.4E-1,4.6E-1,2.05766E1,5.7771E7,-4.6225835E-2,8.2072E0,4E0,1.71805E1,1.6065E7,1.67241E1,-5E0,-5.17E-1,1.98463E1,-3.19E0,-3.3084393E-2,-1.0840047E-1,1.64006E1,-8.9E-2,1.8757021E-2,-7.5349635E-3,3.0564712E-3,5.2083995E-2,-3.5740692E-2,9.662519E-4,1.67241E1,1.88817E1,-1.851E1,1.4E1,-5.05E-1,1.93431E1,3.31877E1,-1.73E0,-9.9335695E-3,2.2150087E-3,-3.697408E-2,-6.379684E-2,-3.6003394E-3,-7.1181685E-2,3.3380844E-2,-1.1942281E-2,-5.0688718E-2,1.2142739E-2,6.0225822E-2,2.6062902E-2,2.1320673E-2,9.207983E-2,-2.0920707E-2,2.0621764E-2,5.9842307E-2,1.1605114E-2,1.7719364E-1,9.804784E-2],"split_indices":[0,5,6,16,0,19,0,5,2,13,5,0,11,0,0,0,0,0,0,13,0,16,8,0,6,0,1,20,0,6,0,5,16,2,5,0,0,0,17,0,0,0,0,0,0,1,1,5,20,17,0,1,8,0,0,0,0,0,0,0,0,0,0,0,0,0,0,0,0,0,0,0,0],"split_type":[0,0,0,0,0,0,0,0,0,0,0,0,0,0,0,0,0,0,0,0,0,0,0,0,0,0,0,0,0,0,0,0,0,0,0,0,0,0,0,0,0,0,0,0,0,0,0,0,0,0,0,0,0,0,0,0,0,0,0,0,0,0,0,0,0,0,0,0,0,0,0,0,0],"sum_hessian":[1.78E2,7.9E1,9.9E1,1.1E1,6.8E1,9.6E1,3E0,7E0,4E0,2E1,4.8E1,3E0,9.3E1,2E0,1E0,6E0,1E0,1E0,3E0,1.9E1,1E0,3.8E1,1E1,6.4E1,2.9E1,2E0,1.7E1,3.6E1,2E0,6E0,4E0,3E1,3.4E1,1.1E1,1.8E1,1E0,1.6E1,3E0,3.3E1,1E0,1E0,1E0,5E0,3E0,1E0,7E0,2.3E1,6E0,2.8E1,6E0,5E0,4E0,1.4E1,2E0,1E0,1.9E1,1.4E1,2E0,5E0,9E0,1.4E1,2E0,4E0,1.1E1,1.7E1,1E0,5E0,1E0,4E0,3E0,1E0,4E0,1E1],"tree_param":{"num_deleted":"0","num_feature":"23","num_nodes":"73","size_leaf_vector":"1"}},{"base_weights":[-6.936099E-4,-3.319545E-1,2.8166738E-1,-6.901367E-1,-1.9649373E-1,3.5801655E-1,-3.8721272E-1,-1.7699122E-1,-5.602408E-1,-4.5472935E-1,-8.503085E-2,2.733019E-1,2.9550643E0,-1.4292991E-1,-3.0963224E-1,-4.7899678E-1,-4.116937E-3,-1.4785944E-1,4.18305E-2,2.1325889E-1,2.676163E-1,6.59665E-1,1.0979307E-1,-1.1880764E-1,-4.063017E-1,-5.040523E-1,-7.414904E-3,-5.5877822E-3,-1.8497641E-1,1.7342302E-1,-9.415766E-2,-9.760799E-1,2.506011E-1,-2.5915928E-2,1.226177E-3,-7.7163674E-2,-1.0080553E-2,-8.923941E-2,-1.3120776E-2,-6.443726E-2,3.0883016E-2,-5.857151E-2,-2.4968958E-1,2.4191843E-2,4.4154514E-2,-1.8288521E-1,3.8118795E-2,-2.0269789E-1,-5.1403914E-2,1.5871687E-1,6.809116E-1,-3.164528E-4,-1.6270593E-2,-1.7991383E-2,1.2470077E-2,-4.7508147E-2,1.7040942E-2,5.092237E-4,5.137774E-3,-9.785988E-3,-3.418795E-2,1.8380965E-3,1.0497009E-2,1.9348542E-1,2.2144826E-2,1.2895851E-1,1.786785E-2],"categories":[],"categories_nodes":[],"categories_segments":[],"categories_sizes":[],"default_left":[0,0,0,0,0,0,0,0,0,0,0,0,0,0,0,0,0,0,0,0,0,0,0,0,0,0,0,0,0,0,0,0,0,0,0,0,0,0,0,0,0,0,0,0,0,0,0,0,0,0,0,0,0,0,0,0,0,0,0,0,0,0,0,0,0,0,0],"id":17,"left_children":[1,3,5,7,9,11,-1,-1,13,15,17,19,21,-1,23,25,-1,27,29,31,-1,-1,-1,33,35,37,-1,39,41,43,45,47,49,-1,-1,-1,-1,-1,-1,51,-1,53,55,57,-1,59,61,-1,-1,63,65,-1,-1,-1,-1,-1,-1,-1,-1,-1,-1,-1,-1,-1,-1,-1,-1],"loss_changes":[1.643346E1,3.8070545E0,1.933155E1,5.1656914E-1,1.6893811E0,1.9740461E1,0E0,0E0,1.0557971E0,1.7604136E-1,3.4683922E-1,6.863194E0,4.0810394E0,0E0,1.5874732E-1,1.6442752E-1,0E0,1.5127987E-1,2.795682E-1,4.1078386E0,0E0,0E0,0E0,2.222158E-2,9.628677E-2,1.2842989E-1,0E0,8.5773446E-2,1.7422533E-1,9.7386435E-2,9.812159E-2,1.176281E-1,3.3020234E0,0E0,0E0,0E0,0E0,0E0,0E0,1.1419054E-2,0E0,6.2824376E-2,1.8838757E-1,3.987567E-4,0E0,1.6488135E-3,1.8776716E-3,0E0,0E0,1.8299518E0,6.353154E-1,0E0,0E0,0E0,0E0,0E0,0E0,0E0,0E0,0E0,0E0,0E0,0E0,0E0,0E0,0E0,0E0],"parents":[2147483647,0,0,1,1,2,2,3,3,4,4,5,5,8,8,9,9,10,10,11,11,12,12,14,14,15,15,17,17,18,18,19,19,23,23,24,24,25,25,27,27,28,28,29,29,30,30,31,31,32,32,39,39,41,41,42,42,43,43,45,45,46,46,49,49,50,50],"right_children":[2,4,6,8,10,12,-1,-1,14,16,18,20,22,-1,24,26,-1,28,30,32,-1,-1,-1,34,36,38,-1,40,42,44,46,48,50,-1,-1,-1,-1,-1,-1,52,-1,54,56,58,-1,60,62,-1,-1,64,66,-1,-1,-1,-1,-1,-1,-1,-1,-1,-1,-1,-1,-1,-1,-1,-1],"split_conditions":[1.86123E1,-1.72E0,4.51239E8,-1.937E1,1.15874E1,3.95502E8,-3.8721272E-1,-1.7699122E-1,1.17603E1,2.692E1,8.16E0,1.859E1,1.88817E1,-1.4292991E-1,1.2521E1,3.223E1,-4.116937E-3,1.8846E7,-1.5E-1,-2.362E1,2.676163E-1,6.59665E-1,1.0979307E-1,1.30628E1,1.50134E1,1.1011E3,-7.414904E-3,1.77849E1,1.38106E1,-4.95E-1,3.69E0,2.10038E1,3.09394E1,-2.5915928E-2,1.226177E-3,-7.7163674E-2,-1.0080553E-2,-8.923941E-2,-1.3120776E-2,1.45006E1,3.0883016E-2,2.238818E9,4.84E0,1.26863E1,4.4154514E-2,1.30516E1,1.711E1,-2.0269789E-1,-5.1403914E-2,-1.908E0,3.3383E1,-3.164528E-4,-1.6270593E-2,-1.7991383E-2,1.2470077E-2,-4.7508147E-2,1.7040942E-2,5.092237E-4,5.137774E-3,-9.785988E-3,-3.418795E-2,1.8380965E-3,1.0497009E-2,1.9348542E-1,2.2144826E-2,1.2895851E-1,1.786785E-2],"split_indices":[0,5,6,5,0,6,0,0,0,5,5,5,0,0,1,9,0,7,8,5,0,0,0,0,0,11,0,0,1,18,12,0,4,0,0,0,0,0,0,1,0,6,12,0,0,0,0,0,0,19,1,0,0,0,0,0,0,0,0,0,0,0,0,0,0,0,0],"split_type":[0,0,0,0,0,0,0,0,0,0,0,0,0,0,0,0,0,0,0,0,0,0,0,0,0,0,0,0,0,0,0,0,0,0,0,0,0,0,0,0,0,0,0,0,0,0,0,0,0,0,0,0,0,0,0,0,0,0,0,0,0,0,0,0,0,0,0],"sum_hessian":[1.74E2,8E1,9.4E1,2.1E1,5.9E1,9.2E1,2E0,4E0,1.7E1,1.7E1,4.2E1,9E1,2E0,7E0,1E1,1.6E1,1E0,2.8E1,1.4E1,8.7E1,3E0,1E0,1E0,4E0,6E0,1.5E1,1E0,6E0,2.2E1,7E0,7E0,2E0,8.5E1,3E0,1E0,5E0,1E0,1.4E1,1E0,5E0,1E0,8E0,1.4E1,3E0,4E0,4E0,3E0,1E0,1E0,7.1E1,1.4E1,2E0,3E0,6E0,2E0,1.3E1,1E0,1E0,2E0,1E0,3E0,2E0,1E0,1E0,7E1,1.2E1,2E0],"tree_param":{"num_deleted":"0","num_feature":"23","num_nodes":"67","size_leaf_vector":"1"}},{"base_weights":[3.235775E-2,-8.2578674E-2,1.162295E0,-2.47463E-1,1.7099589E-1,5.993118E-1,8.2220817E-1,-9.545106E-1,-2.0990919E-1,-8.8680726E-1,2.1590161E-1,3.83154E-1,1.3518765E0,-3.2216057E-2,-1.8765497E-1,-9.162529E-2,-4.003914E-1,-4.670101E-2,-1.841529E-1,1.387201E-1,5.821357E-1,4.6982545E-1,-3.5009705E-2,9.3532115E-2,2.6764077E-1,-1.481774E-1,5.8752847E-1,-1.8591397E-1,-3.334472E-1,1.05477E-1,1.7333691E-1,1.1258098E-1,2.4771139E-2,6.210903E-1,-3.3392705E-2,2.7087218E-1,-1.9302942E-1,2.4052203E-1,1.7578329E-1,-5.1383555E-1,-2.4330597E-1,-1.0001973E-1,1.5543532E-1,1.1394188E-1,2.8163357E-2,2.0067727E-2,-2.884724E-2,7.852885E-2,-1.2080454E-2,-8.058896E-2,-2.4836706E-2,8.412548E-3,4.939307E-2,-5.4548398E-2,-1.1716879E-1,-1.9735983E-3,-4.638959E-2,-2.8735548E-2,2.487177E-2,3.248246E-2,-4.998386E-3],"categories":[],"categories_nodes":[],"categories_segments":[],"categories_sizes":[],"default_left":[0,0,0,0,0,0,0,0,0,0,0,0,0,0,0,0,0,0,0,0,0,0,0,0,0,0,0,0,0,0,0,0,0,0,0,0,0,0,0,0,0,0,0,0,0,0,0,0,0,0,0,0,0,0,0,0,0,0,0,0,0],"id":18,"left_children":[1,3,5,7,9,-1,11,13,15,17,19,21,23,-1,-1,25,27,-1,-1,29,31,33,-1,-1,-1,35,37,-1,39,41,-1,-1,-1,43,45,47,49,51,-1,53,55,57,59,-1,-1,-1,-1,-1,-1,-1,-1,-1,-1,-1,-1,-1,-1,-1,-1,-1,-1],"loss_changes":[2.3698776E1,6.969997E0,1.1194401E1,2.507069E0,3.2892256E0,0E0,3.2451448E0,3.9834595E-1,2.1505442E0,9.69398E-2,1.7357085E0,5.865009E-1,5.2616596E-1,0E0,0E0,2.4102414E0,1.4152122E0,0E0,0E0,1.4958367E0,3.1485415E-1,6.914667E-1,0E0,0E0,0E0,1.1126206E0,5.489477E-1,0E0,4.6011615E-1,5.557435E-1,0E0,0E0,0E0,7.025099E-2,7.6727755E-2,4.16839E-1,6.1749315E-1,2.5418848E-2,0E0,1.8179584E-1,1.772263E-1,2.0918792E-1,2.9714048E-1,0E0,0E0,0E0,0E0,0E0,0E0,0E0,0E0,0E0,0E0,0E0,0E0,0E0,0E0,0E0,0E0,0E0,0E0],"parents":[2147483647,0,0,1,1,2,2,3,3,4,4,6,6,7,7,8,8,9,9,10,10,11,11,12,12,15,15,16,16,19,19,20,20,21,21,25,25,26,26,28,28,29,29,33,33,34,34,35,35,36,36,37,37,39,39,40,40,41,41,42,42],"right_children":[2,4,6,8,10,-1,12,14,16,18,20,22,24,-1,-1,26,28,-1,-1,30,32,34,-1,-1,-1,36,38,-1,40,42,-1,-1,-1,44,46,48,50,52,-1,54,56,58,60,-1,-1,-1,-1,-1,-1,-1,-1,-1,-1,-1,-1,-1,-1,-1,-1,-1,-1],"split_conditions":[1.2E1,1.89536E1,7.7558E7,2.48E0,-2.362E1,5.993118E-1,1.3E-1,1.13681E1,1.84E1,1.74046E1,2.59084E1,2.636E1,2.432E1,-3.2216057E-2,-1.8765497E-1,1.259E1,1E0,-4.670101E-2,-1.841529E-1,3.356E1,3.13E0,9.37E-1,-3.5009705E-2,9.3532115E-2,2.6764077E-1,-1.257E0,6.9453E7,-1.8591397E-1,9.7803E0,2.105E1,1.7333691E-1,1.1258098E-1,2.4771139E-2,3.74226E1,2.65793E1,3.8E0,2E0,1.49817E1,1.7578329E-1,9.1079E0,-8.53E-1,2.04935E1,1.021E0,1.1394188E-1,2.8163357E-2,2.0067727E-2,-2.884724E-2,7.852885E-2,-1.2080454E-2,-8.058896E-2,-2.4836706E-2,8.412548E-3,4.939307E-2,-5.4548398E-2,-1.1716879E-1,-1.9735983E-3,-4.638959E-2,-2.8735548E-2,2.487177E-2,3.248246E-2,-4.998386E-3],"split_indices":[22,3,7,12,5,0,5,2,14,1,1,9,9,0,0,10,20,0,0,5,8,17,0,0,0,16,7,0,1,9,0,0,0,2,1,5,20,1,0,4,19,1,16,0,0,0,0,0,0,0,0,0,0,0,0,0,0,0,0,0,0],"split_type":[0,0,0,0,0,0,0,0,0,0,0,0,0,0,0,0,0,0,0,0,0,0,0,0,0,0,0,0,0,0,0,0,0,0,0,0,0,0,0,0,0,0,0,0,0,0,0,0,0,0,0,0,0,0,0,0,0,0,0,0,0],"sum_hessian":[1.81E2,1.65E2,1.6E1,1E2,6.5E1,1E0,1.5E1,4E0,9.6E1,2E0,6.3E1,9E0,6E0,1E0,3E0,6E1,3.6E1,1E0,1E0,5.3E1,1E1,8E0,1E0,2E0,4E0,5.6E1,4E0,2E0,3.4E1,5.2E1,1E0,8E0,2E0,6E0,2E0,5E0,5.1E1,3E0,1E0,1E1,2.4E1,1E1,4.2E1,5E0,1E0,1E0,1E0,3E0,2E0,6E0,4.5E1,1E0,2E0,6E0,4E0,3E0,2.1E1,8E0,2E0,3.5E1,7E0],"tree_param":{"num_deleted":"0","num_feature":"23","num_nodes":"61","size_leaf_vector":"1"}},{"base_weights":[-2.1880215E-2,-1.678727E-1,4.29608E-1,-3.2051152E-1,1.1163648E-1,2.7043986E0,2.804281E-1,-6.546076E-1,-2.516602E-1,-1.6730464E-1,1.4907788E-1,1.5970075E-1,5.444803E-1,1.09258816E-1,6.692695E-1,-9.658097E-1,5.285727E-1,-7.4639666E-1,-2.1070495E-1,1.18139915E-1,1.5747826E-1,3.402961E-1,-3.7507527E-2,4.1113406E-1,1.0766577E0,8.114321E-2,-1.1222818E0,6.8315856E-2,1.6813351E-1,-3.994732E-2,-1.3684955E-1,-3.9381984E-1,-1.3914219E-1,2.994103E-2,2.5458375E-1,1.4301552E-1,4.9537575E-1,-2.8855345E-1,5.7058893E-2,1.8242814E-1,1.0389553E-1,2.0593743E-1,4.8289176E-2,-1.6957719E0,-6.468906E-1,1.8447094E-3,1.5862161E-2,-1.4842531E-1,-4.4457537E-1,-2.1874897E-1,7.343019E-2,-4.4429645E-2,2.2765449E-1,3.5867614E-1,1.17944054E-1,5.313727E-2,6.7978665E-2,1.9105507E-2,9.19339E-2,6.1171115E-3,-6.116362E-2,1.1122833E-1,-3.7686743E-2,-3.973843E-3,2.292213E-1,-7.9834335E-2,-3.2256827E-1,-1.7540306E-1,-6.1234582E-2,-3.21314E-2,-1.0504306E-2,-7.906493E-2,-6.5559912E-3,-3.9394487E-2,7.3174853E-3,-9.208242E-3,4.1975893E-2,1.3573585E-3,-5.392711E-2,2.2810668E-2,5.3735115E-2,6.356087E-2,1.6882839E-2,7.911487E-4,4.9554396E-2,1.37573285E-2,1.6667068E-4,-1.3231489E-2,2.8692389E-2,4.5559302E-2,6.6421963E-3],"categories":[],"categories_nodes":[],"categories_segments":[],"categories_sizes":[],"default_left":[0,0,0,0,0,0,0,0,0,0,0,0,0,0,0,0,0,0,0,0,0,0,0,0,0,0,0,0,0,0,0,0,0,0,0,0,0,0,0,0,0,0,0,0,0,0,0,0,0,0,0,0,0,0,0,0,0,0,0,0,0,0,0,0,0,0,0,0,0,0,0,0,0,0,0,0,0,0,0,0,0,0,0,0,0,0,0,0,0,0,0],"id":19,"left_children":[1,3,5,7,9,11,13,15,17,-1,19,-1,-1,21,23,25,27,29,31,33,-1,35,37,39,41,-1,43,45,-1,-1,-1,47,49,51,53,55,57,59,61,63,-1,-1,-1,65,67,-1,-1,69,71,73,75,77,79,81,83,-1,85,-1,-1,-1,-1,87,-1,-1,89,-1,-1,-1,-1,-1,-1,-1,-1,-1,-1,-1,-1,-1,-1,-1,-1,-1,-1,-1,-1,-1,-1,-1,-1,-1,-1],"loss_changes":[1.2903878E1,6.338184E0,1.5592213E1,2.064497E0,2.3047585E0,1.4816284E-2,2.9888287E0,6.267214E0,1.5041342E0,0E0,1.1620438E0,0E0,0E0,1.1248493E0,1.0801048E0,3.3637733E0,7.677702E-1,2.6888609E-2,9.47042E-1,6.051838E-1,0E0,3.3247983E-1,5.090491E-1,3.6349905E-1,2.496357E-1,0E0,2.2991314E0,3.2162126E-3,0E0,0E0,0E0,2.0325518E-1,9.5877063E-1,4.7699922E-1,2.4603856E-1,6.968179E-2,7.517314E-2,1.5099591E-1,2.6138413E-1,6.109394E-2,0E0,0E0,0E0,5.0127697E-1,5.5368614E-1,0E0,0E0,7.224001E-3,1.446352E-1,1.6350818E-1,3.665589E-1,3.462693E-1,3.733921E-2,1.7110467E-2,1.9418232E-1,0E0,5.129369E-3,0E0,0E0,0E0,0E0,1.6521682E-1,0E0,0E0,2.7998954E-2,0E0,0E0,0E0,0E0,0E0,0E0,0E0,0E0,0E0,0E0,0E0,0E0,0E0,0E0,0E0,0E0,0E0,0E0,0E0,0E0,0E0,0E0,0E0,0E0,0E0,0E0],"parents":[2147483647,0,0,1,1,2,2,3,3,4,4,5,5,6,6,7,7,8,8,10,10,13,13,14,14,15,15,16,16,17,17,18,18,19,19,21,21,22,22,23,23,24,24,26,26,27,27,31,31,32,32,33,33,34,34,35,35,36,36,37,37,38,38,39,39,43,43,44,44,47,47,48,48,49,49,50,50,51,51,52,52,53,53,54,54,56,56,61,61,64,64],"right_children":[2,4,6,8,10,12,14,16,18,-1,20,-1,-1,22,24,26,28,30,32,34,-1,36,38,40,42,-1,44,46,-1,-1,-1,48,50,52,54,56,58,60,62,64,-1,-1,-1,66,68,-1,-1,70,72,74,76,78,80,82,84,-1,86,-1,-1,-1,-1,88,-1,-1,90,-1,-1,-1,-1,-1,-1,-1,-1,-1,-1,-1,-1,-1,-1,-1,-1,-1,-1,-1,-1,-1,-1,-1,-1,-1,-1],"split_conditions":[1E1,1.88817E1,1E0,2E0,-2.664E1,2.342E1,3.12675E1,-2.21E-1,-1.135E1,-1.6730464E-1,1.859E1,1.5970075E-1,5.444803E-1,2.8844E8,2.06E0,-2.223E0,2.169E1,1.11306E1,1.15111E1,1.11E0,1.5747826E-1,-2.4E-2,-1.362E1,4.35E-1,3.38099E1,8.114321E-2,5E0,1.43476E1,1.6813351E-1,-3.994732E-2,-1.3684955E-1,-9.73E-1,1.055E1,2.34892E1,3.77E-1,2.259E1,-3.76E0,1.79351E1,2.70845E1,2.7127E1,1.0389553E-1,2.0593743E-1,4.8289176E-2,8.2072E0,-1.086E0,1.8447094E-3,1.5862161E-2,9.647E0,3.223E1,4.85E0,1.62875E1,2.17764E1,2.25E1,1.69014E8,2.12641E1,5.313727E-2,3.07357E1,1.9105507E-2,9.19339E-2,6.1171115E-3,-6.116362E-2,2.405E1,-3.7686743E-2,-3.973843E-3,3.30513E1,-7.9834335E-2,-3.2256827E-1,-1.7540306E-1,-6.1234582E-2,-3.21314E-2,-1.0504306E-2,-7.906493E-2,-6.5559912E-3,-3.9394487E-2,7.3174853E-3,-9.208242E-3,4.1975893E-2,1.3573585E-3,-5.392711E-2,2.2810668E-2,5.3735115E-2,6.356087E-2,1.6882839E-2,7.911487E-4,4.9554396E-2,1.37573285E-2,1.6667068E-4,-1.3231489E-2,2.8692389E-2,4.5559302E-2,6.6421963E-3],"split_indices":[22,0,20,20,5,9,3,18,5,0,5,0,0,7,5,16,9,3,4,5,0,19,5,18,2,0,22,0,0,0,0,18,5,0,16,9,5,2,0,1,0,0,0,0,18,0,0,0,9,12,0,3,9,7,0,0,0,0,0,0,0,9,0,0,1,0,0,0,0,0,0,0,0,0,0,0,0,0,0,0,0,0,0,0,0,0,0,0,0,0,0],"split_type":[0,0,0,0,0,0,0,0,0,0,0,0,0,0,0,0,0,0,0,0,0,0,0,0,0,0,0,0,0,0,0,0,0,0,0,0,0,0,0,0,0,0,0,0,0,0,0,0,0,0,0,0,0,0,0,0,0,0,0,0,0,0,0,0,0,0,0,0,0,0,0,0,0,0,0,0,0,0,0,0,0,0,0,0,0,0,0,0,0,0,0],"sum_hessian":[1.94E2,1.47E2,4.7E1,9.5E1,5.2E1,2E0,4.5E1,1.5E1,8E1,1E0,5.1E1,1E0,1E0,3.2E1,1.3E1,1.2E1,3E0,5E0,7.5E1,5E1,1E0,1.2E1,2E1,9E0,4E0,1E0,1.1E1,2E0,1E0,1E0,4E0,2E1,5.5E1,3.1E1,1.9E1,6E0,6E0,5E0,1.5E1,5E0,4E0,3E0,1E0,4E0,7E0,1E0,1E0,4E0,1.6E1,4E1,1.5E1,2.3E1,8E0,1E1,9E0,1E0,5E0,1E0,5E0,1E0,4E0,1.3E1,2E0,1E0,4E0,1E0,3E0,2E0,5E0,2E0,2E0,1.5E1,1E0,3.8E1,2E0,9E0,6E0,2E1,3E0,5E0,3E0,9E0,1E0,6E0,3E0,4E0,1E0,3E0,1E1,3E0,1E0],"tree_param":{"num_deleted":"0","num_feature":"23","num_nodes":"91","size_leaf_vector":"1"}},{"base_weights":[-1.0575862E-2,-6.6290446E-2,7.096421E-1,-1.5092501E-1,2.4199235E-1,4.9466527E-1,3.439356E-1,-5.4281896E-1,-6.2379498E-2,5.888567E-2,3.680062E-1,7.166241E-1,2.9028805E-2,-1.433964E-1,-4.1404235E-1,-1.6925655E-1,6.3324735E-2,-3.481008E-2,1.0638765E-1,2.597607E-1,5.887322E-1,1.7891687E-1,7.783832E-2,-4.046979E-2,1.5575457E-1,-4.9147502E-1,-8.836171E-2,-1.2025317E-1,-3.0811945E-1,-1.5367272E-1,1.1572827E-1,2.7896114E-2,1.9452359E-1,3.3806115E-1,6.33414E-2,1.454744E-2,6.6207963E-1,3.7413392E-2,2.0302888E-2,-1.0323832E-1,-6.1813008E-2,1.7839793E-2,-4.5540724E-2,-1.6541266E-1,6.816757E-4,-3.6103907E-1,-1.0699342E-2,-1.2311341E-1,1.6200684E-1,-2.7709657E-2,6.059734E-2,3.6548007E-2,6.0345707E-3,3.4808382E-2,4.0885738E-1,-2.1470422E-2,1.5943663E-1,1.318829E-1,5.1448155E-2,8.981085E-3,-3.6103495E-3,6.0600424E-3,-2.9807359E-3,-1.9455168E-2,-4.780265E-2,-8.961966E-3,2.5726575E-2,-2.5779868E-2,-8.0623694E-2,5.5734817E-2,-5.5349E-3,1.5684682E-3,-7.39695E-3,3.0439068E-3,1.1157006E-2,2.1880137E-2,7.394279E-2,-7.6753E-3,4.1931956E-3,3.320044E-2,8.235601E-3],"categories":[],"categories_nodes":[],"categories_segments":[],"categories_sizes":[],"default_left":[0,0,0,0,0,0,0,0,0,0,0,0,0,0,0,0,0,0,0,0,0,0,0,0,0,0,0,0,0,0,0,0,0,0,0,0,0,0,0,0,0,0,0,0,0,0,0,0,0,0,0,0,0,0,0,0,0,0,0,0,0,0,0,0,0,0,0,0,0,0,0,0,0,0,0,0,0,0,0,0,0],"id":20,"left_children":[1,3,5,7,9,-1,11,13,15,17,19,21,23,-1,25,27,29,-1,31,33,35,-1,-1,-1,37,39,41,43,45,-1,47,49,51,53,55,-1,57,-1,59,-1,-1,61,-1,63,65,67,-1,-1,69,71,73,-1,-1,-1,75,77,79,-1,-1,-1,-1,-1,-1,-1,-1,-1,-1,-1,-1,-1,-1,-1,-1,-1,-1,-1,-1,-1,-1,-1,-1],"loss_changes":[7.737378E0,4.6971755E0,1.0379401E1,4.85822E0,8.7760925E-1,0E0,1.4893873E0,7.2008276E-1,1.5655516E0,2.3049027E-1,4.1565228E-1,9.787917E-2,2.9858604E-1,0E0,4.63207E-1,3.959036E-1,2.8340473E0,0E0,9.791008E-2,2.406025E-1,2.0345354E-1,0E0,0E0,0E0,4.8021972E-2,4.794097E-2,9.757848E-2,2.615518E-1,1.8552768E-1,0E0,2.1257782E0,1.753716E-2,1.69667E-2,3.884089E-2,5.067099E-2,0E0,4.575038E-2,0E0,4.889137E-3,0E0,0E0,3.0139275E-3,0E0,1.7788726E-1,1.1973592E-1,2.49012E-1,0E0,0E0,1.6398408E0,2.663584E-3,2.7264655E-4,0E0,0E0,0E0,6.7095757E-3,5.24081E-3,3.3557042E-3,0E0,0E0,0E0,0E0,0E0,0E0,0E0,0E0,0E0,0E0,0E0,0E0,0E0,0E0,0E0,0E0,0E0,0E0,0E0,0E0,0E0,0E0,0E0,0E0],"parents":[2147483647,0,0,1,1,2,2,3,3,4,4,6,6,7,7,8,8,9,9,10,10,11,11,12,12,14,14,15,15,16,16,18,18,19,19,20,20,24,24,25,25,26,26,27,27,28,28,30,30,31,31,32,32,33,33,34,34,36,36,38,38,41,41,43,43,44,44,45,45,48,48,49,49,50,50,54,54,55,55,56,56],"right_children":[2,4,6,8,10,-1,12,14,16,18,20,22,24,-1,26,28,30,-1,32,34,36,-1,-1,-1,38,40,42,44,46,-1,48,50,52,54,56,-1,58,-1,60,-1,-1,62,-1,64,66,68,-1,-1,70,72,74,-1,-1,-1,76,78,80,-1,-1,-1,-1,-1,-1,-1,-1,-1,-1,-1,-1,-1,-1,-1,-1,-1,-1,-1,-1,-1,-1,-1,-1],"split_conditions":[1.2E1,2.12641E1,1.88817E1,-5E0,-3.19E0,4.9466527E-1,1.585E1,-1.555E1,1.78793E1,-1.851E1,2.59912E1,2.7127E1,6.73E1,-1.433964E-1,1.2E1,9.1E-2,1.662E2,-3.481008E-2,2.46623E1,6E0,6.9496E7,1.7891687E-1,7.783832E-2,-4.046979E-2,2.70845E1,4E0,1.80608E1,1.46098E1,3.269E1,-1.5367272E-1,1.7616E7,2.27761E1,2.64969E1,1.533E1,1.16E0,1.454744E-2,3.25635E1,3.7413392E-2,3.25368E1,-1.0323832E-1,-6.1813008E-2,1.40878E1,-4.5540724E-2,1.38834E1,1.504E1,1.746E2,-1.0699342E-2,-1.2311341E-1,1.93709E1,2.20487E1,-1.302E1,3.6548007E-2,6.0345707E-3,3.4808382E-2,2.18943E1,2.48707E1,2.50003E1,1.318829E-1,5.1448155E-2,8.981085E-3,-3.6103495E-3,6.0600424E-3,-2.9807359E-3,-1.9455168E-2,-4.780265E-2,-8.961966E-3,2.5726575E-2,-2.5779868E-2,-8.0623694E-2,5.5734817E-2,-5.5349E-3,1.5684682E-3,-7.39695E-3,3.0439068E-3,1.1157006E-2,2.1880137E-2,7.394279E-2,-7.6753E-3,4.1931956E-3,3.320044E-2,8.235601E-3],"split_indices":[22,0,0,5,5,0,14,5,0,5,1,0,15,0,20,16,11,0,0,22,7,0,0,0,0,20,1,0,13,0,6,0,0,14,8,0,2,0,0,0,0,0,0,1,5,15,0,0,3,0,8,0,0,0,0,0,0,0,0,0,0,0,0,0,0,0,0,0,0,0,0,0,0,0,0,0,0,0,0,0,0],"split_type":[0,0,0,0,0,0,0,0,0,0,0,0,0,0,0,0,0,0,0,0,0,0,0,0,0,0,0,0,0,0,0,0,0,0,0,0,0,0,0,0,0,0,0,0,0,0,0,0,0,0,0,0,0,0,0,0,0,0,0,0,0,0,0,0,0,0,0,0,0,0,0,0,0,0,0,0,0,0,0,0,0],"sum_hessian":[1.91E2,1.78E2,1.3E1,1.4E2,3.8E1,1E0,1.2E1,2.5E1,1.15E2,1.6E1,2.2E1,5E0,7E0,6E0,1.9E1,6.2E1,5.3E1,2E0,1.4E1,1.6E1,6E0,1E0,4E0,2E0,5E0,1.5E1,4E0,4.7E1,1.5E1,2E0,5.1E1,8E0,6E0,1.1E1,5E0,1E0,5E0,3E0,2E0,6E0,9E0,3E0,1E0,3.4E1,1.3E1,1.2E1,3E0,2E0,4.9E1,3E0,5E0,5E0,1E0,5E0,6E0,3E0,2E0,3E0,2E0,1E0,1E0,2E0,1E0,2.5E1,9E0,1E1,3E0,5E0,7E0,2.6E1,2.3E1,1E0,2E0,1E0,4E0,1E0,5E0,2E0,1E0,1E0,1E0],"tree_param":{"num_deleted":"0","num_feature":"23","num_nodes":"81","size_leaf_vector":"1"}},{"base_weights":[3.303303E-2,-4.611864E-2,7.8715575E-1,4.2837735E-2,-3.9390725E-1,4.4940796E-1,5.2679205E-1,-2.2527438E-2,3.1724256E-1,-3.8000467E-1,-2.7582523E-1,1.2969616E-1,9.175581E-1,-3.2339516E-1,2.3027683E-2,1.3933769E-1,4.4999328E-1,-4.0224567E-1,-1.7050946E-1,-1.7327953E-2,5.4877944E-2,9.433403E-2,2.3345679E-1,-2.303363E-1,-1.388783E-1,-7.0013165E-2,2.0021032E-1,2.164099E-1,2.8755054E-2,1.0367E-1,2.9864234E-1,-5.715803E-1,-2.1098769E-1,-5.1099222E-2,-1.1764192E-1,2.425281E-2,-1.3282108E-1,-6.919906E-2,-2.9647312E-1,-1.3073465E-1,1.6458843E-2,3.6308327E-1,-6.9262283E-3,2.1851286E-2,5.0670948E-2,1.0367063E-2,-1.1747511E-2,1.340484E-1,6.1410602E-2,-2.197262E-2,-1.0610304E-1,-4.9860116E-2,4.1087614E-3,-1.4080112E-1,3.638826E-3,-3.5666186E-2,8.159342E-3,5.2835145E-3,-2.5240676E-2,-5.3252947E-2,-1.356271E-2,-2.7154401E-2,1.5058122E-2,-1.28201945E-2,1.0390165E-2,1.2388677E-1,2.8812652E-2,-8.349815E-2,9.868446E-3,7.4820886E-3,2.5691764E-2,-3.098799E-2,-1.0647508E-2],"categories":[],"categories_nodes":[],"categories_segments":[],"categories_sizes":[],"default_left":[0,0,0,0,0,0,0,0,0,0,0,0,0,0,0,0,0,0,0,0,0,0,0,0,0,0,0,0,0,0,0,0,0,0,0,0,0,0,0,0,0,0,0,0,0,0,0,0,0,0,0,0,0,0,0,0,0,0,0,0,0,0,0,0,0,0,0,0,0,0,0,0,0],"id":21,"left_children":[1,3,5,7,9,-1,11,13,15,-1,17,19,21,23,25,27,29,31,33,35,-1,-1,-1,37,-1,39,41,43,45,-1,47,49,51,-1,53,-1,55,57,59,61,63,65,67,-1,-1,-1,-1,69,-1,-1,-1,-1,-1,71,-1,-1,-1,-1,-1,-1,-1,-1,-1,-1,-1,-1,-1,-1,-1,-1,-1,-1,-1],"loss_changes":[1.0587374E1,4.990868E0,7.0274124E0,2.3173728E0,6.6698265E0,0E0,2.3572273E0,1.4436082E0,5.3319097E-1,0E0,3.6543322E-1,2.588912E-1,6.537862E-1,4.814086E-1,1.5260899E0,9.547393E-2,1.871407E-1,3.4565496E-1,1.0100663E-1,1.2477166E-1,0E0,0E0,0E0,1.1920738E-1,0E0,3.2141188E-1,1.0768522E0,1.6565949E-2,2.2348795E-2,0E0,5.2796543E-2,1.0103893E-1,1.6173995E-1,0E0,5.053121E-2,0E0,6.334039E-2,4.312673E-2,1.4123678E-2,2.487629E-1,1.1146863E-1,1.1655731E0,4.976565E-1,0E0,0E0,0E0,0E0,3.4803897E-4,0E0,0E0,0E0,0E0,0E0,3.2591075E-2,0E0,0E0,0E0,0E0,0E0,0E0,0E0,0E0,0E0,0E0,0E0,0E0,0E0,0E0,0E0,0E0,0E0,0E0,0E0],"parents":[2147483647,0,0,1,1,2,2,3,3,4,4,6,6,7,7,8,8,10,10,11,11,12,12,13,13,14,14,15,15,16,16,17,17,18,18,19,19,23,23,25,25,26,26,27,27,28,28,30,30,31,31,32,32,34,34,36,36,37,37,38,38,39,39,40,40,41,41,42,42,47,47,53,53],"right_children":[2,4,6,8,10,-1,12,14,16,-1,18,20,22,24,26,28,30,32,34,36,-1,-1,-1,38,-1,40,42,44,46,-1,48,50,52,-1,54,-1,56,58,60,62,64,66,68,-1,-1,-1,-1,70,-1,-1,-1,-1,-1,72,-1,-1,-1,-1,-1,-1,-1,-1,-1,-1,-1,-1,-1,-1,-1,-1,-1,-1,-1],"split_conditions":[1.2E1,3.14605E8,1.88817E1,2.34892E1,7.7558E7,4.4940796E-1,3.42E8,-7.61E0,-2.12E0,-3.8000467E-1,3.2E-1,9.22E1,2.45E1,2.26262E1,6.6115E7,-2.88E0,-4E-1,1.15874E1,8.9366E0,2.605E1,5.4877944E-2,9.433403E-2,2.3345679E-1,-1.477E0,-1.388783E-1,1.1E1,2.342E1,7.82E-1,2.5275E1,1.0367E-1,-7.6E-1,8.9366E0,2.439E1,-5.1099222E-2,1.46098E1,2.425281E-2,2.74548E1,2.088E1,2.25204E1,2.08705E1,2E0,1.4074E8,-1.687E0,2.1851286E-2,5.0670948E-2,1.0367063E-2,-1.1747511E-2,2.48707E1,6.1410602E-2,-2.197262E-2,-1.0610304E-1,-4.9860116E-2,4.1087614E-3,3.152E1,3.638826E-3,-3.5666186E-2,8.159342E-3,5.2835145E-3,-2.5240676E-2,-5.3252947E-2,-1.356271E-2,-2.7154401E-2,1.5058122E-2,-1.28201945E-2,1.0390165E-2,1.2388677E-1,2.8812652E-2,-8.349815E-2,9.868446E-3,7.4820886E-3,2.5691764E-2,-3.098799E-2,-1.0647508E-2],"split_indices":[22,6,0,0,7,0,7,5,5,0,5,15,9,1,6,8,8,0,0,9,0,0,0,17,0,20,9,16,0,0,18,1,9,0,0,0,0,9,0,4,22,6,17,0,0,0,0,1,0,0,0,0,0,9,0,0,0,0,0,0,0,0,0,0,0,0,0,0,0,0,0,0,0],"split_type":[0,0,0,0,0,0,0,0,0,0,0,0,0,0,0,0,0,0,0,0,0,0,0,0,0,0,0,0,0,0,0,0,0,0,0,0,0,0,0,0,0,0,0,0,0,0,0,0,0,0,0,0,0,0,0,0,0,0,0,0,0,0,0,0,0,0,0,0,0,0,0,0,0],"sum_hessian":[1.76E2,1.6E2,1.6E1,1.28E2,3.2E1,1E0,1.5E1,1.04E2,2.4E1,1E0,3.1E1,8E0,7E0,1.3E1,9.1E1,1.1E1,1.3E1,1.3E1,1.8E1,5E0,3E0,5E0,2E0,1.2E1,1E0,6E1,3.1E1,6E0,5E0,5E0,8E0,6E0,7E0,4E0,1.4E1,2E0,3E0,4E0,8E0,3.5E1,2.5E1,1.7E1,1.4E1,4E0,2E0,4E0,1E0,3E0,5E0,1E0,5E0,5E0,2E0,1.2E1,2E0,2E0,1E0,2E0,2E0,7E0,1E0,3.1E1,4E0,8E0,1.7E1,5E0,1.2E1,1E0,1.3E1,1E0,2E0,7E0,5E0],"tree_param":{"num_deleted":"0","num_feature":"23","num_nodes":"73","size_leaf_vector":"1"}},{"base_weights":[-3.263927E-2,-1.2858436E-1,2.0048724E-1,-2.3137864E-1,2.5840173E-2,1.6230716E-1,1.4801867E-1,-8.9864784E-1,-1.4988323E-1,1.8089898E-1,-2.9790984E-2,1.0624296E-1,4.0930814E-1,-5.321416E-1,-3.452377E-1,-4.2478794E-1,-8.627087E-2,-2.9420146E-1,6.043542E-2,2.858403E-2,1.7086945E-1,1.5149315E-1,9.5207915E-2,-1.5445632E-1,6.629726E-2,-1.2814857E-1,-3.1415236E-1,-2.52249E-1,-3.322403E-2,-3.5687035E-1,5.378163E-2,-7.261295E-2,2.1905679E-1,-1.2641412E-1,9.4081305E-2,2.134139E-1,3.2498535E-2,-2.4639232E-2,4.4111643E-2,5.5356715E-2,-6.1924547E-2,-5.7574753E-2,-3.6122707E-1,-2.868619E-1,-3.49767E-3,-7.535559E-2,8.645733E-2,-9.6526556E-2,-4.460956E-2,1.33786E-3,1.25840865E-2,8.750435E-2,-1.4807473E-1,6.0384923E-1,4.313014E-2,9.147081E-3,-2.1057422E-1,1.4453219E-1,-1.6027963E-2,1.085714E-1,2.6753142E-1,-2.1392917E-2,7.820877E-2,-1.7073922E-2,1.997052E-3,-1.7288564E-2,-6.429177E-2,-5.9284933E-2,-2.0199966E-2,-1.5816351E-2,1.6393352E-2,-5.2302717E-3,2.409118E-2,-4.2533134E-3,2.1935398E-2,-3.1019855E-2,1.1589407E-2,1.9074298E-2,1.4088877E-1,1.714875E-2,-1.3993606E-2,-1.4817319E-2,-4.569358E-2,3.988023E-2,1.3589196E-2,9.103581E-3,3.1804714E-2,1.3404434E-2,4.706297E-2,1.4337919E-2,4.1146684E-3],"categories":[],"categories_nodes":[],"categories_segments":[],"categories_sizes":[],"default_left":[0,0,0,0,0,0,0,0,0,0,0,0,0,0,0,0,0,0,0,0,0,0,0,0,0,0,0,0,0,0,0,0,0,0,0,0,0,0,0,0,0,0,0,0,0,0,0,0,0,0,0,0,0,0,0,0,0,0,0,0,0,0,0,0,0,0,0,0,0,0,0,0,0,0,0,0,0,0,0,0,0,0,0,0,0,0,0,0,0,0,0],"id":22,"left_children":[1,3,5,7,9,11,-1,13,15,-1,17,19,21,23,-1,25,27,29,31,33,35,37,-1,-1,39,-1,41,43,45,47,49,51,53,55,57,59,61,-1,-1,-1,-1,63,65,67,-1,69,71,-1,-1,-1,-1,73,75,77,79,-1,81,83,-1,85,87,-1,89,-1,-1,-1,-1,-1,-1,-1,-1,-1,-1,-1,-1,-1,-1,-1,-1,-1,-1,-1,-1,-1,-1,-1,-1,-1,-1,-1,-1],"loss_changes":[4.35758E0,2.1934159E0,1.3453479E0,4.390179E0,3.2747145E0,7.2223234E-1,0E0,2.789886E0,1.2773807E0,0E0,1.2998637E0,2.2577894E-1,3.1879568E-1,1.8467867E0,0E0,3.0871105E-1,5.371797E-1,3.18478E-1,8.756302E-1,2.318194E-1,1.4017367E-1,1.9034198E-1,0E0,0E0,5.368777E-1,0E0,1.250993E-1,1.1367643E-1,2.4676247E-1,1.0735893E-1,2.1293554E-3,2.87068E-1,1.2531748E0,1.13831915E-1,1.6272154E-1,8.200401E-2,5.8141313E-2,0E0,0E0,0E0,0E0,9.685308E-3,1.5965104E-2,1.017884E-1,0E0,1.2062323E-1,8.854936E-2,0E0,0E0,0E0,0E0,4.0306214E-2,1.3285914E-1,5.8010745E-1,1.08975574E-1,0E0,1.5271112E-2,5.900976E-2,0E0,2.538848E-2,5.6475997E-3,0E0,2.5012344E-4,0E0,0E0,0E0,0E0,0E0,0E0,0E0,0E0,0E0,0E0,0E0,0E0,0E0,0E0,0E0,0E0,0E0,0E0,0E0,0E0,0E0,0E0,0E0,0E0,0E0,0E0,0E0,0E0],"parents":[2147483647,0,0,1,1,2,2,3,3,4,4,5,5,7,7,8,8,10,10,11,11,12,12,13,13,15,15,16,16,17,17,18,18,19,19,20,20,21,21,24,24,26,26,27,27,28,28,29,29,30,30,31,31,32,32,33,33,34,34,35,35,36,36,41,41,42,42,43,43,45,45,46,46,51,51,52,52,53,53,54,54,56,56,57,57,59,59,60,60,62,62],"right_children":[2,4,6,8,10,12,-1,14,16,-1,18,20,22,24,-1,26,28,30,32,34,36,38,-1,-1,40,-1,42,44,46,48,50,52,54,56,58,60,62,-1,-1,-1,-1,64,66,68,-1,70,72,-1,-1,-1,-1,74,76,78,80,-1,82,84,-1,86,88,-1,90,-1,-1,-1,-1,-1,-1,-1,-1,-1,-1,-1,-1,-1,-1,-1,-1,-1,-1,-1,-1,-1,-1,-1,-1,-1,-1,-1,-1],"split_conditions":[2.12641E1,-9E-2,1.312E1,1E0,1E0,3.25635E1,1.4801867E-1,4.736E8,-6.08E0,1.8089898E-1,-8E-1,-2.77E-1,-4.23E0,5.6287E7,-3.452377E-1,-2.664E1,1.17424E1,8.64E0,1.83874E1,-4.44E0,4.19E0,3.40426E1,9.5207915E-2,-1.5445632E-1,2.76868E8,-1.2814857E-1,-3.54E0,8.948E2,8.06E0,-1.099E1,1.30628E1,1.9804E7,3.97E-1,4.128E2,3.82E0,-3.76E0,4.2E0,-2.4639232E-2,4.4111643E-2,5.5356715E-2,-6.1924547E-2,1.26402E1,1.8E2,1.660311E9,-3.49767E-3,1.97897E1,-7.75E-1,-9.6526556E-2,-4.460956E-2,1.33786E-3,1.25840865E-2,1.09377E1,1E1,8.9E-2,-3.1E-1,9.147081E-3,-1.588E1,-1.388E0,-1.6027963E-2,4.23E-1,2.14047E1,-2.1392917E-2,-1.69E0,-1.7073922E-2,1.997052E-3,-1.7288564E-2,-6.429177E-2,-5.9284933E-2,-2.0199966E-2,-1.5816351E-2,1.6393352E-2,-5.2302717E-3,2.409118E-2,-4.2533134E-3,2.1935398E-2,-3.1019855E-2,1.1589407E-2,1.9074298E-2,1.4088877E-1,1.714875E-2,-1.3993606E-2,-1.4817319E-2,-4.569358E-2,3.988023E-2,1.3589196E-2,9.103581E-3,3.1804714E-2,1.3404434E-2,4.706297E-2,1.4337919E-2,4.1146684E-3],"split_indices":[0,16,5,20,20,0,0,6,5,0,5,16,5,6,0,5,0,8,0,5,12,0,0,0,6,0,8,11,5,5,0,6,16,11,12,5,12,0,0,0,0,0,11,6,0,0,19,0,0,0,0,0,22,16,8,0,5,18,0,16,0,0,8,0,0,0,0,0,0,0,0,0,0,0,0,0,0,0,0,0,0,0,0,0,0,0,0,0,0,0,0],"split_type":[0,0,0,0,0,0,0,0,0,0,0,0,0,0,0,0,0,0,0,0,0,0,0,0,0,0,0,0,0,0,0,0,0,0,0,0,0,0,0,0,0,0,0,0,0,0,0,0,0,0,0,0,0,0,0,0,0,0,0,0,0,0,0,0,0,0,0,0,0,0,0,0,0,0,0,0,0,0,0,0,0,0,0,0,0,0,0,0,0,0,0],"sum_hessian":[1.93E2,1.37E2,5.6E1,8.2E1,5.5E1,5.4E1,2E0,8E0,7.4E1,2E0,5.3E1,4.5E1,9E0,7E0,1E0,1.3E1,6.1E1,1.3E1,4E1,2.1E1,2.4E1,4E0,5E0,4E0,3E0,2E0,1.1E1,1.4E1,4.7E1,1.1E1,2E0,2.2E1,1.8E1,6E0,1.5E1,1.8E1,6E0,1E0,3E0,2E0,1E0,2E0,9E0,1.2E1,2E0,3.5E1,1.2E1,2E0,9E0,1E0,1E0,7E0,1.5E1,5E0,1.3E1,2E0,4E0,1.2E1,3E0,7E0,1.1E1,1E0,5E0,1E0,1E0,1E0,8E0,8E0,4E0,3.2E1,3E0,4E0,8E0,2E0,5E0,1.3E1,2E0,2E0,3E0,9E0,4E0,2E0,2E0,4E0,8E0,5E0,2E0,1E0,1E1,4E0,1E0],"tree_param":{"num_deleted":"0","num_feature":"23","num_nodes":"91","size_leaf_vector":"1"}},{"base_weights":[3.5624877E-3,-5.0325334E-2,6.199127E-1,-5.8561695E-1,-3.1077068E-2,3.5137716E-1,2.5547004E-1,-1.0874044E-1,-2.7730059E-2,-8.502697E-2,1.2419724E-1,4.4292662E-1,3.6298834E-2,-4.1161567E-2,-2.6563847E-1,-1.3099965E-1,1.6086574E-1,-2.2384977E-2,5.6069404E-1,-3.2050803E-2,1.6290219E-1,-1.4132328E-1,-2.382842E-3,-1.2236121E-1,-1.7017192E-1,7.5236205E-3,-1.751869E-1,2.4296379E-1,7.5998254E-2,1.1472024E-1,3.9463136E-2,3.686403E-2,9.935494E-3,-1.897614E-1,-1.9030826E-2,3.7811384E-2,-1.4904036E-1,-2.8508732E-1,-4.1893702E-2,-9.081425E-3,-3.2887638E-2,9.230256E-2,3.0717924E-1,1.084499E-1,-8.261959E-2,1.1006219E-2,-3.74116E-2,-2.8552908E-2,1.3894357E-2,1.3048594E-2,-1.3639752E-2,-1.3085982E-2,-3.942998E-2,4.386885E-3,-6.0474604E-2,-1.1859661E-2,2.158976E-2,-8.471411E-3,2.7033916E-2,3.3123415E-2,8.847256E-2,2.4346633E-2,3.4291605E-3,-2.2786165E-2,-4.024713E-3],"categories":[],"categories_nodes":[],"categories_segments":[],"categories_sizes":[],"default_left":[0,0,0,0,0,0,0,0,0,0,0,0,0,0,0,0,0,0,0,0,0,0,0,0,0,0,0,0,0,0,0,0,0,0,0,0,0,0,0,0,0,0,0,0,0,0,0,0,0,0,0,0,0,0,0,0,0,0,0,0,0,0,0,0,0],"id":23,"left_children":[1,3,5,7,9,-1,11,-1,-1,13,15,17,19,21,23,25,27,-1,29,-1,31,33,35,-1,37,-1,39,41,43,-1,-1,-1,-1,45,47,49,51,53,55,-1,-1,57,59,61,63,-1,-1,-1,-1,-1,-1,-1,-1,-1,-1,-1,-1,-1,-1,-1,-1,-1,-1,-1,-1],"loss_changes":[6.1331544E0,1.7340345E0,7.448633E0,5.300522E-2,1.3898251E0,0E0,5.137481E-1,0E0,0E0,9.637278E-1,4.1880542E-1,5.272404E-1,2.220544E-1,3.8740128E-1,9.3914545E-1,5.2070506E-2,2.4777383E-1,0E0,9.1355324E-2,0E0,1.6792446E-2,1.61704E-1,4.342847E-1,0E0,2.9689205E-1,0E0,2.3913532E-3,1.5797257E-1,1.0976422E-1,0E0,0E0,0E0,0E0,1.727764E-1,1.4624165E-1,2.7571693E-1,8.011252E-2,2.541654E-1,5.9656654E-2,0E0,0E0,7.2951876E-2,2.2149372E-1,5.0355628E-2,8.955592E-3,0E0,0E0,0E0,0E0,0E0,0E0,0E0,0E0,0E0,0E0,0E0,0E0,0E0,0E0,0E0,0E0,0E0,0E0,0E0,0E0],"parents":[2147483647,0,0,1,1,2,2,3,3,4,4,6,6,9,9,10,10,11,11,12,12,13,13,14,14,15,15,16,16,18,18,20,20,21,21,22,22,24,24,26,26,27,27,28,28,33,33,34,34,35,35,36,36,37,37,38,38,41,41,42,42,43,43,44,44],"right_children":[2,4,6,8,10,-1,12,-1,-1,14,16,18,20,22,24,26,28,-1,30,-1,32,34,36,-1,38,-1,40,42,44,-1,-1,-1,-1,46,48,50,52,54,56,-1,-1,58,60,62,64,-1,-1,-1,-1,-1,-1,-1,-1,-1,-1,-1,-1,-1,-1,-1,-1,-1,-1,-1,-1],"split_conditions":[1.2E1,-1.937E1,1.14E1,5.7771E7,2.06596E1,3.5137716E-1,1.171E1,-1.0874044E-1,-2.7730059E-2,4.848E2,4E0,1.144E1,6.73E1,-1.53E0,1E0,2.09783E1,8.1739E7,-2.2384977E-2,3.26175E1,-3.2050803E-2,2.43174E1,1.265E1,3.99E0,-1.2236121E-1,9E0,7.5236205E-3,-1.588E1,-8.92E-1,2.01E0,1.1472024E-1,3.9463136E-2,3.686403E-2,9.935494E-3,2.672E6,1.49817E1,3.14605E8,5.4298E7,5.414E2,1.296E1,-9.081425E-3,-3.2887638E-2,1.1E1,2.71E0,1.72201E8,2.32157E1,1.1006219E-2,-3.74116E-2,-2.8552908E-2,1.3894357E-2,1.3048594E-2,-1.3639752E-2,-1.3085982E-2,-3.942998E-2,4.386885E-3,-6.0474604E-2,-1.1859661E-2,2.158976E-2,-8.471411E-3,2.7033916E-2,3.3123415E-2,8.847256E-2,2.4346633E-2,3.4291605E-3,-2.2786165E-2,-4.024713E-3],"split_indices":[22,5,10,7,3,0,10,0,0,15,21,10,15,5,21,3,7,0,1,0,1,10,12,0,21,0,5,17,8,0,0,0,0,7,2,7,7,15,5,0,0,21,5,7,1,0,0,0,0,0,0,0,0,0,0,0,0,0,0,0,0,0,0,0,0],"split_type":[0,0,0,0,0,0,0,0,0,0,0,0,0,0,0,0,0,0,0,0,0,0,0,0,0,0,0,0,0,0,0,0,0,0,0,0,0,0,0,0,0,0,0,0,0,0,0,0,0,0,0,0,0,0,0,0,0,0,0,0,0,0,0,0,0],"sum_hessian":[1.83E2,1.69E2,1.4E1,5E0,1.64E2,2E0,1.2E1,4E0,1E0,1.22E2,4.2E1,6E0,6E0,9.9E1,2.3E1,5E0,3.7E1,1E0,5E0,2E0,4E0,2.7E1,7.2E1,3E0,2E1,1E0,4E0,1.8E1,1.9E1,3E0,2E0,2E0,2E0,1.9E1,8E0,5.7E1,1.5E1,1E1,1E1,1E0,3E0,6E0,1.2E1,1.6E1,3E0,2E0,1.7E1,3E0,5E0,4.3E1,1.4E1,9E0,6E0,2E0,8E0,9E0,1E0,2E0,4E0,9E0,3E0,1.1E1,5E0,1E0,2E0],"tree_param":{"num_deleted":"0","num_feature":"23","num_nodes":"65","size_leaf_vector":"1"}},{"base_weights":[-1.6002491E-2,-5.782531E-2,3.6602002E-1,1.9488065E-3,-2.6254264E-1,3.8180894E-1,1.5263806E-1,-9.3579434E-2,2.2692258E-2,-1.3823848E0,-1.6998057E-1,2.048853E-1,-6.6479385E-2,-5.2341923E-2,1.0096563E-1,-4.5064066E-2,-3.1484544E-1,-5.7984095E-2,-1.336246E-1,1.07309E-2,3.113664E-1,1.1571296E-1,-7.2358295E-2,8.359688E-2,4.48017E-1,-1.9529088E-1,-5.181834E-2,-1.1103038E-1,1.3036844E-1,4.405622E-1,7.428962E-2,-3.424201E-1,-3.5293087E-2,7.027967E-2,8.170005E-2,-6.0066424E-4,1.1735436E-1,-2.6811582E-1,-1.1298301E-1,-1.277649E-1,1.1812357E-2,8.223036E-3,-3.073331E-2,8.851977E-3,3.2147475E-2,9.51898E-2,1.1634725E-1,-2.173219E-3,2.178841E-2,-1.1445824E-1,-2.1879157E-2,-2.7640913E-2,1.0737639E-2,7.7089956E-3,2.6906589E-2,-7.4007693E-3,-4.9302213E-2,3.7103663E-3,-2.5315963E-2,-3.5976227E-3,-2.834445E-2,-3.5005843E-3,9.950173E-3,3.2488536E-2,-1.6503291E-2,-3.9003766E-3,3.2508695E-3],"categories":[],"categories_nodes":[],"categories_segments":[],"categories_sizes":[],"default_left":[0,0,0,0,0,0,0,0,0,0,0,0,0,0,0,0,0,0,0,0,0,0,0,0,0,0,0,0,0,0,0,0,0,0,0,0,0,0,0,0,0,0,0,0,0,0,0,0,0,0,0,0,0,0,0,0,0,0,0,0,0,0,0,0,0,0,0],"id":24,"left_children":[1,3,5,7,9,-1,11,-1,13,15,17,19,-1,21,23,-1,-1,-1,25,27,29,-1,31,33,35,37,39,41,43,45,47,49,51,53,-1,-1,-1,55,57,59,61,-1,-1,-1,-1,63,-1,65,-1,-1,-1,-1,-1,-1,-1,-1,-1,-1,-1,-1,-1,-1,-1,-1,-1,-1,-1],"loss_changes":[3.0508559E0,2.10352E0,7.3233767E0,1.5536393E0,3.8263235E0,0E0,5.7734525E-1,0E0,7.671279E-1,1.1060328E0,1.9286215E-1,3.4515548E-1,0E0,1.027971E0,3.526724E-1,0E0,0E0,0E0,1.5186441E-1,1.12000644E-1,3.0404568E-1,0E0,6.4854205E-1,3.0021837E-1,3.198151E-1,8.098614E-2,7.3128656E-2,5.117453E-2,9.3129575E-3,5.306598E-1,2.0620817E-2,4.8485482E-1,7.5548387E-1,1.2711868E-1,0E0,0E0,0E0,3.5987854E-2,5.1911116E-2,2.598086E-2,1.4621595E-2,0E0,0E0,0E0,0E0,8.805567E-2,0E0,1.6546999E-3,0E0,0E0,0E0,0E0,0E0,0E0,0E0,0E0,0E0,0E0,0E0,0E0,0E0,0E0,0E0,0E0,0E0,0E0,0E0],"parents":[2147483647,0,0,1,1,2,2,3,3,4,4,6,6,8,8,9,9,10,10,11,11,13,13,14,14,18,18,19,19,20,20,22,22,23,23,24,24,25,25,26,26,27,27,28,28,29,29,30,30,31,31,32,32,33,33,37,37,38,38,39,39,40,40,45,45,47,47],"right_children":[2,4,6,8,10,-1,12,-1,14,16,18,20,-1,22,24,-1,-1,-1,26,28,30,-1,32,34,36,38,40,42,44,46,48,50,52,54,-1,-1,-1,56,58,60,62,-1,-1,-1,-1,64,-1,66,-1,-1,-1,-1,-1,-1,-1,-1,-1,-1,-1,-1,-1,-1,-1,-1,-1,-1,-1],"split_conditions":[1.2E1,3.14605E8,1E0,-1.937E1,1E0,3.8180894E-1,8.1E2,-9.3579434E-2,1.1E1,4.736E8,4E0,-6.83E0,-6.6479385E-2,-1.908E0,2.101E1,-4.5064066E-2,-3.1484544E-1,-5.7984095E-2,2.5E0,2.7127E1,3.15762E1,1.1571296E-1,1.662E2,1.869E1,1.28462E1,1.3E1,9.133E8,2.65793E1,3.32832E1,3.09878E8,2.432E1,1E0,2.9988E7,2.32427E1,8.170005E-2,-6.0066424E-4,1.1735436E-1,6E0,-1.115E1,-1.309E1,1.756219E9,8.223036E-3,-3.073331E-2,8.851977E-3,3.2147475E-2,2.43174E1,1.1634725E-1,3.14117E1,2.178841E-2,-1.1445824E-1,-2.1879157E-2,-2.7640913E-2,1.0737639E-2,7.7089956E-3,2.6906589E-2,-7.4007693E-3,-4.9302213E-2,3.7103663E-3,-2.5315963E-2,-3.5976227E-3,-2.834445E-2,-3.5005843E-3,9.950173E-3,3.2488536E-2,-1.6503291E-2,-3.9003766E-3,3.2508695E-3],"split_indices":[22,6,20,5,20,0,11,0,20,6,20,5,0,19,5,0,0,0,5,1,3,0,11,8,1,20,6,1,3,6,9,20,6,3,0,0,0,20,5,8,6,0,0,0,0,1,0,1,0,0,0,0,0,0,0,0,0,0,0,0,0,0,0,0,0,0,0],"split_type":[0,0,0,0,0,0,0,0,0,0,0,0,0,0,0,0,0,0,0,0,0,0,0,0,0,0,0,0,0,0,0,0,0,0,0,0,0,0,0,0,0,0,0,0,0,0,0,0,0,0,0,0,0,0,0,0,0,0,0,0,0,0,0,0,0,0,0],"sum_hessian":[1.89E2,1.71E2,1.8E1,1.33E2,3.8E1,1E0,1.7E1,4E0,1.29E2,2E0,3.6E1,1.6E1,1E0,6.6E1,6.3E1,1E0,1E0,5E0,3.1E1,6E0,1E1,1E0,6.5E1,6.1E1,2E0,1.7E1,1.4E1,3E0,3E0,6E0,4E0,7E0,5.8E1,6E1,1E0,1E0,1E0,8E0,9E0,6E0,8E0,1E0,2E0,2E0,1E0,3E0,3E0,2E0,2E0,2E0,5E0,2.5E1,3.3E1,4.8E1,1.2E1,1E0,7E0,2E0,7E0,2E0,4E0,5E0,3E0,2E0,1E0,1E0,1E0],"tree_param":{"num_deleted":"0","num_feature":"23","num_nodes":"67","size_leaf_vector":"1"}},{"base_weights":[2.505646E-2,-3.0292016E-3,4.785242E-1,-2.9926099E-2,4.0839067E-1,1.419753E-1,3.468771E-1,5.6030677E-4,-2.2080754E-1,1.5676278E-1,2.7575776E-1,2.4842227E-1,-7.849878E-2,-9.530997E-2,4.646505E-2,-4.4603023E-1,-1.365033E-1,7.6877974E-2,1.4077619E-1,6.0918294E-2,8.1318386E-2,-3.4265965E-2,2.5183927E-2,-1.4966412E-1,-1.493533E-2,-6.2841377E-3,2.1041772E-1,-8.5072495E-2,-1.51912775E-2,2.1115366E-2,-1.6961853E-1,6.874548E-3,2.9524809E-2,3.7455908E-3,1.607878E-2,1.0243454E-2,-3.6016244E-3,-1.7194615E-1,1.6360186E-2,-5.5863384E-2,3.6083963E-2,-5.654193E-2,1.2615448E-1,1.6858028E-1,1.066176E-1,-7.369207E-3,9.433228E-3,-2.2846779E-1,-4.5794245E-2,-3.936173E-2,-1.768832E-2,-1.0767938E-3,3.2478098E-2,1.792305E-2,-1.3239764E-2,2.1897838E-3,3.0831933E-2,-4.200062E-3,3.560952E-2,8.174865E-4,-2.8201041E-3,-4.4397436E-2,-1.1064799E-2,-1.561841E-2,-1.6017116E-4],"categories":[],"categories_nodes":[],"categories_segments":[],"categories_sizes":[],"default_left":[0,0,0,0,0,0,0,0,0,0,0,0,0,0,0,0,0,0,0,0,0,0,0,0,0,0,0,0,0,0,0,0,0,0,0,0,0,0,0,0,0,0,0,0,0,0,0,0,0,0,0,0,0,0,0,0,0,0,0,0,0,0,0,0,0],"id":25,"left_children":[1,3,5,7,9,11,-1,13,15,-1,17,19,21,23,25,27,29,-1,31,-1,33,-1,35,37,39,41,43,-1,-1,45,47,-1,-1,-1,-1,-1,-1,49,-1,-1,51,53,55,57,-1,59,-1,61,63,-1,-1,-1,-1,-1,-1,-1,-1,-1,-1,-1,-1,-1,-1,-1,-1],"loss_changes":[2.3685896E0,1.9558991E0,5.5002584E0,9.654137E-1,5.2982974E-1,2.4774157E-1,0E0,6.3675696E-1,3.8172722E-1,0E0,1.8359762E-1,1.0314363E-1,5.4076593E-2,2.0261532E-1,8.4751695E-1,8.1011534E-2,9.631732E-2,0E0,1.7083287E-2,0E0,1.260817E-3,0E0,5.8233794E-3,1.6711783E-1,3.3009687E-1,5.041562E-1,3.2897782E-1,0E0,0E0,4.197391E-3,9.907937E-2,0E0,0E0,0E0,0E0,0E0,0E0,8.516389E-2,0E0,0E0,1.19549625E-1,2.0179191E-1,1.3082016E-1,1.9120586E-1,0E0,4.032604E-4,0E0,4.0260673E-2,1.2075143E-2,0E0,0E0,0E0,0E0,0E0,0E0,0E0,0E0,0E0,0E0,0E0,0E0,0E0,0E0,0E0,0E0],"parents":[2147483647,0,0,1,1,2,2,3,3,4,4,5,5,7,7,8,8,10,10,11,11,12,12,13,13,14,14,15,15,16,16,18,18,20,20,22,22,23,23,24,24,25,25,26,26,29,29,30,30,37,37,40,40,41,41,42,42,43,43,45,45,47,47,48,48],"right_children":[2,4,6,8,10,12,-1,14,16,-1,18,20,22,24,26,28,30,-1,32,-1,34,-1,36,38,40,42,44,-1,-1,46,48,-1,-1,-1,-1,-1,-1,50,-1,-1,52,54,56,58,-1,60,-1,62,64,-1,-1,-1,-1,-1,-1,-1,-1,-1,-1,-1,-1,-1,-1,-1,-1],"split_conditions":[1.673E0,3.30513E1,3.04365E8,5.079E2,3.31877E1,2.5E0,3.468771E-1,-1.53E0,4E0,1.5676278E-1,3.30993E1,3.62E0,1.45006E1,