{"learner":{"attributes":{"scikit_learn":"{\"_estimator_type\": \"regressor\"}"},"feature_names":["yield_lag_1","yield_lag_2","yield_lag_3","yield_rolling_3y","yield_rolling_5y","yield_mt_ha_yoy_pct","area_ha","area_lag_1","area_ha_yoy_pct","avg_temp_max_c","avg_temp_min_c","total_precip_mm","avg_et0_mm","growing_season_temp_max_c","growing_season_temp_min_c","growing_season_precip_mm","avg_temp_max_c_anomaly","total_precip_mm_anomaly","growing_season_temp_max_c_anomaly","growing_season_precip_mm_anomaly","years_since_2000","crop_year_rank","country_encoded"],"feature_types":["float","float","float","float","float","float","float","float","float","float","float","float","float","float","float","float","float","float","float","float","int","float","int"],"gradient_booster":{"model":{"cats":{"enc":[],"feature_segments":[],"sorted_idx":[]},"gbtree_model_param":{"num_parallel_tree":"1","num_trees":"247"},"iteration_indptr":[0,1,2,3,4,5,6,7,8,9,10,11,12,13,14,15,16,17,18,19,20,21,22,23,24,25,26,27,28,29,30,31,32,33,34,35,36,37,38,39,40,41,42,43,44,45,46,47,48,49,50,51,52,53,54,55,56,57,58,59,60,61,62,63,64,65,66,67,68,69,70,71,72,73,74,75,76,77,78,79,80,81,82,83,84,85,86,87,88,89,90,91,92,93,94,95,96,97,98,99,100,101,102,103,104,105,106,107,108,109,110,111,112,113,114,115,116,117,118,119,120,121,122,123,124,125,126,127,128,129,130,131,132,133,134,135,136,137,138,139,140,141,142,143,144,145,146,147,148,149,150,151,152,153,154,155,156,157,158,159,160,161,162,163,164,165,166,167,168,169,170,171,172,173,174,175,176,177,178,179,180,181,182,183,184,185,186,187,188,189,190,191,192,193,194,195,196,197,198,199,200,201,202,203,204,205,206,207,208,209,210,211,212,213,214,215,216,217,218,219,220,221,222,223,224,225,226,227,228,229,230,231,232,233,234,235,236,237,238,239,240,241,242,243,244,245,246,247],"tree_info":[0,0,0,0,0,0,0,0,0,0,0,0,0,0,0,0,0,0,0,0,0,0,0,0,0,0,0,0,0,0,0,0,0,0,0,0,0,0,0,0,0,0,0,0,0,0,0,0,0,0,0,0,0,0,0,0,0,0,0,0,0,0,0,0,0,0,0,0,0,0,0,0,0,0,0,0,0,0,0,0,0,0,0,0,0,0,0,0,0,0,0,0,0,0,0,0,0,0,0,0,0,0,0,0,0,0,0,0,0,0,0,0,0,0,0,0,0,0,0,0,0,0,0,0,0,0,0,0,0,0,0,0,0,0,0,0,0,0,0,0,0,0,0,0,0,0,0,0,0,0,0,0,0,0,0,0,0,0,0,0,0,0,0,0,0,0,0,0,0,0,0,0,0,0,0,0,0,0,0,0,0,0,0,0,0,0,0,0,0,0,0,0,0,0,0,0,0,0,0,0,0,0,0,0,0,0,0,0,0,0,0,0,0,0,0,0,0,0,0,0,0,0,0,0,0,0,0,0,0,0,0,0,0,0,0,0,0,0,0,0,0,0,0,0,0,0,0],"trees":[{"base_weights":[-7.349717E-2,-1.6976545E0,8.4681445E-1,-1.9821473E0,9.026767E-1,-1.4266332E0,1.2641394E0,-7.934979E-1,-1.7726483E0,3.8221428E-1,2.5607018E-2,-1.8355384E0,6.676717E-5,5.104988E-1,2.8289752E0,-4.814959E-1,-2.6723614E-1,-5.602591E-1,-2.0597012E-1,2.1728083E-1,5.503849E-1,6.2159896E-1,1.0796274E0,-1.410214E-1,8.391007E-1,-4.0781328E-1,8.109535E-3,8.351181E-2,2.5278357E-1],"categories":[],"categories_nodes":[],"categories_segments":[],"categories_sizes":[],"default_left":[0,0,0,0,0,0,0,0,0,0,0,0,0,0,0,0,0,0,0,0,0,0,0,0,0,0,0,0,0],"id":0,"left_children":[1,3,5,7,9,11,13,-1,15,-1,-1,17,-1,19,21,-1,-1,-1,-1,23,-1,-1,-1,25,27,-1,-1,-1,-1],"loss_changes":[2.644577E2,4.9092545E1,1.08956604E2,7.905594E0,3.0895085E0,1.050655E1,1.1174785E2,0E0,1.6101379E0,0E0,0E0,3.153183E0,0E0,3.092874E1,7.679428E0,0E0,0E0,0E0,0E0,1.2816896E1,0E0,0E0,0E0,9.245221E0,1.2011662E0,0E0,0E0,0E0,0E0],"parents":[2147483647,0,0,1,1,2,2,3,3,4,4,5,5,6,6,8,8,11,11,13,13,14,14,19,19,23,23,24,24],"right_children":[2,4,6,8,10,12,14,-1,16,-1,-1,18,-1,20,22,-1,-1,-1,-1,24,-1,-1,-1,26,28,-1,-1,-1,-1],"split_conditions":[5.7199E0,3.491E1,-2.276E1,1.905E1,-2.21E-1,9.0405E0,8.4465E0,-7.934979E-1,5.2209E0,3.8221428E-1,2.5607018E-2,-2.768E1,6.676717E-5,1.543E1,9.5046E0,-4.814959E-1,-2.6723614E-1,-5.602591E-1,-2.0597012E-1,2.348E1,5.503849E-1,6.2159896E-1,1.0796274E0,9.21E1,-5.83E0,-4.0781328E-1,8.109535E-3,8.351181E-2,2.5278357E-1],"split_indices":[0,5,5,9,17,0,0,0,0,0,0,5,0,5,4,0,0,0,0,9,0,0,0,15,5,0,0,0,0],"split_type":[0,0,0,0,0,0,0,0,0,0,0,0,0,0,0,0,0,0,0,0,0,0,0,0,0,0,0,0,0],"sum_hessian":[1.75E2,6.3E1,1.12E2,5.7E1,6E0,1.7E1,9.5E1,7E0,5E1,3E0,3E0,1.3E1,4E0,6.5E1,3E1,4.3E1,7E0,9E0,4E0,5.6E1,9E0,2.5E1,5E0,3.6E1,2E1,3E0,3.3E1,5E0,1.5E1],"tree_param":{"num_deleted":"0","num_feature":"23","num_nodes":"29","size_leaf_vector":"1"}},{"base_weights":[8.791233E-3,-1.2039458E0,7.666618E-1,-1.433239E0,6.088257E-1,4.030029E-1,2.9003828E0,-1.6618791E0,-1.0408103E0,3.0789164E-1,5.1573534E-3,-2.3927973E-3,1.3500432E0,4.1423672E-1,9.2583376E-1,-5.648595E-1,-3.7475657E-1,-2.9762712E-1,-1.3160102E-1,-1.4222366E0,2.2525233E-1,8.861531E-1,2.1823063E0,-1.2909815E-1,-5.3201973E-1,-1.2219725E-1,9.09347E-1,3.3509418E-1,3.772064E-1,3.369322E-1,6.777351E-1,-2.6974398E-1,1.2541799E-2,3.2121304E-1,1.0278567E-1,-1.176471E-2,1.2507698E-1],"categories":[],"categories_nodes":[],"categories_segments":[],"categories_sizes":[],"default_left":[0,0,0,0,0,0,0,0,0,0,0,0,0,0,0,0,0,0,0,0,0,0,0,0,0,0,0,0,0,0,0,0,0,0,0,0,0],"id":1,"left_children":[1,3,5,7,9,11,13,15,17,-1,-1,19,21,-1,-1,-1,-1,-1,-1,23,25,27,29,-1,-1,31,33,35,-1,-1,-1,-1,-1,-1,-1,-1,-1],"loss_changes":[1.5529018E2,2.7871017E1,7.9509476E1,3.4847412E0,2.7139895E0,3.4560165E1,7.666359E0,7.1286774E-1,8.4710884E-1,0E0,0E0,2.1003557E1,8.4956665E0,0E0,0E0,0E0,0E0,0E0,0E0,4.266407E0,1.3421268E1,5.530776E0,1.0610962E-1,0E0,0E0,6.0497804E0,2.7569408E0,6.5154374E-1,0E0,0E0,0E0,0E0,0E0,0E0,0E0,0E0,0E0],"parents":[2147483647,0,0,1,1,2,2,3,3,4,4,5,5,6,6,7,7,8,8,11,11,12,12,19,19,20,20,21,21,22,22,25,25,26,26,27,27],"right_children":[2,4,6,8,10,12,14,16,18,-1,-1,20,22,-1,-1,-1,-1,-1,-1,24,26,28,30,-1,-1,32,34,36,-1,-1,-1,-1,-1,-1,-1,-1,-1],"split_conditions":[5.7199E0,3.491E1,1.461E1,4.904E0,-2.21E-1,1.43E0,9.6621E0,3.66E0,4.94E0,3.0789164E-1,5.1573534E-3,-3.088E1,1.916E1,4.1423672E-1,9.2583376E-1,-5.648595E-1,-3.7475657E-1,-2.9762712E-1,-1.3160102E-1,7.5665E0,7.8226E0,7.2888E0,1.535E2,-1.2909815E-1,-5.3201973E-1,1.124E2,2.805E1,6.4295E0,3.772064E-1,3.369322E-1,6.777351E-1,-2.6974398E-1,1.2541799E-2,3.2121304E-1,1.0278567E-1,-1.176471E-2,1.2507698E-1],"split_indices":[0,5,10,0,17,5,0,12,5,0,0,5,5,0,0,0,0,0,0,1,0,0,15,0,0,15,13,0,0,0,0,0,0,0,0,0,0],"split_type":[0,0,0,0,0,0,0,0,0,0,0,0,0,0,0,0,0,0,0,0,0,0,0,0,0,0,0,0,0,0,0,0,0,0,0,0,0],"sum_hessian":[1.67E2,6.4E1,1.03E2,5.7E1,7E0,8.9E1,1.4E1,3.4E1,2.3E1,3E0,4E0,6.3E1,2.6E1,6E0,8E0,7E0,2.7E1,1.8E1,5E0,8E0,5.5E1,1.8E1,8E0,4E0,4E0,3.7E1,1.8E1,1E1,8E0,4E0,4E0,5E0,3.2E1,1E1,8E0,3E0,7E0],"tree_param":{"num_deleted":"0","num_feature":"23","num_nodes":"37","size_leaf_vector":"1"}},{"base_weights":[-2.4462307E-2,-4.6703687E-1,1.4063063E0,-9.824051E-1,3.1447597E-2,2.1070842E-1,1.8114547E0,-1.1004469E0,2.596809E-1,-3.5029003E-1,1.9549367E-1,-1.3709201E-1,1.6984883E-1,1.308711E0,6.808064E-1,-4.5837715E-1,-9.7568285E-1,-2.9944828E-1,4.9810863E-1,-6.0404398E-2,-1.0643E-3,2.4477866E-1,4.2431653E-1,-2.8081223E-1,-5.534853E-1,-7.134651E-3,-4.3623203E-1,1.7574167E-2,7.2792315E-1,-4.4088814E-2,-1.6788861E-1,-1.1222486E-1,6.59915E-2,-3.9141975E-2,6.2441267E-2,3.6361244E-2,2.1483234E-1],"categories":[],"categories_nodes":[],"categories_segments":[],"categories_sizes":[],"default_left":[0,0,0,0,0,0,0,0,0,0,0,0,0,0,0,0,0,0,0,0,0,0,0,0,0,0,0,0,0,0,0,0,0,0,0,0,0],"id":2,"left_children":[1,3,5,7,9,11,13,15,-1,-1,17,19,-1,21,-1,-1,23,25,27,-1,-1,-1,-1,-1,29,31,-1,33,35,-1,-1,-1,-1,-1,-1,-1,-1],"loss_changes":[1.0447089E2,3.2402916E1,1.849038E1,1.5638813E1,1.5060954E1,1.8026958E0,8.643791E0,3.256546E0,0E0,0E0,8.981592E0,8.711831E-2,0E0,8.657265E-1,0E0,0E0,1.8744812E0,9.32214E0,4.0649185E0,0E0,0E0,0E0,0E0,0E0,3.6753058E-1,2.3588858E0,0E0,5.3011477E-1,1.4150782E0,0E0,0E0,0E0,0E0,0E0,0E0,0E0,0E0],"parents":[2147483647,0,0,1,1,2,2,3,3,4,4,5,5,6,6,7,7,10,10,11,11,13,13,16,16,17,17,18,18,24,24,25,25,27,27,28,28],"right_children":[2,4,6,8,10,12,14,16,-1,-1,18,20,-1,22,-1,-1,24,26,28,-1,-1,-1,-1,-1,30,32,-1,34,36,-1,-1,-1,-1,-1,-1,-1,-1],"split_conditions":[7.942E0,6.1805E0,-5.57E0,2.813E1,-2.344E1,-2.276E1,9.5398E0,4.2845E0,2.596809E-1,-3.5029003E-1,6E6,9.5646E0,1.6984883E-1,1.58E0,6.808064E-1,-4.5837715E-1,4.08E0,1.272E1,-2.3E-1,-6.0404398E-2,-1.0643E-3,2.4477866E-1,4.2431653E-1,-2.8081223E-1,9.67E0,6.4409E0,-4.3623203E-1,7.1056E0,2.639E1,-4.4088814E-2,-1.6788861E-1,-1.1222486E-1,6.59915E-2,-3.9141975E-2,6.2441267E-2,3.6361244E-2,2.1483234E-1],"split_indices":[0,3,5,5,5,5,0,0,0,0,6,0,0,5,0,0,5,10,5,0,0,0,0,0,10,0,0,0,13,0,0,0,0,0,0,0,0],"split_type":[0,0,0,0,0,0,0,0,0,0,0,0,0,0,0,0,0,0,0,0,0,0,0,0,0,0,0,0,0,0,0,0,0,0,0,0,0],"sum_hessian":[1.63E2,1.25E2,3.8E1,6.1E1,6.4E1,1E1,2.8E1,5.8E1,3E0,6E0,5.8E1,6E0,4E0,1.9E1,9E0,7E0,5.1E1,2.2E1,3.6E1,3E0,3E0,1.1E1,8E0,3.9E1,1.2E1,1.9E1,3E0,1.2E1,2.4E1,3E0,9E0,7E0,1.2E1,7E0,5E0,4E0,2E1],"tree_param":{"num_deleted":"0","num_feature":"23","num_nodes":"37","size_leaf_vector":"1"}},{"base_weights":[-4.8524022E-2,-3.9236397E-1,1.1305287E0,-8.3308554E-1,-2.7678765E-2,8.3194375E-1,5.7386523E-1,-1.3665926E0,-6.639773E-1,-2.849144E-1,1.1483975E-1,1.0665591E0,2.6590604E-1,-4.158623E-1,-2.3029427E-1,-7.27212E-1,9.316157E-3,2.0038493E-2,3.3754557E-1,2.2039364E-1,3.6932155E-1,-4.8658606E-2,1.18920006E-1,-2.1653065E-1,-5.124849E-1,4.1949487E-1,-8.9718334E-2,-1.4563443E-1,-4.8516367E-2,-1.2347289E-2,1.7692779E-1,-7.980749E-2,4.9208004E-2],"categories":[],"categories_nodes":[],"categories_segments":[],"categories_sizes":[],"default_left":[0,0,0,0,0,0,0,0,0,0,0,0,0,0,0,0,0,0,0,0,0,0,0,0,0,0,0,0,0,0,0,0,0],"id":3,"left_children":[1,3,5,7,9,11,-1,13,15,-1,17,19,21,-1,-1,23,-1,25,-1,-1,-1,-1,-1,-1,27,29,31,-1,-1,-1,-1,-1,-1],"loss_changes":[7.177134E1,2.198608E1,1.1222504E1,4.6856346E0,1.1793423E1,4.090555E0,0E0,1.9535255E-1,2.199953E0,0E0,7.6560597E0,5.625763E-1,1.0612682E0,0E0,0E0,6.5089226E-1,0E0,2.844741E0,0E0,0E0,0E0,0E0,0E0,0E0,1.93439E-1,1.7781682E0,3.1999323E0,0E0,0E0,0E0,0E0,0E0,0E0],"parents":[2147483647,0,0,1,1,2,2,3,3,4,4,5,5,7,7,8,8,10,10,11,11,12,12,15,15,17,17,24,24,25,25,26,26],"right_children":[2,4,6,8,10,12,-1,14,16,-1,18,20,22,-1,-1,24,-1,26,-1,-1,-1,-1,-1,-1,28,30,32,-1,-1,-1,-1,-1,-1],"split_conditions":[7.9983E0,5.3635E0,1.04167E1,-3.54E0,-2.512E1,9E0,5.7386523E-1,4.515E0,3.491E1,-2.849144E-1,2.995E1,3.76E0,-2.276E1,-4.158623E-1,-2.3029427E-1,4.904E0,9.316157E-3,-9.73E-1,3.3754557E-1,2.2039364E-1,3.6932155E-1,-4.8658606E-2,1.18920006E-1,-2.1653065E-1,4.94E0,-1.413E0,6.6667E0,-1.4563443E-1,-4.8516367E-2,-1.2347289E-2,1.7692779E-1,-7.980749E-2,4.9208004E-2],"split_indices":[0,0,0,5,5,22,0,0,5,0,5,5,5,0,0,0,0,18,0,0,0,0,0,0,5,18,0,0,0,0,0,0,0],"split_type":[0,0,0,0,0,0,0,0,0,0,0,0,0,0,0,0,0,0,0,0,0,0,0,0,0,0,0,0,0,0,0,0,0],"sum_hessian":[1.75E2,1.36E2,3.9E1,6.1E1,7.5E1,3.2E1,7E0,1.3E1,4.8E1,8E0,6.7E1,2.2E1,1E1,7E0,6E0,4.4E1,4E0,6.3E1,4E0,1.6E1,6E0,3E0,7E0,2.7E1,1.7E1,1.3E1,5E1,1.4E1,3E0,5E0,8E0,2.8E1,2.2E1],"tree_param":{"num_deleted":"0","num_feature":"23","num_nodes":"33","size_leaf_vector":"1"}},{"base_weights":[-1.3876982E-2,-3.3371606E-1,5.224633E-1,9.785216E-1,-4.155882E-1,2.9234734E-1,1.0239283E0,1.2064854E-1,3.2148516E-1,-1.0074977E0,-2.940451E-1,9.404407E-2,9.5143884E-1,6.3911684E-2,1.191977E0,-1.1075032E0,-9.825914E-2,-5.0384325E-1,-1.2870698E-3,2.8251174E-1,-1.8221568E-1,3.8033944E-1,5.727192E-1,1.5172407E-1,1.3329991E0,-1.7720227E-1,-3.385865E-1,-5.852546E-1,-9.475614E-2,8.780436E-2,-1.3123682E-1,1.0341078E-1,8.8092975E-2,-1.320754E-1,-6.6687174E-2,7.337483E-2,2.0385747E-1,1.6986422E-1,3.7925375E-1,-1.6052228E-1,-9.5963076E-2,-6.7298226E-2,5.6184698E-2,-5.0096586E-2,5.9702624E-2,3.8805105E-2,-1.0522416E-2,2.0828594E-2,-4.3864105E-2],"categories":[],"categories_nodes":[],"categories_segments":[],"categories_sizes":[],"default_left":[0,0,0,0,0,0,0,0,0,0,0,0,0,0,0,0,0,0,0,0,0,0,0,0,0,0,0,0,0,0,0,0,0,0,0,0,0,0,0,0,0,0,0,0,0,0,0,0,0],"id":4,"left_children":[1,3,5,7,9,11,13,-1,-1,15,17,19,21,-1,23,25,-1,27,29,31,33,-1,35,-1,37,-1,-1,39,41,43,-1,-1,45,-1,47,-1,-1,-1,-1,-1,-1,-1,-1,-1,-1,-1,-1,-1,-1],"loss_changes":[3.1214907E1,1.2639065E1,7.54006E0,3.6906815E-1,7.4670277E0,6.1743774E0,2.4348526E0,0E0,0E0,7.006626E-1,5.5830393E0,2.0287318E0,1.330184E0,0E0,6.613159E-1,3.9167786E-1,0E0,1.7043333E0,1.8097055E0,4.9013567E-1,5.7047325E-1,0E0,2.7111006E-1,0E0,2.350769E-1,0E0,0E0,1.1215019E-1,5.742805E-1,1.4208791E0,0E0,0E0,8.713378E-2,0E0,2.1200868E-1,0E0,0E0,0E0,0E0,0E0,0E0,0E0,0E0,0E0,0E0,0E0,0E0,0E0,0E0],"parents":[2147483647,0,0,1,1,2,2,3,3,4,4,5,5,6,6,9,9,10,10,11,11,12,12,14,14,15,15,17,17,18,18,19,19,20,20,22,22,24,24,27,27,28,28,29,29,32,32,34,34],"right_children":[2,4,6,8,10,12,14,-1,-1,16,18,20,22,-1,24,26,-1,28,30,32,34,-1,36,-1,38,-1,-1,40,42,44,-1,-1,46,-1,48,-1,-1,-1,-1,-1,-1,-1,-1,-1,-1,-1,-1,-1,-1],"split_conditions":[6.9023E0,2.4E5,8.9715E0,1.821E1,2.067E1,1.244E1,4.23E0,1.2064854E-1,3.2148516E-1,2.35E-1,6.1805E0,1.295E7,-1.35E0,6.3911684E-2,9.0453E0,5.2921E0,-9.825914E-2,1.058E1,7.812E2,3.86E0,-3.508E1,3.8033944E-1,8.2281E0,1.5172407E-1,5.06E1,-1.7720227E-1,-3.385865E-1,3.21E0,1.3E1,5.76E5,-1.3123682E-1,1.0341078E-1,7.2E0,-1.320754E-1,7.01E1,7.337483E-2,2.0385747E-1,1.6986422E-1,3.7925375E-1,-1.6052228E-1,-9.5963076E-2,-6.7298226E-2,5.6184698E-2,-5.0096586E-2,5.9702624E-2,3.8805105E-2,-1.0522416E-2,2.0828594E-2,-4.3864105E-2],"split_indices":[4,6,4,9,9,5,8,0,0,17,3,6,8,0,3,4,0,5,11,12,5,0,2,0,11,0,0,5,20,6,0,0,2,0,15,0,0,0,0,0,0,0,0,0,0,0,0,0,0],"split_type":[0,0,0,0,0,0,0,0,0,0,0,0,0,0,0,0,0,0,0,0,0,0,0,0,0,0,0,0,0,0,0,0,0,0,0,0,0,0,0,0,0,0,0,0,0,0,0,0,0],"sum_hessian":[1.8E2,1.13E2,6.7E1,6E0,1.07E2,4.7E1,2E1,3E0,3E0,1.7E1,9E1,3.7E1,1E1,4E0,1.6E1,1.4E1,3E0,5.2E1,3.8E1,2.2E1,1.5E1,3E0,7E0,4E0,1.2E1,6E0,8E0,4.3E1,9E0,3.3E1,5E0,1.3E1,9E0,3E0,1.2E1,4E0,3E0,3E0,9E0,3.5E1,8E0,6E0,3E0,1.1E1,2.2E1,6E0,3E0,5E0,7E0],"tree_param":{"num_deleted":"0","num_feature":"23","num_nodes":"49","size_leaf_vector":"1"}},{"base_weights":[3.2268327E-2,-9.948227E-2,1.0672283E0,-3.5813782E-1,8.5411206E-2,7.0196444E-1,3.812042E-1,-4.6877468E-1,3.4111497E-1,-3.4747088E-1,1.452699E-1,9.127823E-2,1.9888432E-1,-2.511103E-1,-4.1552302E-1,-5.877098E-2,1.9616066E-1,-1.3200727E-1,2.53347E-1,-1.54634E-1,-3.3998448E-1,1.9114201E-1,-3.1592983E-1,1.2050102E-1,5.256152E-1,-1.0997768E-1,-5.7664987E-2,-1.6757225E-1,-2.3594429E-3,6.373412E-2,-2.4931023E-2,2.1014526E-1,4.4656238E-3],"categories":[],"categories_nodes":[],"categories_segments":[],"categories_sizes":[],"default_left":[0,0,0,0,0,0,0,0,0,0,0,0,0,0,0,0,0,0,0,0,0,0,0,0,0,0,0,0,0,0,0,0,0],"id":5,"left_children":[1,3,5,7,9,11,-1,13,15,-1,17,-1,-1,-1,19,-1,-1,21,23,-1,25,-1,27,29,31,-1,-1,-1,-1,-1,-1,-1,-1],"loss_changes":[2.5335442E1,7.92223E0,2.1116219E0,5.494214E0,8.496996E0,3.5153866E-2,0E0,1.2039585E0,2.5552902E0,0E0,2.8501127E0,0E0,0E0,0E0,5.701952E-1,0E0,0E0,4.5577407E0,2.3912559E0,0E0,3.2324934E-1,0E0,2.3410819E0,1.3159925E0,3.2085652E0,0E0,0E0,0E0,0E0,0E0,0E0,0E0,0E0],"parents":[2147483647,0,0,1,1,2,2,3,3,4,4,5,5,7,7,8,8,10,10,14,14,17,17,18,18,20,20,22,22,23,23,24,24],"right_children":[2,4,6,8,10,12,-1,14,16,-1,18,-1,-1,-1,20,-1,-1,22,24,-1,26,-1,28,30,32,-1,-1,-1,-1,-1,-1,-1,-1],"split_conditions":[2.636E1,6.1805E0,1E1,2.197E1,-3.969E1,-1.75E0,3.812042E-1,1.905E1,-9.37E-1,-3.4747088E-1,2.643E1,9.127823E-2,1.9888432E-1,-2.511103E-1,-2.78E0,-5.877098E-2,1.9616066E-1,2.84E5,1.43E0,-1.54634E-1,4.908E0,1.9114201E-1,5E0,1.2E7,9.1E-2,-1.0997768E-1,-5.7664987E-2,-1.6757225E-1,-2.3594429E-3,6.373412E-2,-2.4931023E-2,2.1014526E-1,4.4656238E-3],"split_indices":[9,3,1,5,5,5,0,9,16,0,13,0,0,0,5,0,0,6,5,0,3,0,20,7,16,0,0,0,0,0,0,0,0],"split_type":[0,0,0,0,0,0,0,0,0,0,0,0,0,0,0,0,0,0,0,0,0,0,0,0,0,0,0,0,0,0,0,0,0],"sum_hessian":[1.84E2,1.64E2,2E1,6.8E1,9.6E1,1.2E1,8E0,5.9E1,9E0,3E0,9.3E1,3E0,9E0,4E0,5.5E1,4E0,5E0,2.6E1,6.7E1,1.4E1,4.1E1,4E0,2.2E1,4.6E1,2.1E1,2.2E1,1.9E1,1E1,1.2E1,2.9E1,1.7E1,1.3E1,8E0],"tree_param":{"num_deleted":"0","num_feature":"23","num_nodes":"33","size_leaf_vector":"1"}},{"base_weights":[2.0580345E-3,-1.0044127E-1,9.087401E-1,-3.8659984E-1,8.1493266E-2,1.4382869E-1,3.2999167E-1,-4.4681767E-1,6.42617E-2,-8.23269E-1,1.4937335E-1,-7.0749146E-1,-3.184261E-1,-2.7990416E-1,-9.199284E-2,2.3128036E-1,9.62225E-2,-2.1989092E-1,-1.3071607E-1,-3.550552E-1,-4.881049E-2,-1.6718988E-1,1.7744942E-1,-1.0461299E-1,-6.327526E-2,-1.4071896E-2,-1.632253E-1,1.6749783E-1,2.6442965E-2],"categories":[],"categories_nodes":[],"categories_segments":[],"categories_sizes":[],"default_left":[0,0,0,0,0,0,0,0,0,0,0,0,0,0,0,0,0,0,0,0,0,0,0,0,0,0,0,0,0],"id":6,"left_children":[1,3,5,7,9,-1,-1,11,-1,13,15,17,19,-1,-1,-1,21,-1,-1,23,-1,25,27,-1,-1,-1,-1,-1,-1],"loss_changes":[1.645084E1,8.310279E0,1.6250801E0,2.4834318E0,6.13218E0,0E0,0E0,1.6775808E0,0E0,4.6143055E-1,3.5601146E0,8.845711E-2,1.1875248E-1,0E0,0E0,0E0,1.8901818E0,0E0,0E0,6.316662E-2,0E0,1.0605551E0,2.2969499E0,0E0,0E0,0E0,0E0,0E0,0E0],"parents":[2147483647,0,0,1,1,2,2,3,3,4,4,7,7,9,9,10,10,11,11,12,12,16,16,19,19,21,21,22,22],"right_children":[2,4,6,8,10,-1,-1,12,-1,14,16,18,20,-1,-1,-1,22,-1,-1,24,-1,26,28,-1,-1,-1,-1,-1,-1],"split_conditions":[8.9715E0,5.7199E0,1.04123E1,3.855E1,-3.542E1,1.4382869E-1,3.2999167E-1,4.5293E0,6.42617E-2,-3.969E1,1.886E1,2.412E1,5.1905E0,-2.7990416E-1,-9.199284E-2,2.3128036E-1,7.2E5,-2.1989092E-1,-1.3071607E-1,8.8E-1,-4.881049E-2,5.85E5,8.759E6,-1.0461299E-1,-6.327526E-2,-1.4071896E-2,-1.632253E-1,1.6749783E-1,2.6442965E-2],"split_indices":[4,0,0,5,5,0,0,0,0,5,9,13,0,0,0,0,6,0,0,5,0,6,6,0,0,0,0,0,0],"split_type":[0,0,0,0,0,0,0,0,0,0,0,0,0,0,0,0,0,0,0,0,0,0,0,0,0,0,0,0,0],"sum_hessian":[1.75E2,1.58E2,1.7E1,6.1E1,9.7E1,1E1,7E0,5.6E1,5E0,6E0,9.1E1,1.7E1,3.9E1,3E0,3E0,5E0,8.6E1,8E0,9E0,2.9E1,1E1,2E1,6.6E1,1.8E1,1.1E1,1.7E1,3E0,8E0,5.8E1],"tree_param":{"num_deleted":"0","num_feature":"23","num_nodes":"29","size_leaf_vector":"1"}},{"base_weights":[7.900824E-3,7.127185E-1,-7.493098E-2,4.2227682E-1,9.5680285E-1,-1.861296E-1,1.8762165E-1,1.5641823E-1,6.624423E-2,1.3457492E-1,3.1004456E-1,-6.104237E-1,-1.2167024E-1,-1.3646474E-1,4.6576902E-1,-3.814752E-1,-2.4439724E-1,-2.720184E-1,1.21116236E-1,-2.4656996E-1,1.0836496E-1,5.89344E-1,1.29083E-1,-1.3041648E-1,-5.5252206E-2,-1.8155846E-1,-4.8479944E-1,4.1100956E-2,4.5805097E-1,-3.1074846E-1,-9.1393106E-2,1.548943E-2,6.9085157E-1,-6.6808965E-3,5.913732E-2,-1.366131E-1,-2.8587585E-2,-7.350337E-2,-2.7480537E-1,-3.759294E-2,2.90785E-2,1.6277473E-1,4.3896664E-2,-9.975341E-2,-1.0733544E-2,-4.093678E-2,-0E0,1.2536182E-1,2.5922063E-1],"categories":[],"categories_nodes":[],"categories_segments":[],"categories_sizes":[],"default_left":[0,0,0,0,0,0,0,0,0,0,0,0,0,0,0,0,0,0,0,0,0,0,0,0,0,0,0,0,0,0,0,0,0,0,0,0,0,0,0,0,0,0,0,0,0,0,0,0,0],"id":7,"left_children":[1,3,5,7,9,11,13,-1,-1,-1,-1,15,17,19,21,23,-1,25,27,29,-1,31,33,-1,-1,35,37,39,41,43,45,-1,47,-1,-1,-1,-1,-1,-1,-1,-1,-1,-1,-1,-1,-1,-1,-1,-1],"loss_changes":[9.981384E0,8.670664E-1,4.500513E0,1.4411831E-1,3.2883358E-1,2.8742206E0,4.209848E0,0E0,0E0,0E0,0E0,7.133374E-1,3.5005543E0,1.4469241E0,9.586582E-1,9.497106E-2,0E0,1.0433478E0,9.7427356E-1,1.5777147E-1,0E0,9.1896486E-1,1.3143726E-1,0E0,0E0,9.951428E-1,1.6610925E0,4.3041098E-1,2.3554349E-1,2.4596703E-1,4.193159E-2,0E0,4.7266865E-1,0E0,0E0,0E0,0E0,0E0,0E0,0E0,0E0,0E0,0E0,0E0,0E0,0E0,0E0,0E0,0E0],"parents":[2147483647,0,0,1,1,2,2,3,3,4,4,5,5,6,6,11,11,12,12,13,13,14,14,15,15,17,17,18,18,19,19,21,21,22,22,25,25,26,26,27,27,28,28,29,29,30,30,32,32],"right_children":[2,4,6,8,10,12,14,-1,-1,-1,-1,16,18,20,22,24,-1,26,28,30,-1,32,34,-1,-1,36,38,40,42,44,46,-1,48,-1,-1,-1,-1,-1,-1,-1,-1,-1,-1,-1,-1,-1,-1,-1,-1],"split_conditions":[1.241E2,1.04123E1,4.08E0,2.718E1,3.21E0,-2.512E1,5.4902E0,1.5641823E-1,6.624423E-2,1.3457492E-1,3.1004456E-1,7.8479E0,6.6452E0,6.6538E0,5.18E-1,6.6538E0,-2.4439724E-1,1.3E1,9.4852E0,4.7442E0,1.0836496E-1,1.283E1,1.5E1,-1.3041648E-1,-5.5252206E-2,9.77E0,4.8951E0,-9.24E0,7.8226E0,1.3E1,3.23E0,1.548943E-2,5.624E2,-6.6808965E-3,5.913732E-2,-1.366131E-1,-2.8587585E-2,-7.350337E-2,-2.7480537E-1,-3.759294E-2,2.90785E-2,1.6277473E-1,4.3896664E-2,-9.975341E-2,-1.0733544E-2,-4.093678E-2,-0E0,1.2536182E-1,2.5922063E-1],"split_indices":[11,0,5,9,5,5,0,0,0,0,0,2,0,2,16,0,0,10,0,0,0,14,20,0,0,10,2,5,2,20,8,0,11,0,0,0,0,0,0,0,0,0,0,0,0,0,0,0,0],"split_type":[0,0,0,0,0,0,0,0,0,0,0,0,0,0,0,0,0,0,0,0,0,0,0,0,0,0,0,0,0,0,0,0,0,0,0,0,0,0,0,0,0,0,0,0,0,0,0,0,0],"sum_hessian":[1.69E2,1.7E1,1.52E2,9E0,8E0,1.07E2,4.5E1,3E0,6E0,4E0,4E0,1.3E1,9.4E1,2.1E1,2.4E1,9E0,4E0,5.8E1,3.6E1,1.8E1,3E0,1.7E1,7E0,4E0,5E0,4.2E1,1.6E1,3E1,6E0,1.2E1,6E0,3E0,1.4E1,3E0,4E0,6E0,3.6E1,1.3E1,3E0,8E0,2.2E1,3E0,3E0,9E0,3E0,3E0,3E0,1E1,4E0],"tree_param":{"num_deleted":"0","num_feature":"23","num_nodes":"49","size_leaf_vector":"1"}},{"base_weights":[-1.8185483E-2,5.4059434E-1,-9.062957E-2,3.3215585E-1,7.587459E-1,-1.8492606E-1,1.03274934E-1,1.255901E-1,1.9375783E-1,2.2880402E-1,9.7275026E-2,-2.3272413E-1,2.872845E-1,1.6776793E-1,-1.3510956E-1,2.574842E-2,5.907149E-2,1.11757904E-1,-2.6676315E-1,1.7475608E-1,-2.1486737E-2,2.0499085E-1,-3.0854428E-2,-5.163627E-1,-2.0245424E-1,3.388402E-1,7.950618E-2,-4.274197E-2,-1.559249E-1,-1.925032E-1,-4.3606207E-2,9.472801E-3,1.2003043E-1,5.995628E-2,2.980666E-3],"categories":[],"categories_nodes":[],"categories_segments":[],"categories_sizes":[],"default_left":[0,0,0,0,0,0,0,0,0,0,0,0,0,0,0,0,0,0,0,0,0,0,0,0,0,0,0,0,0,0,0,0,0,0,0],"id":8,"left_children":[1,3,5,7,9,11,13,-1,15,-1,-1,17,19,21,-1,-1,-1,-1,23,-1,-1,25,-1,27,29,31,33,-1,-1,-1,-1,-1,-1,-1,-1],"loss_changes":[7.046429E0,6.523185E-1,2.834847E0,1.5831101E-1,1.0110569E-1,2.4119294E0,2.1447077E0,0E0,1.2260675E-3,0E0,0E0,2.2649221E0,1.503398E0,5.2729774E-1,0E0,0E0,0E0,0E0,1.3518248E0,0E0,0E0,6.751373E-1,0E0,4.5086813E-1,1.2125716E0,7.4246716E-1,2.3408544E-1,0E0,0E0,0E0,0E0,0E0,0E0,0E0,0E0],"parents":[2147483647,0,0,1,1,2,2,3,3,4,4,5,5,6,6,8,8,11,11,12,12,13,13,18,18,21,21,23,23,24,24,25,25,26,26],"right_children":[2,4,6,8,10,12,14,-1,16,-1,-1,18,20,22,-1,-1,-1,-1,24,-1,-1,26,-1,28,30,32,34,-1,-1,-1,-1,-1,-1,-1,-1],"split_conditions":[1.421E2,1.04123E1,6.9362E0,2.853E1,1.338E1,1.2E1,2.612E1,1.255901E-1,9.0453E0,2.2880402E-1,9.7275026E-2,2.38E5,6.8431E0,9.3328E0,-1.3510956E-1,2.574842E-2,5.907149E-2,1.11757904E-1,2.067E1,1.7475608E-1,-2.1486737E-2,2.355E1,-3.0854428E-2,1.63E2,1E0,7.1056E0,6.736E0,-4.274197E-2,-1.559249E-1,-1.925032E-1,-4.3606207E-2,9.472801E-3,1.2003043E-1,5.995628E-2,2.980666E-3],"split_indices":[11,0,0,13,8,22,8,0,3,0,0,6,3,1,0,0,0,0,9,0,0,9,0,15,20,0,1,0,0,0,0,0,0,0,0],"split_type":[0,0,0,0,0,0,0,0,0,0,0,0,0,0,0,0,0,0,0,0,0,0,0,0,0,0,0,0,0,0,0,0,0,0,0],"sum_hessian":[1.72E2,1.9E1,1.53E2,1.1E1,8E0,1.03E2,5E1,4E0,7E0,5E0,3E0,9.4E1,9E0,4.6E1,4E0,3E0,4E0,4E0,9E1,4E0,5E0,4.1E1,5E0,1.7E1,7.3E1,1.9E1,2.2E1,4E0,1.3E1,3E0,7E1,6E0,1.3E1,6E0,1.6E1],"tree_param":{"num_deleted":"0","num_feature":"23","num_nodes":"35","size_leaf_vector":"1"}},{"base_weights":[-1.3876221E-3,4.6529624E-1,-4.6360556E-2,3.3764678E-1,1.973187E-1,-3.6382633E-1,-5.278451E-3,1.3650574E-1,2.2726445E-1,-2.1949981E-1,-1.6514331E-1,-8.5680835E-2,2.4710009E-1,3.16338E-2,7.905784E-2,-2.9287976E-1,-7.10594E-3,-1.2341119E-1,4.2487794E-1,1.6758184E-1,4.6696544E-1,-9.150407E-2,-4.108468E-2,-3.4464812E-1,-7.1104184E-2,2.6005724E-2,1.5440004E-1,2.0417409E-1,-2.6108367E-2,5.4757856E-2,1.440752E-1,-1.2682414E-1,-5.8708988E-2,-1.0535005E-3,-5.880868E-2,3.0467063E-2,1.1784618E-1],"categories":[],"categories_nodes":[],"categories_segments":[],"categories_sizes":[],"default_left":[0,0,0,0,0,0,0,0,0,0,0,0,0,0,0,0,0,0,0,0,0,0,0,0,0,0,0,0,0,0,0,0,0,0,0,0,0],"id":9,"left_children":[1,3,5,7,-1,9,11,-1,13,15,-1,17,19,-1,-1,21,-1,23,25,27,29,-1,-1,31,33,-1,-1,35,-1,-1,-1,-1,-1,-1,-1,-1,-1],"loss_changes":[3.8159893E0,3.4881973E-1,2.159708E0,1.5017521E-1,0E0,6.1211467E-1,3.0221438E0,0E0,4.2243898E-2,1.862759E-1,0E0,2.2251887E0,5.469775E-1,0E0,0E0,2.2748113E-2,0E0,1.1988744E0,3.8406456E-1,2.9632545E-1,8.671093E-2,0E0,0E0,2.2806E-1,9.1162896E-1,0E0,0E0,4.854567E-1,0E0,0E0,0E0,0E0,0E0,0E0,0E0,0E0,0E0],"parents":[2147483647,0,0,1,1,2,2,3,3,5,5,6,6,8,8,9,9,11,11,12,12,15,15,17,17,18,18,19,19,20,20,23,23,24,24,27,27],"right_children":[2,4,6,8,-1,10,12,-1,14,16,-1,18,20,-1,-1,22,-1,24,26,28,30,-1,-1,32,34,-1,-1,36,-1,-1,-1,-1,-1,-1,-1,-1,-1],"split_conditions":[1.241E2,1.15777E1,-1.798E1,4.65E0,1.973187E-1,2.86E0,7.1816E0,1.3650574E-1,9.6621E0,7.8226E0,-1.6514331E-1,3.855E1,7.62E0,3.16338E-2,7.905784E-2,6.6538E0,-7.10594E-3,4.6173E0,-5.21E-1,9.0694E0,7.5665E0,-9.150407E-2,-4.108468E-2,3.3701E0,1.277E1,2.6005724E-2,1.5440004E-1,9.4852E0,-2.6108367E-2,5.4757856E-2,1.440752E-1,-1.2682414E-1,-5.8708988E-2,-1.0535005E-3,-5.880868E-2,3.0467063E-2,1.1784618E-1],"split_indices":[11,3,5,12,0,8,0,0,0,0,0,5,5,0,0,0,0,0,18,1,0,0,0,0,10,0,0,0,0,0,0,0,0,0,0,0,0],"split_type":[0,0,0,0,0,0,0,0,0,0,0,0,0,0,0,0,0,0,0,0,0,0,0,0,0,0,0,0,0,0,0,0,0,0,0,0,0],"sum_hessian":[1.8E2,1.5E1,1.65E2,1.2E1,3E0,1.8E1,1.47E2,3E0,9E0,1.3E1,5E0,1.12E2,3.5E1,5E0,4E0,9E0,4E0,1.05E2,7E0,2.7E1,8E0,5E0,4E0,1.9E1,8.6E1,3E0,4E0,2.4E1,3E0,3E0,5E0,7E0,1.2E1,6.1E1,2.5E1,1.9E1,5E0],"tree_param":{"num_deleted":"0","num_feature":"23","num_nodes":"37","size_leaf_vector":"1"}},{"base_weights":[1.5398184E-2,3.7233365E-1,-1.8195612E-2,2.3486765E-1,1.6201341E-1,-1.5071537E-1,4.139225E-2,2.2886239E-2,9.429352E-2,-1.8218032E-1,7.2073445E-2,4.6571445E-1,6.3010273E-3,-1.4085011E-1,-1.3574731E-1,6.2700436E-3,1.7586075E-1,-1.4361802E-1,3.277983E-2,-1.5919253E-1,1.6779671E-3,-1.892466E-1,6.3193075E-2,-1.64381E-2,-4.9488768E-2,-6.63936E-2,-2.4072267E-2,3.1163061E-2,-1.20483395E-2],"categories":[],"categories_nodes":[],"categories_segments":[],"categories_sizes":[],"default_left":[0,0,0,0,0,0,0,0,0,0,0,0,0,0,0,0,0,0,0,0,0,0,0,0,0,0,0,0,0],"id":10,"left_children":[1,3,5,7,-1,9,11,-1,-1,13,-1,15,17,19,-1,-1,-1,-1,21,23,-1,25,27,-1,-1,-1,-1,-1,-1],"loss_changes":[2.22771E0,4.0992904E-1,1.3492984E0,1.9315058E-1,0E0,7.6605475E-1,1.7498198E0,0E0,0E0,6.324487E-1,0E0,8.340993E-1,1.6531434E0,1.2659103E-1,0E0,0E0,0E0,0E0,7.262737E-1,1.1362505E-1,0E0,5.832514E-2,6.012597E-1,0E0,0E0,0E0,0E0,0E0,0E0],"parents":[2147483647,0,0,1,1,2,2,3,3,5,5,6,6,9,9,11,11,12,12,13,13,18,18,19,19,21,21,22,22],"right_children":[2,4,6,8,-1,10,12,-1,-1,14,-1,16,18,20,-1,-1,-1,-1,22,24,-1,26,28,-1,-1,-1,-1,-1,-1],"split_conditions":[1.241E2,6.69E1,5.1014E0,2.766E1,1.6201341E-1,2.885E1,1.912E1,2.2886239E-2,9.429352E-2,3.884E2,7.2073445E-2,2.19E5,2.063E1,1.391E0,-1.3574731E-1,6.2700436E-3,1.7586075E-1,-1.4361802E-1,-2.344E1,4.6035E0,1.6779671E-3,9E0,-7.2E-2,-1.64381E-2,-4.9488768E-2,-6.63936E-2,-2.4072267E-2,3.1163061E-2,-1.20483395E-2],"split_indices":[11,11,0,9,0,13,9,0,0,15,0,7,9,19,0,0,0,0,5,4,0,20,18,0,0,0,0,0,0],"split_type":[0,0,0,0,0,0,0,0,0,0,0,0,0,0,0,0,0,0,0,0,0,0,0,0,0,0,0,0,0],"sum_hessian":[1.84E2,1.5E1,1.69E2,1.1E1,4E0,5.2E1,1.17E2,6E0,5E0,4.9E1,3E0,8E0,1.09E2,4.5E1,4E0,3E0,5E0,4E0,1.05E2,4E1,5E0,1.2E1,9.3E1,1.1E1,2.9E1,6E0,6E0,6.1E1,3.2E1],"tree_param":{"num_deleted":"0","num_feature":"23","num_nodes":"29","size_leaf_vector":"1"}},{"base_weights":[-1.417648E-2,3.0144784E-1,-3.991132E-2,1.7005186E-1,1.4305954E-1,-8.947199E-2,6.074176E-2,8.787872E-2,4.767475E-2,-1.2921391E-1,2.695828E-2,-3.1147674E-1,1.14955865E-1,6.448239E-4,2.0371264E-2,-1.2174625E-1,-1.0497152E-1,2.5752273E-1,-9.5216826E-2,-9.177818E-3,-1.31183E-1,4.6130113E-2,2.451148E-1,-9.376901E-2,-8.553815E-2,1.4936288E-1,3.6836777E-2,-2.0361234E-1,-1.4517325E-2,7.872299E-2,-3.7239697E-2,2.931438E-2,3.1214947E-1,-3.0427402E-2,-1.5843328E-3,-1.536237E-2,3.2579526E-2,-8.287385E-2,-1.061951E-3,2.480979E-2,-1.6235797E-2,9.605801E-3,4.5672227E-2,1.0362503E-1,4.7718283E-2],"categories":[],"categories_nodes":[],"categories_segments":[],"categories_sizes":[],"default_left":[0,0,0,0,0,0,0,0,0,0,0,0,0,0,0,0,0,0,0,0,0,0,0,0,0,0,0,0,0,0,0,0,0,0,0,0,0,0,0,0,0,0,0,0,0],"id":11,"left_children":[1,3,5,7,-1,9,11,-1,13,15,17,19,21,-1,-1,-1,23,25,27,-1,-1,29,31,-1,33,-1,35,37,39,41,-1,-1,43,-1,-1,-1,-1,-1,-1,-1,-1,-1,-1,-1,-1],"loss_changes":[1.3983473E0,3.3318555E-1,7.98628E-1,1.8916732E-1,0E0,4.9929547E-1,1.1025045E0,0E0,8.98134E-3,6.111326E-1,8.135679E-1,3.571545E-1,4.072994E-1,0E0,0E0,0E0,3.4746635E-1,6.819533E-1,1.6126989E-1,0E0,0E0,2.0913208E-1,1.02452576E-1,0E0,1.835131E-1,0E0,6.812778E-2,1.8324608E-1,6.9863856E-2,1.0585421E-1,0E0,0E0,3.5873413E-2,0E0,0E0,0E0,0E0,0E0,0E0,0E0,0E0,0E0,0E0,0E0,0E0],"parents":[2147483647,0,0,1,1,2,2,3,3,5,5,6,6,8,8,9,9,10,10,11,11,12,12,16,16,17,17,18,18,21,21,22,22,24,24,26,26,27,27,28,28,29,29,32,32],"right_children":[2,4,6,8,-1,10,12,-1,14,16,18,20,22,-1,-1,-1,24,26,28,-1,-1,30,32,-1,34,-1,36,38,40,42,-1,-1,44,-1,-1,-1,-1,-1,-1,-1,-1,-1,-1,-1,-1],"split_conditions":[1.15E2,1.13155E1,6.9314E0,4.65E0,1.4305954E-1,5.49E-1,-3.039E1,8.787872E-2,1.1812E7,1E0,-9.73E-1,6.4815E0,1.58E0,6.448239E-4,2.0371264E-2,-1.2174625E-1,1.794E1,9.37E-1,5.8E-2,-9.177818E-3,-1.31183E-1,8.75E0,7.7227E0,-9.376901E-2,1.554E1,1.4936288E-1,6.4194E0,1.437E7,7E0,8.4465E0,-3.7239697E-2,2.931438E-2,8.4967E0,-3.0427402E-2,-1.5843328E-3,-1.536237E-2,3.2579526E-2,-8.287385E-2,-1.061951E-3,2.480979E-2,-1.6235797E-2,9.605801E-3,4.5672227E-2,1.0362503E-1,4.7718283E-2],"split_indices":[11,4,0,12,0,17,5,0,7,20,18,1,5,0,0,0,9,17,19,0,0,2,0,0,14,0,2,7,20,1,0,0,0,0,0,0,0,0,0,0,0,0,0,0,0],"split_type":[0,0,0,0,0,0,0,0,0,0,0,0,0,0,0,0,0,0,0,0,0,0,0,0,0,0,0,0,0,0,0,0,0,0,0,0,0,0,0,0,0,0,0,0,0],"sum_hessian":[1.7E2,1.2E1,1.58E2,9E0,3E0,1.06E2,5.2E1,3E0,6E0,7.9E1,2.7E1,6E0,4.6E1,3E0,3E0,4E0,7.5E1,9E0,1.8E1,3E0,3E0,3.1E1,1.5E1,4E0,7.1E1,3E0,6E0,7E0,1.1E1,2.7E1,4E0,6E0,9E0,5E1,2.1E1,3E0,3E0,4E0,3E0,3E0,8E0,2E1,7E0,4E0,5E0],"tree_param":{"num_deleted":"0","num_feature":"23","num_nodes":"45","size_leaf_vector":"1"}},{"base_weights":[2.3392607E-2,-8.0308005E-2,9.0123355E-2,-9.9726774E-2,6.687895E-2,2.5816586E-2,2.7048415E-1,-7.655789E-2,-8.208956E-2,8.82744E-3,8.92377E-2,1.983931E-1,1.0982178E-1,-5.5963553E-2,-4.5258947E-2,-1.0275879E-1,3.759457E-2,1.0820316E-1,3.0616638E-1,2.3652254E-2,-8.065307E-2,-9.868657E-2,5.802778E-2,9.631537E-2,1.5595017E-3,1.4090283E-1,-0E0,3.7883062E-2,9.301811E-2,-1.6204756E-2,1.8049823E-2,-4.15637E-2,-1.244855E-2,-1.593532E-2,3.5230383E-2,-1.4575764E-2,1.6515391E-2,1.5889063E-2,6.272481E-2],"categories":[],"categories_nodes":[],"categories_segments":[],"categories_sizes":[],"default_left":[0,0,0,0,0,0,0,0,0,0,0,0,0,0,0,0,0,0,0,0,0,0,0,0,0,0,0,0,0,0,0,0,0,0,0,0,0,0,0],"id":12,"left_children":[1,3,5,7,-1,9,11,13,-1,15,-1,17,-1,19,-1,21,23,25,27,29,31,-1,33,-1,35,37,-1,-1,-1,-1,-1,-1,-1,-1,-1,-1,-1,-1,-1],"loss_changes":[1.2180362E0,4.7883677E-1,1.23143E0,3.068033E-1,0E0,4.2897895E-1,2.251203E-1,1.1260998E-1,0E0,2.5033522E-1,0E0,1.6794068E-1,0E0,1.0452938E-1,0E0,7.4346095E-1,7.462106E-1,4.6167076E-2,2.167207E-2,5.635871E-2,9.4824106E-2,0E0,1.12228915E-1,0E0,2.102812E-1,6.3666314E-2,0E0,0E0,0E0,0E0,0E0,0E0,0E0,0E0,0E0,0E0,0E0,0E0,0E0],"parents":[2147483647,0,0,1,1,2,2,3,3,5,5,6,6,7,7,9,9,11,11,13,13,15,15,16,16,17,17,18,18,19,19,20,20,22,22,24,24,25,25],"right_children":[2,4,6,8,-1,10,12,14,-1,16,-1,18,-1,20,-1,22,24,26,28,30,32,-1,34,-1,36,38,-1,-1,-1,-1,-1,-1,-1,-1,-1,-1,-1,-1,-1],"split_conditions":[5.7199E0,2.907E1,3.21E0,3.864E2,6.687895E-2,4.848E2,-1.48E-1,5.625E0,-8.208956E-2,-6.89E-1,8.92377E-2,1.6E1,1.0982178E-1,8E0,-4.5258947E-2,3.81E0,1E0,9.2709E0,7.2888E0,2.076E1,1.2E1,-9.868657E-2,-1.011E1,9.631537E-2,7.8479E0,8.2281E0,-0E0,3.7883062E-2,9.301811E-2,-1.6204756E-2,1.8049823E-2,-4.15637E-2,-1.244855E-2,-1.593532E-2,3.5230383E-2,-1.4575764E-2,1.6515391E-2,1.5889063E-2,6.272481E-2],"split_indices":[0,13,5,15,0,15,17,4,0,17,0,20,0,20,0,12,20,1,0,9,20,0,5,0,0,2,0,0,0,0,0,0,0,0,0,0,0,0,0],"split_type":[0,0,0,0,0,0,0,0,0,0,0,0,0,0,0,0,0,0,0,0,0,0,0,0,0,0,0,0,0,0,0,0,0,0,0,0,0,0,0],"sum_hessian":[1.74E2,6.8E1,1.06E2,6.5E1,3E0,7.9E1,2.7E1,6E1,5E0,7.6E1,3E0,2E1,7E0,5.1E1,9E0,1.5E1,6.1E1,1.2E1,8E0,1.2E1,3.9E1,5E0,1E1,5E0,5.6E1,9E0,3E0,3E0,5E0,4E0,8E0,1E1,2.9E1,4E0,6E0,2.9E1,2.7E1,6E0,3E0],"tree_param":{"num_deleted":"0","num_feature":"23","num_nodes":"39","size_leaf_vector":"1"}},{"base_weights":[-7.6087033E-3,-3.592311E-2,1.3306035E-1,1.962016E-1,-5.2281514E-2,1.15127206E-1,8.17065E-2,-1.917753E-2,1.00803055E-1,-3.5908554E-2,-2.8627387E-1,2.360856E-2,8.564669E-2,-6.3429765E-2,9.027817E-2,-1.8410752E-2,-1.384069E-1,9.269392E-2,-7.4631326E-2,-2.2335276E-1,-4.3155424E-2,4.473694E-2,1.7503363E-1,6.2781093E-3,1.2715158E-1,4.9159783E-3,-3.6590256E-2,-2.4232718E-3,-1.6741143E-1,6.0685806E-2,-1.6486952E-2,-8.6423475E-3,2.0853577E-2,2.0213624E-2,6.468595E-2,2.0146333E-2,4.3183874E-2],"categories":[],"categories_nodes":[],"categories_segments":[],"categories_sizes":[],"default_left":[0,0,0,0,0,0,0,0,0,0,0,0,0,0,0,0,0,0,0,0,0,0,0,0,0,0,0,0,0,0,0,0,0,0,0,0,0],"id":13,"left_children":[1,3,5,7,9,-1,11,-1,-1,13,15,17,-1,19,21,-1,-1,23,25,27,29,31,33,-1,35,-1,-1,-1,-1,-1,-1,-1,-1,-1,-1,-1,-1],"loss_changes":[7.127409E-1,5.745268E-1,4.420578E-1,5.565262E-1,5.23468E-1,0E0,3.8166177E-1,0E0,0E0,4.6372125E-1,4.4029945E-1,1.6289203E-1,0E0,3.4163573E-1,8.301534E-2,0E0,0E0,2.8605215E-2,6.6542804E-2,1.0794332E0,5.795863E-1,5.1024318E-2,3.636852E-2,0E0,2.832666E-3,0E0,0E0,0E0,0E0,0E0,0E0,0E0,0E0,0E0,0E0,0E0,0E0],"parents":[2147483647,0,0,1,1,2,2,3,3,4,4,6,6,9,9,10,10,11,11,13,13,14,14,17,17,18,18,19,19,20,20,21,21,22,22,24,24],"right_children":[2,4,6,8,10,-1,12,-1,-1,14,16,18,-1,20,22,-1,-1,24,26,28,30,32,34,-1,36,-1,-1,-1,-1,-1,-1,-1,-1,-1,-1,-1,-1],"split_conditions":[2.487E1,2.84E5,6.8196E0,-9.57E0,8.7626E0,1.15127206E-1,3.38E7,-1.917753E-2,1.00803055E-1,7.6473E0,3.206E2,2.171E7,8.564669E-2,9.21E1,1.2E7,-1.8410752E-2,-1.384069E-1,5.33E1,-4.43E-1,6.1908E0,1E0,1.21E0,6.5208E0,6.2781093E-3,2.731E1,4.9159783E-3,-3.6590256E-2,-2.4232718E-3,-1.6741143E-1,6.0685806E-2,-1.6486952E-2,-8.6423475E-3,2.0853577E-2,2.0213624E-2,6.468595E-2,2.0146333E-2,4.3183874E-2],"split_indices":[9,6,3,8,2,0,6,0,0,0,15,7,0,15,7,0,0,15,17,3,20,8,2,0,9,0,0,0,0,0,0,0,0,0,0,0,0],"split_type":[0,0,0,0,0,0,0,0,0,0,0,0,0,0,0,0,0,0,0,0,0,0,0,0,0,0,0,0,0,0,0,0,0,0,0,0,0],"sum_hessian":[1.77E2,1.48E2,2.9E1,9E0,1.39E2,3E0,2.6E1,4E0,5E0,1.31E2,8E0,2.2E1,4E0,1.08E2,2.3E1,5E0,3E0,1.3E1,9E0,1.1E1,9.7E1,1.6E1,7E0,5E0,8E0,4E0,5E0,8E0,3E0,6E0,9.1E1,5E0,1.1E1,4E0,3E0,5E0,3E0],"tree_param":{"num_deleted":"0","num_feature":"23","num_nodes":"37","size_leaf_vector":"1"}},{"base_weights":[-1.2413058E-3,-9.808866E-2,7.6417783E-3,-4.979235E-3,2.3401628E-1,-5.4120466E-2,5.0581772E-2,-3.2662638E-2,1.12754956E-1,-2.2788264E-1,-2.820064E-2,1.0420425E-2,1.3689107E-1,-1.3714723E-1,-4.7327314E-2,7.248402E-2,-5.397984E-2,-6.773879E-2,2.5986359E-2,9.597307E-2,8.17091E-2,4.280603E-3,-3.038698E-2,-6.922497E-3,-3.949953E-2,7.2720945E-3,-3.144682E-2,-4.385102E-3,1.5062425E-2,3.4670018E-2,7.480881E-3],"categories":[],"categories_nodes":[],"categories_segments":[],"categories_sizes":[],"default_left":[0,0,0,0,0,0,0,0,0,0,0,0,0,0,0,0,0,0,0,0,0,0,0,0,0,0,0,0,0,0,0],"id":14,"left_children":[1,-1,3,5,7,9,11,-1,-1,13,15,17,19,-1,21,-1,23,25,27,29,-1,-1,-1,-1,-1,-1,-1,-1,-1,-1,-1],"loss_changes":[5.85055E-1,0E0,4.8587993E-1,4.422404E-1,7.1459997E-1,3.7876567E-1,2.6071584E-1,0E0,0E0,5.7267857E-1,6.185559E-1,6.582491E-2,1.4319372E-1,0E0,3.8724355E-2,0E0,1.8546334E-1,5.0829917E-2,6.398307E-2,4.878962E-2,0E0,0E0,0E0,0E0,0E0,0E0,0E0,0E0,0E0,0E0,0E0],"parents":[2147483647,0,0,2,2,3,3,4,4,5,5,6,6,9,9,10,10,11,11,12,12,14,14,16,16,17,17,18,18,19,19],"right_children":[2,-1,4,6,8,10,12,-1,-1,14,16,18,20,-1,22,-1,24,26,28,30,-1,-1,-1,-1,-1,-1,-1,-1,-1,-1,-1],"split_conditions":[-3.969E1,-9.808866E-2,5.856E1,6.6538E0,1.287E1,9.22E1,1.58E0,-3.2662638E-2,1.12754956E-1,3.44E0,1E0,-2.344E1,1E1,-1.3714723E-1,2.328E1,7.248402E-2,6.5208E0,1.129E1,-5.4E-1,1.689E1,8.17091E-2,4.280603E-3,-3.038698E-2,-6.922497E-3,-3.949953E-2,7.2720945E-3,-3.144682E-2,-4.385102E-3,1.5062425E-2,3.4670018E-2,7.480881E-3],"split_indices":[5,0,5,0,14,15,5,0,0,5,21,5,0,0,9,0,2,10,18,14,0,0,0,0,0,0,0,0,0,0,0],"split_type":[0,0,0,0,0,0,0,0,0,0,0,0,0,0,0,0,0,0,0,0,0,0,0,0,0,0,0,0,0,0,0],"sum_hessian":[1.71E2,3E0,1.68E2,1.6E2,8E0,8.5E1,7.5E1,3E0,5E0,1E1,7.5E1,5.2E1,2.3E1,3E0,7E0,5E0,7E1,8E0,4.4E1,2E1,3E0,4E0,3E0,5.6E1,1.4E1,3E0,5E0,1.9E1,2.5E1,1.2E1,8E0],"tree_param":{"num_deleted":"0","num_feature":"23","num_nodes":"31","size_leaf_vector":"1"}},{"base_weights":[2.2989917E-3,-7.901502E-2,9.394364E-3,-5.753891E-3,1.5029447E-1,4.506259E-2,-1.2826066E-2,3.4863368E-1,1.0027129E-2,-4.13528E-2,4.0085364E-2,3.1556826E-2,1.2561388E-1,2.2923417E-2,-2.945607E-2,-9.78394E-2,-3.5149015E-3,-4.114711E-2,7.259757E-2,-1.5860328E-2,4.058337E-3,-1.472181E-1,-1.1382543E-2,8.269822E-2,-1.1544056E-2,7.3822844E-3,-3.5170306E-2,1.37076005E-2,3.9498452E-2],"categories":[],"categories_nodes":[],"categories_segments":[],"categories_sizes":[],"default_left":[0,0,0,0,0,0,0,0,0,0,0,0,0,0,0,0,0,0,0,0,0,0,0,0,0,0,0,0,0],"id":15,"left_children":[1,-1,3,5,7,-1,9,11,13,15,17,-1,-1,-1,19,21,23,25,27,-1,-1,-1,-1,-1,-1,-1,-1,-1,-1],"loss_changes":[3.8783327E-1,0E0,3.7341884E-1,2.024247E-1,4.6590224E-1,0E0,2.3254064E-1,1.5494746E-1,3.7248656E-2,2.1248968E-1,1.457569E-1,0E0,0E0,0E0,1.2887144E-2,9.8556507E-1,8.2674986E-1,1.1087095E-1,5.1345572E-2,0E0,0E0,0E0,0E0,0E0,0E0,0E0,0E0,0E0,0E0],"parents":[2147483647,0,0,2,2,3,3,4,4,6,6,7,7,8,8,9,9,10,10,14,14,15,15,16,16,17,17,18,18],"right_children":[2,-1,4,6,8,-1,10,12,14,16,18,-1,-1,-1,20,22,24,26,28,-1,-1,-1,-1,-1,-1,-1,-1,-1,-1],"split_conditions":[-3.969E1,-7.901502E-2,3.042E1,2.4E5,3.121E1,4.506259E-2,6.7447E0,-2.44E0,7.1485E0,8E6,-5E0,3.1556826E-2,1.2561388E-1,2.2923417E-2,2.399E7,1E0,8.798E6,2.86E1,9.8E0,-1.5860328E-2,4.058337E-3,-1.472181E-1,-1.1382543E-2,8.269822E-2,-1.1544056E-2,7.3822844E-3,-3.5170306E-2,1.37076005E-2,3.9498452E-2],"split_indices":[5,0,13,6,13,0,3,5,4,6,5,0,0,0,6,20,6,13,8,0,0,0,0,0,0,0,0,0,0],"split_type":[0,0,0,0,0,0,0,0,0,0,0,0,0,0,0,0,0,0,0,0,0,0,0,0,0,0,0,0,0],"sum_hessian":[1.76E2,3E0,1.73E2,1.57E2,1.6E1,5E0,1.52E2,6E0,1E1,9.9E1,5.3E1,3E0,3E0,3E0,7E0,3.9E1,6E1,1.5E1,3.8E1,4E0,3E0,3E0,3.6E1,6E0,5.4E1,9E0,6E0,3.2E1,6E0],"tree_param":{"num_deleted":"0","num_feature":"23","num_nodes":"29","size_leaf_vector":"1"}},{"base_weights":[-1.9006891E-2,-4.1133508E-2,7.331724E-2,-7.720766E-2,-3.2853216E-2,-4.7378555E-2,1.0642399E-1,5.397627E-2,-6.18382E-2,5.6133427E-2,7.46096E-2,-9.167642E-2,9.001244E-2,-1.2108345E-1,-4.403368E-2,1.3916714E-2,6.77716E-2,-9.082839E-3,-3.1839725E-2,4.3490253E-2,1.6413903E-1,-5.650884E-2,6.691521E-2,-2.3288792E-2,5.258889E-2,3.2713357E-2,2.9971043E-4,2.278379E-2,6.5663025E-2,-2.6759285E-2,-7.877317E-3,-1.0722876E-3,3.6321007E-2,1.9928375E-2,-9.975168E-3],"categories":[],"categories_nodes":[],"categories_segments":[],"categories_sizes":[],"default_left":[0,0,0,0,0,0,0,0,0,0,0,0,0,0,0,0,0,0,0,0,0,0,0,0,0,0,0,0,0,0,0,0,0,0,0],"id":16,"left_children":[1,3,5,-1,7,-1,9,11,13,15,-1,17,19,-1,21,23,-1,-1,-1,25,27,29,31,-1,33,-1,-1,-1,-1,-1,-1,-1,-1,-1,-1],"loss_changes":[3.3766115E-1,2.7182144E-1,2.905777E-1,0E0,3.3046314E-1,0E0,2.4759048E-1,1.8117198E-1,6.863739E-1,2.0320964E-1,0E0,6.906636E-3,8.4278524E-2,0E0,1.3507739E-1,8.887122E-2,0E0,0E0,0E0,6.2183958E-2,4.3462247E-2,1.0121384E-1,5.4146484E-2,0E0,3.9228562E-2,0E0,0E0,0E0,0E0,0E0,0E0,0E0,0E0,0E0,0E0],"parents":[2147483647,0,0,1,1,2,2,4,4,6,6,7,7,8,8,9,9,11,11,12,12,14,14,15,15,19,19,20,20,21,21,22,22,24,24],"right_children":[2,4,6,-1,8,-1,10,12,14,16,-1,18,20,-1,22,24,-1,-1,-1,26,28,30,32,-1,34,-1,-1,-1,-1,-1,-1,-1,-1,-1,-1],"split_conditions":[9.78E0,2.17E5,3.5704E0,-7.720766E-2,1.139E1,-4.7378555E-2,8.4967E0,5.1014E0,1E0,3.007E2,7.46096E-2,7.286E2,9.8E6,-1.2108345E-1,1.914E1,-8.21E-1,6.77716E-2,-9.082839E-3,-3.1839725E-2,6.4021E0,1.697E2,-3.32E0,5.2914E0,-2.3288792E-2,7.8207E0,3.2713357E-2,2.9971043E-4,2.278379E-2,6.5663025E-2,-2.6759285E-2,-7.877317E-3,-1.0722876E-3,3.6321007E-2,1.9928375E-2,-9.975168E-3],"split_indices":[5,7,0,0,10,0,2,0,20,15,0,11,7,0,8,18,0,0,0,4,15,5,0,0,1,0,0,0,0,0,0,0,0,0,0],"split_type":[0,0,0,0,0,0,0,0,0,0,0,0,0,0,0,0,0,0,0,0,0,0,0,0,0,0,0,0,0,0,0,0,0,0,0],"sum_hessian":[1.63E2,1.32E2,3.1E1,3E0,1.29E2,3E0,2.8E1,3.2E1,9.7E1,2.3E1,5E0,6E0,2.6E1,3E0,9.4E1,2E1,3E0,3E0,3E0,1.7E1,9E0,8.5E1,9E0,5E0,1.5E1,5E0,1.2E1,6E0,3E0,2.9E1,5.6E1,5E0,4E0,1.2E1,3E0],"tree_param":{"num_deleted":"0","num_feature":"23","num_nodes":"35","size_leaf_vector":"1"}},{"base_weights":[-5.609449E-3,7.1858396E-3,-1.5862095E-1,3.100006E-2,-3.4156032E-2,-5.2687015E-2,-8.170131E-2,1.3331285E-1,1.045138E-2,4.054794E-2,-8.9982465E-2,9.517428E-3,-2.7110642E-2,-1.2855221E-2,4.9904462E-2,1.1232796E-1,-0E0,-1.12928644E-1,-4.058818E-2,-3.0353071E-2,9.083567E-2,3.1019928E-2,4.952071E-2,5.2581728E-3,5.692632E-2,-1.108216E-2,2.1796087E-2,-1.5154055E-1,-6.2805302E-3,7.0240407E-4,-2.966591E-2,3.6257517E-2,-1.0571913E-3,2.6718373E-3,2.716578E-2,-7.615693E-3,1.112048E-2,-1.9251889E-2,-4.875337E-2,5.9763067E-3,-2.5833346E-2],"categories":[],"categories_nodes":[],"categories_segments":[],"categories_sizes":[],"default_left":[0,0,0,0,0,0,0,0,0,0,0,0,0,0,0,0,0,0,0,0,0,0,0,0,0,0,0,0,0,0,0,0,0,0,0,0,0,0,0,0,0],"id":17,"left_children":[1,3,5,7,9,11,-1,-1,13,15,17,-1,-1,19,21,23,25,-1,27,29,31,33,-1,-1,-1,-1,35,37,39,-1,-1,-1,-1,-1,-1,-1,-1,-1,-1,-1,-1],"loss_changes":[3.2932356E-1,1.535916E-1,1.9790757E-1,9.783209E-1,2.4162637E-1,4.654248E-2,0E0,0E0,8.9198954E-2,7.223114E-2,5.4510343E-1,0E0,0E0,1.1282524E-1,8.8799894E-2,8.3003335E-2,1.6728185E-2,0E0,1.11841254E-1,1.4960645E-1,4.4115618E-2,4.8572E-2,0E0,0E0,0E0,0E0,1.446691E-2,4.0448904E-3,6.921622E-2,0E0,0E0,0E0,0E0,0E0,0E0,0E0,0E0,0E0,0E0,0E0,0E0],"parents":[2147483647,0,0,1,1,2,2,3,3,4,4,5,5,8,8,9,9,10,10,13,13,14,14,15,15,16,16,18,18,19,19,20,20,21,21,26,26,27,27,28,28],"right_children":[2,4,6,8,10,12,-1,-1,14,16,18,-1,-1,20,22,24,26,-1,28,30,32,34,-1,-1,-1,-1,36,38,40,-1,-1,-1,-1,-1,-1,-1,-1,-1,-1,-1,-1],"split_conditions":[4.11E2,1.277E1,7.14E0,1E0,-2.35E-1,4.848E2,-8.170131E-2,1.3331285E-1,6.8684E0,6E0,2E0,9.517428E-3,-2.7110642E-2,8.68E-1,2.069E1,-1.75E0,-1.61E-1,-1.12928644E-1,-3.32E0,6.5352E0,-7.2E-1,6.26E0,4.952071E-2,5.2581728E-3,5.692632E-2,-1.108216E-2,4.6901E0,9E0,1.85E1,7.0240407E-4,-2.966591E-2,3.6257517E-2,-1.0571913E-3,2.6718373E-3,2.716578E-2,-7.615693E-3,1.112048E-2,-1.9251889E-2,-4.875337E-2,5.9763067E-3,-2.5833346E-2],"split_indices":[15,10,8,20,16,15,0,0,0,20,20,0,0,19,5,5,17,0,5,4,16,8,0,0,0,0,4,20,14,0,0,0,0,0,0,0,0,0,0,0,0],"split_type":[0,0,0,0,0,0,0,0,0,0,0,0,0,0,0,0,0,0,0,0,0,0,0,0,0,0,0,0,0,0,0,0,0,0,0,0,0,0,0,0,0],"sum_hessian":[1.66E2,1.54E2,1.2E1,9.8E1,5.6E1,8E0,4E0,3E0,9.5E1,2.4E1,3.2E1,3E0,5E0,6E1,3.5E1,8E0,1.6E1,3E0,2.9E1,5.2E1,8E0,3.2E1,3E0,5E0,3E0,5E0,1.1E1,6E0,2.3E1,3.8E1,1.4E1,5E0,3E0,2.6E1,6E0,3E0,8E0,3E0,3E0,1.8E1,5E0],"tree_param":{"num_deleted":"0","num_feature":"23","num_nodes":"41","size_leaf_vector":"1"}},{"base_weights":[-4.316943E-4,-9.4778E-3,1.4921066E-1,4.482815E-2,-1.3948022E-2,-2.2950089E-2,2.652945E-1,-2.7165513E-2,5.0472274E-2,1.0079903E-1,1.866882E-2,-1.9371173E-1,-1.7952075E-2,1.04797654E-1,-2.9943492E-2,-9.079813E-2,2.610322E-3,-3.3197094E-2,8.602834E-3,5.67308E-2,5.3591445E-2,5.0745816E-3,-5.8297537E-2,2.6539864E-4,-2.2719534E-2,1.0976122E-2,-5.5258097E-3,2.6426716E-2,8.274297E-3,9.7452794E-5,-2.4616567E-2],"categories":[],"categories_nodes":[],"categories_segments":[],"categories_sizes":[],"default_left":[0,0,0,0,0,0,0,0,0,0,0,0,0,0,0,0,0,0,0,0,0,0,0,0,0,0,0,0,0,0,0],"id":18,"left_children":[1,3,5,-1,7,-1,9,11,13,-1,-1,15,17,19,21,-1,-1,23,25,27,-1,-1,29,-1,-1,-1,-1,-1,-1,-1,-1],"loss_changes":[2.3706168E-1,1.369889E-1,3.0055165E-1,0E0,1.3991767E-1,0E0,1.3730422E-1,2.0344621E-1,1.2594393E-1,0E0,0E0,2.3159164E-1,5.3108923E-2,7.023378E-2,1.8305684E-2,0E0,0E0,1.5669337E-1,4.9978618E-2,1.0264449E-2,0E0,0E0,1.8231405E-2,0E0,0E0,0E0,0E0,0E0,0E0,0E0,0E0],"parents":[2147483647,0,0,1,1,2,2,4,4,6,6,7,7,8,8,11,11,12,12,13,13,14,14,17,17,18,18,19,19,22,22],"right_children":[2,4,6,-1,8,-1,10,12,14,-1,-1,16,18,20,22,-1,-1,24,26,28,-1,-1,30,-1,-1,-1,-1,-1,-1,-1,-1],"split_conditions":[5.338E1,1.81E5,1.287E1,4.482815E-2,4.21E0,-2.2950089E-2,-8.9E-1,1E0,7.01E0,1.0079903E-1,1.866882E-2,8E0,6.6248E0,-2.21E-1,1.788E1,-9.079813E-2,2.610322E-3,5.5702E0,2.355E1,6E0,5.3591445E-2,5.0745816E-3,4.65E0,2.6539864E-4,-2.2719534E-2,1.0976122E-2,-5.5258097E-3,2.6426716E-2,8.274297E-3,9.7452794E-5,-2.4616567E-2],"split_indices":[5,6,14,0,12,0,8,20,8,0,0,22,3,17,10,0,0,4,9,20,0,0,12,0,0,0,0,0,0,0,0],"split_type":[0,0,0,0,0,0,0,0,0,0,0,0,0,0,0,0,0,0,0,0,0,0,0,0,0,0,0,0,0,0,0],"sum_hessian":[1.74E2,1.65E2,9E0,3E0,1.62E2,3E0,6E0,1.35E2,2.7E1,3E0,3E0,6E0,1.29E2,1.6E1,1.1E1,3E0,3E0,8.2E1,4.7E1,1.2E1,4E0,4E0,7E0,5.1E1,3.1E1,2.2E1,2.5E1,3E0,9E0,3E0,4E0],"tree_param":{"num_deleted":"0","num_feature":"23","num_nodes":"31","size_leaf_vector":"1"}},{"base_weights":[-1.4467569E-3,-6.6414155E-2,4.5407866E-3,-4.1283786E-2,1.7314509E-2,3.4615476E-2,-6.042087E-2,4.5932118E-2,9.604583E-3,-7.5868703E-4,1.5355965E-2,-3.598903E-2,-4.265353E-2,-4.2357095E-2,2.6024956E-2,-6.3562654E-2,-2.0376504E-3,-6.9458954E-2,-8.294728E-3,2.1971016E-1,1.0957901E-2,-5.87283E-3,-2.1422423E-2,6.093572E-3,-1.2557317E-2,-1.18599E-2,1.1629219E-2,1.4401947E-1,-4.4069897E-2,1.1833503E-3,3.8319536E-2],"categories":[],"categories_nodes":[],"categories_segments":[],"categories_sizes":[],"default_left":[0,0,0,0,0,0,0,0,0,0,0,0,0,0,0,0,0,0,0,0,0,0,0,0,0,0,0,0,0,0,0],"id":19,"left_children":[1,-1,3,5,7,9,11,-1,13,-1,-1,-1,15,17,19,21,23,-1,25,27,29,-1,-1,-1,-1,-1,-1,-1,-1,-1,-1],"loss_changes":[2.669352E-1,0E0,9.9408366E-2,5.598125E-2,1.615388E-1,8.12038E-3,3.475111E-2,0E0,1.1013684E-1,0E0,0E0,0E0,2.1377359E-2,2.3489848E-1,2.816073E-1,1.0744266E-2,1.3284711E-2,0E0,5.8317367E-2,1.0197849E0,7.865187E-2,0E0,0E0,0E0,0E0,0E0,0E0,0E0,0E0,0E0,0E0],"parents":[2147483647,0,0,2,2,3,3,4,4,5,5,6,6,8,8,12,12,13,13,14,14,15,15,16,16,18,18,19,19,20,20],"right_children":[2,-1,4,6,8,10,12,-1,14,-1,-1,-1,16,18,20,22,24,-1,26,28,30,-1,-1,-1,-1,-1,-1,-1,-1,-1,-1],"split_conditions":[-3.807E1,-6.6414155E-2,4.785E0,-9.17E-1,1.89E1,-5.48E-1,3.06E5,4.5932118E-2,2.625E1,-7.5868703E-4,1.5355965E-2,-3.598903E-2,7.13E0,1E0,1E0,-2.05E-1,7.586E2,-6.9458954E-2,9.9E-1,2.817E1,3.9629E7,-5.87283E-3,-2.1422423E-2,6.093572E-3,-1.2557317E-2,-1.18599E-2,1.1629219E-2,1.4401947E-1,-4.4069897E-2,1.1833503E-3,3.8319536E-2],"split_indices":[5,0,0,19,9,17,7,0,13,0,0,0,5,20,20,16,11,0,8,13,7,0,0,0,0,0,0,0,0,0,0],"split_type":[0,0,0,0,0,0,0,0,0,0,0,0,0,0,0,0,0,0,0,0,0,0,0,0,0,0,0,0,0,0,0],"sum_hessian":[1.71E2,3E0,1.68E2,3.6E1,1.32E2,7E0,2.9E1,5E0,1.27E2,3E0,4E0,4E0,2.5E1,3E1,9.7E1,1.6E1,9E0,3E0,2.7E1,6E0,9.1E1,6E0,1E1,6E0,3E0,1.6E1,1.1E1,3E0,3E0,8.8E1,3E0],"tree_param":{"num_deleted":"0","num_feature":"23","num_nodes":"31","size_leaf_vector":"1"}},{"base_weights":[-3.8246259E-3,-1.2908596E-1,6.825083E-3,-7.04729E-2,-4.3649215E-2,1.21685885E-1,1.1516526E-4,6.7396513E-3,-7.8528464E-2,-5.595246E-2,8.474227E-2,-3.918888E-2,1.45383645E-2,-2.8942674E-2,-6.0317162E-3,1.6921002E-2,-5.5261925E-2,6.575823E-2,-7.657047E-3,-4.765576E-3,1.16205765E-2,-3.816608E-2,-4.0867E-2,2.753105E-2,1.2064405E-1,-1.4167978E-2,3.0868178E-2,-1.7922796E-2,-2.8386356E-3,1.3032332E-2,-1.5267858E-2,3.71283E-2,6.331117E-3,2.4744908E-3,-1.2157801E-2],"categories":[],"categories_nodes":[],"categories_segments":[],"categories_sizes":[],"default_left":[0,0,0,0,0,0,0,0,0,0,0,0,0,0,0,0,0,0,0,0,0,0,0,0,0,0,0,0,0,0,0,0,0,0,0],"id":20,"left_children":[1,3,5,-1,7,9,11,-1,13,-1,-1,15,17,-1,-1,19,21,23,25,-1,-1,-1,27,29,31,33,-1,-1,-1,-1,-1,-1,-1,-1,-1],"loss_changes":[2.379947E-1,1.5774971E-1,1.2532897E-1,0E0,2.6744395E-2,6.9964194E-1,8.877147E-2,0E0,9.235889E-3,0E0,0E0,3.910221E-2,1.3170227E-1,0E0,0E0,1.0977804E-2,3.647528E-2,6.887591E-2,6.7894444E-2,0E0,0E0,0E0,2.4183117E-2,4.6679676E-2,2.6395753E-2,6.1841384E-2,0E0,0E0,0E0,0E0,0E0,0E0,0E0,0E0,0E0],"parents":[2147483647,0,0,1,1,2,2,4,4,5,5,6,6,8,8,11,11,12,12,15,15,16,16,17,17,18,18,22,22,23,23,24,24,25,25],"right_children":[2,4,6,-1,8,10,12,-1,14,-1,-1,16,18,-1,-1,20,22,24,26,-1,-1,-1,28,30,32,34,-1,-1,-1,-1,-1,-1,-1,-1,-1],"split_conditions":[-2.344E1,5E0,1E0,-7.04729E-2,9.82E1,3E0,4.8951E0,6.7396513E-3,6.438E2,-5.595246E-2,8.474227E-2,-8.07E-1,6.4194E0,-2.8942674E-2,-6.0317162E-3,-5.48E-1,3.06E5,5.98E0,4.1228E7,-4.765576E-3,1.16205765E-2,-3.816608E-2,3.3E-1,2.89E2,6.3158E0,1.3E1,3.0868178E-2,-1.7922796E-2,-2.8386356E-3,1.3032332E-2,-1.5267858E-2,3.71283E-2,6.331117E-3,2.4744908E-3,-1.2157801E-2],"split_indices":[5,20,20,0,15,22,0,0,11,0,0,19,1,0,0,17,7,0,6,0,0,0,5,15,1,20,0,0,0,0,0,0,0,0,0],"split_type":[0,0,0,0,0,0,0,0,0,0,0,0,0,0,0,0,0,0,0,0,0,0,0,0,0,0,0,0,0,0,0,0,0,0,0],"sum_hessian":[1.76E2,1.3E1,1.63E2,4E0,9E0,8E0,1.55E2,3E0,6E0,3E0,5E0,4.1E1,1.14E2,3E0,3E0,9E0,3.2E1,3.4E1,8E1,4E0,5E0,3E0,2.9E1,2.1E1,1.3E1,7.7E1,3E0,1.4E1,1.5E1,1.7E1,4E0,1E1,3E0,4.5E1,3.2E1],"tree_param":{"num_deleted":"0","num_feature":"23","num_nodes":"35","size_leaf_vector":"1"}},{"base_weights":[3.6966049E-3,-5.7235874E-2,9.167806E-3,2.1692903E-3,1.1679985E-1,1.1446151E-1,-3.802378E-3,-1.4431437E-2,2.0012298E-1,-4.507232E-2,8.37752E-2,7.075331E-2,-8.026359E-3,7.536658E-2,1.46175E-2,8.793205E-3,2.1777498E-2,4.84909E-3,-3.6087655E-2,-1.26631865E-2,4.1445456E-3,-1.7206615E-2,2.2826814E-3],"categories":[],"categories_nodes":[],"categories_segments":[],"categories_sizes":[],"default_left":[0,0,0,0,0,0,0,0,0,0,0,0,0,0,0,0,0,0,0,0,0,0,0],"id":21,"left_children":[1,-1,3,5,7,9,11,-1,13,-1,-1,15,17,-1,-1,-1,-1,19,21,-1,-1,-1,-1],"loss_changes":[2.075042E-1,0E0,1.2301175E-1,1.05964474E-1,1.5584065E-1,5.421989E-1,4.6938956E-2,0E0,7.297757E-2,0E0,0E0,1.7122179E-4,5.1734995E-2,0E0,0E0,0E0,0E0,5.97805E-2,6.295692E-2,0E0,0E0,0E0,0E0],"parents":[2147483647,0,0,2,2,3,3,4,4,5,5,6,6,8,8,11,11,12,12,17,17,18,18],"right_children":[2,-1,4,6,8,10,12,-1,14,-1,-1,16,18,-1,-1,-1,-1,20,22,-1,-1,-1,-1],"split_conditions":[2.17E5,-5.7235874E-2,5.338E1,1E0,1.287E1,2.112E1,1.195E1,-1.4431437E-2,-8.9E-1,-4.507232E-2,8.37752E-2,8.48E1,1.55E7,7.536658E-2,1.46175E-2,8.793205E-3,2.1777498E-2,4.6674E0,-1.3E-2,-1.26631865E-2,4.1445456E-3,-1.7206615E-2,2.2826814E-3],"split_indices":[7,0,5,20,14,9,14,0,8,0,0,15,6,0,0,0,0,0,18,0,0,0,0],"split_type":[0,0,0,0,0,0,0,0,0,0,0,0,0,0,0,0,0,0,0,0,0,0,0],"sum_hessian":[1.67E2,3E0,1.64E2,1.55E2,9E0,7E0,1.48E2,3E0,6E0,3E0,4E0,7E0,1.41E2,3E0,3E0,3E0,4E0,9.7E1,4.4E1,1.6E1,8.1E1,2.6E1,1.8E1],"tree_param":{"num_deleted":"0","num_feature":"23","num_nodes":"23","size_leaf_vector":"1"}},{"base_weights":[7.908712E-3,9.163312E-4,9.076589E-2,-4.093007E-2,1.1121526E-2,5.7050105E-2,1.5934922E-2,-1.8158856E-1,-2.7398823E-3,1.5447314E-1,2.102238E-3,1.16069075E-2,-5.258923E-3,-7.884183E-2,-2.7572252E-3,3.762935E-2,-3.810867E-2,-3.630783E-2,9.330971E-2,-2.6521971E-2,5.467883E-3,8.8245265E-2,-1.7047647E-2,-2.8455574E-2,-1.0294655E-2,2.9877642E-2,-1.086859E-2,2.966135E-2,9.7089475E-3,-8.989344E-3,7.2484335E-4,2.6725214E-3,-1.4576084E-2,3.3440988E-3,1.6120734E-2,4.5377642E-4,-1.8817363E-2],"categories":[],"categories_nodes":[],"categories_segments":[],"categories_sizes":[],"default_left":[0,0,0,0,0,0,0,0,0,0,0,0,0,0,0,0,0,0,0,0,0,0,0,0,0,0,0,0,0,0,0,0,0,0,0,0,0],"id":22,"left_children":[1,3,5,7,9,-1,11,13,15,17,19,-1,-1,-1,-1,21,23,-1,-1,-1,25,27,29,-1,31,33,35,-1,-1,-1,-1,-1,-1,-1,-1,-1,-1],"loss_changes":[1.03991576E-1,7.1927845E-2,1.3094224E-1,1.7510164E-1,1.741603E-1,0E0,1.1642715E-2,1.4208488E-1,3.9930664E-2,5.400334E-1,4.5267534E-2,0E0,0E0,0E0,0E0,3.8001604E-2,2.7944222E-2,0E0,0E0,0E0,5.071684E-2,3.9062947E-3,2.83611E-3,0E0,1.2401598E-2,2.6688214E-2,6.0295966E-2,0E0,0E0,0E0,0E0,0E0,0E0,0E0,0E0,0E0,0E0],"parents":[2147483647,0,0,1,1,2,2,3,3,4,4,6,6,7,7,8,8,9,9,10,10,15,15,16,16,20,20,21,21,22,22,24,24,25,25,26,26],"right_children":[2,4,6,8,10,-1,12,14,16,18,20,-1,-1,-1,-1,22,24,-1,-1,-1,26,28,30,-1,32,34,36,-1,-1,-1,-1,-1,-1,-1,-1,-1,-1],"split_conditions":[3.063E1,-7.54E-1,3.121E1,5E0,1E0,5.7050105E-2,5.368E2,4.5E-1,1.2E1,3E0,9.03E0,1.16069075E-2,-5.258923E-3,-7.884183E-2,-2.7572252E-3,3.8E0,-2.57E-1,-3.630783E-2,9.330971E-2,-2.6521971E-2,1.213E1,6.4815E0,2.272E1,-2.8455574E-2,1.327E1,5.61E-1,1.65E7,2.966135E-2,9.7089475E-3,-8.989344E-3,7.2484335E-4,2.6725214E-3,-1.4576084E-2,3.3440988E-3,1.6120734E-2,4.5377642E-4,-1.8817363E-2],"split_indices":[13,17,13,20,20,0,11,5,20,22,10,0,0,0,0,12,16,0,0,0,10,2,9,0,10,17,7,0,0,0,0,0,0,0,0,0,0],"split_type":[0,0,0,0,0,0,0,0,0,0,0,0,0,0,0,0,0,0,0,0,0,0,0,0,0,0,0,0,0,0,0,0,0,0,0,0,0],"sum_hessian":[1.8E2,1.67E2,1.3E1,3.2E1,1.35E2,4E0,9E0,6E0,2.6E1,7E0,1.28E2,5E0,4E0,3E0,3E0,1.2E1,1.4E1,3E0,4E0,3E0,1.25E2,6E0,6E0,3E0,1.1E1,5E1,7.5E1,3E0,3E0,3E0,3E0,8E0,3E0,3.4E1,1.6E1,6.3E1,1.2E1],"tree_param":{"num_deleted":"0","num_feature":"23","num_nodes":"37","size_leaf_vector":"1"}},{"base_weights":[-1.5169906E-3,-4.942435E-2,1.629254E-2,-1.882177E-2,-1.7592657E-1,1.0269769E-2,4.0990595E-2,-4.197812E-2,4.979121E-2,8.975342E-3,-7.448845E-2,7.0686406E-3,2.613192E-2,-4.021403E-2,-1.8387053E-2,-6.239425E-3,2.8515507E-2,-3.2132607E-2,1.2838253E-2,-1.2633146E-2,2.1443298E-2,4.5524217E-2,-0E0,-1.5238082E-2,1.3434509E-3,-6.9714882E-3,9.024815E-3,-7.1621914E-3,2.1101993E-3,8.643935E-6,1.6112389E-2,-4.6590725E-3,6.1474727E-3],"categories":[],"categories_nodes":[],"categories_segments":[],"categories_sizes":[],"default_left":[0,0,0,0,0,0,0,0,0,0,0,0,0,0,0,0,0,0,0,0,0,0,0,0,0,0,0,0,0,0,0,0,0],"id":23,"left_children":[1,3,5,7,9,11,-1,13,-1,-1,-1,15,-1,-1,17,19,21,23,25,27,-1,29,31,-1,-1,-1,-1,-1,-1,-1,-1,-1,-1],"loss_changes":[1.4780538E-1,1.7696932E-1,1.05170175E-1,1.9787115E-1,2.2553083E-1,3.3922613E-2,0E0,9.240288E-2,0E0,0E0,0E0,3.432276E-2,0E0,0E0,1.3865202E-2,4.2700388E-2,2.2671353E-2,2.2871858E-2,9.805548E-3,2.2430744E-2,0E0,2.1796443E-2,8.114082E-3,0E0,0E0,0E0,0E0,0E0,0E0,0E0,0E0,0E0,0E0],"parents":[2147483647,0,0,1,1,2,2,3,3,4,4,5,5,7,7,11,11,14,14,15,15,16,16,17,17,18,18,19,19,21,21,22,22],"right_children":[2,4,6,8,10,12,-1,14,-1,-1,-1,16,-1,-1,18,20,22,24,26,28,-1,30,32,-1,-1,-1,-1,-1,-1,-1,-1,-1,-1],"split_conditions":[5E0,9.1E-2,7.689E1,4.101E2,6.4259E0,1.20249E1,4.0990595E-2,1E0,4.979121E-2,8.975342E-3,-7.448845E-2,2.045E2,2.613192E-2,-4.021403E-2,3.78E-1,2.5E1,7.382E2,-3.67E-1,-5.1E-2,3.97E0,2.1443298E-2,-8.87E-1,1.43E0,-1.5238082E-2,1.3434509E-3,-6.9714882E-3,9.024815E-3,-7.1621914E-3,2.1101993E-3,8.643935E-6,1.6112389E-2,-4.6590725E-3,6.1474727E-3],"split_indices":[21,16,5,15,2,1,0,20,0,0,0,15,0,0,17,8,11,16,19,12,0,16,5,0,0,0,0,0,0,0,0,0,0],"split_type":[0,0,0,0,0,0,0,0,0,0,0,0,0,0,0,0,0,0,0,0,0,0,0,0,0,0,0,0,0,0,0,0,0],"sum_hessian":[1.71E2,4.6E1,1.25E2,3.8E1,8E0,1.21E2,4E0,3.5E1,3E0,3E0,5E0,1.18E2,3E0,5E0,3E1,7.3E1,4.5E1,2.1E1,9E0,6.9E1,4E0,2.8E1,1.7E1,1.2E1,9E0,3E0,6E0,4E1,2.9E1,8E0,2E1,1E1,7E0],"tree_param":{"num_deleted":"0","num_feature":"23","num_nodes":"33","size_leaf_vector":"1"}},{"base_weights":[5.727552E-4,3.9532757E-3,-3.76776E-2,3.326363E-2,9.887046E-4,-7.8237824E-2,5.3732344E-3,2.544041E-3,-4.9912058E-2,3.2302333E-4,1.0299674E-1,1.2790762E-2,-2.6449097E-2,5.013324E-3,4.6446837E-2,5.440032E-2,2.7942067E-4,-5.4055203E-2,-2.6324484E-3],"categories":[],"categories_nodes":[],"categories_segments":[],"categories_sizes":[],"default_left":[0,0,0,0,0,0,0,0,0,0,0,0,0,0,0,0,0,0,0],"id":24,"left_children":[1,3,-1,-1,5,7,9,-1,-1,11,13,15,17,-1,-1,-1,-1,-1,-1],"loss_changes":[8.7582216E-2,6.361106E-2,0E0,0E0,5.9531927E-2,9.4614685E-2,7.993247E-2,0E0,0E0,5.261296E-2,4.625848E-2,2.4840891E-1,1.4469117E-1,0E0,0E0,0E0,0E0,0E0,0E0],"parents":[2147483647,0,0,1,1,4,4,5,5,6,6,9,9,10,10,11,11,12,12],"right_children":[2,4,-1,-1,6,8,10,-1,-1,12,14,16,18,-1,-1,-1,-1,-1,-1],"split_conditions":[8.765E1,-1.727E0,-3.76776E-2,3.326363E-2,9.3E0,-6.36E0,5.338E1,2.544041E-3,-4.9912058E-2,2.84E1,6.3757E0,1E0,1E0,5.013324E-3,4.6446837E-2,5.440032E-2,2.7942067E-4,-5.4055203E-2,-2.6324484E-3],"split_indices":[8,16,0,0,10,5,5,0,0,13,4,20,20,0,0,0,0,0,0],"split_type":[0,0,0,0,0,0,0,0,0,0,0,0,0,0,0,0,0,0,0],"sum_hessian":[1.77E2,1.74E2,3E0,3E0,1.71E2,8E0,1.63E2,5E0,3E0,1.56E2,7E0,1.07E2,4.9E1,4E0,3E0,5E0,1.02E2,3E0,4.6E1],"tree_param":{"num_deleted":"0","num_feature":"23","num_nodes":"19","size_leaf_vector":"1"}},{"base_weights":[3.7255362E-3,-4.1762102E-2,7.564114E-3,8.632928E-2,2.673419E-3,2.1407647E-1,-4.0454097E-2,5.74225E-3,-2.010223E-2,-1.358006E-2,1.10980935E-1,2.6076538E-2,-5.7902685E-3,-1.468075E-2,3.721162E-2,-1.4593482E-2,5.0038215E-2,7.505569E-3,-8.13848E-3,1.6921658E-2,5.8058435E-3,-5.9168423E-3,6.293956E-3,-0E0,2.596717E-2],"categories":[],"categories_nodes":[],"categories_segments":[],"categories_sizes":[],"default_left":[0,0,0,0,0,0,0,0,0,0,0,0,0,0,0,0,0,0,0,0,0,0,0,0,0],"id":25,"left_children":[1,-1,3,5,7,9,-1,11,-1,-1,-1,13,15,17,19,21,23,-1,-1,-1,-1,-1,-1,-1,-1],"loss_changes":[1.1176713E-1,0E0,6.56504E-2,3.4337234E-1,4.038561E-2,4.2782485E-1,0E0,3.7602313E-2,0E0,0E0,0E0,2.7040295E-2,5.053337E-2,1.0506012E-2,1.6996391E-2,2.9488E-2,3.5728678E-2,0E0,0E0,0E0,0E0,0E0,0E0,0E0,0E0],"parents":[2147483647,0,0,2,2,3,3,4,4,5,5,7,7,11,11,12,12,13,13,14,14,15,15,16,16],"right_children":[2,-1,4,6,8,10,-1,12,-1,-1,-1,14,16,18,20,22,24,-1,-1,-1,-1,-1,-1,-1,-1],"split_conditions":[2.17E5,-4.1762102E-2,1E0,8.798E6,5.414E2,5.17E2,-4.0454097E-2,1.211E1,-2.010223E-2,-1.358006E-2,1.10980935E-1,4.9349E0,1.818E1,1.851E1,6.3852E0,1.8E1,5.2914E0,7.505569E-3,-8.13848E-3,1.6921658E-2,5.8058435E-3,-5.9168423E-3,6.293956E-3,-0E0,2.596717E-2],"split_indices":[7,0,20,6,15,11,0,10,0,0,0,0,8,9,4,20,0,0,0,0,0,0,0,0,0],"split_type":[0,0,0,0,0,0,0,0,0,0,0,0,0,0,0,0,0,0,0,0,0,0,0,0,0],"sum_hessian":[1.75E2,3E0,1.72E2,9E0,1.63E2,6E0,3E0,1.58E2,5E0,3E0,3E0,5.7E1,1.01E2,1.2E1,4.5E1,8.8E1,1.3E1,3E0,9E0,1.4E1,3.1E1,7.3E1,1.5E1,7E0,6E0],"tree_param":{"num_deleted":"0","num_feature":"23","num_nodes":"25","size_leaf_vector":"1"}},{"base_weights":[4.300054E-3,-4.378847E-2,8.550473E-3,-1.9735748E-2,2.5576275E-2,-3.139753E-2,1.5226401E-2,6.339035E-2,1.4160396E-2,-5.5652154E-3,-8.564886E-2,4.4809878E-2,-1.4762037E-2,4.8226275E-2,6.7622988E-3,-2.7238466E-2,1.1378811E-2,-3.7492167E-2,-5.349581E-2,-4.1071675E-3,2.0191196E-2,-3.0206144E-3,4.7056098E-2,-9.265912E-3,8.9350535E-4,9.983277E-3,-1.2810253E-4,2.3892002E-4,-1.7118672E-2,-4.074649E-3,5.8860397E-3,1.8989032E-2,8.749216E-5],"categories":[],"categories_nodes":[],"categories_segments":[],"categories_sizes":[],"default_left":[0,0,0,0,0,0,0,0,0,0,0,0,0,0,0,0,0,0,0,0,0,0,0,0,0,0,0,0,0,0,0,0,0],"id":26,"left_children":[1,-1,3,5,7,9,11,-1,13,15,17,19,-1,-1,21,23,25,27,-1,-1,-1,29,31,-1,-1,-1,-1,-1,-1,-1,-1,-1,-1],"loss_changes":[1.2358203E-1,0E0,7.95161E-2,2.5876464E-2,2.5321043E-1,6.459512E-2,3.6658097E-2,0E0,1.2364575E-1,1.2549891E-2,7.8116365E-2,2.6100066E-2,0E0,0E0,3.83486E-2,4.3917093E-3,6.5027517E-3,1.3905676E-2,0E0,0E0,0E0,2.6035357E-2,2.2894781E-2,0E0,0E0,0E0,0E0,0E0,0E0,0E0,0E0,0E0,0E0],"parents":[2147483647,0,0,2,2,3,3,4,4,5,5,6,6,8,8,9,9,10,10,11,11,14,14,15,15,16,16,17,17,21,21,22,22],"right_children":[2,-1,4,6,8,10,12,-1,14,16,18,20,-1,-1,22,24,26,28,-1,-1,-1,30,32,-1,-1,-1,-1,-1,-1,-1,-1,-1,-1],"split_conditions":[2.19E5,-4.378847E-2,2.625E1,3.886E2,1E0,5.98E0,5.414E2,6.339035E-2,4.3973E0,1E1,6.4219E0,-5.25E0,-1.4762037E-2,4.8226275E-2,9.78E0,2.617E2,-7.55E-1,1.63E2,-5.349581E-2,-4.1071675E-3,2.0191196E-2,1.751E2,-3E-3,-9.265912E-3,8.9350535E-4,9.983277E-3,-1.2810253E-4,2.3892002E-4,-1.7118672E-2,-4.074649E-3,5.8860397E-3,1.8989032E-2,8.749216E-5],"split_indices":[7,0,13,15,20,1,15,0,0,20,0,5,0,0,5,15,19,15,0,0,0,15,16,0,0,0,0,0,0,0,0,0,0],"split_type":[0,0,0,0,0,0,0,0,0,0,0,0,0,0,0,0,0,0,0,0,0,0,0,0,0,0,0,0,0,0,0,0,0],"sum_hessian":[1.66E2,3E0,1.63E2,6.1E1,1.02E2,4.6E1,1.5E1,4E0,9.8E1,3.2E1,1.4E1,1.1E1,4E0,3E0,9.5E1,1.4E1,1.8E1,1.1E1,3E0,4E0,7E0,7.7E1,1.8E1,1.1E1,3E0,5E0,1.3E1,5E0,6E0,5.2E1,2.5E1,1.1E1,7E0],"tree_param":{"num_deleted":"0","num_feature":"23","num_nodes":"33","size_leaf_vector":"1"}},{"base_weights":[3.5349182E-3,-1.3932666E-2,2.5489818E-2,1.1495169E-2,-4.892977E-2,6.572237E-2,9.6603865E-3,7.9292074E-2,-1.1659084E-2,-7.580485E-2,-7.795568E-3,2.4468275E-2,1.2182894E-1,2.6984734E-3,2.1027364E-2,-4.6826066E-3,8.117626E-2,6.702138E-3,-5.2140858E-2,1.5439958E-2,-2.0472847E-2,4.345856E-2,-8.204851E-3,4.694896E-2,1.5578753E-2,1.4446903E-2,-3.132047E-2,7.684584E-3,-3.4780186E-2,-3.7699886E-2,2.1559067E-2,-3.0721199E-2,-9.168642E-4,-8.291829E-3,-6.171932E-2,2.3472814E-3,1.5645146E-2,5.532587E-2,-2.2307648E-4,-7.5055666E-2,9.711508E-3,-1.1252481E-2,-3.930071E-3,1.3594662E-3,-1.7111046E-2,1.1474069E-2,3.702775E-4,-1.3793847E-2,8.45763E-3,-1.23925805E-2,1.438026E-3,-5.960814E-3,-2.1409074E-2,5.6589358E-3,2.0178197E-2,-6.220932E-3,4.0446306E-3,-8.715442E-3,-2.4687847E-2,-9.666942E-4,5.228072E-3],"categories":[],"categories_nodes":[],"categories_segments":[],"categories_sizes":[],"default_left":[0,0,0,0,0,0,0,0,0,0,0,0,0,0,0,0,0,0,0,0,0,0,0,0,0,0,0,0,0,0,0,0,0,0,0,0,0,0,0,0,0,0,0,0,0,0,0,0,0,0,0,0,0,0,0,0,0,0,0,0,0],"id":27,"left_children":[1,3,5,7,9,11,13,15,17,-1,19,21,23,25,-1,27,-1,29,31,-1,33,35,-1,-1,-1,37,39,-1,41,43,45,-1,47,49,51,-1,-1,53,55,57,59,-1,-1,-1,-1,-1,-1,-1,-1,-1,-1,-1,-1,-1,-1,-1,-1,-1,-1,-1,-1],"loss_changes":[6.831787E-2,8.8951886E-2,4.903479E-2,9.2497356E-2,4.181563E-1,4.670828E-2,2.8072154E-2,3.0020332E-1,3.3419196E-2,0E0,3.2580335E-2,1.6393438E-2,2.0365313E-2,2.187353E-2,0E0,1.3487245E-2,0E0,2.1095295E-2,4.681797E-2,0E0,1.4969656E-2,5.3513385E-3,0E0,0E0,0E0,2.505666E-2,2.635765E-2,0E0,5.381275E-5,1.0681111E-2,1.0607848E-2,0E0,1.7800825E-2,1.4944342E-2,2.951501E-3,0E0,0E0,5.860269E-3,1.2214013E-2,1.6778E-3,1.3488524E-3,0E0,0E0,0E0,0E0,0E0,0E0,0E0,0E0,0E0,0E0,0E0,0E0,0E0,0E0,0E0,0E0,0E0,0E0,0E0,0E0],"parents":[2147483647,0,0,1,1,2,2,3,3,4,4,5,5,6,6,7,7,8,8,10,10,11,11,12,12,13,13,15,15,17,17,18,18,20,20,21,21,25,25,26,26,28,28,29,29,30,30,32,32,33,33,34,34,37,37,38,38,39,39,40,40],"right_children":[2,4,6,8,10,12,14,16,18,-1,20,22,24,26,-1,28,-1,30,32,-1,34,36,-1,-1,-1,38,40,-1,42,44,46,-1,48,50,52,-1,-1,54,56,58,60,-1,-1,-1,-1,-1,-1,-1,-1,-1,-1,-1,-1,-1,-1,-1,-1,-1,-1,-1,-1],"split_conditions":[8.8E-1,-1.68E-1,-1.19E0,8.5E6,4E0,6.4036E0,1.10482E1,2.247E1,2E-1,-7.580485E-2,-2.952E1,1.486E1,1.144E1,7.8207E0,2.1027364E-2,3.58E0,8.117626E-2,2.589E1,2.018E2,1.5439958E-2,7.5023E0,-4.76E-1,-8.204851E-3,4.694896E-2,1.5578753E-2,3.71E0,8.8235E0,7.684584E-3,5.623E2,-7.24E-1,1.264E2,-3.0721199E-2,4.4E-1,4.6674E0,1.0023E7,2.3472814E-3,1.5645146E-2,2.42E0,5.1014E0,9.44E1,2.7E1,-1.1252481E-2,-3.930071E-3,1.3594662E-3,-1.7111046E-2,1.1474069E-2,3.702775E-4,-1.3793847E-2,8.45763E-3,-1.23925805E-2,1.438026E-3,-5.960814E-3,-2.1409074E-2,5.6589358E-3,2.0178197E-2,-6.220932E-3,4.0446306E-3,-8.715442E-3,-2.4687847E-2,-9.666942E-4,5.228072E-3],"split_indices":[5,18,8,6,21,1,0,9,19,0,5,5,10,1,0,12,0,13,15,0,2,18,0,0,0,12,0,0,11,19,15,0,8,0,6,0,0,5,0,15,9,0,0,0,0,0,0,0,0,0,0,0,0,0,0,0,0,0,0,0,0],"split_type":[0,0,0,0,0,0,0,0,0,0,0,0,0,0,0,0,0,0,0,0,0,0,0,0,0,0,0,0,0,0,0,0,0,0,0,0,0,0,0,0,0,0,0,0,0,0,0,0,0,0,0,0,0,0,0,0,0,0,0,0,0],"sum_hessian":[1.76E2,9.8E1,7.8E1,5.7E1,4.1E1,2.1E1,5.7E1,1.4E1,4.3E1,5E0,3.6E1,1.3E1,8E0,5.3E1,4E0,1.1E1,3E0,3E1,1.3E1,5E0,3.1E1,1E1,3E0,3E0,5E0,4E1,1.3E1,5E0,6E0,7E0,2.3E1,5E0,8E0,2.5E1,6E0,4E0,6E0,1E1,3E1,6E0,7E0,3E0,3E0,3E0,4E0,1E1,1.3E1,3E0,5E0,6E0,1.9E1,3E0,3E0,5E0,5E0,1.2E1,1.8E1,3E0,3E0,3E0,4E0],"tree_param":{"num_deleted":"0","num_feature":"23","num_nodes":"61","size_leaf_vector":"1"}},{"base_weights":[-0E0,-1.9741403E-2,1.1253812E-2,-1.2461116E-2,-3.206241E-2,-4.6362247E-2,2.2134129E-2,2.9735584E-2,-3.100916E-2,5.8296807E-3,-4.7842957E-2,1.5351065E-2,3.6112558E-2,5.834703E-2,-9.4126584E-4,-5.0278127E-2,-8.04933E-3,1.1110121E-2,-7.412947E-3,-7.4031684E-3,3.4332674E-2,7.417501E-2,3.6330344E-3,-1.6565286E-2,6.3332184E-3,-2.009135E-2,-6.7695E-2,-2.1084199E-2,9.3559E-3,2.5807822E-3,-7.1625276E-3,-0E0,-2.0190889E-2,5.398254E-2,1.861614E-2,2.5616987E-2,7.387889E-3,-7.823312E-4,-6.1597503E-3,-1.1815577E-2,7.174334E-3,-8.433166E-3,-2.2940114E-2,3.8393883E-3,-7.855929E-3,3.7100918E-3,-2.7554326E-3,3.1206005E-3,-1.4718605E-2,7.1418117E-4,1.42445015E-2],"categories":[],"categories_nodes":[],"categories_segments":[],"categories_sizes":[],"default_left":[0,0,0,0,0,0,0,0,0,0,0,0,0,0,0,0,0,0,0,0,0,0,0,0,0,0,0,0,0,0,0,0,0,0,0,0,0,0,0,0,0,0,0,0,0,0,0,0,0,0,0],"id":28,"left_children":[1,3,5,7,-1,9,11,13,15,17,-1,19,-1,21,23,25,27,-1,29,31,33,35,-1,37,-1,39,41,43,-1,45,-1,47,-1,-1,49,-1,-1,-1,-1,-1,-1,-1,-1,-1,-1,-1,-1,-1,-1,-1,-1],"loss_changes":[3.9116357E-2,4.6018817E-2,7.09968E-2,4.8640832E-2,0E0,1.3313055E-1,7.250583E-2,1.7201353E-2,1.8121433E-2,7.510848E-3,0E0,3.9773554E-2,0E0,5.216442E-3,4.3053734E-3,1.0001641E-2,1.2739719E-2,0E0,2.518143E-3,2.2081962E-2,1.3166101E-1,4.1119754E-3,0E0,3.9066817E-4,0E0,1.3694469E-2,6.507598E-3,6.299895E-3,0E0,1.4310901E-3,0E0,2.7551249E-2,0E0,0E0,2.6609613E-2,0E0,0E0,0E0,0E0,0E0,0E0,0E0,0E0,0E0,0E0,0E0,0E0,0E0,0E0,0E0,0E0],"parents":[2147483647,0,0,1,1,2,2,3,3,5,5,6,6,7,7,8,8,9,9,11,11,13,13,14,14,15,15,16,16,18,18,19,19,20,20,21,21,23,23,25,25,26,26,27,27,29,29,31,31,34,34],"right_children":[2,4,6,8,-1,10,12,14,16,18,-1,20,-1,22,24,26,28,-1,30,32,34,36,-1,38,-1,40,42,44,-1,46,-1,48,-1,-1,50,-1,-1,-1,-1,-1,-1,-1,-1,-1,-1,-1,-1,-1,-1,-1,-1],"split_conditions":[-1.71E0,3.333E1,9.22E1,1.145E1,-3.206241E-2,8.19E1,3.042E1,-1.545E1,5.024E2,6.5208E0,-4.7842957E-2,-1.98E-1,3.6112558E-2,6.51E0,-5.25E0,1.21E0,7.69E0,1.1110121E-2,8.28E-1,2.944E1,1E0,2.779E7,3.6330344E-3,9.77E0,6.3332184E-3,7.9848E0,-3.45E-1,3E0,9.3559E-3,1.778E1,-7.1625276E-3,-3.83E-1,-2.0190889E-2,5.398254E-2,6.8759E0,2.5616987E-2,7.387889E-3,-7.823312E-4,-6.1597503E-3,-1.1815577E-2,7.174334E-3,-8.433166E-3,-2.2940114E-2,3.8393883E-3,-7.855929E-3,3.7100918E-3,-2.7554326E-3,3.1206005E-3,-1.4718605E-2,7.1418117E-4,1.42445015E-2],"split_indices":[5,8,15,10,0,15,13,5,11,2,0,16,0,8,5,8,8,0,16,13,21,7,0,10,0,4,16,20,0,10,0,18,0,0,3,0,0,0,0,0,0,0,0,0,0,0,0,0,0,0,0],"split_type":[0,0,0,0,0,0,0,0,0,0,0,0,0,0,0,0,0,0,0,0,0,0,0,0,0,0,0,0,0,0,0,0,0,0,0,0,0,0,0,0,0,0,0,0,0,0,0,0,0,0,0],"sum_hessian":[1.74E2,6.3E1,1.11E2,6E1,3E0,1.7E1,9.4E1,1.8E1,4.2E1,1.3E1,4E0,9E1,4E0,9E0,9E0,2.2E1,2E1,3E0,1E1,4.1E1,4.9E1,6E0,3E0,6E0,3E0,9E0,1.3E1,1.6E1,4E0,7E0,3E0,3.8E1,3E0,3E0,4.6E1,3E0,3E0,3E0,3E0,6E0,3E0,6E0,7E0,3E0,1.3E1,4E0,3E0,3.2E1,6E0,3.3E1,1.3E1],"tree_param":{"num_deleted":"0","num_feature":"23","num_nodes":"51","size_leaf_vector":"1"}},{"base_weights":[1.0008195E-3,-2.7270908E-2,3.4024967E-3,5.141435E-3,-1.8734343E-2,-1.25103835E-2,1.2452268E-2,9.111274E-3,-3.3192094E-2,2.8964957E-2,-3.3547028E-3,-1.3197933E-3,1.1773E-2,-1.0063694E-1,-4.201665E-3,8.526644E-3,1.0482284E-1,2.778416E-2,-1.5132544E-2,8.679312E-3,-3.8322846E-3,-0E0,-5.2069366E-2,-5.793052E-3,1.186147E-3,-2.5657983E-4,1.0194479E-2,5.5825595E-2,-5.227803E-3,-5.2330983E-3,1.0139198E-2,4.0857396E-3,-8.487598E-3],"categories":[],"categories_nodes":[],"categories_segments":[],"categories_sizes":[],"default_left":[0,0,0,0,0,0,0,0,0,0,0,0,0,0,0,0,0,0,0,0,0,0,0,0,0,0,0,0,0,0,0,0,0],"id":29,"left_children":[1,-1,3,5,-1,7,9,11,13,15,17,19,-1,21,23,25,27,29,31,-1,-1,-1,-1,-1,-1,-1,-1,-1,-1,-1,-1,-1,-1],"loss_changes":[4.6380952E-2,0E0,2.3586467E-2,2.2991246E-2,0E0,2.3745254E-2,3.3195972E-2,1.0335811E-2,5.1444836E-2,9.4252594E-2,2.4135299E-2,1.026028E-2,0E0,8.1341214E-2,3.4631526E-3,1.5116117E-2,1.8715912E-1,1.0902336E-2,2.70647E-2,0E0,0E0,0E0,0E0,0E0,0E0,0E0,0E0,0E0,0E0,0E0,0E0,0E0,0E0],"parents":[2147483647,0,0,2,2,3,3,5,5,6,6,7,7,8,8,9,9,10,10,11,11,13,13,14,14,15,15,16,16,17,17,18,18],"right_children":[2,-1,4,6,-1,8,10,12,14,16,18,20,-1,22,24,26,28,30,32,-1,-1,-1,-1,-1,-1,-1,-1,-1,-1,-1,-1,-1,-1],"split_conditions":[2.19E5,-2.7270908E-2,5.419E2,-4.74E-1,-1.8734343E-2,1.21E0,1.2086E7,1.243E0,1.7E0,1E7,1.22E2,2.79E2,1.1773E-2,1.196E1,3.23E0,7.62E0,1.232E1,6.69E1,5.8824E0,8.679312E-3,-3.8322846E-3,-0E0,-5.2069366E-2,-5.793052E-3,1.186147E-3,-2.5657983E-4,1.0194479E-2,5.5825595E-2,-5.227803E-3,-5.2330983E-3,1.0139198E-2,4.0857396E-3,-8.487598E-3],"split_indices":[7,0,15,17,0,8,6,16,8,7,15,11,0,10,8,5,10,11,1,0,0,0,0,0,0,0,0,0,0,0,0,0,0],"split_type":[0,0,0,0,0,0,0,0,0,0,0,0,0,0,0,0,0,0,0,0,0,0,0,0,0,0,0,0,0,0,0,0,0],"sum_hessian":[1.82E2,3E0,1.79E2,1.76E2,3E0,5.1E1,1.25E2,2.5E1,2.6E1,6.1E1,6.4E1,2E1,5E0,7E0,1.9E1,4.9E1,1.2E1,1.7E1,4.7E1,5E0,1.5E1,4E0,3E0,6E0,1.3E1,3.8E1,1.1E1,6E0,6E0,3E0,1.4E1,1.7E1,3E1],"tree_param":{"num_deleted":"0","num_feature":"23","num_nodes":"33","size_leaf_vector":"1"}},{"base_weights":[-2.496855E-4,-6.0772584E-3,3.2625653E-2,-2.515393E-2,-3.4675244E-3,5.1224474E-2,-9.427849E-3,1.6276492E-3,-4.5232564E-2,2.4075054E-2,4.1048493E-2,8.467577E-3,-1.5568054E-2,-9.3696695E-3,-3.1186132E-2,-2.7061664E-3,3.8420755E-2,-0E0,3.309632E-2,-4.1820306E-2,1.1038951E-2,2.3373961E-3,-6.465606E-3,1.2798936E-4,-1.9043648E-3,1.1157778E-2,4.104852E-3,3.365949E-3,-2.9968976E-3,-3.6047434E-3,1.1254765E-2,-7.3935236E-3,-1.843394E-2,-2.1123579E-3,8.846074E-3],"categories":[],"categories_nodes":[],"categories_segments":[],"categories_sizes":[],"default_left":[0,0,0,0,0,0,0,0,0,0,0,0,0,0,0,0,0,0,0,0,0,0,0,0,0,0,0,0,0,0,0,0,0,0,0],"id":30,"left_children":[1,3,5,-1,7,9,-1,11,13,15,-1,17,19,21,-1,23,25,27,29,31,33,-1,-1,-1,-1,-1,-1,-1,-1,-1,-1,-1,-1,-1,-1],"loss_changes":[3.310813E-2,3.412066E-2,3.5383664E-2,0E0,3.129522E-2,5.6149803E-2,0E0,1.535652E-2,4.114386E-2,7.313749E-3,0E0,1.952815E-2,2.654447E-2,3.824391E-3,0E0,1.667718E-4,1.2532435E-4,1.0912338E-2,1.274156E-2,4.54323E-3,8.984078E-3,0E0,0E0,0E0,0E0,0E0,0E0,0E0,0E0,0E0,0E0,0E0,0E0,0E0,0E0],"parents":[2147483647,0,0,1,1,2,2,4,4,5,5,7,7,8,8,9,9,11,11,12,12,13,13,15,15,16,16,17,17,18,18,19,19,20,20],"right_children":[2,4,6,-1,8,10,-1,12,14,16,-1,18,20,22,-1,24,26,28,30,32,34,-1,-1,-1,-1,-1,-1,-1,-1,-1,-1,-1,-1,-1,-1],"split_conditions":[2.6395E7,-3.666E1,1.79E1,-2.515393E-2,1.775E7,8.2281E0,-9.427849E-3,9E0,1.233E2,5.3582E0,4.1048493E-2,7.069E0,1E1,3.21E0,-3.1186132E-2,7.4E1,2.446E1,3.81E0,-8.89E-1,5.12E-1,3.03E0,2.3373961E-3,-6.465606E-3,1.2798936E-4,-1.9043648E-3,1.1157778E-2,4.104852E-3,3.365949E-3,-2.9968976E-3,-3.6047434E-3,1.1254765E-2,-7.3935236E-3,-1.843394E-2,-2.1123579E-3,8.846074E-3],"split_indices":[7,5,14,0,7,2,0,22,15,0,0,1,21,5,0,15,9,12,16,19,8,0,0,0,0,0,0,0,0,0,0,0,0,0,0],"split_type":[0,0,0,0,0,0,0,0,0,0,0,0,0,0,0,0,0,0,0,0,0,0,0,0,0,0,0,0,0,0,0,0,0,0,0],"sum_hessian":[1.72E2,1.47E2,2.5E1,3E0,1.44E2,2E1,5E0,1.29E2,1.5E1,1.7E1,3E0,9.3E1,3.6E1,1.1E1,4E0,6E0,1.1E1,7E1,2.3E1,1.8E1,1.8E1,5E0,6E0,3E0,3E0,8E0,3E0,3.3E1,3.7E1,4E0,1.9E1,1.4E1,4E0,1E1,8E0],"tree_param":{"num_deleted":"0","num_feature":"23","num_nodes":"35","size_leaf_vector":"1"}},{"base_weights":[-2.084307E-4,1.0072243E-2,-1.7416827E-2,1.08353645E-1,3.4882626E-3,-8.137478E-2,-6.89034E-4,6.1415136E-2,-1.1843556E-2,3.0188586E-4,2.1601474E-2,1.644957E-2,-1.8301389E-1,4.945272E-3,-3.5549656E-2,-1.3267456E-2,1.27867395E-2,-3.098289E-3,9.716802E-3,-1.1203277E-2,-7.10406E-2,-5.8630207E-3,3.225239E-2,-1.1806899E-2,-3.061169E-3,4.302375E-4,-6.2736295E-2,2.1929862E-2,-1.0339406E-2,5.320637E-3,-2.8480934E-2,-0E0,5.6338288E-2,-1.5312052E-2,1.8272295E-3,-1.2852062E-3,-2.8061803E-2,-2.1917801E-3,8.785852E-3,1.8317228E-3,-9.039952E-3,-0E0,5.2948697E-3,-0E0,-1.0906381E-2,3.2667655E-3,-3.1813376E-3,5.4547004E-3,2.1761851E-2],"categories":[],"categories_nodes":[],"categories_segments":[],"categories_sizes":[],"default_left":[0,0,0,0,0,0,0,0,0,0,0,0,0,0,0,0,0,0,0,0,0,0,0,0,0,0,0,0,0,0,0,0,0,0,0,0,0,0,0,0,0,0,0,0,0,0,0,0,0],"id":31,"left_children":[1,3,5,7,9,11,13,-1,-1,15,-1,17,19,21,23,25,27,-1,-1,-1,-1,29,31,-1,-1,33,35,37,39,41,43,45,47,-1,-1,-1,-1,-1,-1,-1,-1,-1,-1,-1,-1,-1,-1,-1,-1],"loss_changes":[3.2075312E-2,7.178429E-2,7.19758E-2,1.5203649E-1,2.6616368E-2,1.433642E-1,1.1231746E-2,0E0,0E0,1.7777415E-2,0E0,5.4809307E-3,7.557644E-2,1.4570885E-2,9.087166E-4,3.442379E-2,1.19460225E-2,0E0,0E0,0E0,0E0,9.193853E-3,1.0785506E-2,0E0,0E0,1.5871095E-2,2.7701985E-2,1.5257372E-2,7.3671835E-3,1.8406545E-3,4.5476193E-3,1.2436031E-3,5.223958E-3,0E0,0E0,0E0,0E0,0E0,0E0,0E0,0E0,0E0,0E0,0E0,0E0,0E0,0E0,0E0,0E0],"parents":[2147483647,0,0,1,1,2,2,3,3,4,4,5,5,6,6,9,9,11,11,12,12,13,13,14,14,15,15,16,16,21,21,22,22,25,25,26,26,27,27,28,28,29,29,30,30,31,31,32,32],"right_children":[2,4,6,8,10,12,14,-1,-1,16,-1,18,20,22,24,26,28,-1,-1,-1,-1,30,32,-1,-1,34,36,38,40,42,44,46,48,-1,-1,-1,-1,-1,-1,-1,-1,-1,-1,-1,-1,-1,-1,-1,-1],"split_conditions":[-3.7E-2,1E0,7E0,8.5E6,3.082E1,6.384E0,1.379E0,6.1415136E-2,-1.1843556E-2,6.5625E0,2.1601474E-2,2.619E1,3.202E2,4.8E0,4.391E2,6.0189E0,9.0062E0,-3.098289E-3,9.716802E-3,-1.1203277E-2,-7.10406E-2,1.652E1,-8.07E-1,-1.1806899E-2,-3.061169E-3,9.1E0,2.607E1,5E0,1.15E2,8.8E-1,-2.21E-1,1.111E1,7.9E-1,-1.5312052E-2,1.8272295E-3,-1.2852062E-3,-2.8061803E-2,-2.1917801E-3,8.785852E-3,1.8317228E-3,-9.039952E-3,-0E0,5.2948697E-3,-0E0,-1.0906381E-2,3.2667655E-3,-3.1813376E-3,5.4547004E-3,2.1761851E-2],"split_indices":[18,20,20,6,13,0,16,0,0,0,0,13,11,5,11,0,1,0,0,0,0,14,17,0,0,10,13,21,11,5,17,5,8,0,0,0,0,0,0,0,0,0,0,0,0,0,0,0,0],"split_type":[0,0,0,0,0,0,0,0,0,0,0,0,0,0,0,0,0,0,0,0,0,0,0,0,0,0,0,0,0,0,0,0,0,0,0,0,0,0,0,0,0,0,0,0,0,0,0,0,0],"sum_hessian":[1.79E2,1.12E2,6.7E1,6E0,1.06E2,1.3E1,5.4E1,3E0,3E0,1.03E2,3E0,7E0,6E0,4.7E1,7E0,4.9E1,5.4E1,3E0,4E0,3E0,3E0,3.4E1,1.3E1,4E0,3E0,3.9E1,1E1,3.9E1,1.5E1,2.3E1,1.1E1,6E0,7E0,3E0,3.6E1,5E0,5E0,1.1E1,2.8E1,9E0,6E0,1.8E1,5E0,4E0,7E0,3E0,3E0,4E0,3E0],"tree_param":{"num_deleted":"0","num_feature":"23","num_nodes":"49","size_leaf_vector":"1"}},{"base_weights":[2.7920746E-3,6.7962483E-3,-4.3189995E-2,1.8975023E-2,4.156396E-3,-8.46138E-2,-5.877117E-4,1.9965167E-3,4.907405E-2,-3.1819046E-2,-5.9083644E-3,-5.6855218E-3,3.859605E-3,7.325268E-3,-1.0937533E-2,-1.0704197E-3,2.382375E-2,5.2121547E-3,1.2458366E-2,-1.8379429E-3,-4.0905386E-2,2.388831E-3,-6.6878195E-3,-2.6588612E-3,1.0189736E-2,-1.4749101E-2,-4.0212177E-5],"categories":[],"categories_nodes":[],"categories_segments":[],"categories_sizes":[],"default_left":[0,0,0,0,0,0,0,0,0,0,0,0,0,0,0,0,0,0,0,0,0,0,0,0,0,0,0],"id":32,"left_children":[1,3,5,-1,7,9,11,13,15,-1,-1,-1,-1,17,19,-1,-1,21,-1,23,25,-1,-1,-1,-1,-1,-1],"loss_changes":[3.2194834E-2,2.7587235E-2,2.3896083E-2,0E0,1.4698659E-2,1.2671743E-2,3.04544E-3,1.0453587E-2,1.7206024E-2,0E0,0E0,0E0,0E0,8.64641E-3,1.1555305E-2,0E0,0E0,1.3202162E-2,0E0,1.23981405E-2,6.120486E-3,0E0,0E0,0E0,0E0,0E0,0E0],"parents":[2147483647,0,0,1,1,2,2,4,4,5,5,6,6,7,7,8,8,13,13,14,14,17,17,19,19,20,20],"right_children":[2,4,6,-1,8,10,12,14,16,-1,-1,-1,-1,18,20,-1,-1,22,-1,24,26,-1,-1,-1,-1,-1,-1],"split_conditions":[4.11E2,1E0,9E0,1.8975023E-2,5.856E1,3.34E5,3E-2,1.5E1,2.266E1,-3.1819046E-2,-5.9083644E-3,-5.6855218E-3,3.859605E-3,1.0387E1,1.345E1,-1.0704197E-3,2.382375E-2,9.0062E0,1.2458366E-2,7.9017E0,1.1521E1,2.388831E-3,-6.6878195E-3,-2.6588612E-3,1.0189736E-2,-1.4749101E-2,-4.0212177E-5],"split_indices":[15,20,21,0,5,7,8,20,9,0,0,0,0,1,10,0,0,1,0,0,1,0,0,0,0,0,0],"split_type":[0,0,0,0,0,0,0,0,0,0,0,0,0,0,0,0,0,0,0,0,0,0,0,0,0,0,0],"sum_hessian":[1.74E2,1.61E2,1.3E1,5E0,1.56E2,6E0,7E0,1.5E2,6E0,3E0,3E0,3E0,4E0,1.07E2,4.3E1,3E0,3E0,1.03E2,4E0,3.4E1,9E0,9.2E1,1.1E1,2.9E1,5E0,6E0,3E0],"tree_param":{"num_deleted":"0","num_feature":"23","num_nodes":"27","size_leaf_vector":"1"}},{"base_weights":[2.8996316E-3,-1.1128948E-2,1.3233461E-2,-6.195254E-3,-1.9749474E-2,3.3175625E-2,7.0875646E-3,-6.385748E-2,5.6922312E-5,4.7231574E-2,1.3144417E-3,-3.2610479E-3,-2.507615E-2,-6.4178137E-3,2.6638303E-2,2.3376102E-2,1.3287836E-2,-1.1023874E-2,2.5005955E-2,3.6703185E-3,-1.5504013E-2,4.2200804E-2,-1.2781624E-3,7.004371E-3,-1.3395927E-3,-3.8036093E-2,-2.8147106E-4,2.8854186E-2,1.0970944E-2,-7.983584E-3,2.6214486E-3,-6.0141727E-4,-8.304828E-3,1.5004566E-2,1.4651079E-3,2.7365393E-3,-1.4408348E-2,5.836856E-3,-1.9252711E-3,5.7652784E-3,-3.4382974E-3],"categories":[],"categories_nodes":[],"categories_segments":[],"categories_sizes":[],"default_left":[0,0,0,0,0,0,0,0,0,0,0,0,0,0,0,0,0,0,0,0,0,0,0,0,0,0,0,0,0,0,0,0,0,0,0,0,0,0,0,0,0],"id":33,"left_children":[1,3,5,7,-1,-1,9,11,13,15,17,-1,-1,19,21,-1,23,25,27,29,31,33,-1,-1,-1,35,37,-1,39,-1,-1,-1,-1,-1,-1,-1,-1,-1,-1,-1,-1],"loss_changes":[2.5383847E-2,2.2713475E-2,6.9556735E-2,2.577566E-2,0E0,0E0,2.2001319E-2,9.783825E-3,1.1351076E-2,1.5579542E-2,2.5522133E-2,0E0,0E0,4.921138E-3,6.903814E-3,0E0,2.3700711E-3,1.619726E-2,3.4296528E-2,5.745657E-3,5.784215E-3,4.369043E-3,0E0,0E0,0E0,1.4818732E-2,6.9436617E-3,0E0,7.829189E-3,0E0,0E0,0E0,0E0,0E0,0E0,0E0,0E0,0E0,0E0,0E0,0E0],"parents":[2147483647,0,0,1,1,2,2,3,3,6,6,7,7,8,8,9,9,10,10,13,13,14,14,16,16,17,17,18,18,19,19,20,20,21,21,25,25,26,26,28,28],"right_children":[2,4,6,8,-1,-1,10,12,14,16,18,-1,-1,20,22,-1,24,26,28,30,32,34,-1,-1,-1,36,38,-1,40,-1,-1,-1,-1,-1,-1,-1,-1,-1,-1,-1,-1],"split_conditions":[1.53E1,8.7925E0,1E0,1E0,-1.9749474E-2,3.3175625E-2,-5.44E0,2.34E6,6.5682E0,1.174E2,6.79E0,-3.2610479E-3,-2.507615E-2,5.3748E0,6.7857E0,2.3376102E-2,1.058E1,1.553E1,7.32E0,3.2281E0,3.8E0,2.632E1,-1.2781624E-3,7.004371E-3,-1.3395927E-3,1.542E1,6E0,2.8854186E-2,2.853E1,-7.983584E-3,2.6214486E-3,-6.0141727E-4,-8.304828E-3,1.5004566E-2,1.4651079E-3,2.7365393E-3,-1.4408348E-2,5.836856E-3,-1.9252711E-3,5.7652784E-3,-3.4382974E-3],"split_indices":[14,1,21,21,0,0,8,6,3,15,8,0,0,3,2,0,5,14,8,3,12,13,0,0,0,14,21,0,13,0,0,0,0,0,0,0,0,0,0,0,0],"split_type":[0,0,0,0,0,0,0,0,0,0,0,0,0,0,0,0,0,0,0,0,0,0,0,0,0,0,0,0,0,0,0,0,0,0,0,0,0,0,0,0,0],"sum_hessian":[1.73E2,7.3E1,1E2,6.9E1,4E0,4E0,9.6E1,6E0,6.3E1,1.1E1,8.5E1,3E0,3E0,5.1E1,1.2E1,4E0,7E0,5.6E1,2.9E1,2.4E1,2.7E1,8E0,4E0,4E0,3E0,1.5E1,4.1E1,3E0,2.6E1,3E0,2.1E1,1.6E1,1.1E1,5E0,3E0,4E0,1.1E1,9E0,3.2E1,1.8E1,8E0],"tree_param":{"num_deleted":"0","num_feature":"23","num_nodes":"41","size_leaf_vector":"1"}},{"base_weights":[-2.1248164E-3,1.9332808E-2,-5.763341E-3,-0E0,7.298845E-2,-5.965832E-2,-2.7614061E-3,8.55178E-3,-9.876836E-3,2.7026568E-2,5.4415073E-3,-2.5714154E-3,-2.7086837E-2,8.960141E-3,-1.379712E-2,9.607598E-3,-9.676047E-3,-6.519408E-3,3.1143386E-2,-9.587886E-2,-5.415372E-3,-2.1100437E-2,1.6843649E-3,1.2402742E-2,-4.725084E-2,4.3352075E-2,9.500424E-3,-3.6472365E-2,-6.3513923E-3,-1.3604708E-2,5.9447624E-3,-7.8111514E-3,-1.1826446E-3,-6.487639E-4,7.8060944E-3,-3.5080377E-3,-2.6745483E-2,1.0072264E-3,9.992678E-3,2.324557E-3,-5.4734955E-3,9.832716E-3,1.7215255E-4],"categories":[],"categories_nodes":[],"categories_segments":[],"categories_sizes":[],"default_left":[0,0,0,0,0,0,0,0,0,0,0,0,0,0,0,0,0,0,0,0,0,0,0,0,0,0,0,0,0,0,0,0,0,0,0,0,0,0,0,0,0,0,0],"id":34,"left_children":[1,3,5,7,9,11,13,15,-1,-1,-1,-1,-1,17,19,-1,21,23,25,27,29,31,-1,33,35,-1,37,-1,-1,39,41,-1,-1,-1,-1,-1,-1,-1,-1,-1,-1,-1,-1],"loss_changes":[1.4045316E-2,2.7472567E-2,2.4380974E-2,7.076319E-3,8.275438E-3,1.5976626E-2,1.9304303E-2,9.468792E-3,0E0,0E0,0E0,0E0,0E0,2.512548E-2,5.1589657E-2,0E0,2.2918733E-3,3.399645E-2,8.576405E-2,1.7811626E-2,6.7478474E-3,6.253605E-4,0E0,8.29814E-3,2.4167921E-2,0E0,3.9027014E-3,0E0,0E0,7.5207357E-3,4.7350703E-3,0E0,0E0,0E0,0E0,0E0,0E0,0E0,0E0,0E0,0E0,0E0,0E0],"parents":[2147483647,0,0,1,1,2,2,3,3,4,4,5,5,6,6,7,7,13,13,14,14,16,16,17,17,18,18,19,19,20,20,21,21,23,23,24,24,26,26,29,29,30,30],"right_children":[2,4,6,8,10,12,14,16,-1,-1,-1,-1,-1,18,20,-1,22,24,26,28,30,32,-1,34,36,-1,38,-1,-1,40,42,-1,-1,-1,-1,-1,-1,-1,-1,-1,-1,-1,-1],"split_conditions":[-5.44E0,5.2914E0,-2.67E0,1.944E1,-2.31E-1,1.5E1,5E0,4.6857E0,-9.876836E-3,2.7026568E-2,5.4415073E-3,-2.5714154E-3,-2.7086837E-2,2.169E1,1E0,9.607598E-3,1.3E-1,6.4138E0,3E0,2.348E1,1.73E1,-1.115E1,1.6843649E-3,4.8951E0,-1.3E-2,4.3352075E-2,1.125E1,-3.6472365E-2,-6.3513923E-3,5.8824E0,1.735E1,-7.8111514E-3,-1.1826446E-3,-6.487639E-4,7.8060944E-3,-3.5080377E-3,-2.6745483E-2,1.0072264E-3,9.992678E-3,2.324557E-3,-5.4734955E-3,9.832716E-3,1.7215255E-4],"split_indices":[8,1,8,5,17,21,22,2,0,0,0,0,0,9,21,0,17,4,21,9,14,8,0,0,18,0,8,0,0,1,14,0,0,0,0,0,0,0,0,0,0,0,0],"split_type":[0,0,0,0,0,0,0,0,0,0,0,0,0,0,0,0,0,0,0,0,0,0,0,0,0,0,0,0,0,0,0,0,0,0,0,0,0,0,0,0,0,0,0],"sum_hessian":[1.79E2,2.5E1,1.54E2,1.9E1,6E0,7E0,1.47E2,1.6E1,3E0,3E0,3E0,4E0,3E0,7.1E1,7.6E1,6E0,1E1,4.2E1,2.9E1,6E0,7E1,6E0,4E0,2.9E1,1.3E1,3E0,2.6E1,3E0,3E0,4.1E1,2.9E1,3E0,3E0,1.6E1,1.3E1,9E0,4E0,2.3E1,3E0,1E1,3.1E1,3E0,2.6E1],"tree_param":{"num_deleted":"0","num_feature":"23","num_nodes":"43","size_leaf_vector":"1"}},{"base_weights":[1.1527614E-3,-1.9577721E-2,5.402539E-3,-3.335136E-2,-2.367474E-3,9.375331E-2,9.620061E-4,1.1720024E-2,-1.1842001E-2,-2.938343E-3,4.590469E-2,-1.3958556E-3,4.7984097E-2,6.2144143E-3,-2.9589856E-4,-1.796682E-2,2.4352768E-4,1.776262E-2,-6.3802483E-3,2.2409672E-2,-1.4943915E-4,-1.126599E-3,-5.9793335E-3,-0E0,3.7771083E-2,-1.5071735E-2,-3.770686E-3,7.796362E-3,-2.2565196E-3,1.5356521E-2,5.3225164E-3,5.1432427E-5,-9.11038E-3],"categories":[],"categories_nodes":[],"categories_segments":[],"categories_sizes":[],"default_left":[0,0,0,0,0,0,0,0,0,0,0,0,0,0,0,0,0,0,0,0,0,0,0,0,0,0,0,0,0,0,0,0,0],"id":35,"left_children":[1,3,5,-1,7,9,11,13,15,-1,-1,17,19,-1,-1,21,-1,23,25,-1,-1,-1,-1,27,29,-1,31,-1,-1,-1,-1,-1,-1],"loss_changes":[1.5574768E-2,5.5187542E-2,5.7160914E-2,0E0,3.738034E-3,6.520113E-2,1.6203946E-2,1.970314E-3,1.491328E-3,0E0,0E0,1.2999221E-2,1.3966976E-2,0E0,0E0,5.1551824E-4,0E0,9.68957E-3,1.4056457E-2,0E0,0E0,0E0,0E0,4.628705E-3,2.9543769E-3,0E0,1.3454406E-2,0E0,0E0,0E0,0E0,0E0,0E0],"parents":[2147483647,0,0,1,1,2,2,4,4,5,5,6,6,7,7,8,8,11,11,12,12,15,15,17,17,18,18,23,23,24,24,26,26],"right_children":[2,4,6,-1,8,10,12,14,16,-1,-1,18,20,-1,-1,22,-1,24,26,-1,-1,-1,-1,28,30,-1,32,-1,-1,-1,-1,-1,-1],"split_conditions":[9.22E1,1E0,1E0,-3.335136E-2,6.1E-1,2.639E1,3.054E1,1.4E1,9.5398E0,-2.938343E-3,4.590469E-2,1.367E1,5.165E2,6.2144143E-3,-2.9589856E-4,4.97E1,2.4352768E-4,5.98E0,1.031E1,2.2409672E-2,-1.4943915E-4,-1.126599E-3,-5.9793335E-3,-1.056E0,7.236E2,-1.5071735E-2,1.775E7,7.796362E-3,-2.2565196E-3,1.5356521E-2,5.3225164E-3,5.1432427E-5,-9.11038E-3],"split_indices":[15,21,21,0,8,13,13,21,2,0,0,14,11,0,0,15,0,0,10,0,0,0,0,16,11,0,7,0,0,0,0,0,0],"split_type":[0,0,0,0,0,0,0,0,0,0,0,0,0,0,0,0,0,0,0,0,0,0,0,0,0,0,0,0,0,0,0,0,0],"sum_hessian":[1.76E2,2.9E1,1.47E2,3E0,2.6E1,6E0,1.41E2,1E1,1.6E1,3E0,3E0,1.35E2,6E0,5E0,5E0,1.1E1,5E0,2.7E1,1.08E2,3E0,3E0,4E0,7E0,1.5E1,1.2E1,4E0,1.04E2,3E0,1.2E1,4E0,8E0,9.3E1,1.1E1],"tree_param":{"num_deleted":"0","num_feature":"23","num_nodes":"33","size_leaf_vector":"1"}},{"base_weights":[2.2790674E-3,-3.3106588E-2,3.769032E-3,-0E0,-1.4995313E-2,8.078722E-3,-1.069919E-2,5.295064E-3,1.9686932E-2,-4.0858153E-2,-2.6141292E-5,1.4702105E-2,-2.3421445E-3,-0E0,-1.7724272E-2,-1.4117254E-2,8.420503E-3,-4.938213E-3,2.8967211E-2,1.2119663E-2,-7.274397E-3,-0E0,-6.3527497E-3,-9.858428E-3,1.8270468E-2,1.0095892E-3,-9.0620555E-3,1.0378661E-2,1.1021895E-3,4.987367E-3,-4.0965383E-3,1.4255563E-4,-4.142373E-3,-5.562912E-3,5.5083435E-4,-3.632495E-4,9.442297E-3],"categories":[],"categories_nodes":[],"categories_segments":[],"categories_sizes":[],"default_left":[0,0,0,0,0,0,0,0,0,0,0,0,0,0,0,0,0,0,0,0,0,0,0,0,0,0,0,0,0,0,0,0,0,0,0,0,0],"id":36,"left_children":[1,3,5,-1,-1,7,9,11,-1,13,15,17,19,-1,-1,21,23,25,27,29,31,-1,-1,33,35,-1,-1,-1,-1,-1,-1,-1,-1,-1,-1,-1,-1],"loss_changes":[9.150588E-3,5.798784E-3,1.06611885E-2,0E0,0E0,2.398013E-2,1.2197789E-2,9.333519E-3,0E0,1.1572044E-2,3.7332284E-3,1.6589027E-2,5.1080226E-3,0E0,0E0,1.8458585E-3,3.6653196E-3,7.076917E-3,8.907486E-3,3.9625536E-3,3.8522058E-3,0E0,0E0,1.190678E-3,5.0333813E-3,0E0,0E0,0E0,0E0,0E0,0E0,0E0,0E0,0E0,0E0,0E0,0E0],"parents":[2147483647,0,0,1,1,2,2,5,5,6,6,7,7,9,9,10,10,11,11,12,12,15,15,16,16,17,17,18,18,19,19,20,20,23,23,24,24],"right_children":[2,4,6,-1,-1,8,10,12,-1,14,16,18,20,-1,-1,22,24,26,28,30,32,-1,-1,34,36,-1,-1,-1,-1,-1,-1,-1,-1,-1,-1,-1,-1],"split_conditions":[1E0,5.89E-1,7.14E0,-0E0,-1.4995313E-2,6.79E0,3.78E0,1.208E1,1.9686932E-2,-6.1E-1,1.125E1,6.4219E0,3.8E0,-0E0,-1.7724272E-2,-3.44E-1,5.2914E0,8.18E-1,1.2E1,8.1445E0,-6.5E-2,-0E0,-6.3527497E-3,1.232E1,9.58E1,1.0095892E-3,-9.0620555E-3,1.0378661E-2,1.1021895E-3,4.987367E-3,-4.0965383E-3,1.4255563E-4,-4.142373E-3,-5.562912E-3,5.5083435E-4,-3.632495E-4,9.442297E-3],"split_indices":[21,17,8,0,0,8,12,10,0,19,8,2,12,0,0,17,0,19,21,0,16,0,0,10,15,0,0,0,0,0,0,0,0,0,0,0,0],"split_type":[0,0,0,0,0,0,0,0,0,0,0,0,0,0,0,0,0,0,0,0,0,0,0,0,0,0,0,0,0,0,0,0,0,0,0,0,0],"sum_hessian":[1.75E2,6E0,1.69E2,3E0,3E0,1.31E2,3.8E1,1.27E2,4E0,9E0,2.9E1,5.7E1,7E1,4E0,5E0,1.1E1,1.8E1,2.4E1,3.3E1,1.7E1,5.3E1,5E0,6E0,6E0,1.2E1,1.9E1,5E0,2.2E1,1.1E1,1.4E1,3E0,2.8E1,2.5E1,3E0,3E0,6E0,6E0],"tree_param":{"num_deleted":"0","num_feature":"23","num_nodes":"37","size_leaf_vector":"1"}},{"base_weights":[1.3391478E-3,-1.1560303E-2,6.9877272E-3,-0E0,-3.3453602E-2,2.0626783E-2,3.058895E-3,9.5973695E-3,-2.4926102E-2,-1.3383834E-2,-2.543967E-2,-6.497631E-3,1.4927855E-2,-3.5800524E-3,3.1929232E-2,-1.0295321E-2,-8.163698E-5,-9.174711E-3,9.375794E-3,-7.5175136E-4,-1.5653113E-2,1.79071E-2,8.789914E-3,2.780723E-3,-7.0119156E-3,1.492267E-2,1.3350449E-2,5.9274654E-3,-4.20382E-4,2.0454673E-2,-5.664403E-3,1.8449282E-2,2.858747E-3,3.3854633E-3,-4.6432484E-4,6.243865E-3,-0E0,8.524293E-3,-0E0,-4.724215E-3,1.5212719E-3,-5.5266838E-3,3.8139054E-3],"categories":[],"categories_nodes":[],"categories_segments":[],"categories_sizes":[],"default_left":[0,0,0,0,0,0,0,0,0,0,0,0,0,0,0,0,0,0,0,0,0,0,0,0,0,0,0,0,0,0,0,0,0,0,0,0,0,0,0,0,0,0,0],"id":37,"left_children":[1,3,5,7,9,-1,11,13,15,17,-1,19,21,23,25,-1,-1,-1,27,29,-1,-1,31,33,-1,35,-1,-1,-1,37,39,-1,41,-1,-1,-1,-1,-1,-1,-1,-1,-1,-1],"loss_changes":[1.2498373E-2,1.31751895E-2,3.3452917E-2,8.593416E-3,2.1268928E-2,0E0,1.3208507E-2,7.998638E-3,3.3254554E-3,8.112978E-3,0E0,1.9351535E-2,1.6121935E-2,2.831133E-3,2.040431E-3,0E0,0E0,0E0,1.413177E-3,6.1320076E-3,0E0,0E0,1.7018354E-2,7.81993E-4,0E0,7.7746715E-4,0E0,0E0,0E0,3.028362E-3,7.375311E-3,0E0,1.3281235E-2,0E0,0E0,0E0,0E0,0E0,0E0,0E0,0E0,0E0,0E0],"parents":[2147483647,0,0,1,1,2,2,3,3,4,4,6,6,7,7,8,8,9,9,11,11,12,12,13,13,14,14,18,18,19,19,22,22,23,23,25,25,29,29,30,30,32,32],"right_children":[2,4,6,8,10,-1,12,14,16,18,-1,20,22,24,26,-1,-1,-1,28,30,-1,-1,32,34,-1,36,-1,-1,-1,38,40,-1,42,-1,-1,-1,-1,-1,-1,-1,-1,-1,-1],"split_conditions":[2.169E1,6.3576E0,1E0,2.105E1,1.5E-2,2.0626783E-2,6.6667E0,4.8951E0,6.96E0,3.886E2,-2.543967E-2,6.5882E0,1.144E1,5.46E-1,4.6048E0,-1.0295321E-2,-8.163698E-5,-9.174711E-3,7.236E2,-7.57E-1,-1.5653113E-2,1.79071E-2,4E0,3.34E5,-7.0119156E-3,3.8684E0,1.3350449E-2,5.9274654E-3,-4.20382E-4,1.4E7,1.1441E7,1.8449282E-2,-1.71E0,3.3854633E-3,-4.6432484E-4,6.243865E-3,-0E0,8.524293E-3,-0E0,-4.724215E-3,1.5212719E-3,-5.5266838E-3,3.8139054E-3],"split_indices":[9,4,20,9,18,0,2,0,8,15,0,2,10,19,2,0,0,0,11,19,0,0,20,6,0,1,0,0,0,6,7,0,5,0,0,0,0,0,0,0,0,0,0],"split_type":[0,0,0,0,0,0,0,0,0,0,0,0,0,0,0,0,0,0,0,0,0,0,0,0,0,0,0,0,0,0,0,0,0,0,0,0,0,0,0,0,0,0,0],"sum_hessian":[1.7E2,5.1E1,1.19E2,3.4E1,1.7E1,5E0,1.14E2,2.5E1,9E0,1.4E1,3E0,6.3E1,5.1E1,1.6E1,9E0,5E0,4E0,7E0,7E0,5.8E1,5E0,4E0,4.7E1,1.3E1,3E0,6E0,3E0,3E0,4E0,1E1,4.8E1,3E0,4.4E1,4E0,9E0,3E0,3E0,6E0,4E0,2.3E1,2.5E1,1.4E1,3E1],"tree_param":{"num_deleted":"0","num_feature":"23","num_nodes":"43","size_leaf_vector":"1"}},{"base_weights":[-5.2195042E-3,-8.933901E-2,-1.4084172E-4,-3.399138E-2,-4.1859552E-2,-1.1567613E-2,8.8670163E-4,1.6042842E-3,-1.7534176E-2,1.9082818E-2,-1.8379525E-3,4.0364772E-2,5.9293727E-3,-1.15176095E-2,3.5011496E-3,1.3139167E-2,3.8846058E-3,1.6838664E-2,-7.7178045E-3,-2.3727508E-2,3.4222205E-4,1.2430939E-2,-5.7064076E-3,5.5775098E-3,8.680994E-4,-4.9992525E-3,9.555984E-4,2.1754494E-3,-8.303959E-3,-1.4804536E-3,5.1060296E-3,1.8326883E-3,1.4268419E-2,-3.4196575E-3,4.8417305E-3],"categories":[],"categories_nodes":[],"categories_segments":[],"categories_sizes":[],"default_left":[0,0,0,0,0,0,0,0,0,0,0,0,0,0,0,0,0,0,0,0,0,0,0,0,0,0,0,0,0,0,0,0,0,0,0],"id":38,"left_children":[1,3,5,7,-1,-1,9,-1,-1,11,13,15,17,19,21,-1,-1,23,25,27,29,31,33,-1,-1,-1,-1,-1,-1,-1,-1,-1,-1,-1,-1],"loss_changes":[7.483379E-2,3.3212274E-2,8.129498E-3,1.0477912E-2,0E0,0E0,8.360626E-3,0E0,0E0,5.5239955E-3,7.5487494E-3,8.2119834E-4,2.43518E-3,7.7341753E-3,7.771697E-3,0E0,0E0,2.9464345E-4,1.133674E-3,7.540833E-3,3.4227194E-3,1.0042064E-2,8.694458E-3,0E0,0E0,0E0,0E0,0E0,0E0,0E0,0E0,0E0,0E0,0E0,0E0],"parents":[2147483647,0,0,1,1,2,2,3,3,6,6,9,9,10,10,11,11,12,12,13,13,14,14,17,17,18,18,19,19,20,20,21,21,22,22],"right_children":[2,4,6,8,-1,-1,10,-1,-1,12,14,16,18,20,22,-1,-1,24,26,28,30,32,34,-1,-1,-1,-1,-1,-1,-1,-1,-1,-1,-1,-1],"split_conditions":[1E0,-2.28E-1,-3.969E1,8.759E6,-4.1859552E-2,-1.1567613E-2,3.17E5,1.6042842E-3,-1.7534176E-2,-6.01E0,-1.71E0,5.516E2,3.04E5,5.024E2,5.165E2,1.3139167E-2,3.8846058E-3,7.382E2,5.1052E0,6.62E1,2.344E1,2.68E7,6.6452E0,5.5775098E-3,8.680994E-4,-4.9992525E-3,9.555984E-4,2.1754494E-3,-8.303959E-3,-1.4804536E-3,5.1060296E-3,1.8326883E-3,1.4268419E-2,-3.4196575E-3,4.8417305E-3],"split_indices":[20,16,5,6,0,0,7,0,0,5,5,11,6,11,11,0,0,11,1,15,9,7,1,0,0,0,0,0,0,0,0,0,0,0,0],"split_type":[0,0,0,0,0,0,0,0,0,0,0,0,0,0,0,0,0,0,0,0,0,0,0,0,0,0,0,0,0,0,0,0,0,0,0],"sum_hessian":[1.76E2,9E0,1.67E2,6E0,3E0,3E0,1.64E2,3E0,3E0,2.1E1,1.43E2,7E0,1.4E1,5.1E1,9.2E1,4E0,3E0,8E0,6E0,2.5E1,2.6E1,4.7E1,4.5E1,5E0,3E0,3E0,3E0,5E0,2E1,2E1,6E0,4.3E1,4E0,3.5E1,1E1],"tree_param":{"num_deleted":"0","num_feature":"23","num_nodes":"35","size_leaf_vector":"1"}},{"base_weights":[-2.1793847E-3,-7.2251834E-2,1.3644691E-3,-2.4760214E-3,-3.3719826E-2,8.950367E-3,-4.3503833E-3,3.1976458E-3,3.0338408E-2,1.3508177E-2,-9.18564E-3,-1.2677049E-2,1.1490888E-2,1.987231E-2,3.2039627E-3,2.700472E-2,-7.2326055E-3,1.3782613E-2,-1.4232104E-2,-2.0992905E-2,3.3848085E-3,-1.9215309E-3,1.6847681E-2,1.2872911E-2,-3.19914E-3,3.9106232E-4,3.5379495E-2,-3.5143883E-3,2.8426E-2,-2.5778156E-2,-2.7064618E-3,8.374928E-4,-8.850175E-3,-2.7315775E-3,2.2945702E-3,5.0595277E-3,-0E0,1.8504454E-4,5.0865966E-3,4.652984E-3,1.3159284E-2,9.581861E-3,3.1993806E-3,-4.1994466E-3,-1.7190337E-2,1.3397618E-3,-3.7946524E-3],"categories":[],"categories_nodes":[],"categories_segments":[],"categories_sizes":[],"default_left":[0,0,0,0,0,0,0,0,0,0,0,0,0,0,0,0,0,0,0,0,0,0,0,0,0,0,0,0,0,0,0,0,0,0,0,0,0,0,0,0,0,0,0,0,0,0,0],"id":39,"left_children":[1,3,5,-1,-1,7,9,11,13,15,17,19,21,-1,23,25,-1,27,29,31,-1,33,35,37,-1,-1,39,-1,41,43,45,-1,-1,-1,-1,-1,-1,-1,-1,-1,-1,-1,-1,-1,-1,-1,-1],"loss_changes":[4.1172534E-2,2.6807789E-2,6.839399E-3,0E0,0E0,7.983489E-3,7.7681905E-3,7.3708147E-3,1.6789785E-2,1.137559E-2,8.423125E-3,4.4088024E-3,2.8157467E-3,0E0,1.6662839E-3,2.8307699E-3,0E0,5.7145855E-3,7.537783E-3,5.2090404E-3,0E0,1.1361778E-3,1.1828053E-3,3.9292604E-4,0E0,0E0,1.4873259E-3,0E0,3.8127368E-4,9.478694E-3,3.093976E-3,0E0,0E0,0E0,0E0,0E0,0E0,0E0,0E0,0E0,0E0,0E0,0E0,0E0,0E0,0E0,0E0],"parents":[2147483647,0,0,1,1,2,2,5,5,6,6,7,7,8,8,9,9,10,10,11,11,12,12,14,14,15,15,17,17,18,18,19,19,21,21,22,22,23,23,26,26,28,28,29,29,30,30],"right_children":[2,4,6,-1,-1,8,10,12,14,16,18,20,22,-1,24,26,-1,28,30,32,-1,34,36,38,-1,-1,40,-1,42,44,46,-1,-1,-1,-1,-1,-1,-1,-1,-1,-1,-1,-1,-1,-1,-1,-1],"split_conditions":[1E0,-2.28E-1,-2.3E-1,-2.4760214E-3,-3.3719826E-2,8.6599E0,-5.44E0,4.391E2,8.2247E0,8.347E2,-1.152E0,-2.36E0,-7.68E-1,1.987231E-2,-4.11E0,4.5898E0,-7.2326055E-3,8E-2,-2.32E-1,4.8202E0,3.3848085E-3,6.2564E0,1.078E1,8.555E6,-3.19914E-3,3.9106232E-4,-1.86E-1,-3.5143883E-3,5.5469E0,1.6E1,2.275E1,8.374928E-4,-8.850175E-3,-2.7315775E-3,2.2945702E-3,5.0595277E-3,-0E0,1.8504454E-4,5.0865966E-3,4.652984E-3,1.3159284E-2,9.581861E-3,3.1993806E-3,-4.1994466E-3,-1.7190337E-2,1.3397618E-3,-3.7946524E-3],"split_indices":[20,16,5,0,0,1,8,11,0,11,16,5,18,0,5,1,0,8,18,1,0,4,8,6,0,0,19,0,0,20,9,0,0,0,0,0,0,0,0,0,0,0,0,0,0,0,0],"split_type":[0,0,0,0,0,0,0,0,0,0,0,0,0,0,0,0,0,0,0,0,0,0,0,0,0,0,0,0,0,0,0,0,0,0,0,0,0,0,0,0,0,0,0,0,0,0,0],"sum_hessian":[1.62E2,7E0,1.55E2,4E0,3E0,6.7E1,8.8E1,5.4E1,1.3E1,1.8E1,7E1,1.8E1,3.6E1,4E0,9E0,1.4E1,4E0,1.2E1,5.8E1,1.4E1,4E0,1E1,2.6E1,6E0,3E0,4E0,1E1,4E0,8E0,2.8E1,3E1,5E0,9E0,6E0,4E0,2.2E1,4E0,3E0,3E0,6E0,4E0,4E0,4E0,2.4E1,4E0,1.8E1,1.2E1],"tree_param":{"num_deleted":"0","num_feature":"23","num_nodes":"47","size_leaf_vector":"1"}},{"base_weights":[4.995528E-4,-1.3350857E-2,3.5566934E-3,-2.1721039E-2,-2.5009927E-3,8.308503E-2,-4.588258E-4,3.080669E-3,-5.753456E-3,4.662128E-2,-8.4812865E-3,1.6050434E-2,-3.323024E-3,-3.3391477E-4,-3.5652611E-3,3.555381E-2,-2.332893E-3,-1.24589E-3,-2.745203E-2,-5.9864074E-3,2.9972796E-3,1.4789438E-2,4.3656453E-3,6.9502243E-3,-1.7715042E-2,-4.558381E-3,1.4422728E-2,-1.6100764E-2,-0E0,-2.8120494E-3,-2.88078E-4,-0E0,-7.4924068E-3,-3.027867E-3,1.3620778E-3,4.828404E-3,-1.0926421E-3],"categories":[],"categories_nodes":[],"categories_segments":[],"categories_sizes":[],"default_left":[0,0,0,0,0,0,0,0,0,0,0,0,0,0,0,0,0,0,0,0,0,0,0,0,0,0,0,0,0,0,0,0,0,0,0,0,0],"id":40,"left_children":[1,3,5,-1,7,9,11,-1,13,-1,-1,15,17,19,-1,21,23,25,27,29,-1,-1,-1,-1,31,33,35,-1,-1,-1,-1,-1,-1,-1,-1,-1,-1],"loss_changes":[7.2875093E-3,2.2871464E-2,4.6401326E-2,0E0,1.3290263E-3,8.6120054E-2,6.42103E-3,0E0,9.234224E-4,0E0,0E0,7.527651E-3,5.635095E-3,1.0998602E-3,0E0,2.4662614E-3,5.3335754E-3,5.688562E-3,8.737575E-3,1.7243391E-4,0E0,0E0,0E0,0E0,1.6969696E-3,6.6132313E-3,1.7222678E-3,0E0,0E0,0E0,0E0,0E0,0E0,0E0,0E0,0E0,0E0],"parents":[2147483647,0,0,1,1,2,2,4,4,5,5,6,6,8,8,11,11,12,12,13,13,15,15,16,16,17,17,18,18,19,19,24,24,25,25,26,26],"right_children":[2,4,6,-1,8,10,12,-1,14,-1,-1,16,18,20,-1,22,24,26,28,30,-1,-1,-1,-1,32,34,36,-1,-1,-1,-1,-1,-1,-1,-1,-1,-1],"split_conditions":[9.44E1,1E0,1E0,-2.1721039E-2,-9.1E-1,3.83E0,1.174E2,3.080669E-3,-5.18E-1,4.662128E-2,-8.4812865E-3,1.3E1,8.889E0,-7.41E-1,-3.5652611E-3,3.7E-1,9.82E1,7.5023E0,-5E0,3.88E0,2.9972796E-3,1.4789438E-2,4.3656453E-3,6.9502243E-3,7.069E0,-2.32E-1,8.4676E0,-1.6100764E-2,-0E0,-2.8120494E-3,-2.88078E-4,-0E0,-7.4924068E-3,-3.027867E-3,1.3620778E-3,4.828404E-3,-1.0926421E-3],"split_indices":[15,20,20,0,8,12,15,0,17,0,0,20,4,19,0,8,15,1,5,12,0,0,0,0,1,18,2,0,0,0,0,0,0,0,0,0,0],"split_type":[0,0,0,0,0,0,0,0,0,0,0,0,0,0,0,0,0,0,0,0,0,0,0,0,0,0,0,0,0,0,0,0,0,0,0,0,0],"sum_hessian":[1.72E2,3E1,1.42E2,3E0,2.7E1,6E0,1.36E2,4E0,2.3E1,3E0,3E0,1.9E1,1.17E2,1.5E1,8E0,9E0,1E1,1.09E2,8E0,1.1E1,4E0,3E0,6E0,3E0,7E0,9.1E1,1.8E1,3E0,5E0,4E0,7E0,3E0,4E0,5.3E1,3.8E1,1.5E1,3E0],"tree_param":{"num_deleted":"0","num_feature":"23","num_nodes":"37","size_leaf_vector":"1"}},{"base_weights":[2.8915182E-3,-8.361565E-3,8.331563E-3,-0E0,-2.4958525E-2,2.9219639E-2,2.777049E-3,5.7328083E-3,-2.0816967E-2,-4.718763E-3,1.1332671E-2,7.0673027E-3,1.9496412E-3,-1.3051217E-2,-4.3998333E-3,7.372705E-3,-1.4501882E-2,5.4406975E-3,4.4301044E-2,-1.1188587E-2,6.7020277E-3,1.6193979E-3,-3.1495353E-3,9.0146204E-4,1.1359267E-2,-3.8847335E-2,-1.3918584E-3,-6.7098867E-3,1.0890995E-2,2.0449813E-2,-2.1229424E-3,3.5063862E-5,-5.213351E-3,2.8072968E-3,-3.58029E-3,-2.3302673E-3,2.5695562E-3,-1.4933296E-2,-0E0,-3.3224195E-3,3.24598E-3,8.226105E-4,-3.3110452E-3,-9.435008E-4,4.2864094E-3],"categories":[],"categories_nodes":[],"categories_segments":[],"categories_sizes":[],"default_left":[0,0,0,0,0,0,0,0,0,0,0,0,0,0,0,0,0,0,0,0,0,0,0,0,0,0,0,0,0,0,0,0,0,0,0,0,0,0,0,0,0,0,0,0,0],"id":41,"left_children":[1,3,5,7,-1,-1,9,11,13,15,17,-1,19,-1,21,23,25,27,29,31,33,-1,-1,35,-1,37,39,41,43,-1,-1,-1,-1,-1,-1,-1,-1,-1,-1,-1,-1,-1,-1,-1,-1],"loss_changes":[1.09634185E-2,4.256542E-2,6.9224514E-2,6.603853E-3,0E0,0E0,7.54665E-3,3.220435E-3,5.1701516E-3,7.4971737E-3,1.0019922E-2,0E0,2.4066125E-3,0E0,8.744646E-4,6.216837E-3,1.07687125E-2,3.2846192E-3,1.5906036E-2,1.1933141E-3,2.616276E-3,0E0,0E0,2.3445606E-3,0E0,8.665187E-3,4.01136E-3,1.0306645E-3,3.0007404E-3,0E0,0E0,0E0,0E0,0E0,0E0,0E0,0E0,0E0,0E0,0E0,0E0,0E0,0E0,0E0,0E0],"parents":[2147483647,0,0,1,1,2,2,3,3,6,6,7,7,8,8,9,9,10,10,12,12,14,14,15,15,16,16,17,17,18,18,19,19,20,20,23,23,25,25,26,26,27,27,28,28],"right_children":[2,4,6,8,-1,-1,10,12,14,16,18,-1,20,-1,22,24,26,28,30,32,34,-1,-1,36,-1,38,40,42,44,-1,-1,-1,-1,-1,-1,-1,-1,-1,-1,-1,-1,-1,-1,-1,-1],"split_conditions":[6E6,5.596E6,1E0,7.466E2,-2.4958525E-2,2.9219639E-2,3.12E0,-6.55E0,9E0,6.3393E0,2.898E1,7.0673027E-3,-4.9E-1,-1.3051217E-2,2.84E5,5.993E0,6.8684E0,1.245E2,1.56E1,-4.14E0,1.049E0,1.6193979E-3,-3.1495353E-3,1E1,1.1359267E-2,-2.32E-1,7.8679E0,-7.07E-1,-3.63E0,2.0449813E-2,-2.1229424E-3,3.5063862E-5,-5.213351E-3,2.8072968E-3,-3.58029E-3,-2.3302673E-3,2.5695562E-3,-1.4933296E-2,-0E0,-3.3224195E-3,3.24598E-3,8.226105E-4,-3.3110452E-3,-9.435008E-4,4.2864094E-3],"split_indices":[6,7,20,11,0,0,8,5,20,3,13,0,5,0,7,3,1,15,10,5,18,0,0,20,0,18,0,18,5,0,0,0,0,0,0,0,0,0,0,0,0,0,0,0,0],"split_type":[0,0,0,0,0,0,0,0,0,0,0,0,0,0,0,0,0,0,0,0,0,0,0,0,0,0,0,0,0,0,0,0,0,0,0,0,0,0,0,0,0,0,0,0,0],"sum_hessian":[1.77E2,5.7E1,1.2E2,5.3E1,4E0,5E0,1.15E2,4.2E1,1.1E1,6.1E1,5.4E1,5E0,3.7E1,3E0,8E0,2.7E1,3.4E1,4.7E1,7E0,9E0,2.8E1,3E0,5E0,2.4E1,3E0,1.1E1,2.3E1,1.4E1,3.3E1,4E0,3E0,4E0,5E0,2.4E1,4E0,1.1E1,1.3E1,7E0,4E0,1.3E1,1E1,5E0,9E0,9E0,2.4E1],"tree_param":{"num_deleted":"0","num_feature":"23","num_nodes":"45","size_leaf_vector":"1"}},{"base_weights":[9.86769E-4,4.036188E-3,-1.2601652E-2,1.0653391E-2,-8.580009E-3,-2.4744608E-2,-4.3896658E-4,2.2917237E-2,5.3060045E-3,-1.6372917E-2,-2.2669816E-3,5.5417386E-3,-6.2429574E-3,1.5595153E-3,2.704629E-2,-2.0827627E-2,4.6375464E-3,-2.1930471E-2,-0E0,1.1608355E-2,-2.87897E-3,-0E0,1.8610526E-2,-1.0144811E-2,-3.3393356E-3,1.2578686E-3,4.857863E-3,-1.182042E-3,-8.187264E-3,2.7150004E-3,-3.5086356E-3,4.1883625E-3,-0E0,-1.3758003E-3,7.1582003E-3,1.4113908E-3,-1.2938558E-3,-3.718317E-3,2.3733855E-3,4.407466E-3,-4.1423546E-4,-2.1483058E-3,1.3233644E-3],"categories":[],"categories_nodes":[],"categories_segments":[],"categories_sizes":[],"default_left":[0,0,0,0,0,0,0,0,0,0,0,0,0,0,0,0,0,0,0,0,0,0,0,0,0,0,0,0,0,0,0,0,0,0,0,0,0,0,0,0,0,0,0],"id":42,"left_children":[1,3,5,7,9,-1,11,-1,13,-1,15,-1,17,19,21,23,25,27,29,31,33,35,-1,-1,37,39,-1,-1,-1,-1,41,-1,-1,-1,-1,-1,-1,-1,-1,-1,-1,-1,-1],"loss_changes":[7.2688996E-3,1.2210673E-2,3.154838E-2,3.8866714E-2,1.6619157E-2,0E0,3.6889245E-3,0E0,7.125291E-3,0E0,6.1249267E-3,0E0,2.4222245E-3,3.6297133E-3,1.6425887E-2,3.707481E-3,1.4358303E-3,7.3587033E-4,7.2374946E-4,1.374122E-3,4.08762E-3,2.695865E-4,0E0,0E0,1.2826342E-3,1.472364E-3,0E0,0E0,0E0,0E0,6.511751E-4,0E0,0E0,0E0,0E0,0E0,0E0,0E0,0E0,0E0,0E0,0E0,0E0],"parents":[2147483647,0,0,1,1,2,2,3,3,4,4,6,6,8,8,10,10,12,12,13,13,14,14,15,15,16,16,17,17,18,18,19,19,20,20,21,21,24,24,25,25,30,30],"right_children":[2,4,6,8,10,-1,12,-1,14,-1,16,-1,18,20,22,24,26,28,30,32,34,36,-1,-1,38,40,-1,-1,-1,-1,42,-1,-1,-1,-1,-1,-1,-1,-1,-1,-1,-1,-1],"split_conditions":[6.27E-1,2E-1,4E0,1E0,1E0,-2.4744608E-2,2.505E1,2.2917237E-2,2.915E1,-1.6372917E-2,1.7E-2,5.5417386E-3,1.3E1,-4.95E-1,1.088E2,5.024E2,2.83E-1,6.0189E0,1.0893E7,-2.47E-1,9.3328E0,7.2E0,1.8610526E-2,-1.0144811E-2,6.5208E0,-1.608E0,4.857863E-3,-1.182042E-3,-8.187264E-3,2.7150004E-3,5.471E2,4.1883625E-3,-0E0,-1.3758003E-3,7.1582003E-3,1.4113908E-3,-1.2938558E-3,-3.718317E-3,2.3733855E-3,4.407466E-3,-4.1423546E-4,-2.1483058E-3,1.3233644E-3],"split_indices":[18,19,20,20,20,0,13,0,13,0,17,0,20,18,15,11,16,2,7,17,0,1,0,0,2,18,0,0,0,0,11,0,0,0,0,0,0,0,0,0,0,0,0],"split_type":[0,0,0,0,0,0,0,0,0,0,0,0,0,0,0,0,0,0,0,0,0,0,0,0,0,0,0,0,0,0,0,0,0,0,0,0,0,0,0,0,0,0,0],"sum_hessian":[1.75E2,1.44E2,3.1E1,9.5E1,4.9E1,3E0,2.8E1,5E0,9E1,4E0,4.5E1,5E0,2.3E1,7.8E1,1.2E1,1.2E1,3.3E1,6E0,1.7E1,2.4E1,5.4E1,8E0,4E0,5E0,7E0,2.8E1,5E0,3E0,3E0,4E0,1.3E1,1.7E1,7E0,5.1E1,3E0,3E0,5E0,4E0,3E0,4E0,2.4E1,9E0,4E0],"tree_param":{"num_deleted":"0","num_feature":"23","num_nodes":"43","size_leaf_vector":"1"}},{"base_weights":[-3.2777647E-3,-8.279336E-2,6.799611E-4,-6.476987E-3,-3.416579E-2,-2.7343456E-2,2.2029805E-3,-0E0,-1.1611861E-2,5.573827E-3,-2.642462E-3,1.0640954E-2,-9.377375E-4,-1.4909977E-2,5.269907E-3,6.1397837E-3,1.5807128E-2,9.483221E-3,-5.0077448E-3,4.524135E-3,-3.3875015E-2,9.671786E-3,-1.1399221E-2,-1.0151128E-4,3.2948705E-3,5.2157952E-3,-0E0,-2.8836546E-3,1.5201899E-3,7.254292E-3,-1.1548519E-3,-2.2810448E-2,-2.048423E-3,-2.5705972E-3,4.4634845E-3,-7.3631476E-3,7.313635E-4],"categories":[],"categories_nodes":[],"categories_segments":[],"categories_sizes":[],"default_left":[0,0,0,0,0,0,0,0,0,0,0,0,0,0,0,0,0,0,0,0,0,0,0,0,0,0,0,0,0,0,0,0,0,0,0,0,0],"id":43,"left_children":[1,3,5,-1,-1,7,9,-1,-1,11,13,15,17,19,21,23,-1,25,27,29,31,33,35,-1,-1,-1,-1,-1,-1,-1,-1,-1,-1,-1,-1,-1,-1],"loss_changes":[5.2988514E-2,1.825726E-2,6.630153E-3,0E0,0E0,4.124819E-3,2.5217172E-3,0E0,0E0,3.09429E-3,6.1751436E-3,1.0905102E-2,1.7040716E-3,9.60684E-3,2.8800634E-3,2.2330934E-3,0E0,1.0485372E-3,2.1264395E-3,3.0818367E-3,1.6854983E-2,4.8743454E-3,2.24578E-3,0E0,0E0,0E0,0E0,0E0,0E0,0E0,0E0,0E0,0E0,0E0,0E0,0E0,0E0],"parents":[2147483647,0,0,1,1,2,2,5,5,6,6,9,9,10,10,11,11,12,12,13,13,14,14,15,15,17,17,18,18,19,19,20,20,21,21,22,22],"right_children":[2,4,6,-1,-1,8,10,-1,-1,12,14,16,18,20,22,24,-1,26,28,30,32,34,36,-1,-1,-1,