{"learner":{"attributes":{"scikit_learn":"{\"_estimator_type\": \"regressor\"}"},"feature_names":["yield_lag_1","yield_lag_2","yield_lag_3","yield_rolling_3y","yield_rolling_5y","yield_mt_ha_yoy_pct","area_ha","area_lag_1","area_ha_yoy_pct","avg_temp_max_c","avg_temp_min_c","total_precip_mm","avg_et0_mm","growing_season_temp_max_c","growing_season_temp_min_c","growing_season_precip_mm","avg_temp_max_c_anomaly","total_precip_mm_anomaly","growing_season_temp_max_c_anomaly","growing_season_precip_mm_anomaly","years_since_2000","crop_year_rank","country_encoded"],"feature_types":["float","float","float","float","float","float","float","float","float","float","float","float","float","float","float","float","float","float","float","float","int","float","int"],"gradient_booster":{"model":{"cats":{"enc":[],"feature_segments":[],"sorted_idx":[]},"gbtree_model_param":{"num_parallel_tree":"1","num_trees":"487"},"iteration_indptr":[0,1,2,3,4,5,6,7,8,9,10,11,12,13,14,15,16,17,18,19,20,21,22,23,24,25,26,27,28,29,30,31,32,33,34,35,36,37,38,39,40,41,42,43,44,45,46,47,48,49,50,51,52,53,54,55,56,57,58,59,60,61,62,63,64,65,66,67,68,69,70,71,72,73,74,75,76,77,78,79,80,81,82,83,84,85,86,87,88,89,90,91,92,93,94,95,96,97,98,99,100,101,102,103,104,105,106,107,108,109,110,111,112,113,114,115,116,117,118,119,120,121,122,123,124,125,126,127,128,129,130,131,132,133,134,135,136,137,138,139,140,141,142,143,144,145,146,147,148,149,150,151,152,153,154,155,156,157,158,159,160,161,162,163,164,165,166,167,168,169,170,171,172,173,174,175,176,177,178,179,180,181,182,183,184,185,186,187,188,189,190,191,192,193,194,195,196,197,198,199,200,201,202,203,204,205,206,207,208,209,210,211,212,213,214,215,216,217,218,219,220,221,222,223,224,225,226,227,228,229,230,231,232,233,234,235,236,237,238,239,240,241,242,243,244,245,246,247,248,249,250,251,252,253,254,255,256,257,258,259,260,261,262,263,264,265,266,267,268,269,270,271,272,273,274,275,276,277,278,279,280,281,282,283,284,285,286,287,288,289,290,291,292,293,294,295,296,297,298,299,300,301,302,303,304,305,306,307,308,309,310,311,312,313,314,315,316,317,318,319,320,321,322,323,324,325,326,327,328,329,330,331,332,333,334,335,336,337,338,339,340,341,342,343,344,345,346,347,348,349,350,351,352,353,354,355,356,357,358,359,360,361,362,363,364,365,366,367,368,369,370,371,372,373,374,375,376,377,378,379,380,381,382,383,384,385,386,387,388,389,390,391,392,393,394,395,396,397,398,399,400,401,402,403,404,405,406,407,408,409,410,411,412,413,414,415,416,417,418,419,420,421,422,423,424,425,426,427,428,429,430,431,432,433,434,435,436,437,438,439,440,441,442,443,444,445,446,447,448,449,450,451,452,453,454,455,456,457,458,459,460,461,462,463,464,465,466,467,468,469,470,471,472,473,474,475,476,477,478,479,480,481,482,483,484,485,486,487],"tree_info":[0,0,0,0,0,0,0,0,0,0,0,0,0,0,0,0,0,0,0,0,0,0,0,0,0,0,0,0,0,0,0,0,0,0,0,0,0,0,0,0,0,0,0,0,0,0,0,0,0,0,0,0,0,0,0,0,0,0,0,0,0,0,0,0,0,0,0,0,0,0,0,0,0,0,0,0,0,0,0,0,0,0,0,0,0,0,0,0,0,0,0,0,0,0,0,0,0,0,0,0,0,0,0,0,0,0,0,0,0,0,0,0,0,0,0,0,0,0,0,0,0,0,0,0,0,0,0,0,0,0,0,0,0,0,0,0,0,0,0,0,0,0,0,0,0,0,0,0,0,0,0,0,0,0,0,0,0,0,0,0,0,0,0,0,0,0,0,0,0,0,0,0,0,0,0,0,0,0,0,0,0,0,0,0,0,0,0,0,0,0,0,0,0,0,0,0,0,0,0,0,0,0,0,0,0,0,0,0,0,0,0,0,0,0,0,0,0,0,0,0,0,0,0,0,0,0,0,0,0,0,0,0,0,0,0,0,0,0,0,0,0,0,0,0,0,0,0,0,0,0,0,0,0,0,0,0,0,0,0,0,0,0,0,0,0,0,0,0,0,0,0,0,0,0,0,0,0,0,0,0,0,0,0,0,0,0,0,0,0,0,0,0,0,0,0,0,0,0,0,0,0,0,0,0,0,0,0,0,0,0,0,0,0,0,0,0,0,0,0,0,0,0,0,0,0,0,0,0,0,0,0,0,0,0,0,0,0,0,0,0,0,0,0,0,0,0,0,0,0,0,0,0,0,0,0,0,0,0,0,0,0,0,0,0,0,0,0,0,0,0,0,0,0,0,0,0,0,0,0,0,0,0,0,0,0,0,0,0,0,0,0,0,0,0,0,0,0,0,0,0,0,0,0,0,0,0,0,0,0,0,0,0,0,0,0,0,0,0,0,0,0,0,0,0,0,0,0,0,0,0,0,0,0,0,0,0,0,0,0,0,0,0,0,0,0,0,0,0,0,0,0,0,0,0,0,0,0,0,0,0,0,0,0,0,0,0,0,0,0,0,0,0,0,0,0,0,0,0,0,0,0,0,0,0,0,0,0],"trees":[{"base_weights":[1.2712407E-1,-4.081128E0,2.4173904E1,-1.1596389E1,1.6959982E-1,1.7744143E1,3.0153084E1,-2.0818092E1,-9.874602E0,-1.163959E0,4.657352E0,3.668257E0,6.589207E0,7.860265E0,9.692879E0,-7.0715775E0,-5.180729E0,-1.0998024E1,-2.2834824E-1,-3.1765761E0,7.876651E-1,3.0601463E0,3.3144948E0,-4.0837274E0,-8.771274E0,-4.8312793E0,1.04193E0,2.770836E-1,1.3679016E0,-4.1401947E-1,1.3281517E0,-3.085797E0,-2.4067469E0,-7.261415E0,-9.2598224E-1,1.1535103E0,-8.363857E-1,-7.0228E-1,6.876426E-1,-9.725619E0,-8.674899E-1,-8.693564E-1,2.8928995E-1,3.5464016E-1,1.1732578E0,-3.6019895E0,-1.8091395E0,-0E0,2.0421784E-1,2.4411438E-1,4.7012135E-1],"categories":[],"categories_nodes":[],"categories_segments":[],"categories_sizes":[],"default_left":[0,0,0,0,0,0,0,0,0,0,0,0,0,0,0,0,0,0,0,0,0,0,0,0,0,0,0,0,0,0,0,0,0,0,0,0,0,0,0,0,0,0,0,0,0,0,0,0,0,0,0],"id":0,"left_children":[1,3,5,7,9,11,13,15,17,19,21,-1,-1,-1,-1,-1,-1,23,-1,25,27,29,-1,-1,31,33,35,37,-1,-1,-1,-1,-1,39,41,-1,-1,-1,43,45,-1,-1,-1,47,49,-1,-1,-1,-1,-1,-1],"loss_changes":[2.1063E4,5.662199E3,1.1572305E3,9.945947E2,6.786815E2,3.4000928E2,1.0697168E2,7.256152E1,5.441846E2,3.4336865E2,2.62847E2,0E0,0E0,0E0,0E0,0E0,0E0,2.86521E2,0E0,3.0277155E2,8.303329E1,1.3675897E2,0E0,0E0,1.5240234E1,2.886765E2,1.339325E2,4.1376965E1,0E0,0E0,0E0,0E0,0E0,1.9382196E2,4.748648E1,0E0,0E0,0E0,4.463602E0,9.4025024E1,0E0,0E0,0E0,2.14106E0,2.4550056E-1,0E0,0E0,0E0,0E0,0E0,0E0],"parents":[2147483647,0,0,1,1,2,2,3,3,4,4,5,5,6,6,7,7,8,8,9,9,10,10,17,17,19,19,20,20,21,21,24,24,25,25,26,26,27,27,33,33,34,34,38,38,39,39,43,43,44,44],"right_children":[2,4,6,8,10,12,14,16,18,20,22,-1,-1,-1,-1,-1,-1,24,-1,26,28,30,-1,-1,32,34,36,38,-1,-1,-1,-1,-1,40,42,-1,-1,-1,44,46,-1,-1,-1,48,50,-1,-1,-1,-1,-1,-1],"split_conditions":[3.33175E1,1.88944E1,5.05721E1,8.6694E0,2.66812E1,3.90625E1,5.61968E1,6.1176E0,1.657E1,2.52E1,2.6E-1,3.668257E0,6.589207E0,7.860265E0,9.692879E0,-7.0715775E0,-5.180729E0,1.43495E1,-2.2834824E-1,4.18E6,2.705E1,3.00156E1,3.3144948E0,-4.0837274E0,1.54284E1,2.33E0,1.9587E7,-6.75E0,1.3679016E0,-4.1401947E-1,1.3281517E0,-3.085797E0,-2.4067469E0,6.44E-1,1.251E1,1.1535103E0,-8.363857E-1,-7.0228E-1,2.64539E1,4E0,-8.674899E-1,-8.693564E-1,2.8928995E-1,-3E-2,3E-2,-3.6019895E0,-1.8091395E0,-0E0,2.0421784E-1,2.4411438E-1,4.7012135E-1],"split_indices":[0,0,0,0,4,1,0,0,5,0,5,0,0,0,0,0,0,0,0,6,13,4,0,0,0,5,6,5,0,0,0,0,0,17,5,0,0,0,0,21,0,0,0,5,5,0,0,0,0,0,0],"split_type":[0,0,0,0,0,0,0,0,0,0,0,0,0,0,0,0,0,0,0,0,0,0,0,0,0,0,0,0,0,0,0,0,0,0,0,0,0,0,0,0,0,0,0,0,0,0,0,0,0,0,0],"sum_hessian":[2.08E2,1.77E2,3.1E1,6.4E1,1.13E2,1.5E1,1.6E1,1E1,5.4E1,8.7E1,2.6E1,7E0,8E0,7E0,9E0,5E0,5E0,4.8E1,6E0,4.3E1,4.4E1,2.1E1,5E0,2.1E1,2.7E1,3.1E1,1.2E1,3.9E1,5E0,5E0,1.6E1,7E0,2E1,1.9E1,1.2E1,7E0,5E0,5E0,3.4E1,1.2E1,7E0,6E0,6E0,2.1E1,1.3E1,7E0,5E0,1.1E1,1E1,8E0,5E0],"tree_param":{"num_deleted":"0","num_feature":"23","num_nodes":"51","size_leaf_vector":"1"}},{"base_weights":[2.896146E-1,-2.995182E0,1.6538574E1,-9.410998E0,-3.2202035E-2,1.2118566E1,2.2087036E1,-1.2557806E1,-7.323346E0,-1.1097654E0,4.248043E0,9.859812E0,5.4032307E0,6.0248413E0,7.475026E0,-3.2966595E0,-4.984747E0,-2.6464124E0,-6.6519313E0,-2.0238876E0,-4.7860274E-1,2.7240214E0,2.8267078E0,2.030284E0,4.456505E0,-2.2064006E0,-1.7944177E0,-9.3473005E-1,1.5532327E0,5.472413E-1,9.299417E-1,-2.3357608E0,6.421912E-1,-3.9752445E0,-7.4164546E-1,2.6327386E-1,8.4296465E-1,-1.467107E0,-2.5472337E-1,1.99551E-2,-6.3219386E-1,-5.767696E-2,1.1149337E-1],"categories":[],"categories_nodes":[],"categories_segments":[],"categories_sizes":[],"default_left":[0,0,0,0,0,0,0,0,0,0,0,0,0,0,0,0,0,0,0,0,0,0,0,0,0,0,0,0,0,0,0,0,0,0,0,0,0,0,0,0,0,0,0],"id":1,"left_children":[1,3,5,7,9,11,13,15,17,19,21,23,-1,-1,-1,-1,-1,-1,25,-1,27,-1,29,-1,-1,-1,-1,31,-1,-1,-1,33,35,37,39,41,-1,-1,-1,-1,-1,-1,-1],"loss_changes":[1.0791262E4,3.1873628E3,8.0963184E2,3.3436133E2,5.283249E2,2.452539E2,4.8455566E1,1.06883545E2,2.435022E1,3.2849597E2,1.5439505E2,2.033291E2,0E0,0E0,0E0,0E0,0E0,0E0,1.4936523E0,0E0,2.1431851E2,0E0,2.234665E0,0E0,0E0,0E0,0E0,1.7127893E2,0E0,0E0,0E0,1.0396263E2,2.80638E1,5.7808594E1,2.5177773E1,1.7473297E0,0E0,0E0,0E0,0E0,0E0,0E0,0E0],"parents":[2147483647,0,0,1,1,2,2,3,3,4,4,5,5,6,6,7,7,8,8,9,9,10,10,11,11,18,18,20,20,22,22,27,27,31,31,32,32,33,33,34,34,35,35],"right_children":[2,4,6,8,10,12,14,16,18,20,22,24,-1,-1,-1,-1,-1,-1,26,-1,28,-1,30,-1,-1,-1,-1,32,-1,-1,-1,34,36,38,40,42,-1,-1,-1,-1,-1,-1,-1],"split_conditions":[3.33175E1,1.76923E1,5.05721E1,1.15492E1,2.8432E1,9.07E0,3.93E0,1.601E6,1.375E1,-1.234E1,2.93844E1,4.502E2,5.4032307E0,6.0248413E0,7.475026E0,-3.2966595E0,-4.984747E0,-2.6464124E0,8.8E-1,-2.0238876E0,2.879E1,2.7240214E0,3.00152E1,2.030284E0,4.456505E0,-2.2064006E0,-1.7944177E0,2.52E1,1.5532327E0,5.472413E-1,9.299417E-1,3E0,2.72919E1,6.44E-1,1.285E1,-3.89E0,8.4296465E-1,-1.467107E0,-2.5472337E-1,1.99551E-2,-6.3219386E-1,-5.767696E-2,1.1149337E-1],"split_indices":[1,0,0,0,2,5,5,7,0,5,1,11,0,0,0,0,0,0,5,0,13,0,2,0,0,0,0,0,0,0,0,5,0,17,10,5,0,0,0,0,0,0,0],"split_type":[0,0,0,0,0,0,0,0,0,0,0,0,0,0,0,0,0,0,0,0,0,0,0,0,0,0,0,0,0,0,0,0,0,0,0,0,0,0,0,0,0,0,0],"sum_hessian":[2.02E2,1.68E2,3.4E1,5.3E1,1.15E2,1.9E1,1.5E1,2.1E1,3.2E1,9.2E1,2.3E1,1.4E1,5E0,1E1,5E0,1.6E1,5E0,9E0,2.3E1,9E0,8.3E1,5E0,1.8E1,9E0,5E0,9E0,1.4E1,7.7E1,6E0,5E0,1.3E1,4.1E1,3.6E1,2E1,2.1E1,3.1E1,5E0,1.5E1,5E0,1.3E1,8E0,5E0,2.6E1],"tree_param":{"num_deleted":"0","num_feature":"23","num_nodes":"43","size_leaf_vector":"1"}},{"base_weights":[-3.6454114E-1,-2.1393247E0,1.2721947E1,-5.47416E0,8.8826984E-1,9.968237E0,4.9984846E0,-8.240892E0,-3.9991732E0,1.3962583E-1,6.732316E0,2.1786861E0,3.679356E0,-7.414866E0,-3.5134888E0,-5.144238E0,-2.87082E0,-1.5405191E0,5.893453E-1,2.740478E0,1.1947563E0,-2.5712504E0,-2.0431206E0,-1.8146524E0,-1.3766601E0,-3.7305667E0,-1.3406543E0,-1.7193815E-1,2.788129E0,-8.355152E-1,-1.1958401E0,-6.0797364E-1,-1.437064E-1,2.2521055E-1,-1.2393126E0,1.3910316E0,6.061695E-1,-0E0,6.8203986E-1,-1.5301453E-1,4.6367094E-2],"categories":[],"categories_nodes":[],"categories_segments":[],"categories_sizes":[],"default_left":[0,0,0,0,0,0,0,0,0,0,0,0,0,0,0,0,0,0,0,0,0,0,0,0,0,0,0,0,0,0,0,0,0,0,0,0,0,0,0,0,0],"id":2,"left_children":[1,3,5,7,9,11,-1,13,15,17,19,-1,-1,21,-1,23,25,-1,27,-1,-1,-1,-1,-1,-1,29,31,33,35,-1,-1,-1,-1,37,-1,-1,-1,39,-1,-1,-1],"loss_changes":[4.4756177E3,1.7195771E3,2.4723389E2,3.221477E2,3.847516E2,7.652881E1,0E0,7.109912E1,6.2998047E1,1.871603E2,5.9275635E1,0E0,0E0,3.9399414E0,0E0,5.1294556E0,3.2073776E1,0E0,1.23973465E2,0E0,0E0,0E0,0E0,0E0,0E0,1.7762756E-1,4.4074516E0,8.8996414E1,2.22538E1,0E0,0E0,0E0,0E0,2.4199703E1,0E0,0E0,0E0,3.7668543E0,0E0,0E0,0E0],"parents":[2147483647,0,0,1,1,2,2,3,3,4,4,5,5,7,7,8,8,9,9,10,10,13,13,15,15,16,16,18,18,25,25,26,26,27,27,28,28,33,33,37,37],"right_children":[2,4,6,8,10,12,-1,14,16,18,20,-1,-1,22,-1,24,26,-1,28,-1,-1,-1,-1,-1,-1,30,32,34,36,-1,-1,-1,-1,38,-1,-1,-1,40,-1,-1,-1],"split_conditions":[3.74673E1,2.17329E1,5.36623E1,1.28517E1,1.1E1,3.81E0,4.9984846E0,9.5E5,2.33E0,-1.234E1,3.16631E1,2.1786861E0,3.679356E0,9.526E0,-3.5134888E0,-5.6E0,1.80316E1,-1.5405191E0,2.97642E1,2.740478E0,1.1947563E0,-2.5712504E0,-2.0431206E0,-1.8146524E0,-1.3766601E0,1.24E6,1.251E1,3.85E0,-1.094E0,-8.355152E-1,-1.1958401E0,-6.0797364E-1,-1.437064E-1,3.761E2,-1.2393126E0,1.3910316E0,6.061695E-1,6E0,6.8203986E-1,-1.5301453E-1,4.6367094E-2],"split_indices":[1,0,0,0,22,12,0,6,5,5,3,0,0,1,0,5,0,0,0,0,0,0,0,0,0,6,5,12,16,0,0,0,0,15,0,0,0,21,0,0,0],"split_type":[0,0,0,0,0,0,0,0,0,0,0,0,0,0,0,0,0,0,0,0,0,0,0,0,0,0,0,0,0,0,0,0,0,0,0,0,0,0,0,0,0],"sum_hessian":[1.93E2,1.7E2,2.3E1,8.1E1,8.9E1,1.4E1,9E0,2.8E1,5.3E1,7.9E1,1E1,7E0,7E0,2.3E1,5E0,2.6E1,2.7E1,6E0,7.3E1,5E0,5E0,6E0,1.7E1,8E0,1.8E1,1.7E1,1E1,5.4E1,1.9E1,5E0,1.2E1,5E0,5E0,4.9E1,5E0,5E0,1.4E1,4.4E1,5E0,1.1E1,3.3E1],"tree_param":{"num_deleted":"0","num_feature":"23","num_nodes":"41","size_leaf_vector":"1"}},{"base_weights":[7.545733E-2,-1.3708044E0,8.027467E0,-4.5614643E0,-5.384658E-1,5.696819E0,1.0806592E1,-2.1419315E0,-3.7381845E0,-2.7719393E-2,-5.2779994E0,2.52227E0,7.1215445E-1,2.9357877E0,3.6097794E0,-3.184703E0,-1.4082526E0,-3.119718E-1,1.9148388E0,-3.0528972E0,-2.4870485E-1,-1.0743395E0,-6.393442E-1,-5.9196675E-1,1.7189282E0,8.491504E-2,-2.2326727E0,1.8268505E0,-3.8189816E-1,-1.7585585E0,-1.5431762E0,6.7465E-1,4.2480016E-1,-6.915335E-1,-0E0,-0E0,-6.4045185E-1],"categories":[],"categories_nodes":[],"categories_segments":[],"categories_sizes":[],"default_left":[0,0,0,0,0,0,0,0,0,0,0,0,0,0,0,0,0,0,0,0,0,0,0,0,0,0,0,0,0,0,0,0,0,0,0,0,0],"id":3,"left_children":[1,3,5,7,9,11,13,-1,15,17,19,-1,-1,-1,-1,21,-1,23,-1,-1,-1,-1,-1,25,-1,27,29,31,33,-1,35,-1,-1,-1,-1,-1,-1],"loss_changes":[2.3162383E3,4.480219E2,1.8938953E2,6.9984985E1,3.232156E2,1.5133722E2,1.6605225E0,0E0,9.946228E0,2.2163065E2,2.8419598E2,0E0,0E0,0E0,0E0,4.355606E0,0E0,1.9736014E2,0E0,0E0,0E0,0E0,0E0,1.2584157E2,0E0,6.522346E1,7.95728E1,4.898033E-1,4.579957E1,0E0,2.7369705E1,0E0,0E0,0E0,0E0,0E0,0E0],"parents":[2147483647,0,0,1,1,2,2,3,3,4,4,5,5,6,6,8,8,9,9,10,10,15,15,17,17,23,23,25,25,26,26,27,27,28,28,30,30],"right_children":[2,4,6,8,10,12,14,-1,16,18,20,-1,-1,-1,-1,22,-1,24,-1,-1,-1,-1,-1,26,-1,28,30,32,34,-1,36,-1,-1,-1,-1,-1,-1],"split_conditions":[3.11954E1,1.6904E1,8.748E6,7.3581E0,4.848E2,7.339E6,1.171E1,-2.1419315E0,1E1,3.843E1,3E0,2.52227E0,7.1215445E-1,2.9357877E0,3.6097794E0,3.06E-1,-1.4082526E0,1.1E1,1.9148388E0,-3.0528972E0,-2.4870485E-1,-1.0743395E0,-6.393442E-1,1.272E1,1.7189282E0,1E0,3E0,3.00152E1,2.053E1,-1.7585585E0,8.82E5,6.7465E-1,4.2480016E-1,-6.915335E-1,-0E0,-0E0,-6.4045185E-1],"split_indices":[2,2,7,2,15,6,10,0,22,5,21,0,0,0,0,18,0,22,0,0,0,0,0,10,0,22,21,2,9,0,6,0,0,0,0,0,0],"split_type":[0,0,0,0,0,0,0,0,0,0,0,0,0,0,0,0,0,0,0,0,0,0,0,0,0,0,0,0,0,0,0,0,0,0,0,0,0],"sum_hessian":[2.01E2,1.7E2,3.1E1,3.5E1,1.35E2,1.7E1,1.4E1,8E0,2.7E1,1.22E2,1.3E1,9E0,8E0,9E0,5E0,1.8E1,9E0,1.17E2,5E0,6E0,7E0,1.2E1,6E0,1.12E2,5E0,7.9E1,3.3E1,1.7E1,6.2E1,5E0,2.8E1,7E0,1E1,1E1,5.2E1,8E0,2E1],"tree_param":{"num_deleted":"0","num_feature":"23","num_nodes":"37","size_leaf_vector":"1"}},{"base_weights":[-1.2521441E-1,-9.375562E-1,6.8585243E0,-3.6648393E0,-1.1091788E-1,7.8839207E0,9.549489E-1,-1.7081944E0,-3.3118963E0,-3.7993053E-1,2.166099E0,2.0459104E0,2.9646885E0,-3.0628955E0,-1.422458E0,-1.762693E0,-1.6932943E-1,-3.27143E0,-5.93713E-1,1.4587635E-2,-1.0789807E0,-1.0355623E0,-6.20678E-1,-1.5026195E0,4.228793E-1,-1.1370417E0,-8.7828E-1,2.4577814E-1,1.0988138E0,-4.454322E-1,-1.0189117E-2,-2.301325E-2,3.8882414E-1],"categories":[],"categories_nodes":[],"categories_segments":[],"categories_sizes":[],"default_left":[0,0,0,0,0,0,0,0,0,0,0,0,0,0,0,0,0,0,0,0,0,0,0,0,0,0,0,0,0,0,0,0,0],"id":4,"left_children":[1,3,5,7,9,11,-1,-1,13,15,-1,-1,-1,17,-1,-1,19,21,-1,23,-1,-1,-1,25,27,29,-1,31,-1,-1,-1,-1,-1],"loss_changes":[1.1987623E3,4.2580472E2,7.416846E1,2.666919E1,2.877154E2,2.3271606E1,0E0,0E0,8.840607E0,1.6178561E2,0E0,0E0,0E0,3.6445007E0,0E0,0E0,8.96035E1,3.5902405E0,0E0,7.918586E1,0E0,0E0,0E0,1.1726803E1,5.6881256E1,7.9587708E0,0E0,3.4457108E1,0E0,0E0,0E0,0E0,0E0],"parents":[2147483647,0,0,1,1,2,2,3,3,4,4,5,5,8,8,9,9,13,13,16,16,17,17,19,19,23,23,24,24,25,25,27,27],"right_children":[2,4,6,8,10,12,-1,-1,14,16,-1,-1,-1,18,-1,-1,20,22,-1,24,-1,-1,-1,26,28,30,-1,32,-1,-1,-1,-1,-1],"split_conditions":[3.78151E1,1.66732E1,1.326E1,2.3439E0,3.559E1,3.96E0,9.549489E-1,-1.7081944E0,1.925E1,-2.427E1,2.166099E0,2.0459104E0,2.9646885E0,2.75E1,-1.422458E0,-1.762693E0,4.848E2,1.46206E1,-5.93713E-1,2.06414E1,-1.0789807E0,-1.0355623E0,-6.20678E-1,2.749E1,2.915E1,2.693E1,-8.7828E-1,2.85355E1,1.0988138E0,-4.454322E-1,-1.0189117E-2,-2.301325E-2,3.8882414E-1],"split_indices":[4,4,10,4,5,5,0,0,14,5,0,0,0,13,0,0,15,4,0,4,0,0,0,9,13,13,0,4,0,0,0,0,0],"split_type":[0,0,0,0,0,0,0,0,0,0,0,0,0,0,0,0,0,0,0,0,0,0,0,0,0,0,0,0,0,0,0,0,0],"sum_hessian":[2.12E2,1.9E2,2.2E1,4.4E1,1.46E2,1.7E1,5E0,6E0,3.8E1,1.41E2,5E0,1.2E1,5E0,3.3E1,5E0,5E0,1.36E2,2.7E1,6E0,1.29E2,7E0,2.2E1,5E0,2.7E1,1.02E2,2.2E1,5E0,9.7E1,5E0,1.6E1,6E0,7.4E1,2.3E1],"tree_param":{"num_deleted":"0","num_feature":"23","num_nodes":"33","size_leaf_vector":"1"}},{"base_weights":[-1.3433234E-1,-8.387219E-1,4.796772E0,-1.8560172E0,6.454287E-1,3.1133978E0,5.746165E0,-1.4505398E0,-3.4126906E0,3.148245E-1,1.5555184E0,3.7044683E-1,1.4279654E0,2.1728692E0,4.5484467E0,-2.2174044E0,-5.578815E-1,-2.0342276E0,-2.1269841E0,-8.4029114E-1,5.3425676E-1,8.395766E-1,1.8061727E0,-1.183287E0,-1.9932824E0,-9.4627357E-1,-1.817086E-1,-1.167102E0,-9.377363E-1,-5.537337E-1,7.871152E-2,-0E0,7.769453E-1,-1.8347001E0,-8.43695E-1,6.8948406E-1,-5.962494E-1,-4.909219E-1,-1.5828258E-1,-2.0711671E-1,2.4750564E-1,3.5943094E-1,1.3509102E0,-6.81742E-1,-1.2374265E0,-5.7846195E-1,-1.13710865E-1,-2.3973405E-2,1.9865565E-1,4.3507794E-1,-0E0,6.8499494E-1,2.6299077E-1,-5.7821006E-1,-2.6002786E-1,6.497519E-2,-2.555936E-1,1.4919987E-1,2.641804E-2],"categories":[],"categories_nodes":[],"categories_segments":[],"categories_sizes":[],"default_left":[0,0,0,0,0,0,0,0,0,0,0,0,0,0,0,0,0,0,0,0,0,0,0,0,0,0,0,0,0,0,0,0,0,0,0,0,0,0,0,0,0,0,0,0,0,0,0,0,0,0,0,0,0,0,0,0,0,0,0],"id":5,"left_children":[1,3,5,7,9,11,13,15,17,19,-1,-1,-1,-1,21,23,25,27,-1,29,31,-1,-1,-1,33,-1,35,37,-1,-1,-1,39,41,43,-1,-1,45,-1,-1,-1,47,49,51,-1,53,-1,55,-1,-1,57,-1,-1,-1,-1,-1,-1,-1,-1,-1],"loss_changes":[7.5108704E2,2.8769632E2,3.7087524E1,6.8016815E1,1.1386206E2,2.7870842E1,2.4603577E1,5.9729736E1,1.1383121E2,1.8045868E1,0E0,0E0,0E0,0E0,2.0603882E1,1.5153427E1,3.951573E1,1.3866318E1,0E0,1.368966E1,7.943186E0,0E0,0E0,0E0,2.6911316E0,0E0,3.742705E1,1.6353436E0,0E0,0E0,0E0,3.3187199E0,8.906879E0,8.054283E0,0E0,0E0,1.9635273E1,0E0,0E0,0E0,2.3568923E0,5.563526E-1,5.4022026E0,0E0,2.4456139E0,0E0,6.4583197E0,0E0,0E0,8.211017E-2,0E0,0E0,0E0,0E0,0E0,0E0,0E0,0E0,0E0],"parents":[2147483647,0,0,1,1,2,2,3,3,4,4,5,5,6,6,7,7,8,8,9,9,14,14,15,15,16,16,17,17,19,19,20,20,24,24,26,26,27,27,31,31,32,32,33,33,36,36,40,40,41,41,42,42,44,44,46,46,49,49],"right_children":[2,4,6,8,10,12,14,16,18,20,-1,-1,-1,-1,22,24,26,28,-1,30,32,-1,-1,-1,34,-1,36,38,-1,-1,-1,40,42,44,-1,-1,46,-1,-1,-1,48,50,52,-1,54,-1,56,-1,-1,58,-1,-1,-1,-1,-1,-1,-1,-1,-1],"split_conditions":[3.74673E1,2.49417E1,-4.51E-1,1.829E1,1.757E1,5.05721E1,1.94E-1,2.02814E1,2.09671E1,-7.24E0,1.5555184E0,3.7044683E-1,1.4279654E0,2.1728692E0,1.972E7,3.0311E0,1.397E1,-5.44E-1,-2.1269841E0,3.07E0,9E0,8.395766E-1,1.8061727E0,-1.183287E0,2.05615E1,-9.4627357E-1,1.172E1,1.228E6,-9.377363E-1,-5.537337E-1,7.871152E-2,-9.62E-1,2.77288E1,3.53E0,-8.43695E-1,6.8948406E-1,4E0,-4.909219E-1,-1.5828258E-1,-2.0711671E-1,2.70792E1,2.66784E1,-2.57E-1,-6.81742E-1,1.28517E1,-5.7846195E-1,1.285E1,-2.3973405E-2,1.9865565E-1,9.5317E7,-0E0,6.8499494E-1,2.6299077E-1,-5.7821006E-1,-2.6002786E-1,6.497519E-2,-2.555936E-1,1.4919987E-1,2.641804E-2],"split_indices":[2,1,19,14,5,1,19,3,1,5,0,0,0,0,7,3,14,18,0,8,21,0,0,0,2,0,10,7,0,0,0,16,3,5,0,0,21,0,0,0,1,1,16,0,1,0,10,0,0,6,0,0,0,0,0,0,0,0,0],"split_type":[0,0,0,0,0,0,0,0,0,0,0,0,0,0,0,0,0,0,0,0,0,0,0,0,0,0,0,0,0,0,0,0,0,0,0,0,0,0,0,0,0,0,0,0,0,0,0,0,0,0,0,0,0,0,0,0,0,0,0],"sum_hessian":[2.17E2,1.9E2,2.7E1,1.13E2,7.7E1,1E1,1.7E1,9E1,2.3E1,7.2E1,5E0,5E0,5E0,7E0,1E1,4.8E1,4.2E1,1.7E1,6E0,1.1E1,6.1E1,5E0,5E0,5E0,4.3E1,5E0,3.7E1,1E1,7E0,6E0,5E0,1.9E1,4.2E1,3.7E1,6E0,5E0,3.2E1,5E0,5E0,5E0,1.4E1,2.5E1,1.7E1,2E1,1.7E1,8E0,2.4E1,7E0,7E0,2E1,5E0,5E0,1.2E1,5E0,1.2E1,1.6E1,8E0,1.5E1,5E0],"tree_param":{"num_deleted":"0","num_feature":"23","num_nodes":"59","size_leaf_vector":"1"}},{"base_weights":[7.278949E-2,-3.805866E-1,3.8535197E0,-1.4889752E0,4.258181E-1,2.801784E0,5.0462255E0,-1.741218E0,5.9264016E-1,5.901386E-1,-8.0428505E-1,4.3849286E-1,1.0764444E0,1.7705034E0,1.169164E0,-2.604733E0,-1.0716137E0,8.863315E-1,4.012808E-1,-1.9646893E0,-1.287254E0,-0E0,-1.2872803E0,1.5157591E0,-4.4464175E-2,-6.451329E-1,-4.3345526E-1,-1.0894123E0,-6.786755E-1,2.7730668E0,4.6432078E-1,-5.7931197E-1,1.0170187E-1,-4.2302033E-1,-7.6829576E-1,1.8471374E-1,1.6662595E0,2.1498886E-1,-0E0,4.16476E-1,-3.139798E-3,-1.4665411E-1,-3.6330965E-1,-4.3959916E-1,4.7751654E-2],"categories":[],"categories_nodes":[],"categories_segments":[],"categories_sizes":[],"default_left":[0,0,0,0,0,0,0,0,0,0,0,0,0,0,0,0,0,0,0,0,0,0,0,0,0,0,0,0,0,0,0,0,0,0,0,0,0,0,0,0,0,0,0,0,0],"id":6,"left_children":[1,3,5,7,9,11,13,15,-1,17,-1,-1,-1,-1,-1,19,21,-1,23,25,-1,-1,27,29,31,-1,-1,33,-1,35,37,-1,39,-1,41,-1,-1,-1,-1,-1,43,-1,-1,-1,-1],"loss_changes":[3.520378E2,1.6339912E2,2.2232666E1,6.773146E1,5.289666E1,9.832626E0,3.4834595E0,3.9135056E1,0E0,4.3224167E1,0E0,0E0,0E0,0E0,0E0,3.0483719E1,9.260696E0,0E0,4.7197525E1,2.6824951E-2,0E0,0E0,4.4972153E0,3.3503887E1,1.9752491E1,0E0,0E0,1.6997147E0,0E0,6.969806E1,2.0657437E0,0E0,9.319744E0,0E0,8.379164E-1,0E0,0E0,0E0,0E0,0E0,1.4607441E1,0E0,0E0,0E0,0E0],"parents":[2147483647,0,0,1,1,2,2,3,3,4,4,5,5,6,6,7,7,9,9,15,15,16,16,18,18,19,19,22,22,23,23,24,24,27,27,29,29,30,30,32,32,34,34,40,40],"right_children":[2,4,6,8,10,12,14,16,-1,18,-1,-1,-1,-1,-1,20,22,-1,24,26,-1,-1,28,30,32,-1,-1,34,-1,36,38,-1,40,-1,42,-1,-1,-1,-1,-1,44,-1,-1,-1,-1],"split_conditions":[4.34192E1,2.15181E1,5.36623E1,1.194E0,1.1759E3,5.024E2,2.204E7,1.43495E1,5.9264016E-1,-1.305E0,-8.0428505E-1,4.3849286E-1,1.0764444E0,1.7705034E0,1.169164E0,1.018E6,1E6,8.863315E-1,8.82E5,-4.01E-1,-1.287254E0,-0E0,2.05781E1,2.52525E1,-1.045E0,-6.451329E-1,-4.3345526E-1,1.1E1,-6.786755E-1,7E0,5.73E-1,-5.7931197E-1,9.81E5,-4.2302033E-1,1.7E1,1.8471374E-1,1.6662595E0,2.1498886E-1,-0E0,4.16476E-1,3E0,-1.4665411E-1,-3.6330965E-1,-4.3959916E-1,4.7751654E-2],"split_indices":[0,0,0,18,11,11,6,0,0,18,0,0,0,0,0,7,7,0,7,16,0,0,4,1,18,0,0,20,0,20,18,0,6,0,20,0,0,0,0,0,21,0,0,0,0],"split_type":[0,0,0,0,0,0,0,0,0,0,0,0,0,0,0,0,0,0,0,0,0,0,0,0,0,0,0,0,0,0,0,0,0,0,0,0,0,0,0,0,0,0,0,0,0],"sum_hessian":[2.04E2,1.82E2,2.2E1,7.7E1,1.05E2,1.2E1,1E1,7.2E1,5E0,1E2,5E0,5E0,7E0,5E0,5E0,3.1E1,4.1E1,7E0,9.3E1,2.3E1,8E0,7E0,3.4E1,2.7E1,6.6E1,1.5E1,8E0,2.9E1,5E0,1.2E1,1.5E1,5E0,6.1E1,1.3E1,1.6E1,7E0,5E0,1E1,5E0,5E0,5.6E1,1.1E1,5E0,6E0,5E1],"tree_param":{"num_deleted":"0","num_feature":"23","num_nodes":"45","size_leaf_vector":"1"}},{"base_weights":[-1.283507E-1,-4.1016898E-1,3.157571E0,-9.03424E-1,4.1870648E-1,1.1701885E0,8.060499E-1,-7.584578E-1,-1.2020949E0,-1.513243E0,8.301648E-1,-1.1547861E0,1.6442327E-2,4.790362E-2,-9.7474843E-1,2.9399404E-1,3.0585885E0,-1.649653E0,-8.172184E-1,6.3030595E-1,-7.6918E-1,4.357797E-1,-9.23195E-2,3.9335933E-1,1.294528E0,-1.3865343E0,-6.756543E-1,-1.0318687E-2,-9.176361E-1,7.3721665E-1,2.4514782E-1,2.542265E-1,3.451242E-1,-3.0930278E-1,-5.096327E-1,-5.166779E-1,-1.0652151E0,3.5491437E-1,-1.4257976E-1,5.118118E-2,1.4734083E-1,-2.3567042E-1,-3.6156233E-2,-4.3435574E-1,-2.2530317E-1,-1.4046851E-1,1.6630726E-2,-0E0,3.9476287E-2],"categories":[],"categories_nodes":[],"categories_segments":[],"categories_sizes":[],"default_left":[0,0,0,0,0,0,0,0,0,0,0,0,0,0,0,0,0,0,0,0,0,0,0,0,0,0,0,0,0,0,0,0,0,0,0,0,0,0,0,0,0,0,0,0,0,0,0,0,0],"id":7,"left_children":[1,3,5,7,9,-1,-1,11,-1,13,15,17,19,-1,-1,21,23,25,27,29,-1,31,-1,-1,-1,33,-1,-1,35,-1,37,39,-1,-1,-1,41,43,-1,45,47,-1,-1,-1,-1,-1,-1,-1,-1,-1],"loss_changes":[1.8798802E2,7.760338E1,9.4355774E-1,5.134855E1,5.5191048E1,0E0,0E0,3.578248E1,0E0,3.8065598E1,6.703291E1,1.1022156E1,5.9810963E1,0E0,0E0,4.126393E0,2.1274193E1,2.5372925E0,2.9694118E0,2.0422705E1,0E0,4.2250104E0,0E0,0E0,0E0,6.47419E-1,0E0,0E0,1.2947922E0,0E0,1.0361048E1,1.217526E0,0E0,0E0,0E0,7.081244E-1,1.9175301E0,0E0,1.4761611E0,1.6466217E-1,0E0,0E0,0E0,0E0,0E0,0E0,0E0,0E0,0E0],"parents":[2147483647,0,0,1,1,2,2,3,3,4,4,7,7,9,9,10,10,11,11,12,12,15,15,16,16,17,17,18,18,19,19,21,21,25,25,28,28,30,30,31,31,35,35,36,36,38,38,39,39],"right_children":[2,4,6,8,10,-1,-1,12,-1,14,16,18,20,-1,-1,22,24,26,28,30,-1,32,-1,-1,-1,34,-1,-1,36,-1,38,40,-1,-1,-1,42,44,-1,46,48,-1,-1,-1,-1,-1,-1,-1,-1,-1],"split_conditions":[1.2E1,2.52777E1,2.1117E7,1.2632E3,-7.24E0,1.1701885E0,8.060499E-1,2.15181E1,-1.2020949E0,1.594E1,1.662E1,1.41803E1,3.93E0,4.790362E-2,-9.7474843E-1,7.713E6,3.566E2,4.61E-1,3E0,1.476E1,-7.6918E-1,2.702E1,-9.23195E-2,3.9335933E-1,1.294528E0,8.977E2,-6.756543E-1,-1.0318687E-2,-6.05E-1,7.3721665E-1,3E0,2.65398E1,3.451242E-1,-3.0930278E-1,-5.096327E-1,1.70782E1,1.2E1,3.5491437E-1,2.38564E1,-2.5E-1,1.4734083E-1,-2.3567042E-1,-3.6156233E-2,-4.3435574E-1,-2.2530317E-1,-1.4046851E-1,1.6630726E-2,-0E0,3.9476287E-2],"split_indices":[22,4,7,11,5,0,0,0,0,14,14,0,12,0,0,7,11,18,20,14,0,13,0,0,0,11,0,0,18,0,20,4,0,0,0,0,20,0,0,5,0,0,0,0,0,0,0,0,0],"split_type":[0,0,0,0,0,0,0,0,0,0,0,0,0,0,0,0,0,0,0,0,0,0,0,0,0,0,0,0,0,0,0,0,0,0,0,0,0,0,0,0,0,0,0,0,0,0,0,0,0],"sum_hessian":[2.05E2,1.89E2,1.6E1,1.19E2,7E1,5E0,1.1E1,1.14E2,5E0,1.2E1,5.8E1,7.6E1,3.8E1,6E0,6E0,4.7E1,1.1E1,3E1,4.6E1,3.1E1,7E0,3.9E1,8E0,5E0,6E0,2.2E1,8E0,6E0,4E1,5E0,2.6E1,3.2E1,7E0,1.2E1,1E1,1.2E1,2.8E1,8E0,1.8E1,1.9E1,1.3E1,6E0,6E0,1.1E1,1.7E1,8E0,1E1,7E0,1.2E1],"tree_param":{"num_deleted":"0","num_feature":"23","num_nodes":"49","size_leaf_vector":"1"}},{"base_weights":[4.359932E-2,-1.6395295E-1,2.390322E0,-5.408582E-1,3.999231E-1,1.0157468E0,5.599755E-1,-5.1429257E-2,-1.1321294E0,2.0421264E-1,6.5074253E-1,3.1049037E-1,-9.936534E-1,-6.360038E-1,-3.0974736E0,-2.3888743E-1,3.5060325E-1,-7.337662E-2,5.671965E-1,-7.190773E-1,-3.8680205E-1,-8.3683217E-1,7.17111E-2,-0E0,-1.8199921E0,3.381495E-1,2.1531457E-1,-5.3854245E-1,6.092394E-1,-2.7318287E-1,-0E0,-9.737193E-1,-0E0,1.13181315E-1,3.0695716E-1,3.7183933E-2,-8.2993627E-1,3.7048063E-1,5.177488E-2,-8.653285E-2,-3.2113767E-1,5.521015E-1,-9.158754E-2,-4.8149344E-1,-1.1938691E-1,6.25362E-2,2.1900345E-1,3.461134E-2,-1.2777537E-1],"categories":[],"categories_nodes":[],"categories_segments":[],"categories_sizes":[],"default_left":[0,0,0,0,0,0,0,0,0,0,0,0,0,0,0,0,0,0,0,0,0,0,0,0,0,0,0,0,0,0,0,0,0,0,0,0,0,0,0,0,0,0,0,0,0,0,0,0,0],"id":8,"left_children":[1,3,5,7,9,-1,-1,11,13,15,-1,17,19,21,23,-1,25,27,-1,-1,29,31,-1,-1,-1,-1,33,35,37,-1,-1,39,-1,41,-1,-1,43,-1,-1,-1,-1,45,47,-1,-1,-1,-1,-1,-1],"loss_changes":[1.0184566E2,4.0264957E1,5.1795807E0,3.219036E1,2.484071E1,0E0,0E0,2.1948507E1,4.7198303E1,9.776115E0,0E0,2.906171E1,1.3831223E1,7.6394463E0,9.4030685E1,0E0,5.52677E0,1.1386056E1,0E0,0E0,3.1909475E0,3.687029E0,0E0,0E0,0E0,0E0,3.5963187E0,4.73699E0,2.9524121E0,0E0,0E0,1.3072834E0,0E0,4.536329E0,0E0,0E0,4.0736494E0,0E0,0E0,0E0,0E0,3.862176E-1,2.4209738E0,0E0,0E0,0E0,0E0,0E0,0E0],"parents":[2147483647,0,0,1,1,2,2,3,3,4,4,7,7,8,8,9,9,11,11,12,12,13,13,14,14,16,16,17,17,20,20,21,21,26,26,27,27,28,28,31,31,33,33,36,36,41,41,42,42],"right_children":[2,4,6,8,10,-1,-1,12,14,16,-1,18,20,22,24,-1,26,28,-1,-1,30,32,-1,-1,-1,-1,34,36,38,-1,-1,40,-1,42,-1,-1,44,-1,-1,-1,-1,46,48,-1,-1,-1,-1,-1,-1],"split_conditions":[1.2E1,2.5244E1,1.972E7,6.306E2,1.731E1,1.0157468E0,5.599755E-1,8E0,2.03732E1,4E0,6.5074253E-1,1.575E1,2.817E1,1.63566E1,2.173E1,-2.3888743E-1,-1.112E0,2.31438E1,5.671965E-1,-7.190773E-1,6.25E1,1.1802E3,7.17111E-2,-0E0,-1.8199921E0,3.381495E-1,8.45E-1,1.482E6,5.685E6,-2.7318287E-1,-0E0,2.311E1,-0E0,-2.64E-1,3.0695716E-1,3.7183933E-2,2.074E1,3.7048063E-1,5.177488E-2,-8.653285E-2,-3.2113767E-1,1.131E1,4E0,-4.8149344E-1,-1.1938691E-1,6.25362E-2,2.1900345E-1,3.461134E-2,-1.2777537E-1],"split_indices":[22,1,6,11,14,0,0,22,1,21,0,14,13,1,9,0,16,4,0,0,11,11,0,0,0,0,17,6,7,0,0,13,0,17,0,0,9,0,0,0,0,10,22,0,0,0,0,0,0],"split_type":[0,0,0,0,0,0,0,0,0,0,0,0,0,0,0,0,0,0,0,0,0,0,0,0,0,0,0,0,0,0,0,0,0,0,0,0,0,0,0,0,0,0,0,0,0,0,0,0,0],"sum_hessian":[2.06E2,1.89E2,1.7E1,1.14E2,7.5E1,5E0,1.2E1,6.3E1,5.1E1,6.8E1,7E0,4.5E1,1.8E1,4.1E1,1E1,8E0,6E1,3.6E1,9E0,5E0,1.3E1,3.4E1,7E0,5E0,5E0,8E0,5.2E1,2.2E1,1.4E1,6E0,7E0,2.9E1,5E0,4.7E1,5E0,6E0,1.6E1,5E0,9E0,5E0,2.4E1,1.6E1,3.1E1,5E0,1.1E1,7E0,9E0,1.8E1,1.3E1],"tree_param":{"num_deleted":"0","num_feature":"23","num_nodes":"49","size_leaf_vector":"1"}},{"base_weights":[-3.2179017E-2,-1.7002654E-1,1.7418503E0,-2.5324312E-1,7.0251054E-1,7.71033E-1,1.2389665E0,3.694516E-1,-3.915281E-1,4.982232E-1,1.9341432E-1,-5.7642025E-1,7.9177606E-1,-3.1885818E-1,-7.3185384E-1,-2.9835373E-1,-2.0775225E-3,3.289199E-1,5.370741E-1,-1.23279616E-1,-1.2063437E0,-2.9349003E-2,3.24286E-1,-6.791494E-1,1.6676384E-1,-4.8384437E-1,-9.370157E-1,6.82855E-2,-1.4091349E-1,-5.083561E-1,-4.0243137E-1,1.2063899E-2,1.0125029E0,-3.109876E-1,-1.9140512E-1,-1.8292058E-1,-0E0,-2.0166878E-1,3.7130345E-2,6.7993927E-1,-0E0,-0E0,-1.8079148E-1],"categories":[],"categories_nodes":[],"categories_segments":[],"categories_sizes":[],"default_left":[0,0,0,0,0,0,0,0,0,0,0,0,0,0,0,0,0,0,0,0,0,0,0,0,0,0,0,0,0,0,0,0,0,0,0,0,0,0,0,0,0,0,0],"id":9,"left_children":[1,3,5,7,-1,-1,9,11,13,-1,-1,15,17,19,-1,-1,-1,21,-1,23,25,27,-1,29,31,33,-1,-1,-1,35,-1,37,39,-1,41,-1,-1,-1,-1,-1,-1,-1,-1],"loss_changes":[5.102738E1,4.0557903E1,3.9365501E0,1.6548927E1,0E0,0E0,1.0285702E0,1.373119E1,2.2060421E1,0E0,0E0,1.7825873E0,9.951171E0,2.5657442E1,0E0,0E0,0E0,5.4079247E0,0E0,2.0662296E1,3.5880688E1,1.4505472E0,0E0,3.8675175E0,1.0036036E1,2.4865818E0,0E0,0E0,0E0,2.2038832E0,0E0,5.15182E0,1.4214669E1,0E0,1.3619614E0,0E0,0E0,0E0,0E0,0E0,0E0,0E0,0E0],"parents":[2147483647,0,0,1,1,2,2,3,3,6,6,7,7,8,8,11,11,12,12,13,13,17,17,19,19,20,20,21,21,23,23,24,24,25,25,29,29,31,31,32,32,34,34],"right_children":[2,4,6,8,-1,-1,10,12,14,-1,-1,16,18,20,-1,-1,-1,22,-1,24,26,28,-1,30,32,34,-1,-1,-1,36,-1,38,40,-1,42,-1,-1,-1,-1,-1,-1,-1,-1],"split_conditions":[5.00391E1,4.446E1,1.9263E7,6.15E5,7.0251054E-1,7.71033E-1,3.148E1,1.36801E1,1.263E3,4.982232E-1,1.9341432E-1,2.593E1,4E5,1.666E1,-7.3185384E-1,-2.9835373E-1,-2.0775225E-3,1.825E1,5.370741E-1,2.15181E1,2.17329E1,1.53E1,3.24286E-1,2.05236E1,6.54E-1,9.86E5,-9.370157E-1,6.82855E-2,-1.4091349E-1,8.61E0,-4.0243137E-1,3E0,1.222E0,-3.109876E-1,-7.3E-2,-1.8292058E-1,-0E0,-2.0166878E-1,3.7130345E-2,6.7993927E-1,-0E0,-0E0,-1.8079148E-1],"split_indices":[0,5,6,6,0,0,13,0,11,0,0,13,6,14,0,0,0,14,0,0,0,14,0,1,17,7,0,0,0,5,0,21,17,0,17,0,0,0,0,0,0,0,0],"split_type":[0,0,0,0,0,0,0,0,0,0,0,0,0,0,0,0,0,0,0,0,0,0,0,0,0,0,0,0,0,0,0,0,0,0,0,0,0,0,0,0,0,0,0],"sum_hessian":[2.13E2,1.98E2,1.5E1,1.92E2,6E0,5E0,1E1,3.4E1,1.58E2,5E0,5E0,1E1,2.4E1,1.53E2,5E0,5E0,5E0,1.7E1,7E0,1.26E2,2.7E1,1.1E1,6E0,4.4E1,8.2E1,2E1,7E0,6E0,5E0,3.6E1,8E0,7E1,1.2E1,6E0,1.4E1,3E1,6E0,9E0,6.1E1,5E0,7E0,9E0,5E0],"tree_param":{"num_deleted":"0","num_feature":"23","num_nodes":"43","size_leaf_vector":"1"}},{"base_weights":[-7.5891423E-3,-1.928017E-1,1.0936887E0,-1.3047773E0,-8.53993E-2,8.024928E-1,4.9924192E-1,-6.9572276E-1,-7.406882E-1,1.4428021E0,-1.8394409E-1,-1.3492697E-1,9.597953E-1,-2.9188913E-1,-6.1719958E-2,9.9013396E-2,7.129807E-1,-8.6188424E-1,-9.2482425E-2,1.0175835E-1,4.0251997E-1,-2.9691877E-2,-5.506852E-1,-1.040743E-1,3.179593E-1,-2.8064084E-1,1.8299292E-1,-6.478258E-2,-3.5046124E-1,1.7249566E-1,2.8537333E-2],"categories":[],"categories_nodes":[],"categories_segments":[],"categories_sizes":[],"default_left":[0,0,0,0,0,0,0,0,0,0,0,0,0,0,0,0,0,0,0,0,0,0,0,0,0,0,0,0,0,0,0],"id":10,"left_children":[1,3,5,7,9,-1,11,13,-1,15,17,-1,19,-1,-1,-1,-1,-1,21,-1,-1,23,-1,25,-1,27,29,-1,-1,-1,-1],"loss_changes":[4.4061977E1,2.151234E1,2.7737331E1,9.551743E0,2.5052881E1,0E0,1.0471392E1,7.56238E-1,0E0,8.897827E0,3.8475018E1,0E0,2.8117085E0,0E0,0E0,0E0,0E0,0E0,1.6187483E1,0E0,0E0,1.1850086E1,0E0,7.3146567E0,0E0,4.0465417E0,1.3753499E0,0E0,0E0,0E0,0E0],"parents":[2147483647,0,0,1,1,2,2,3,3,4,4,6,6,7,7,9,9,10,10,12,12,18,18,21,21,23,23,25,25,26,26],"right_children":[2,4,6,8,10,-1,12,14,-1,16,18,-1,20,-1,-1,-1,-1,-1,22,-1,-1,24,-1,26,-1,28,30,-1,-1,-1,-1],"split_conditions":[3.45759E1,1.0655E1,-4.68E0,8.6694E0,-1.305E0,8.024928E-1,9E0,-1.13E-1,-7.406882E-1,2.081E1,-1.071E0,-1.3492697E-1,6.8E-1,-2.9188913E-1,-6.1719958E-2,9.9013396E-2,7.129807E-1,-8.6188424E-1,3.00473E1,1.0175835E-1,4.0251997E-1,3.129E1,-5.506852E-1,2.57583E1,3.179593E-1,2.66784E1,2.45742E1,-6.478258E-2,-3.5046124E-1,1.7249566E-1,2.8537333E-2],"split_indices":[1,0,8,1,18,0,20,17,0,9,18,0,8,0,0,0,0,0,4,0,0,8,0,0,0,1,4,0,0,0,0],"split_type":[0,0,0,0,0,0,0,0,0,0,0,0,0,0,0,0,0,0,0,0,0,0,0,0,0,0,0,0,0,0,0],"sum_hessian":[2.19E2,1.88E2,3.1E1,1.6E1,1.72E2,8E0,2.3E1,1.1E1,5E0,1E1,1.62E2,7E0,1.6E1,6E0,5E0,5E0,5E0,5E0,1.57E2,7E0,9E0,1.52E2,5E0,1.43E2,9E0,9E1,5.3E1,8.5E1,5E0,8E0,4.5E1],"tree_param":{"num_deleted":"0","num_feature":"23","num_nodes":"31","size_leaf_vector":"1"}},{"base_weights":[7.86984E-2,-6.9220364E-1,1.4333402E-1,3.8497224E-2,1.1538709E0,-4.4744357E-1,2.871115E-1,4.9648708E-1,8.051424E-1,-2.9365093E-1,-5.913876E-1,3.9593905E-1,-4.922876E-1,-0E0,2.2358559E-1,-3.8085082E-1,1.3077235E-1,6.547523E-1,2.7041012E-1,5.775745E-2,-4.5993778E-1,1.6839322E-1,6.5405136E-1,-3.665805E-1,-3.162296E-1,7.310817E-2,3.5526836E-1,-2.1075542E-1,-7.2050266E-2,-1.9419948E-2,1.568626E-1],"categories":[],"categories_nodes":[],"categories_segments":[],"categories_sizes":[],"default_left":[0,0,0,0,0,0,0,0,0,0,0,0,0,0,0,0,0,0,0,0,0,0,0,0,0,0,0,0,0,0,0],"id":11,"left_children":[1,-1,3,5,7,9,11,13,-1,15,-1,17,-1,-1,-1,19,-1,-1,21,-1,23,25,-1,27,-1,29,-1,-1,-1,-1,-1],"loss_changes":[3.0297081E1,0E0,2.0170158E1,2.163876E1,1.642168E1,1.279283E1,2.4660301E1,1.3813102E0,0E0,3.4909568E0,0E0,2.4373262E1,0E0,0E0,0E0,2.458712E0,0E0,0E0,1.9608133E1,0E0,1.5921087E0,9.190872E0,0E0,1.0538912E0,0E0,6.2931423E0,0E0,0E0,0E0,0E0,0E0],"parents":[2147483647,0,0,2,2,3,3,4,4,5,5,6,6,7,7,9,9,11,11,15,15,18,18,20,20,21,21,23,23,25,25],"right_children":[2,-1,4,6,8,10,12,14,-1,16,-1,18,-1,-1,-1,20,-1,-1,22,-1,24,26,-1,28,-1,30,-1,-1,-1,-1,-1],"split_conditions":[-2.299E1,-6.9220364E-1,4.88766E1,2.00756E1,7.97E-1,3.118E1,5.419E2,-1.07E0,8.051424E-1,1.454E1,-5.913876E-1,1E0,-4.922876E-1,-0E0,2.2358559E-1,-1.87E1,1.3077235E-1,6.547523E-1,2.553E1,5.775745E-2,1.8284E1,4.34192E1,6.5405136E-1,-3.53E0,-3.162296E-1,3.95E0,3.5526836E-1,-2.1075542E-1,-7.2050266E-2,-1.9419948E-2,1.568626E-1],"split_indices":[5,0,1,0,16,5,15,5,0,5,0,20,0,0,0,8,0,0,5,0,3,0,0,5,0,12,0,0,0,0,0],"split_type":[0,0,0,0,0,0,0,0,0,0,0,0,0,0,0,0,0,0,0,0,0,0,0,0,0,0,0,0,0,0,0],"sum_hessian":[2.03E2,5E0,1.98E2,1.8E2,1.8E1,6E1,1.2E2,1.3E1,5E0,5.5E1,5E0,1.14E2,6E0,5E0,8E0,5E1,5E0,7E0,1.07E2,5E0,4.5E1,1.02E2,5E0,4E1,5E0,9.4E1,8E0,9E0,3.1E1,7.1E1,2.3E1],"tree_param":{"num_deleted":"0","num_feature":"23","num_nodes":"31","size_leaf_vector":"1"}},{"base_weights":[-4.9709328E-2,-5.2059036E-1,2.6304757E-2,-2.9765101E-2,5.5957323E-1,-4.4665962E-1,7.0792926E-3,5.2352723E-2,-3.053945E-1,-3.8010124E-2,3.6635718E-1,4.17257E-3,-3.4970102E-1,6.5687037E-1,-4.064253E-3,-1.1301049E-1,1.153518E-1,-0E0,-5.6992805E-1,9.170977E-1,1.5268951E-2,-1.0748957E-1,8.9611255E-2,5.7036746E-2,-5.8471046E-2,2.4252842E-1,-1.5092777E-3,-2.333433E-1,-6.325457E-2,3.4220132E-1,1.1855531E-1,-0E0,5.865311E-2],"categories":[],"categories_nodes":[],"categories_segments":[],"categories_sizes":[],"default_left":[0,0,0,0,0,0,0,0,0,0,0,0,0,0,0,0,0,0,0,0,0,0,0,0,0,0,0,0,0,0,0,0,0],"id":12,"left_children":[1,-1,3,5,-1,-1,7,9,-1,11,13,15,17,19,21,23,25,-1,27,29,-1,-1,31,-1,-1,-1,-1,-1,-1,-1,-1,-1,-1],"loss_changes":[2.7606178E1,0E0,2.15841E1,1.12873E1,0E0,0E0,7.961698E0,5.2161603E0,0E0,2.0087528E0,4.8541408E0,1.5260108E0,1.0478258E0,3.124775E0,7.589176E-1,1.4079393E0,5.9085965E0,0E0,1.03435755E-1,9.360304E-1,0E0,0E0,1.798217E-1,0E0,0E0,0E0,0E0,0E0,0E0,0E0,0E0,0E0,0E0],"parents":[2147483647,0,0,2,2,3,3,6,6,7,7,9,9,10,10,11,11,12,12,13,13,14,14,15,15,16,16,18,18,19,19,22,22],"right_children":[2,-1,4,6,-1,-1,8,10,-1,12,14,16,18,20,22,24,26,-1,28,30,-1,-1,32,-1,-1,-1,-1,-1,-1,-1,-1,-1,-1],"split_conditions":[1E0,-5.2059036E-1,4.702E1,-2.427E1,5.5957323E-1,-4.4665962E-1,2.87E1,3.0013E1,-3.053945E-1,1E1,1.655E2,2.21018E1,1.15492E1,5.2103E1,8.2E-1,5E0,2.40012E1,-0E0,-2.03E-1,2.903E1,1.5268951E-2,-1.0748957E-1,-2.64E-1,5.7036746E-2,-5.8471046E-2,2.4252842E-1,-1.5092777E-3,-2.333433E-1,-6.325457E-2,3.4220132E-1,1.1855531E-1,-0E0,5.865311E-2],"split_indices":[20,0,5,5,0,0,9,2,0,22,15,3,2,1,8,20,4,0,17,13,0,0,17,0,0,0,0,0,0,0,0,0,0],"split_type":[0,0,0,0,0,0,0,0,0,0,0,0,0,0,0,0,0,0,0,0,0,0,0,0,0,0,0,0,0,0,0,0,0],"sum_hessian":[2.03E2,9E0,1.94E2,1.88E2,6E0,5E0,1.83E2,1.76E2,7E0,1.35E2,4.1E1,1.17E2,1.8E1,2.4E1,1.7E1,5.4E1,6.3E1,8E0,1E1,1.6E1,8E0,5E0,1.2E1,1E1,4.4E1,1E1,5.3E1,5E0,5E0,1E1,6E0,5E0,7E0],"tree_param":{"num_deleted":"0","num_feature":"23","num_nodes":"33","size_leaf_vector":"1"}},{"base_weights":[2.2554263E-2,-3.6650762E-2,7.279795E-1,3.2761064E-3,-2.7661085E-1,-2.3123164E-1,1.9881685E-1,-1.3544717E-1,-4.516283E-1,9.821073E-1,8.805123E-2,-2.3933086E-1,-0E0,-0E0,-6.806721E-1,5.479764E-1,7.7108264E-2,-6.5032345E-1,3.0559734E-1,-4.1718784E-1,-0E0,4.9606238E-2,-2.8821716E-2,-2.4324812E-2,-9.120534E-1,3.6252163E-2,-1.3440948E0,4.0469682E-1,-2.3121232E-1,-1.6998722E-1,-7.7918083E-3,3.408719E-2,-4.4101037E-2,-0E0,-2.9287064E-2,-3.868432E-1,-1.11765616E-1,-7.3877335E-1,-0E0,4.620026E-1,2.6579326E-1,-2.1896581E-1,4.2523287E-2,2.7864518E-2,1.8941411E-1],"categories":[],"categories_nodes":[],"categories_segments":[],"categories_sizes":[],"default_left":[0,0,0,0,0,0,0,0,0,0,0,0,0,0,0,0,0,0,0,0,0,0,0,0,0,0,0,0,0,0,0,0,0,0,0,0,0,0,0,0,0,0,0,0,0],"id":13,"left_children":[1,3,-1,5,-1,7,9,11,13,15,17,19,21,-1,23,-1,-1,25,27,29,31,-1,33,-1,35,-1,37,39,41,-1,-1,-1,-1,-1,-1,-1,-1,-1,-1,-1,43,-1,-1,-1,-1],"loss_changes":[3.0561287E1,7.6376314E0,0E0,8.507657E0,0E0,1.354907E0,8.212599E0,9.6146643E-1,2.2595787E0,6.124385E0,1.4385767E1,1.4193683E0,1.8432811E-1,0E0,1.4042416E0,0E0,0E0,1.1555757E1,3.8950105E0,8.306954E-1,2.850676E-1,0E0,9.324195E-2,0E0,9.79167E-1,0E0,1.7685352E1,8.585801E0,2.3193545E0,0E0,0E0,0E0,0E0,0E0,0E0,0E0,0E0,0E0,0E0,0E0,3.0434346E0,0E0,0E0,0E0,0E0],"parents":[2147483647,0,0,1,1,3,3,5,5,6,6,7,7,8,8,9,9,10,10,11,11,12,12,14,14,17,17,18,18,19,19,20,20,22,22,24,24,26,26,27,27,28,28,40,40],"right_children":[2,4,-1,6,-1,8,10,12,14,16,18,20,22,-1,24,-1,-1,26,28,30,32,-1,34,-1,36,-1,38,40,42,-1,-1,-1,-1,-1,-1,-1,-1,-1,-1,-1,44,-1,-1,-1,-1],"split_conditions":[4.702E1,5.86E2,7.279795E-1,2.39669E1,-2.7661085E-1,2.15181E1,-1.297E0,1.6904E1,1.21E6,2.018E2,-4.29E-1,1.51E0,1.297E6,-0E0,1.91514E1,5.479764E-1,7.7108264E-2,2.722E1,2.4239E7,1.2E1,1.39176E1,4.9606238E-2,1.71484E1,-2.4324812E-2,2.00756E1,3.6252163E-2,3.74673E1,2E0,9.6E-1,-1.6998722E-1,-7.7918083E-3,3.408719E-2,-4.4101037E-2,-0E0,-2.9287064E-2,-3.868432E-1,-1.11765616E-1,-7.3877335E-1,-0E0,4.620026E-1,3.00683E1,-2.1896581E-1,4.2523287E-2,2.7864518E-2,1.8941411E-1],"split_indices":[5,15,0,0,0,2,16,1,6,15,16,5,6,0,1,0,0,13,6,20,0,0,2,0,0,0,2,20,5,0,0,0,0,0,0,0,0,0,0,0,0,0,0,0,0],"split_type":[0,0,0,0,0,0,0,0,0,0,0,0,0,0,0,0,0,0,0,0,0,0,0,0,0,0,0,0,0,0,0,0,0,0,0,0,0,0,0,0,0,0,0,0,0],"sum_hessian":[2E2,1.95E2,5E0,1.86E2,9E0,8.3E1,1.03E2,6E1,2.3E1,1.2E1,9.1E1,3.6E1,2.4E1,8E0,1.5E1,5E0,7E0,2E1,7.1E1,2E1,1.6E1,6E0,1.8E1,5E0,1E1,9E0,1.1E1,6.1E1,1E1,1.3E1,7E0,8E0,8E0,7E0,1.1E1,5E0,5E0,6E0,5E0,6E0,5.5E1,5E0,5E0,3.9E1,1.6E1],"tree_param":{"num_deleted":"0","num_feature":"23","num_nodes":"45","size_leaf_vector":"1"}},{"base_weights":[9.745199E-3,-7.805235E-2,5.385257E-1,-3.4403986E-1,-1.4258856E-2,7.5240886E-1,1.09316625E-1,2.398935E-1,-2.1071897E-1,-5.382125E-2,2.8630164E-1,7.140397E-2,4.313509E-1,-4.306467E-1,-8.675554E-2,-0E0,1.537819E-1,2.025881E-1,-2.0232216E-2,-4.9110463E-1,1.784021E-2,-1.0877485E-1,1.3726969E-1,3.0818088E-2,-8.178822E-1,-2.356758E-1,9.458863E-2,-2.2270247E-1,8.159174E-2,-6.536278E-2,-4.83273E-1,-9.7872205E-2,3.0885243E-1,4.0100544E-4,-8.96467E-2,5.1298454E-2,-0E0,3.374379E-2,-5.1936623E-2,1.6072173E-2,1.4916854E-1],"categories":[],"categories_nodes":[],"categories_segments":[],"categories_sizes":[],"default_left":[0,0,0,0,0,0,0,0,0,0,0,0,0,0,0,0,0,0,0,0,0,0,0,0,0,0,0,0,0,0,0,0,0,0,0,0,0,0,0,0,0],"id":14,"left_children":[1,3,5,-1,7,-1,9,11,13,-1,15,17,-1,-1,19,-1,-1,-1,21,23,25,27,-1,-1,29,-1,31,33,35,-1,-1,37,39,-1,-1,-1,-1,-1,-1,-1,-1],"loss_changes":[9.73625E0,1.1196613E1,2.4072956E1,0E0,8.169355E0,0E0,1.360807E0,1.3359703E1,1.3489836E1,0E0,1.0471671E0,3.9418342E0,0E0,0E0,3.957552E0,0E0,0E0,0E0,2.0355601E0,4.1808453E0,3.719685E0,1.0932691E0,0E0,0E0,5.090863E0,0E0,2.6997356E0,7.658025E-1,1.7173436E-1,0E0,0E0,5.545359E-1,1.1691442E0,0E0,0E0,0E0,0E0,0E0,0E0,0E0,0E0],"parents":[2147483647,0,0,1,1,2,2,4,4,6,6,7,7,8,8,10,10,11,11,14,14,18,18,19,19,20,20,21,21,24,24,26,26,27,27,28,28,31,31,32,32],"right_children":[2,4,6,-1,8,-1,10,12,14,-1,16,18,-1,-1,20,-1,-1,-1,22,24,26,28,-1,-1,30,-1,32,34,36,-1,-1,38,40,-1,-1,-1,-1,-1,-1,-1,-1],"split_conditions":[2.92E1,9.5067E0,2.961E1,-3.4403986E-1,1.245E6,7.5240886E-1,3.079E1,3.158E1,2E0,-5.382125E-2,-2.78E-1,2E0,4.313509E-1,-4.306467E-1,-4.33E0,-0E0,1.537819E-1,2.025881E-1,3.466E2,1.485E2,-1.189E1,9.44E5,1.3726969E-1,3.0818088E-2,2.48055E1,-2.356758E-1,1.2E1,5E0,1.12E0,-6.536278E-2,-4.83273E-1,1.49169E1,2.203E1,4.0100544E-4,-8.96467E-2,5.1298454E-2,-0E0,3.374379E-2,-5.1936623E-2,1.6072173E-2,1.4916854E-1],"split_indices":[13,0,13,0,6,0,13,8,21,0,19,21,0,0,5,0,0,0,15,15,8,6,0,0,2,0,21,21,8,0,0,0,9,0,0,0,0,0,0,0,0],"split_type":[0,0,0,0,0,0,0,0,0,0,0,0,0,0,0,0,0,0,0,0,0,0,0,0,0,0,0,0,0,0,0,0,0,0,0,0,0,0,0,0,0],"sum_hessian":[2.03E2,1.73E2,3E1,9E0,1.64E2,5E0,2.5E1,7E1,9.4E1,8E0,1.7E1,6.2E1,8E0,8E0,8.6E1,8E0,9E0,9E0,5.3E1,1.9E1,6.7E1,4.6E1,7E0,6E0,1.3E1,5E0,6.2E1,3.1E1,1.5E1,8E0,5E0,3.1E1,3.1E1,6E0,2.5E1,9E0,6E0,6E0,2.5E1,1.5E1,1.6E1],"tree_param":{"num_deleted":"0","num_feature":"23","num_nodes":"41","size_leaf_vector":"1"}},{"base_weights":[2.8517775E-3,5.9134524E-2,-8.3164424E-1,2.4372853E-1,-1.0023977E-1,-4.495082E-1,-8.306591E-3,1.5152605E-1,2.9475456E-1,-1.6722975E-2,-4.5795318E-1,8.256275E-2,2.3141117E-1,4.601321E-2,-3.7811556E-1,-1.8505143E-1,1.4378501E-1,-1.3242632E-1,2.0229073E-1,-0E0,4.6364984E-1,-3.1111932E-1,6.957457E-2,1.0175582E0,-0E0,5.1850934E-2,-1.20795935E-1,-0E0,7.8875023E-1,-3.831943E-2,-2.4741606E-1,4.096217E-2,-0E0,3.7428558E-2,5.234765E-1,-2.3741186E-1,1.9131924E-1,8.9139916E-2,-0E0,3.4285754E-1,1.7066672E-2,8.318628E-3,-5.5907227E-2,-0E0,-9.165812E-2,-1.7102117E-2,1.647776E-1],"categories":[],"categories_nodes":[],"categories_segments":[],"categories_sizes":[],"default_left":[0,0,0,0,0,0,0,0,0,0,0,0,0,0,0,0,0,0,0,0,0,0,0,0,0,0,0,0,0,0,0,0,0,0,0,0,0,0,0,0,0,0,0,0,0,0,0],"id":15,"left_children":[1,3,5,7,9,-1,-1,11,-1,13,-1,15,-1,17,-1,-1,19,21,23,25,27,29,31,33,35,37,-1,-1,39,41,-1,-1,-1,-1,-1,43,45,-1,-1,-1,-1,-1,-1,-1,-1,-1,-1],"loss_changes":[8.965375E0,5.687002E0,5.6095066E0,5.4808993E0,1.1052483E1,0E0,0E0,2.944302E0,0E0,8.365616E0,0E0,2.8865726E0,0E0,2.5572414E0,0E0,0E0,3.0887246E0,1.6074772E0,8.312494E0,9.526758E-1,3.5750256E0,2.711827E0,1.1011186E-1,5.44135E0,1.8202302E0,6.1345965E-1,0E0,0E0,2.7122612E0,2.6963973E-1,0E0,0E0,0E0,0E0,0E0,2.3756921E-1,2.3486052E0,0E0,0E0,0E0,0E0,0E0,0E0,0E0,0E0,0E0,0E0],"parents":[2147483647,0,0,1,1,2,2,3,3,4,4,7,7,9,9,11,11,13,13,16,16,17,17,18,18,19,19,20,20,21,21,22,22,23,23,24,24,25,25,28,28,29,29,35,35,36,36],"right_children":[2,4,6,8,10,-1,-1,12,-1,14,-1,16,-1,18,-1,-1,20,22,24,26,28,30,32,34,36,38,-1,-1,40,42,-1,-1,-1,-1,-1,44,46,-1,-1,-1,-1,-1,-1,-1,-1,-1,-1],"split_conditions":[1.796E1,1.51E6,1.011E6,3.158E1,2.274E1,-4.495082E-1,-8.306591E-3,3.909E2,2.9475456E-1,4.891E2,-4.5795318E-1,3.24E5,2.3141117E-1,5E0,-3.7811556E-1,-1.8505143E-1,1.562E1,2.07E0,2.49417E1,2.722E1,2.1102E1,2.38029E1,9.6E-1,5.991E6,1.587E1,1.095E2,-1.20795935E-1,-0E0,2.79374E1,-3.16E0,-2.4741606E-1,4.096217E-2,-0E0,3.7428558E-2,5.234765E-1,2.67001E1,1.52E0,8.9139916E-2,-0E0,3.4285754E-1,1.7066672E-2,8.318628E-3,-5.5907227E-2,-0E0,-9.165812E-2,-1.7102117E-2,1.647776E-1],"split_indices":[10,6,6,8,8,0,0,15,0,15,0,6,0,22,0,0,14,8,1,13,4,2,5,6,14,15,0,0,1,8,0,0,0,0,0,1,8,0,0,0,0,0,0,0,0,0,0],"split_type":[0,0,0,0,0,0,0,0,0,0,0,0,0,0,0,0,0,0,0,0,0,0,0,0,0,0,0,0,0,0,0,0,0,0,0,0,0,0,0,0,0,0,0,0,0,0,0],"sum_hessian":[2.02E2,1.9E2,1.2E1,9E1,1E2,6E0,6E0,8.1E1,9E0,9.5E1,5E0,7.4E1,7E0,9E1,5E0,5E0,6.9E1,4E1,5E1,4.8E1,2.1E1,2.3E1,1.7E1,1E1,4E1,4.3E1,5E0,8E0,1.3E1,1.6E1,7E0,1E1,7E0,5E0,5E0,1.8E1,2.2E1,8E0,3.5E1,8E0,5E0,8E0,8E0,5E0,1.3E1,1.2E1,1E1],"tree_param":{"num_deleted":"0","num_feature":"23","num_nodes":"47","size_leaf_vector":"1"}},{"base_weights":[-0E0,-6.430249E-1,6.1453093E-2,-1.758188E0,2.5211716E-1,1.4383281E-3,5.0165385E-1,-2.8050125E-1,-7.177152E-1,-2.248722E-1,8.38912E-2,2.8901222E-1,4.9795058E-2,-8.954448E-2,-3.060211E-1,-0E0,3.932652E-1,-1.7523697E-2,9.328741E-2,-0E0,-9.725107E-2,2.916632E-1,-5.08626E-2,1.3985275E-1,3.1969643E-1,-5.279599E-2,8.467983E-2,1.815573E-1,1.0889057E-2,2.2778003E-2,-2.4777402E-1,-0E0,1.476257E-1,1.5596224E-1,-0E0,-2.4455038E-1,1.6018449E-1,-2.91619E-1,-1.7377846E-2,1.9923583E-2,-2.660975E-2,-0E0,1.0528805E-1,-1.455801E-1,-1.402431E-2,1.7163989E-1,1.27739E-2,-5.4736026E-2,3.810574E-2],"categories":[],"categories_nodes":[],"categories_segments":[],"categories_sizes":[],"default_left":[0,0,0,0,0,0,0,0,0,0,0,0,0,0,0,0,0,0,0,0,0,0,0,0,0,0,0,0,0,0,0,0,0,0,0,0,0,0,0,0,0,0,0,0,0,0,0,0,0],"id":16,"left_children":[1,3,5,7,-1,9,11,-1,-1,13,15,-1,17,19,-1,21,23,-1,-1,25,-1,27,29,31,-1,-1,33,-1,-1,35,37,39,-1,41,-1,43,45,-1,47,-1,-1,-1,-1,-1,-1,-1,-1,-1,-1],"loss_changes":[7.703205E0,2.8998306E1,4.3623223E0,3.137722E0,0E0,2.8530762E0,3.6146631E0,0E0,0E0,3.6299706E0,3.0366273E0,0E0,4.9307573E-1,6.955402E-1,0E0,1.3956982E0,3.539279E0,0E0,0E0,4.096443E-1,0E0,7.118676E-1,1.2978277E0,8.7848437E-1,0E0,0E0,1.4573961E-1,0E0,0E0,1.9635608E0,3.4105215E0,8.1591606E-2,0E0,3.6825728E-1,0E0,4.6659148E-1,1.4482521E0,0E0,5.054258E-1,0E0,0E0,0E0,0E0,0E0,0E0,0E0,0E0,0E0,0E0],"parents":[2147483647,0,0,1,1,2,2,3,3,5,5,6,6,9,9,10,10,12,12,13,13,15,15,16,16,19,19,21,21,22,22,23,23,26,26,29,29,30,30,31,31,33,33,35,35,36,36,38,38],"right_children":[2,4,6,8,-1,10,12,-1,-1,14,16,-1,18,20,-1,22,24,-1,-1,26,-1,28,30,32,-1,-1,34,-1,-1,36,38,40,-1,42,-1,44,46,-1,48,-1,-1,-1,-1,-1,-1,-1,-1,-1,-1],"split_conditions":[2E0,2.461E6,9.469E2,5.17E2,2.5211716E-1,-6.46E-1,1.172E1,-2.8050125E-1,-7.177152E-1,1.407E1,-1.07E-1,2.8901222E-1,1.364E1,7.645E6,-3.060211E-1,-9.77E-1,1.432E1,-1.7523697E-2,9.328741E-2,8.82E5,-9.725107E-2,5.73E-1,2.70792E1,5.85E-1,3.1969643E-1,-5.279599E-2,7.26E2,1.815573E-1,1.0889057E-2,2.051E1,2.52525E1,6.48E-1,1.476257E-1,3.554E2,-0E0,1.50608E1,-5.4E0,-2.91619E-1,-4.51E-1,1.9923583E-2,-2.660975E-2,-0E0,1.0528805E-1,-1.455801E-1,-1.402431E-2,1.7163989E-1,1.27739E-2,-5.4736026E-2,3.810574E-2],"split_indices":[20,6,11,11,0,18,10,0,0,8,19,0,8,6,0,17,10,0,0,6,0,18,2,18,0,0,11,0,0,4,0,19,0,11,0,0,8,0,19,0,0,0,0,0,0,0,0,0,0],"split_type":[0,0,0,0,0,0,0,0,0,0,0,0,0,0,0,0,0,0,0,0,0,0,0,0,0,0,0,0,0,0,0,0,0,0,0,0,0,0,0,0,0,0,0,0,0,0,0,0,0],"sum_hessian":[1.95E2,1.7E1,1.78E2,1E1,7E0,1.58E2,2E1,5E0,5E0,4E1,1.18E2,9E0,1.1E1,3.5E1,5E0,9.3E1,2.5E1,6E0,5E0,2.6E1,9E0,1.4E1,7.9E1,1.9E1,6E0,9E0,1.7E1,5E0,9E0,5.5E1,2.4E1,1.4E1,5E0,1.1E1,6E0,1.7E1,3.8E1,5E0,1.9E1,9E0,5E0,6E0,5E0,6E0,1.1E1,7E0,3.1E1,1.1E1,8E0],"tree_param":{"num_deleted":"0","num_feature":"23","num_nodes":"49","size_leaf_vector":"1"}},{"base_weights":[3.5652258E-2,7.675484E-1,-3.5904318E-3,-0E0,4.743122E-1,3.8056966E-2,-3.4745783E-1,1.682132E-1,1.5956521E-2,1.3252072E-1,-7.336423E-4,1.3403868E-2,-1.7531393E-1,-1.5736733E-1,6.579636E-2,-5.4768886E-2,-1.8820593E-1,1.7713435E-1,3.8349267E-2,-5.2072108E-2,3.5637137E-2,2.7807552E-4,1.046192E-1],"categories":[],"categories_nodes":[],"categories_segments":[],"categories_sizes":[],"default_left":[0,0,0,0,0,0,0,0,0,0,0,0,0,0,0,0,0,0,0,0,0,0,0],"id":17,"left_children":[1,3,5,-1,-1,7,-1,-1,9,-1,11,13,-1,15,17,19,-1,-1,21,-1,-1,-1,-1],"loss_changes":[6.23247E0,6.4226384E0,9.953113E0,0E0,0E0,1.7299565E0,0E0,0E0,1.5669076E0,0E0,1.7921441E0,1.3875805E0,0E0,1.2551084E0,1.4295388E0,6.7742544E-1,0E0,0E0,1.2013423E0,0E0,0E0,0E0,0E0],"parents":[2147483647,0,0,1,1,2,2,5,5,8,8,10,10,11,11,13,13,14,14,15,15,18,18],"right_children":[2,4,6,-1,-1,8,-1,-1,10,-1,12,14,-1,16,18,20,-1,-1,22,-1,-1,-1,-1],"split_conditions":[-1.318E0,-1.604E0,4.172E1,-0E0,4.743122E-1,-2.637E1,-3.4745783E-1,1.682132E-1,-1.095E0,1.3252072E-1,1.468E0,-4.08E0,-1.7531393E-1,7.564E6,-1.646E0,1.4E1,-1.8820593E-1,1.7713435E-1,4.38709E1,-5.2072108E-2,3.5637137E-2,2.7807552E-4,1.046192E-1],"split_indices":[17,17,5,0,0,8,0,0,19,0,16,5,0,6,18,21,0,0,3,0,0,0,0],"split_type":[0,0,0,0,0,0,0,0,0,0,0,0,0,0,0,0,0,0,0,0,0,0,0],"sum_hessian":[1.99E2,1.1E1,1.88E2,6E0,5E0,1.81E2,7E0,6E0,1.75E2,8E0,1.67E2,1.62E2,5E0,3.5E1,1.27E2,3E1,5E0,5E0,1.22E2,2E1,1E1,1.11E2,1.1E1],"tree_param":{"num_deleted":"0","num_feature":"23","num_nodes":"23","size_leaf_vector":"1"}},{"base_weights":[1.7696753E-2,-3.819906E-1,5.4432392E-2,1.0696384E-1,-4.0202448E-1,4.3864705E-2,6.359338E-1,1.2892678E-1,-3.1510735E-1,7.5919285E-2,-2.1711117E-1,-2.7840784E-2,1.4388792E-1,1.275962E-2,3.3114997E-1,6.0071792E-2,-3.221267E-1,3.2457575E-1,3.4537792E-2,-3.7339637E-1,1.01497605E-1,1.5228607E-1,-3.0037632E-2,-0E0,-2.1409674E-1,-6.4366516E-3,5.042636E-2,-0E0,9.532634E-2],"categories":[],"categories_nodes":[],"categories_segments":[],"categories_sizes":[],"default_left":[0,0,0,0,0,0,0,0,0,0,0,0,0,0,0,0,0,0,0,0,0,0,0,0,0,0,0,0,0],"id":18,"left_children":[1,-1,3,5,7,9,-1,11,-1,13,-1,-1,-1,15,17,19,-1,-1,21,23,25,27,-1,-1,-1,-1,-1,-1,-1],"loss_changes":[8.89103E0,0E0,4.524446E0,2.1495575E1,7.3435326E0,3.8740833E0,0E0,1.0658512E0,0E0,2.4595194E0,0E0,0E0,0E0,6.4031696E0,6.2938204E0,2.1686678E0,0E0,0E0,4.033123E-1,1.2346317E0,1.1336086E0,2.774869E-1,0E0,0E0,0E0,0E0,0E0,0E0,0E0],"parents":[2147483647,0,0,2,2,3,3,4,4,5,5,7,7,9,9,13,13,14,14,15,15,18,18,19,19,20,20,21,21],"right_children":[2,-1,4,6,8,10,-1,12,-1,14,-1,-1,-1,16,18,20,-1,-1,22,24,26,28,-1,-1,-1,-1,-1,-1,-1],"split_conditions":[-1.489E0,-3.819906E-1,4.53E0,1.528E1,1.277E6,4.097E1,6.359338E-1,2.767E1,-3.1510735E-1,6.53E-1,-2.1711117E-1,-2.7840784E-2,1.4388792E-1,5.14E-1,3E0,3.93E5,-3.221267E-1,3.2457575E-1,2.346E1,1.22E1,-4.32E-1,2.188E1,-3.0037632E-2,-0E0,-2.1409674E-1,-6.4366516E-3,5.042636E-2,-0E0,9.532634E-2],"split_indices":[19,0,12,10,7,8,0,9,0,17,0,0,0,17,20,7,0,0,9,10,19,9,0,0,0,0,0,0,0],"split_type":[0,0,0,0,0,0,0,0,0,0,0,0,0,0,0,0,0,0,0,0,0,0,0,0,0,0,0,0,0],"sum_hessian":[2.02E2,5E0,1.97E2,1.78E2,1.9E1,1.73E2,5E0,1E1,9E0,1.67E2,6E0,5E0,5E0,1.36E2,3.1E1,1.31E2,5E0,8E0,2.3E1,1E1,1.21E2,1.5E1,8E0,5E0,5E0,4E1,8.1E1,9E0,6E0],"tree_param":{"num_deleted":"0","num_feature":"23","num_nodes":"29","size_leaf_vector":"1"}},{"base_weights":[2.2107532E-2,-1.6947726E-2,3.382691E-1,1.3045758E-2,-3.4940836E-1,5.28243E-1,-8.096904E-3,7.6572746E-2,-2.3401824E-1,5.3224463E-2,-2.065261E-1,-0E0,1.9371386E-1,-2.5240043E-1,-8.280117E-3,2.8206673E-3,-1.474182E-1,3.123063E-1,-3.3172667E-2,3.1973773E-1,5.3807353E-3,-1.1492736E-1,8.406074E-2,-0E0,1.8819219E-1,-1.31389E-1,9.8153E-2,2.3295186E-1,1.3965335E-1,4.872169E-2,-3.4670256E-2,-0E0,-7.009197E-2,7.815405E-2,-0E0,-2.830804E-1,7.544343E-2,2.6517186E-1,-9.603447E-2,-2.6078184E-5,2.6778013E-1,-4.0361166E-2,1.0063503E-2,-1.7995496E-1,-3.8244189E-3,1.3479744E-1,-5.660146E-3,1.8295527E-2,1.9431297E-1,-0E0,-6.6606626E-2,-0E0,1.2453651E-1],"categories":[],"categories_nodes":[],"categories_segments":[],"categories_sizes":[],"default_left":[0,0,0,0,0,0,0,0,0,0,0,0,0,0,0,0,0,0,0,0,0,0,0,0,0,0,0,0,0,0,0,0,0,0,0,0,0,0,0,0,0,0,0,0,0,0,0,0,0,0,0,0,0],"id":19,"left_children":[1,3,5,7,-1,-1,9,11,13,-1,15,17,19,-1,21,-1,-1,23,25,27,29,31,33,-1,-1,35,37,-1,39,-1,41,-1,-1,-1,-1,43,45,47,49,-1,51,-1,-1,-1,-1,-1,-1,-1,-1,-1,-1,-1,-1],"loss_changes":[2.6993217E0,6.98197E0,1.3261835E1,2.5932302E0,0E0,0E0,7.280502E-1,1.1364303E0,4.0395813E0,0E0,1.0268803E0,1.0605141E0,1.0143788E0,0E0,2.671604E-1,0E0,0E0,1.0558977E0,1.0157641E0,1.8211317E0,2.351777E-1,3.0891636E-1,2.7969894E-1,0E0,0E0,1.6152854E0,1.087645E0,0E0,5.750464E-1,0E0,1.7459235E-1,0E0,0E0,0E0,0E0,2.134852E0,9.4465137E-1,9.4988203E-1,1.9464274E-1,0E0,4.1885948E-1,0E0,0E0,0E0,0E0,0E0,0E0,0E0,0E0,0E0,0E0,0E0,0E0],"parents":[2147483647,0,0,1,1,2,2,3,3,6,6,7,7,8,8,10,10,11,11,12,12,14,14,17,17,18,18,19,19,20,20,21,21,22,22,25,25,26,26,28,28,30,30,35,35,36,36,37,37,38,38,40,40],"right_children":[2,4,6,8,-1,-1,10,12,14,-1,16,18,20,-1,22,-1,-1,24,26,28,30,32,34,-1,-1,36,38,-1,40,-1,42,-1,-1,-1,-1,44,46,48,50,-1,52,-1,-1,-1,-1,-1,-1,-1,-1,-1,-1,-1,-1],"split_conditions":[2.92E1,3.843E1,2.984E1,1E1,-3.4940836E-1,5.28243E-1,1.4E1,2.42E2,4E0,5.3224463E-2,2.00756E1,-9.57E-1,2.239E6,-2.5240043E-1,9.6E-2,2.8206673E-3,-1.474182E-1,1.383E6,3.84E0,9.3E-2,-5.24E-1,-1.297E0,7.76E-1,-0E0,1.8819219E-1,6E0,2.51597E1,2.3295186E-1,4.25E5,4.872169E-2,2.77E-1,-0E0,-7.009197E-2,7.815405E-2,-0E0,9E0,2.45742E1,2.00819E1,2.268E1,-2.6078184E-5,6E0,-4.0361166E-2,1.0063503E-2,-1.7995496E-1,-3.8244189E-3,1.3479744E-1,-5.660146E-3,1.8295527E-2,1.9431297E-1,-0E0,-6.6606626E-2,-0E0,1.2453651E-1],"split_indices":[13,5,13,22,0,0,20,15,20,0,0,16,7,0,16,0,0,7,12,17,17,16,16,0,0,22,3,0,7,0,17,0,0,0,0,20,4,4,9,0,20,0,0,0,0,0,0,0,0,0,0,0,0],"split_type":[0,0,0,0,0,0,0,0,0,0,0,0,0,0,0,0,0,0,0,0,0,0,0,0,0,0,0,0,0,0,0,0,0,0,0,0,0,0,0,0,0,0,0,0,0,0,0,0,0,0,0,0,0],"sum_hessian":[2.01E2,1.77E2,2.4E1,1.72E2,5E0,5E0,1.9E1,1.39E2,3.3E1,8E0,1.1E1,8.7E1,5.2E1,8E0,2.5E1,5E0,6E0,1E1,7.7E1,2.9E1,2.3E1,1.5E1,1E1,5E0,5E0,4.7E1,3E1,7E0,2.2E1,8E0,1.5E1,6E0,9E0,5E0,5E0,2.9E1,1.8E1,1.8E1,1.2E1,8E0,1.4E1,1E1,5E0,1.2E1,1.7E1,5E0,1.3E1,1.3E1,5E0,6E0,6E0,6E0,8E0],"tree_param":{"num_deleted":"0","num_feature":"23","num_nodes":"53","size_leaf_vector":"1"}},{"base_weights":[2.543865E-2,-2.3914623E-1,4.9356997E-2,8.506691E-3,4.0927574E-1,6.1034147E-2,-3.134458E-1,-0E0,4.2201692E-1,2.2500078E-1,1.9681623E-2,-2.235599E-2,-3.7907526E-1,8.224059E-2,-3.8531892E-2,-0E0,9.559258E-2,6.284591E-2,-1.829279E-1,-2.1041889E-2,2.0764507E-1,-9.600214E-2,-0E0,-5.708596E-2,1.7660084E-1,-0E0,9.3739405E-2,5.6103926E-2,-2.3629798E-2,-0E0,8.519155E-2],"categories":[],"categories_nodes":[],"categories_segments":[],"categories_sizes":[],"default_left":[0,0,0,0,0,0,0,0,0,0,0,0,0,0,0,0,0,0,0,0,0,0,0,0,0,0,0,0,0,0,0],"id":20,"left_children":[1,-1,3,5,7,9,11,13,-1,-1,15,17,-1,-1,-1,19,-1,-1,21,23,25,-1,-1,27,29,-1,-1,-1,-1,-1,-1],"loss_changes":[3.6407232E0,0E0,2.7021277E0,2.9411132E0,7.0333433E0,4.1079626E0,5.894425E0,6.017525E-1,0E0,0E0,7.795696E-1,6.9750756E-1,0E0,0E0,0E0,7.040527E-1,0E0,0E0,3.0484238E-1,8.382116E-1,2.6005018E-1,0E0,0E0,5.598248E-1,4.6837056E-1,0E0,0E0,0E0,0E0,0E0,0E0],"parents":[2147483647,0,0,2,2,3,3,4,4,5,5,6,6,7,7,10,10,11,11,15,15,18,18,19,19,20,20,23,23,24,24],"right_children":[2,-1,4,6,8,10,12,14,-1,-1,16,18,-1,-1,-1,20,-1,-1,22,24,26,-1,-1,28,30,-1,-1,-1,-1,-1,-1],"split_conditions":[-1.427E0,-2.3914623E-1,1.505E1,1.84E1,2.23762E1,1E0,2.17793E1,1.68494E1,4.2201692E-1,2.2500078E-1,2E1,-9.92E0,-3.7907526E-1,8.224059E-2,-3.8531892E-2,1.892E1,9.559258E-2,6.284591E-2,1.297E6,2.36E7,2.00701E1,-9.600214E-2,-0E0,-1.022E0,2.29416E1,-0E0,9.3739405E-2,5.6103926E-2,-2.3629798E-2,-0E0,8.519155E-2],"split_indices":[19,0,5,14,0,21,0,4,0,0,21,8,0,0,0,8,0,0,6,6,0,0,0,19,4,0,0,0,0,0,0],"split_type":[0,0,0,0,0,0,0,0,0,0,0,0,0,0,0,0,0,0,0,0,0,0,0,0,0,0,0,0,0,0,0],"sum_hessian":[2.08E2,5E0,2.03E2,1.84E2,1.9E1,1.6E2,2.4E1,1.4E1,5E0,8E0,1.52E2,1.9E1,5E0,6E0,8E0,1.44E2,8E0,6E0,1.3E1,1.29E2,1.5E1,7E0,6E0,1.12E2,1.7E1,6E0,9E0,7E0,1.05E2,5E0,1.2E1],"tree_param":{"num_deleted":"0","num_feature":"23","num_nodes":"31","size_leaf_vector":"1"}},{"base_weights":[9.815302E-3,2.0084898E-1,-1.868614E-2,-4.002132E-1,1.5297218E-2,-1.0440512E0,1.9712362E-1,-1.6860273E-2,2.6379073E-1,-2.5878128E-2,-6.0711896E-1,3.5403367E-2,-1.4091529E-1,2.70657E-1,-0E0,-4.2069286E-2,5.584802E-2,-4.75498E-1,3.7330814E-2,8.63983E-2,-1.0555266E-1,-3.6224287E-2,9.337557E-2,-2.5384265E-1,-4.7865417E-3,1.5619569E-1,-4.8687648E-2,-0E0,-6.2266055E-2,-8.766833E-2,-0E0,1.179504E-1,-1.8957784E-2,-0E0,2.3647046E-1,-3.5712685E-2,-0E0,5.6344294E-3,5.499201E-2,9.702182E-3,1.1859155E-1],"categories":[],"categories_nodes":[],"categories_segments":[],"categories_sizes":[],"default_left":[0,0,0,0,0,0,0,0,0,0,0,0,0,0,0,0,0,0,0,0,0,0,0,0,0,0,0,0,0,0,0,0,0,0,0,0,0,0,0,0,0],"id":21,"left_children":[1,-1,3,5,7,9,-1,11,13,-1,-1,15,17,-1,19,-1,21,23,25,-1,27,29,31,-1,-1,33,-1,-1,-1,35,-1,37,-1,-1,39,-1,-1,-1,-1,-1,-1],"loss_changes":[4.210514E0,0E0,2.6979668E0,1.1946138E1,1.5335261E0,9.19543E0,0E0,1.0374694E0,3.5108714E0,0E0,0E0,3.0870336E-1,3.159339E0,0E0,5.5081785E-1,0E0,3.6348003E-1,2.5825791E0,7.1530825E-1,0E0,1.4424944E-1,8.6445384E-2,3.1520325E-1,0E0,0E0,3.8249058E-1,0E0,0E0,0E0,3.0944422E-2,0E0,3.0646807E-1,0E0,0E0,2.440005E-1,0E0,0E0,0E0,0E0,0E0,0E0],"parents":[2147483647,0,0,2,2,3,3,4,4,5,5,7,7,8,8,11,11,12,12,14,14,16,16,17,17,18,18,20,20,21,21,22,22,25,25,29,29,31,31,34,34],"right_children":[2,-1,4,6,8,10,-1,12,14,-1,-1,16,18,-1,20,-1,22,24,26,-1,28,30,32,-1,-1,34,-1,-1,-1,36,-1,38,-1,-1,40,-1,-1,-1,-1,-1,-1],"split_conditions":[-1.318E0,2.0084898E-1,2E0,6.44E-1,1.505E1,8E0,1.9712362E-1,2.346E1,5.5E5,-2.5878128E-2,-6.0711896E-1,9.58E1,2.447E1,2.70657E-1,1.68494E1,-4.2069286E-2,1.71484E1,1.655E2,2.8E-1,8.63983E-2,1.52E2,2.272E1,6.7E0,-2.5384265E-1,-4.7865417E-3,1.277E6,-4.8687648E-2,-0E0,-6.2266055E-2,1.01E0,-0E0,3E0,-1.8957784E-2,-0E0,1.6E1,-3.5712685E-2,-0E0,5.6344294E-3,5.499201E-2,9.702182E-3,1.1859155E-1],"split_indices":[17,0,21,17,5,22,0,9,7,0,0,15,9,0,4,0,2,15,19,0,15,9,5,0,0,7,0,0,0,5,0,22,0,0,21,0,0,0,0,0,0],"split_type":[0,0,0,0,0,0,0,0,0,0,0,0,0,0,0,0,0,0,0,0,0,0,0,0,0,0,0,0,0,0,0,0,0,0,0,0,0,0,0,0,0],"sum_hessian":[1.97E2,9E0,1.88E2,1.7E1,1.71E2,1.1E1,6E0,1.49E2,2.2E1,6E0,5E0,1.01E2,4.8E1,6E0,1.6E1,7E0,9.4E1,1.8E1,3E1,5E0,1.1E1,2.2E1,7.2E1,9E0,9E0,2.1E1,9E0,5E0,6E0,1.5E1,7E0,6.6E1,6E0,5E0,1.6E1,1E1,5E0,3.1E1,3.5E1,9E0,7E0],"tree_param":{"num_deleted":"0","num_feature":"23","num_nodes":"41","size_leaf_vector":"1"}},{"base_weights":[-2.3860533E-2,-6.8381417E-1,6.068666E-3,-3.716243E-1,-0E0,-9.957033E-2,1.8085295E-1,-6.785092E-2,-2.0663235E-1,8.443349E-2,4.232037E-1,-1.22400755E-2,-2.746722E-1,3.0783498E-1,-3.546037E-4,-8.3717994E-2,3.9601695E-2,-3.2999545E-1,-0E0,9.127746E-2,2.682585E-1,1.7540124E-1,-8.75036E-2,4.1186437E-2,-1.4401987E-1,1.3710217E-1,-1.4804666E-2,-4.2782786E-1,-0E0,-0E0,5.141354E-2,-0E0,1.3615595E-1,-2.317772E-1,6.0150567E-3,-0E0,3.6608797E-2,-7.2812654E-2,-1.2447485E-1,-0E0,1.863376E-1,-5.8315977E-2,3.8113145E-3,-1.7594202E-1,-4.3418564E-2,-0E0,-3.1990033E-1,-3.9975427E-2,7.970918E-2,-0E0,-3.442606E-2,-0E0,7.577103E-2,-0E0,-3.6689192E-2,-1.4004524E-1,-0E0,-2.504829E-2,-0E0],"categories":[],"categories_nodes":[],"categories_segments":[],"categories_sizes":[],"default_left":[0,0,0,0,0,0,0,0,0,0,0,0,0,0,0,0,0,0,0,0,0,0,0,0,0,0,0,0,0,0,0,0,0,0,0,0,0,0,0,0,0,0,0,0,0,0,0,0,0,0,0,0,0,0,0,0,0,0,0],"id":22,"left_children":[1,3,5,-1,-1,7,9,11,-1,13,-1,15,17,19,21,23,25,27,-1,29,-1,31,33,35,37,39,41,43,-1,-1,-1,-1,-1,45,47,-1,-1,49,-1,-1,51,53,-1,-1,-1,-1,55,57,-1,-1,-1,-1,-1,-1,-1,-1,-1,-1,-1],"loss_changes":[4.5669217E0,3.244389E0,3.7110171E0,0E0,0E0,1.7837186E0,8.268919E0,1.1401428E0,0E0,1.5718706E0,0E0,3.7819165E-1,1.9160867E-1,2.1846611E0,7.0652676E-1,4.0855363E-1,3.4268135E-1,3.4551358E-1,0E0,1.3116866E-1,0E0,6.326151E-1,6.3849163E-1,5.8214556E-2,3.372835E-1,1.7680413E-1,6.327741E-2,6.3148975E-2,0E0,0E0,0E0,0E0,0E0,3.1499463E-1,3.8616666E-1,0E0,0E0,1.451698E-1,0E0,0E0,6.799322E-2,5.5481136E-2,0E0,0E0,0E0,0E0,3.4625638E-1,3.518913E-2,0E0,0E0,0E0,0E0,0E0,0E0,0E0,0E0,0E0,0E0,0E0],"parents":[2147483647,0,0,1,1,2,2,5,5,6,6,7,7,9,9,11,11,12,12,13,13,14,14,15,15,16,16,17,17,19,19,21,21,22,22,23,23,24,24,25,25,26,26,27,27,33,33,34,34,37,37,40,40,41,41,46,46,47,47],"right_children":[2,4,6,-1,-1,8,10,12,-1,14,-1,16,18,20,22,24,26,28,-1,30,-1,32,34,36,38,40,42,44,-1,-1,-1,-1,-1,46,48,-1,-1,50,-1,-1,52,54,-1,-1,-1,-1,56,58,-1,-1,-1,-1,-1,-1,-1,-1,-1,-1,-1],"split_conditions":[1E0,-1.97E-1,-6.1E-2,-3.716243E-1,-0E0,4.172E1,2.996E1,2.92354E1,-2.0663235E-1,1.78E-1,4.232037E-1,9E0,1.7E1,2.89E1,1.3E1,2.537E1,-4.33E-1,2.425E1,-0E0,1.097E1,2.682585E-1,1.331E1,1.1E6,2.429E1,9.31E0,1.49519E1,7.406E7,8.93E-1,-0E0,-0E0,5.141354E-2,-0E0,1.3615595E-1,1.17792E1,8.49E-1,-0E0,3.6608797E-2,-6.57E-1,-1.2447485E-1,-0E0,5.24E2,4.855E6,3.8113145E-3,-1.7594202E-1,-4.3418564E-2,-0E0,7.117E2,-8E-2,7.970918E-2,-0E0,-3.442606E-2,-0E0,7.577103E-2,-0E0,-3.6689192E-2,-1.4004524E-1,-0E0,-2.504829E-2,-0E0],"split_indices":[20,19,16,0,0,5,5,3,0,18,0,20,20,13,20,13,18,9,0,10,0,10,6,13,5,3,7,17,0,0,0,0,0,3,16,0,0,19,0,0,11,7,0,0,0,0,11,5,0,0,0,0,0,0,0,0,0,0,0],"split_type":[0,0,0,0,0,0,0,0,0,0,0,0,0,0,0,0,0,0,0,0,0,0,0,0,0,0,0,0,0,0,0,0,0,0,0,0,0,0,0,0,0,0,0,0,0,0,0,0,0,0,0,0,0,0,0,0,0,0,0],"sum_hessian":[2.08E2,1E1,1.98E2,5E0,5E0,1.21E2,7.7E1,1.16E2,5E0,7.2E1,5E0,9.4E1,2.2E1,2.2E1,5E1,4.5E1,4.9E1,1.7E1,5E0,1.7E1,5E0,1.4E1,3.6E1,1.1E1,3.4E1,2.2E1,2.7E1,1.2E1,5E0,8E0,9E0,9E0,5E0,1.7E1,1.9E1,6E0,5E0,2.9E1,5E0,5E0,1.7E1,2E1,7E0,6E0,6E0,5E0,1.2E1,1.4E1,5E0,7E0,2.2E1,7E0,1E1,1.2E1,8E0,7E0,5E0,8E0,6E0],"tree_param":{"num_deleted":"0","num_feature":"23","num_nodes":"59","size_leaf_vector":"1"}},{"base_weights":[-1.7962879E-2,-2.3111455E-1,-0E0,-1.7212894E-2,2.1179259E-1,4.108832E-2,-1.8836775E-1,2.968292E-1,1.5195129E-3,1.7620781E-3,-4.2832768E-1,-7.2872806E-3,1.1002222E-1,-3.651265E-2,1.0913589E-1,-4.863516E-1,-8.964215E-2,-3.356028E-2,2.2492336E-1,-0E0,-3.688243E-2,7.222752E-2,-0E0,-1.3563369E-1,-0E0,2.2473275E-3,-3.6056137E-1,-0E0,1.2430942E-1,-5.312187E-2,6.5114245E-2,2.5220271E-2,-4.267442E-3,-1.3965586E-1,-2.8938003E-2],"categories":[],"categories_nodes":[],"categories_segments":[],"categories_sizes":[],"default_left":[0,0,0,0,0,0,0,0,0,0,0,0,0,0,0,0,0,0,0,0,0,0,0,0,0,0,0,0,0,0,0,0,0,0,0],"id":23,"left_children":[1,-1,3,5,-1,7,9,-1,11,13,15,17,-1,19,21,-1,23,25,27,-1,-1,-1,-1,-1,29,31,33,-1,-1,-1,-1,-1,-1,-1,-1],"loss_changes":[2.9973245E0,0E0,2.631562E0,2.0654683E0,0E0,4.8115416E0,2.706777E0,0E0,7.011983E-1,1.6422912E-1,9.142452E0,6.8813825E-1,0E0,7.2291955E-2,2.7588782E-1,0E0,8.945753E-1,1.6826401E0,5.0688165E-1,0E0,0E0,0E0,0E0,0E0,6.156064E-1,1.9929917E-1,2.6574612E-2,0E0,0E0,0E0,0E0,0E0,0E0,0E0,0E0],"parents":[2147483647,0,0,2,2,3,3,5,5,6,6,8,8,9,9,10,10,11,11,13,13,14,14,16,16,17,17,18,18,24,24,25,25,26,26],"right_children":[2,-1,4,6,-1,8,10,-1,12,14,16,18,-1,20,22,-1,24,26,28,-1,-1,-1,-1,-1,30,32,34,-1,-1,-1,-1,-1,-1,-1,-1],"split_conditions":[-1.359E0,-2.3111455E-1,5.559E1,2.486E2,2.1179259E-1,1E0,2.159E1,2.968292E-1,1.193E0,4.452E2,3.54E0,3.063E1,1.1002222E-1,3.884E2,1.6E1,-4.863516E-1,-4.01E-1,2.915E1,-2.79E0,-0E0,-3.688243E-2,7.222752E-2,-0E0,-1.3563369E-1,3.344E2,-6.72E-1,-2.84E-1,-0E0,1.2430942E-1,-5.312187E-2,6.5114245E-2,2.5220271E-2,-4.267442E-3,-1.3965586E-1,-2.8938003E-2],"split_indices":[19,0,5,15,0,21,9,0,17,15,12,13,0,15,21,0,17,13,8,0,0,0,0,0,15,19,19,0,0,0,0,0,0,0,0],"split_type":[0,0,0,0,0,0,0,0,0,0,0,0,0,0,0,0,0,0,0,0,0,0,0,0,0,0,0,0,0,0,0,0,0,0,0],"sum_hessian":[2.07E2,5E0,2.02E2,1.97E2,5E0,1.44E2,5.3E1,5E0,1.39E2,2.8E1,2.5E1,1.34E2,5E0,1.6E1,1.2E1,5E0,2E1,1.23E2,1.1E1,1E1,6E0,7E0,5E0,5E0,1.5E1,1.09E2,1.4E1,5E0,6E0,7E0,8E0,2.5E1,8.4E1,8E0,6E0],"tree_param":{"num_deleted":"0","num_feature":"23","num_nodes":"35","size_leaf_vector":"1"}},{"base_weights":[-1.8605402E-2,-4.0879942E-2,1.8585932E-1,-2.908748E-1,-8.665732E-3,1.3278222E-1,-7.09418E-1,4.8725964E-3,-1.1544165E-1,-0E0,-4.9901524E-1,5.1260095E-2,-1.1151204E-1,1.5913393E-2,2.3598608E-1,-1.955207E-1,-1.3871815E-2,8.207891E-2,-0E0,-2.8681037E-1,-0E0,-0E0,-5.9518255E-2,-1.8579748E-2,1.2109046E-1,-0E0,-1.06178604E-1,-0E0,1.9782024E-2,-0E0,-3.070873E-2,-2.2074368E-2,2.7943575E-3,-0E0,5.966081E-2],"categories":[],"categories_nodes":[],"categories_segments":[],"categories_sizes":[],"default_left":[0,0,0,0,0,0,0,0,0,0,0,0,0,0,0,0,0,0,0,0,0,0,0,0,0,0,0,0,0,0,0,0,0,0,0],"id":24,"left_children":[1,3,-1,5,7,-1,9,11,-1,-1,-1,13,15,17,-1,19,21,-1,23,25,-1,27,29,31,33,-1,-1,-1,-1,-1,-1,-1,-1,-1,-1],"loss_changes":[2.6471505E0,1.4483595E0,0E0,6.6865177E0,1.2131578E0,0E0,1.0091421E1,9.0948147E-1,0E0,0E0,0E0,2.884709E0,2.3571187E-1,5.092659E-1,0E0,5.135591E-1,4.8340224E-2,0E0,2.6988274E-1,1.05617166E-1,0E0,2.2448758E-2,3.3375524E-2,2.0478322E-1,1.3272545E-1,0E0,0E0,0E0,0E0,0E0,0E0,0E0,0E0,0E0,0E0],"parents":[2147483647,0,0,1,1,3,3,4,4,6,6,7,7,11,11,12,12,13,13,15,15,16,16,18,18,19,19,21,21,22,22,23,23,24,24],"right_children":[2,4,-1,6,8,-1,10,12,-1,-1,-1,14,16,18,-1,20,22,-1,24,26,-1,28,30,32,34,-1,-1,-1,-1,-1,-1,-1,-1,-1,-1],"split_conditions":[1.386E0,2E0,1.8585932E-1,-8.47E-1,2.118E0,1.3278222E-1,8E0,4.35E-1,-1.1544165E-1,-0E0,-4.9901524E-1,5.74E-1,3.9E0,-1.006E0,2.3598608E-1,4.698E2,2.701E1,8.207891E-2,3.59E2,2.65E1,-0E0,1.3E1,1.23E1,9E0,-9.61E-1,-0E0,-1.06178604E-1,-0E0,1.9782024E-2,-0E0,-3.070873E-2,-2.2074368E-2,2.7943575E-3,-0E0,5.966081E-2],"split_indices":[18,20,0,16,19,0,22,18,0,0,0,16,12,19,0,15,13,0,15,13,0,20,10,20,16,0,0,0,0,0,0,0,0,0,0],"split_type":[0,0,0,0,0,0,0,0,0,0,0,0,0,0,0,0,0,0,0,0,0,0,0,0,0,0,0,0,0,0,0,0,0,0,0],"sum_hessian":[2.11E2,2.05E2,6E0,2.1E1,1.84E2,7E0,1.4E1,1.76E2,8E0,8E0,6E0,1.3E2,4.6E1,1.25E2,5E0,2.1E1,2.5E1,7E0,1.18E2,1.6E1,5E0,1E1,1.5E1,1.02E2,1.6E1,5E0,1.1E1,5E0,5E0,7E0,8E0,4.2E1,6E1,7E0,9E0],"tree_param":{"num_deleted":"0","num_feature":"23","num_nodes":"35","size_leaf_vector":"1"}},{"base_weights":[-6.535118E-3,2.4747026E-1,-3.526674E-2,-2.082603E-1,-6.6837766E-3,-0E0,-3.240686E-1,8.664391E-3,-1.7809227E-1,-1.18312435E-2,5.8529872E-2,-2.8198995E-2,1.5647043E-1,-2.3641293E-1,9.442404E-3,3.033424E-2,-0E0,5.4091275E-2,-7.658965E-2,2.8720492E-1,-0E0,-0E0,1.7692221E-2,-0E0,1.3315265E-1,-1.5208441E-1,-0E0,8.078208E-2,-8.399201E-2,5.646484E-2,-3.4957208E-2,-4.682595E-2,-2.6085666E-1,2.5925651E-2,-2.2638252E-2,-0E0,5.148036E-2,-6.0559593E-2,-0E0,-5.1756676E-2,-0E0,-5.3593826E-2,-0E0,-0E0,-1.3902527E-1,-0E0,-3.7775837E-2],"categories":[],"categories_nodes":[],"categories_segments":[],"categories_sizes":[],"default_left":[0,0,0,0,0,0,0,0,0,0,0,0,0,0,0,0,0,0,0,0,0,0,0,0,0,0,0,0,0,0,0,0,0,0,0,0,0,0,0,0,0,0,0,0,0,0,0],"id":25,"left_children":[1,-1,3,5,7,9,-1,11,13,-1,15,17,19,-1,21,-1,-1,23,25,-1,27,-1,-1,29,-1,31,33,35,37,-1,39,41,43,-1,45,-1,-1,-1,-1,-1,-1,-1,-1,-1,-1,-1,-1],"loss_changes":[4.455127E0,0E0,8.4356123E-1,4.940053E0,5.7501E-1,5.214639E-2,0E0,9.422405E-1,2.6363378E0,0E0,2.5635678E-2,5.01067E-1,3.874878E0,0E0,2.756118E-2,0E0,0E0,9.000215E-1,4.673816E-1,0E0,2.0164943E-1,0E0,0E0,2.1956268E-1,0E0,2.6129788E-1,7.8586504E-2,1.7991364E-1,1.7479464E-1,0E0,2.3983017E-1,1.7798832E-1,1.0594794E0,0E0,1.4673722E-1,0E0,0E0,0E0,0E0,0E0,0E0,0E0,0E0,0E0,0E0,0E0,0E0],"parents":[2147483647,0,0,2,2,3,3,4,4,5,5,7,7,8,8,10,10,11,11,12,12,14,14,17,17,18,18,20,20,23,23,25,25,26,26,27,27,28,28,30,30,31,31,32,32,34,34],"right_children":[2,-1,4,6,8,10,-1,12,14,-1,16,18,20,-1,22,-1,-1,24,26,-1,28,-1,-1,30,-1,32,34,36,38,-1,40,42,44,-1,46,-1,-1,-1,-1,-1,-1,-1,-1,-1,-1,-1,-1],"split_conditions":[-2.964E1,2.4747026E-1,3.52E0,3.48E0,6.5428E7,1.54284E1,-3.240686E-1,6.867E6,7.406E7,-1.18312435E-2,-4.68E-1,8.47E5,2.48055E1,-2.3641293E-1,2.32361E1,3.033424E-2,-0E0,7E5,1.447E6,2.8720492E-1,1.413E2,-0E0,1.7692221E-2,-8.78E0,1.3315265E-1,1E-2,1.47E6,9.55E1,1.76E2,5.646484E-2,5E-2,2.08781E1,2.03589E1,2.5925651E-2,1.56E0,-0E0,5.148036E-2,-6.0559593E-2,-0E0,-5.1756676E-2,-0E0,-5.3593826E-2,-0E0,-0E0,-1.3902527E-1,-0E0,-3.7775837E-2],"split_indices":[8,0,12,12,6,2,0,6,7,0,18,6,2,0,3,0,0,7,6,0,15,0,0,5,0,5,7,15,15,0,5,3,2,0,8,0,0,0,0,0,0,0,0,0,0,0,0],"split_type":[0,0,0,0,0,0,0,0,0,0,0,0,0,0,0,0,0,0,0,0,0,0,0,0,0,0,0,0,0,0,0,0,0,0,0,0,0,0,0,0,0,0,0,0,0,0,0],"sum_hessian":[2.06E2,6E0,2E2,2.5E1,1.75E2,2E1,5E0,1.57E2,1.8E1,9E0,1.1E1,1.22E2,3.5E1,5E0,1.3E1,6E0,5E0,4E1,8.2E1,5E0,3E1,5E0,8E0,3.5E1,5E0,4.1E1,4.1E1,1.9E1,1.1E1,5E0,3E1,2.4E1,1.7E1,8E0,3.3E1,9E0,1E1,6E0,5E0,9E0,2.1E1,7E0,1.7E1,7E0,1E1,2.3E1,1E1],"tree_param":{"num_deleted":"0","num_feature":"23","num_nodes":"47","size_leaf_vector":"1"}},{"base_weights":[-6.1663713E-2,-4.673556E-1,-3.1843264E-2,-0E0,-3.206658E-1,-1.5965816E-1,1.0177754E-2,-3.9962154E-2,-2.0769417E-1,9.927428E-2,-4.9198912E-3,9.839389E-4,-1.1758573E-1,1.1615763E-1,-4.0877998E-2,-3.0605812E-2,5.045929E-2,1.6527781E-2,1.1198615E-1,-6.882944E-2,4.1297663E-2,-0E0,-1.0240345E-1,-5.099764E-4,4.2743683E-2,-2.6781337E-2,-7.713802E-2,-0E0,4.979229E-2,3.1406898E-2,-0E0,-0E0,-4.9647935E-2,-0E0,-2.4698954E-2,-6.3747086E-2,3.8787752E-2,2.6836894E-3,-8.880088E-3,-0E0,-5.0704926E-2,-0E0,2.0226782E-2],"categories":[],"categories_nodes":[],"categories_segments":[],"categories_sizes":[],"default_left":[0,0,0,0,0,0,0,0,0,0,0,0,0,0,0,0,0,0,0,0,0,0,0,0,0,0,0,0,0,0,0,0,0,0,0,0,0,0,0,0,0,0,0],"id":26,"left_children":[1,3,5,-1,-1,7,9,11,-1,-1,13,15,-1,17,19,21,-1,23,-1,25,27,29,31,33,-1,35,-1,37,-1,-1,-1,-1,-1,-1,-1,39,41,-1,-1,-1,-1,-1,-1],"loss_changes":[2.0577178E0,3.2766929E0,1.1001284E0,0E0,0E0,2.7504525E0,8.9328974E-1,8.846076E-1,0E0,0E0,5.0639653E-1,2.8806812E-1,0E0,3.8750598E-1,2.5522834E-1,1.2156072E-1,0E0,1.412337E-1,0E0,4.7649676E-1,1.3652757E-1,5.6584954E-2,7.931213E-2,5.5970628E-2,0E0,1.8899426E-1,0E0,7.7311387E-3,0E0,0E0,0E0,0E0,0E0,0E0,0E0,4.6664512E-1,3.708614E-2,0E0,0E0,0E0,0E0,0E0,0E0],"parents":[2147483647,0,0,1,1,2,2,5,5,6,6,7,7,10,10,11,11,13,13,14,14,15,15,17,17,19,19,20,20,21,21,22,22,23,23,25,25,27,27,35,35,36,36],"right_children":[2,4,6,-1,-1,8,10,12,-1,-1,14,16,-1,18,20,22,-1,24,-1,26,28,30,32,34,-1,36,-1,38,-1,-1,-1,-1,-1,-1,-1,40,42,-1,-1,-1,-1,-1,-1],"split_conditions":[1E0,8E0,-6.46E-1,-0E0,-3.206658E-1,1.414E1,2E0,4.34192E1,-2.0769417E-1,9.927428E-2,-2.72E-1,2.609E1,-1.1758573E-1,3.59E2,2.0801E7,-1.004E0,5.045929E-2,2.56404E1,1.1198615E-1,2.915E1,2.64161E1,5E0,2.216E2,5E0,4.2743683E-2,2.7027E1,-7.713802E-2,2.38029E1,4.979229E-2,3.1406898E-2,-0E0,-0E0,-4.9647935E-2,-0E0,-2.4698954E-2,2.17793E1,1.105E1,2.6836894E-3,-8.880088E-3,-0E0,-5.0704926E-2,-0E0,2.0226782E-2],"split_indices":[21,22,18,0,0,10,21,1,0,0,18,13,0,15,6,18,0,0,0,13,0,21,15,21,0,0,0,2,0,0,0,0,0,0,0,1,10,0,0,0,0,0,0],"split_type":[0,0,0,0,0,0,0,0,0,0,0,0,0,0,0,0,0,0,0,0,0,0,0,0,0,0,0,0,0,0,0,0,0,0,0,0,0,0,0,0,0,0,0],"sum_hessian":[1.98E2,1.2E1,1.86E2,7E0,5E0,5E1,1.36E2,4.2E1,8E0,8E0,1.28E2,3.6E1,6E0,2.5E1,1.03E2,2.7E1,9E0,2E1,5E0,8.3E1,2E1,1.3E1,1.4E1,1.3E1,7E0,7.1E1,1.2E1,1.4E1,6E0,5E0,8E0,6E0,8E0,5E0,8E0,5.2E1,1.9E1,6E0,8E0,2.9E1,2.3E1,5E0,1.4E1],"tree_param":{"num_deleted":"0","num_feature":"23","num_nodes":"43","size_leaf_vector":"1"}},{"base_weights":[2.7799629E-2,7.950001E-3,2.1196575E-1,-1.2171723E-1,2.163663E-2,-1.9933427E-2,8.248165E-2,-0E0,-9.636333E-2,1.1508167E-2,5.7531303E-1,9.691056E-2,-5.5396367E-2,-1.486796E-1,5.962773E-2,2.749846E-1,2.479292E-2,2.2089168E-1,-1.9496405E-1,-8.44926E-2,2.9973866E-2,7.5618535E-2,-2.1623552E-1,1.1377708E-1,-6.0543697E-2,3.7136156E-2,1.826681E-1,2.2884851E-2,-1.7792428E-1,-4.0773816E-2,-7.7333316E-2,4.524393E-2,-0E0,-0E0,1.740992E-1,-5.088637E-2,-0E0,-0E0,6.2042475E-2,-2.7252477E-2,-0E0,-8.4403325E-3,-0E0,-0E0,7.27803E-2],"categories":[],"categories_nodes":[],"categories_segments":[],"categories_sizes":[],"default_left":[0,0,0,0,0,0,0,0,0,0,0,0,0,0,0,0,0,0,0,0,0,0,0,0,0,0,0,0,0,0,0,0,0,0,0,0,0,0,0,0,0,0,0,0,0],"id":27,"left_children":[1,3,-1,-1,5,7,9,11,-1,13,15,17,19,21,23,-1,-1,25,27,29,-1,31,-1,33,35,37,-1,-1,-1,39,-1,-1,-1,41,43,-1,-1,-1,-1,-1,-1,-1,-1,-1,-1],"loss_changes":[2.4259346E0,9.3176347E-1,0E0,0E0,5.557798E-1,7.0028186E-1,2.716237E0,5.750042E-1,0E0,5.487826E-1,1.0617518E0,1.429173E0,2.9895794E-1,2.4078104E0,4.5252627E-1,0E0,0E0,1.6753978E0,1.4657905E0,2.6823676E-1,0E0,6.022145E-2,0E0,4.0926284E-1,2.0861053E-1,2.3597296E-1,0E0,0E0,0E0,1.604751E-1,0E0,0E0,0E0,7.353171E-3,3.6613178E-1,0E0,0E0,0E0,0E0,0E0,0E0,0E0,0E0,0E0,0E0],"parents":[2147483647,0,0,1,1,4,4,5,5,6,6,7,7,9,9,10,10,11,11,12,12,13,13,14,14,17,17,18,18,19,19,21,21,23,23,24,24,25,25,29,29,33,33,34,34],"right_children":[2,4,-1,-1,6,8,10,12,-1,14,16,18,20,22,24,-1,-1,26,28,30,-1,32,-1,34,36,38,-1,-1,-1,40,-1,-1,-1,42,44,-1,-1,-1,-1,-1,-1,-1,-1,-1,-1],"split_conditions":[1.532E0,-1.33E0,2.1196575E-1,-1.2171723E-1,1.885E2,1.909E1,2.811E1,2.49417E1,-9.636333E-2,-1.168E0,7.213E2,1.8818E7,2.523E1,-1.388E0,5.35E-1,2.749846E-1,2.479292E-2,2.44841E1,2.26939E1,4.34192E1,2.9973866E-2,1.18E6,-2.1623552E-1,1.23086E1,1.515E1,1.842E1,1.826681E-1,2.2884851E-2,-1.7792428E-1,5.746E6,-7.7333316E-2,4.524393E-2,-0E0,1.495E1,-4.96E-1,-5.088637E-2,-0E0,-0E0,6.2042475E-2,-2.7252477E-2,-0E0,-8.4403325E-3,-0E0,-0E0,7.27803E-2],"split_indices":[18,19,0,0,15,14,13,1,0,18,11,6,9,18,18,0,0,1,1,1,0,6,0,1,14,14,0,0,0,6,0,0,0,14,18,0,0,0,0,0,0,0,0,0,0],"split_type":[0,0,0,0,0,0,0,0,0,0,0,0,0,0,0,0,0,0,0,0,0,0,0,0,0,0,0,0,0,0,0,0,0,0,0,0,0,0,0,0,0,0,0,0,0],"sum_hessian":[2.13E2,2.08E2,5E0,5E0,2.03E2,1.14E2,8.9E1,1.07E2,7E0,7.9E1,1E1,3.9E1,6.8E1,1.5E1,6.4E1,5E0,5E0,2.9E1,1E1,6.1E1,7E0,1E1,5E0,4.8E1,1.6E1,2.1E1,8E0,5E0,5E0,5.2E1,9E0,5E0,5E0,1.4E1,3.4E1,9E0,7E0,1.5E1,6E0,2.9E1,2.3E1,9E0,5E0,1.1E1,2.3E1],"tree_param":{"num_deleted":"0","num_feature":"23","num_nodes":"45","size_leaf_vector":"1"}},{"base_weights":[3.555014E-4,-2.0552699E-2,2.8189674E-1,-2.7822137E-1,-6.605302E-5,-1.7207931E-1,-0E0,2.4912603E-2,-1.6336843E-1,-0E0,1.3416065E-1,-3.7390742E-1,-0E0,2.1905147E-2,-7.1088895E-2,2.5866222E-1,-0E0,-1.60836E-1,-1.8290605E-2,-1.1650495E-2,3.1608693E-2,-0E0,6.1311077E-2,-1.0912937E-1,-0E0,-0E0,9.878149E-2,9.43692E-2,-1.9253386E-2,-7.2959214E-2,3.1352524E-2,-3.9602164E-2,-0E0,-0E0,4.7089603E-2,-0E0,-3.6913585E-2,-1.335911E-2,2.1304999E-2],"categories":[],"categories_nodes":[],"categories_segments":[],"categories_sizes":[],"default_left":[0,0,0,0,0,0,0,0,0,0,0,0,0,0,0,0,0,0,0,0,0,0,0,0,0,0,0,0,0,0,0,0,0,0,0,0,0,0,0],"id":28,"left_children":[1,3,-1,5,7,-1,-1,9,11,13,15,17,19,21,23,25,27,-1,-1,-1,-1,29,-1,31,-1,-1,-1,33,-1,35,37,-1,-1,-1,-1,-1,-1,-1,-1],"loss_changes":[4.6413636E0,8.4642804E-1,0E0,1.1088824E0,8.442364E-1,0E0,0E0,5.152249E-1,1.0706807E0,2.2322062E-1,4.5874214E-1,2.8193593E-1,8.277754E-2,3.467336E-1,1.0392034E-1,1.6009939E-1,1.2310707E-1,0E0,0E0,0E0,0E0,1.7553845E-1,0E0,5.5786937E-2,0E0,0E0,0E0,3.810986E-2,0E0,9.629204E-2,1.8687053E-1,0E0,0E0,0E0,0E0,0E0,0E0,0E0,0E0],"parents":[2147483647,0,0,1,1,3,3,4,4,7,7,8,8,9,9,10,10,11,11,12,12,13,13,14,14,15,15,16,16,21,21,23,23,27,27,29,29,30,30],"right_children":[2,4,-1,6,8,-1,-1,10,12,14,16,18,20,22,24,26,28,-1,-1,-1,-1,30,-1,32,-1,-1,-1,34,-1,36,38,-1,-1,-1,-1,-1,-1,-1,-1],"split_conditions":[5.027E1,1E0,2.8189674E-1,2.639E1,3.08029E1,-1.7207931E-1,-0E0,2.768E1,-2.57E-1,8.5E-2,-4.06E0,4.32055E1,3.99E0,9.185E2,4.03E0,1.259E1,7.67E-1,-1.60836E-1,-1.8290605E-2,-1.1650495E-2,3.1608693E-2,-2.03E0,6.1311077E-2,4.698E2,-0E0,-0E0,9.878149E-2,6.14E1,-1.9253386E-2,2.18349E1,-9.63E-1,-3.9602164E-2,-0E0,-0E0,4.7089603E-2,-0E0,-3.6913585E-2,-1.335911E-2,2.1304999E-2],"split_indices":[5,20,0,13,3,0,0,13,16,16,8,3,12,11,12,10,18,0,0,0,0,5,0,15,0,0,0,11,0,4,16,0,0,0,0,0,0,0,0],"split_type":[0,0,0,0,0,0,0,0,0,0,0,0,0,0,0,0,0,0,0,0,0,0,0,0,0,0,0,0,0,0,0,0,0,0,0,0,0,0,0],"sum_hessian":[2.01E2,1.96E2,5E0,1.2E1,1.84E2,6E0,6E0,1.56E2,2.8E1,1.22E2,3.4E1,1.3E1,1.5E1,8.6E1,3.6E1,1.6E1,1.8E1,7E0,6E0,9E0,6E0,7.7E1,9E0,2.4E1,1.2E1,5E0,1.1E1,1E1,8E0,2.3E1,5.4E1,1.9E1,5E0,5E0,5E0,9E0,1.4E1,1.3E1,4.1E1],"tree_param":{"num_deleted":"0","num_feature":"23","num_nodes":"39","size_leaf_vector":"1"}},{"base_weights":[-3.6122136E-2,-1.6030115E-1,-1.5711682E-2,-2.5558725E-1,-9.646723E-5,-0E0,-1.7326187E-1,-3.5480827E-2,6.770246E-2,-1.6198892E-2,-1.1963537E-1,6.5194396E-4,1.4415213E-1,-0E0,-1.0887066E-1,9.8933846E-2,-1.4478312E-1,9.474902E-2,-2.501737E-2,2.119089E-1,-4.0248398E-2,-2.3533213E-1,-0E0,1.7871483E-1,-0E0,-8.094823E-2,-0E0,-0E0,3.7351692E-1,-0E0,-6.327438E-2,-0E0,-1.4717224E-1,2.662054E-3,1.0298784E-1,6.5484424E-3,-2.7796369E-2,-0E0,2.604354E-2,9.943557E-3,1.6062884E-1],"categories":[],"categories_nodes":[],"categories_segments":[],"categories_sizes":[],"default_left":[0,0,0,0,0,0,0,0,0,0,0,0,0,0,0,0,0,0,0,0,0,0,0,0,0,0,0,0,0,0,0,0,0,0,0,0,0,0,0,0,0],"id":29,"left_children":[1,-1,3,5,7,-1,-1,9,11,13,-1,15,-1,17,-1,19,21,23,25,27,29,31,-1,33,-1,-1,35,37,39,-1,-1,-1,-1,-1,-1,-1,-1,-1,-1,-1,-1],"loss_changes":[1.8350801E0,0E0,6.024339E-1,1.0685613E0,4.5083344E-1,0E0,0E0,6.842125E-1,1.388852E0,6.45567E-1,0E0,7.409683E-1,0E0,2.793374E-1,0E0,6.665604E-1,3.2182455E-1,2.9566664E-1,5.3739333E-1,5.471569E-1,2.0860508E-1,7.7060896E-1,0E0,2.1968067E-1,0E0,0E0,2.2191864E-1,4.6684124E-2,2.46292E-1,0E0,0E0,0E0,0E0,0E0,0E0,0E0,0E0,0E0,0E0,0E0,0E0],"parents":[2147483647,0,0,2,2,3,3,4,4,7,7,8,8,9,9,11,11,13,13,15,15,16,16,17,17,18,18,19,19,20,20,21,21,23,23,26,26,27,27,28,28],"right_children":[2,-1,4,6,8,-1,-1,10,12,14,-1,16,-1,18,-1,20,22,24,26,28,30,32,-1,34,-1,-1,36,38,40,-1,-1,-1,-1,-1,-1,-1,-1,-1,-1,-1,-1],"split_conditions":[-3.06E1,-1.6030115E-1,-1.324E0,2.328E1,2.806E1,-0E0,-1.7326187E-1,1.782E1,1.031E1,3.118E1,-1.1963537E-1,2.64E-1,1.4415213E-1,7.3E5,-1.0887066E-1,3.80436E1,6.92E0,2.662E1,-1.215E0,1.94383E1,3.27E0,-8.1E-1,-0E0,-7.2E-1,-0E0,-8.094823E-2,7.011E6,1.018E6,2.891E2,-0E0,-6.327438E-2,-0E0,-1.4717224E-1,2.662054E-3,1.0298784E-1,6.5484424E-3,-2.7796369E-2,-0E0,2.604354E-2,9.943557E-3,1.6062884E-1],"split_indices":[8,0,17,9,13,0,0,14,5,5,0,18,0,6,0,1,8,13,18,1,8,8,0,16,0,0,6,7,11,0,0,0,0,0,0,0,0,0,0,0,0],"split_type":[0,0,0,0,0,0,0,0,0,0,0,0,0,0,0,0,0,0,0,0,0,0,0,0,0,0,0,0,0,0,0,0,0,0,0,0,0,0,0,0,0],"sum_hessian":[2.14E2,7E0,2.07E2,1E1,1.97E2,5E0,5E0,1.36E2,6.1E1,1.31E2,5E0,5.4E1,7E0,1.26E2,5E0,3.5E1,1.9E1,2.4E1,1.02E2,2.2E1,1.3E1,1.3E1,6E0,1.6E1,8E0,8E0,9.4E1,1.1E1,1.1E1,8E0,5E0,7E0,6E0,1E1,6E0,7.3E1,2.1E1,5E0,6E0,5E0,6E0],"tree_param":{"num_deleted":"0","num_feature":"23","num_nodes":"41","size_leaf_vector":"1"}},{"base_weights":[-9.106135E-3,5.0266697E-3,-1.1620249E-1,-1.0798407E-2,2.2073653E-1,-6.566527E-2,2.395449E-2,-1.0238866E-1,-2.6128918E-2,5.0391614E-2,-8.907169E-2,-0E0,-1.5755872E-1,-0E0,1.9884537E-1,-7.9836E-2,1.3998325E-2,1.357383E-1,-1.9269291E-2,-2.1121043E-1,-0E0,6.289202E-2,-5.227227E-2,-0E0,3.939823E-1,-0E0,7.572982E-2,-0E0,-9.6151516E-2,-8.693935E-2,-0E0,-0E0,1.13008015E-1,-9.987135E-2,1.2257207E-2,6.364474E-3,-0E0,1.8915014E-1,3.559028E-3,6.4767306E-3,-1.2108069E-2,-0E0,-4.826773E-2,-2.7196182E-2,1.3596504E-2,9.554331E-2,1.5417058E-3,-0E0,-6.329034E-2],"categories":[],"categories_nodes":[],"categories_segments":[],"categories_sizes":[],"default_left":[0,0,0,0,0,0,0,0,0,0,0,0,0,0,0,0,0,0,0,0,0,0,0,0,0,0,0,0,0,0,0,0,0,0,0,0,0,0,0,0,0,0,0,0,0,0,0,0,0],"id":30,"left_children":[1,3,-1,5,-1,7,9,-1,11,13,15,17,19,21,23,-1,-1,25,27,29,-1,31,33,35,37,-1,-1,39,41,-1,-1,43,45,47,-1,-1,-1,-1,-1,-1,-1,-1,-1,-1,-1,-1,-1,-1,-1],"loss_changes":[1.3816506E0,2.8125231E0,0E0,3.9433047E-1,0E0,6.588341E-1,3.025589E-1,0E0,3.4677967E-1,5.917944E-1,5.466485E-1,2.2020686E-1,9.3598366E-2,2.4596816E-1,7.2239447E-1,0E0,0E0,1.2623759E-1,7.503836E-2,2.9335499E-2,0E0,1.5623237E-1,1.9574082E-1,2.3236773E-3,5.0024116E-1,0E0,0E0,3.219747E-2,4.1157313E-2,0E0,0E0,7.422952E-2,3.2223943E-1,3.637212E-1,0E0,0E0,0E0,0E0,0E0,0E0,0E0,0E0,0E0,0E0,0E0,0E0,0E0,0E0,0E0],"parents":[2147483647,0,0,1,1,3,3,5,5,6,6,8,8,9,9,10,10,11,11,12,12,13,13,14,14,17,17,18,18,19,19,21,21,22,22,23,23,24,24,27,27,28,28,31,31,32,32,33,33],"right_children":[2,4,-1,6,-1,8,10,-1,12,14,16,18,20,22,24,-1,-1,26,28,30,-1,32,34,36,38,-1,-1,40,42,-1,-1,44,46,48,-1,-1,-1,-1,-1,-1,-1,-1,-1,-1,-1,-1,-1,-1,-1],"split_conditions":[1.925E1,1.915E1,-1.1620249E-1,1.515E1,2.2073653E-1,2E0,4.88766E1,-1.0238866E-1,2.244E1,-1.5E-2,5.68041E1,5.75E5,5.12E-1,2.53846E1,2.31438E1,-7.9836E-2,1.3998325E-2,1.1E1,5.51E0,5.79E0,-0E0,-4.98E0,3.74673E1,-3.24E0,7.26E-1,-0E0,7.572982E-2,1.39E1,2.03589E1,-8.693935E-2,-0E0,1.99784E1,1.241E2,4E0,1.2257207E-2,6.364474E-3,-0E0,1.8915014E-1,3.559028E-3,6.4767306E-3,-1.2108069E-2,-0E0,-4.826773E-2,-2.7196182E-2,1.3596504E-2,9.554331E-2,1.5417058E-3,-0E0,-6.329034E-2],"split_indices":[14,14,0,14,0,20,0,0,9,19,0,7,19,1,4,0,0,20,8,8,0,8,0,8,19,0,0,14,1,0,0,0,15,22,0,0,0,0,0,0,0,0,0,0,0,0,0,0,0],"split_type":[0,0,0,0,0,0,0,0,0,0,0,0,0,0,0,0,0,0,0,0,0,0,0,0,0,0,0,0,0,0,0,0,0,0,0,0,0,0,0,0,0,0,0,0,0,0,0,0,0],"sum_hessian":[2.06E2,1.97E2,9E0,1.92E2,5E0,8.2E1,1.1E2,8E0,7.4E1,9.4E1,1.6E1,5.8E1,1.6E1,7.3E1,2.1E1,9E0,7E0,1.1E1,4.7E1,1.1E1,5E0,3.8E1,3.5E1,1.1E1,1E1,6E0,5E0,3.7E1,1E1,6E0,5E0,1.4E1,2.4E1,2.8E1,7E0,5E0,6E0,5E0,5E0,2.5E1,1.2E1,5E0,5E0,7E0,7E0,6E0,1.8E1,1.4E1,1.4E1],"tree_param":{"num_deleted":"0","num_feature":"23","num_nodes":"49","size_leaf_vector":"1"}},{"base_weights":[-0E0,-4.0315428E-1,4.1759964E-2,4.0046133E-2,-6.4384276E-1,2.0322854E-2,2.0647398E-1,-2.6481447E-1,-1.5758472E-2,2.9863073E-2,-5.5435818E-2,-3.5686095E-3,5.041548E-2,3.291541E-2,-8.531463E-2,6.6961385E-2,-0E0,5.468797E-2,-0E0,-0E0,-3.262476E-2,8.313599E-2,-3.0057723E-2,-3.9628383E-2,2.4494013E-2,-9.872678E-3,3.5590448E-3,1.4592041E-1,1.4351036E-2,-0E0,-6.1832882E-2,-2.9420564E-2,-0E0,-0E0,5.1888295E-2,-2.7207518E-2,2.0688066E-2,-0E0,-2.6886946E-2],"categories":[],"categories_nodes":[],"categories_segments":[],"categories_sizes":[],"default_left":[0,0,0,0,0,0,0,0,0,0,0,0,0,0,0,0,0,0,0,0,0,0,0,0,0,0,0,0,0,0,0,0,0,0,0,0,0,0,0],"id":31,"left_children":[1,3,5,-1,7,9,-1,-1,-1,11,-1,13,15,17,19,21,23,-1,25,-1,-1,27,-1,29,-1,31,-1,33,35,-1,37,-1,-1,-1,-1,-1,-1,-1,-1],"loss_changes":[3.4201882E0,2.8084276E0,2.1906404E0,0E0,1.4473147E0,2.6040986E-1,0E0,0E0,0E0,1.5536915E-1,0E0,2.0248361E-1,1.2873396E-1,1.700932E-1,5.2233174E-2,2.5762933E-1,6.583181E-2,0E0,3.1577845E-3,0E0,0E0,2.9755282E-1,0E0,2.595121E-2,0E0,4.8093896E-2,0E0,1.433748E-1,2.8160065E-1,0E0,8.964129E-3,0E0,0E0,0E0,0E0,0E0,0E0,0E0,0E0],"parents":[2147483647,0,0,1,1,2,2,4,4,5,5,9,9,11,11,12,12,13,13,14,14,15,15,16,16,18,18,21,21,23,23,25,25,27,27,28,28,30,30],"right_children":[2,4,6,-1,8,10,-1,-1,-1,12,-1,14,16,18,20,22,24,-1,26,-1,-1,28,-1,30,-1,32,-1,34,36,-1,38,-1,-1,-1,-1,-1,-1,-1,-1],"split_conditions":[2E0,2.472E1,5.027E1,4.0046133E-2,1.813E6,5.208E1,2.0647398E-1,-2.6481447E-1,-1.5758472E-2,1.495E1,-5.5435818E-2,3.75E0,6.7E0,5E0,4E0,5.65344E1,-1.97E-1,5.468797E-2,2.53464E1,-0E0,-3.262476E-2,2.41E0,-3.0057723E-2,1.97298E1,2.4494013E-2,1.279E1,3.5590448E-3,2.79E2,-7.24E0,-0E0,-5.96E0,-2.9420564E-2,-0E0,-0E0,5.1888295E-2,-2.7207518E-2,2.0688066E-2,-0E0,-2.6886946E-2],"split_indices":[20,13,5,0,6,8,0,0,0,14,0,12,5,20,20,2,19,0,3,0,0,8,0,2,0,14,0,11,5,0,8,0,0,0,0,0,0,0,0],"split_type":[0,0,0,0,0,0,0,0,0,0,0,0,0,0,0,0,0,0,0,0,0,0,0,0,0,0,0,0,0,0,0,0,0,0,0,0,0,0,0],"sum_hessian":[2.09E2,1.9E1,1.9E2,5E0,1.4E1,1.85E2,5E0,9E0,5E0,1.8E2,5E0,5.6E1,1.24E2,3.3E1,2.3E1,9.9E1,2.5E1,6E0,2.7E1,5E0,1.8E1,9.4E1,5E0,2E1,5E0,1.6E1,1.1E1,4.4E1,5E1,5E0,1.5E1,5E0,1.1E1,9E0,3.5E1,1.3E1,3.7E1,7E0,8E0],"tree_param":{"num_deleted":"0","num_feature":"23","num_nodes":"39","size_leaf_vector":"1"}},{"base_weights":[2.7964276E-3,9.1174304E-2,-9.446316E-2,-1.4751227E-1,1.3598634E-1,-1.5887584E-1,-3.887369E-2,-0E0,-1.533026E-1,7.406752E-2,5.94425E-1,-1.362431E-2,-8.928468E-2,1.2949164E-1,3.2675043E-2,-0E0,3.1826735E-1,7.5464964E-2,-3.6341995E-2,9.033903E-2,-0E0,-0E0,5.6826588E-2,-0E0,-1.3504429E-1,-0E0,1.4897065E-1,1.2684255E-2,-3.8749557E-2,-3.125291E-2,1.1590155E-2,-9.331324E-2,-3.2407672E-3,-2.5942987E-3,-0E0,-0E0,5.2841287E-2,-0E0,5.6040335E-2,-0E0,-7.3494196E-2,-5.789678E-2,-0E0,-0E0,2.761199E-2,-1.2631522E-2,-0E0,-3.0408762E-3,-0E0,-0E0,2.3347698E-2,-3.6288116E-2,-0E0,-0E0,-2.5368344E-2,-0E0,-4.359433E-3],"categories":[],"categories_nodes":[],"categories_segments":[],"categories_sizes":[],"default_left":[0,0,0,0,0,0,0,0,0,0,0,0,0,0,0,0,0,0,0,0,0,0,0,0,0,0,0,0,0,0,0,0,0,0,0,0,0,0,0,0,0,0,0,0,0,0,0,0,0,0,0,0,0,0,0,0,0],"id":32,"left_children":[1,3,5,7,9,-1,11,-1,-1,13,15,17,-1,-1,19,-1,-1,21,23,25,27,-1,-1,29,31,33,35,37,39,41,43,-1,45,-1,-1,-1,-1,47,49,-1,51,53,-1,55,-1,-1,-1,-1,-1,-1,-1,-1,-1,-1,-1,-1,-1],"loss_changes":[1.7427562E0,1.1689011E0,1.9024211E0,1.0216936E0,2.2444334E0,0E0,3.4502432E-1,0E0,0E0,9.632876E-1,2.27584E0,1.3344629E-1,0E0,0E0,1.7790994E-1,0E0,0E0,1.2827383E-1,2.1897075E-1,2.0494184E-1,3.1539664E-2,0E0,0E0,2.2995917E-2,1.8952072E-1,4.6324328E-4,4.6123326E-2,3.9475292E-2,3.7806213E-2,2.838071E-2,4.8042934E-2,0E0,1.2684903E-2,0E0,0E0,0E0,0E0,6.3645345E-4,1.2284774E-2,0E0,4.089015E-2,1.2106031E-2,0E0,2.615182E-3,0E0,0E0,0E0,0E0,0E0,0E0,0E0,0E0,0E0,0E0,0E0,0E0,0E0],"parents":[2147483647,0,0,1,1,2,2,3,3,4,4,6,6,9,9,10,10,11,11,14,14,17,17,18,18,19,19,20,20,23,23,24,24,25,25,26,26,27,27,28,28,29,29,30,30,32,32,37,37,38,38,40,40,41,41,43,43],"right_children":[2,4,6,8,10,-1,12,-1,-1,14,16,18,-1,-1,20,-1,-1,22,24,26,28,-1,-1,30,32,34,36,38,40,42,44,-1,46,-1,-1,-1,-1,48,50,-1,52,54,-1,56,-1,-1,-1,-1,-1,-1,-1,-1,-1,-1,-1,-1,-1],"split_conditions":[1.745E6,1.241E2,2E0,7.46E1,2.386E1,-1.5887584E-1,2.274E1,-0E0,-1.533026E-1,2E0,1.4E1,-9.77E-1,-8.928468E-2,1.2949164E-1,-4.33E-1,-0E0,3.1826735E-1,3.614E6,2.916E1,1.88322E1,4.62E0,-0E0,5.6826588E-2,9E0,2.439E1,8E0,3.52E5,5.137E2,3.514E2,7.7161E7,4.51E0,-9.331324E-2,2.1562E7,-2.5942987E-3,-0E0,-0E0,5.2841287E-2,2.15803E1,2.65E1,-0E0,1.0414E3,5.99E6,-0E0,1.7E1,2.761199E-2,-1.2631522E-2,-0E0,-3.0408762E-3,-0E0,-0E0,2.3347698E-2,-3.6288116E-2,-0E0,-0E0,-2.5368344E-2,-0E0,-4.359433E-3],"split_indices":[6,11,20,11,9,0,8,0,0,20,20,17,0,0,18,0,0,6,13,4,8,0,0,20,9,20,6,11,11,6,5,0,6,0,0,0,0,4,13,0,11,6,0,20,0,0,0,0,0,0,0,0,0,0,0,0,0],"split_type":[0,0,0,0,0,0,0,0,0,0,0,0,0,0,0,0,0,0,0,0,0,0,0,0,0,0,0,0,0,0,0,0,0,0,0,0,0,0,0,0,0,0,0,0,0,0,0,0,0,0,0,0,0,0,0,0,0],"sum_hessian":[2.03E2,1.1E2,9.3E1,1.5E1,9.5E1,9E0,8.4E1,1E1,5E0,8.5E1,1E1,7.9E1,5E0,7E0,7.8E1,5E0,5E0,1E1,6.9E1,3.2E1,4.6E1,5E0,5E0,5.2E1,1.7E1,1.1E1,2.1E1,2.8E1,1.8E1,1.9E1,3.3E1,5E0,1.2E1,6E0,5E0,5E0,1.6E1,1.4E1,1.4E1,6E0,1.2E1,1.4E1,5E0,2.7E1,6E0,7E0,5E0,6E0,8E0,5E0,9E0,7E0,5E0,6E0,8E0,1.5E1,1.2E1],"tree_param":{"num_deleted":"0","num_feature":"23","num_nodes":"57","size_leaf_vector":"1"}},{"base_weights":[1.9535765E-2,2.8736624E-1,-2.5158504E-3,3.365617E-2,2.0135811E-1,1.2814565E-2,-2.8363124E-1,3.3144057E-2,-0E0,8.08211E-2,-0E0,-1.7235722E-1,3.6648213E-4,-3.5039529E-3,1.4247598E-1,-1.2199645E-1,1.0462893E-2,1.12765945E-1,-0E0,6.317353E-2,-2.384895E-2,-0E0,3.2587726E-2,-0E0,2.6474878E-1,-4.422212E-2,-5.941299E-4,-0E0,1.8283242E-2,-2.830565E-2,2.6914597E-2,1.580963E-1,2.821618E-2,-1.6972752E-2,1.9841237E-2,-0E0,-3.7978142E-2,-0E0,-1.2113704E-2],"categories":[],"categories_nodes":[],"categories_segments":[],"categories_sizes":[],"default_left":[0,0,0,0,0,0,0,0,0,0,0,0,0,0,0,0,0,0,0,0,0,0,0,0,0,0,0,0,0,0,0,0,0,0,0,0,0,0,0],"id":33,"left_children":[1,3,5,7,-1,9,11,-1,-1,13,15,-1,-1,-1,17,-1,19,-1,21,23,25,-1,27,29,31,-1,33,-1,-1,35,-1,-1,-1,37,-1,-1,-1,-1,-1],"loss_changes":[1.4093565E0,1.3174734E0,9.934222E-1,4.9419858E-2,0E0,2.0627995E-1,1.4195259E0,0E0,0E0,2.9409862E-1,8.685576E-1,0E0,0E0,0E0,6.388971E-1,0E0,2.707744E-1,0E0,1.2748136E-2,9.484054E-1,1.1495028E-1,0E0,1.409155E-2,7.280598E-2,3.5150802E-1,0E0,4.0421557E-2,0E0,0E0,1.0109101E-1,0E0,0E0,0E0,4.6066053E-2,0E0,0E0,0E0,0E0,0E0],"parents":[2147483647,0,0,1,1,2,2,3,3,5,5,6,6,9,9,10,10,14,14,16,16,18,18,19,19,20,20,22,22,23,23,24,24,26,26,29,29,33,33],"right_children":[2,4,6,8,-1,10,12,-1,-1,14,16,-1,-1,-1,18,-1,20,-1,22,24,26,-1,28,30,32,-1,34,-1,-1,36,-1,-1,-1,38,-1,-1,-1,-1,-1],"split_conditions":[-9.53E-1,2.347E1,1.796E1,-1.203E0,2.0135811E-1,2.545E1,5E0,3.3144057E-2,-0E0,-2.06E0,1E0,-1.7235722E-1,3.6648213E-4,-3.5039529E-3,1.63E0,-1.2199645E-1,2.52525E1,1.12765945E-1,1.073E1,2.32361E1,2.55824E1,-0E0,2.12104E1,2.26939E1,2.42612E1,-4.422212E-2,2E1,-0E0,1.8283242E-2,2.00756E1,2.6914597E-2,1.580963E-1,2.821618E-2,1.171E1,1.9841237E-2,-0E0,-3.7978142E-2,-0E0,-1.2113704E-2],"split_indices":[19,9,10,19,0,13,21,0,0,8,21,0,0,0,8,0,1,0,10,3,3,0,0,0,0,0,21,0,0,2,0,0,0,10,0,0,0,0,0],"split_type":[0,0,0,0,0,0,0,0,0,0,0,0,0,0,0,0,0,0,0,0,0,0,0,0,0,0,0,0,0,0,0,0,0,0,0,0,0,0,0],"sum_hessian":[2.06E2,1.8E1,1.88E2,1.2E1,6E0,1.76E2,1.2E1,5E0,7E0,3.6E1,1.4E2,7E0,5E0,1E1,2.6E1,5E0,1.35E2,8E0,1.8E1,6.1E1,7.4E1,6E0,1.2E1,4.4E1,1.7E1,7E0,6.7E1,5E0,7E0,3.9E1,5E0,5E0,1.2E1,6.2E1,5E0,3.1E1,8E0,2.4E1,3.8E1],"tree_param":{"num_deleted":"0","num_feature":"23","num_nodes":"39","size_leaf_vector":"1"}},{"base_weights":[-0E0,-6.933931E-2,5.1037196E-2,-1.6771016E-1,-2.8156275E-2,1.00021526E-1,-9.988354E-2,5.797391E-3,-1.20758496E-1,5.6843333E-2,2.2405791E-1,-1.2589587E-1,-0E0,-1.2711164E-2,1.1189872E-1,-4.6095986E-2,-0E0,2.2283721E-1,-0E0,-4.3883838E-2,1.596783E-2,-4.523211E-2,-0E0,5.9239563E-2,-0E0,1.9809005E-1,6.0736347E-2,3.0550972E-2,-8.734084E-2,-0E0,-3.1504504E-2,-0E0,-6.841193E-2,-0E0,7.350376E-3,4.058356E-2,-0E0,-0E0,1.2463631E-1,-5.983699E-2,-0E0,-0E0,-2.619759E-2,-0E0,-1.9644912E-2,-0E0,5.9898276E-2,1.2564924E-2,-2.1609005E-3],"categories":[],"categories_nodes":[],"categories_segments":[],"categories_sizes":[],"default_left":[0,0,0,0,0,0,0,0,0,0,0,0,0,0,0,0,0,0,0,0,0,0,0,0,0,0,0,0,0,0,0,0,0,0,0,0,0,0,0,0,0,0,0,0,0,0,0,0,0],"id":34,"left_children":[1,3,5,-1,7,9,11,13,15,17,-1,-1,19,21,23,-1,-1,25,27,29,-1,31,33,-1,-1,-1,35,37,39,-1,-1,-1,41,-1,-1,-1,-1,43,45,-1,-1,-1,-1,47,-1,-1,-1,-1,-1],"loss_changes":[7.1727794E-1,1.2802775E0,9.1686994E-1,0E0,3.1987843E-1,2.2066803E0,8.2150304E-1,1.672579E-1,5.932629E-2,8.4503245E-1,0E0,0E0,4.843855E-2,4.2971045E-2,1.1893831E-1,0E0,0E0,1.1751062E0,1.782552E-1,5.464863E-2,0E0,2.1111686E-2,4.3380056E-3,0E0,0E0,0E0,8.4706314E-2,2.156102E-1,1.9880894E-1,0E0,0E0,0E0,8.484021E-3,0E0,0E0,0E0,0E0,2.2138642E-2,1.4730445E-1,0E0,0E0,0E0,0E0,2.6201295E-2,0E0,0E0,0E0,0E0,0E0],"parents":[2147483647,0,0,1,1,2,2,4,4,5,5,6,6,7,7,8,8,9,9,12,12,13,13,14,14,17,17,18,18,19,19,21,21,22,22,26,26,27,27,28,28,32,32,37,37,38,38,43,43],"right_children":[2,4,6,-1,8,10,12,14,16,18,-1,-1,20,22,24,-1,-1,26,28,30,-1,32,34,-1,-1,-1,36,38,40,-1,-1,-1,42,-1,-1,-1,-1,44,46,-1,-1,-1,-1,48,-1,-1,-1,-1,-1],"split_conditions":[1.515E1,1E0,2.571E1,-1.6771016E-1,8.5E-2,1.85E1,3E0,9.185E2,2.58035E1,-1.98E-1,2.2405791E-1,-1.2589587E-1,5.39E0,1.17E0,-2.76E0,-4.6095986E-2,-0E0,2E0,7.47E0,-8.41E0,1.596783E-2,2.046E1,-2.43E0,5.9239563E-2,-0E0,1.9809005E-1,3.13838E1,1.29E0,9.1E-2,-0E0,-3.1504504E-2,-0E0,1.283E1,-0E0,7.350376E-3,4.058356E-2,-0E0,1E-2,9E0,-5.983699E-2,-0E0,-0E0,-2.619759E-2,2.57612E1,-1.9644912E-2,-0E0,5.9898276E-2,1.2564924E-2,-2.1609005E-3],"split_indices":[14,21,9,0,16,14,21,11,0,16,0,0,8,5,5,0,0,21,5,8,0,9,8,0,0,0,1,5,16,0,0,0,14,0,0,0,0,5,21,0,0,0,0,4,0,0,0,0,0],"split_type":[0,0,0,0,0,0,0,0,0,0,0,0,0,0,0,0,0,0,0,0,0,0,0,0,0,0,0,0,0,0,0,0,0,0,0,0,0,0,0,0,0,0,0,0,0,0,0,0,0],"sum_hessian":[2.06E2,8.2E1,1.24E2,5E0,7.7E1,9.7E1,2.7E1,5.1E1,2.6E1,9.2E1,5E0,6E0,2.1E1,3.8E1,1.3E1,1.8E1,8E0,2.3E1,6.9E1,1.3E1,8E0,2.4E1,1.4E1,7E0,6E0,5E0,1.8E1,5.2E1,1.7E1,6E0,7E0,9E0,1.5E1,7E0,7E0,8E0,1E1,3.5E1,1.7E1,8E0,9E0,5E0,1E1,3E1,5E0,7E0,1E1,1.4E1,1.6E1],"tree_param":{"num_deleted":"0","num_feature":"23","num_nodes":"49","size_leaf_vector":"1"}},{"base_weights":[-9.6738705E-4,-3.731237E-1,1.6839208E-2,7.123062E-2,-3.677216E-1,2.479593E-3,1.0308331E-1,1.4298265E-2,-8.560498E-2,5.1586438E-2,-6.2506683E-3,8.0009475E-2,-6.834845E-2,-8.6678214E-2,1.4215058E-2,-0E0,1.034105E-1,-5.234318E-2,-0E0,-0E0,-3.2882616E-2,-2.0313917E-2,4.2612385E-2,-0E0,1.20614156E-1,-2.691105E-2,-0E0,7.925491E-2,-0E0,2.6146024E-3,5.2064758E-2,2.369912E-2,-0E0,3.2627758E-2,-0E0,-0E0,-1.6649976E-2],"categories":[],"categories_nodes":[],"categories_segments":[],"categories_sizes":[],"default_left":[0,0,0,0,0,0,0,0,0,0,0,0,0,0,0,0,0,0,0,0,0,0,0,0,0,0,0,0,0,0,0,0,0,0,0,0,0],"id":35,"left_children":[1,3,5,-1,-1,7,-1,9,-1,11,13,15,17,19,21,-1,23,-1,-1,-1,-1,25,27,-1,29,-1,31,33,35,-1,-1,-1,-1,-1,-1,-1,-1],"loss_changes":[1.5862942E0,6.5740986E0,6.780838E-1,0E0,0E0,4.562476E-1,0E0,1.6935778E-1,0E0,2.670036E-1,2.2185731E-1,1.442863E-1,1.1043507E-1,7.4732155E-2,9.059153E-2,0E0,1.315422E-1,0E0,0E0,0E0,0E0,8.144877E-2,1.2362813E-1,0E0,1.7340595E-1,0E0,3.8657486E-2,1.0966824E-1,2.2258626E-2,0E0,0E0,0E0,0E0,0E0,0E0,0E0,0E0],"parents":[2147483647,0,0,1,1,2,2,5,5,7,7,9,9,10,10,11,11,12,12,13,13,14,14,16,16,21,21,22,22,24,24,26,26,27,27,28,28],"right_children":[2,4,6,-1,-1,8,-1,10,-1,12,14,16,18,20,22,-1,24,-1,-1,-1,-1,26,28,-1,30,-1,32,34,36,-1,-1,-1,-1,-1,-1,-1,-1],"split_conditions":[1E0,1.172E1,1.386E0,7.123062E-2,-3.677216E-1,5.027E1,1.0308331E-1,-2.28E-1,-8.560498E-2,4.0793E1,-3.02E0,1.27594E1,1.7E-2,-9.57E-1,1.018E6,-0E0,5.33E1,-5.234318E-2,-0E0,-0E0,-3.2882616E-2,3.84E0,4.53E0,-0E0,2.566E1,-2.691105E-2,1.796E2,8.4796E7,6.033E6,2.6146024E-3,5.2064758E-2,2.369912E-2,-0E0,3.2627758E-2,-0E0,-0E0,-1.6649976E-2],"split_indices":[21,10,18,0,0,5,0,18,0,4,5,3,17,17,7,0,11,0,0,0,0,12,5,0,13,0,15,6,6,0,0,0,0,0,0,0,0],"split_type":[0,0,0,0,0,0,0,0,0,0,0,0,0,0,0,0,0,0,0,0,0,0,0,0,0,0,0,0,0,0,0,0,0,0,0,0,0],"sum_hessian":[2.03E2,1.1E1,1.92E2,6E0,5E0,1.86E2,6E0,1.81E2,5E0,7.6E1,1.05E2,6.6E1,1E1,2.8E1,7.7E1,1.3E1,5.3E1,5E0,5E0,5E0,2.3E1,2.4E1,5.3E1,5E0,4.8E1,1.1E1,1.3E1,3.5E1,1.8E1,2E1,2.8E1,6E0,7E0,2.7E1,8E0,1.1E1,7E0],"tree_param":{"num_deleted":"0","num_feature":"23","num_nodes":"37","size_leaf_vector":"1"}},{"base_weights":[1.069683E-2,1.0679253E-1,-1.9071229E-3,-1.5996704E-2,1.5888828E-1,-1.0274913E-1,-3.0118588E-3,1.4258729E-1,-1.5491047E-2,2.1083897E-3,-1.1200434E-1,-0E0,3.439924E-2,-1.07138656E-1,-0E0,1.1857365E-2,-2.732635E-2,2.5500875E-2,-1.6642641E-2,-0E0,-4.3083943E-2,1.0964144E-2,-1.1941667E-3,-0E0,-1.878312E-2,-0E0,2.1217633E-3,-0E0,-1.9361239E-2],"categories":[],"categories_nodes":[],"categories_segments":[],"categories_sizes":[],"default_left":[0,0,0,0,0,0,0,0,0,0,0,0,0,0,0,0,0,0,0,0,0,0,0,0,0,0,0,0,0],"id":36,"left_children":[1,-1,3,5,7,-1,9,-1,-1,11,13,15,-1,-1,-1,17,19,21,23,25,27,-1,-1,-1,-1,-1,-1,-1,-1],"loss_changes":[1.1543101E0,0E0,3.4968066E-1,5.599209E-1,1.1128259E0,0E0,1.7478923E-1,0E0,0E0,9.4271936E-2,4.827968E-1,5.8726735E-2,0E0,0E0,0E0,4.4490404E-2,4.801236E-2,5.087208E-2,2.7938796E-2,2.5825258E-4,3.6110573E-2,0E0,0E0,0E0,0E0,0E0,0E0,0E0,0E0],"parents":[2147483647,0,0,2,2,3,3,4,4,6,6,9,9,10,10,11,11,15,15,16,16,17,17,18,18,19,19,20,20],"right_children":[2,-1,4,6,8,-1,10,-1,-1,12,14,16,-1,-1,-1,18,20,22,24,26,28,-1,-1,-1,-1,-1,-1,-1,-1],"split_conditions":[1E0,1.0679253E-1,1.222E0,-3.25E1,1.587E0,-1.0274913E-1,1.363E0,1.4258729E-1,-1.5491047E-2,4.097E1,1.492E0,-1.81E-1,3.439924E-2,-1.07138656E-1,-0E0,2.862E1,-1.022E0,1.8E1,6E0,3.77E0,-4.09E0,1.0964144E-2,-1.1941667E-3,-0E0,-1.878312E-2,-0E0,2.1217633E-3,-0E0,-1.9361239E-2],"split_indices":[21,0,16,8,16,0,17,0,0,8,17,16,0,0,0,13,19,21,21,12,8,0,0,0,0,0,0,0,0],"split_type":[0,0,0,0,0,0,0,0,0,0,0,0,0,0,0,0,0,0,0,0,0,0,0,0,0,0,0,0,0],"sum_hessian":[2.06E2,9E0,1.97E2,1.85E2,1.2E1,5E0,1.8E2,6E0,6E0,1.66E2,1.4E1,1.59E2,7E0,5E0,9E0,9.9E1,6E1,8.3E1,1.6E1,1E1,5E1,7.6E1,7E0,8E0,8E0,5E0,5E0,2E1,3E1],"tree_param":{"num_deleted":"0","num_feature":"23","num_nodes":"29","size_leaf_vector":"1"}},{"base_weights":[-1.6456658E-2,-1.2456035E-1,-2.3706027E-3,8.929972E-2,-2.7862957E-2,1.1728733E-1,-0E0,-2.9836237E-1,-6.159428E-4,-2.9164871E-2,1.9382184E-2,-1.9298546E-1,-0E0,1.3130149E-3,-5.4801E-2,-0E0,-1.3165182E-2,-2.0965964E-2,2.341155E-2,-3.971999E-2,-0E0,-0E0,-8.808943E-2,7.546809E-2,-0E0,-2.727521E-2,4.0635183E-2,-0E0,-4.166741E-2,-0E0,9.7245276E-2,-2.8096763E-2,2.2228604E-2,-0E0,-1.2755648E-2,-0E0,4.4324536E-2,-0E0,3.6835868E-2,-0E0,-1.6318897E-2,-0E0,1.2300663E-2],"categories":[],"categories_nodes":[],"categories_segments":[],"categories_sizes":[],"default_left":[0,0,0,0,0,0,0,0,0,0,0,0,0,0,0,0,0,0,0,0,0,0,0,0,0,0,0,0,0,0,0,0,0,0,0,0,0,0,0,0,0,0,0],"id":37,"left_children":[1,-1,3,5,7,-1,9,11,13,15,-1,-1,-1,17,19,-1,-1,21,23,-1,-1,25,27,29,31,33,35,-1,-1,-1,37,39,41,-1,-1,-1,-1,-1,-1,-1,-1,-1,-1],"loss_changes":[8.377679E-1,0E0,4.071486E-1,9.7509515E-1,9.475699E-1,0E0,5.4940723E-2,1.0678571E0,5.1230922E-2,5.6986827E-3,0E0,0E0,0E0,6.4184725E-2,1.2986329E-1,0E0,0E0,8.756886E-2,1.3897628E-1,0E0,0E0,4.0728047E-2,7.0534155E-2,6.3635245E-2,3.2678943E-2,9.739468E-3,1.07147306E-1,0E0,0E0,0E0,6.523594E-2,4.4960365E-2,8.203728E-3,0E0,0E0,0E0,0E0,0E0,0E0,0E0,0E0,0E0,0E0],"parents":[2147483647,0,0,2,2,3,3,4,4,6,6,7,7,8,8,9,9,13,13,14,14,17,17,18,18,21,21,22,22,23,23,24,24,25,25,26,26,30,30,31,31,32,32],"right_children":[2,-1,4,6,8,-1,10,12,14,16,-1,-1,-1,18,20,-1,-1,22,24,-1,-1,26,28,30,32,34,36,-1,-1,-1,38,40,42,-1,-1,-1,-1,-1,-1,-1,-1,-1,-1],"split_conditions":[-1.427E0,-1.2456035E-1,-9.81E-1,3E0,2E0,1.1728733E-1,3.00171E1,-4.23E-1,1.021E0,7E5,1.9382184E-2,-1.9298546E-1,-0E0,2.05615E1,1.6E1,-0E0,-1.3165182E-2,2.00756E1,2.57612E1,-3.971999E-2,-0E0,1.24E6,1.50609E1,2.173E1,3.77E-1,1.233E1,1.489E1,-0E0,-4.166741E-2,-0E0,2.26939E1,3.72E0,3.00152E1,-0E0,-1.2755648E-2,-0E0,4.4324536E-2,-0E0,3.6835868E-2,-0E0,-1.6318897E-2,-0E0,1.2300663E-2],"split_indices":[19,0,16,20,20,0,0,16,16,6,0,0,0,0,20,0,0,2,4,0,0,6,1,9,16,10,14,0,0,0,0,12,2,0,0,0,0,0,0,0,0,0,0],"split_type":[0,0,0,0,0,0,0,0,0,0,0,0,0,0,0,0,0,0,0,0,0,0,0,0,0,0,0,0,0,0,0,0,0,0,0,0,0,0,0,0,0,0,0],"sum_hessian":[1.97E2,5E0,1.92E2,3.6E1,1.56E2,8E0,2.8E1,1.2E1,1.44E2,1.9E1,9E0,5E0,7E0,1.27E2,1.7E1,8E0,1.1E1,4.8E1,7.9E1,1E1,7E0,3.4E1,1.4E1,3.2E1,4.7E1,1.7E1,1.7E1,5E0,9E0,6E0,2.6E1,3.2E1,1.5E1,5E0,1.2E1,1.1E1,6E0,6E0,2E1,9E0,2.3E1,6E0,9E0],"tree_param":{"num_deleted":"0","num_feature":"23","num_nodes":"43","size_leaf_vector":"1"}},{"base_weights":[-0E0,8.162731E-2,-2.6655054E-2,1.3521811E-1,3.0445581E-2,-9.477404E-2,-1.2233246E-2,1.653408E-1,-0E0,-0E0,-5.6748696E-2,7.119775E-2,-0E0,-1.9763349E-2,1.1819914E-2,1.0125363E-2,-1.3254395E-1,-0E0,-4.396783E-2,1.7348018E-2,-0E0,1.9686382E-1,-1.5570932E-3,-1.136258E-1,2.085921E-3,-2.3133805E-2,-0E0,-0E0,1.3943332E-1,-3.9804455E-2,2.0146627E-2,9.15335E-3,-6.274621E-2,1.570815E-1,-0E0,-0E0,-2.4120841E-2,-0E0,8.147448E-2,-1.9076379E-2,6.5082795E-4],"categories":[],"categories_nodes":[],"categories_segments":[],"categories_sizes":[],"default_left":[0,0,0,0,0,0,0,0,0,0,0,0,0,0,0,0,0,0,0,0,0,0,0,0,0,0,0,0,0,0,0,0,0,0,0,0,0,0,0,0,0],"id":38,"left_children":[1,3,5,-1,7,-1,9,11,13,15,-1,-1,-1,17,19,21,23,-1,25,-1,-1,27,29,-1,-1,-1,-1,-1,-1,31,33,-1,35,37,39,-1,-1,-1,-1,-1,-1],"loss_changes":[4.7591373E-1,7.2872317E-1,4.281437E-1,0E0,2.5448155E-1,0E0,2.7318996E-1,4.8068285E-2,1.147212E-2,2.241171E-1,0E0,0E0,0E0,2.7362777E-2,2.2067841E-2,4.1353768E-1,6.780426E-1,0E0,2.463562E-2,0E0,0E0,6.8880266E-1,1.112566E-1,0E0,0E0,0E0,0E0,0E0,0E0,1.09199814E-1,2.2087476E-1,0E0,8.447796E-2,1.3394424E-1,2.5280396E-2,0E0,0E0,0E0,0E0,0E0,0E0],"parents":[2147483647,0,0,1,1,2,2,4,4,6,6,7,7,8,8,9,9,13,13,14,14,15,15,16,16,18,18,21,21,22,22,29,29,30,30,32,32,33,33,34,34],"right_children":[2,4,6,-1,8,-1,10,12,14,16,-1,-1,-1,18,20,22,24,-1,26,-1,-1,28,30,-1,-1,-1,-1,-1,-1,32,34,-1,36,38,40,-1,-1,-1,-1,-1,-1],"split_conditions":[1.264E2,1.55008E1,-1.364E0,1.3521811E-1,-6.73E-1,-9.477404E-2,4.84793E1,2.49417E1,2.961E1,5.86E2,-5.6748696E-2,7.119775E-2,-0E0,4E0,3.148E1,2E0,6.44E-1,-0E0,2.56404E1,1.7348018E-2,-0E0,1.493E1,2.25099E1,-1.136258E-1,2.085921E-3,-2.3133805E-2,-0E0,-0E0,1.3943332E-1,2.55E0,2.44841E1,9.15335E-3,4.237E2,9E0,1.522E2,-0E0,-2.4120841E-2,-0E0,8.147448E-2,-1.9076379E-2,6.5082795E-4],"split_indices":[15,0,17,0,18,0,0,1,13,15,0,0,0,20,13,20,17,0,0,0,0,14,0,0,0,0,0,0,0,12,0,0,11,20,15,0,0,0,0,0,0],"split_type":[0,0,0,0,0,0,0,0,0,0,0,0,0,0,0,0,0,0,0,0,0,0,0,0,0,0,0,0,0,0,0,0,0,0,0,0,0,0,0,0,0],"sum_hessian":[2.09E2,5.5E1,1.54E2,5E0,5E1,5E0,1.49E2,1.1E1,3.9E1,1.41E2,8E0,6E0,5E0,2.4E1,1.5E1,1.29E2,1.2E1,5E0,1.9E1,7E0,8E0,1.1E1,1.18E2,6E0,6E0,1E1,9E0,6E0,5E0,5.4E1,6.4E1,6E0,4.8E1,1E1,5.4E1,7E0,4.1E1,5E0,5E0,6E0,4.8E1],"tree_param":{"num_deleted":"0","num_feature":"23","num_nodes":"41","size_leaf_vector":"1"}},{"base_weights":[2.6417073E-2,1.3283685E-2,1.1050285E-1,4.858652E-2,-2.5076369E-2,-0E0,2.3030177E-1,-0E0,-8.556699E-2,3.9910536E-2,-1.1835149E-2,-0E0,2.0655556E-1,4.575648E-3,-4.144386E-2,-0E0,7.0082106E-2,-4.886097E-2,4.8770155E-3,8.470621E-2,-1.2833475E-1,-0E0,2.4497481E-2,3.375176E-2,-0E0,-2.6727194E-2,-0E0,-0E0,3.127278E-2,2.558304E-2,-1.4208344E-2,-0E0,-2.3494456E-3,1.722181E-2,-0E0,4.253627E-2,-0E0,-0E0,-4.1913237E-2,-0E0,1.9259803E-2,-0E0,1.0994549E-2,-0E0,-1.6780315E-2],"categories":[],"categories_nodes":[],"categories_segments":[],"categories_sizes":[],"default_left":[0,0,0,0,0,0,0,0,0,0,0,0,0,0,0,0,0,0,0,0,0,0,0,0,0,0,0,0,0,0,0,0,0,0,0,0,0,0,0,0,0,0,0,0,0],"id":39,"left_children":[1,3,-1,5,7,9,11,13,-1,15,17,19,-1,21,-1,-1,23,25,27,-1,-1,29,-1,-1,-1,-1,31,-1,33,35,37,-1,-1,-1,-1,39,-1,41,43,-1,-1,-1,-1,-1,-1],"loss_changes":[6.01053E-1,2.650897E-1,0E0,8.1313014E-1,3.703337E-1,5.4044176E-2,1.8755789E0,1.19643375E-1,0E0,4.2228766E-2,6.440617E-2,1.6854029E0,0E0,4.6761446E-2,0E0,0E0,8.1390046E-2,4.3043874E-2,1.9923452E-2,0E0,0E0,1.9107446E-2,0E0,0E0,0E0,0E0,5.6975265E-4,0E0,2.0271119E-2,8.280987E-3,3.990856E-2,0E0,0E0,0E0,0E0,3.1779483E-3,0E0,1.3862671E-2,1.5373789E-2,0E0,0E0,0E0,0E0,0E0,0E0],"parents":[2147483647,0,0,1,1,3,3,4,4,5,5,6,6,7,7,9,9,10,10,11,11,13,13,16,16,17,17,18,18,21,21,26,26,28,28,29,29,30,30,35,35,37,37,38,38],"right_children":[2,4,-1,6,8,10,12,14,-1,16,18,20,-1,22,-1,-1,24,26,28,-1,-1,30,-1,-1,-1,-1,32,-1,34,36,38,